~o
<STREAMINFO> 1 13
<VECSIZE> 13<NULLD><MFCC_0><DIAGC>
~h "dd"
<BEGINHMM>
<NUMSTATES> 12
<STATE> 2
<MEAN> 13
 -1.126315e+01 1.978137e+00 1.199684e+00 -3.154540e+00 -6.477573e+00 -3.767282e+00 -3.796359e+00 -6.859848e+00 -4.805835e+00 -1.768249e+00 -1.165392e+00 -1.752595e+00 6.359431e+01
<VARIANCE> 13
 2.368722e+01 2.807320e+01 5.423394e+01 3.460608e+01 3.852869e+01 3.113796e+01 3.772879e+01 3.185096e+01 3.235299e+01 3.305405e+01 3.518305e+01 2.289196e+01 4.547944e+01
<GCONST> 6.959428e+01
<STATE> 3
<MEAN> 13
 -5.951663e+00 1.506440e+00 1.555234e+01 -7.807635e+00 -1.900745e+01 -1.159225e+00 -1.434026e+01 -6.777589e+00 -1.230875e+01 -2.892572e+00 1.863344e+00 -4.383669e+00 7.283582e+01
<VARIANCE> 13
 1.254056e+01 2.992824e+01 4.403579e+01 8.716258e+01 3.312577e+01 4.541514e+01 6.567142e+01 5.559727e+01 5.300467e+01 6.074931e+01 7.414332e+01 4.927474e+01 1.007899e+01
<GCONST> 7.218291e+01
<STATE> 4
<MEAN> 13
 1.672315e+00 3.670376e+00 5.343436e+00 2.750048e+00 -1.561026e+01 -3.724973e+00 -7.873506e+00 -1.211986e+01 -1.049210e+01 8.806129e-01 -3.491902e+00 -7.386088e+00 6.849017e+01
<VARIANCE> 13
 9.052889e+00 1.789263e+01 3.261990e+01 5.834463e+01 3.098711e+01 4.702789e+01 6.558976e+01 5.611284e+01 5.082265e+01 6.339764e+01 7.638631e+01 4.633084e+01 1.045219e+01
<GCONST> 7.062244e+01
<STATE> 5
<MEAN> 13
 3.782027e-01 5.258591e+00 9.336379e+00 1.221618e+00 -8.849102e+00 -7.833730e-01 -1.124377e+01 -1.062796e+01 -8.348667e+00 1.794725e+00 -4.523245e+00 -3.828206e+00 6.240899e+01
<VARIANCE> 13
 1.095247e+01 2.963410e+01 2.039005e+01 5.331478e+01 3.387569e+01 2.337021e+01 5.501170e+01 2.242034e+01 2.891413e+01 2.643528e+01 3.358487e+01 2.119954e+01 1.315196e+01
<GCONST> 6.624149e+01
<STATE> 6
<MEAN> 13
 -5.586218e+00 9.121879e-01 -9.774960e-01 -4.498294e+00 -5.307916e+00 -7.851280e+00 -9.384724e+00 -7.173007e+00 -4.721981e-02 -1.653003e+00 -5.075412e+00 -2.649291e+00 7.122186e+01
<VARIANCE> 13
 2.490557e+01 1.791560e+01 3.346126e+01 4.591254e+01 4.907331e+01 3.806328e+01 5.217536e+01 6.176950e+01 7.558325e+01 4.562392e+01 3.510012e+01 2.996476e+01 2.968395e+01
<GCONST> 7.143538e+01
<STATE> 7
<MEAN> 13
 1.150134e-01 -4.660681e+00 -4.100202e-02 -1.761399e+01 -3.880352e+00 3.564665e+00 -1.978156e+01 -1.767712e+00 -7.522501e+00 4.185243e+00 -9.701596e-01 -6.334456e+00 7.340502e+01
<VARIANCE> 13
 7.605346e+00 2.343197e+01 2.649252e+01 5.556213e+01 2.384841e+01 2.891967e+01 3.295731e+01 4.270512e+01 5.817701e+01 4.469284e+01 4.177036e+01 2.778589e+01 1.609715e+01
<GCONST> 6.785415e+01
<STATE> 8
<MEAN> 13
 3.309864e+00 -9.820220e-02 -2.580956e+00 -1.297493e+01 -1.203348e+01 8.607882e+00 -9.042599e+00 -5.267374e+00 -4.515699e+00 -4.317094e+00 1.176867e+00 -7.560080e+00 7.225603e+01
<VARIANCE> 13
 7.804058e+00 1.562406e+01 3.613531e+01 5.947531e+01 3.794631e+01 4.003284e+01 6.312107e+01 4.932927e+01 5.484880e+01 4.707982e+01 5.436701e+01 3.682496e+01 1.297886e+01
<GCONST> 6.975982e+01
<STATE> 9
<MEAN> 13
 -2.395290e-01 -1.322321e+00 -5.188495e+00 -1.278661e+01 -8.913996e+00 -7.634088e+00 -1.514179e+01 -8.713075e+00 -1.289686e+01 -7.426406e+00 -1.063493e+01 -4.611090e+00 6.220332e+01
<VARIANCE> 13
 1.398950e+01 3.689965e+01 5.988235e+01 5.552614e+01 6.125433e+01 6.661796e+01 5.979149e+01 8.037981e+01 7.323530e+01 5.286403e+01 4.854498e+01 6.328538e+01 7.004139e+01
<GCONST> 7.558041e+01
<STATE> 10
<MEAN> 13
 1.935713e+00 5.354969e+00 5.382682e+00 -5.838035e-01 -7.065111e+00 2.032616e+00 -6.524835e+00 -9.264194e+00 -6.696723e+00 -1.647762e-01 -6.237152e+00 -4.503754e+00 6.312444e+01
<VARIANCE> 13
 7.432485e+00 1.443089e+01 2.349285e+01 4.121818e+01 4.345509e+01 3.386061e+01 4.752387e+01 4.824201e+01 3.942355e+01 5.394984e+01 2.390092e+01 2.799589e+01 2.068008e+01
<GCONST> 6.767220e+01
<STATE> 11
<MEAN> 13
 -5.354892e+00 9.712636e-01 6.925070e-01 -3.114025e+00 -2.732962e+00 -8.689143e-01 -4.648272e+00 -4.334177e+00 -3.590675e+00 -1.778771e+00 -2.608732e+00 -2.623489e+00 5.834373e+01
<VARIANCE> 13
 2.032498e+01 3.108069e+01 2.936213e+01 4.321815e+01 3.178732e+01 3.569491e+01 4.619767e+01 2.894832e+01 2.715244e+01 2.531992e+01 2.344235e+01 2.032291e+01 3.769405e+01
<GCONST> 6.804818e+01
<TRANSP> 12
 0.000000e+00 1.000000e+00 0.000000e+00 0.000000e+00 0.000000e+00 0.000000e+00 0.000000e+00 0.000000e+00 0.000000e+00 0.000000e+00 0.000000e+00 0.000000e+00
 0.000000e+00 5.833021e-01 4.166979e-01 0.000000e+00 0.000000e+00 0.000000e+00 0.000000e+00 0.000000e+00 0.000000e+00 0.000000e+00 0.000000e+00 0.000000e+00
 0.000000e+00 0.000000e+00 8.238342e-01 1.761659e-01 0.000000e+00 0.000000e+00 0.000000e+00 0.000000e+00 0.000000e+00 0.000000e+00 0.000000e+00 0.000000e+00
 0.000000e+00 0.000000e+00 0.000000e+00 8.356555e-01 1.643446e-01 0.000000e+00 0.000000e+00 0.000000e+00 0.000000e+00 0.000000e+00 0.000000e+00 0.000000e+00
 0.000000e+00 0.000000e+00 0.000000e+00 0.000000e+00 7.988545e-01 2.011455e-01 0.000000e+00 0.000000e+00 0.000000e+00 0.000000e+00 0.000000e+00 0.000000e+00
 0.000000e+00 0.000000e+00 0.000000e+00 0.000000e+00 0.000000e+00 5.604566e-01 4.395434e-01 0.000000e+00 0.000000e+00 0.000000e+00 0.000000e+00 0.000000e+00
 0.000000e+00 0.000000e+00 0.000000e+00 0.000000e+00 0.000000e+00 0.000000e+00 7.755395e-01 2.244605e-01 0.000000e+00 0.000000e+00 0.000000e+00 0.000000e+00
 0.000000e+00 0.000000e+00 0.000000e+00 0.000000e+00 0.000000e+00 0.000000e+00 0.000000e+00 8.339012e-01 1.660988e-01 0.000000e+00 0.000000e+00 0.000000e+00
 0.000000e+00 0.000000e+00 0.000000e+00 0.000000e+00 0.000000e+00 0.000000e+00 0.000000e+00 0.000000e+00 8.101663e-01 1.898337e-01 0.000000e+00 0.000000e+00
 0.000000e+00 0.000000e+00 0.000000e+00 0.000000e+00 0.000000e+00 0.000000e+00 0.000000e+00 0.000000e+00 0.000000e+00 8.286886e-01 1.713114e-01 0.000000e+00
 0.000000e+00 0.000000e+00 0.000000e+00 0.000000e+00 0.000000e+00 0.000000e+00 0.000000e+00 0.000000e+00 0.000000e+00 0.000000e+00 7.306399e-01 2.693601e-01
 0.000000e+00 0.000000e+00 0.000000e+00 0.000000e+00 0.000000e+00 0.000000e+00 0.000000e+00 0.000000e+00 0.000000e+00 0.000000e+00 0.000000e+00 0.000000e+00
<ENDHMM>
