~o
<STREAMINFO> 1 13
<VECSIZE> 13<NULLD><MFCC_0><DIAGC>
~h "\345\276\256"
<BEGINHMM>
<NUMSTATES> 6
<STATE> 2
<MEAN> 13
 2.829970e+00 -5.791974e+00 -4.879880e+00 -8.333220e+00 -9.238148e+00 -1.569170e+01 6.198453e+00 -6.388754e-01 -4.626525e+00 -3.747001e+00 -1.245799e+01 -2.915004e+00 6.701489e+01
<VARIANCE> 13
 1.510289e+01 9.526290e+00 2.542564e+01 4.901686e+01 4.490080e+01 3.351973e+01 2.970140e+01 2.849934e+01 2.945007e+01 4.314082e+01 2.266171e+01 2.608211e+01 2.407662e+01
<GCONST> 6.675726e+01
<STATE> 3
<MEAN> 13
 -2.731480e+00 7.835577e+00 -7.213035e+00 -2.125005e+01 -6.595262e+00 -1.831293e+01 -1.637247e+00 1.672611e+00 -2.557333e+00 -1.689871e+00 -9.763478e+00 -7.453032e+00 6.987366e+01
<VARIANCE> 13
 3.404168e+00 1.965662e+01 2.795206e+00 6.237298e+00 4.734869e+00 2.535683e+01 6.067045e+00 5.079938e+00 8.596127e+00 3.710360e+00 5.664055e+00 3.756320e+00 1.269852e+00
<GCONST> 4.592936e+01
<STATE> 4
<MEAN> 13
 -1.767200e+00 1.024889e+01 -1.613855e+00 -1.308775e+01 -1.135376e+01 -1.767582e+01 -1.364634e+00 -3.727910e+00 -3.508758e+00 -4.218847e+00 -8.992684e+00 -5.332641e+00 6.309937e+01
<VARIANCE> 13
 5.051024e+00 1.483676e+01 2.981474e+01 1.149793e+01 1.269028e+01 3.641769e+01 1.320075e+01 1.832782e+01 2.356333e+01 1.708510e+01 1.323245e+01 5.972818e+00 7.517466e+00
<GCONST> 5.805587e+01
<STATE> 5
<MEAN> 13
 -4.632814e+00 -2.162086e-01 2.253486e+00 -4.357133e+00 -6.128674e-01 -8.140526e+00 2.139057e+00 -5.161603e+00 5.005928e-02 -1.089633e+00 -5.483811e+00 -1.858232e+00 5.726301e+01
<VARIANCE> 13
 2.779945e+00 1.122677e+01 8.447784e+00 3.106777e+01 1.118242e+01 3.411576e+01 2.033448e+01 3.156945e+01 2.344170e+01 2.540357e+01 3.016890e+01 2.129367e+01 9.728797e-01
<GCONST> 5.813895e+01
<TRANSP> 6
 0.000000e+00 1.000000e+00 0.000000e+00 0.000000e+00 0.000000e+00 0.000000e+00
 0.000000e+00 8.711412e-01 1.288588e-01 0.000000e+00 0.000000e+00 0.000000e+00
 0.000000e+00 0.000000e+00 8.338932e-01 1.661068e-01 0.000000e+00 0.000000e+00
 0.000000e+00 0.000000e+00 0.000000e+00 8.326102e-01 1.673898e-01 0.000000e+00
 0.000000e+00 0.000000e+00 0.000000e+00 0.000000e+00 8.093519e-01 1.906481e-01
 0.000000e+00 0.000000e+00 0.000000e+00 0.000000e+00 0.000000e+00 0.000000e+00
<ENDHMM>
