~o
<STREAMINFO> 1 52
<VECSIZE> 52<NULLD><MFCC_D_A_T_0><DIAGC>
~h "dd"
<BEGINHMM>
<NUMSTATES> 12
<STATE> 2
<NUMMIXES> 3
<MIXTURE> 1 3.589732e-01
<MEAN> 52
 -6.190870e+00 2.608205e+00 1.625434e+01 -1.999108e+00 -1.782743e+01 -4.130632e+00 -1.158069e+01 -5.819716e+00 -1.094231e+01 -4.973322e+00 3.729081e+00 -3.417161e+00 7.147484e+01 1.503805e+00 -5.714175e-01 3.399192e+00 -9.070820e-01 -3.359071e+00 8.009893e-01 -2.547802e+00 3.760283e-01 -1.859977e+00 -4.366633e-01 1.497255e+00 -7.755898e-01 1.974577e+00 7.969447e-02 -1.241523e-01 -1.353627e+00 -1.649210e-01 8.721485e-01 3.265134e-01 5.778456e-01 -2.168414e-02 3.859990e-01 5.922292e-01 -4.090434e-01 -1.817734e-01 -8.371344e-01 -2.704175e-01 1.649107e-01 -5.965359e-01 1.883833e-01 5.283582e-01 -1.721666e-01 5.129700e-01 -7.975165e-02 2.714195e-01 1.048635e-01 -2.402176e-01 7.205271e-02 -1.594148e-01
<VARIANCE> 52
 1.132552e+01 2.835731e+01 3.141935e+01 5.179419e+01 3.923095e+01 3.700075e+01 4.914009e+01 4.080107e+01 4.742485e+01 3.867878e+01 2.702645e+01 2.801707e+01 1.479871e+01 2.750877e+00 2.271153e+00 7.694182e+00 3.507345e+00 3.306494e+00 4.090248e+00 4.811021e+00 3.555204e+00 4.928579e+00 4.604964e+00 3.106492e+00 3.064566e+00 1.093399e+00 3.830893e-01 4.382112e-01 8.513588e-01 4.850614e-01 7.641211e-01 6.542852e-01 8.920257e-01 5.804006e-01 6.926575e-01 5.898650e-01 5.822629e-01 4.426456e-01 1.729171e-01 9.546150e-02 9.105865e-02 2.848206e-01 1.342693e-01 1.672958e-01 1.910897e-01 1.964487e-01 1.639610e-01 2.002095e-01 1.939344e-01 1.470204e-01 1.181206e-01 5.152997e-02
<GCONST> 1.233135e+02
<MIXTURE> 2 1.548465e-01
<MEAN> 52
 -1.213171e+01 -5.674896e-01 6.450625e+00 -1.895698e+01 -1.874494e+01 -6.854201e+00 -1.698642e+01 -1.457071e+01 -1.045010e+01 2.244169e+00 -1.291890e+01 5.642198e-01 7.093407e+01 -2.249794e-01 -5.133813e-02 2.408141e+00 -5.058932e+00 -1.367422e+00 -2.815145e-01 -3.311921e+00 -1.001936e+00 -1.295770e+00 -4.063540e-01 -4.329327e+00 1.020234e+00 2.298252e+00 2.485353e-01 -8.037686e-02 -8.773582e-01 3.551343e-01 1.515457e+00 6.417603e-01 5.878389e-01 9.604371e-01 6.206213e-01 -7.592337e-01 -5.386635e-02 -1.182276e-01 -1.199246e+00 9.285662e-03 3.549587e-02 -3.949435e-01 6.871150e-01 1.365594e-01 8.447341e-02 3.990012e-01 1.546963e-01 1.922956e-01 5.414983e-02 6.530347e-01 -1.624078e-01 -1.582894e-01
<VARIANCE> 52
 8.758929e+00 2.176657e+01 2.416030e+01 4.778897e+01 2.377812e+01 2.364453e+01 4.454276e+01 3.050683e+01 3.427909e+01 4.073662e+01 6.685701e+01 4.073092e+01 1.755644e+01 9.900207e-01 1.625697e+00 3.387728e+00 2.411789e+00 7.302518e+00 4.043978e+00 4.606706e+00 5.394981e+00 3.511830e+00 4.913766e+00 3.052843e+00 4.622979e+00 3.658182e+00 1.858675e-01 2.485898e-01 6.228359e-01 9.691478e-01 5.447914e-01 6.001683e-01 8.547555e-01 5.806706e-01 4.924161e-01 5.628350e-01 1.350808e+00 6.447319e-01 2.103888e-01 3.866991e-02 6.142436e-02 1.373865e-01 7.450660e-02 3.217135e-01 1.862190e-01 2.173394e-01 2.043587e-01 1.596493e-01 2.006317e-01 1.082290e-01 1.801440e-01 1.546500e-01
<GCONST> 1.212248e+02
<MIXTURE> 3 4.861802e-01
<MEAN> 52
 -1.152353e+01 -2.089393e-01 -1.952975e+00 -4.232258e+00 -5.295832e+00 -2.867968e+00 -3.651962e+00 -5.966306e+00 -3.460366e+00 -1.210690e+00 -2.426760e+00 -2.418820e+00 6.192738e+01 -3.502554e-01 6.313344e-01 2.540453e+00 -4.145069e-01 -2.524321e+00 -4.341458e-01 -1.107699e+00 -7.675746e-01 -1.081679e+00 -1.952556e-01 5.414537e-01 -1.354927e-01 3.256044e+00 5.703863e-01 4.523150e-02 9.632459e-01 -2.275754e-01 -6.490784e-01 6.275205e-02 -7.759373e-01 -7.282927e-02 -4.834230e-01 -1.600314e-01 -1.380976e-01 -7.670058e-02 1.526228e-01 6.040678e-02 -1.162966e-01 -3.662620e-01 -4.155341e-02 3.248189e-01 8.909412e-02 1.134046e-01 1.288038e-01 1.331723e-01 2.874072e-02 -1.213415e-01 -1.164759e-02 -3.962545e-01
<VARIANCE> 52
 2.361885e+01 3.305484e+01 4.959554e+01 3.547096e+01 4.199203e+01 3.065541e+01 3.575719e+01 3.400648e+01 3.084350e+01 3.015166e+01 3.720710e+01 2.926260e+01 5.300146e+01 2.761387e+00 2.544413e+00 7.749452e+00 4.670279e+00 5.928270e+00 3.382296e+00 5.504172e+00 4.391086e+00 4.242016e+00 3.989007e+00 3.593679e+00 2.997065e+00 3.849299e+00 6.484491e-01 4.536699e-01 1.043871e+00 9.360619e-01 7.807552e-01 6.769792e-01 9.205080e-01 7.844720e-01 6.959090e-01 7.883134e-01 8.353540e-01 5.576081e-01 6.186523e-01 1.097558e-01 9.814179e-02 3.289510e-01 1.561372e-01 2.836224e-01 1.409133e-01 2.375334e-01 1.768703e-01 1.683705e-01 1.796472e-01 1.310890e-01 1.065911e-01 1.562538e-01
<GCONST> 1.324705e+02
<STATE> 3
<NUMMIXES> 3
<MIXTURE> 1 4.159811e-01
<MEAN> 52
 -5.859867e+00 9.998476e-01 1.613690e+01 -8.535307e+00 -1.969587e+01 -2.486059e-01 -1.288127e+01 -6.191943e+00 -1.201976e+01 -2.654723e+00 3.696630e+00 -5.445194e+00 7.315858e+01 7.054901e-01 3.203508e-01 -1.285360e+00 -1.530594e-02 5.286832e-01 5.072383e-01 7.549204e-01 3.359173e-02 -4.251786e-01 9.105011e-01 -1.122943e-01 -8.179970e-01 -2.743163e-01 1.829362e-01 1.426611e-01 -8.874391e-01 8.121413e-01 8.133077e-01 -4.669037e-01 4.931170e-01 -2.427671e-01 2.331223e-01 2.154097e-01 -4.916624e-01 6.165195e-02 -5.647492e-01 3.682502e-02 -6.668117e-02 3.550878e-01 8.444081e-02 -2.193683e-01 -7.950871e-02 -2.430938e-01 -1.097043e-01 -6.519349e-04 -1.319108e-01 -7.776058e-03 1.013825e-01 1.377651e-01
<VARIANCE> 52
 1.375689e+01 2.835283e+01 4.525290e+01 7.995245e+01 3.147978e+01 4.987715e+01 5.825048e+01 4.878227e+01 4.908007e+01 5.371146e+01 4.701877e+01 4.090387e+01 1.568324e+01 5.718839e-01 7.483199e-01 1.692474e+00 3.079171e+00 2.059308e+00 3.381207e+00 2.282009e+00 1.936474e+00 1.886494e+00 2.203877e+00 1.906757e+00 1.618953e+00 5.436618e-01 1.917119e-01 2.299503e-01 5.681482e-01 4.502034e-01 5.058714e-01 7.963918e-01 8.758204e-01 6.055399e-01 6.079584e-01 5.945113e-01 5.690833e-01 3.962903e-01 9.806519e-02 3.572481e-02 4.750255e-02 9.431098e-02 1.320712e-01 1.103982e-01 1.683142e-01 1.165838e-01 1.161418e-01 1.191826e-01 1.102329e-01 1.029794e-01 7.089836e-02 2.082269e-02
<GCONST> 1.063699e+02
<MIXTURE> 2 1.890233e-01
<MEAN> 52
 -1.229790e+01 -5.994599e-01 5.104744e+00 -2.970550e+01 -1.161861e+01 -2.339110e+00 -2.141484e+01 -1.042950e+01 -8.298321e+00 -2.795048e+00 -2.207076e+01 1.467789e+00 7.194332e+01 6.832554e-01 1.219996e-01 -9.438824e-01 -3.725844e-02 1.153078e+00 7.076322e-01 -1.039166e+00 8.545639e-01 3.251919e-01 -1.292973e+00 -4.536854e-01 -3.483185e-02 -4.359800e-01 2.489211e-01 -1.064642e-01 -3.487083e-01 1.154095e+00 -1.944991e-01 -4.312332e-01 4.728357e-01 -7.994749e-02 -1.554491e-01 1.272413e-01 6.068088e-01 -1.514305e-01 -2.559931e-01 -1.995172e-02 -2.680620e-02 1.649723e-01 -1.038728e-01 -2.250581e-01 -2.408563e-01 4.561093e-02 -2.248049e-01 -1.749449e-01 1.679520e-01 -1.491220e-01 3.428185e-02 1.457607e-01
<VARIANCE> 52
 1.018564e+01 1.922782e+01 2.138201e+01 4.118699e+01 3.219184e+01 2.231385e+01 3.873483e+01 4.516811e+01 3.863927e+01 3.699678e+01 2.858159e+01 3.959536e+01 1.107427e+01 5.659020e-01 7.639771e-01 1.132630e+00 3.838980e+00 2.054113e+00 2.025257e+00 1.682340e+00 2.558328e+00 1.499311e+00 2.146998e+00 1.707727e+00 2.261987e+00 2.009743e-01 7.056432e-02 1.386400e-01 3.540529e-01 3.207317e-01 4.105066e-01 5.431958e-01 5.597587e-01 4.635995e-01 3.811493e-01 4.360910e-01 4.990072e-01 4.126867e-01 7.633460e-02 1.834945e-02 3.288700e-02 7.530712e-02 8.178221e-02 1.460874e-01 9.913011e-02 1.216152e-01 1.000866e-01 7.810164e-02 1.062943e-01 9.160569e-02 9.323969e-02 3.039151e-02
<GCONST> 9.301158e+01
<MIXTURE> 3 3.949956e-01
<MEAN> 52
 -2.507718e-01 2.995091e+00 7.011247e+00 3.518544e-01 -1.491473e+01 -3.620270e+00 -8.157228e+00 -7.701045e+00 -1.223954e+01 2.224504e-01 5.738102e-01 -7.521667e+00 6.940417e+01 1.592203e+00 9.246391e-03 -1.588479e+00 2.299621e+00 1.251584e+00 -5.941768e-01 5.193744e-01 -1.825869e+00 6.513906e-01 1.081502e+00 -1.914801e+00 -3.366117e-03 -1.314571e+00 -2.075411e-01 -1.764942e-02 5.693626e-01 -2.787651e-01 -2.595678e-01 3.007370e-01 -3.190504e-01 -2.792916e-01 2.520192e-01 -1.325193e-01 -1.172760e-01 3.208786e-01 1.222388e-02 -1.744180e-01 4.851178e-02 2.092903e-01 -3.556347e-01 -1.888580e-01 1.499679e-01 -7.765853e-02 2.652563e-01 -1.210699e-01 -1.267518e-01 2.898347e-01 -3.533690e-02 1.707146e-01
<VARIANCE> 52
 1.378828e+01 2.458152e+01 4.964091e+01 7.603850e+01 4.422770e+01 4.555797e+01 6.533718e+01 5.917762e+01 5.398168e+01 6.244447e+01 5.528860e+01 4.484860e+01 2.027872e+01 6.052819e-01 9.345263e-01 2.277507e+00 3.131166e+00 2.962542e+00 5.000353e+00 4.047849e+00 4.480496e+00 3.428526e+00 4.196289e+00 3.119920e+00 2.421330e+00 5.208205e-01 1.384579e-01 1.612198e-01 2.977775e-01 5.936734e-01 4.868310e-01 6.632978e-01 4.596411e-01 7.265058e-01 5.449526e-01 6.026846e-01 5.958999e-01 3.333071e-01 1.112354e-01 2.578303e-02 4.344379e-02 1.299052e-01 1.343434e-01 1.403199e-01 2.008548e-01 1.643475e-01 1.767183e-01 1.410436e-01 1.744057e-01 1.299561e-01 9.112360e-02 2.255161e-02
<GCONST> 1.129007e+02
<STATE> 4
<NUMMIXES> 3
<MIXTURE> 1 5.336540e-01
<MEAN> 52
 1.946795e+00 3.157505e+00 7.739918e+00 2.747450e+00 -1.381312e+01 -1.144058e+00 -1.055479e+01 -1.329625e+01 -8.901002e+00 2.685577e+00 -3.645961e+00 -5.869404e+00 6.689989e+01 1.348911e-01 4.952030e-01 2.462047e-01 6.607732e-03 1.186853e-01 4.302188e-01 -2.824676e-01 -3.887465e-01 2.613033e-01 3.225583e-02 -5.147302e-01 3.323393e-01 -5.805318e-01 -2.364643e-01 1.205209e-01 1.566079e-01 -2.896146e-01 1.147542e-01 -2.465181e-02 -1.434803e-03 4.059229e-01 -9.862301e-02 -1.677818e-01 2.145395e-01 -2.100520e-02 1.298667e-02 1.453700e-02 -5.763178e-02 -1.546079e-01 7.618657e-02 1.520573e-01 -1.116229e-01 7.556215e-02 4.590488e-02 5.057180e-02 1.241167e-02 -1.544966e-02 -4.135658e-02 -7.022772e-03
<VARIANCE> 52
 6.536233e+00 2.614911e+01 2.985200e+01 5.223442e+01 3.119521e+01 3.155856e+01 6.825896e+01 3.329586e+01 3.826875e+01 4.006571e+01 3.649591e+01 3.372944e+01 1.114766e+01 2.039477e-01 5.455041e-01 7.286116e-01 7.965340e-01 9.748237e-01 1.093299e+00 1.302732e+00 1.553297e+00 1.569890e+00 1.210142e+00 1.190699e+00 8.747689e-01 2.219601e-01 8.282576e-02 1.101842e-01 1.564515e-01 3.139830e-01 2.786461e-01 3.022245e-01 3.348799e-01 3.705944e-01 3.205950e-01 4.010879e-01 3.158822e-01 2.247162e-01 6.922246e-02 1.442059e-02 2.636834e-02 3.945959e-02 4.871958e-02 5.156970e-02 5.856494e-02 6.340612e-02 6.984914e-02 8.008917e-02 6.464827e-02 6.033440e-02 5.063489e-02 1.689694e-02
<GCONST> 7.662747e+01
<MIXTURE> 2 1.599633e-01
<MEAN> 52
 -6.016867e+00 -1.467796e+00 -3.883428e-01 -1.841334e+01 -1.085284e+01 -6.833337e+00 -2.036669e+01 -1.165019e+01 -1.116032e+01 -6.202141e+00 -2.207508e+01 -2.667901e-01 6.862385e+01 1.367688e+00 -3.653872e-01 -1.509006e+00 2.985616e+00 -2.545421e-01 -2.661720e+00 2.175771e+00 -9.327369e-01 -1.010374e+00 2.572252e-01 6.769625e-02 -2.245694e-01 -8.531606e-01 -9.910460e-02 6.716320e-02 1.513306e-01 -1.709085e-01 -3.496987e-02 -2.613661e-02 1.417182e-01 -1.367832e-01 -8.060852e-03 1.957669e-01 7.283144e-02 4.538885e-02 1.780563e-02 -9.520569e-02 7.725137e-02 1.501269e-01 -3.360139e-01 5.841314e-02 3.878769e-01 -3.851892e-01 1.712750e-01 1.289310e-01 -1.337982e-01 -1.307420e-02 2.467640e-02 4.447960e-02
<VARIANCE> 52
 1.556374e+01 2.699081e+01 2.168420e+01 5.882631e+01 3.766756e+01 4.811761e+01 4.859715e+01 7.213628e+01 3.431639e+01 5.910282e+01 3.244357e+01 4.532015e+01 1.043696e+01 2.962581e-01 6.334724e-01 1.186972e+00 1.377979e+00 1.774765e+00 2.632719e+00 1.535791e+00 1.797825e+00 2.258422e+00 2.845479e+00 1.524022e+00 1.742811e+00 2.213081e-01 7.796275e-02 1.159703e-01 2.347399e-01 5.393537e-01 3.161942e-01 8.212461e-01 7.475467e-01 4.152901e-01 4.080973e-01 5.244407e-01 2.314764e-01 2.883725e-01 3.537342e-02 1.072443e-02 2.297253e-02 4.270691e-02 7.549252e-02 7.514008e-02 1.084848e-01 7.568187e-02 6.420617e-02 7.207129e-02 8.987063e-02 5.307528e-02 7.490629e-02 6.730450e-03
<GCONST> 8.775333e+01
<MIXTURE> 3 3.063827e-01
<MEAN> 52
 -8.245421e-01 -2.248942e+00 -2.967871e+00 -1.188960e+01 -1.310511e+01 -1.334661e+01 -1.585025e+01 -1.349249e+01 -1.299754e+01 -6.065165e+00 -2.155223e+01 6.209741e-01 6.393050e+01 3.616270e-01 4.962344e-01 9.423593e-02 2.652786e-01 -3.414979e-01 7.879267e-02 -2.740596e-01 -2.499072e-01 2.271172e-01 -3.105480e-01 4.459399e-01 -3.534363e-01 -6.133875e-01 -1.684489e-01 1.288249e-01 1.885473e-01 -5.877273e-02 -3.542780e-02 2.638124e-01 -1.347510e-01 1.334957e-01 5.204314e-02 -1.136699e-01 1.466826e-01 -1.386940e-01 -2.916028e-02 -9.236819e-03 -4.183228e-02 -4.339944e-02 1.364718e-01 9.425586e-02 -9.352438e-02 1.413097e-01 3.862203e-03 -1.865673e-02 2.657063e-02 1.478357e-02 1.003237e-02 -2.059126e-02
<VARIANCE> 52
 1.119176e+01 3.188104e+01 1.204708e+01 3.228480e+01 4.712462e+01 3.166444e+01 2.584512e+01 5.854316e+01 3.725654e+01 4.763509e+01 7.070677e+01 5.605553e+01 3.147734e+01 1.836423e-01 4.199805e-01 5.305037e-01 6.442432e-01 1.009626e+00 1.057603e+00 8.885069e-01 1.251447e+00 1.167598e+00 1.458651e+00 1.273483e+00 1.217850e+00 1.023783e-01 5.273017e-02 6.000807e-02 1.368798e-01 2.494241e-01 2.377141e-01 2.963535e-01 2.701257e-01 2.625566e-01 2.332474e-01 2.584711e-01 2.663764e-01 1.760520e-01 2.926729e-02 1.138931e-02 1.418534e-02 2.629253e-02 3.681143e-02 4.386794e-02 4.716183e-02 4.308756e-02 4.793584e-02 4.657556e-02 5.087081e-02 5.265382e-02 4.324019e-02 6.015189e-03
<GCONST> 6.737391e+01
<STATE> 5
<NUMMIXES> 3
<MIXTURE> 1 2.787035e-01
<MEAN> 52
 1.053138e+00 7.590722e+00 7.956519e+00 4.327909e+00 -7.925131e+00 -1.920934e+00 -7.443282e+00 -1.140697e+01 -8.479809e+00 2.409195e+00 -5.561287e+00 -5.248710e+00 6.245029e+01 -1.776951e+00 -8.289449e-01 -1.254098e+00 -1.524375e+00 2.545864e+00 -1.068718e+00 -1.923028e-01 1.772983e+00 1.864129e+00 -1.046081e+00 2.703990e-01 3.006562e-01 9.482751e-01 -1.099857e-01 -8.176886e-01 -7.535257e-01 -8.422045e-01 -2.952192e-01 -2.576003e-02 -6.017147e-01 4.152082e-01 7.119058e-01 4.838186e-02 3.955972e-01 -1.642869e-01 1.231642e+00 3.842380e-01 6.970491e-02 9.678488e-02 -9.487298e-03 -4.245552e-01 4.178456e-01 -1.304739e-01 -2.776318e-01 -2.626258e-01 2.565440e-01 3.415708e-02 -7.977404e-02 -7.638860e-02
<VARIANCE> 52
 6.495104e+00 1.018547e+01 1.018373e+01 1.986768e+01 2.981639e+01 2.775713e+01 3.785322e+01 3.606207e+01 3.610555e+01 2.774308e+01 2.843134e+01 3.310122e+01 1.419150e+01 1.247201e+00 1.548346e+00 1.572003e+00 2.889813e+00 2.644065e+00 3.487280e+00 3.832871e+00 3.206670e+00 3.673957e+00 3.887981e+00 3.378006e+00 2.576592e+00 2.176844e+00 1.802912e-01 2.255774e-01 2.405392e-01 3.854691e-01 4.573282e-01 6.096701e-01 6.661121e-01 7.660700e-01 5.674384e-01 5.103559e-01 6.488300e-01 4.069694e-01 1.751861e-01 5.688936e-02 7.170705e-02 6.083231e-02 1.300269e-01 1.046304e-01 1.564255e-01 2.142547e-01 1.565690e-01 1.475853e-01 1.728533e-01 1.246013e-01 1.106954e-01 9.803516e-02
<GCONST> 1.079542e+02
<MIXTURE> 2 2.886815e-01
<MEAN> 52
 -2.148708e+00 2.821172e+00 -2.283723e-01 -7.991345e+00 -1.312453e+01 -1.045452e+01 -1.582870e+01 -1.477827e+01 -1.176065e+01 -8.481695e+00 -1.402012e+01 -4.446549e+00 5.961121e+01 -1.051429e+00 2.360325e-01 6.211028e-01 1.473367e+00 1.321861e+00 4.017539e-01 1.183810e+00 7.829340e-01 6.544730e-01 -4.600620e-01 1.400780e+00 -1.172843e-01 -9.112633e-01 -3.559080e-01 -4.574375e-01 -3.789794e-01 -1.146492e-01 3.124368e-01 -3.449421e-02 3.989117e-01 4.935861e-01 3.484716e-01 2.980082e-01 2.603312e-01 2.721508e-01 5.137870e-01 9.864356e-02 -1.374805e-01 -2.316393e-01 -3.588169e-01 -2.059661e-01 -8.570516e-02 -1.754961e-01 6.936683e-02 4.604802e-02 9.892584e-02 -1.066955e-01 2.751327e-02 3.317779e-01
<VARIANCE> 52
 2.293382e+01 1.831063e+01 1.542614e+01 3.496276e+01 3.542501e+01 2.445803e+01 2.739207e+01 2.233704e+01 2.115155e+01 3.902879e+01 4.095008e+01 3.018160e+01 2.776687e+01 1.080816e+00 1.477652e+00 1.719164e+00 1.766592e+00 2.860336e+00 2.278830e+00 2.576906e+00 2.737894e+00 2.581556e+00 3.083853e+00 3.064090e+00 2.298288e+00 6.988662e-01 2.626244e-01 1.989268e-01 3.669640e-01 5.671260e-01 5.706185e-01 3.910646e-01 3.804391e-01 3.013950e-01 3.909964e-01 4.946195e-01 4.715665e-01 3.668551e-01 5.107541e-01 6.943214e-02 5.231851e-02 6.279840e-02 9.716223e-02 1.353825e-01 1.009858e-01 1.300550e-01 8.633826e-02 9.310684e-02 1.270802e-01 1.459240e-01 8.592097e-02 5.218767e-02
<GCONST> 1.037918e+02
<MIXTURE> 3 4.326150e-01
<MEAN> 52
 1.799093e+00 5.924350e+00 8.863352e+00 2.597075e+00 -1.143441e+01 -3.848740e-01 -9.834969e+00 -1.159465e+01 -8.892488e+00 1.985180e+00 -4.374201e+00 -5.043754e+00 6.336621e+01 -5.640320e-01 4.811868e-01 1.403446e-01 -2.405802e-01 1.608552e+00 -1.718695e-01 3.430692e-01 7.685367e-01 3.455849e-01 -1.970464e-01 -1.347955e-01 1.539697e-01 -1.141497e+00 -4.549965e-01 -3.881330e-01 -4.776850e-01 -3.031551e-01 3.956347e-01 -4.009224e-01 8.739425e-02 3.414010e-01 4.272573e-01 -2.490864e-01 2.135792e-01 3.980812e-02 4.166713e-01 4.109685e-02 -1.834318e-01 -1.994132e-01 -1.310115e-01 -1.830774e-01 1.058824e-02 -1.770041e-01 -6.460790e-02 1.392924e-01 7.029378e-02 2.662128e-03 -1.609204e-02 3.362189e-01
<VARIANCE> 52
 6.973337e+00 1.772702e+01 2.220249e+01 4.727573e+01 2.841776e+01 2.877796e+01 4.323065e+01 3.062983e+01 3.557159e+01 3.380226e+01 2.982488e+01 3.001516e+01 1.389031e+01 3.794674e-01 9.143082e-01 7.664915e-01 1.060828e+00 1.288182e+00 1.588231e+00 2.306395e+00 2.563262e+00 2.051591e+00 1.642578e+00 1.805751e+00 1.414803e+00 3.730092e-01 9.307551e-02 1.652964e-01 2.601691e-01 3.240561e-01 4.020375e-01 4.264370e-01 4.370674e-01 5.541071e-01 5.265716e-01 3.500141e-01 3.383150e-01 3.466576e-01 2.377919e-01 2.924870e-02 4.421610e-02 4.414048e-02 7.092809e-02 6.250492e-02 9.126638e-02 1.239112e-01 1.236184e-01 1.036159e-01 8.693428e-02 8.612315e-02 7.509626e-02 2.895545e-02
<GCONST> 8.999769e+01
<STATE> 6
<NUMMIXES> 3
<MIXTURE> 1 4.200555e-01
<MEAN> 52
 -7.401549e+00 -1.935997e+00 -3.169679e+00 -7.705083e+00 -6.365280e+00 -1.058197e+01 -1.042969e+01 -2.286869e+00 -3.859148e-01 -2.412341e+00 -5.825008e+00 -1.907839e+00 7.287733e+01 5.935854e-01 -2.530740e+00 -2.487479e+00 -4.001636e+00 5.322995e-01 6.405476e-01 -2.488533e+00 1.784553e+00 1.997051e+00 1.234424e+00 -5.201172e-01 -8.412536e-01 3.741926e+00 9.336503e-01 2.642708e-01 2.587183e-01 -2.814654e-01 2.334120e-02 1.322378e+00 -3.814221e-01 -9.036883e-01 -8.234203e-01 3.093838e-01 3.307604e-02 -4.684820e-01 -7.600568e-01 -1.480187e-01 4.007939e-01 2.773963e-01 5.223635e-01 7.781011e-02 2.167349e-02 5.467921e-01 -2.334750e-01 -3.845840e-01 -2.797165e-01 2.316120e-01 1.716859e-01 -6.205263e-01
<VARIANCE> 52
 2.166947e+01 3.008222e+01 3.964109e+01 6.547472e+01 4.027417e+01 4.279318e+01 4.184977e+01 5.437805e+01 4.744299e+01 4.309182e+01 3.526923e+01 2.611771e+01 2.393990e+01 1.935968e+00 1.653027e+00 1.532102e+00 2.628280e+00 5.106053e+00 5.171627e+00 6.692298e+00 6.801169e+00 4.972395e+00 4.005827e+00 6.840154e+00 3.024209e+00 2.344267e+00 4.340213e-01 3.857439e-01 4.200655e-01 7.700454e-01 1.184023e+00 7.526948e-01 1.013783e+00 7.750016e-01 5.623915e-01 8.114817e-01 1.176538e+00 5.426005e-01 4.996085e-01 8.876754e-02 7.567237e-02 6.919131e-02 1.080382e-01 1.872414e-01 2.283268e-01 2.533508e-01 2.694535e-01 1.710086e-01 1.684193e-01 3.097239e-01 1.354984e-01 1.072613e-01
<GCONST> 1.293521e+02
<MIXTURE> 2 3.039921e-01
<MEAN> 52
 -5.653304e+00 2.932237e+00 3.906672e+00 -2.097525e+00 -4.852789e+00 -5.309424e+00 -8.577735e+00 -9.005836e+00 -6.576500e+00 -4.772712e+00 -5.952022e+00 -3.537530e+00 5.932533e+01 -1.995564e+00 -1.786347e+00 -2.502897e+00 -1.573909e+00 3.181279e-01 -1.438447e+00 1.121780e-01 2.220021e+00 2.240859e+00 1.934743e-01 1.237925e+00 6.660076e-01 3.391373e+00 6.777418e-01 -5.423628e-01 -5.681577e-01 -1.187256e+00 -6.604576e-01 1.527114e-01 -1.070460e+00 2.039464e-01 8.873695e-02 5.444473e-01 -3.030439e-01 -2.569256e-01 1.293427e+00 3.919724e-01 2.330075e-01 3.193077e-01 3.719328e-02 1.412003e-01 4.471250e-01 -8.214244e-02 -2.955352e-01 -3.623408e-01 3.825396e-02 -1.749907e-01 -1.875583e-01 -5.337709e-01
<VARIANCE> 52
 2.555933e+01 2.642005e+01 4.231083e+01 3.778274e+01 3.865717e+01 4.322600e+01 3.846257e+01 3.266824e+01 2.565789e+01 3.438254e+01 3.738298e+01 1.769911e+01 3.152759e+01 1.787031e+00 1.848698e+00 2.159867e+00 4.362135e+00 2.982147e+00 4.396483e+00 5.867302e+00 3.516643e+00 3.232896e+00 3.594252e+00 4.529124e+00 2.740399e+00 2.703759e+00 4.326074e-01 4.354688e-01 3.782201e-01 6.426026e-01 7.898245e-01 1.173630e+00 8.847281e-01 8.974403e-01 5.411499e-01 7.605318e-01 1.165488e+00 5.306408e-01 4.202370e-01 7.087565e-02 8.061057e-02 9.354489e-02 1.686703e-01 1.643723e-01 1.760960e-01 2.321451e-01 1.479969e-01 1.317236e-01 1.489333e-01 2.185800e-01 1.247090e-01 1.267017e-01
<GCONST> 1.242987e+02
<MIXTURE> 3 2.759525e-01
<MEAN> 52
 -2.796285e-01 -2.495309e+00 -7.958566e-01 -1.107780e+01 -6.848744e+00 1.754938e+00 -1.999831e+01 -4.616513e+00 4.463374e-01 4.370752e+00 4.725074e-01 -9.190237e+00 7.506261e+01 2.158074e+00 -1.168038e+00 -1.214807e+00 -3.739459e+00 -9.996593e-01 3.945565e+00 -1.869186e+00 -9.007709e-02 -7.035819e-01 9.628912e-01 2.192573e+00 -8.291526e-01 1.169498e+00 1.192676e-01 7.415459e-01 4.536415e-01 6.407397e-01 -1.143800e-01 3.453206e-01 1.530055e+00 -3.577302e-01 -1.181213e+00 -6.807043e-01 -1.288445e-01 5.614759e-01 -1.156820e+00 -4.323336e-01 1.304108e-01 5.770254e-02 4.523992e-01 2.150534e-01 -6.809853e-01 3.755896e-01 1.718923e-01 1.966924e-01 -2.803995e-01 -3.700396e-01 1.586269e-01 -7.286309e-02
<VARIANCE> 52
 1.065099e+01 2.476670e+01 2.851760e+01 5.490334e+01 3.020289e+01 3.622078e+01 5.288211e+01 4.330535e+01 4.148721e+01 4.380013e+01 4.023414e+01 2.492308e+01 1.571074e+01 1.696335e+00 1.635967e+00 2.228140e+00 2.979961e+00 3.254132e+00 3.555988e+00 6.598153e+00 4.538939e+00 3.625500e+00 5.367092e+00 2.983878e+00 3.557132e+00 1.513599e+00 2.590429e-01 2.712955e-01 2.700715e-01 4.350046e-01 5.054533e-01 7.183335e-01 5.833877e-01 6.745787e-01 6.117409e-01 6.922783e-01 6.428928e-01 4.760082e-01 2.059945e-01 6.824826e-02 7.475182e-02 1.104736e-01 1.061600e-01 1.315957e-01 1.362091e-01 2.491247e-01 1.824183e-01 1.442165e-01 1.949166e-01 1.264443e-01 1.707815e-01 7.966472e-02
<GCONST> 1.177720e+02
<STATE> 7
<NUMMIXES> 3
<MIXTURE> 1 4.526621e-01
<MEAN> 52
 1.593247e+00 -1.748790e+00 -5.535086e+00 -1.635240e+01 -5.879046e+00 6.880887e+00 -1.491553e+01 -7.303782e+00 -3.894788e+00 1.059314e+00 2.831341e+00 -6.059923e+00 7.404283e+01 8.449560e-01 6.732172e-01 -5.206271e-01 -1.086353e+00 -5.524639e-01 1.622367e+00 2.137499e+00 2.357229e-01 -2.229289e+00 -1.563060e+00 9.577886e-01 8.399394e-01 -7.152789e-01 -3.513562e-01 2.714968e-01 5.023217e-01 9.736148e-01 -1.380183e-01 -9.768485e-01 6.935924e-01 3.647388e-01 -9.498954e-03 -4.400222e-01 -8.344944e-01 1.078705e-01 -3.211682e-01 -7.318108e-02 -2.375361e-01 -1.642919e-02 -9.634665e-03 6.900488e-02 -1.736314e-01 -4.783415e-01 8.421030e-03 4.541361e-01 2.861890e-01 -1.668315e-01 -2.327353e-01 2.831405e-01
<VARIANCE> 52
 9.288539e+00 2.342178e+01 4.535236e+01 5.625433e+01 3.463327e+01 4.429532e+01 7.242435e+01 5.913855e+01 7.677958e+01 6.600975e+01 5.322692e+01 2.967160e+01 1.392386e+01 2.474127e-01 7.011723e-01 8.778636e-01 1.549169e+00 1.272675e+00 2.056882e+00 2.032065e+00 2.378149e+00 1.722808e+00 2.798570e+00 2.163583e+00 1.652358e+00 3.229370e-01 1.120156e-01 1.955659e-01 2.309905e-01 2.598188e-01 4.524966e-01 4.495259e-01 6.976188e-01 5.451478e-01 6.325859e-01 6.015069e-01 4.962006e-01 5.963072e-01 1.436353e-01 2.172225e-02 2.841063e-02 4.863571e-02 5.525742e-02 7.787479e-02 1.192124e-01 1.170394e-01 1.220244e-01 8.120245e-02 1.281452e-01 1.237961e-01 7.391895e-02 2.443762e-02
<GCONST> 9.730706e+01
<MIXTURE> 2 3.127218e-01
<MEAN> 52
 -4.381026e+00 -8.554899e+00 -1.101202e+01 -2.042013e+01 2.915210e-01 -6.409495e+00 -1.581683e+01 -2.120215e+00 -1.408025e+00 -2.738943e-01 -1.263735e+01 -4.671733e+00 7.504139e+01 6.716062e-01 1.700078e-02 -1.325878e+00 -1.584646e+00 2.014769e+00 2.181002e+00 -5.564179e-01 -1.555954e+00 -1.632745e+00 4.014717e-01 8.432190e-01 -1.040689e+00 -3.066157e-01 -1.016233e-01 6.313974e-01 4.179713e-01 7.673702e-01 -5.361972e-01 -1.460637e-01 7.203120e-01 -3.591667e-01 -8.849339e-01 -5.332028e-01 9.143423e-01 2.777745e-01 -6.808813e-01 -8.636437e-02 -1.846460e-01 2.969406e-02 -7.536405e-03 -2.587369e-01 -4.047473e-01 1.103824e-01 4.746350e-01 2.053970e-01 -6.827003e-02 -1.612310e-01 1.907425e-01 3.156618e-01
<VARIANCE> 52
 1.329056e+01 1.893465e+01 5.275920e+01 5.023330e+01 4.328127e+01 3.720819e+01 5.192572e+01 8.137119e+01 7.482119e+01 5.668405e+01 2.913587e+01 2.221099e+01 2.810635e+01 4.547878e-01 7.570621e-01 8.450413e-01 9.308623e-01 2.635459e+00 2.010565e+00 1.779048e+00 1.745703e+00 2.964698e+00 3.215985e+00 3.696242e+00 1.397370e+00 3.491022e-01 1.292591e-01 1.871814e-01 1.798561e-01 1.905378e-01 4.525257e-01 6.471846e-01 5.552662e-01 9.536634e-01 5.403762e-01 5.408586e-01 6.172543e-01 3.919047e-01 2.346277e-01 3.389199e-02 3.353732e-02 3.703237e-02 4.576502e-02 1.384054e-01 1.186951e-01 1.001461e-01 8.873370e-02 1.001188e-01 1.360271e-01 2.343901e-01 7.057835e-02 2.248615e-02
<GCONST> 9.997045e+01
<MIXTURE> 3 2.346160e-01
<MEAN> 52
 1.255398e+00 -4.571949e+00 -2.497057e+00 -2.487993e+01 -5.844464e+00 9.591286e+00 -2.012757e+01 -4.156143e+00 -8.533941e+00 4.127325e+00 2.202563e+00 -5.651742e+00 7.433752e+01 4.488362e-01 2.825559e-01 -1.395877e-01 -3.186518e-01 1.292045e-01 4.968608e-01 1.294496e+00 4.111381e-01 -9.488160e-01 -1.709777e+00 6.969481e-01 6.532880e-01 -4.885874e-01 -9.880342e-02 -3.137250e-02 8.616164e-02 6.432647e-01 -5.011005e-02 -6.144753e-01 1.260752e-01 1.135055e-01 1.551474e-01 -1.581739e-01 -2.401105e-01 -2.981457e-01 -4.335862e-02 5.466224e-02 -8.956035e-02 4.661243e-03 -8.365022e-02 -5.528327e-02 1.106765e-01 -2.168467e-01 -5.190938e-02 3.899021e-02 2.688107e-01 -5.047192e-02 -1.831613e-01 8.961166e-02
<VARIANCE> 52
 1.017605e+01 9.279030e+00 3.070020e+01 3.046446e+01 2.778238e+01 4.148887e+01 1.205047e+01 2.359649e+01 1.703201e+01 3.627447e+01 2.613089e+01 2.483887e+01 6.480108e+00 5.255320e-02 2.499111e-01 1.871212e-01 1.080508e+00 4.553732e-01 1.052756e+00 6.147915e-01 9.729745e-01 7.485851e-01 1.270966e+00 6.603248e-01 8.504727e-01 4.129051e-02 1.973884e-02 6.300363e-02 5.132091e-02 8.633164e-02 9.332503e-02 1.512295e-01 1.897956e-01 1.656468e-01 1.646897e-01 3.347988e-01 1.449386e-01 1.759464e-01 1.369965e-02 1.121997e-02 1.896544e-02 1.528850e-02 2.422945e-02 2.068741e-02 2.904029e-02 6.098820e-02 4.063698e-02 2.832884e-02 5.489476e-02 3.669975e-02 5.732473e-02 9.296482e-03
<GCONST> 4.566619e+01
<STATE> 8
<NUMMIXES> 3
<MIXTURE> 1 3.112505e-01
<MEAN> 52
 2.450123e+00 -3.991585e+00 -3.284349e-01 -1.881843e+01 -9.784906e+00 7.277473e+00 -1.286465e+01 -1.697122e+00 -9.347076e+00 -4.693151e+00 6.054974e-01 -8.651181e+00 7.186112e+01 -2.080404e-02 3.711802e-02 4.916392e-01 1.115832e+00 -2.239650e-01 -6.130542e-01 2.121682e-01 3.289977e-01 -6.150614e-03 -2.527463e-01 -6.229886e-01 -4.170129e-01 -4.187285e-01 -2.676759e-02 6.452495e-02 2.128169e-02 5.516691e-02 4.608369e-02 -5.167736e-02 -1.357916e-01 -8.653064e-02 1.263815e-01 1.744874e-01 -8.812648e-02 3.156608e-02 -4.915315e-02 9.998913e-03 2.856510e-02 -1.699699e-02 -4.413887e-02 3.263240e-02 3.652048e-02 4.397132e-02 -2.860071e-02 -3.219084e-03 -3.403826e-02 3.119746e-02 5.995781e-02 -2.440271e-02
<VARIANCE> 52
 4.390398e+00 1.943586e+01 1.666624e+01 2.714255e+01 6.418775e+01 2.264244e+01 4.955924e+01 2.209083e+01 2.870138e+01 2.793878e+01 2.797423e+01 2.297658e+01 8.560207e+00 8.551615e-02 2.318068e-01 4.309621e-01 4.764428e-01 7.626215e-01 5.180297e-01 1.417606e+00 7.463909e-01 9.998025e-01 9.850975e-01 1.219794e+00 9.295681e-01 6.742627e-02 1.024415e-02 3.521524e-02 6.817719e-02 9.036300e-02 1.176780e-01 1.047965e-01 2.105992e-01 1.361593e-01 1.790524e-01 1.444701e-01 2.075529e-01 1.737668e-01 1.106981e-02 2.215693e-03 7.126420e-03 1.473823e-02 2.136775e-02 2.508020e-02 2.647721e-02 3.753737e-02 3.278666e-02 3.732117e-02 2.633325e-02 3.926203e-02 4.235525e-02 1.589199e-03
<GCONST> 4.139760e+01
<MIXTURE> 2 2.721274e-01
<MEAN> 52
 -4.570456e+00 -9.727458e+00 -1.560988e+01 -2.495711e+01 4.905283e+00 -7.129745e+00 -9.767930e+00 -3.055780e+00 -1.764307e+01 -3.682962e+00 -9.092152e+00 -7.656676e+00 7.307073e+01 3.569918e-01 6.171707e-02 2.120025e-01 2.983480e-01 -3.105577e-01 -3.953736e-01 1.144028e+00 -4.107485e-02 -1.780464e+00 1.019643e-01 -3.804148e-01 1.707127e-02 -4.679072e-01 -3.124902e-03 8.927464e-03 1.625208e-01 1.066518e-01 -2.319096e-01 -1.702180e-01 -6.433903e-02 5.824956e-02 4.172114e-01 8.818101e-02 -3.593502e-01 1.145828e-01 -4.233716e-03 -1.233327e-02 -7.148955e-03 -2.650408e-02 -6.138962e-02 6.878264e-02 6.960200e-02 -1.080283e-01 -4.106654e-02 7.387188e-02 -1.108377e-02 1.636751e-02 -4.526754e-02 8.399059e-03
<VARIANCE> 52
 8.838450e+00 9.505056e+00 1.864134e+01 1.916859e+01 3.419586e+01 1.275717e+01 3.049849e+01 3.885242e+01 5.282423e+01 1.782048e+01 2.179182e+01 1.801352e+01 1.599249e+01 1.419196e-01 1.814352e-01 5.843817e-01 4.955712e-01 9.547291e-01 9.053401e-01 8.181895e-01 5.397356e-01 2.624539e+00 1.144552e+00 2.849960e+00 1.035099e+00 5.635286e-02 2.443876e-02 3.534081e-02 4.832542e-02 1.026243e-01 9.936748e-02 2.201131e-01 1.514363e-01 1.126320e-01 2.124559e-01 2.032485e-01 3.178791e-01 1.418209e-01 7.820182e-03 5.518673e-03 7.963333e-03 1.054452e-02 2.085811e-02 2.420170e-02 3.724132e-02 2.555372e-02 2.314015e-02 6.918187e-02 4.755123e-02 9.073377e-02 3.216904e-02 3.109071e-03
<GCONST> 4.649714e+01
<MIXTURE> 3 4.166221e-01
<MEAN> 52
 3.712422e+00 8.042129e-01 -5.234051e+00 -1.417228e+01 -8.894831e+00 7.482040e+00 -7.008407e+00 -4.098007e+00 -7.644169e+00 -4.617305e+00 9.461482e-01 -6.049469e+00 7.149413e+01 1.132043e-01 2.782622e-01 8.713387e-01 1.336978e+00 -8.238216e-01 -7.177328e-01 1.405587e+00 1.215292e-01 -3.544976e-01 -4.787395e-01 -1.867835e+00 -2.698091e-01 -6.220341e-01 -2.285674e-01 -1.283731e-01 3.959949e-01 4.231474e-01 1.539372e-01 -3.439987e-01 -5.290022e-01 -3.539249e-01 5.023574e-01 4.129350e-01 -3.684646e-01 2.066183e-02 5.426729e-02 4.680264e-02 -9.356792e-03 -1.091633e-01 -1.769921e-01 9.394667e-02 2.105182e-01 -1.777684e-01 -6.564109e-02 -6.498096e-02 3.983050e-02 3.190317e-01 8.647942e-02 2.441367e-02
<VARIANCE> 52
 7.679658e+00 2.184982e+01 4.213544e+01 5.232724e+01 3.967990e+01 4.923216e+01 6.354410e+01 6.717429e+01 6.727282e+01 7.714667e+01 5.402280e+01 3.240102e+01 1.132500e+01 2.439147e-01 7.037073e-01 1.217133e+00 1.425206e+00 1.649091e+00 1.896366e+00 2.167425e+00 3.062116e+00 3.276589e+00 3.000730e+00 2.422528e+00 2.475297e+00 2.258978e-01 3.892887e-02 9.249278e-02 1.816364e-01 2.452988e-01 2.949567e-01 3.271640e-01 4.474228e-01 3.992391e-01 3.572553e-01 4.955332e-01 5.404516e-01 4.064577e-01 4.037047e-02 1.056101e-02 2.722149e-02 5.188911e-02 4.405349e-02 7.504196e-02 7.686010e-02 1.043282e-01 1.110164e-01 1.047252e-01 1.106048e-01 1.091009e-01 1.010552e-01 1.360465e-02
<GCONST> 9.081948e+01
<STATE> 9
<NUMMIXES> 3
<MIXTURE> 1 6.282798e-01
<MEAN> 52
 2.485300e+00 1.916151e+00 3.236753e+00 -5.763996e+00 -1.046822e+01 4.198775e+00 -7.534094e+00 -6.674738e+00 -4.982373e+00 -1.845205e+00 -5.025830e+00 -5.319882e+00 6.790682e+01 -2.128936e-01 2.862971e-01 6.489997e-01 1.083407e+00 5.161180e-01 -4.202477e-01 -3.474579e-01 -5.977217e-01 9.011973e-02 3.379999e-01 -4.121576e-01 1.793407e-01 -6.308637e-01 5.369348e-03 9.671301e-02 -1.151165e-01 1.827447e-02 1.382903e-01 2.852088e-02 -3.219951e-02 -4.317723e-03 -8.237746e-02 3.800888e-02 1.976041e-01 -2.433326e-02 -8.502964e-02 1.104662e-02 1.853877e-02 -2.632306e-02 -2.564371e-02 -3.954297e-02 1.909318e-02 1.005245e-01 5.018344e-02 -2.980605e-02 -5.232690e-02 -1.678006e-02 -1.378081e-03 -2.206075e-02
<VARIANCE> 52
 7.219130e+00 1.884944e+01 3.374794e+01 3.962401e+01 4.432120e+01 3.234004e+01 5.176054e+01 5.592393e+01 4.601659e+01 5.561203e+01 2.689576e+01 3.508196e+01 1.857098e+01 2.166276e-01 5.175123e-01 1.441545e+00 1.138813e+00 1.209756e+00 1.306291e+00 2.326453e+00 1.796184e+00 1.611375e+00 1.826013e+00 1.728562e+00 1.543429e+00 2.066309e-01 4.079572e-02 9.967262e-02 2.400430e-01 2.012950e-01 2.725292e-01 2.474744e-01 4.019070e-01 3.193681e-01 2.811399e-01 3.033960e-01 4.140708e-01 2.882257e-01 4.199862e-02 9.644535e-03 2.088621e-02 5.235489e-02 4.177490e-02 5.410548e-02 5.690427e-02 8.900382e-02 6.936251e-02 6.596807e-02 7.327392e-02 8.188098e-02 6.858748e-02 6.950206e-03
<GCONST> 7.918600e+01
<MIXTURE> 2 1.331504e-01
<MEAN> 52
 -4.274970e+00 -1.143953e+01 -4.606592e+00 -2.350984e+01 -2.605678e+00 -1.473880e+01 -9.260027e+00 2.333521e+00 -1.714030e+01 -3.576825e+00 -1.852569e+01 -3.506917e+00 7.238544e+01 7.017710e-02 4.444069e-02 6.824092e-01 4.936941e-01 -4.785026e-01 -5.820780e-01 -1.003573e-01 3.601643e-02 9.785540e-02 -5.266722e-01 -4.684193e-01 -2.005852e-01 -4.375752e-01 -1.964035e-02 4.017055e-02 -1.534354e-01 6.254134e-02 5.554473e-02 1.574899e-01 -7.053652e-02 -1.023860e-01 -3.597441e-02 -1.025384e-01 2.528900e-01 -9.204401e-02 -4.271205e-02 7.475017e-03 2.914844e-02 -3.543954e-02 -7.281032e-03 -1.059734e-02 1.190577e-02 1.604237e-02 -1.066379e-02 -2.173925e-02 9.101255e-03 -6.874087e-04 3.202760e-02 -1.858911e-02
<VARIANCE> 52
 2.833997e+00 1.131663e+01 8.108315e+01 2.044058e+01 5.361596e+01 1.626151e+01 2.219214e+01 1.436257e+01 6.326797e+00 1.404821e+01 1.139213e+01 6.714142e+00 2.646246e+00 1.208005e-01 2.101073e-01 4.865929e-01 5.103437e-01 4.020178e-01 9.218583e-01 6.005599e-01 9.706222e-01 5.983803e-01 6.682065e-01 1.302811e+00 6.067104e-01 6.561524e-02 2.438024e-02 4.589019e-02 6.332560e-02 8.678816e-02 8.387887e-02 1.058874e-01 9.391215e-02 1.270424e-01 1.036742e-01 1.093929e-01 1.864422e-01 9.933191e-02 1.480904e-02 4.944389e-03 8.928696e-03 1.193732e-02 2.097147e-02 1.638350e-02 3.264933e-02 1.530830e-02 3.353659e-02 2.805584e-02 2.293517e-02 4.445658e-02 2.225104e-02 2.102763e-03
<GCONST> 3.061558e+01
<MIXTURE> 3 2.385698e-01
<MEAN> 52
 -1.823719e-01 -5.721228e+00 -8.699736e+00 -1.436618e+01 -6.906847e+00 -7.302769e+00 -1.515757e+01 -5.512876e+00 -2.062452e+01 -1.490320e+01 -1.268848e+01 -6.599120e+00 6.422736e+01 -1.201470e-01 3.204975e-01 8.510309e-01 6.990339e-01 -2.291576e-01 -5.617946e-01 -7.395832e-01 -1.203513e-01 2.657381e-02 -3.470712e-01 -3.792053e-01 1.715640e-01 -5.709495e-01 -5.480824e-03 6.497680e-02 -4.291957e-02 -5.722213e-02 3.652890e-02 3.189507e-02 -6.421060e-02 -1.125461e-01 1.739099e-01 1.274748e-01 1.246085e-01 -1.546790e-02 -4.903982e-02 1.798081e-02 2.842170e-02 -1.735835e-02 8.413344e-03 -2.403886e-02 1.888622e-02 9.030902e-02 -3.158212e-02 -1.732596e-02 3.779938e-03 3.414841e-02 -6.393657e-03 -1.969901e-02
<VARIANCE> 52
 4.184262e+00 2.157551e+01 3.748960e+01 2.385973e+01 4.529783e+01 2.937734e+01 7.766866e+01 3.373701e+01 6.701882e+01 1.394037e+02 3.005070e+01 6.423376e+01 5.469917e+01 2.095634e-01 4.091482e-01 1.236254e+00 1.188043e+00 1.588459e+00 1.613469e+00 2.117630e+00 1.224649e+00 2.244534e+00 1.672505e+00 1.106984e+00 1.602210e+00 1.296042e-01 3.179964e-02 6.207493e-02 1.823796e-01 1.635100e-01 2.447957e-01 2.934430e-01 4.208744e-01 2.705722e-01 3.532933e-01 3.399780e-01 2.080743e-01 3.703373e-01 1.925509e-02 7.035578e-03 1.165435e-02 3.489557e-02 4.076768e-02 5.938207e-02 7.078263e-02 8.057468e-02 5.282629e-02 5.668508e-02 7.916368e-02 4.631468e-02 8.275509e-02 4.044208e-03
<GCONST> 7.576232e+01
<STATE> 10
<NUMMIXES> 3
<MIXTURE> 1 4.506346e-01
<MEAN> 52
 2.212056e+00 3.885110e+00 5.208502e+00 -2.133378e-01 -7.818749e+00 8.372054e-01 -9.329836e+00 -9.721870e+00 -7.474117e+00 2.301722e+00 -5.666003e+00 -5.384114e+00 6.565024e+01 -1.847369e-01 1.239693e+00 6.202453e-01 1.557520e+00 5.661889e-01 -6.079049e-01 4.855517e-01 -4.524893e-01 -1.833035e-02 -1.532894e-02 -3.536357e-01 1.983598e-01 -1.593974e+00 -2.310206e-01 -1.775819e-01 -1.688910e-01 -3.433447e-01 1.470519e-01 5.900003e-02 1.740818e-01 4.250374e-01 1.556161e-01 -3.963208e-01 2.792708e-01 1.094500e-01 6.955507e-02 -8.348582e-02 -2.114456e-01 -3.994084e-02 -1.686992e-01 -8.259320e-02 -3.878266e-03 -4.479331e-02 9.186733e-02 2.876458e-02 -1.962351e-02 8.715812e-02 7.535109e-03 2.097788e-01
<VARIANCE> 52
 5.490247e+00 2.630435e+01 2.692028e+01 4.800333e+01 4.311576e+01 3.286316e+01 6.421923e+01 6.463511e+01 4.945084e+01 5.746103e+01 3.826384e+01 3.891208e+01 1.845537e+01 4.403553e-01 7.893745e-01 2.172513e+00 2.313097e+00 3.262270e+00 2.173202e+00 2.773271e+00 3.780974e+00 2.867139e+00 3.109234e+00 3.288098e+00 2.175610e+00 3.856999e-01 1.208459e-01 2.444944e-01 3.195859e-01 4.001772e-01 5.298691e-01 4.502043e-01 4.788688e-01 6.131966e-01 5.070670e-01 5.105093e-01 5.022644e-01 4.447356e-01 1.827541e-01 2.284298e-02 2.630311e-02 8.672076e-02 8.182365e-02 1.507564e-01 1.064563e-01 9.765007e-02 1.439614e-01 1.076040e-01 1.282033e-01 1.214485e-01 9.581822e-02 2.632778e-02
<GCONST> 1.036129e+02
<MIXTURE> 2 2.205294e-01
<MEAN> 52
 -3.779099e+00 -6.080546e+00 -1.058727e+01 -1.838760e+01 -3.701686e+00 -1.263740e+01 -9.335882e+00 -3.645781e+00 -1.634767e+01 -7.727013e+00 -1.522871e+01 -6.741909e+00 6.617629e+01 9.906013e-02 8.061792e-01 1.331847e-02 1.250192e+00 -8.213962e-01 1.248966e-01 -5.183069e-01 -9.936941e-01 5.597021e-01 -6.198364e-01 9.682506e-01 -8.202770e-02 -1.130185e+00 -3.509266e-02 1.194489e-02 1.412478e-01 2.107248e-01 6.399386e-02 4.446101e-02 1.089820e-02 -5.254994e-02 3.408363e-02 1.593305e-02 1.891997e-01 1.556867e-01 -3.767347e-02 -2.495947e-02 -6.089440e-02 4.743202e-02 -4.561057e-02 8.395918e-02 7.558177e-03 4.052978e-02 8.225892e-02 8.737181e-03 5.080650e-02 -9.323960e-02 3.268484e-02 4.784316e-02
<VARIANCE> 52
 1.082480e+01 1.454538e+01 7.113067e+01 3.993632e+01 3.475754e+01 3.400824e+01 2.738071e+01 3.416275e+01 4.604290e+01 3.345428e+01 2.779130e+01 2.618444e+01 2.535571e+01 3.988066e-01 7.112316e-01 1.431146e+00 1.403128e+00 1.485496e+00 1.939548e+00 1.456770e+00 2.097055e+00 1.595852e+00 1.683395e+00 1.646430e+00 1.256178e+00 3.438225e-01 6.514142e-02 1.215396e-01 2.306270e-01 2.801942e-01 3.498473e-01 3.528943e-01 2.627873e-01 3.858753e-01 2.922288e-01 2.642715e-01 3.232186e-01 2.697262e-01 4.202376e-02 1.378145e-02 2.244054e-02 4.908341e-02 7.093308e-02 6.245459e-02 7.139481e-02 5.591968e-02 8.034433e-02 7.242786e-02 6.302077e-02 5.995487e-02 6.159684e-02 5.970957e-03
<GCONST> 8.111850e+01
<MIXTURE> 3 3.288360e-01
<MEAN> 52
 -1.567736e+00 3.572437e-01 -3.753320e+00 -8.821002e+00 -7.866483e+00 -1.190674e+01 -1.585587e+01 -1.256334e+01 -1.583247e+01 -1.309372e+01 -1.099345e+01 -2.529268e+00 5.838380e+01 -3.132688e-01 2.461346e-01 3.486690e-01 9.994444e-01 1.191743e-01 5.468072e-01 3.825876e-01 -4.027370e-01 8.576054e-01 5.635575e-01 5.908403e-01 4.086324e-01 -9.755002e-01 -1.497770e-01 -2.392627e-01 -1.299701e-01 -1.826835e-01 1.331197e-01 2.360603e-01 3.303193e-01 3.989388e-01 2.137281e-01 2.383571e-01 -4.576252e-02 -3.221124e-02 1.150148e-01 -9.742602e-03 -1.932903e-02 -1.943101e-02 -7.708991e-02 -5.429768e-02 -4.559870e-02 -2.649071e-02 4.045580e-02 1.461584e-03 -6.367158e-04 -1.480057e-02 -3.251979e-02 5.691164e-02
<VARIANCE> 52
 1.486421e+01 2.383173e+01 2.856076e+01 2.629751e+01 2.817229e+01 4.422707e+01 4.480964e+01 3.887178e+01 7.287724e+01 5.835069e+01 3.188491e+01 4.519684e+01 2.984322e+01 7.459390e-01 1.574551e+00 1.604582e+00 1.672385e+00 2.922903e+00 2.980412e+00 2.966967e+00 4.348824e+00 4.228643e+00 2.544412e+00 2.640613e+00 2.409642e+00 4.898217e-01 1.298734e-01 1.822346e-01 2.514817e-01 3.064870e-01 3.879859e-01 4.223456e-01 4.448705e-01 5.197787e-01 6.767036e-01 4.094489e-01 4.724002e-01 3.975627e-01 9.211977e-02 2.854804e-02 4.890091e-02 5.935577e-02 7.528105e-02 1.201658e-01 1.140266e-01 1.121412e-01 1.583172e-01 1.569509e-01 8.760756e-02 1.126774e-01 1.066590e-01 1.687491e-02
<GCONST> 1.030421e+02
<STATE> 11
<NUMMIXES> 3
<MIXTURE> 1 3.068310e-01
<MEAN> 52
 -3.320884e+00 4.357696e+00 3.869549e+00 6.130278e-01 -5.602327e+00 -4.136233e+00 -6.535803e+00 -7.946739e+00 -6.556799e+00 -2.349535e+00 -4.596092e+00 -3.521787e+00 6.196629e+01 -1.773790e+00 -9.961463e-01 6.348643e-01 -1.046566e+00 -7.929629e-01 -6.275918e-01 3.380801e-01 1.147824e+00 4.266924e-01 -7.667214e-01 1.531808e+00 6.015283e-01 1.538557e+00 1.488876e-01 -2.312682e-01 4.958323e-01 -3.900954e-01 -9.730804e-01 1.871830e-01 -5.370698e-01 -1.630623e-01 -2.743519e-01 1.748853e-01 1.272180e-01 -4.832532e-02 7.211211e-01 2.575331e-01 1.854493e-01 2.666559e-02 1.631758e-01 4.327054e-02 1.052810e-01 -8.017476e-02 -1.407444e-01 -1.076971e-01 1.120108e-01 -2.218295e-01 -1.122244e-01 -2.506619e-01
<VARIANCE> 52
 3.031755e+01 3.325225e+01 4.197375e+01 3.861912e+01 4.148117e+01 4.741272e+01 5.946972e+01 3.784486e+01 4.078909e+01 4.641812e+01 3.494438e+01 2.461482e+01 5.189479e+01 2.262232e+00 2.311405e+00 4.643093e+00 4.239032e+00 7.626568e+00 4.983808e+00 6.217015e+00 4.358776e+00 4.767744e+00 5.533946e+00 3.086364e+00 2.734354e+00 3.456074e+00 6.416289e-01 5.719041e-01 6.096280e-01 7.972884e-01 1.009441e+00 8.364401e-01 1.001812e+00 9.139090e-01 7.917662e-01 8.323941e-01 7.348266e-01 6.401658e-01 5.041255e-01 9.041006e-02 1.058028e-01 1.996564e-01 1.797867e-01 3.846452e-01 1.779173e-01 2.458284e-01 1.835298e-01 2.015001e-01 2.136104e-01 1.491696e-01 1.171237e-01 1.349463e-01
<GCONST> 1.348587e+02
<MIXTURE> 2 3.431854e-01
<MEAN> 52
 -2.005546e+00 3.862338e+00 2.138506e+00 -7.701457e-01 -2.624936e-01 2.615689e+00 -3.428747e+00 -4.886116e+00 -5.880737e+00 -3.613945e+00 -5.890307e+00 -4.127105e+00 5.748884e+01 -8.677371e-01 -5.502540e-01 -4.843092e-01 1.319695e-01 5.404409e-01 3.874854e-01 9.110481e-01 6.889998e-01 8.484105e-01 2.708546e-01 4.404908e-01 4.342622e-01 -8.698483e-01 -1.155854e-02 -2.727945e-01 -2.592505e-01 -4.088918e-01 -3.666403e-01 -2.791428e-01 -2.628721e-01 -1.071364e-01 -5.500230e-02 1.513657e-01 7.220060e-02 3.539757e-02 1.689142e-01 6.506086e-02 7.500523e-02 4.979242e-02 3.842717e-02 -6.310146e-02 -1.272499e-01 -1.533547e-01 -1.288205e-01 -8.358340e-02 -2.908753e-02 -4.844097e-02 -3.843838e-02 3.436382e-02
<VARIANCE> 52
 1.457076e+01 2.177621e+01 2.946039e+01 3.060349e+01 2.509396e+01 3.133889e+01 3.978190e+01 3.015072e+01 2.811112e+01 2.876536e+01 2.852464e+01 2.015504e+01 1.536357e+01 4.985033e-01 9.372053e-01 8.478326e-01 1.541198e+00 1.954417e+00 2.220806e+00 2.201018e+00 2.598910e+00 2.726713e+00 2.577738e+00 1.770735e+00 1.728019e+00 3.389977e-01 7.979455e-02 1.758539e-01 1.412327e-01 2.323471e-01 3.298620e-01 4.138927e-01 4.041339e-01 4.413766e-01 3.688760e-01 3.783797e-01 3.565562e-01 3.277918e-01 3.620109e-02 1.686585e-02 3.226018e-02 3.347123e-02 6.092891e-02 8.267694e-02 9.357274e-02 9.039722e-02 1.029657e-01 9.404057e-02 9.779678e-02 7.344471e-02 7.396185e-02 7.226218e-03
<GCONST> 8.545993e+01
<MIXTURE> 3 3.499835e-01
<MEAN> 52
 -6.296681e+00 -2.042737e+00 -3.317535e+00 -6.546938e+00 -3.093807e+00 -7.100897e-01 -5.482818e+00 -4.119967e+00 -3.777566e+00 -1.892343e+00 -2.505618e+00 -2.394927e+00 5.475353e+01 -4.484952e-01 -5.656430e-01 -7.273586e-01 -5.428824e-01 -5.183052e-01 -6.684077e-01 -3.441009e-01 -1.538461e-01 3.585769e-01 4.200727e-01 2.498227e-01 1.774009e-01 -3.739881e-01 1.951853e-01 1.717255e-01 2.388846e-01 1.874175e-01 9.351232e-02 3.246891e-02 -1.515611e-01 -1.195589e-01 -1.402199e-01 -9.669988e-02 -1.982112e-01 -1.108047e-01 1.423392e-01 -1.032546e-02 1.902708e-02 4.961935e-02 1.013643e-01 9.291334e-02 1.021768e-01 9.494698e-02 3.607273e-02 4.262568e-02 -3.209554e-02 -7.797922e-03 7.477582e-03 -2.649235e-02
<VARIANCE> 52
 1.702668e+01 2.008060e+01 1.915335e+01 3.144010e+01 1.733722e+01 2.337773e+01 4.550995e+01 3.277433e+01 2.689479e+01 2.419684e+01 1.683837e+01 1.835247e+01 1.670986e+01 4.856461e-01 8.742260e-01 1.162314e+00 1.469874e+00 1.609714e+00 1.916190e+00 2.511333e+00 2.134866e+00 2.030586e+00 1.889044e+00 1.638144e+00 1.747823e+00 1.896075e-01 6.548032e-02 1.428940e-01 1.671270e-01 2.146541e-01 3.130854e-01 4.058387e-01 5.326798e-01 4.304544e-01 4.123057e-01 4.080963e-01 2.581104e-01 3.360117e-01 2.695993e-02 1.668207e-02 3.568938e-02 4.321870e-02 4.877790e-02 7.015868e-02 8.102553e-02 1.036719e-01 8.308689e-02 8.443241e-02 8.337773e-02 6.750552e-02 8.294514e-02 5.705071e-03
<GCONST> 8.116634e+01
<TRANSP> 12
 0.000000e+00 1.000000e+00 0.000000e+00 0.000000e+00 0.000000e+00 0.000000e+00 0.000000e+00 0.000000e+00 0.000000e+00 0.000000e+00 0.000000e+00 0.000000e+00
 0.000000e+00 7.875041e-01 2.124959e-01 0.000000e+00 0.000000e+00 0.000000e+00 0.000000e+00 0.000000e+00 0.000000e+00 0.000000e+00 0.000000e+00 0.000000e+00
 0.000000e+00 0.000000e+00 8.386396e-01 1.613604e-01 0.000000e+00 0.000000e+00 0.000000e+00 0.000000e+00 0.000000e+00 0.000000e+00 0.000000e+00 0.000000e+00
 0.000000e+00 0.000000e+00 0.000000e+00 8.340264e-01 1.659736e-01 0.000000e+00 0.000000e+00 0.000000e+00 0.000000e+00 0.000000e+00 0.000000e+00 0.000000e+00
 0.000000e+00 0.000000e+00 0.000000e+00 0.000000e+00 7.439250e-01 2.560750e-01 0.000000e+00 0.000000e+00 0.000000e+00 0.000000e+00 0.000000e+00 0.000000e+00
 0.000000e+00 0.000000e+00 0.000000e+00 0.000000e+00 0.000000e+00 7.682106e-01 2.317894e-01 0.000000e+00 0.000000e+00 0.000000e+00 0.000000e+00 0.000000e+00
 0.000000e+00 0.000000e+00 0.000000e+00 0.000000e+00 0.000000e+00 0.000000e+00 7.155217e-01 2.844783e-01 0.000000e+00 0.000000e+00 0.000000e+00 0.000000e+00
 0.000000e+00 0.000000e+00 0.000000e+00 0.000000e+00 0.000000e+00 0.000000e+00 0.000000e+00 8.007172e-01 1.992828e-01 0.000000e+00 0.000000e+00 0.000000e+00
 0.000000e+00 0.000000e+00 0.000000e+00 0.000000e+00 0.000000e+00 0.000000e+00 0.000000e+00 0.000000e+00 8.414507e-01 1.585493e-01 0.000000e+00 0.000000e+00
 0.000000e+00 0.000000e+00 0.000000e+00 0.000000e+00 0.000000e+00 0.000000e+00 0.000000e+00 0.000000e+00 0.000000e+00 7.925730e-01 2.074270e-01 0.000000e+00
 0.000000e+00 0.000000e+00 0.000000e+00 0.000000e+00 0.000000e+00 0.000000e+00 0.000000e+00 0.000000e+00 0.000000e+00 0.000000e+00 8.125567e-01 1.874433e-01
 0.000000e+00 0.000000e+00 0.000000e+00 0.000000e+00 0.000000e+00 0.000000e+00 0.000000e+00 0.000000e+00 0.000000e+00 0.000000e+00 0.000000e+00 0.000000e+00
<ENDHMM>
