~o
<STREAMINFO> 1 52
<VECSIZE> 52<NULLD><MFCC_D_A_T_0><DIAGC>
~h "sil"
<BEGINHMM>
<NUMSTATES> 12
<STATE> 2
<NUMMIXES> 3
<MIXTURE> 1 2.326925e-01
<MEAN> 52
 -1.186326e+01 9.858649e-03 -2.569722e+00 -6.757054e+00 2.645214e+00 -3.187172e+00 -3.606445e+00 1.325351e+00 -1.297634e-01 1.952814e+00 -1.866934e+00 -3.893954e+00 5.870727e+01 9.190757e-01 -8.821369e-01 -5.471177e-01 6.107230e-01 -4.839254e-01 -1.625175e-01 6.323404e-01 4.809690e-01 2.847321e-01 1.194451e-01 -4.090444e-01 -7.750145e-01 3.887942e-01 1.131674e-01 -7.635894e-02 -1.992037e-03 8.146626e-02 -1.572182e-01 3.812348e-02 6.649569e-02 6.852869e-03 -7.585604e-02 -6.141956e-02 -3.853320e-02 -1.915536e-03 3.858697e-02 -4.201220e-02 6.403594e-02 6.814493e-02 -5.167158e-02 9.655082e-02 4.612096e-02 -3.949223e-02 -9.014008e-02 -6.447455e-02 -7.040194e-03 6.875525e-02 9.110712e-02 -8.085991e-02
<VARIANCE> 52
 4.236163e+01 3.249375e+01 1.813268e+01 2.730957e+01 4.301307e+01 3.439679e+01 2.709746e+01 3.020001e+01 2.417073e+01 3.665616e+01 2.141600e+01 2.366887e+01 1.920748e+01 3.745161e+00 1.553694e+00 1.738877e+00 2.356429e+00 2.959825e+00 2.598033e+00 2.819721e+00 2.305391e+00 3.266664e+00 3.831346e+00 2.453153e+00 1.877523e+00 8.631666e-01 3.242240e-01 2.660512e-01 2.578492e-01 3.097997e-01 3.462964e-01 4.900693e-01 4.737017e-01 3.644094e-01 5.124251e-01 5.309737e-01 3.398266e-01 3.037245e-01 1.466417e-01 7.846722e-02 5.709353e-02 5.787994e-02 7.483169e-02 1.181166e-01 1.177734e-01 1.229602e-01 7.944148e-02 1.239201e-01 1.276542e-01 7.641802e-02 5.674197e-02 3.600422e-02
<GCONST> 1.033039e+02
<MIXTURE> 2 4.376166e-01
<MEAN> 52
 -9.420581e+00 -3.117606e+00 -3.323101e+00 -5.280632e+00 -4.680073e+00 -3.470782e+00 -4.083076e+00 -3.297083e+00 -2.613925e+00 -1.595689e+00 -2.272193e+00 -1.897887e+00 5.361544e+01 4.251985e-02 3.936586e-03 -3.642110e-02 2.296674e-01 2.568817e-01 2.667095e-02 3.187506e-02 -1.448935e-01 2.094458e-01 -4.501650e-02 1.743104e-01 3.405927e-02 -1.602540e-01 1.819814e-01 2.320749e-01 2.699030e-01 2.823558e-01 3.231686e-01 2.936156e-01 1.029702e-01 9.263121e-02 3.360974e-02 -2.782563e-02 -4.626249e-02 -3.609513e-02 1.021291e-01 -8.108916e-02 -1.079887e-01 -1.218944e-01 -1.192419e-01 -8.198309e-02 -3.607617e-02 9.754612e-03 5.884502e-02 1.137179e-02 2.329093e-02 1.092691e-04 2.106648e-02 -3.582674e-02
<VARIANCE> 52
 1.199306e+01 1.039318e+01 1.599831e+01 1.557713e+01 1.515779e+01 1.773197e+01 2.026512e+01 2.217020e+01 2.541588e+01 2.282587e+01 1.984761e+01 1.750880e+01 1.406717e+01 2.659304e-01 5.446953e-01 8.408263e-01 1.084077e+00 1.464506e+00 1.517344e+00 1.569970e+00 1.603372e+00 1.849821e+00 1.751857e+00 1.600279e+00 1.452711e+00 1.625900e-01 6.565183e-02 1.480419e-01 2.112815e-01 2.387506e-01 2.384320e-01 2.480948e-01 3.772813e-01 3.385317e-01 4.203754e-01 3.576172e-01 3.559918e-01 2.802139e-01 4.080766e-02 1.100744e-02 2.502665e-02 3.423942e-02 4.650727e-02 6.510832e-02 6.709135e-02 7.561690e-02 7.674369e-02 7.987431e-02 8.155622e-02 7.807413e-02 7.092338e-02 7.667397e-03
<GCONST> 7.214464e+01
<MIXTURE> 3 3.296908e-01
<MEAN> 52
 -6.709217e+00 -2.098079e+00 -2.995596e+00 -1.686958e+00 1.585230e+00 -3.924265e-01 -2.751332e+00 -2.254543e+00 -1.058992e+00 8.552297e-01 -2.012508e+00 -2.841329e+00 5.542258e+01 -4.686703e-01 -3.025324e-01 -2.916624e-01 -1.224853e-01 -1.510357e-01 -3.328442e-01 -3.059630e-01 -1.984311e-03 1.042122e-01 -2.185033e-01 2.197530e-01 4.907650e-01 -2.159534e-01 -6.832515e-02 -2.609396e-02 -4.793778e-02 -5.303030e-02 -9.922019e-02 -1.725760e-02 1.664789e-02 -2.651866e-02 2.510264e-02 -2.873839e-02 -7.940435e-02 -1.286894e-01 5.052264e-02 2.980216e-02 2.098048e-02 1.897179e-02 4.525013e-02 3.402966e-02 5.620588e-02 4.541832e-02 1.419613e-02 2.860508e-03 -1.641277e-02 -1.813859e-02 -4.204378e-02 1.535176e-02
<VARIANCE> 52
 1.247947e+01 8.667849e+00 1.417030e+01 1.266369e+01 3.434534e+01 2.565109e+01 1.908167e+01 1.950818e+01 2.553144e+01 2.898670e+01 1.822599e+01 2.729746e+01 1.663610e+01 3.739398e-01 6.230624e-01 9.439042e-01 1.034048e+00 9.989064e-01 1.568223e+00 1.686911e+00 1.387477e+00 1.495932e+00 1.904630e+00 1.300201e+00 1.224848e+00 3.183770e-01 8.535627e-02 1.075790e-01 1.736390e-01 1.458166e-01 1.851836e-01 2.412280e-01 2.612396e-01 2.301796e-01 2.875475e-01 3.156214e-01 2.578232e-01 1.909572e-01 5.597775e-02 1.328048e-02 1.946743e-02 3.418420e-02 3.296227e-02 3.026107e-02 4.723549e-02 5.347749e-02 4.258802e-02 5.090612e-02 6.449745e-02 5.628370e-02 3.481471e-02 1.049594e-02
<GCONST> 6.718326e+01
<STATE> 3
<NUMMIXES> 3
<MIXTURE> 1 2.261215e-01
<MEAN> 52
 -9.899157e+00 -3.358117e+00 -5.067940e+00 -1.901178e+00 -6.478287e-02 -9.146758e-01 -2.907611e+00 -1.372158e+00 -2.726986e-01 -5.901831e-01 -1.632366e+00 -2.045937e+00 5.489462e+01 -1.984508e-01 -1.584988e-01 -4.824919e-02 9.053732e-02 -8.675326e-02 -4.599287e-02 7.971829e-02 -7.786897e-02 -1.557910e-01 -1.481874e-01 -3.651684e-02 1.186627e-01 8.786756e-02 1.004920e-01 5.316259e-02 2.036623e-01 -5.852434e-02 -5.479140e-02 -7.134341e-02 6.893248e-03 7.137842e-02 -6.409068e-02 2.319546e-02 -9.105384e-03 2.028173e-03 -1.084476e-01 1.016563e-02 -6.731647e-03 -1.219682e-02 -2.134956e-02 2.650558e-03 -2.061491e-02 -1.340022e-02 2.045197e-02 3.525610e-02 4.900059e-03 8.605179e-03 -2.144810e-03 -2.022848e-02
<VARIANCE> 52
 1.552445e+01 1.014421e+01 1.869223e+01 1.993274e+01 2.759613e+01 2.114062e+01 2.635898e+01 2.629368e+01 2.157403e+01 1.854243e+01 2.182984e+01 2.151863e+01 2.696859e+01 1.486174e+00 8.602414e-01 1.945193e+00 1.655876e+00 1.879385e+00 1.982998e+00 2.493780e+00 2.498751e+00 1.826008e+00 1.589642e+00 2.196156e+00 1.467915e+00 9.344364e-01 2.784598e-01 1.408126e-01 3.586329e-01 3.468629e-01 3.643566e-01 3.787329e-01 4.545515e-01 4.825972e-01 3.782617e-01 3.354371e-01 4.451268e-01 2.852250e-01 1.640661e-01 6.494295e-02 3.468609e-02 9.011575e-02 8.399314e-02 7.793361e-02 9.069956e-02 1.209645e-01 1.214346e-01 8.361667e-02 7.734389e-02 1.039990e-01 6.398185e-02 3.604145e-02
<GCONST> 9.334155e+01
<MIXTURE> 2 3.773968e-01
<MEAN> 52
 -8.566666e+00 -2.900284e+00 -3.123577e+00 -3.791052e+00 -2.351938e+00 -1.762374e+00 -3.257332e+00 -1.852219e+00 -8.399394e-01 -1.365672e+00 -1.795195e+00 -8.480254e-01 5.139863e+01 6.751452e-03 -6.568690e-02 -1.197517e-01 -2.609290e-01 -4.725741e-01 -6.945997e-01 -5.538639e-01 -2.390446e-01 -6.337468e-02 1.379034e-01 2.987612e-01 2.647075e-01 -8.211043e-02 -2.309380e-02 -1.206637e-03 -2.537604e-04 2.331064e-02 -1.792461e-02 -1.055029e-03 -1.617396e-04 -4.790179e-02 -5.268730e-02 -3.318406e-02 -1.959270e-02 2.088496e-02 2.768454e-02 -1.471599e-03 7.637474e-03 1.642413e-02 5.396260e-02 1.043810e-01 1.487029e-01 1.169246e-01 6.348737e-02 2.060091e-02 -3.374607e-02 -7.168418e-02 -5.096318e-02 6.788940e-03
<VARIANCE> 52
 3.998421e+00 5.165283e+00 7.405757e+00 1.190021e+01 1.364890e+01 1.624248e+01 1.660022e+01 1.705486e+01 1.559722e+01 1.667512e+01 1.804507e+01 1.397119e+01 6.359083e+00 1.754523e-01 3.199568e-01 4.599781e-01 7.228702e-01 7.970276e-01 6.474398e-01 9.437240e-01 1.217373e+00 1.501299e+00 1.333566e+00 1.410641e+00 1.032993e+00 5.796786e-02 3.524800e-02 6.241049e-02 9.818707e-02 1.598617e-01 2.192130e-01 2.466982e-01 2.685255e-01 2.672639e-01 2.886162e-01 2.782250e-01 3.124996e-01 2.238661e-01 1.452723e-02 8.564419e-03 1.433542e-02 2.181114e-02 3.568513e-02 3.931296e-02 3.098299e-02 4.604922e-02 5.806281e-02 7.168689e-02 6.337937e-02 6.797002e-02 4.492720e-02 2.939216e-03
<GCONST> 4.973086e+01
<MIXTURE> 3 3.964817e-01
<MEAN> 52
 -8.426648e+00 -2.736973e+00 -2.866581e+00 -3.452260e+00 -2.607043e+00 -1.676175e+00 -3.072822e+00 -2.147635e+00 -1.083462e+00 -1.471273e+00 -1.713072e+00 -6.016908e-01 5.129766e+01 5.602235e-02 7.054392e-03 4.456953e-02 2.243612e-01 5.236949e-01 7.485164e-01 5.711645e-01 3.615953e-01 1.380973e-01 -1.182444e-01 -3.095063e-01 -1.968991e-01 -7.021844e-02 -1.617095e-02 6.206779e-03 -2.627275e-02 -4.045642e-02 2.607845e-03 -2.931234e-02 -1.471912e-02 2.736089e-02 -1.177221e-02 -2.617956e-02 -3.262796e-02 -3.420081e-02 2.791937e-02 -1.688990e-02 -1.635664e-02 -3.029974e-02 -5.706434e-02 -1.223363e-01 -1.786302e-01 -1.325805e-01 -7.310615e-02 -2.625662e-02 2.796685e-02 7.651418e-02 5.337373e-02 3.124638e-05
<VARIANCE> 52
 4.749833e+00 5.590242e+00 8.301523e+00 1.117618e+01 1.410538e+01 1.494086e+01 1.735750e+01 1.802536e+01 1.787826e+01 1.636357e+01 1.600863e+01 1.426344e+01 7.416606e+00 1.535859e-01 3.373506e-01 5.167695e-01 7.455221e-01 9.048803e-01 7.714981e-01 1.153658e+00 1.302572e+00 1.377508e+00 1.425354e+00 1.419735e+00 1.170429e+00 6.336757e-02 3.568843e-02 5.984435e-02 1.037252e-01 1.623150e-01 2.224908e-01 2.489430e-01 2.731531e-01 2.843411e-01 2.838560e-01 2.765802e-01 2.921576e-01 2.267401e-01 1.286961e-02 8.068081e-03 1.490684e-02 2.438678e-02 3.545259e-02 4.382542e-02 3.755773e-02 5.740254e-02 6.558040e-02 6.634495e-02 6.811786e-02 6.912509e-02 5.128777e-02 3.059354e-03
<GCONST> 5.195089e+01
<STATE> 4
<NUMMIXES> 3
<MIXTURE> 1 1.988959e-01
<MEAN> 52
 -2.110758e+00 -5.499414e+00 -6.167311e+00 -2.881159e+00 5.087210e-01 -6.041204e-01 1.753179e+00 4.325161e-01 -1.287795e+00 4.322529e+00 -3.957388e+00 -9.220712e+00 6.056487e+01 -2.196951e-01 4.136939e-01 8.796696e-02 1.871939e-01 2.292855e-01 6.321287e-01 -2.732318e-02 -5.702031e-01 -1.624672e-01 -2.012108e-01 1.748675e-01 5.278074e-01 -4.984532e-01 -1.966740e-01 1.516999e-01 8.739169e-02 -2.931639e-02 1.394252e-02 -2.885448e-02 -1.799783e-01 4.502292e-02 5.935091e-02 -9.276326e-02 2.856580e-02 1.354834e-01 -7.701672e-02 5.604962e-02 -6.707061e-02 -1.338377e-02 -4.704120e-03 -5.125143e-02 -6.854847e-02 6.023753e-03 4.772219e-02 1.672450e-02 1.536124e-02 -3.139815e-02 -4.160316e-02 3.425534e-02
<VARIANCE> 52
 5.101485e+00 1.342279e+01 1.163664e+01 2.773985e+01 3.535413e+01 2.941856e+01 3.275954e+01 2.363069e+01 3.462556e+01 2.112397e+01 1.995968e+01 1.552036e+01 1.618703e+01 5.440665e-01 7.502866e-01 6.504248e-01 8.823913e-01 1.393306e+00 1.119745e+00 2.332694e+00 2.037595e+00 2.045480e+00 1.418767e+00 1.154032e+00 1.024598e+00 3.044675e-01 6.813915e-02 1.441245e-01 1.473424e-01 1.932069e-01 2.670452e-01 2.085870e-01 4.478829e-01 4.470205e-01 4.694241e-01 2.829476e-01 2.665678e-01 1.654436e-01 3.650896e-02 1.581892e-02 2.267502e-02 3.137026e-02 4.422168e-02 5.738413e-02 5.334412e-02 1.127259e-01 1.059280e-01 1.068107e-01 5.888142e-02 5.470848e-02 3.907596e-02 8.391539e-03
<GCONST> 7.302690e+01
<MIXTURE> 2 4.198582e-01
<MEAN> 52
 -1.091562e+01 -1.717922e+00 -3.833550e+00 -4.983202e+00 -3.033957e+00 -3.745987e+00 -5.687262e+00 -4.513206e+00 -3.082667e+00 -2.132371e+00 -2.966138e+00 -1.327914e+00 5.599417e+01 4.500326e-02 1.226188e-01 1.886866e-02 -1.195733e-01 2.701436e-02 4.535828e-03 -2.230179e-01 -2.719571e-01 -3.318664e-01 -3.041460e-01 1.487225e-02 1.607800e-01 3.008517e-02 -1.317110e-02 -6.063862e-02 -2.422899e-02 1.591401e-02 3.839432e-02 9.940796e-02 2.000732e-01 2.393812e-01 1.845616e-01 1.220181e-01 8.265000e-02 -1.537175e-02 2.290292e-03 -2.217771e-02 -3.100310e-02 -1.350444e-02 9.213706e-03 -4.212765e-03 -4.198604e-03 4.446446e-02 4.851360e-02 7.575188e-02 7.148473e-02 1.051204e-02 -2.457980e-02 -8.359207e-03
<VARIANCE> 52
 1.908031e+01 7.188358e+00 1.283944e+01 1.853031e+01 1.425355e+01 1.743327e+01 1.905706e+01 1.861582e+01 2.190849e+01 1.838285e+01 1.561719e+01 1.726286e+01 1.948728e+01 4.243372e-01 4.238160e-01 5.949336e-01 6.431214e-01 9.108084e-01 1.048977e+00 1.598958e+00 1.684320e+00 1.684663e+00 1.476874e+00 1.481041e+00 1.634551e+00 1.488652e-01 7.063086e-02 8.311118e-02 1.404684e-01 1.393598e-01 1.728019e-01 2.462389e-01 3.004515e-01 2.483120e-01 3.052624e-01 3.142319e-01 2.586114e-01 3.020407e-01 2.613322e-02 1.474954e-02 1.875047e-02 2.844339e-02 2.848754e-02 3.904828e-02 5.118998e-02 7.733364e-02 7.323889e-02 8.360457e-02 7.681903e-02 6.690492e-02 7.941415e-02 5.619532e-03
<GCONST> 6.454469e+01
<MIXTURE> 3 3.812459e-01
<MEAN> 52
 -9.558495e+00 -2.790999e+00 -2.750942e+00 -1.609339e+00 1.235475e+00 -1.217836e+00 -9.801928e-01 1.573537e+00 8.546309e-03 -7.283304e-01 -2.087060e+00 -9.789349e-01 5.322106e+01 3.285543e-02 -4.020059e-02 2.678274e-01 -1.646650e-01 -4.953362e-01 -5.511760e-01 -3.810034e-02 3.073672e-01 -1.756372e-02 -2.346615e-01 -2.417319e-01 -2.589332e-02 -3.042563e-01 -2.987089e-02 -6.392847e-02 -1.270557e-01 -9.491836e-02 -1.499725e-01 -2.343084e-01 -3.383853e-01 -3.041078e-01 -1.693590e-01 -8.313102e-02 -1.598460e-02 -5.662420e-02 6.971154e-02 -3.867524e-02 -2.352387e-02 -7.382692e-02 2.828554e-02 1.135800e-01 1.369417e-01 6.052815e-03 -7.309078e-02 1.436818e-03 3.380385e-02 8.703878e-02 5.527203e-02 7.138288e-02
<VARIANCE> 52
 1.311824e+01 8.864721e+00 9.327841e+00 1.543108e+01 2.093748e+01 4.080422e+01 1.947882e+01 1.932196e+01 1.674776e+01 2.134897e+01 1.526387e+01 1.625947e+01 5.043903e+01 4.786106e-01 4.587648e-01 9.664935e-01 1.081092e+00 1.105509e+00 1.929485e+00 2.181570e+00 2.165946e+00 2.070417e+00 1.607504e+00 1.313961e+00 1.684948e+00 3.515614e-01 1.123787e-01 1.222568e-01 1.573163e-01 1.720969e-01 2.339637e-01 3.878750e-01 3.444492e-01 3.213312e-01 3.233420e-01 3.187990e-01 2.985601e-01 3.359765e-01 7.824325e-02 2.240652e-02 2.905025e-02 4.560023e-02 4.812763e-02 5.264905e-02 8.635059e-02 1.088405e-01 1.107172e-01 9.574210e-02 7.916394e-02 6.511538e-02 8.201688e-02 1.928396e-02
<GCONST> 7.812894e+01
<STATE> 5
<NUMMIXES> 3
<MIXTURE> 1 1.329941e-01
<MEAN> 52
 -9.400837e+00 -1.134683e+01 -8.425698e+00 -1.890604e+00 1.088102e+01 6.871988e+00 1.918581e+00 -5.682099e+00 -3.235796e+00 -3.117744e+00 4.751493e+00 3.597664e+00 6.311478e+01 4.259029e-01 1.245569e-01 -1.938364e-01 -2.910536e-01 -2.138698e-01 1.406143e+00 3.852842e-01 -9.163560e-01 -7.248118e-01 5.648700e-01 6.549936e-01 1.325009e+00 -7.312706e-01 5.459469e-02 1.161634e+00 7.336220e-01 -7.963540e-02 -1.692724e+00 -1.232941e+00 -7.517388e-01 4.874180e-01 1.031813e-01 1.992577e-01 -8.785616e-01 -6.423864e-01 -1.182232e+00 -1.223093e-01 -4.129410e-02 7.071005e-02 1.525771e-02 -4.040106e-02 -3.708641e-01 -9.572954e-02 1.965428e-01 1.765646e-01 -1.148573e-01 -1.276466e-01 -2.949278e-01 1.096320e-01
<VARIANCE> 52
 1.174434e+01 1.361673e+01 1.541499e+01 1.564010e+01 3.572016e+01 3.416887e+01 2.447168e+01 2.905967e+01 3.034319e+01 2.153801e+01 2.346972e+01 3.308242e+01 4.501918e+01 5.492410e-01 4.196090e+00 2.521642e+00 9.525972e-01 1.062086e+01 5.946329e+00 4.420973e+00 2.729354e+00 1.993809e+00 2.027134e+00 4.154090e+00 2.896491e+00 5.623835e+00 2.738289e-01 3.451912e-01 2.602272e-01 2.228422e-01 9.536643e-01 9.934205e-01 6.565115e-01 6.017392e-01 7.163227e-01 5.297997e-01 4.968499e-01 7.927739e-01 5.117069e-01 3.412193e-02 2.107618e-01 1.167592e-01 4.945556e-02 5.158994e-01 2.768631e-01 2.238576e-01 1.136574e-01 1.014932e-01 1.011125e-01 1.976590e-01 1.466880e-01 2.840039e-01
<GCONST> 1.168611e+02
<MIXTURE> 2 4.177116e-01
<MEAN> 52
 -8.449495e+00 -3.258153e+00 -3.319406e+00 -4.558920e+00 -3.397974e+00 -3.511950e+00 -4.270552e+00 -2.634218e+00 -2.167603e+00 -2.466614e+00 -2.974166e+00 -1.979012e+00 5.391951e+01 -2.396909e-01 -3.037786e-01 -2.188026e-01 -1.846493e-01 -2.898834e-01 -4.996356e-01 -1.955328e-01 2.427431e-01 2.610056e-01 -1.312581e-01 -5.844281e-02 -8.874146e-02 6.235842e-02 -4.869701e-02 -1.369436e-01 -1.178803e-01 1.392781e-01 3.609421e-01 3.138383e-01 1.882262e-01 4.910697e-02 1.030371e-01 1.588484e-01 2.445233e-01 1.745032e-01 2.447985e-01 4.236308e-02 7.250650e-02 4.411561e-02 2.762770e-02 4.402747e-02 1.005614e-01 3.448323e-02 -4.464430e-02 -5.799211e-02 3.171522e-02 8.351112e-03 3.589822e-02 -3.092783e-02
<VARIANCE> 52
 1.018525e+01 1.059047e+01 1.062552e+01 1.590196e+01 1.865751e+01 2.183416e+01 1.830599e+01 2.425586e+01 2.331586e+01 2.053274e+01 1.860220e+01 1.653314e+01 1.350027e+01 3.757981e-01 6.938825e-01 8.408770e-01 8.432550e-01 1.221660e+00 1.587971e+00 1.640757e+00 1.742407e+00 1.412401e+00 1.495902e+00 1.412056e+00 1.230331e+00 3.228461e-01 8.688223e-02 2.408632e-01 1.562095e-01 1.645609e-01 4.077925e-01 3.646452e-01 3.850748e-01 3.938688e-01 4.148770e-01 3.639840e-01 2.961111e-01 2.923495e-01 1.238312e-01 1.374821e-02 3.630720e-02 4.137905e-02 4.038495e-02 6.622082e-02 7.925176e-02 8.648402e-02 7.269952e-02 6.971201e-02 7.701567e-02 6.369695e-02 6.083861e-02 1.961212e-02
<GCONST> 7.540967e+01
<MIXTURE> 3 4.492943e-01
<MEAN> 52
 -9.354339e+00 -4.023410e+00 -3.556769e+00 -1.473297e+00 7.451686e-02 -9.019018e-01 -2.637420e+00 -1.854058e+00 -1.871121e+00 -1.049315e+00 -1.160514e+00 -1.993943e-01 5.412193e+01 -4.615348e-01 -1.474057e-01 1.031501e-01 -3.180283e-02 8.283537e-02 -2.844027e-01 -2.300156e-02 2.074589e-01 8.782656e-02 -2.658170e-01 3.432818e-02 -1.939061e-01 3.905281e-01 -2.829837e-02 -1.556137e-01 -1.000754e-01 -6.386694e-02 1.416884e-01 8.730835e-02 1.164236e-01 -3.250182e-02 2.649062e-02 -5.913758e-02 8.024561e-02 2.959834e-02 1.350057e-01 6.127049e-02 -4.555486e-03 -3.332617e-02 -9.519045e-03 -1.067691e-02 7.628405e-02 1.808028e-02 -4.592084e-02 -2.726688e-02 3.533676e-02 3.574022e-02 8.356146e-02 -5.807181e-02
<VARIANCE> 52
 1.551625e+01 2.070690e+01 1.630689e+01 1.661859e+01 2.521845e+01 2.817515e+01 2.189546e+01 2.219434e+01 2.590418e+01 2.250709e+01 2.392851e+01 2.056663e+01 4.133009e+01 1.623027e+00 3.848997e+00 2.017991e+00 1.407824e+00 6.420160e+00 5.565052e+00 3.020434e+00 2.745025e+00 3.430912e+00 2.192847e+00 3.485709e+00 2.775165e+00 3.680168e+00 2.410967e-01 4.271901e-01 2.505397e-01 2.229730e-01 5.779449e-01 7.474504e-01 4.951982e-01 4.703824e-01 5.417936e-01 4.120034e-01 5.588283e-01 4.719614e-01 4.755660e-01 7.207210e-02 1.945397e-01 8.628493e-02 5.617795e-02 3.024732e-01 2.508200e-01 1.508271e-01 1.231448e-01 1.638305e-01 1.102008e-01 1.769706e-01 1.403869e-01 1.911939e-01
<GCONST> 1.135873e+02
<STATE> 6
<NUMMIXES> 3
<MIXTURE> 1 3.057250e-01
<MEAN> 52
 -1.220827e+01 -4.511325e+00 -3.379982e+00 -4.431438e+00 -2.449156e+00 -3.400725e+00 -3.085244e+00 -1.223302e+00 -2.506655e+00 -2.552364e+00 -6.755297e-01 -2.461101e-01 5.697324e+01 -4.767376e-01 1.247091e-01 -1.041120e-01 -6.736366e-01 -7.626219e-01 -8.399827e-01 -8.376305e-01 -8.117189e-01 -6.929373e-01 -3.048308e-01 2.413543e-02 -2.947584e-02 1.251061e-01 1.293197e-01 5.713068e-03 3.287747e-02 5.646770e-02 -4.654773e-02 5.642954e-02 -3.193643e-02 -2.311857e-02 7.376350e-02 -4.177559e-02 -1.481837e-01 -6.205686e-02 -5.849152e-02 8.212641e-02 -7.467160e-03 4.366110e-02 1.437693e-01 1.513454e-01 1.684096e-01 1.824185e-01 1.910423e-01 1.439514e-01 5.754144e-02 -2.372037e-03 1.602132e-02 -1.349589e-02
<VARIANCE> 52
 1.244288e+01 2.182527e+01 2.102205e+01 2.127172e+01 1.800763e+01 2.878313e+01 3.078468e+01 2.699482e+01 3.147715e+01 2.949733e+01 2.457220e+01 2.026212e+01 1.629758e+01 7.068428e-01 9.947330e-01 1.397959e+00 1.066347e+00 1.479438e+00 1.532624e+00 1.737750e+00 1.975850e+00 1.699900e+00 2.814078e+00 1.987111e+00 1.364305e+00 6.477441e-01 1.457251e-01 1.736521e-01 2.354167e-01 2.537669e-01 2.960102e-01 4.439875e-01 4.074422e-01 4.982101e-01 4.880413e-01 5.765006e-01 3.974827e-01 3.027091e-01 9.697593e-02 2.465900e-02 3.964461e-02 5.787978e-02 4.312227e-02 6.868783e-02 7.827794e-02 8.480738e-02 8.711889e-02 8.079859e-02 1.358028e-01 9.657973e-02 6.391967e-02 2.411132e-02
<GCONST> 8.809309e+01
<MIXTURE> 2 3.285228e-01
<MEAN> 52
 -1.065445e+01 -4.148736e+00 -4.095748e+00 -4.266850e+00 -2.858139e+00 -3.205490e+00 -2.817986e+00 -8.855159e-01 -1.085714e+00 -2.375749e+00 -2.521757e+00 -9.502847e-01 5.492553e+01 2.244932e-02 -1.420822e-01 -2.239017e-01 -2.534547e-01 -3.283814e-01 1.000715e-01 4.575386e-01 7.621042e-01 1.138690e+00 1.420865e+00 7.562726e-01 1.128445e-01 -1.294023e-01 5.761048e-02 1.041904e-02 3.560031e-02 8.856321e-03 -2.605874e-02 3.183220e-02 -1.149706e-01 -1.296761e-01 -4.927716e-02 6.131734e-02 1.318105e-01 7.947380e-02 2.221956e-03 -9.982686e-03 4.207683e-02 5.280821e-02 4.570848e-02 6.097385e-02 -1.442014e-02 -9.730919e-02 -1.566437e-01 -2.541325e-01 -3.165536e-01 -1.762305e-01 -3.035987e-02 1.792428e-02
<VARIANCE> 52
 1.134697e+01 1.692480e+01 1.597395e+01 2.270511e+01 1.341750e+01 2.213767e+01 2.058202e+01 2.546097e+01 2.519862e+01 2.528845e+01 2.125603e+01 1.528721e+01 1.427571e+01 2.704278e-01 4.172909e-01 6.173611e-01 7.225019e-01 8.410820e-01 1.139832e+00 1.391439e+00 1.463861e+00 1.359242e+00 1.159390e+00 1.151580e+00 1.379725e+00 1.602186e-01 6.557509e-02 1.124520e-01 1.630804e-01 1.918388e-01 2.261913e-01 3.018319e-01 2.797464e-01 3.590132e-01 4.011095e-01 4.064313e-01 2.732960e-01 2.415721e-01 3.981283e-02 1.207479e-02 2.206163e-02 2.992579e-02 3.553356e-02 4.445726e-02 5.292092e-02 6.415621e-02 6.756623e-02 6.207135e-02 5.579988e-02 5.440081e-02 6.069252e-02 7.992849e-03
<GCONST> 6.645216e+01
<MIXTURE> 3 3.657523e-01
<MEAN> 52
 -1.074093e+01 -4.434851e+00 -3.580869e+00 -4.908091e+00 -4.063135e+00 -4.132148e+00 -4.642865e+00 -1.848791e+00 -1.960909e+00 -3.123331e+00 -1.934162e+00 -8.363684e-01 5.642787e+01 1.732152e-01 1.143158e-01 1.502268e-01 5.676413e-01 7.538757e-01 7.621412e-01 5.261271e-01 2.434677e-01 -1.212067e-01 -5.291740e-01 -5.791634e-01 -1.278605e-01 4.208997e-02 1.406986e-02 3.910355e-02 -1.013080e-02 3.052901e-02 1.350328e-01 1.444455e-01 1.156010e-01 2.978195e-02 4.405629e-02 1.539471e-01 1.077039e-01 3.835467e-02 -1.138065e-02 -4.973197e-02 -2.077830e-02 -4.065179e-02 -1.373262e-01 -1.839340e-01 -1.740478e-01 -1.120962e-01 -4.803078e-02 3.766279e-02 1.214812e-01 1.105589e-01 2.417454e-02 -1.619542e-02
<VARIANCE> 52
 1.273399e+01 1.797828e+01 1.598643e+01 2.317963e+01 2.081141e+01 2.432439e+01 2.914641e+01 2.796241e+01 2.873258e+01 2.821213e+01 2.377939e+01 1.592976e+01 1.201686e+01 5.421713e-01 6.645560e-01 8.869433e-01 7.371316e-01 1.066259e+00 1.525493e+00 1.409252e+00 1.946787e+00 2.006047e+00 2.003870e+00 1.482912e+00 1.308575e+00 2.447391e-01 9.368754e-02 1.142350e-01 1.727593e-01 2.103014e-01 2.951692e-01 3.133213e-01 3.775470e-01 4.072883e-01 3.965797e-01 5.197660e-01 3.616343e-01 2.227991e-01 3.630390e-02 2.279538e-02 2.683732e-02 4.096168e-02 3.501116e-02 4.815286e-02 6.968998e-02 6.922015e-02 9.226707e-02 9.215020e-02 9.844599e-02 7.184030e-02 5.698455e-02 1.054111e-02
<GCONST> 7.669658e+01
<STATE> 7
<NUMMIXES> 3
<MIXTURE> 1 1.248511e-01
<MEAN> 52
 -1.153126e+01 -2.325646e+00 -1.293448e+00 -2.132508e+00 -9.349330e-01 -2.185745e+00 -2.093719e+00 -6.822358e-01 -1.950057e+00 -2.696937e+00 -9.510377e-02 2.478640e-02 5.712960e+01 2.262784e-01 8.623103e-02 5.188537e-01 3.114835e-01 -2.274749e-01 -1.525388e-01 2.418042e-02 5.118281e-01 3.765629e-01 4.951729e-01 4.559855e-01 2.261373e-01 1.911080e-01 5.383024e-02 -8.871271e-02 -9.683977e-02 -1.048210e-01 -8.141037e-02 -8.662599e-02 -1.623285e-01 -3.517403e-02 -3.195240e-02 5.035846e-02 -1.997577e-02 -5.451813e-02 -7.048953e-02 -3.720575e-02 -2.047485e-02 -5.915225e-02 -4.903132e-02 7.875918e-03 1.929973e-03 -3.785434e-02 -1.018278e-01 -8.168498e-02 -1.243432e-01 -4.945804e-02 -2.903215e-02 1.226660e-03
<VARIANCE> 52
 2.290875e+01 2.316507e+01 4.234653e+01 2.234282e+01 4.127597e+01 2.904049e+01 2.920087e+01 3.475806e+01 3.425745e+01 2.502117e+01 3.224486e+01 2.288326e+01 6.299419e+01 1.661853e+00 1.040802e+00 2.358491e+00 1.675175e+00 3.395808e+00 3.781480e+00 2.213121e+00 2.334840e+00 3.216221e+00 1.787072e+00 2.623808e+00 2.453352e+00 1.374835e+00 2.809230e-01 1.310307e-01 4.320980e-01 3.128778e-01 5.661826e-01 5.577772e-01 3.497673e-01 4.021746e-01 6.439578e-01 4.296663e-01 5.071023e-01 4.167626e-01 1.877290e-01 7.120308e-02 4.103519e-02 8.521857e-02 8.007154e-02 1.400175e-01 1.739030e-01 9.938601e-02 1.072392e-01 1.556985e-01 8.135759e-02 1.167610e-01 1.234764e-01 3.972833e-02
<GCONST> 1.064119e+02
<MIXTURE> 2 4.256057e-01
<MEAN> 52
 -7.708509e+00 -4.431415e+00 -5.630269e+00 -6.471124e+00 -3.126458e+00 -6.386428e-01 -1.900013e+00 3.245913e-01 6.683213e-01 3.397416e-01 -2.261955e+00 -2.300156e+00 5.408046e+01 -5.396498e-02 -1.075485e-01 -5.022536e-02 1.986532e-01 2.801904e-01 2.508761e-01 5.844688e-02 -5.965091e-02 -1.248402e-01 -5.503759e-03 -7.485620e-03 1.369652e-01 -1.290428e-01 -1.232509e-02 1.559242e-02 3.982849e-02 2.022609e-02 -2.278914e-02 -1.449086e-01 -2.599071e-01 -3.151400e-01 -2.845195e-01 -2.223725e-01 -1.115507e-01 -8.975915e-03 7.919216e-04 1.704484e-02 2.405476e-02 2.089378e-02 -2.963980e-02 -6.430982e-02 -5.881244e-02 -9.385780e-03 1.402515e-02 2.910800e-02 1.309460e-02 -4.219236e-03 -3.012654e-02 9.882666e-03
<VARIANCE> 52
 8.067457e+00 9.113228e+00 1.574378e+01 2.065436e+01 1.257581e+01 1.742778e+01 1.518310e+01 1.667120e+01 1.578841e+01 2.183579e+01 1.998406e+01 2.309390e+01 1.018743e+01 1.607464e-01 3.409199e-01 5.968821e-01 6.977043e-01 8.717098e-01 1.380892e+00 1.361761e+00 1.466416e+00 1.386168e+00 1.228746e+00 1.349063e+00 1.507008e+00 5.722528e-02 2.772880e-02 5.730074e-02 1.000772e-01 1.338952e-01 1.811592e-01 2.440785e-01 2.057367e-01 2.287502e-01 2.794929e-01 2.838536e-01 2.399087e-01 3.073641e-01 1.097971e-02 6.393630e-03 1.509954e-02 2.599428e-02 3.206412e-02 4.072402e-02 6.720911e-02 6.179554e-02 7.151105e-02 7.058661e-02 5.860056e-02 6.157294e-02 7.094271e-02 2.213825e-03
<GCONST> 5.507435e+01
<MIXTURE> 3 4.495431e-01
<MEAN> 52
 -8.037856e+00 -4.160769e+00 -5.029531e+00 -6.560848e+00 -4.145699e+00 -3.036417e+00 -6.068948e+00 -4.514975e+00 -2.827143e+00 -1.816962e+00 -3.108120e+00 -2.259632e+00 5.463142e+01 1.352642e-01 1.073445e-01 9.693928e-02 -1.488395e-02 -1.936448e-01 -2.431632e-01 -3.035488e-01 -1.706289e-01 -7.005984e-02 -8.125366e-02 -7.732303e-02 -4.813380e-03 -7.291923e-02 1.325559e-03 4.121989e-02 4.342000e-02 6.033562e-02 9.908716e-02 1.533549e-01 2.749982e-01 2.808015e-01 1.853976e-01 9.457812e-02 5.965935e-02 1.384023e-02 1.214165e-02 -1.901001e-02 -1.577429e-02 -1.530158e-02 1.846828e-02 4.775978e-02 5.480896e-02 6.402197e-02 4.266290e-02 2.072367e-02 2.732393e-02 8.809734e-03 1.416738e-03 -3.237435e-03
<VARIANCE> 52
 7.893375e+00 8.935865e+00 1.635308e+01 2.108413e+01 1.246185e+01 2.096496e+01 1.381751e+01 1.740242e+01 1.610382e+01 1.699374e+01 2.041442e+01 1.643961e+01 7.962175e+00 1.837626e-01 2.836088e-01 3.907678e-01 6.996662e-01 7.622531e-01 1.130732e+00 1.223477e+00 1.442080e+00 1.658672e+00 1.475464e+00 1.497666e+00 1.196769e+00 6.922614e-02 3.538384e-02 5.778932e-02 9.888073e-02 1.475775e-01 1.632279e-01 2.342234e-01 2.118287e-01 2.207908e-01 2.571153e-01 2.463641e-01 2.664934e-01 2.288013e-01 1.213505e-02 6.957361e-03 1.163289e-02 1.860538e-02 3.216010e-02 3.561700e-02 5.230653e-02 5.900490e-02 7.020219e-02 8.110878e-02 7.242107e-02 6.337760e-02 5.738356e-02 2.762134e-03
<GCONST> 5.322018e+01
<STATE> 8
<NUMMIXES> 3
<MIXTURE> 1 2.862169e-01
<MEAN> 52
 -1.341489e+01 -5.986429e+00 -3.186250e+00 -3.069088e+00 -3.271087e+00 -4.401134e+00 -4.215880e+00 2.219448e+00 -1.005069e+00 -1.246075e+00 -7.257504e-01 -8.458173e-01 5.813690e+01 1.842930e-01 -2.064546e-02 -1.221191e-01 -2.317325e-01 -2.895484e-01 -1.606612e-03 -2.300466e-01 -2.450429e-01 -2.780853e-01 -2.015529e-01 -1.158734e-01 -4.140773e-02 -2.964156e-01 6.122942e-02 4.623206e-02 2.119328e-02 4.521165e-02 1.358144e-01 1.523360e-01 4.714052e-02 -1.542651e-01 -5.841780e-02 -3.695618e-02 -5.717088e-02 -6.372473e-02 -1.697263e-02 -9.214576e-03 1.626149e-02 2.295636e-02 5.508126e-02 5.386274e-02 2.356591e-02 4.158039e-02 3.553597e-02 6.202295e-02 3.950433e-02 5.852595e-03 -3.716492e-03 3.821126e-02
<VARIANCE> 52
 2.112994e+01 1.677483e+01 1.588911e+01 1.344870e+01 2.554340e+01 3.027728e+01 2.097242e+01 3.148766e+01 2.687580e+01 2.315521e+01 2.770501e+01 2.631269e+01 2.871010e+01 2.428436e-01 3.459691e-01 6.822892e-01 6.143368e-01 1.262363e+00 1.782129e+00 1.322935e+00 1.830799e+00 1.977357e+00 1.911050e+00 1.381694e+00 1.801482e+00 2.208076e-01 4.355128e-02 8.575539e-02 1.434600e-01 1.385091e-01 2.919511e-01 3.541716e-01 3.053930e-01 3.441035e-01 3.615595e-01 3.730150e-01 2.834997e-01 3.886273e-01 6.430975e-02 1.031336e-02 1.661456e-02 3.175604e-02 3.000852e-02 5.280377e-02 7.893862e-02 7.033896e-02 8.697507e-02 9.684595e-02 8.885596e-02 5.934913e-02 8.419394e-02 9.082678e-03
<GCONST> 7.346649e+01
<MIXTURE> 2 4.510658e-01
<MEAN> 52
 -9.921570e+00 -2.357498e+00 -3.302988e+00 -2.541033e+00 -1.810545e+00 -1.258303e+00 -2.990239e+00 -1.283620e+00 -1.024553e+00 -4.329120e-01 -1.321632e+00 -8.099229e-01 5.005699e+01 4.366163e-02 3.495166e-03 -1.291745e-01 -1.784064e-01 -1.282123e-01 -1.226278e-01 -9.984806e-02 -9.927412e-02 -1.733249e-02 -1.097237e-01 -3.777900e-02 -1.901246e-02 -8.041207e-02 -2.897480e-02 -3.825438e-02 -4.903576e-02 -8.222464e-02 -6.991889e-02 -3.980207e-02 6.925106e-03 -5.401010e-03 -5.062242e-02 -8.903071e-02 -4.115213e-02 2.152971e-03 1.652074e-02 1.244270e-03 8.834960e-03 2.587184e-02 3.843547e-02 2.949308e-02 3.895491e-02 2.797756e-02 1.281909e-02 4.211433e-03 2.695812e-02 9.884792e-03 6.926028e-03 4.559452e-03
<VARIANCE> 52
 1.049024e+01 3.706108e+00 6.792670e+00 8.649965e+00 1.022257e+01 1.358804e+01 1.237333e+01 1.416145e+01 1.533532e+01 1.603821e+01 1.277281e+01 1.297318e+01 2.411568e+01 1.398443e-01 2.470325e-01 4.236716e-01 5.088808e-01 6.435638e-01 1.013958e+00 1.304376e+00 1.160989e+00 1.310846e+00 1.336219e+00 9.714189e-01 1.098067e+00 5.266000e-02 3.184208e-02 4.786086e-02 9.161685e-02 1.343416e-01 1.630615e-01 2.211431e-01 2.572981e-01 2.412394e-01 2.492841e-01 2.790179e-01 1.948584e-01 2.240717e-01 8.402785e-03 6.792204e-03 1.025303e-02 1.908436e-02 2.316432e-02 3.061708e-02 5.001489e-02 6.300551e-02 5.588790e-02 5.754032e-02 6.494979e-02 4.389153e-02 5.114701e-02 2.314136e-03
<GCONST> 4.522488e+01
<MIXTURE> 3 2.627172e-01
<MEAN> 52
 -1.035002e+01 -3.527174e+00 -3.404012e+00 -3.444626e+00 -2.250714e+00 -1.804947e+00 -3.734577e+00 -1.827542e+00 -2.502435e+00 -2.747518e+00 -3.060063e+00 -1.752924e+00 5.345645e+01 2.367731e-01 4.528949e-01 5.241324e-01 8.830392e-01 8.666925e-01 7.843288e-01 6.173194e-01 2.618498e-01 3.616545e-01 4.292692e-01 2.153793e-01 2.834070e-02 -8.870807e-02 -1.988519e-02 1.706862e-02 -1.254463e-02 -2.421921e-02 -3.304819e-02 -4.359010e-02 5.983151e-02 1.048458e-01 1.504329e-01 2.248590e-01 1.403631e-01 6.583228e-02 2.498722e-02 -3.702579e-02 -6.512240e-02 -1.103265e-01 -1.842932e-01 -1.909783e-01 -1.538851e-01 -1.327337e-01 -8.769059e-02 -7.479224e-02 -8.364554e-02 -4.260437e-02 -5.167439e-03 -2.647509e-03
<VARIANCE> 52
 1.357569e+01 8.768814e+00 7.898983e+00 1.366065e+01 1.258028e+01 1.674758e+01 1.821331e+01 2.094769e+01 1.994784e+01 1.900983e+01 1.765911e+01 1.759754e+01 1.366957e+01 2.907579e-01 4.370446e-01 5.928231e-01 6.836385e-01 8.679345e-01 1.075056e+00 1.299940e+00 1.519104e+00 1.494547e+00 1.437448e+00 1.207099e+00 1.422464e+00 1.596730e-01 3.946185e-02 7.502507e-02 1.013585e-01 1.700768e-01 2.084732e-01 2.660241e-01 2.493356e-01 2.862241e-01 3.353360e-01 2.834145e-01 2.423185e-01 2.703159e-01 1.595921e-02 1.108702e-02 1.850643e-02 2.325389e-02 2.952848e-02 4.340336e-02 4.662718e-02 6.021790e-02 7.138120e-02 6.666108e-02 6.792565e-02 5.646643e-02 6.852827e-02 4.259345e-03
<GCONST> 5.926268e+01
<STATE> 9
<NUMMIXES> 3
<MIXTURE> 1 1.806593e-01
<MEAN> 52
 -4.995484e+00 1.230796e+00 3.414263e+00 -3.972975e+00 -7.717914e+00 -1.698415e+00 -5.759156e+00 -7.315218e+00 -2.513260e+00 -3.611658e+00 3.563672e-01 -3.221902e-01 6.008003e+01 5.580680e-03 -6.301203e-02 -3.230131e-01 5.504069e-02 1.536342e-01 3.027842e-01 5.521802e-02 -1.200251e-01 3.441153e-01 5.548332e-02 1.962733e-02 1.440240e-02 -3.599252e-01 -9.792800e-02 -1.159302e-01 -1.485842e-02 7.193803e-02 8.163331e-02 4.406764e-02 1.009194e-01 2.244280e-02 -4.522298e-02 2.629589e-02 -3.707859e-02 3.446980e-02 8.579781e-02 3.928856e-03 -9.182890e-03 3.862951e-02 -1.920229e-02 -3.385127e-02 -3.967994e-02 -4.346064e-02 8.950359e-03 -6.770518e-02 -7.584305e-03 -4.206632e-02 -1.698262e-02 4.493786e-02
<VARIANCE> 52
 2.257637e+01 3.671729e+01 9.426521e+01 9.320399e+01 3.638977e+01 3.024650e+01 2.008427e+01 5.780260e+01 3.320176e+01 3.242424e+01 3.367408e+01 1.721225e+01 8.411475e+01 5.288188e-01 1.235157e+00 1.847425e+00 1.241571e+00 1.772722e+00 3.083233e+00 2.314660e+00 1.680886e+00 1.318691e+00 2.116162e+00 2.372904e+00 1.504533e+00 1.010705e+00 9.953423e-02 1.747791e-01 2.625427e-01 1.769410e-01 4.981771e-01 7.378940e-01 4.823672e-01 4.015742e-01 3.108800e-01 4.135905e-01 3.123127e-01 3.609252e-01 1.536622e-01 1.940478e-02 4.044069e-02 6.086409e-02 4.135900e-02 9.673426e-02 1.464388e-01 1.029398e-01 7.067823e-02 5.707850e-02 9.418348e-02 7.542840e-02 6.721848e-02 2.280265e-02
<GCONST> 9.650220e+01
<MIXTURE> 2 4.317451e-01
<MEAN> 52
 -1.058892e+01 -1.350585e+00 -2.785496e+00 -1.687648e+00 4.132667e-01 1.357179e+00 -2.064658e+00 1.562385e-01 1.387767e-01 -8.152820e-01 -7.809262e-01 7.158722e-01 4.600037e+01 -4.681607e-03 1.367183e-01 7.573819e-02 9.800442e-02 8.857693e-02 4.320595e-02 3.080727e-02 6.821717e-04 8.512387e-02 2.572880e-01 1.384518e-01 7.388780e-02 2.785688e-02 -1.726140e-02 -6.187958e-02 -8.463549e-02 -2.173855e-01 -2.387871e-01 -2.495757e-01 -1.096602e-01 -1.372192e-01 -1.561855e-01 -9.697232e-02 -1.500138e-01 -1.092671e-01 5.091169e-02 1.237191e-02 -1.856998e-03 8.234552e-05 -2.182127e-02 -3.797667e-02 -1.934952e-02 -2.130044e-02 -1.287008e-02 -2.838144e-02 -4.778281e-02 -3.937042e-02 -2.383729e-02 2.189411e-02
<VARIANCE> 52
 9.795241e+00 6.636718e+00 1.537868e+01 1.624496e+01 1.240597e+01 1.197226e+01 1.535898e+01 1.988293e+01 1.662850e+01 1.809887e+01 1.796445e+01 1.511287e+01 5.868419e+01 3.017310e-01 4.405403e-01 7.562711e-01 1.243330e+00 1.405205e+00 1.664343e+00 1.248740e+00 1.664823e+00 2.236181e+00 2.119516e+00 1.838350e+00 1.603570e+00 1.413405e-01 6.670132e-02 1.173265e-01 1.551014e-01 2.112691e-01 3.078877e-01 2.915643e-01 2.733126e-01 3.773291e-01 4.375518e-01 4.046561e-01 3.738937e-01 2.998281e-01 2.496727e-02 1.574182e-02 2.365835e-02 2.786348e-02 5.741346e-02 8.168643e-02 8.571155e-02 6.208004e-02 8.542705e-02 1.165222e-01 1.136407e-01 9.381590e-02 8.073910e-02 9.662398e-03
<GCONST> 7.261066e+01
<MIXTURE> 3 3.875955e-01
<MEAN> 52
 -8.521800e+00 -3.137971e+00 -4.972116e+00 -5.010051e+00 -3.689489e+00 -2.562399e+00 -4.008047e+00 -3.029632e+00 -2.090928e+00 -1.042026e+00 -2.274428e+00 -1.197498e+00 5.162453e+01 -1.424573e-01 -2.752524e-01 -4.463244e-01 -6.518962e-01 -6.238248e-01 -1.449635e-01 -3.054456e-02 -1.429341e-01 -1.915154e-01 -2.404393e-01 -3.709071e-01 -2.110486e-01 -7.067891e-02 -2.781739e-02 5.240293e-02 1.276878e-01 2.083240e-01 1.529876e-01 1.588109e-01 3.725082e-02 1.943810e-01 1.151082e-01 -2.157520e-02 -1.876276e-02 2.667956e-03 7.654282e-02 5.411063e-02 1.118269e-01 1.388130e-01 1.757099e-01 1.523174e-01 4.613984e-02 -3.401491e-02 1.281789e-02 2.955445e-02 5.133437e-02 6.885618e-02 4.692255e-02 7.280913e-02
<VARIANCE> 52
 8.957166e+00 7.868304e+00 8.636269e+00 1.311029e+01 1.451956e+01 1.602723e+01 1.571012e+01 1.431729e+01 1.665267e+01 1.953452e+01 1.865463e+01 2.074637e+01 1.948626e+01 2.587309e-01 4.299170e-01 6.616582e-01 8.724344e-01 9.963710e-01 1.535824e+00 1.597383e+00 2.048713e+00 1.505765e+00 1.205179e+00 1.361373e+00 1.412433e+00 1.239087e-01 5.506737e-02 8.680637e-02 1.318741e-01 1.961822e-01 2.423061e-01 2.356168e-01 2.560173e-01 3.045176e-01 3.358329e-01 3.082133e-01 2.534564e-01 3.012120e-01 2.959741e-02 1.858383e-02 2.196484e-02 3.128448e-02 4.284523e-02 5.707292e-02 7.249663e-02 8.320694e-02 1.046629e-01 7.576222e-02 5.359798e-02 5.917701e-02 7.061993e-02 1.415096e-02
<GCONST> 6.549476e+01
<STATE> 10
<NUMMIXES> 3
<MIXTURE> 1 2.972779e-01
<MEAN> 52
 -9.189606e+00 -3.366525e+00 -4.883399e+00 -5.786221e+00 -3.976032e+00 -3.025438e+00 -4.038377e+00 -1.836876e+00 -1.228323e+00 -1.640363e+00 -3.771233e+00 -2.256385e+00 5.380956e+01 -6.615481e-02 2.502765e-01 3.040609e-01 3.106012e-01 1.249127e-01 -8.687071e-02 1.990780e-01 2.406017e-01 -2.183559e-01 1.873887e-02 2.824179e-01 2.901092e-01 5.749953e-04 2.310161e-02 2.095383e-02 1.116856e-01 1.667593e-01 1.758624e-01 7.365101e-02 1.501304e-02 6.091817e-02 3.090877e-02 1.210522e-01 1.066635e-01 1.183042e-01 3.935341e-02 1.525333e-02 -1.124674e-02 -2.471427e-02 -3.733962e-02 5.922724e-03 1.102877e-02 -5.155088e-02 -4.687072e-02 3.784904e-02 -1.219440e-03 -5.431443e-02 -4.839958e-02 2.789464e-02
<VARIANCE> 52
 7.876809e+00 9.098429e+00 1.205123e+01 9.752036e+00 1.592685e+01 2.143065e+01 2.314981e+01 1.944141e+01 1.703081e+01 2.072918e+01 2.351650e+01 1.872589e+01 1.142361e+01 3.968939e-01 3.761222e-01 6.903489e-01 8.454374e-01 9.197553e-01 1.298080e+00 1.294088e+00 1.594251e+00 1.159450e+00 1.764067e+00 2.533997e+00 1.538628e+00 1.039083e-01 6.055162e-02 9.005253e-02 1.403993e-01 2.311524e-01 2.129769e-01 2.765846e-01 2.806078e-01 3.942044e-01 2.362415e-01 3.184314e-01 5.259916e-01 2.757124e-01 2.250139e-02 1.394934e-02 1.752547e-02 3.427884e-02 3.894018e-02 3.494205e-02 4.605489e-02 5.506094e-02 6.075565e-02 3.902669e-02 7.297344e-02 1.153430e-01 6.029214e-02 5.933439e-03
<GCONST> 6.420374e+01
<MIXTURE> 2 3.333316e-01
<MEAN> 52
 -9.667156e+00 -3.961827e+00 -3.995888e+00 -3.945989e+00 -2.734459e+00 -1.291049e+00 -2.933596e+00 -6.686537e-01 -1.525786e+00 -1.504056e+00 -2.680299e+00 -7.447151e-01 5.265612e+01 -1.049400e-01 1.231098e-01 1.545635e-01 8.466626e-03 1.446650e-01 3.689543e-01 1.252857e-01 6.505413e-01 6.144859e-01 6.123893e-01 8.705836e-02 8.708990e-02 1.144568e-01 2.008728e-01 3.660952e-01 4.371561e-01 1.884117e-01 5.900982e-02 -1.408957e-01 -2.484734e-01 -3.136504e-01 -1.352365e-01 -8.653047e-02 2.787359e-02 -7.113759e-02 4.652741e-01 1.326665e-01 9.306227e-02 2.077981e-01 4.654726e-02 -1.197117e-01 -1.661356e-01 -1.869331e-01 -2.185749e-01 -2.420516e-01 -1.748320e-01 -2.145375e-02 -2.674896e-02 2.095191e-01
<VARIANCE> 52
 8.496032e+00 1.457993e+01 1.522850e+01 1.375275e+01 1.679912e+01 1.952581e+01 2.638177e+01 2.579426e+01 2.120363e+01 2.546471e+01 2.049409e+01 2.110413e+01 1.480397e+01 2.550994e-01 6.395669e-01 9.778711e-01 1.061681e+00 1.382772e+00 1.954249e+00 1.719967e+00 1.894403e+00 1.556451e+00 1.525329e+00 1.890268e+00 1.268058e+00 2.992632e-01 2.157240e-01 1.675548e-01 2.586072e-01 2.717347e-01 3.738401e-01 4.672527e-01 5.525939e-01 5.041427e-01 4.148905e-01 3.735956e-01 3.988259e-01 3.166057e-01 1.895715e-01 2.499736e-02 3.933154e-02 6.166713e-02 5.783650e-02 8.788358e-02 9.592706e-02 8.259760e-02 9.474278e-02 6.596024e-02 7.986243e-02 9.589452e-02 7.107697e-02 2.518784e-02
<GCONST> 8.333904e+01
<MIXTURE> 3 3.693905e-01
<MEAN> 52
 -9.830516e+00 -3.333314e+00 -2.915695e+00 -2.782590e+00 -1.914959e+00 -9.474121e-01 -2.485737e+00 -1.483059e+00 -2.098530e+00 -1.398289e+00 -1.837619e+00 -4.685454e-02 5.349072e+01 2.802572e-01 4.810197e-01 6.129922e-01 5.752670e-01 3.938761e-01 6.196874e-02 -5.784224e-01 -8.071091e-01 -7.724935e-01 -5.618857e-01 -5.957472e-01 -4.743536e-01 5.022865e-01 2.735853e-01 2.135281e-01 2.935124e-01 9.654431e-02 -1.337160e-01 -2.637417e-01 -3.888826e-01 -1.184840e-01 -2.080988e-01 -1.744544e-01 -1.694866e-01 -1.282202e-01 3.418365e-01 -1.677027e-02 -8.520676e-02 2.540138e-04 -9.942812e-02 -1.479593e-01 -2.903814e-02 -6.865147e-03 1.540268e-01 1.203388e-01 1.045938e-01 1.010035e-01 8.725291e-02 7.218505e-02
<VARIANCE> 52
 1.042421e+01 1.704386e+01 2.004764e+01 2.064165e+01 2.752393e+01 2.189110e+01 2.534168e+01 2.731537e+01 2.275572e+01 2.618075e+01 2.355092e+01 1.604584e+01 2.104658e+01 1.145273e+00 2.003923e+00 1.676009e+00 1.988349e+00 2.780117e+00 2.064369e+00 2.042185e+00 2.134077e+00 1.807565e+00 2.115867e+00 2.154258e+00 1.667521e+00 7.524227e-01 3.336888e-01 3.258315e-01 3.516717e-01 4.184420e-01 5.309079e-01 4.673547e-01 5.564148e-01 6.303763e-01 4.488574e-01 4.733920e-01 5.086814e-01 3.635819e-01 2.869718e-01 4.245563e-02 7.612791e-02 5.542002e-02 8.007655e-02 1.269662e-01 8.485700e-02 1.093281e-01 1.008953e-01 7.338456e-02 9.351238e-02 9.243902e-02 7.760179e-02 4.980100e-02
<GCONST> 9.850645e+01
<STATE> 11
<NUMMIXES> 3
<MIXTURE> 1 5.037857e-01
<MEAN> 52
 -8.196438e+00 7.722145e-02 -8.649067e-02 -1.497080e+00 -6.631600e-01 -8.377115e-01 -4.386396e+00 -3.406940e+00 -4.171360e+00 -2.324373e+00 -2.791450e+00 -8.027824e-01 5.593662e+01 2.112287e+00 2.045678e+00 2.715939e+00 9.007927e-01 -7.547485e-01 -1.329530e+00 -2.123518e+00 -9.107473e-01 -1.294794e+00 -5.047473e-01 -6.015309e-01 -3.409183e-01 2.243290e+00 2.835927e-01 -1.265395e-01 4.799623e-01 -2.510102e-01 -6.989583e-01 -4.058210e-01 -5.493227e-01 3.159117e-02 -1.312275e-01 6.078707e-02 -1.562777e-02 3.654483e-02 6.859177e-01 -3.444370e-01 -3.884575e-01 -3.133155e-01 -2.194468e-01 -6.428621e-02 2.108703e-01 2.549438e-01 1.771570e-01 1.877793e-01 1.141484e-01 1.243992e-01 7.386551e-02 -1.301250e-01
<VARIANCE> 52
 1.986256e+01 3.257096e+01 3.128694e+01 2.487086e+01 3.355752e+01 3.656083e+01 3.555296e+01 3.021851e+01 2.796429e+01 2.863652e+01 3.078513e+01 2.487538e+01 3.918666e+01 1.730551e+00 2.416146e+00 4.386374e+00 4.008001e+00 5.412472e+00 5.576014e+00 5.646816e+00 4.959662e+00 4.316393e+00 3.287722e+00 3.476566e+00 3.397281e+00 3.392947e+00 4.275268e-01 8.552862e-01 7.260380e-01 5.000725e-01 7.033685e-01 7.181547e-01 8.701215e-01 6.785998e-01 6.136414e-01 6.514832e-01 5.981774e-01 4.847147e-01 6.180758e-01 6.622130e-02 9.667097e-02 1.477737e-01 1.098895e-01 2.271331e-01 2.255484e-01 2.217912e-01 2.074600e-01 1.626247e-01 1.565298e-01 1.325380e-01 1.520638e-01 1.366891e-01
<GCONST> 1.265136e+02
<MIXTURE> 2 2.328517e-01
<MEAN> 52
 -8.568404e+00 -2.573632e+00 -3.352665e+00 -3.407087e+00 -1.143999e+00 -6.321910e-01 -2.770442e+00 -2.165393e+00 -3.018379e-01 -7.178013e-01 -1.270839e+00 -2.994187e-01 5.351242e+01 5.461607e-02 -9.451906e-02 -2.336026e-02 1.732095e-01 6.548797e-01 3.086380e-01 2.326705e-02 1.888095e-01 2.524061e-01 -4.261612e-03 2.144267e-02 1.407436e-01 2.576402e-01 -4.379505e-02 -6.344633e-02 -9.356535e-02 -4.214845e-02 -8.328119e-04 -1.189390e-02 -7.552744e-02 -2.318480e-03 1.172971e-02 -1.345800e-01 -7.274902e-02 -1.435313e-02 4.887970e-04 -1.200531e-02 3.905090e-03 -6.000361e-03 -3.879707e-02 -7.019464e-02 -1.798081e-02 -7.579014e-04 -1.814689e-02 -3.786008e-02 -1.442421e-02 -1.178483e-02 -2.397437e-02 -1.520737e-02
<VARIANCE> 52
 1.302948e+01 6.134890e+00 9.003922e+00 1.040528e+01 1.969012e+01 1.728050e+01 1.657398e+01 1.778271e+01 1.338601e+01 2.036726e+01 1.694517e+01 1.696289e+01 1.198385e+01 3.424407e-01 2.671508e-01 6.631736e-01 9.876603e-01 3.393061e+00 1.796907e+00 1.933679e+00 2.204277e+00 1.461287e+00 1.936384e+00 2.039851e+00 1.610182e+00 6.157795e-01 3.243143e-02 3.468629e-02 7.828467e-02 8.003588e-02 2.051029e-01 1.554366e-01 1.519458e-01 1.617197e-01 1.958730e-01 2.407334e-01 1.410509e-01 1.253369e-01 4.960832e-02 4.757626e-03 5.478167e-03 1.539126e-02 1.559040e-02 3.665411e-02 1.719924e-02 2.725053e-02 2.839686e-02 2.950349e-02 3.206694e-02 3.254727e-02 2.827563e-02 5.785923e-03
<GCONST> 5.030906e+01
<MIXTURE> 3 2.633625e-01
<MEAN> 52
 -9.758582e+00 -2.478396e+00 -3.468236e+00 -3.597224e+00 -2.749271e+00 -1.341046e+00 -3.130367e+00 -3.144245e+00 -2.383284e+00 -1.717671e+00 -2.896213e+00 -1.943954e+00 5.500370e+01 -1.339895e+00 -4.186208e-02 2.841952e-01 -3.342892e-02 -4.051343e-01 -3.024497e-01 6.925050e-02 -7.644361e-01 -1.068234e-01 -2.517348e-01 7.857649e-01 -2.140960e-03 2.807907e+00 2.486720e-01 3.252473e-01 9.667467e-01 5.428835e-02 -4.911730e-01 1.987323e-02 -3.432956e-01 -1.512558e-01 -5.207151e-01 -1.564209e-01 3.138623e-01 5.111931e-02 7.933033e-01 3.193402e-01 8.034321e-02 2.210504e-01 9.948635e-03 -1.343813e-01 5.588605e-02 -1.621766e-01 1.601764e-01 -1.832283e-01 5.765032e-03 -1.238658e-01 -4.008007e-02 -2.961015e-01
<VARIANCE> 52
 1.219728e+01 2.129913e+01 1.809106e+01 2.287075e+01 3.201455e+01 2.372987e+01 2.831017e+01 2.832022e+01 2.349440e+01 1.625572e+01 1.765005e+01 1.852830e+01 3.358818e+01 8.605153e-01 3.172630e+00 4.047231e+00 2.377470e+00 4.814115e+00 4.093772e+00 4.000036e+00 3.201268e+00 3.204134e+00 2.258921e+00 2.251309e+00 1.821821e+00 3.107895e+00 2.908474e-01 3.925912e-01 9.362376e-01 4.763341e-01 7.599755e-01 6.515366e-01 7.760983e-01 5.593443e-01 7.241263e-01 5.974432e-01 4.085815e-01 5.522240e-01 5.756491e-01 3.547744e-02 1.475400e-01 1.552278e-01 1.054272e-01 1.991991e-01 1.895892e-01 1.793764e-01 1.399620e-01 1.244432e-01 1.199939e-01 1.012203e-01 1.064798e-01 1.190007e-01
<GCONST> 1.144648e+02
<TRANSP> 12
 0.000000e+00 1.000000e+00 0.000000e+00 0.000000e+00 0.000000e+00 0.000000e+00 0.000000e+00 0.000000e+00 0.000000e+00 0.000000e+00 0.000000e+00 0.000000e+00
 0.000000e+00 6.988637e-01 3.011363e-01 0.000000e+00 0.000000e+00 0.000000e+00 0.000000e+00 0.000000e+00 0.000000e+00 0.000000e+00 0.000000e+00 0.000000e+00
 0.000000e+00 0.000000e+00 8.941227e-01 1.058773e-01 0.000000e+00 0.000000e+00 0.000000e+00 0.000000e+00 0.000000e+00 0.000000e+00 0.000000e+00 0.000000e+00
 0.000000e+00 0.000000e+00 0.000000e+00 7.403322e-01 2.596678e-01 0.000000e+00 0.000000e+00 0.000000e+00 0.000000e+00 0.000000e+00 0.000000e+00 0.000000e+00
 0.000000e+00 0.000000e+00 0.000000e+00 0.000000e+00 7.571038e-01 2.428962e-01 0.000000e+00 0.000000e+00 0.000000e+00 0.000000e+00 0.000000e+00 0.000000e+00
 0.000000e+00 0.000000e+00 0.000000e+00 0.000000e+00 0.000000e+00 8.066495e-01 1.933505e-01 0.000000e+00 0.000000e+00 0.000000e+00 0.000000e+00 0.000000e+00
 0.000000e+00 0.000000e+00 0.000000e+00 0.000000e+00 0.000000e+00 0.000000e+00 8.304847e-01 1.695153e-01 0.000000e+00 0.000000e+00 0.000000e+00 0.000000e+00
 0.000000e+00 0.000000e+00 0.000000e+00 0.000000e+00 0.000000e+00 0.000000e+00 0.000000e+00 8.235289e-01 1.764711e-01 0.000000e+00 0.000000e+00 0.000000e+00
 0.000000e+00 0.000000e+00 0.000000e+00 0.000000e+00 0.000000e+00 0.000000e+00 0.000000e+00 0.000000e+00 6.931970e-01 3.068030e-01 0.000000e+00 0.000000e+00
 0.000000e+00 0.000000e+00 0.000000e+00 0.000000e+00 0.000000e+00 0.000000e+00 0.000000e+00 0.000000e+00 0.000000e+00 6.817823e-01 3.182177e-01 0.000000e+00
 0.000000e+00 0.000000e+00 0.000000e+00 0.000000e+00 0.000000e+00 0.000000e+00 0.000000e+00 0.000000e+00 0.000000e+00 0.000000e+00 5.338977e-01 4.661023e-01
 0.000000e+00 0.000000e+00 0.000000e+00 0.000000e+00 0.000000e+00 0.000000e+00 0.000000e+00 0.000000e+00 0.000000e+00 0.000000e+00 0.000000e+00 0.000000e+00
<ENDHMM>
