~o
<STREAMINFO> 1 52
<VECSIZE> 52<NULLD><MFCC_D_A_T_0><DIAGC>
~h "lx"
<BEGINHMM>
<NUMSTATES> 12
<STATE> 2
<NUMMIXES> 3
<MIXTURE> 1 4.681174e-01
<MEAN> 52
 -3.604976e+00 2.295440e+00 1.505997e+01 -7.122067e-01 -1.103728e+01 -6.269267e+00 -1.056923e+01 -2.139714e+00 -9.478713e+00 -2.125380e+00 9.978240e-01 -9.578297e-01 6.967420e+01 -4.165358e-01 -7.830791e-01 1.068441e+00 -1.392900e+00 -2.725295e+00 2.714860e-01 -3.565141e-02 8.534091e-01 -8.163994e-01 1.659973e-01 1.782515e+00 3.139179e-01 2.120838e+00 -8.000295e-02 3.550344e-02 -2.559908e-01 -1.712573e-01 6.237258e-02 4.548014e-01 -4.833924e-02 -1.172120e-01 1.288331e-01 3.561549e-02 -3.685392e-02 -1.784702e-01 -3.345782e-01 1.442452e-01 2.507750e-01 -4.114814e-02 2.024810e-01 4.139978e-01 -1.897911e-02 -6.218120e-02 -1.796101e-01 7.283385e-02 1.507365e-02 -2.896550e-01 -9.722419e-02 -2.363664e-01
<VARIANCE> 52
 1.233884e+01 2.872166e+01 3.807096e+01 5.074139e+01 5.813757e+01 4.561646e+01 5.834711e+01 5.276542e+01 3.750160e+01 3.759157e+01 3.922633e+01 2.847221e+01 2.646982e+01 1.232834e+00 1.850785e+00 2.703769e+00 3.617306e+00 4.053548e+00 3.794595e+00 4.018313e+00 4.031400e+00 2.944118e+00 3.009767e+00 2.688673e+00 2.823366e+00 1.444419e+00 2.642010e-01 4.779182e-01 4.869505e-01 5.193426e-01 1.063373e+00 4.848499e-01 7.364868e-01 7.151051e-01 4.805123e-01 5.873656e-01 6.835671e-01 4.867208e-01 3.388232e-01 5.770567e-02 7.730470e-02 1.054797e-01 1.240784e-01 1.730343e-01 1.438373e-01 1.822638e-01 1.609700e-01 1.090312e-01 1.447383e-01 1.211390e-01 1.240151e-01 4.985170e-02
<GCONST> 1.191548e+02
<MIXTURE> 2 3.461232e-01
<MEAN> 52
 -4.700812e+00 2.448858e+00 5.314117e+00 5.483122e-01 -1.985817e+00 -3.289333e+00 -8.431113e+00 -4.448735e+00 -4.486368e+00 -3.349687e+00 -4.601247e+00 -2.171632e+00 5.715503e+01 1.342298e+00 1.075988e+00 2.932146e+00 3.572773e-02 -1.231644e+00 -1.331350e+00 -1.897788e+00 -7.629651e-01 -1.215204e+00 -4.594346e-01 -4.532884e-01 1.258639e-02 2.530848e+00 -3.262535e-01 -4.835822e-01 4.441014e-02 -6.523371e-01 -6.984205e-01 -2.093613e-01 1.305171e-01 2.110057e-01 -1.827823e-01 1.474364e-01 2.590728e-01 2.422932e-01 5.315759e-01 -1.964804e-01 -1.605767e-01 -2.905885e-01 -7.702698e-02 3.733774e-02 2.111516e-01 2.739695e-01 1.353883e-01 1.193000e-01 1.273163e-01 9.547976e-02 2.122799e-02 -1.953360e-01
<VARIANCE> 52
 2.119028e+01 2.870628e+01 5.673995e+01 3.291336e+01 3.466256e+01 4.105299e+01 5.222711e+01 4.373865e+01 3.495905e+01 4.097918e+01 3.108816e+01 2.045833e+01 3.256849e+01 1.513596e+00 3.000806e+00 4.092930e+00 4.540244e+00 4.225666e+00 3.815835e+00 4.112781e+00 4.586771e+00 3.927344e+00 3.779099e+00 3.498173e+00 2.688227e+00 2.564011e+00 4.214158e-01 6.324382e-01 7.049237e-01 4.887747e-01 6.265824e-01 6.942608e-01 9.063915e-01 9.005970e-01 6.493663e-01 9.000161e-01 5.796666e-01 4.255337e-01 2.843795e-01 7.283421e-02 1.344359e-01 1.584186e-01 1.270396e-01 1.729725e-01 1.694248e-01 1.803155e-01 1.945701e-01 1.756860e-01 1.878291e-01 1.260519e-01 1.239114e-01 9.079572e-02
<GCONST> 1.257470e+02
<MIXTURE> 3 1.857595e-01
<MEAN> 52
 -6.689253e+00 -2.350876e+00 1.092335e+01 -1.770893e+01 -1.422174e+01 -1.269366e+01 -1.383724e+01 -7.816607e+00 -1.326663e+01 -1.074316e+00 -1.207475e+01 -5.971277e-01 6.797308e+01 -5.153263e-01 -4.275963e-01 1.461571e+00 -2.792272e+00 -2.359631e+00 4.214722e-01 1.856843e-01 -7.343535e-01 -2.789972e-01 2.879946e+00 -1.176191e+00 7.639915e-02 2.692620e+00 -2.192788e-01 2.268720e-01 -6.773546e-01 3.937269e-01 3.300255e-01 9.217348e-01 -6.198609e-02 -2.972363e-02 7.043130e-01 -1.770955e-02 1.168179e-01 7.049063e-02 -5.845327e-01 1.414172e-01 2.157904e-01 -9.199102e-02 2.645713e-01 3.368004e-01 -1.182384e-01 -3.142658e-01 7.105850e-03 -4.837723e-03 -5.297700e-01 4.248022e-02 1.497122e-02 -2.784214e-01
<VARIANCE> 52
 1.058692e+01 2.626757e+01 4.009899e+01 5.771714e+01 5.073190e+01 1.949051e+01 5.026502e+01 4.581745e+01 1.881529e+01 5.955546e+01 2.850348e+01 3.964134e+01 2.951358e+01 9.706716e-01 1.907222e+00 4.163857e+00 4.318437e+00 3.661818e+00 5.255212e+00 4.438765e+00 2.264839e+00 4.239545e+00 4.355234e+00 2.241922e+00 3.421806e+00 2.756545e+00 2.263120e-01 4.855054e-01 5.438190e-01 6.435652e-01 9.736969e-01 6.153569e-01 1.599935e+00 6.053606e-01 7.657555e-01 1.629201e+00 4.047234e-01 7.177838e-01 4.142285e-01 3.873454e-02 8.491966e-02 1.651729e-01 1.511248e-01 1.392928e-01 2.231731e-01 2.169580e-01 1.171410e-01 2.126741e-01 2.063994e-01 9.082580e-02 1.359740e-01 8.580063e-02
<GCONST> 1.235314e+02
<STATE> 3
<NUMMIXES> 3
<MIXTURE> 1 5.232747e-01
<MEAN> 52
 -3.923969e+00 3.277870e+00 1.665378e+01 -2.902939e+00 -1.831239e+01 -1.087053e+00 -1.181536e+01 -1.580447e+00 -9.911254e+00 -3.057137e+00 5.584766e+00 -1.936498e+00 7.363569e+01 1.060866e-01 9.752429e-01 -3.894275e-01 -8.499517e-01 2.069698e-01 1.237761e+00 -1.994458e-01 -8.695185e-01 1.616919e-01 2.936652e-01 -4.341253e-02 -8.233512e-01 -9.484501e-02 8.896163e-02 1.453498e-01 -4.153330e-01 2.176826e-01 7.933210e-01 -1.925776e-01 1.790758e-01 -2.790516e-01 6.753688e-02 1.733178e-01 -4.914275e-01 -1.399049e-01 -3.599086e-01 -1.155292e-02 -1.273550e-01 6.082648e-02 9.166922e-02 -1.839367e-01 -1.646250e-01 8.788783e-02 1.116214e-01 -8.572465e-02 -9.265035e-03 9.519986e-02 1.000433e-01 1.328707e-01
<VARIANCE> 52
 9.377670e+00 2.598395e+01 2.530186e+01 3.822724e+01 3.012160e+01 6.360855e+01 6.196919e+01 5.404526e+01 4.443368e+01 4.856234e+01 2.510148e+01 3.507665e+01 1.277777e+01 3.445860e-01 8.375734e-01 1.273173e+00 1.119887e+00 2.625306e+00 2.148331e+00 2.704973e+00 2.297943e+00 2.683552e+00 1.971131e+00 2.416519e+00 1.830779e+00 3.842118e-01 9.206832e-02 2.018337e-01 2.336744e-01 2.915565e-01 4.324954e-01 5.274826e-01 5.348035e-01 4.243155e-01 4.851218e-01 3.980395e-01 4.402525e-01 3.970957e-01 1.340692e-01 1.770897e-02 3.409921e-02 4.972305e-02 4.245044e-02 1.093192e-01 9.055131e-02 1.059456e-01 8.090771e-02 9.627718e-02 8.776613e-02 8.767849e-02 7.357540e-02 1.748257e-02
<GCONST> 9.364272e+01
<MIXTURE> 2 2.516355e-01
<MEAN> 52
 -8.883791e+00 6.703483e-01 1.136868e+01 -2.404942e+01 -1.687865e+01 -6.024552e+00 -1.817191e+01 -1.192978e+01 -9.275666e+00 3.403723e+00 -1.625181e+01 1.033564e+00 7.217619e+01 5.102851e-02 1.503427e+00 -3.127448e-01 -5.953726e-01 1.342042e+00 1.122863e+00 -2.309461e+00 -3.552035e-01 9.332369e-01 -9.736585e-01 -7.277493e-01 6.626759e-01 -3.172794e-01 2.463545e-01 5.524571e-03 -2.384088e-01 4.729881e-01 5.829459e-01 -4.459729e-01 -1.987720e-02 2.082622e-01 -1.646178e-01 -5.932361e-01 1.728674e-01 -1.131932e-01 -4.112013e-01 -4.022751e-03 -2.219354e-01 8.524818e-02 -4.898932e-02 -2.539015e-01 -1.711128e-01 2.997132e-01 6.877328e-03 -1.468395e-01 2.635320e-01 2.389551e-02 -1.154798e-01 1.922651e-01
<VARIANCE> 52
 5.891091e+00 1.755778e+01 1.198709e+01 2.777848e+01 3.006140e+01 1.729243e+01 3.579047e+01 2.780509e+01 2.983799e+01 3.415710e+01 2.640246e+01 3.480335e+01 1.181832e+01 3.829977e-01 4.766500e-01 1.199211e+00 1.343136e+00 2.086333e+00 1.959293e+00 2.431680e+00 2.543728e+00 2.547289e+00 2.402746e+00 1.378206e+00 1.785251e+00 4.271876e-01 7.512667e-02 2.658130e-01 2.244717e-01 2.453717e-01 4.777598e-01 3.960031e-01 6.311433e-01 3.281098e-01 4.939015e-01 6.391912e-01 2.573523e-01 3.730839e-01 1.506940e-01 2.131280e-02 3.077940e-02 4.739540e-02 5.258669e-02 8.067477e-02 1.026073e-01 1.003378e-01 8.215078e-02 1.257659e-01 1.094203e-01 6.466834e-02 6.645922e-02 2.217894e-02
<GCONST> 8.735878e+01
<MIXTURE> 3 2.250898e-01
<MEAN> 52
 -6.375518e+00 -2.874974e-01 2.296390e+01 -1.491344e+01 -1.263818e+01 1.488778e+00 -1.236012e+01 -4.188899e+00 -1.362059e+01 4.043661e+00 2.852519e+00 -2.746664e+00 7.238995e+01 1.395698e-01 8.219271e-01 -1.090527e-01 -2.142521e-01 9.271150e-01 6.165141e-01 -3.942356e-01 -1.081918e+00 -6.012736e-01 7.377062e-01 -1.505502e-01 -7.056681e-01 -4.678945e-01 1.257662e-01 1.357404e-01 -3.664880e-01 3.892835e-01 1.511951e-01 -2.160523e-01 7.931156e-02 -8.969925e-02 9.420672e-03 -4.517319e-02 1.674689e-02 8.107979e-03 -1.784855e-01 -4.525620e-02 -8.810657e-02 2.612156e-02 -4.420269e-02 -1.261396e-01 -7.675044e-02 6.333483e-02 1.381741e-01 2.724322e-02 -1.073912e-01 4.533035e-02 1.079919e-01 1.057971e-01
<VARIANCE> 52
 9.008225e+00 2.165934e+01 1.702829e+01 6.497417e+01 2.622154e+01 2.157740e+01 2.005057e+01 1.917815e+01 2.476718e+01 3.461713e+01 1.440324e+01 2.938351e+01 8.894191e+00 1.996189e-01 2.615463e-01 7.844861e-01 7.272615e-01 4.839899e-01 7.597616e-01 7.252528e-01 7.947665e-01 9.560943e-01 5.092549e-01 5.497544e-01 6.462821e-01 1.434888e-01 2.976193e-02 1.447097e-01 8.549814e-02 1.711897e-01 1.307254e-01 1.232016e-01 1.531411e-01 2.100655e-01 1.268204e-01 1.688249e-01 9.931146e-02 1.596547e-01 6.011790e-02 8.286071e-03 1.942740e-02 1.422824e-02 3.404897e-02 2.048995e-02 2.370971e-02 2.983531e-02 3.413079e-02 3.629912e-02 2.933634e-02 2.274817e-02 2.897746e-02 8.790690e-03
<GCONST> 4.854225e+01
<STATE> 4
<NUMMIXES> 3
<MIXTURE> 1 3.514789e-01
<MEAN> 52
 -2.086051e+00 5.221817e+00 6.897827e+00 -6.175175e+00 -1.373620e+01 -4.787019e+00 -1.281867e+01 -7.984779e+00 -1.221549e+01 -1.140326e+00 -5.465809e+00 -5.543973e+00 6.959049e+01 -2.220621e-01 9.064245e-01 -6.695842e-01 6.163372e-01 3.009377e-01 -2.088655e-01 6.627342e-01 -7.768432e-01 -3.677426e-02 -4.140317e-01 -1.270949e-01 2.072666e-01 -3.480123e-01 -5.940217e-01 3.070391e-01 9.649997e-02 1.323184e-01 3.005098e-01 -2.617364e-02 2.732511e-01 1.304159e-02 3.110000e-01 -2.108645e-01 1.267435e-01 2.149553e-01 3.552863e-02 -2.115328e-01 -3.963495e-02 -3.264730e-02 -2.554562e-03 1.256999e-01 3.389744e-02 5.602258e-02 1.250075e-01 8.576263e-02 4.865509e-02 1.641379e-02 -4.880517e-02 3.873094e-02
<VARIANCE> 52
 1.371023e+01 2.012497e+01 3.785171e+01 1.174176e+02 4.195690e+01 5.668671e+01 1.048842e+02 9.510806e+01 4.528464e+01 7.813419e+01 1.362636e+02 3.905909e+01 2.152458e+01 1.361714e+00 1.506367e+00 2.877965e+00 2.980191e+00 3.216037e+00 2.683656e+00 3.773310e+00 3.341723e+00 3.070055e+00 3.422314e+00 3.795900e+00 2.790055e+00 4.921505e-01 2.496513e-01 3.049251e-01 4.121365e-01 6.786147e-01 6.960835e-01 5.516704e-01 8.109236e-01 6.807827e-01 6.185385e-01 6.057279e-01 7.648193e-01 6.150408e-01 7.950431e-02 2.915830e-02 6.532298e-02 1.122489e-01 1.281082e-01 1.520142e-01 1.388440e-01 1.905173e-01 1.359485e-01 1.350687e-01 1.421581e-01 1.624194e-01 1.212094e-01 2.219253e-02
<GCONST> 1.185776e+02
<MIXTURE> 2 2.789553e-01
<MEAN> 52
 -5.473206e+00 2.622080e+00 6.941128e+00 -2.167563e+01 -8.800707e+00 -7.976113e+00 -2.479215e+01 -9.666450e+00 -9.566600e+00 -2.541801e+00 -1.879886e+01 1.361181e+00 6.810918e+01 4.512732e-01 -1.126818e-02 -6.104547e-01 7.234846e-01 2.077747e-01 -3.960718e-01 -7.724361e-02 -1.584551e-01 -2.242201e-01 -4.802782e-01 -2.227856e-01 -4.953955e-01 -4.825716e-01 -8.083380e-02 2.723841e-02 -3.160613e-02 8.338426e-02 -2.555575e-01 5.574575e-03 2.292605e-01 -1.492881e-01 -4.576122e-02 2.694921e-02 1.103844e-01 -5.192674e-02 1.579678e-02 -7.109387e-02 9.646617e-02 -8.607659e-03 3.356292e-03 8.213033e-03 5.845463e-02 -2.679043e-02 -2.607021e-02 4.401833e-02 -4.026419e-02 4.827171e-02 3.213711e-02 9.698695e-03
<VARIANCE> 52
 1.073037e+01 1.292754e+01 1.408457e+01 5.727018e+01 4.044551e+01 2.432913e+01 2.175300e+01 5.393679e+01 2.619465e+01 5.019600e+01 3.708253e+01 3.108156e+01 2.001244e+01 2.922793e-01 7.148249e-01 6.737456e-01 1.327558e+00 1.517757e+00 1.256806e+00 1.998343e+00 1.889404e+00 1.684831e+00 1.719491e+00 1.402628e+00 1.241906e+00 1.335962e-01 4.490158e-02 1.761340e-01 1.484740e-01 2.596045e-01 1.986623e-01 2.645742e-01 4.002971e-01 3.011676e-01 3.062786e-01 3.607675e-01 3.509961e-01 2.418856e-01 2.212482e-02 1.179957e-02 1.967157e-02 3.038891e-02 6.594960e-02 4.070848e-02 5.780943e-02 8.802134e-02 6.781199e-02 6.726781e-02 7.970822e-02 8.316923e-02 5.476325e-02 4.688838e-03
<GCONST> 7.491068e+01
<MIXTURE> 3 3.695657e-01
<MEAN> 52
 -2.671916e+00 5.834538e+00 1.264031e+01 -4.789173e+00 -1.270182e+01 5.083411e-01 -1.004904e+01 -7.849941e+00 -9.480458e+00 4.387605e-01 3.077604e+00 -4.989890e+00 7.134706e+01 6.353966e-02 3.802866e-01 -7.043532e-01 4.584008e-01 5.478500e-01 -5.656699e-01 5.220317e-01 -1.580823e-01 -3.655858e-01 1.680997e-01 -2.106176e-01 -2.537711e-01 -2.002553e-01 -2.432531e-01 1.114452e-01 2.152980e-02 1.935344e-01 -9.496506e-02 -3.136303e-01 3.325880e-01 1.678616e-01 -1.261856e-04 -1.508930e-01 4.513391e-02 2.166672e-01 5.121999e-02 -1.273802e-01 1.063337e-01 -1.594949e-03 -2.532488e-02 7.040550e-02 8.721391e-02 2.667141e-02 -3.515058e-02 1.081258e-01 -1.938991e-02 -1.598868e-02 3.998129e-02 2.021833e-03
<VARIANCE> 52
 1.014035e+01 2.388832e+01 3.910206e+01 6.055875e+01 3.536940e+01 6.205688e+01 5.343196e+01 5.810889e+01 5.645560e+01 4.822490e+01 3.103776e+01 3.307581e+01 1.334808e+01 3.840776e-01 5.019007e-01 1.152220e+00 1.512260e+00 1.042221e+00 1.648241e+00 1.468411e+00 1.325397e+00 1.541956e+00 1.451545e+00 1.487124e+00 1.432725e+00 1.803245e-01 7.978345e-02 1.503888e-01 1.966655e-01 2.234083e-01 3.185522e-01 3.717643e-01 3.326276e-01 2.834103e-01 4.190085e-01 2.575705e-01 2.775556e-01 2.217306e-01 2.951679e-02 1.419531e-02 2.498044e-02 4.718392e-02 5.356234e-02 7.548820e-02 7.348294e-02 6.298334e-02 6.749648e-02 7.226431e-02 5.739910e-02 7.011221e-02 5.983546e-02 7.537401e-03
<GCONST> 8.095657e+01
<STATE> 5
<NUMMIXES> 3
<MIXTURE> 1 3.663589e-01
<MEAN> 52
 -6.316570e+00 1.105451e+01 1.091503e+01 -2.123348e+00 -9.435212e+00 -3.516666e+00 -4.399605e+00 -8.677525e+00 -1.016527e+01 -7.219311e-01 1.770111e+00 -2.791502e+00 7.086698e+01 -2.988431e+00 2.430560e+00 -1.277140e+00 1.186823e+00 2.788886e+00 -1.088929e+00 2.542242e+00 -8.530404e-03 1.698805e+00 -7.817733e-01 -9.074789e-01 1.295521e+00 -3.153591e-01 -9.543847e-01 -2.210411e-01 -3.598852e-01 -3.481793e-03 4.110403e-01 2.966940e-01 -6.688280e-02 3.721216e-01 3.589819e-01 -3.771902e-03 -1.709697e-01 -9.647480e-02 7.844599e-03 1.862202e-01 -4.250411e-01 1.833141e-03 -2.426100e-01 -3.860959e-01 1.348312e-01 -3.503464e-01 -1.169710e-02 -2.276947e-01 1.370132e-01 1.024676e-01 -2.068103e-01 3.448955e-02
<VARIANCE> 52
 1.218662e+01 1.874753e+01 2.482431e+01 4.400842e+01 3.629388e+01 3.987114e+01 5.493598e+01 4.389780e+01 3.792093e+01 3.688950e+01 2.985845e+01 3.359713e+01 1.472499e+01 1.607350e+00 1.613517e+00 2.812437e+00 3.477401e+00 4.051590e+00 3.097973e+00 2.794168e+00 4.494820e+00 3.874619e+00 3.451603e+00 2.578286e+00 2.557851e+00 4.296901e-01 2.015586e-01 4.251955e-01 3.165224e-01 3.347294e-01 6.210580e-01 4.569218e-01 6.313080e-01 4.964956e-01 4.977962e-01 4.431143e-01 4.568995e-01 4.060788e-01 6.830019e-02 5.516459e-02 5.499576e-02 8.044312e-02 8.668502e-02 1.611059e-01 1.223838e-01 1.115220e-01 1.547550e-01 1.370103e-01 1.235865e-01 1.054703e-01 9.429510e-02 1.447203e-02
<GCONST> 1.071597e+02
<MIXTURE> 2 4.568601e-01
<MEAN> 52
 -1.831024e+01 1.493346e+01 4.997077e+00 4.347834e-01 -1.913567e+00 -3.747871e+00 -1.218169e+00 -7.621442e+00 -5.320537e+00 -3.937616e+00 -3.039020e+00 -2.040899e+00 6.944164e+01 -4.511308e+00 -3.256205e-01 -1.782001e+00 4.544442e-01 1.988894e+00 7.574806e-01 1.564957e+00 1.345071e+00 1.688921e+00 3.359256e-01 1.798510e-02 3.743040e-01 9.049106e-02 3.442409e-01 -9.196808e-01 -1.579476e-01 -8.663471e-01 -8.475120e-01 -1.891855e-02 -7.661207e-01 -7.300715e-02 -2.730187e-01 3.509880e-01 1.327474e-01 -9.327121e-02 1.906194e-02 5.043891e-01 1.194014e-01 1.732967e-01 -5.387257e-02 -2.769896e-01 -2.035324e-01 -1.176444e-01 -2.421999e-01 -2.114576e-01 -8.738832e-02 2.632483e-02 -1.412117e-02 -2.986350e-02
<VARIANCE> 52
 3.054454e+01 1.757603e+01 3.695094e+01 3.696506e+01 3.167825e+01 2.846739e+01 4.612514e+01 3.692853e+01 2.857164e+01 3.391217e+01 3.469463e+01 2.471631e+01 1.963583e+01 1.813000e+00 2.460064e+00 2.454615e+00 2.962797e+00 2.826883e+00 2.982415e+00 4.175763e+00 2.802867e+00 2.747130e+00 3.304070e+00 3.457971e+00 2.592893e+00 5.360059e-01 3.998980e-01 3.223740e-01 3.997616e-01 4.177821e-01 6.403468e-01 5.127354e-01 4.857520e-01 5.037529e-01 5.987034e-01 5.720164e-01 5.649751e-01 5.689053e-01 8.181313e-02 5.952634e-02 9.089154e-02 9.211636e-02 9.046793e-02 1.364045e-01 1.059644e-01 1.458693e-01 9.666295e-02 1.183760e-01 1.372525e-01 1.169166e-01 1.198858e-01 1.917181e-02
<GCONST> 1.098574e+02
<MIXTURE> 3 1.767810e-01
<MEAN> 52
 -9.686490e+00 1.090134e+01 1.751868e+00 -1.351487e+01 -1.224227e+01 -9.918963e+00 -2.040391e+01 -1.791814e+01 -1.049002e+01 -9.788694e+00 -1.300167e+01 -4.173538e+00 6.574930e+01 -3.924096e+00 1.760212e+00 -1.067749e+00 3.443573e+00 8.008637e-01 1.753647e-01 3.376145e+00 3.510399e-01 9.879323e-01 -8.452041e-01 2.321120e+00 -1.315028e+00 3.998960e-01 -8.463418e-01 -5.476015e-01 -6.703172e-02 2.864083e-01 6.765247e-01 5.612853e-01 8.014836e-01 9.117336e-01 5.038831e-01 7.171256e-01 1.389870e-01 2.583905e-01 2.583907e-01 3.724068e-01 -2.697363e-01 4.274162e-02 -4.936587e-01 -6.559020e-02 7.111936e-02 -4.030805e-01 -1.355116e-03 -5.785083e-02 2.237839e-01 -2.489344e-01 2.669994e-01 -6.327780e-02
<VARIANCE> 52
 2.577382e+01 2.153340e+01 2.475387e+01 5.633823e+01 2.285230e+01 3.497364e+01 3.589016e+01 4.095160e+01 2.058728e+01 3.052630e+01 2.975362e+01 4.224697e+01 2.339602e+01 2.051074e+00 1.935569e+00 1.763156e+00 4.242422e+00 5.462820e+00 5.116243e+00 3.376838e+00 3.118320e+00 2.181334e+00 4.211062e+00 3.574730e+00 3.361758e+00 4.898916e-01 3.479330e-01 3.744662e-01 3.402721e-01 8.920683e-01 5.414695e-01 5.636970e-01 6.895694e-01 3.511868e-01 3.818284e-01 5.249678e-01 7.512889e-01 8.804700e-01 8.438532e-02 8.460269e-02 7.418810e-02 6.326490e-02 1.370712e-01 2.058273e-01 1.918299e-01 1.692542e-01 1.326830e-01 1.046708e-01 1.595721e-01 1.713274e-01 1.305777e-01 1.720200e-02
<GCONST> 1.137744e+02
<STATE> 6
<NUMMIXES> 3
<MIXTURE> 1 2.531660e-01
<MEAN> 52
 -2.637273e+01 1.062476e+01 -7.320224e-01 -2.187086e+00 -2.301532e+00 -4.481082e+00 -5.267493e-01 -6.190483e+00 -2.747624e+00 -2.025446e+00 -1.552008e+00 -1.442189e+00 6.963669e+01 -2.323846e+00 -1.713660e+00 -1.885243e+00 -1.866364e+00 -9.746632e-01 -5.271466e-01 -4.067553e-01 -1.711609e-01 3.564142e-01 5.052393e-01 3.493093e-01 3.665682e-01 5.680475e-02 1.080788e+00 -9.810255e-03 5.395120e-01 -1.480122e-01 -4.468777e-01 -1.062443e-01 -3.168579e-01 -2.270637e-01 -4.090542e-01 -2.248253e-02 2.639933e-02 -4.064020e-02 -1.866676e-02 1.238110e-01 3.546498e-01 2.895319e-01 3.984156e-01 3.486192e-01 8.617566e-02 2.214902e-01 8.381335e-02 7.278303e-02 -1.308135e-01 -9.535849e-02 -2.279254e-02 -9.090846e-03
<VARIANCE> 52
 1.090114e+01 2.130444e+01 3.711788e+01 3.364462e+01 2.631167e+01 3.167516e+01 4.332393e+01 4.301650e+01 2.683130e+01 3.252903e+01 3.040194e+01 2.522750e+01 1.501526e+01 1.650538e+00 9.034913e-01 1.489139e+00 1.167824e+00 1.555236e+00 1.905920e+00 2.089222e+00 1.909337e+00 2.238993e+00 2.078934e+00 2.189731e+00 1.933450e+00 2.437251e-01 1.622276e-01 3.370911e-01 4.146573e-01 4.529646e-01 5.723325e-01 4.770792e-01 5.557460e-01 3.921516e-01 4.478298e-01 4.153382e-01 4.233113e-01 4.224556e-01 6.471784e-02 6.242707e-02 4.665641e-02 5.815314e-02 5.097108e-02 7.442641e-02 9.848888e-02 1.074424e-01 8.587123e-02 1.181346e-01 9.873587e-02 1.047850e-01 1.064764e-01 1.198008e-02
<GCONST> 9.534486e+01
<MIXTURE> 2 6.165980e-01
<MEAN> 52
 -2.968989e+01 8.385766e+00 -2.299499e+00 -6.540448e+00 -3.110434e+00 -4.319179e+00 -2.996301e+00 -5.440742e+00 -3.096466e+00 -7.420320e-01 -2.006252e+00 -1.060019e+00 6.914923e+01 -1.082258e-01 -5.052772e-01 2.803608e-01 -2.871287e-01 4.543891e-02 1.876046e-01 1.602733e-01 3.033741e-01 1.315782e-01 1.653380e-01 1.917195e-02 9.179666e-02 -1.664922e-01 7.047459e-01 1.947450e-01 5.641171e-01 1.545956e-01 -1.526871e-01 -1.241645e-01 -2.553752e-01 -2.234301e-01 -2.649844e-01 -2.272021e-01 -1.142795e-01 -7.507759e-02 -1.769639e-04 2.318574e-02 -9.046979e-03 2.473959e-02 -2.136756e-03 -8.800038e-02 -6.405154e-02 -1.185134e-01 -7.410391e-02 -6.385902e-02 -4.952268e-02 1.120133e-02 8.704729e-03 6.459346e-02
<VARIANCE> 52
 8.894007e+00 1.591638e+01 3.468044e+01 2.222978e+01 1.619432e+01 3.096975e+01 4.032840e+01 3.291192e+01 2.740908e+01 2.298631e+01 2.502964e+01 1.582273e+01 1.708243e+01 7.906626e-01 6.533509e-01 1.302372e+00 1.079455e+00 1.378216e+00 1.537949e+00 1.657074e+00 1.797256e+00 1.954181e+00 2.089001e+00 1.760681e+00 1.547705e+00 2.073780e-01 2.710526e-01 1.832958e-01 3.101773e-01 3.297733e-01 3.864711e-01 4.174135e-01 4.458328e-01 4.680757e-01 4.499013e-01 4.101933e-01 3.842936e-01 3.263413e-01 4.564036e-02 4.744348e-02 3.440611e-02 4.835275e-02 5.343964e-02 8.132919e-02 9.279440e-02 1.010940e-01 8.655153e-02 1.074889e-01 1.013354e-01 9.516133e-02 8.677851e-02 1.260155e-02
<GCONST> 8.698437e+01
<MIXTURE> 3 1.302360e-01
<MEAN> 52
 -2.372979e+01 8.285668e+00 -6.835213e-01 -1.030359e+01 -9.967984e+00 -6.355238e+00 -9.744477e+00 -1.291965e+01 -5.721407e+00 -3.319875e+00 -4.557078e+00 -1.667374e+00 6.681911e+01 3.489805e+00 -1.672330e-01 2.019627e+00 -2.526782e+00 -2.737392e+00 -2.252510e+00 -3.595044e+00 -3.228615e+00 -2.906117e+00 -1.620788e+00 -2.214503e+00 -5.111501e-01 6.975989e-01 5.542687e-02 -4.673505e-01 2.973146e-01 -5.005183e-01 2.594141e-01 1.613651e-01 -5.694079e-02 2.387108e-01 -1.263467e-01 -1.403042e-02 -6.122667e-01 -1.013499e-01 3.527375e-01 -4.798391e-01 -8.479711e-02 -1.592301e-01 2.150349e-01 4.535970e-01 3.475051e-01 5.054291e-01 5.161253e-01 3.961644e-01 2.693752e-01 2.522942e-01 8.881295e-02 -8.730941e-02
<VARIANCE> 52
 4.357750e+01 1.874651e+01 2.932070e+01 2.503239e+01 4.526053e+01 5.167141e+01 7.416586e+01 6.478785e+01 4.717654e+01 3.100356e+01 2.963670e+01 2.082529e+01 2.405563e+01 1.116383e+00 1.479145e+00 1.717567e+00 2.384365e+00 2.009559e+00 3.048965e+00 3.835185e+00 2.285372e+00 2.501962e+00 2.129755e+00 3.093578e+00 3.006027e+00 7.209660e-01 8.615139e-01 2.525408e-01 3.516273e-01 4.252032e-01 1.009525e+00 9.436016e-01 1.324311e+00 1.304650e+00 9.178254e-01 6.494619e-01 5.404168e-01 3.845439e-01 8.888032e-02 4.310873e-02 7.186031e-02 7.002675e-02 9.271692e-02 8.945491e-02 1.317471e-01 1.378995e-01 1.123722e-01 1.056531e-01 8.897182e-02 1.309292e-01 9.830827e-02 3.111339e-02
<GCONST> 1.121243e+02
<STATE> 7
<NUMMIXES> 3
<MIXTURE> 1 1.631849e-01
<MEAN> 52
 -1.085513e+01 2.585311e+00 1.580607e+01 -2.236086e+00 -1.293539e+01 -9.341103e+00 -1.017308e+01 -8.935182e+00 -8.755582e+00 -5.554880e+00 6.993122e-01 1.152970e+00 7.530314e+01 3.748968e+00 -2.815679e+00 3.743888e+00 2.909218e-01 -3.016285e+00 -2.715987e-01 -3.370285e+00 -6.209937e-01 -1.088179e+00 -1.759926e+00 1.469745e+00 9.141797e-01 1.753905e+00 -1.116783e+00 -9.334655e-03 -8.285367e-01 -4.879349e-01 2.976869e-01 4.123562e-01 3.520212e-01 2.636667e-01 1.351317e-01 2.701816e-01 1.153792e-01 -1.384502e-01 -3.186578e-01 -3.959877e-01 3.795703e-01 -3.900102e-01 -6.098440e-02 3.790746e-01 9.058087e-02 4.842248e-01 1.162159e-01 1.117882e-01 2.577145e-01 -2.462155e-01 -1.971651e-01 -2.837093e-01
<VARIANCE> 52
 1.284415e+01 3.085175e+01 2.085155e+01 3.086207e+01 1.698296e+01 2.160506e+01 4.850359e+01 1.711466e+01 3.359541e+01 2.971010e+01 1.124068e+01 1.737982e+01 4.303451e+00 2.302621e+00 1.112642e+00 3.019539e+00 2.086254e+00 1.974519e+00 2.931513e+00 9.907368e-01 1.981368e+00 2.032102e+00 2.246898e+00 1.326465e+00 2.147827e+00 6.726997e-01 2.547313e-01 5.565889e-01 3.101574e-01 1.695494e-01 4.447312e-01 3.733758e-01 3.064183e-01 2.230938e-01 2.893452e-01 3.053908e-01 2.073185e-01 2.781667e-01 1.014320e-01 9.070352e-02 4.108493e-02 8.098809e-02 5.351040e-02 7.677183e-02 1.086171e-01 3.570357e-02 5.903979e-02 7.741581e-02 7.582861e-02 5.045691e-02 7.706626e-02 2.332523e-02
<GCONST> 8.829307e+01
<MIXTURE> 2 5.385528e-01
<MEAN> 52
 -2.491843e+01 7.151644e+00 4.183512e+00 -4.917165e+00 -2.755042e+00 -4.429726e+00 -8.441933e-01 -4.970992e+00 -4.108506e+00 -1.764097e+00 -2.231980e+00 -1.171719e+00 6.908694e+01 4.071909e+00 3.603030e-01 3.687978e+00 1.153836e+00 -1.359854e+00 -7.404461e-01 -2.018653e+00 -8.493633e-01 -1.498522e+00 -1.128590e+00 1.044511e-01 -1.394600e-01 6.146531e-01 9.699318e-01 -1.721884e-01 6.368464e-01 1.968003e-01 -7.931245e-01 -1.209912e-01 -9.176902e-01 -2.865602e-01 -4.678941e-01 -2.805802e-01 3.835729e-01 5.699087e-02 4.445530e-01 -5.606201e-01 -2.639639e-01 -4.724889e-01 -2.786230e-01 2.401287e-02 1.622176e-01 1.446466e-01 1.576634e-01 1.784337e-01 1.562237e-01 5.853486e-02 1.547054e-02 -5.340783e-02
<VARIANCE> 52
 2.134718e+01 2.155198e+01 3.789360e+01 2.124367e+01 2.018800e+01 2.717216e+01 3.264386e+01 2.865854e+01 2.640048e+01 2.309457e+01 2.020378e+01 1.809979e+01 1.129436e+01 2.270845e+00 2.714160e+00 2.529437e+00 1.889497e+00 3.030371e+00 2.317549e+00 2.308577e+00 2.042609e+00 2.197483e+00 1.839396e+00 1.947804e+00 1.449195e+00 6.621127e-01 4.182209e-01 3.656813e-01 5.099115e-01 3.314989e-01 3.600971e-01 4.899943e-01 3.757955e-01 3.066029e-01 5.255367e-01 4.364207e-01 3.986900e-01 4.117546e-01 7.443492e-02 7.231767e-02 8.325293e-02 7.061613e-02 5.429323e-02 1.435575e-01 8.886755e-02 1.072294e-01 8.201313e-02 8.676177e-02 8.209014e-02 9.261838e-02 7.313431e-02 2.636569e-02
<GCONST> 9.840949e+01
<MIXTURE> 3 2.982623e-01
<MEAN> 52
 -1.661679e+01 2.821349e+00 7.250543e+00 -2.106797e+01 -1.162446e+01 -1.009318e+01 -1.653513e+01 -1.861565e+01 -1.210388e+01 -6.855285e+00 -1.493560e+01 -2.424185e+00 7.116391e+01 2.389274e-01 -1.359775e+00 1.820578e+00 -2.126541e+00 1.110177e+00 6.379427e-02 -4.285789e-01 4.596527e-01 -5.494433e-01 2.251005e-01 -1.729382e+00 1.240385e-01 7.318631e-01 -6.231520e-01 3.046431e-01 -4.485412e-01 5.850632e-01 3.815656e-01 3.119580e-01 5.246505e-01 4.942590e-01 5.324736e-01 3.651211e-01 6.387486e-01 1.757192e-01 -2.093176e-01 2.137384e-01 1.776562e-01 -1.120756e-01 1.062966e-01 -3.260994e-01 -1.708121e-01 -1.775399e-01 -2.790123e-01 -9.112529e-02 -1.347311e-01 8.900139e-02 -3.337051e-02 -5.585030e-02
<VARIANCE> 52
 6.923924e+00 1.134316e+01 2.115835e+01 2.349390e+01 2.504842e+01 1.323109e+01 2.198522e+01 3.728589e+01 2.324046e+01 1.451175e+01 2.200987e+01 3.897326e+01 1.523408e+01 1.010054e+00 1.496912e+00 1.958309e+00 2.142383e+00 1.890364e+00 2.184523e+00 2.400419e+00 1.706004e+00 1.124774e+00 1.611279e+00 2.047112e+00 1.700273e+00 2.562928e-01 2.770265e-01 1.682903e-01 2.998047e-01 2.768346e-01 6.340117e-01 3.582427e-01 5.872269e-01 4.324693e-01 2.772197e-01 2.788765e-01 2.368681e-01 3.063594e-01 4.129972e-02 3.736573e-02 6.626720e-02 7.194474e-02 8.414940e-02 6.989634e-02 7.398808e-02 9.253021e-02 7.636791e-02 5.214413e-02 6.172514e-02 8.752419e-02 5.327234e-02 1.348101e-02
<GCONST> 8.559280e+01
<STATE> 8
<NUMMIXES> 3
<MIXTURE> 1 3.050633e-01
<MEAN> 52
 -8.595780e+00 1.968272e+00 1.836279e+01 -4.515941e+00 -1.546409e+01 -4.679358e+00 -1.608489e+01 -7.311116e+00 -1.254189e+01 -5.946901e+00 1.666047e+00 -1.566038e+00 7.413953e+01 6.604505e-01 -9.992800e-01 7.491731e-01 -4.111842e-01 -1.139930e+00 9.244056e-01 -1.313399e+00 4.736204e-01 -5.316724e-01 -1.316190e-01 7.958125e-01 -5.377000e-01 2.711431e-01 -7.670827e-01 4.640271e-01 -7.758136e-01 3.407275e-02 7.177612e-01 -5.158033e-02 9.038926e-01 1.091643e-01 4.350736e-01 2.490973e-01 -2.603926e-01 -1.221785e-01 -3.492190e-01 2.779933e-01 1.167272e-01 1.771908e-01 1.323871e-01 3.301728e-03 -1.877052e-01 -1.263394e-02 -1.305789e-01 -4.876212e-02 -5.835232e-02 -1.050517e-01 6.118957e-02 4.251854e-03
<VARIANCE> 52
 1.170600e+01 2.317677e+01 2.369923e+01 4.372460e+01 2.432591e+01 4.007120e+01 3.685507e+01 4.899190e+01 4.031132e+01 4.550371e+01 2.788803e+01 2.817533e+01 1.205332e+01 4.498081e-01 8.159752e-01 1.146052e+00 1.235442e+00 1.716832e+00 1.520162e+00 1.822620e+00 1.330393e+00 1.412361e+00 1.815863e+00 1.307240e+00 1.340746e+00 1.961874e-01 2.126432e-01 1.449067e-01 2.515634e-01 2.243841e-01 2.922460e-01 3.810434e-01 2.894693e-01 3.732014e-01 3.084698e-01 3.313021e-01 2.734152e-01 2.985846e-01 6.184089e-02 2.803309e-02 5.118574e-02 3.934224e-02 3.969968e-02 8.545069e-02 5.873790e-02 8.111168e-02 5.639635e-02 5.799972e-02 6.213063e-02 6.039849e-02 5.526126e-02 1.627831e-02
<GCONST> 8.275157e+01
<MIXTURE> 2 4.817675e-01
<MEAN> 52
 -1.745970e+01 2.133587e+00 1.058955e+01 -2.721368e+01 -7.817585e+00 -1.119342e+01 -1.624957e+01 -1.640100e+01 -1.037271e+01 -4.539269e+00 -1.823840e+01 -8.831351e-01 7.278207e+01 1.710699e-01 -6.772523e-02 6.154020e-02 -1.738564e-01 -5.216899e-02 9.412321e-02 -2.862548e-02 1.692181e-01 1.026066e-01 1.779440e-01 -1.014223e-01 -1.858385e-03 -1.214272e-01 4.203844e-02 9.593025e-03 -7.681955e-02 9.235285e-02 -9.358078e-02 2.657268e-02 8.601308e-04 -4.360675e-02 2.453753e-02 -4.741471e-02 5.287656e-02 -3.481227e-02 -7.119184e-02 1.079386e-02 -1.545139e-02 2.001159e-02 -3.381259e-02 7.987426e-03 -1.166521e-02 -4.804125e-03 -5.650861e-03 -1.493241e-02 -1.806416e-02 -2.813432e-02 2.244222e-03 1.743150e-03
<VARIANCE> 52
 1.041360e+01 8.155761e+00 1.032897e+01 1.842199e+01 8.860271e+00 1.512236e+01 2.407930e+01 1.989087e+01 1.930200e+01 1.841368e+01 1.604962e+01 8.890133e+00 5.186198e+00 1.100395e-01 1.620797e-01 2.650832e-01 4.404783e-01 3.870218e-01 4.606310e-01 6.229383e-01 6.007936e-01 4.863206e-01 4.755287e-01 5.829808e-01 3.478407e-01 1.031765e-01 2.039093e-02 3.452039e-02 5.466275e-02 8.723293e-02 8.288463e-02 8.166567e-02 1.251025e-01 1.120472e-01 9.239244e-02 9.896929e-02 1.155037e-01 6.668125e-02 6.599614e-03 4.889172e-03 1.029582e-02 1.577804e-02 2.370511e-02 1.847566e-02 2.019572e-02 2.901419e-02 2.600566e-02 2.175602e-02 2.284827e-02 3.163282e-02 1.580068e-02 2.075063e-03
<GCONST> 2.389076e+01
<MIXTURE> 3 2.131693e-01
<MEAN> 52
 -1.177137e+01 9.234904e+00 1.433447e+01 -1.972108e+00 -9.330024e+00 -6.812604e+00 -9.459872e+00 -8.985006e+00 -9.861636e+00 -5.677791e+00 -5.257034e-01 -1.325084e+00 7.194722e+01 3.772893e+00 -1.057312e+00 2.946472e+00 1.300078e-01 -3.340674e+00 -9.120243e-03 -3.537243e+00 -5.669538e-01 -2.111022e+00 -6.056205e-01 1.218036e+00 -2.494911e-01 1.112050e+00 -8.642590e-01 -5.614862e-01 -7.705901e-01 -3.701765e-01 4.308669e-02 4.590120e-01 2.301939e-01 4.539539e-01 3.379188e-01 3.212688e-01 1.428297e-01 -1.025394e-01 -7.608437e-02 -4.477613e-01 1.495311e-01 -3.072943e-01 6.570551e-03 4.744241e-01 -1.261496e-03 4.816411e-01 1.085247e-01 2.573498e-01 6.174298e-02 -1.960304e-01 -1.981889e-03 -1.832294e-01
<VARIANCE> 52
 1.524927e+01 2.033909e+01 1.918970e+01 2.065547e+01 4.017838e+01 3.196400e+01 3.226974e+01 4.017379e+01 2.242505e+01 2.735375e+01 2.074183e+01 1.740538e+01 1.338611e+01 2.062623e+00 1.890043e+00 3.422550e+00 2.706248e+00 2.367927e+00 3.396045e+00 3.184690e+00 3.222952e+00 3.650203e+00 2.906130e+00 2.347950e+00 1.994953e+00 4.907285e-01 3.207507e-01 2.201568e-01 2.996339e-01 2.067875e-01 5.854398e-01 3.485371e-01 5.531439e-01 3.697718e-01 3.504459e-01 3.279608e-01 4.301248e-01 2.879014e-01 7.190358e-02 8.866066e-02 5.795035e-02 1.093958e-01 7.511792e-02 8.717466e-02 1.272684e-01 1.177619e-01 1.134051e-01 1.264785e-01 9.699415e-02 1.103187e-01 8.735771e-02 1.867110e-02
<GCONST> 1.003039e+02
<STATE> 9
<NUMMIXES> 3
<MIXTURE> 1 4.193482e-01
<MEAN> 52
 -7.637693e+00 3.658158e+00 1.711082e+01 -3.704900e+00 -1.531659e+01 -5.680358e+00 -1.504505e+01 -7.884212e+00 -1.145469e+01 -6.576443e+00 2.703337e+00 -2.294403e+00 7.316324e+01 3.051662e-01 -1.046886e-01 -1.149056e-01 9.840568e-02 -1.970432e-01 -7.482683e-02 1.193606e-01 2.208936e-01 8.236513e-02 1.575376e-01 -2.425755e-02 -1.916886e-01 -2.927516e-01 -1.104735e-02 1.197369e-01 -1.904675e-01 1.411709e-01 2.971783e-01 -8.438266e-02 2.740481e-01 2.873988e-02 9.845331e-02 1.287374e-01 -2.302153e-01 3.869833e-02 -2.051942e-01 8.535251e-02 -1.778509e-02 3.509973e-02 2.135465e-02 1.158913e-02 3.165406e-02 -6.309667e-02 -2.134369e-02 -2.108553e-02 -3.018928e-02 -8.536535e-03 2.022621e-02 -2.081650e-02
<VARIANCE> 52
 1.087665e+01 2.892108e+01 4.085249e+01 5.116918e+01 5.194318e+01 7.753998e+01 4.487441e+01 4.862609e+01 4.951066e+01 5.200283e+01 2.834014e+01 2.991799e+01 1.306172e+01 2.502227e-01 5.088357e-01 8.114069e-01 8.993254e-01 9.690889e-01 1.157156e+00 1.321769e+00 1.109400e+00 9.809158e-01 1.080123e+00 9.393651e-01 7.420120e-01 2.328511e-01 8.271709e-02 1.141785e-01 1.545532e-01 1.886198e-01 3.006501e-01 2.182489e-01 3.402260e-01 2.191017e-01 2.398873e-01 2.137975e-01 2.377321e-01 1.653244e-01 6.806287e-02 2.322842e-02 2.279811e-02 4.055471e-02 3.985664e-02 6.653862e-02 4.596102e-02 7.287762e-02 5.525080e-02 4.923944e-02 4.304519e-02 4.643764e-02 3.521706e-02 1.278027e-02
<GCONST> 7.386150e+01
<MIXTURE> 2 2.269777e-01
<MEAN> 52
 -1.338021e+01 1.094694e+00 8.845927e+00 -2.513407e+01 -1.264094e+01 -7.076154e+00 -1.916687e+01 -1.299872e+01 -1.128176e+01 -5.231686e+00 -1.736720e+01 -4.385695e+00 6.834254e+01 4.751697e-01 7.217418e-02 -3.688948e-01 2.415436e-01 -3.415298e-01 1.010072e-01 -3.794610e-02 -3.002833e-02 1.354258e-01 -2.257295e-01 5.164568e-02 1.434490e-01 -6.448450e-01 9.386857e-02 7.249974e-02 -9.251516e-02 2.916979e-01 -4.215532e-03 -6.869524e-02 1.187591e-02 -1.836891e-02 -2.841641e-02 -1.134029e-02 1.466372e-01 7.821731e-02 -1.616444e-01 -4.287410e-03 -1.584308e-02 1.110991e-02 6.240703e-02 5.899885e-02 4.775616e-03 1.298884e-02 4.295242e-02 -1.199459e-02 1.383307e-02 3.525668e-02 -1.469326e-02 -7.601828e-03
<VARIANCE> 52
 1.545489e+01 1.838791e+01 1.633327e+01 2.041364e+01 3.440296e+01 2.550878e+01 5.318761e+01 2.678868e+01 1.793148e+01 1.877182e+01 2.781581e+01 2.615329e+01 2.522581e+01 2.824492e-01 4.643860e-01 6.171931e-01 1.179652e+00 9.451313e-01 1.157975e+00 1.137850e+00 1.032840e+00 9.990984e-01 1.255016e+00 1.187922e+00 6.568167e-01 3.179752e-01 4.019707e-02 7.307868e-02 1.249228e-01 2.238150e-01 1.581038e-01 2.204174e-01 2.588195e-01 2.007274e-01 1.705478e-01 2.166595e-01 2.496691e-01 1.218589e-01 3.084555e-02 1.122946e-02 1.832878e-02 2.215458e-02 4.432176e-02 4.424023e-02 5.171493e-02 6.638493e-02 4.951100e-02 4.516416e-02 5.345828e-02 5.295907e-02 3.222338e-02 5.424842e-03
<GCONST> 6.261974e+01
<MIXTURE> 3 3.536741e-01
<MEAN> 52
 -7.922291e+00 4.297850e-01 2.056381e+01 -8.177559e+00 -1.661263e+01 -5.032375e+00 -1.733544e+01 -7.621070e+00 -1.442662e+01 -5.005934e+00 3.248011e+00 -2.143417e+00 7.416526e+01 1.496931e-01 4.733821e-02 9.966251e-02 -1.503525e-01 -1.762492e-01 1.853669e-01 3.343293e-03 2.407053e-02 -1.038678e-01 1.698707e-01 1.107751e-01 -1.616322e-01 -2.275840e-01 5.509441e-03 4.954689e-02 -7.854775e-02 5.749517e-02 2.742192e-02 -8.208167e-02 9.950011e-02 -2.070688e-02 2.431072e-02 2.040352e-02 -2.857000e-02 5.183323e-03 -5.281160e-02 2.392664e-02 -1.639484e-02 8.678067e-03 6.721254e-03 -1.287549e-03 -4.434872e-03 -1.151261e-02 1.220411e-02 -2.772939e-04 -2.070093e-03 -7.935805e-03 -3.576705e-03 -7.459848e-03
<VARIANCE> 52
 1.183653e+01 2.496160e+01 2.174961e+01 4.884063e+01 2.159264e+01 3.790273e+01 1.845896e+01 3.890585e+01 4.006033e+01 5.032801e+01 2.936830e+01 1.742398e+01 8.831171e+00 4.385672e-02 1.278499e-01 2.202357e-01 2.486141e-01 3.376468e-01 3.693838e-01 4.801364e-01 3.572290e-01 3.388850e-01 4.521528e-01 3.770073e-01 3.503093e-01 6.014509e-02 8.590519e-03 1.879913e-02 3.320689e-02 5.242945e-02 5.600595e-02 6.183124e-02 7.851230e-02 7.364132e-02 6.797305e-02 1.015840e-01 6.661199e-02 5.846362e-02 7.499501e-03 3.168678e-03 6.643558e-03 9.510929e-03 1.118288e-02 1.393493e-02 1.481351e-02 2.363186e-02 1.612836e-02 1.756240e-02 2.197580e-02 1.676791e-02 1.449468e-02 2.678059e-03
<GCONST> 1.919116e+01
<STATE> 10
<NUMMIXES> 3
<MIXTURE> 1 4.002998e-01
<MEAN> 52
 -4.950270e+00 3.354233e+00 1.708864e+01 -4.313373e+00 -1.493482e+01 -4.684762e+00 -1.343686e+01 -5.688566e+00 -1.134737e+01 -1.488136e+00 1.332834e+00 -2.758726e+00 6.802570e+01 2.136060e-01 6.289305e-01 -1.120162e+00 8.897915e-01 1.084062e+00 1.896960e-01 9.785756e-01 -1.508659e-01 5.782155e-01 3.387358e-01 -6.523058e-01 -1.138474e-01 -1.361079e+00 -5.625121e-02 -9.874787e-02 -1.443963e-01 1.292457e-01 2.443634e-01 5.790355e-02 1.137334e-01 1.116492e-03 1.383216e-01 -1.549750e-01 -2.741466e-02 8.136878e-02 -1.627504e-01 -3.281914e-02 -1.255914e-01 3.405117e-02 -1.190034e-01 -7.918469e-02 -1.202817e-02 -8.211164e-02 3.067673e-02 -2.525571e-02 -1.729404e-02 6.972174e-02 1.325870e-02 6.739404e-02
<VARIANCE> 52
 6.944273e+00 2.559902e+01 2.098456e+01 5.602028e+01 3.159417e+01 6.795313e+01 6.192009e+01 4.329647e+01 5.705453e+01 4.172943e+01 2.020465e+01 2.512827e+01 2.069444e+01 3.248294e-01 9.922323e-01 8.509597e-01 1.678316e+00 1.126215e+00 1.532858e+00 2.601516e+00 1.568513e+00 1.670130e+00 1.951228e+00 1.412434e+00 1.326980e+00 3.521291e-01 6.414042e-02 2.044968e-01 2.040841e-01 3.308733e-01 3.129334e-01 3.153701e-01 4.823574e-01 3.152777e-01 3.137538e-01 2.635869e-01 3.234326e-01 2.746604e-01 7.974222e-02 1.424080e-02 3.620321e-02 3.634687e-02 6.594260e-02 5.161326e-02 6.292379e-02 1.094466e-01 6.644187e-02 6.665784e-02 7.501817e-02 5.920768e-02 5.586506e-02 9.798787e-03
<GCONST> 8.379913e+01
<MIXTURE> 2 3.147733e-01
<MEAN> 52
 -9.831834e+00 2.685872e+00 6.006185e+00 -1.669581e+01 -1.230334e+01 -8.321095e+00 -1.770961e+01 -1.434410e+01 -1.057047e+01 -5.006013e+00 -1.279456e+01 -5.147260e-02 6.256699e+01 4.218487e-01 -1.738289e-01 -9.445083e-01 2.238373e+00 8.966818e-01 -1.946253e-02 1.021470e+00 8.087763e-01 6.185250e-01 -2.977427e-01 1.325968e+00 2.677682e-02 -1.684231e+00 -2.208076e-01 -2.259694e-01 -4.678857e-02 -5.597861e-02 3.305311e-01 1.433760e-01 3.510680e-01 3.546371e-01 2.299100e-01 1.695616e-01 1.310374e-01 -5.712092e-02 1.758722e-02 -3.410587e-02 -2.031870e-02 6.442474e-02 -2.173851e-01 -8.768990e-02 3.849129e-02 -5.752242e-02 -3.816475e-02 -1.058503e-02 1.087995e-01 -1.042157e-01 3.565414e-02 1.234903e-01
<VARIANCE> 52
 1.243196e+01 2.703873e+01 2.658958e+01 4.547184e+01 4.011007e+01 3.646120e+01 3.783827e+01 4.615099e+01 3.166421e+01 5.754603e+01 4.195966e+01 6.174180e+01 4.189260e+01 1.205289e+00 1.846801e+00 1.773942e+00 2.264074e+00 2.484611e+00 3.634050e+00 4.015528e+00 3.174954e+00 3.222685e+00 3.367942e+00 2.875624e+00 2.872909e+00 7.172003e-01 1.543115e-01 2.770930e-01 2.826373e-01 5.216308e-01 3.313259e-01 6.150602e-01 5.272787e-01 4.933943e-01 5.277809e-01 6.523547e-01 5.098407e-01 4.657424e-01 1.354423e-01 4.574179e-02 6.934456e-02 6.656628e-02 8.928301e-02 9.201305e-02 1.442692e-01 1.486803e-01 1.381173e-01 1.404966e-01 1.537174e-01 1.210906e-01 1.057611e-01 2.311527e-02
<GCONST> 1.098869e+02
<MIXTURE> 3 2.849270e-01
<MEAN> 52
 -4.067214e+00 4.403733e+00 1.294002e+01 2.589639e+00 -1.192912e+01 -4.404625e+00 -9.134947e+00 -6.176325e+00 -9.377566e+00 -5.001916e+00 2.680559e-01 -4.266504e+00 6.722840e+01 8.089447e-01 6.544455e-02 -1.650046e+00 9.824494e-01 3.016839e+00 -2.433889e-01 1.725261e+00 6.961797e-01 9.372073e-01 4.058505e-01 -1.946375e+00 1.291369e-01 -2.236970e+00 -3.030291e-01 -1.397838e-01 -5.311364e-02 -4.671347e-01 4.879676e-02 2.319714e-01 -2.521106e-01 -6.659528e-02 9.641358e-02 -1.990837e-02 5.883526e-02 6.908795e-02 9.157305e-02 -1.388856e-01 -8.149243e-02 1.735598e-01 -1.938566e-01 -5.679374e-01 4.648159e-02 -2.422877e-01 -1.066996e-01 -1.407499e-01 -1.979507e-02 3.945806e-01 -2.216249e-02 3.452192e-01
<VARIANCE> 52
 1.398427e+01 2.608124e+01 2.511465e+01 3.355063e+01 6.150019e+01 5.206157e+01 5.203661e+01 4.426902e+01 3.631041e+01 3.808735e+01 3.466870e+01 2.060709e+01 3.824294e+01 1.243435e+00 1.414999e+00 2.427690e+00 3.052237e+00 2.977726e+00 3.227053e+00 3.895118e+00 3.200664e+00 3.232175e+00 2.210752e+00 1.880691e+00 2.252667e+00 1.134937e+00 2.434204e-01 2.989147e-01 2.804870e-01 3.641124e-01 1.103601e+00 3.790469e-01 5.583165e-01 5.236397e-01 3.941697e-01 3.020362e-01 6.310661e-01 2.834305e-01 4.164981e-01 6.276271e-02 5.338635e-02 6.334889e-02 1.160838e-01 1.287953e-01 1.310715e-01 1.549656e-01 1.403143e-01 1.253269e-01 9.437527e-02 9.188007e-02 8.681620e-02 4.795764e-02
<GCONST> 1.098012e+02
<STATE> 11
<NUMMIXES> 3
<MIXTURE> 1 2.776065e-01
<MEAN> 52
 -4.886547e+00 2.140280e+00 1.024838e+01 -1.165587e+00 -8.650718e+00 -5.629083e+00 -1.066169e+01 -6.402980e+00 -8.825304e+00 -4.118984e+00 -4.079288e+00 -3.260903e+00 6.545317e+01 -6.904485e-01 -2.722774e-01 -1.231439e-02 -1.104662e+00 -4.247921e-01 3.274518e-01 2.246989e-01 2.428799e-01 -8.640177e-02 6.200362e-01 6.016896e-01 9.221251e-02 6.278827e-01 -1.735560e-01 -6.138134e-02 2.771571e-01 -3.104190e-01 -9.142798e-01 2.693995e-01 -1.282610e-01 -4.944544e-02 -9.043466e-02 2.605002e-02 5.080483e-01 5.359494e-03 5.686197e-01 1.757177e-01 6.587826e-02 -2.234997e-02 1.693559e-01 7.877319e-02 -1.518089e-02 1.822777e-02 4.210027e-03 5.791000e-02 -8.639990e-02 -1.056912e-01 -1.901251e-02 -1.508745e-01
<VARIANCE> 52
 2.308600e+01 3.656762e+01 6.812083e+01 8.175337e+01 5.153926e+01 4.243103e+01 6.244322e+01 6.544431e+01 4.624873e+01 4.523558e+01 4.503176e+01 2.626619e+01 5.363515e+01 1.931543e+00 1.201220e+00 2.538413e+00 2.644344e+00 5.196848e+00 2.343899e+00 3.019234e+00 3.495038e+00 3.546995e+00 2.655079e+00 4.300469e+00 1.803059e+00 2.119577e+00 3.832375e-01 3.657233e-01 6.301172e-01 6.329746e-01 1.023474e+00 6.332838e-01 8.224177e-01 8.209366e-01 8.656824e-01 8.013982e-01 8.733153e-01 4.695690e-01 4.871034e-01 7.943895e-02 6.011089e-02 1.127199e-01 1.173010e-01 2.474619e-01 1.059968e-01 1.405965e-01 1.606266e-01 1.744709e-01 1.455061e-01 1.986577e-01 7.984421e-02 8.237736e-02
<GCONST> 1.251840e+02
<MIXTURE> 2 3.621289e-01
<MEAN> 52
 -8.853909e+00 9.553565e-01 3.289347e+00 -3.369208e+00 -2.826930e+00 -9.039579e-01 -5.033937e+00 -4.683860e+00 -3.693336e+00 -2.215733e+00 -3.298415e+00 -2.365250e+00 5.617502e+01 -6.614051e-01 -1.513229e+00 -1.673630e+00 -4.465419e-01 1.736922e-01 1.765238e-01 5.989797e-01 6.226720e-01 8.879293e-01 6.467974e-01 7.464493e-01 5.070500e-01 -1.037406e+00 6.821917e-02 4.242738e-02 1.809764e-01 -3.564988e-01 -5.618299e-01 -3.065331e-01 -4.623160e-01 -3.205583e-01 -3.448150e-01 -9.846616e-02 1.265355e-02 8.462401e-02 3.118605e-01 9.360322e-02 1.970681e-01 1.088620e-01 1.660092e-01 9.982602e-02 5.169775e-03 1.308454e-02 -6.332091e-02 -7.589240e-02 -1.002852e-01 -1.310048e-01 -8.341266e-02 6.619595e-03
<VARIANCE> 52
 1.576970e+01 1.932365e+01 5.936045e+01 3.427359e+01 2.935201e+01 2.822778e+01 3.044787e+01 2.498840e+01 2.184206e+01 2.619719e+01 2.758790e+01 1.701099e+01 2.489609e+01 5.396208e-01 9.491257e-01 1.430904e+00 2.372553e+00 2.439747e+00 3.031940e+00 3.587742e+00 2.892943e+00 2.514901e+00 2.620049e+00 2.014346e+00 1.827664e+00 4.827361e-01 1.260404e-01 2.571777e-01 2.497096e-01 4.375816e-01 3.940548e-01 3.723884e-01 4.364438e-01 4.312564e-01 4.543718e-01 5.399975e-01 5.043790e-01 3.107248e-01 7.889751e-02 2.390524e-02 4.186064e-02 5.345571e-02 7.854395e-02 1.078188e-01 1.200689e-01 1.339646e-01 1.202746e-01 1.226280e-01 1.340834e-01 7.676204e-02 7.201156e-02 1.606021e-02
<GCONST> 9.600839e+01
<MIXTURE> 3 3.602646e-01
<MEAN> 52
 -9.146606e+00 -1.365709e+00 4.066889e+00 -7.819713e+00 -9.231482e+00 -6.214295e+00 -1.015985e+01 -8.894694e+00 -7.058670e+00 -2.273827e+00 -1.047489e+00 -2.193389e-01 5.548938e+01 5.256367e-03 -3.894492e-01 -5.514516e-01 1.110988e-01 2.663336e-01 1.089139e-01 1.644865e-01 7.532962e-02 6.785728e-02 -7.917895e-02 -8.287252e-02 -1.131900e-01 -5.011744e-01 4.983008e-02 1.622671e-01 1.469286e-01 1.096984e-01 8.694030e-02 3.840119e-02 4.637242e-02 1.109629e-01 9.337396e-03 7.136957e-03 -6.519142e-02 -5.310794e-02 1.175740e-01 -3.246213e-02 -2.200414e-02 -4.194609e-02 -9.581759e-03 1.072229e-02 1.204480e-02 3.817442e-02 2.060018e-02 5.366524e-02 3.005719e-02 4.961914e-02 3.516227e-02 -2.449473e-02
<VARIANCE> 52
 1.128336e+01 1.643444e+01 3.717163e+01 2.417077e+01 3.925572e+01 3.368027e+01 3.642298e+01 3.089465e+01 3.754639e+01 1.896759e+01 3.894135e+01 2.089178e+01 1.179465e+01 2.087460e-01 5.468767e-01 8.703750e-01 1.313981e+00 1.132722e+00 1.527740e+00 1.702379e+00 1.979592e+00 1.547821e+00 1.517010e+00 1.431297e+00 1.333847e+00 9.512625e-02 6.080535e-02 1.239889e-01 1.901181e-01 2.259421e-01 2.364771e-01 3.159297e-01 3.606291e-01 3.591918e-01 3.741341e-01 3.176310e-01 2.631415e-01 2.778250e-01 2.166987e-02 1.019221e-02 2.481239e-02 3.634729e-02 5.556629e-02 5.118071e-02 6.760354e-02 7.839042e-02 8.397506e-02 7.423198e-02 7.296832e-02 6.346774e-02 6.118212e-02 5.162015e-03
<GCONST> 7.395446e+01
<TRANSP> 12
 0.000000e+00 1.000000e+00 0.000000e+00 0.000000e+00 0.000000e+00 0.000000e+00 0.000000e+00 0.000000e+00 0.000000e+00 0.000000e+00 0.000000e+00 0.000000e+00
 0.000000e+00 8.116006e-01 1.883994e-01 0.000000e+00 0.000000e+00 0.000000e+00 0.000000e+00 0.000000e+00 0.000000e+00 0.000000e+00 0.000000e+00 0.000000e+00
 0.000000e+00 0.000000e+00 7.712501e-01 2.287499e-01 0.000000e+00 0.000000e+00 0.000000e+00 0.000000e+00 0.000000e+00 0.000000e+00 0.000000e+00 0.000000e+00
 0.000000e+00 0.000000e+00 0.000000e+00 8.569661e-01 1.430339e-01 0.000000e+00 0.000000e+00 0.000000e+00 0.000000e+00 0.000000e+00 0.000000e+00 0.000000e+00
 0.000000e+00 0.000000e+00 0.000000e+00 0.000000e+00 7.889046e-01 2.110954e-01 0.000000e+00 0.000000e+00 0.000000e+00 0.000000e+00 0.000000e+00 0.000000e+00
 0.000000e+00 0.000000e+00 0.000000e+00 0.000000e+00 0.000000e+00 8.697619e-01 1.302381e-01 0.000000e+00 0.000000e+00 0.000000e+00 0.000000e+00 0.000000e+00
 0.000000e+00 0.000000e+00 0.000000e+00 0.000000e+00 0.000000e+00 0.000000e+00 6.685874e-01 3.314126e-01 0.000000e+00 0.000000e+00 0.000000e+00 0.000000e+00
 0.000000e+00 0.000000e+00 0.000000e+00 0.000000e+00 0.000000e+00 0.000000e+00 0.000000e+00 7.988837e-01 2.011163e-01 0.000000e+00 0.000000e+00 0.000000e+00
 0.000000e+00 0.000000e+00 0.000000e+00 0.000000e+00 0.000000e+00 0.000000e+00 0.000000e+00 0.000000e+00 8.648119e-01 1.351881e-01 0.000000e+00 0.000000e+00
 0.000000e+00 0.000000e+00 0.000000e+00 0.000000e+00 0.000000e+00 0.000000e+00 0.000000e+00 0.000000e+00 0.000000e+00 7.950191e-01 2.049809e-01 0.000000e+00
 0.000000e+00 0.000000e+00 0.000000e+00 0.000000e+00 0.000000e+00 0.000000e+00 0.000000e+00 0.000000e+00 0.000000e+00 0.000000e+00 8.061699e-01 1.938301e-01
 0.000000e+00 0.000000e+00 0.000000e+00 0.000000e+00 0.000000e+00 0.000000e+00 0.000000e+00 0.000000e+00 0.000000e+00 0.000000e+00 0.000000e+00 0.000000e+00
<ENDHMM>
