~o
<STREAMINFO> 1 13
<VECSIZE> 13<NULLD><MFCC_0><DIAGC>
~h "lx"
<BEGINHMM>
<NUMSTATES> 12
<STATE> 2
<MEAN> 13
 -3.364916e+00 3.787494e+00 9.759557e+00 1.031963e+00 -4.579622e+00 -6.804684e+00 -8.753479e+00 -4.788760e+00 -6.900250e+00 -2.874243e+00 -3.106969e+00 -1.541837e+00 6.344602e+01
<VARIANCE> 13
 1.500447e+01 2.363093e+01 5.057679e+01 4.556980e+01 5.094479e+01 7.596249e+01 7.364482e+01 4.713443e+01 5.014516e+01 4.056911e+01 3.972009e+01 2.561090e+01 5.423542e+01
<GCONST> 7.245542e+01
<STATE> 3
<MEAN> 13
 -3.952527e+00 2.336059e+00 1.682495e+01 -5.824443e+00 -1.529517e+01 -7.504227e-01 -1.211694e+01 -2.140910e+00 -1.218345e+01 -1.815533e-01 4.097593e+00 -3.242755e+00 7.251773e+01
<VARIANCE> 13
 1.062590e+01 2.595228e+01 3.658033e+01 7.473020e+01 3.910585e+01 4.720073e+01 4.062002e+01 4.729824e+01 4.170022e+01 4.827802e+01 2.766948e+01 3.858581e+01 1.343273e+01
<GCONST> 6.968516e+01
<STATE> 4
<MEAN> 13
 -4.360032e+00 7.414199e+00 8.184711e+00 -8.631075e+00 -1.338427e+01 -3.908422e+00 -1.215376e+01 -1.115002e+01 -9.864839e+00 -8.514285e-01 -5.661656e+00 -4.285844e+00 6.889304e+01
<VARIANCE> 13
 1.859902e+01 2.931623e+01 2.591078e+01 1.163831e+02 4.088260e+01 4.604579e+01 1.092596e+02 6.057336e+01 3.708783e+01 5.555004e+01 1.041037e+02 3.701471e+01 2.812695e+01
<GCONST> 7.376713e+01
<STATE> 5
<MEAN> 13
 -1.595328e+01 1.497598e+01 6.319504e+00 1.104848e+00 -1.997931e+00 -5.181520e+00 -8.177390e-01 -7.916752e+00 -5.490928e+00 -4.030272e+00 -1.856323e+00 -9.630930e-01 6.981716e+01
<VARIANCE> 13
 4.264494e+01 1.561731e+01 3.031010e+01 3.241665e+01 3.320588e+01 5.501525e+01 4.171891e+01 3.883288e+01 2.507618e+01 3.534590e+01 2.932310e+01 2.838998e+01 1.664972e+01
<GCONST> 6.850831e+01
<STATE> 6
<MEAN> 13
 -2.883875e+01 8.387916e+00 -4.802001e-01 -6.013063e+00 -2.829619e+00 -5.080938e+00 -1.487558e+00 -5.285305e+00 -3.651216e+00 -5.850561e-01 -1.318637e+00 -7.801757e-01 6.931543e+01
<VARIANCE> 13
 1.062607e+01 2.020990e+01 3.043803e+01 2.688616e+01 1.921054e+01 2.934231e+01 4.271358e+01 3.472093e+01 2.696324e+01 2.092796e+01 2.433297e+01 1.747005e+01 1.878935e+01
<GCONST> 6.492671e+01
<STATE> 7
<MEAN> 13
 -1.870561e+01 1.066406e+01 9.617347e+00 -2.982098e+00 -3.978616e+00 -6.627349e+00 -4.865557e+00 -7.432355e+00 -6.915792e+00 -3.906238e+00 -2.982509e+00 -1.209081e+00 7.011805e+01
<VARIANCE> 13
 2.386596e+01 1.989449e+01 2.111399e+01 2.105400e+01 2.809671e+01 3.075634e+01 3.401074e+01 4.079559e+01 2.267377e+01 2.022064e+01 1.888290e+01 1.669068e+01 2.693739e+01
<GCONST> 6.532385e+01
<STATE> 8
<MEAN> 13
 -1.114702e+01 6.857170e+00 1.311841e+01 -3.571135e+00 -1.293422e+01 -8.904954e+00 -1.113184e+01 -1.233102e+01 -1.021614e+01 -4.981214e+00 -5.590628e-01 -9.138937e-01 7.324948e+01
<VARIANCE> 13
 1.192199e+01 1.663616e+01 3.309275e+01 4.007095e+01 2.673558e+01 4.639380e+01 4.389504e+01 5.311529e+01 2.599437e+01 3.866880e+01 2.060800e+01 5.398649e+01 1.575133e+01
<GCONST> 6.793401e+01
<STATE> 9
<MEAN> 13
 -7.233404e+00 1.019956e+00 1.962763e+01 -5.377920e+00 -1.681914e+01 -4.503882e+00 -1.674505e+01 -6.625089e+00 -1.336615e+01 -5.607144e+00 3.249487e+00 -2.232172e+00 7.357803e+01
<VARIANCE> 13
 1.054748e+01 2.212114e+01 2.351076e+01 5.580420e+01 2.491340e+01 4.569081e+01 3.007252e+01 4.747691e+01 4.759454e+01 5.104922e+01 2.510869e+01 1.982816e+01 1.114872e+01
<GCONST> 6.724243e+01
<STATE> 10
<MEAN> 13
 -8.581465e+00 2.076020e+00 1.138685e+01 -1.289399e+01 -1.457562e+01 -7.382075e+00 -1.719890e+01 -1.032079e+01 -1.261773e+01 -3.870261e+00 -7.390293e+00 -3.650045e+00 6.525366e+01
<VARIANCE> 13
 1.980426e+01 2.779061e+01 2.607392e+01 1.044337e+02 3.001500e+01 3.859321e+01 5.566680e+01 4.428306e+01 2.697454e+01 2.579324e+01 9.617432e+01 3.827536e+01 3.770952e+01
<GCONST> 7.136314e+01
<STATE> 11
<MEAN> 13
 -5.907448e+00 2.309286e+00 7.519886e+00 -1.258883e+00 -6.332138e+00 -2.320429e+00 -6.702780e+00 -5.770015e+00 -5.590097e+00 -2.233524e+00 -1.970936e+00 -2.932038e+00 6.001864e+01
<VARIANCE> 13
 1.792641e+01 3.137799e+01 4.998669e+01 4.463757e+01 4.920478e+01 4.002097e+01 4.517822e+01 3.661595e+01 3.256825e+01 3.265312e+01 2.741228e+01 2.092848e+01 4.739379e+01
<GCONST> 7.011147e+01
<TRANSP> 12
 0.000000e+00 1.000000e+00 0.000000e+00 0.000000e+00 0.000000e+00 0.000000e+00 0.000000e+00 0.000000e+00 0.000000e+00 0.000000e+00 0.000000e+00 0.000000e+00
 0.000000e+00 7.202750e-01 2.797250e-01 0.000000e+00 0.000000e+00 0.000000e+00 0.000000e+00 0.000000e+00 0.000000e+00 0.000000e+00 0.000000e+00 0.000000e+00
 0.000000e+00 0.000000e+00 8.776323e-01 1.223677e-01 0.000000e+00 0.000000e+00 0.000000e+00 0.000000e+00 0.000000e+00 0.000000e+00 0.000000e+00 0.000000e+00
 0.000000e+00 0.000000e+00 0.000000e+00 8.262078e-01 1.737922e-01 0.000000e+00 0.000000e+00 0.000000e+00 0.000000e+00 0.000000e+00 0.000000e+00 0.000000e+00
 0.000000e+00 0.000000e+00 0.000000e+00 0.000000e+00 7.169723e-01 2.830277e-01 0.000000e+00 0.000000e+00 0.000000e+00 0.000000e+00 0.000000e+00 0.000000e+00
 0.000000e+00 0.000000e+00 0.000000e+00 0.000000e+00 0.000000e+00 8.640511e-01 1.359489e-01 0.000000e+00 0.000000e+00 0.000000e+00 0.000000e+00 0.000000e+00
 0.000000e+00 0.000000e+00 0.000000e+00 0.000000e+00 0.000000e+00 0.000000e+00 3.004302e-01 6.995698e-01 0.000000e+00 0.000000e+00 0.000000e+00 0.000000e+00
 0.000000e+00 0.000000e+00 0.000000e+00 0.000000e+00 0.000000e+00 0.000000e+00 0.000000e+00 5.784196e-01 4.215805e-01 0.000000e+00 0.000000e+00 0.000000e+00
 0.000000e+00 0.000000e+00 0.000000e+00 0.000000e+00 0.000000e+00 0.000000e+00 0.000000e+00 0.000000e+00 8.884071e-01 1.115930e-01 0.000000e+00 0.000000e+00
 0.000000e+00 0.000000e+00 0.000000e+00 0.000000e+00 0.000000e+00 0.000000e+00 0.000000e+00 0.000000e+00 0.000000e+00 7.861639e-01 2.138361e-01 0.000000e+00
 0.000000e+00 0.000000e+00 0.000000e+00 0.000000e+00 0.000000e+00 0.000000e+00 0.000000e+00 0.000000e+00 0.000000e+00 0.000000e+00 8.050277e-01 1.949723e-01
 0.000000e+00 0.000000e+00 0.000000e+00 0.000000e+00 0.000000e+00 0.000000e+00 0.000000e+00 0.000000e+00 0.000000e+00 0.000000e+00 0.000000e+00 0.000000e+00
<ENDHMM>
