~o
<STREAMINFO> 1 13
<VECSIZE> 13<NULLD><MFCC_0><DIAGC>
~h "sil"
<BEGINHMM>
<NUMSTATES> 12
<STATE> 2
<MEAN> 13
 -7.616315e+00 -2.320082e+00 -4.158531e+00 -3.162291e+00 1.346830e+00 -8.087893e-01 -1.358938e+00 -4.862835e-01 -9.486026e-01 2.002870e+00 -2.439503e+00 -4.782136e+00 5.804118e+01
<VARIANCE> 13
 3.226600e+01 1.943503e+01 1.662165e+01 2.340825e+01 3.796599e+01 3.046784e+01 2.977566e+01 2.824598e+01 2.757194e+01 2.898330e+01 2.089361e+01 2.686045e+01 2.183259e+01
<GCONST> 6.618231e+01
<STATE> 3
<MEAN> 13
 -7.077617e+00 -4.146290e+00 -6.412595e+00 -6.511539e+00 -3.603710e+00 -1.601246e+00 -3.500992e+00 -2.428701e+00 -5.652825e-01 -2.960192e-01 -2.071179e+00 -2.912385e+00 5.443296e+01
<VARIANCE> 13
 7.976607e+00 1.009502e+01 2.034884e+01 2.147993e+01 2.095758e+01 2.338231e+01 2.009243e+01 2.292877e+01 2.452894e+01 2.398007e+01 2.060102e+01 2.151908e+01 1.241727e+01
<GCONST> 6.167876e+01
<STATE> 4
<MEAN> 13
 -8.820162e+00 -3.018717e+00 -2.582518e+00 -1.942407e+00 -1.002650e+00 -1.589947e+00 -2.319773e+00 -1.249792e+00 -1.048204e+00 -1.517526e+00 -2.295005e+00 -8.000349e-01 5.255346e+01
<VARIANCE> 13
 5.120692e+00 7.912708e+00 9.295768e+00 1.138999e+01 1.698759e+01 2.100391e+01 1.810049e+01 1.878912e+01 1.665059e+01 1.615118e+01 1.634795e+01 1.484083e+01 8.698493e+00
<GCONST> 5.721194e+01
<STATE> 5
<MEAN> 13
 -1.196211e+01 -7.410026e+00 -3.599077e+00 -2.428078e+00 1.421219e-01 -3.447051e+00 -2.056268e+00 -5.577176e-01 -2.385926e+00 -2.367618e+00 -7.981011e-01 3.165933e-01 5.876842e+01
<VARIANCE> 13
 1.347722e+01 2.182537e+01 2.026603e+01 1.722256e+01 4.222281e+01 4.408939e+01 3.274289e+01 3.377131e+01 3.069423e+01 2.668052e+01 2.826831e+01 2.204445e+01 2.662833e+01
<GCONST> 6.639391e+01
<STATE> 6
<MEAN> 13
 -8.414197e+00 -3.171644e+00 -3.651468e+00 -5.067364e+00 -3.162121e+00 -2.441424e+00 -4.455922e+00 -2.734675e+00 -1.828648e+00 -1.760829e+00 -2.786288e+00 -1.024525e+00 5.413297e+01
<VARIANCE> 13
 4.091949e+00 7.288282e+00 8.167453e+00 1.187005e+01 1.377668e+01 1.632892e+01 1.669009e+01 1.923430e+01 2.036553e+01 1.937929e+01 1.694398e+01 1.560450e+01 4.302714e+00
<GCONST> 5.606406e+01
<STATE> 7
<MEAN> 13
 -1.253147e+01 -2.770859e+00 -3.999273e+00 -4.660735e+00 -2.528834e+00 -2.555523e+00 -4.676700e+00 -1.467911e+00 -1.693033e+00 -1.970066e+00 -1.889599e+00 -2.020246e+00 5.600059e+01
<VARIANCE> 13
 1.249975e+01 8.806948e+00 1.011374e+01 1.727237e+01 1.344340e+01 2.019114e+01 1.829684e+01 2.959045e+01 2.274021e+01 2.230942e+01 2.028233e+01 1.599969e+01 1.104148e+01
<GCONST> 6.006769e+01
<STATE> 8
<MEAN> 13
 -7.272248e+00 -2.328880e+00 -1.787918e+00 -5.855851e+00 -5.589246e+00 -2.561785e+00 -5.640837e+00 -3.509421e+00 -1.215836e+00 -2.264239e+00 -1.651899e+00 -2.086203e+00 5.766820e+01
<VARIANCE> 13
 1.557191e+01 2.608427e+01 5.596515e+01 5.275810e+01 2.739506e+01 2.946917e+01 2.846754e+01 4.050685e+01 2.625762e+01 3.182982e+01 3.852027e+01 2.348884e+01 3.113726e+01
<GCONST> 6.860807e+01
<STATE> 9
<MEAN> 13
 -1.056077e+01 -1.766611e+00 -3.765811e+00 -1.591226e+00 -5.535648e-01 1.915760e-01 -2.419122e+00 -4.437184e-01 -1.333220e+00 -1.396824e+00 -1.632649e+00 2.695116e-01 4.577043e+01
<VARIANCE> 13
 1.144539e+01 9.414124e+00 1.669101e+01 1.854479e+01 1.794798e+01 2.055451e+01 1.819486e+01 2.484144e+01 2.139015e+01 1.829626e+01 1.847688e+01 1.610811e+01 5.327861e+01
<GCONST> 6.197247e+01
<STATE> 10
<MEAN> 13
 -8.560698e+00 -2.744364e+00 -3.129210e+00 -3.419479e+00 -3.086668e+00 -1.485265e+00 -2.998418e+00 -1.470701e+00 -8.928180e-01 -1.026780e+00 -1.553914e+00 -5.617354e-01 4.985918e+01
<VARIANCE> 13
 7.396702e+00 4.925964e+00 7.652008e+00 1.070164e+01 1.224486e+01 1.512092e+01 1.592920e+01 1.773630e+01 1.694466e+01 1.716008e+01 1.737841e+01 1.568744e+01 6.937207e+00
<GCONST> 5.597581e+01
<STATE> 11
<MEAN> 13
 -9.236223e+00 -1.979308e+00 -2.740746e+00 -2.663096e+00 -6.022062e-01 -1.451102e+00 -3.633429e+00 -2.670634e+00 -2.689404e+00 -1.960849e+00 -1.383053e+00 -4.988374e-01 5.531223e+01
<VARIANCE> 13
 1.701605e+01 3.286010e+01 3.180681e+01 2.270573e+01 3.937919e+01 3.492112e+01 3.110121e+01 2.894554e+01 2.750474e+01 2.759504e+01 3.130821e+01 2.537372e+01 3.059571e+01
<GCONST> 6.756055e+01
<TRANSP> 12
 0.000000e+00 1.000000e+00 0.000000e+00 0.000000e+00 0.000000e+00 0.000000e+00 0.000000e+00 0.000000e+00 0.000000e+00 0.000000e+00 0.000000e+00 0.000000e+00
 0.000000e+00 7.160139e-01 2.839861e-01 0.000000e+00 0.000000e+00 0.000000e+00 0.000000e+00 0.000000e+00 0.000000e+00 0.000000e+00 0.000000e+00 0.000000e+00
 0.000000e+00 0.000000e+00 7.572090e-01 2.427910e-01 0.000000e+00 0.000000e+00 0.000000e+00 0.000000e+00 0.000000e+00 0.000000e+00 0.000000e+00 0.000000e+00
 0.000000e+00 0.000000e+00 0.000000e+00 8.286306e-01 1.713695e-01 0.000000e+00 0.000000e+00 0.000000e+00 0.000000e+00 0.000000e+00 0.000000e+00 0.000000e+00
 0.000000e+00 0.000000e+00 0.000000e+00 0.000000e+00 7.880816e-01 2.119184e-01 0.000000e+00 0.000000e+00 0.000000e+00 0.000000e+00 0.000000e+00 0.000000e+00
 0.000000e+00 0.000000e+00 0.000000e+00 0.000000e+00 0.000000e+00 8.605723e-01 1.394276e-01 0.000000e+00 0.000000e+00 0.000000e+00 0.000000e+00 0.000000e+00
 0.000000e+00 0.000000e+00 0.000000e+00 0.000000e+00 0.000000e+00 0.000000e+00 7.768894e-01 2.231106e-01 0.000000e+00 0.000000e+00 0.000000e+00 0.000000e+00
 0.000000e+00 0.000000e+00 0.000000e+00 0.000000e+00 0.000000e+00 0.000000e+00 0.000000e+00 6.646289e-01 3.353711e-01 0.000000e+00 0.000000e+00 0.000000e+00
 0.000000e+00 0.000000e+00 0.000000e+00 0.000000e+00 0.000000e+00 0.000000e+00 0.000000e+00 0.000000e+00 6.933313e-01 3.066687e-01 0.000000e+00 0.000000e+00
 0.000000e+00 0.000000e+00 0.000000e+00 0.000000e+00 0.000000e+00 0.000000e+00 0.000000e+00 0.000000e+00 0.000000e+00 8.705264e-01 1.294737e-01 0.000000e+00
 0.000000e+00 0.000000e+00 0.000000e+00 0.000000e+00 0.000000e+00 0.000000e+00 0.000000e+00 0.000000e+00 0.000000e+00 0.000000e+00 5.803083e-01 4.196917e-01
 0.000000e+00 0.000000e+00 0.000000e+00 0.000000e+00 0.000000e+00 0.000000e+00 0.000000e+00 0.000000e+00 0.000000e+00 0.000000e+00 0.000000e+00 0.000000e+00
<ENDHMM>
