~o
<STREAMINFO> 1 13
<VECSIZE> 13<NULLD><MFCC_0><DIAGC>
~h "rx"
<BEGINHMM>
<NUMSTATES> 6
<STATE> 2
<MEAN> 13
 -2.636543e+00 -1.561114e+00 8.597413e+00 -2.348283e+00 -1.288585e+01 -6.183149e+00 -1.562092e+01 -3.725257e+00 -6.440702e+00 -2.667411e+00 -2.815990e+00 -2.353850e+00 7.074207e+01
<VARIANCE> 13
 2.613098e+01 4.393706e+01 6.344447e+01 8.563923e+01 6.095703e+01 5.291556e+01 5.177563e+01 7.472599e+01 7.560253e+01 4.860936e+01 6.882751e+01 3.868661e+01 3.943853e+01
<GCONST> 7.564935e+01
<STATE> 3
<MEAN> 13
 -2.302951e+01 8.952123e+00 4.529182e+00 -4.009673e+00 -2.866767e+00 -4.097964e+00 -1.736126e+00 -4.272431e+00 -2.450064e+00 -1.114811e+00 -1.216000e+00 2.840634e-01 6.783437e+01
<VARIANCE> 13
 4.773159e+01 2.660085e+01 5.393435e+01 3.043754e+01 2.668624e+01 2.903327e+01 3.105406e+01 3.177494e+01 2.419747e+01 2.601438e+01 2.290984e+01 2.127025e+01 1.730036e+01
<GCONST> 6.747388e+01
<STATE> 4
<MEAN> 13
 -3.939263e+00 4.656071e+00 1.136213e+01 -7.870957e+00 -1.310847e+01 -1.061635e+00 -1.081063e+01 -7.416643e+00 -1.051315e+01 -8.098500e-01 -1.579610e+00 -4.927655e+00 7.008797e+01
<VARIANCE> 13
 1.735902e+01 2.239114e+01 4.989241e+01 8.450294e+01 3.325802e+01 6.316543e+01 6.490823e+01 7.450677e+01 4.554635e+01 7.495421e+01 7.704182e+01 4.426637e+01 1.204601e+01
<GCONST> 7.309466e+01
<STATE> 5
<MEAN> 13
 -1.844980e+00 2.351728e+00 3.891441e+00 -5.549414e-01 -4.811176e+00 -2.638752e+00 -7.031188e+00 -5.308197e+00 -5.290659e+00 -1.700935e+00 -4.585762e+00 -3.803082e+00 6.127568e+01
<VARIANCE> 13
 1.994138e+01 2.945371e+01 4.004310e+01 6.482516e+01 4.340227e+01 5.253061e+01 6.779611e+01 4.958229e+01 4.960192e+01 4.521485e+01 3.614283e+01 3.366926e+01 4.947885e+01
<GCONST> 7.270277e+01
<TRANSP> 6
 0.000000e+00 1.000000e+00 0.000000e+00 0.000000e+00 0.000000e+00 0.000000e+00
 0.000000e+00 9.321391e-01 6.786086e-02 0.000000e+00 0.000000e+00 0.000000e+00
 0.000000e+00 0.000000e+00 9.129094e-01 8.709060e-02 0.000000e+00 0.000000e+00
 0.000000e+00 0.000000e+00 0.000000e+00 8.758402e-01 1.241598e-01 0.000000e+00
 0.000000e+00 0.000000e+00 0.000000e+00 0.000000e+00 9.095089e-01 9.049104e-02
 0.000000e+00 0.000000e+00 0.000000e+00 0.000000e+00 0.000000e+00 0.000000e+00
<ENDHMM>
