~o
<STREAMINFO> 1 13
<VECSIZE> 13<NULLD><MFCC_0><DIAGC>
~h "sil"
<BEGINHMM>
<NUMSTATES> 6
<STATE> 2
<MEAN> 13
 -7.298778e+00 -3.582392e+00 -5.947912e+00 -5.369872e+00 -1.307063e+00 -1.103939e+00 -2.972083e+00 -1.421752e+00 -4.358799e-01 1.013505e+00 -2.734409e+00 -4.347724e+00 5.632814e+01
<VARIANCE> 13
 1.831700e+01 1.425158e+01 1.868081e+01 2.896611e+01 3.274169e+01 2.711125e+01 2.534364e+01 2.552086e+01 2.479192e+01 2.797143e+01 2.211573e+01 2.346939e+01 1.851188e+01
<GCONST> 6.472345e+01
<STATE> 3
<MEAN> 13
 -9.202765e+00 -2.711077e+00 -3.002559e+00 -2.176628e+00 -1.642107e+00 -1.074339e+00 -2.787001e+00 -1.156014e+00 -1.394478e+00 -1.335971e+00 -1.709553e+00 -5.207271e-01 4.916914e+01
<VARIANCE> 13
 8.304585e+00 7.917751e+00 1.067538e+01 1.268336e+01 1.779134e+01 1.839175e+01 1.623851e+01 2.006956e+01 1.770961e+01 1.728558e+01 1.755451e+01 1.599249e+01 2.456522e+01
<GCONST> 5.912649e+01
<STATE> 4
<MEAN> 13
 -1.136269e+01 -5.576997e+00 -2.716382e+00 -3.198205e+00 -1.534637e+00 -2.748878e+00 -3.022856e+00 -1.334074e+00 -2.101101e+00 -2.436676e+00 -3.161759e-01 -6.076539e-01 5.906683e+01
<VARIANCE> 13
 2.195039e+01 3.119453e+01 3.246225e+01 2.898090e+01 4.650455e+01 4.039406e+01 3.540815e+01 4.140102e+01 3.195179e+01 2.953290e+01 2.891234e+01 2.352635e+01 2.595864e+01
<GCONST> 6.872526e+01
<STATE> 5
<MEAN> 13
 -9.006386e+00 -2.506709e+00 -3.371271e+00 -4.539982e+00 -2.871086e+00 -2.337237e+00 -3.978915e+00 -2.393316e+00 -1.553888e+00 -1.703204e+00 -2.454853e+00 -8.818303e-01 5.409068e+01
<VARIANCE> 13
 8.937134e+00 9.203000e+00 1.212041e+01 1.480539e+01 1.589659e+01 1.942294e+01 2.034992e+01 2.168267e+01 2.061320e+01 1.951042e+01 1.946227e+01 1.631981e+01 8.520723e+00
<GCONST> 5.921442e+01
<TRANSP> 6
 0.000000e+00 1.000000e+00 0.000000e+00 0.000000e+00 0.000000e+00 0.000000e+00
 0.000000e+00 8.573420e-01 1.426580e-01 0.000000e+00 0.000000e+00 0.000000e+00
 0.000000e+00 0.000000e+00 9.200212e-01 7.997882e-02 0.000000e+00 0.000000e+00
 0.000000e+00 0.000000e+00 0.000000e+00 8.658922e-01 1.341079e-01 0.000000e+00
 0.000000e+00 0.000000e+00 0.000000e+00 0.000000e+00 9.391912e-01 6.080879e-02
 0.000000e+00 0.000000e+00 0.000000e+00 0.000000e+00 0.000000e+00 0.000000e+00
<ENDHMM>
