~o
<STREAMINFO> 1 52
<VECSIZE> 52<NULLD><MFCC_D_A_T_0><DIAGC>
~h "rx"
<BEGINHMM>
<NUMSTATES> 12
<STATE> 2
<NUMMIXES> 3
<MIXTURE> 1 2.783091e-01
<MEAN> 52
 -2.666767e+00 -1.482729e+01 6.670883e-02 -1.072144e+01 -1.354166e+01 -1.433659e+01 -1.885999e+01 -4.433403e-01 -4.783767e+00 -7.144102e+00 -1.333157e+01 2.338412e+00 7.095161e+01 -1.040280e+00 -9.612160e-01 8.668293e-01 -2.490746e+00 -5.826201e-01 6.335006e-01 1.753210e+00 2.129071e+00 -5.046747e-01 9.252101e-01 -2.404004e-02 1.078695e-01 2.010475e+00 -3.155478e-01 7.765244e-01 -2.690591e-02 5.022094e-02 1.947012e-01 1.396397e-01 7.803171e-01 -5.091003e-01 -3.945773e-01 3.495702e-01 3.238447e-01 -2.415967e-01 -4.545830e-01 1.708202e-01 7.422188e-02 3.739741e-02 2.717194e-01 -8.357413e-02 -1.999649e-01 -3.499742e-01 -4.024505e-01 -1.826345e-02 -5.727059e-02 -7.197743e-02 3.109843e-02 -5.694650e-02
<VARIANCE> 52
 1.309013e+01 2.817933e+01 3.399602e+01 7.939722e+01 4.868256e+01 3.675748e+01 8.313226e+01 6.683861e+01 5.788248e+01 3.238621e+01 4.855908e+01 2.477958e+01 2.867098e+01 6.609575e-01 2.748264e+00 2.255770e+00 3.908099e+00 3.514439e+00 3.018367e+00 3.834407e+00 4.486911e+00 6.125879e+00 2.431637e+00 4.195963e+00 2.120919e+00 8.395416e-01 1.912841e-01 3.243754e-01 4.147177e-01 9.531223e-01 6.118541e-01 7.256050e-01 9.595657e-01 1.201258e+00 8.990366e-01 4.915320e-01 6.144191e-01 3.442714e-01 1.953757e-01 3.378787e-02 1.071279e-01 1.025277e-01 1.784290e-01 1.486354e-01 1.458347e-01 1.435092e-01 1.847076e-01 2.372636e-01 1.128955e-01 1.786429e-01 8.695456e-02 3.528066e-02
<GCONST> 1.195760e+02
<MIXTURE> 2 3.687873e-01
<MEAN> 52
 1.976295e+00 1.738675e+00 1.827012e+00 1.594519e+00 -3.637282e+00 -4.962762e+00 -1.621075e+01 -1.111759e+01 -4.276489e+00 -3.715127e-01 -5.970784e+00 -4.902858e+00 6.380211e+01 4.145271e-01 -5.901158e-01 -1.138806e-01 2.894703e-01 -3.456148e-01 -7.628337e-01 -1.422840e+00 3.145558e-01 4.883879e-01 1.686737e-01 1.468390e-01 1.842234e-01 6.090486e-01 -7.363870e-02 -2.246899e-01 1.365365e-01 -1.291870e-01 -3.903557e-01 8.954041e-02 1.395477e-01 3.814735e-01 -6.179525e-02 -1.464896e-01 1.431403e-01 7.908773e-02 2.074568e-01 -6.631852e-02 4.763767e-03 5.766752e-02 -4.028179e-02 -2.694427e-02 6.018192e-02 8.112868e-02 2.885491e-02 -4.570260e-02 -6.587267e-03 1.323077e-02 -2.237508e-02 1.554138e-02
<VARIANCE> 52
 1.506225e+01 1.905062e+01 3.750276e+01 4.384339e+01 4.703921e+01 4.487355e+01 8.061759e+01 7.763287e+01 4.337368e+01 3.127736e+01 3.720316e+01 2.514972e+01 3.345930e+01 3.442872e-01 1.034806e+00 1.146581e+00 1.989608e+00 2.623974e+00 2.083495e+00 2.988355e+00 4.217860e+00 2.435790e+00 2.021599e+00 2.389233e+00 1.935442e+00 3.658711e-01 8.242609e-02 2.275038e-01 2.424609e-01 3.297726e-01 4.455121e-01 4.040728e-01 4.695958e-01 7.720358e-01 4.816116e-01 3.959018e-01 4.554563e-01 3.818233e-01 9.531638e-02 1.391509e-02 4.419054e-02 4.842198e-02 7.951868e-02 9.757707e-02 9.512947e-02 9.896945e-02 1.336826e-01 1.144978e-01 9.020801e-02 1.056192e-01 8.530308e-02 1.470622e-02
<GCONST> 9.829098e+01
<MIXTURE> 3 3.529036e-01
<MEAN> 52
 -4.731311e-02 -1.618431e+00 -5.095261e-01 9.043502e-01 -4.967220e+00 -8.375452e+00 -1.712400e+01 -8.289489e+00 -4.122536e+00 -3.870763e+00 -6.791420e+00 -1.126815e+00 6.146021e+01 1.619760e+00 -1.885483e+00 7.190722e-01 1.552098e-01 -1.877942e+00 -1.739677e+00 -3.091470e+00 2.202950e-01 3.007673e-02 -6.546456e-01 -6.478423e-01 4.407977e-01 3.319014e+00 -5.094585e-01 -6.742488e-01 5.511946e-02 -6.528115e-01 -4.492446e-01 3.695394e-01 3.606081e-01 7.145425e-01 1.729384e-01 5.085446e-02 1.549670e-01 -2.939619e-02 2.681444e-01 -2.637425e-01 2.596771e-01 1.150829e-02 -1.044806e-01 1.800134e-01 2.310761e-01 4.504747e-01 6.585769e-02 -4.871399e-02 7.124145e-02 1.114322e-01 -7.773445e-02 -3.236153e-01
<VARIANCE> 52
 2.835969e+01 4.363607e+01 3.379996e+01 3.731732e+01 3.538381e+01 7.648164e+01 7.975543e+01 4.072543e+01 4.164631e+01 4.299440e+01 4.441291e+01 2.856879e+01 4.079596e+01 2.948658e+00 5.414276e+00 3.116379e+00 4.334673e+00 4.571675e+00 6.480197e+00 7.687998e+00 6.501565e+00 4.211224e+00 3.671649e+00 4.271072e+00 2.870366e+00 1.767570e+00 5.093207e-01 6.009193e-01 5.185919e-01 6.034036e-01 7.549775e-01 1.254950e+00 1.460497e+00 8.485651e-01 7.549622e-01 6.559268e-01 8.445724e-01 5.250930e-01 4.284064e-01 1.047228e-01 2.205108e-01 1.167696e-01 1.665874e-01 1.779888e-01 2.601266e-01 2.700469e-01 2.592718e-01 1.788731e-01 1.584965e-01 1.550077e-01 1.212042e-01 6.215448e-02
<GCONST> 1.343483e+02
<STATE> 3
<NUMMIXES> 3
<MIXTURE> 1 4.566633e-01
<MEAN> 52
 -1.130966e+00 -7.071012e+00 9.350696e+00 -2.842109e+00 -1.570712e+01 -7.948205e+00 -1.816306e+01 3.632266e+00 -4.569365e+00 -4.084321e+00 9.568082e-01 -2.858398e+00 7.485073e+01 -1.070001e+00 6.804791e-01 1.815032e+00 -3.537861e-01 -1.046726e+00 -4.617063e-01 1.522430e+00 1.713146e-01 -1.698171e+00 -4.170049e-01 1.413363e+00 2.827037e-01 3.998514e-01 -2.155451e-02 4.300800e-01 1.512462e-01 1.943466e-01 2.636257e-01 3.291850e-01 1.123492e-01 -7.784829e-01 -1.705136e-01 2.189630e-01 -1.097098e-01 -1.571184e-02 -3.223696e-01 5.023993e-02 -6.972022e-02 -1.171113e-01 -2.778251e-02 1.282612e-01 6.985717e-02 -2.171511e-01 6.480701e-02 2.460993e-01 3.978634e-02 -1.866446e-01 -1.898209e-02 1.595383e-02
<VARIANCE> 52
 9.272425e+00 4.606421e+01 3.271117e+01 4.361930e+01 2.908640e+01 3.894366e+01 4.740188e+01 4.409693e+01 5.859039e+01 3.678113e+01 3.271388e+01 3.484703e+01 1.082931e+01 3.802272e-01 6.984395e-01 1.097097e+00 1.374445e+00 1.361340e+00 1.462608e+00 1.532002e+00 2.841832e+00 1.871047e+00 1.793929e+00 1.643623e+00 1.289581e+00 2.256787e-01 5.827620e-02 1.229182e-01 1.751681e-01 2.190591e-01 2.461516e-01 2.905441e-01 3.595753e-01 4.363339e-01 3.720864e-01 3.056387e-01 4.249518e-01 1.926322e-01 4.000001e-02 1.453845e-02 2.316104e-02 3.933592e-02 5.284248e-02 6.101315e-02 7.481740e-02 6.417748e-02 1.153666e-01 7.853391e-02 6.221202e-02 7.501157e-02 5.722583e-02 9.408705e-03
<GCONST> 8.189132e+01
<MIXTURE> 2 2.274343e-01
<MEAN> 52
 -9.326295e+00 -1.203260e+01 2.276007e+00 -2.065876e+01 -1.726746e+01 -1.288179e+01 -6.144487e+00 -2.068926e+00 -1.120294e+01 7.440863e-01 -1.288030e+01 9.332189e-01 7.613404e+01 -9.081364e-01 1.319861e+00 1.423617e+00 -9.058569e-01 -9.131753e-01 4.178784e-01 4.465401e-01 -2.398783e+00 -7.190778e-01 2.157740e+00 -2.632360e-02 -1.798707e-01 1.557995e-01 1.925198e-01 1.769005e-01 2.203809e-01 1.357378e-01 1.066725e-01 1.012580e-01 -8.605183e-01 -3.019197e-01 4.540482e-01 -1.641804e-01 -1.938694e-01 1.544510e-01 -3.142417e-01 3.330034e-02 -6.891283e-02 -9.685989e-02 -3.228270e-02 1.086568e-01 2.903592e-02 -7.597642e-03 3.350452e-01 3.697859e-02 -2.510827e-01 8.852897e-03 3.495309e-02 4.386751e-02
<VARIANCE> 52
 8.221586e+00 1.847024e+01 2.031040e+01 2.785777e+01 4.200749e+01 1.852629e+01 5.117542e+01 5.922216e+01 5.054912e+01 4.757402e+01 2.132016e+01 3.786172e+01 2.890785e+01 2.882910e-01 5.819919e-01 1.360782e+00 6.665010e-01 8.605114e-01 1.043730e+00 3.746540e+00 1.578597e+00 2.700983e+00 1.502501e+00 1.596097e+00 1.149763e+00 2.935364e-01 3.985560e-02 9.157333e-02 1.733052e-01 2.482712e-01 2.890431e-01 2.008788e-01 3.878090e-01 4.869978e-01 3.376384e-01 4.614599e-01 2.814795e-01 3.016693e-01 2.643643e-02 8.629283e-03 2.543072e-02 4.848276e-02 5.641406e-02 5.328658e-02 4.566681e-02 1.275578e-01 9.290254e-02 1.282117e-01 7.647183e-02 7.890296e-02 5.820406e-02 5.335503e-03
<GCONST> 7.876492e+01
<MIXTURE> 3 3.159024e-01
<MEAN> 52
 2.280266e+00 -5.448889e+00 3.051982e+00 1.217872e+00 -1.324130e+01 -2.715942e+00 -2.088422e+01 -4.423683e+00 -4.799531e-01 -2.436975e-01 -1.997538e+00 -4.924390e+00 7.258006e+01 -8.915157e-01 -1.048490e+00 1.276567e+00 -1.487848e+00 -1.949381e+00 -9.692217e-02 -6.030369e-01 2.563807e+00 3.307731e-01 -9.431090e-01 8.173375e-01 -2.507627e-01 1.656762e+00 -2.925106e-01 5.771806e-01 3.413214e-01 4.494189e-02 3.447690e-01 -2.961373e-01 6.081647e-01 -3.074072e-02 -5.487535e-01 -1.997824e-01 1.061122e-01 1.104385e-01 -2.915404e-01 9.217644e-02 1.546902e-01 -5.486453e-02 2.356417e-01 1.476118e-01 -2.861994e-02 8.308059e-02 -3.506425e-01 -1.452489e-01 1.023612e-01 -6.031103e-03 7.367191e-02 -1.392768e-01
<VARIANCE> 52
 1.009861e+01 2.044911e+01 4.137979e+01 5.666564e+01 4.171149e+01 5.126974e+01 5.151728e+01 5.712518e+01 6.546168e+01 3.859313e+01 3.581787e+01 3.991073e+01 1.091974e+01 5.434732e-01 1.820381e+00 2.209194e+00 3.706736e+00 4.588741e+00 5.302129e+00 3.836835e+00 3.562546e+00 4.451876e+00 3.543498e+00 3.933850e+00 3.269907e+00 7.109283e-01 9.681933e-02 2.469895e-01 3.188576e-01 7.750795e-01 8.076199e-01 7.833303e-01 7.015693e-01 7.226673e-01 7.087979e-01 5.390347e-01 6.368941e-01 4.674890e-01 1.323247e-01 2.053176e-02 7.002636e-02 8.457341e-02 1.417441e-01 2.099351e-01 2.129928e-01 1.588007e-01 1.404109e-01 1.528168e-01 1.467902e-01 1.857426e-01 1.076847e-01 2.388708e-02
<GCONST> 1.148884e+02
<STATE> 4
<NUMMIXES> 3
<MIXTURE> 1 4.263683e-01
<MEAN> 52
 -4.805852e+00 -1.779909e+00 1.700462e+01 -3.026617e+00 -1.715880e+01 -5.451832e+00 -1.482025e+01 -5.790190e-01 -1.026317e+01 -4.591160e+00 4.255050e+00 -3.215583e+00 7.418536e+01 -7.205113e-01 1.534119e+00 1.341949e+00 1.852138e-01 7.365183e-01 5.530934e-01 6.001261e-01 -9.485335e-01 -7.970349e-01 1.086030e-01 -1.609091e-01 1.966950e-01 -6.499487e-01 -1.119249e-01 3.360718e-01 -5.936926e-01 1.476299e-01 7.744937e-01 -1.570198e-01 1.666480e-01 -1.747348e-04 6.068642e-01 2.192150e-01 -4.494442e-01 1.850722e-01 -2.279749e-01 -1.857760e-01 1.085934e-02 -2.081957e-01 -2.649784e-02 4.813381e-02 -1.229458e-01 1.994819e-01 1.459092e-01 1.229181e-01 2.291299e-03 7.030975e-02 5.529467e-02 6.429198e-02
<VARIANCE> 52
 1.101758e+01 2.770289e+01 3.520127e+01 4.925059e+01 3.657910e+01 4.124464e+01 3.461652e+01 4.481580e+01 4.900985e+01 4.477036e+01 2.542366e+01 3.409702e+01 1.399405e+01 3.887013e-01 7.453226e-01 1.182154e+00 1.087057e+00 1.993643e+00 1.483849e+00 1.446637e+00 2.164116e+00 1.759162e+00 1.397762e+00 1.411258e+00 1.342621e+00 2.530854e-01 1.701956e-01 1.834018e-01 2.404671e-01 2.792378e-01 3.835764e-01 3.189542e-01 4.196188e-01 4.491739e-01 3.617555e-01 3.467048e-01 3.015857e-01 2.890303e-01 5.417076e-02 2.532438e-02 4.239963e-02 3.875498e-02 5.787003e-02 7.114826e-02 6.621846e-02 6.613263e-02 1.079683e-01 7.800543e-02 5.643238e-02 6.568547e-02 5.605423e-02 8.523823e-03
<GCONST> 8.551381e+01
<MIXTURE> 2 2.660978e-01
<MEAN> 52
 -1.130770e+01 -2.545901e+00 1.032332e+01 -2.283452e+01 -1.827559e+01 -9.107493e+00 -1.406486e+01 -1.284918e+01 -1.110424e+01 4.377168e+00 -1.607245e+01 1.951430e+00 7.256559e+01 4.683450e-02 1.805718e+00 5.619425e-01 4.762781e-01 4.806866e-01 5.298153e-01 -1.457272e+00 -7.348797e-01 8.206199e-02 -8.029201e-01 -2.892119e-01 -6.205900e-02 -8.622869e-01 5.807026e-02 9.413097e-02 -5.080963e-01 5.579155e-01 8.952980e-02 -6.944131e-02 2.066306e-01 2.712662e-01 -2.391698e-02 -5.854374e-01 2.159363e-01 -2.990146e-01 -1.422447e-01 -1.402982e-01 1.577413e-02 -8.698043e-02 6.087161e-02 -2.125047e-02 6.011713e-03 2.419171e-01 -2.584592e-02 3.210008e-02 8.737198e-02 1.009813e-01 -7.884173e-02 5.464740e-02
<VARIANCE> 52
 9.007965e+00 2.730413e+01 1.003545e+01 1.923568e+01 2.874021e+01 3.239390e+01 3.982395e+01 3.982063e+01 3.380517e+01 4.843052e+01 3.567764e+01 3.634130e+01 3.148247e+01 3.997216e-01 4.782265e-01 1.343941e+00 1.937017e+00 1.032480e+00 1.633251e+00 1.208675e+00 3.051933e+00 1.600515e+00 1.984081e+00 2.289312e+00 1.900939e+00 3.331167e-01 8.341358e-02 1.108925e-01 1.725655e-01 1.715008e-01 2.194275e-01 3.006247e-01 3.826661e-01 5.071777e-01 2.759743e-01 3.609833e-01 3.442369e-01 3.005858e-01 2.121222e-02 2.728401e-02 2.764923e-02 3.732435e-02 4.158695e-02 5.426140e-02 5.809687e-02 7.203893e-02 9.893712e-02 7.283610e-02 8.528056e-02 9.211502e-02 6.350859e-02 5.538427e-03
<GCONST> 8.044802e+01
<MIXTURE> 3 3.075338e-01
<MEAN> 52
 -6.858599e+00 4.004711e+00 1.753781e+01 -1.427100e+00 -1.180770e+01 -5.851763e+00 -1.133026e+01 -2.872976e+00 -9.556534e+00 -3.284012e+00 1.851901e+00 -9.201863e-01 7.134015e+01 -2.203046e+00 3.180521e+00 -1.460971e+00 7.284717e-01 3.178267e+00 -6.435653e-01 2.786275e+00 -8.654854e-01 1.629770e+00 7.983826e-01 -9.047763e-01 1.266817e+00 -1.060834e+00 -8.787983e-01 9.457237e-02 -9.086267e-01 -7.392608e-02 4.506763e-01 9.728909e-02 5.145797e-01 2.723926e-01 5.428248e-01 1.430818e-01 -4.133468e-02 -4.745048e-02 4.960090e-02 1.866176e-02 -4.209088e-01 1.375225e-01 -2.050288e-01 -4.323354e-01 1.593311e-01 -3.142718e-01 8.803549e-02 -2.838942e-01 -9.690802e-02 1.368537e-01 -2.071331e-01 1.215231e-01
<VARIANCE> 52
 1.144865e+01 2.495610e+01 2.634739e+01 4.084870e+01 3.294831e+01 3.935058e+01 4.295248e+01 3.697228e+01 4.524007e+01 4.055469e+01 2.284077e+01 2.464020e+01 1.805123e+01 1.503872e+00 1.655441e+00 3.314886e+00 3.245474e+00 3.014416e+00 2.424455e+00 2.697964e+00 2.960495e+00 3.946767e+00 3.310872e+00 2.208539e+00 1.489183e+00 4.439557e-01 1.062529e-01 3.964874e-01 3.286141e-01 4.748415e-01 5.335401e-01 3.866181e-01 4.588481e-01 4.977303e-01 6.140932e-01 4.128163e-01 3.644372e-01 3.452848e-01 7.390052e-02 5.607805e-02 5.826659e-02 8.259267e-02 1.021620e-01 1.239974e-01 8.887945e-02 1.137956e-01 1.219878e-01 1.353033e-01 1.135519e-01 8.271644e-02 6.071006e-02 1.385533e-02
<GCONST> 1.026248e+02
<STATE> 5
<NUMMIXES> 3
<MIXTURE> 1 4.215992e-01
<MEAN> 52
 -1.672486e+01 1.288600e+01 8.561387e+00 -5.411000e-01 -4.078045e+00 -6.068212e+00 -4.120703e+00 -5.932622e+00 -4.443501e+00 -3.115507e+00 -2.377872e+00 -6.229970e-01 6.860010e+01 -4.255521e+00 1.212236e+00 -2.611609e+00 3.332112e-01 2.830130e+00 1.195462e+00 2.582734e+00 9.786140e-01 1.935936e+00 1.000803e+00 4.310258e-02 1.358155e-01 -3.970772e-01 2.340209e-02 -1.109777e+00 -1.684172e-01 -7.529994e-01 -8.148471e-01 7.980975e-02 -6.369213e-01 2.038256e-01 -2.682121e-01 1.515190e-01 6.097538e-02 -6.636813e-02 2.078481e-01 5.263471e-01 -7.678899e-02 3.100310e-01 -4.877034e-02 -3.814658e-01 -2.152177e-01 -3.208230e-01 -2.379088e-01 -2.733329e-01 -1.921751e-01 -6.177348e-03 -9.395655e-03 -1.711528e-02
<VARIANCE> 52
 2.338498e+01 1.256149e+01 4.210225e+01 2.267268e+01 3.570732e+01 3.956667e+01 3.508212e+01 4.233712e+01 2.620470e+01 3.503637e+01 3.246306e+01 3.053086e+01 1.672780e+01 7.327141e-01 3.299746e+00 2.923581e+00 4.068072e+00 2.723481e+00 2.576813e+00 3.176453e+00 3.501779e+00 2.841355e+00 3.309131e+00 3.422843e+00 2.025752e+00 4.262397e-01 3.222145e-01 2.438548e-01 3.671398e-01 3.664270e-01 5.965438e-01 4.993729e-01 4.959122e-01 4.848388e-01 6.151970e-01 7.363652e-01 4.580649e-01 5.501995e-01 4.980705e-02 2.472574e-02 1.149025e-01 8.675636e-02 9.861351e-02 1.103017e-01 8.488356e-02 1.116650e-01 1.196205e-01 1.153635e-01 1.320303e-01 1.120553e-01 9.198424e-02 1.211007e-02
<GCONST> 1.051094e+02
<MIXTURE> 2 4.156211e-01
<MEAN> 52
 -2.494968e+01 1.041223e+01 3.662877e+00 -3.251534e+00 -1.236067e+00 -3.544545e+00 -9.549477e-01 -2.843919e+00 -1.530267e+00 -2.833351e-02 -1.052141e+00 4.903248e-01 6.892062e+01 -2.434358e+00 -1.215254e+00 -2.347689e+00 -1.728787e+00 -5.978233e-01 -1.368308e-01 -2.257079e-02 -4.098846e-02 3.006321e-01 2.410284e-01 5.687840e-02 -1.268548e-01 -1.104861e-01 1.055810e+00 -3.873481e-01 6.343809e-01 -1.244561e-01 -8.118004e-01 -3.577916e-01 -6.823522e-01 -3.133552e-01 -5.028346e-01 -3.019371e-01 6.796497e-03 -7.397339e-02 8.244872e-02 2.200350e-01 3.841755e-01 2.714814e-01 3.394382e-01 3.100002e-01 3.405149e-02 2.162905e-01 -1.792194e-02 6.492880e-02 -1.346867e-03 -3.737931e-02 4.806205e-02 -5.438475e-02
<VARIANCE> 52
 1.198000e+01 1.749788e+01 4.016046e+01 2.813322e+01 2.902188e+01 3.907073e+01 3.364000e+01 3.152214e+01 2.399528e+01 2.377150e+01 2.408369e+01 2.206232e+01 9.471128e+00 1.739151e+00 1.341496e+00 1.739223e+00 1.704219e+00 2.070150e+00 1.954064e+00 2.267469e+00 2.247699e+00 2.277669e+00 2.189670e+00 2.187305e+00 1.421435e+00 2.409758e-01 1.235224e-01 3.878353e-01 3.733880e-01 5.329465e-01 5.909266e-01 3.690381e-01 4.452726e-01 4.194486e-01 3.993006e-01 3.937731e-01 4.574013e-01 3.152702e-01 4.301512e-02 4.924582e-02 4.512275e-02 6.656455e-02 6.379844e-02 9.984646e-02 8.989695e-02 9.696698e-02 9.987251e-02 1.172336e-01 1.182983e-01 1.045526e-01 7.643042e-02 8.054438e-03
<GCONST> 9.345560e+01
<MIXTURE> 3 1.627798e-01
<MEAN> 52
 -1.074737e+01 6.470827e+00 6.243610e+00 -1.497120e+01 -1.663467e+01 -8.022348e+00 -1.642298e+01 -1.543616e+01 -1.075927e+01 -4.630971e+00 -1.426170e+01 -2.421387e+00 6.803304e+01 -1.657991e+00 2.713022e+00 -2.150543e+00 3.537414e+00 1.097710e+00 6.365147e-01 1.527008e+00 -9.300201e-02 7.322685e-01 -2.547588e+00 1.846820e+00 -2.049437e+00 -9.343073e-01 -1.043046e+00 -1.791408e-01 -3.505114e-01 2.429211e-01 5.678421e-01 2.910691e-01 8.300089e-01 6.472602e-01 4.722963e-01 6.008316e-01 4.861032e-01 1.420119e-01 2.505721e-01 4.050324e-02 -3.188396e-01 1.872844e-01 -3.976852e-01 -1.493410e-02 1.389319e-02 -1.981188e-01 1.147266e-01 2.770257e-02 4.344941e-01 -1.913344e-01 3.223188e-01 5.067940e-02
<VARIANCE> 52
 7.895749e+00 2.705486e+01 2.633225e+01 3.466316e+01 2.494733e+01 2.182446e+01 3.694515e+01 1.490585e+01 1.576701e+01 4.816661e+01 3.361761e+01 2.679751e+01 2.462068e+01 2.253541e+00 1.079378e+00 1.586661e+00 1.770304e+00 4.431367e+00 3.797175e+00 3.459605e+00 2.873927e+00 2.925285e+00 3.503094e+00 2.220343e+00 2.538630e+00 4.019208e-01 1.066398e-01 4.081271e-01 3.463762e-01 4.691292e-01 4.042090e-01 3.777359e-01 4.536464e-01 6.197527e-01 3.619310e-01 9.851930e-01 5.055837e-01 5.521384e-01 3.559477e-02 1.025941e-01 4.381349e-02 5.736253e-02 7.249918e-02 1.406563e-01 1.203794e-01 1.078142e-01 1.209408e-01 8.774620e-02 1.246803e-01 9.026082e-02 8.732559e-02 1.003313e-02
<GCONST> 1.001785e+02
<STATE> 6
<NUMMIXES> 3
<MIXTURE> 1 1.307713e-01
<MEAN> 52
 -2.594880e+01 8.431767e+00 -1.686144e+00 -5.494461e+00 -4.555334e+00 -2.354081e+00 -2.988473e+00 -7.584070e+00 -1.849400e+00 -5.524091e-01 -2.967071e+00 -2.168541e+00 6.574051e+01 3.300268e+00 3.568113e-01 2.328869e+00 -1.233271e+00 -2.189479e+00 -1.805753e+00 -2.787794e+00 -3.004030e+00 -2.570960e+00 -1.525105e+00 -1.132716e+00 -4.558546e-01 2.113640e-01 1.009322e+00 -7.920159e-02 4.846617e-01 -8.690442e-01 -7.398235e-01 -4.037621e-01 -8.294125e-01 -4.731189e-01 -4.366013e-01 -3.978856e-02 -5.151231e-01 -1.074395e-01 3.706227e-01 -4.229099e-01 -1.994836e-01 -2.844412e-01 -1.110656e-01 3.422461e-01 3.657952e-01 3.628639e-01 5.176587e-01 4.169374e-01 3.614106e-01 5.625471e-02 5.948640e-02 2.702917e-02
<VARIANCE> 52
 1.565991e+01 1.123936e+01 4.330254e+01 2.491486e+01 2.947906e+01 2.801184e+01 3.942883e+01 3.889513e+01 2.948992e+01 2.636076e+01 1.841348e+01 1.953230e+01 2.006336e+01 2.283632e+00 1.175030e+00 1.446174e+00 3.075370e+00 2.459817e+00 1.880252e+00 2.942505e+00 2.850381e+00 1.870839e+00 2.045310e+00 2.250010e+00 2.174188e+00 4.794255e-01 2.228937e-01 2.425193e-01 2.780155e-01 4.941850e-01 5.078311e-01 5.339859e-01 5.523791e-01 7.255232e-01 5.245108e-01 6.314948e-01 4.000821e-01 4.787048e-01 6.683854e-02 8.804926e-02 5.151448e-02 5.433513e-02 1.047825e-01 1.269875e-01 8.425284e-02 1.291353e-01 1.153063e-01 9.348676e-02 8.829116e-02 9.696347e-02 1.170305e-01 1.652754e-02
<GCONST> 1.003749e+02
<MIXTURE> 2 7.713718e-01
<MEAN> 52
 -2.859461e+01 8.642635e+00 -2.434315e+00 -6.767412e+00 -5.224752e+00 -6.052368e+00 -3.532743e+00 -4.590561e+00 -2.317659e+00 -2.174009e-01 -1.606605e+00 -7.901711e-01 6.797063e+01 -1.546255e-01 -5.157610e-01 -1.955710e-02 -3.503641e-01 -4.608417e-02 7.067558e-02 1.456655e-01 3.468207e-02 1.271186e-01 1.954390e-01 9.663355e-02 8.249807e-02 -1.795220e-01 6.529102e-01 8.917438e-02 5.815239e-01 1.827879e-01 -6.387379e-02 4.103270e-03 -1.351605e-01 -1.480169e-01 -1.694294e-01 -1.213899e-01 -1.029870e-01 -5.330383e-02 -2.821051e-02 4.590838e-02 5.037396e-02 2.756593e-03 6.700431e-03 -3.041795e-02 6.979754e-03 -5.013436e-02 -2.709833e-02 -4.349035e-02 -2.441653e-02 -4.165293e-04 -2.549829e-02 3.266308e-02
<VARIANCE> 52
 6.737205e+00 1.826561e+01 3.830975e+01 2.798839e+01 2.068908e+01 5.043072e+01 3.007450e+01 2.930122e+01 2.810301e+01 2.845281e+01 2.183672e+01 1.812390e+01 1.629775e+01 6.353604e-01 6.587929e-01 1.177038e+00 1.141452e+00 1.410911e+00 1.452833e+00 1.367526e+00 1.674218e+00 1.621221e+00 1.726875e+00 1.629533e+00 1.445447e+00 1.665537e-01 2.743254e-01 1.954204e-01 2.607574e-01 3.497097e-01 3.514136e-01 3.387899e-01 3.919793e-01 4.575377e-01 4.144227e-01 4.227814e-01 3.472954e-01 2.900743e-01 3.468811e-02 4.932756e-02 3.583470e-02 4.482742e-02 7.085047e-02 8.511520e-02 8.427320e-02 8.725060e-02 9.076333e-02 9.056350e-02 1.003129e-01 7.813169e-02 7.918175e-02 1.239877e-02
<GCONST> 8.500292e+01
<MIXTURE> 3 9.785698e-02
<MEAN> 52
 -1.406573e+01 8.899328e+00 3.559788e+00 -1.460090e+01 -1.538918e+01 -9.548709e+00 -1.584959e+01 -1.848689e+01 -9.390054e+00 -5.598252e+00 -9.603209e+00 -4.721408e+00 6.743164e+01 3.476745e+00 -1.268724e+00 2.645675e+00 -4.613930e+00 -2.030230e+00 -1.073708e+00 -3.081494e+00 -1.459511e+00 -1.462751e+00 4.386306e-01 -2.719702e+00 -3.012954e-01 1.335536e+00 -8.763947e-01 -4.584828e-01 -5.017994e-01 -3.345104e-01 9.285876e-01 8.219378e-01 7.584860e-01 1.245348e+00 8.633887e-01 8.381397e-01 3.653316e-02 3.283043e-01 7.760885e-02 -3.865748e-01 1.591537e-01 -3.678249e-01 5.813854e-01 3.430474e-01 1.794380e-01 3.426508e-01 1.672161e-01 1.502652e-01 -1.385926e-01 3.151497e-01 6.097720e-02 -2.115814e-01
<VARIANCE> 52
 1.056556e+01 1.981309e+01 2.405870e+01 3.104296e+01 2.067817e+01 1.757575e+01 2.708232e+01 2.801074e+01 1.356215e+01 2.905874e+01 1.965098e+01 2.041579e+01 2.683414e+01 1.837958e+00 1.496827e+00 2.019634e+00 3.364397e+00 3.641472e+00 3.929790e+00 4.189261e+00 5.361114e+00 2.739607e+00 3.749319e+00 1.945988e+00 3.341659e+00 4.240780e-01 2.294647e-01 2.310352e-01 3.681247e-01 5.741531e-01 3.515154e-01 3.327459e-01 5.774302e-01 3.455610e-01 3.357109e-01 4.481810e-01 5.581477e-01 4.866613e-01 8.700684e-02 8.451638e-02 6.315892e-02 7.081310e-02 8.637575e-02 1.328738e-01 1.759731e-01 1.659981e-01 1.876036e-01 1.296140e-01 1.488241e-01 9.936222e-02 1.194952e-01 1.222872e-02
<GCONST> 1.031334e+02
<STATE> 7
<NUMMIXES> 3
<MIXTURE> 1 4.430194e-01
<MEAN> 52
 -1.014325e+01 8.109722e+00 1.361919e+01 -2.889238e+00 -8.977225e+00 -4.796261e+00 -6.077384e+00 -5.519969e+00 -7.060302e+00 -2.879675e+00 6.380600e-02 -6.158581e-01 6.944215e+01 4.530788e+00 -6.174671e-01 2.533886e+00 -7.366204e-02 -2.801230e+00 5.442992e-01 -1.843603e+00 -1.553636e-01 -1.838772e+00 -3.135150e-01 1.189634e+00 -4.992050e-01 1.235830e+00 -7.655222e-01 -4.060638e-01 -7.959525e-01 -5.064589e-01 8.485378e-02 2.804810e-01 1.428009e-01 1.508754e-01 6.929163e-02 3.445831e-01 1.148936e-01 -2.486319e-01 7.825491e-02 -5.249287e-01 3.147223e-02 -3.822684e-01 4.578366e-02 4.422063e-01 -5.796611e-03 2.806329e-01 -8.853042e-03 2.673942e-01 8.304255e-02 -2.162908e-01 -3.930862e-02 -2.418875e-01
<VARIANCE> 52
 3.010712e+01 2.543807e+01 2.207806e+01 2.317878e+01 4.645457e+01 4.881033e+01 3.125968e+01 3.339278e+01 3.587617e+01 2.226099e+01 2.669769e+01 2.043655e+01 1.786519e+01 2.347418e+00 2.450835e+00 4.306815e+00 4.059793e+00 3.033581e+00 4.505490e+00 2.587012e+00 3.228393e+00 3.387592e+00 4.447097e+00 2.756414e+00 2.884452e+00 7.565077e-01 5.229058e-01 2.482487e-01 4.456381e-01 4.410498e-01 7.277473e-01 6.097872e-01 4.797642e-01 4.394115e-01 5.610490e-01 4.118553e-01 4.835161e-01 4.083885e-01 1.739996e-01 1.030542e-01 8.082169e-02 1.234328e-01 1.486183e-01 1.133244e-01 1.738194e-01 9.385438e-02 1.248936e-01 1.213505e-01 1.658305e-01 1.135391e-01 1.192722e-01 2.838769e-02
<GCONST> 1.130451e+02
<MIXTURE> 2 3.382720e-01
<MEAN> 52
 -2.523847e+01 4.348941e+00 3.514631e+00 -7.088339e+00 -4.491291e+00 -5.142027e+00 -2.082918e+00 -3.454955e+00 -2.687605e+00 -5.783613e-01 -1.444174e+00 -9.348170e-02 6.718719e+01 3.940444e+00 3.929977e-01 2.684218e+00 1.350374e+00 -5.840739e-01 4.714115e-01 -6.863255e-01 -3.747421e-01 -8.085235e-01 -5.751796e-01 -1.443784e-01 -4.484579e-01 -2.142543e-01 1.268068e+00 2.959631e-01 7.600453e-01 2.331245e-01 -5.133468e-01 1.613871e-01 -4.860534e-01 -2.272954e-02 -5.200859e-01 -1.234195e-01 3.887494e-01 -5.570382e-02 4.371220e-01 -4.568243e-01 -2.057047e-01 -3.909779e-01 -3.407484e-01 -8.901799e-02 1.819325e-02 1.303576e-02 3.980264e-02 2.991999e-02 1.187140e-01 9.659355e-02 -1.364841e-02 9.291162e-02
<VARIANCE> 52
 1.562736e+01 1.818075e+01 2.118976e+01 2.106283e+01 2.283787e+01 3.604279e+01 2.570020e+01 2.348220e+01 2.736750e+01 2.726052e+01 2.239542e+01 2.042751e+01 1.164520e+01 2.325822e+00 2.301480e+00 2.441142e+00 2.021644e+00 2.591301e+00 2.329168e+00 2.186404e+00 1.936015e+00 2.341616e+00 2.673693e+00 2.033221e+00 1.372948e+00 7.915230e-01 2.849895e-01 3.296575e-01 3.674178e-01 5.508820e-01 5.260684e-01 6.296891e-01 3.751918e-01 3.732205e-01 4.731744e-01 6.710585e-01 4.626686e-01 3.889245e-01 1.529926e-01 9.046279e-02 7.336549e-02 9.711983e-02 8.256253e-02 1.258966e-01 9.523317e-02 7.841720e-02 8.404496e-02 1.108447e-01 1.027440e-01 1.057194e-01 6.788988e-02 3.199719e-02
<GCONST> 1.008590e+02
<MIXTURE> 3 2.187086e-01
<MEAN> 52
 -1.188811e+01 3.822275e+00 6.774810e+00 -2.717972e+01 -1.201880e+01 -7.271398e+00 -1.832840e+01 -1.403022e+01 -8.422777e+00 -2.489092e-01 -1.640546e+01 -2.631897e+00 7.110790e+01 7.128681e-01 -7.954990e-01 -2.809725e-01 -2.100515e+00 1.256123e+00 8.719003e-01 -8.460094e-01 1.039957e+00 5.581738e-01 1.771571e-01 -1.274525e+00 5.200397e-01 4.047892e-01 -3.225072e-01 2.088663e-01 -6.202360e-01 1.114160e+00 3.214225e-01 1.096744e-01 2.719278e-01 1.692387e-01 1.653614e-01 -5.110071e-01 4.722267e-01 3.404803e-02 -2.965471e-01 1.969774e-01 1.634484e-02 1.880699e-01 1.101496e-01 -2.738346e-01 -2.583691e-01 -1.323135e-01 -2.369976e-01 -2.360392e-01 -1.437427e-01 1.301602e-02 -8.167633e-02 -7.416395e-03
<VARIANCE> 52
 1.034760e+01 1.128864e+01 1.422112e+01 2.609324e+01 1.492446e+01 1.967137e+01 3.352187e+01 3.333480e+01 2.250223e+01 4.055697e+01 3.372572e+01 1.842359e+01 1.145715e+01 5.085303e-01 6.877059e-01 2.001689e+00 3.601903e+00 1.093803e+00 1.420887e+00 1.802666e+00 3.129210e+00 2.465682e+00 3.568206e+00 2.787915e+00 1.976179e+00 3.265584e-01 2.702659e-01 1.524079e-01 4.593365e-01 2.791559e-01 3.277665e-01 5.667686e-01 4.456493e-01 4.026341e-01 4.580413e-01 3.783147e-01 4.257901e-01 2.975412e-01 3.062841e-02 4.796935e-02 4.380114e-02 8.529648e-02 1.213432e-01 4.007797e-02 6.999565e-02 1.005462e-01 9.826899e-02 8.805928e-02 1.472860e-01 1.117770e-01 7.603703e-02 1.012066e-02
<GCONST> 8.960711e+01
<STATE> 8
<NUMMIXES> 3
<MIXTURE> 1 4.476338e-01
<MEAN> 52
 -5.766300e+00 4.027486e+00 1.640870e+01 -7.890185e+00 -1.532198e+01 -2.416983e-01 -1.010418e+01 -5.658380e+00 -1.026539e+01 -1.375478e+00 3.864133e+00 -3.621114e+00 7.229135e+01 9.083064e-01 -6.191082e-01 -3.544531e-01 -1.162358e+00 -3.391348e-01 1.844972e+00 -3.665498e-01 -8.549389e-02 -3.088865e-01 1.015505e+00 3.476340e-01 -1.545637e+00 1.906497e-01 -6.072034e-01 2.038806e-01 -7.349643e-01 3.644270e-01 8.487021e-01 -2.443783e-01 4.788262e-01 -5.114969e-02 4.032098e-01 1.342700e-01 -4.672580e-01 -3.509493e-02 -4.107834e-01 2.456850e-01 5.615406e-02 2.104522e-01 2.938235e-01 -5.477221e-02 -2.839859e-01 -4.296477e-02 -2.186236e-02 -2.679883e-02 -1.838795e-01 -6.754994e-02 2.036679e-01 -2.014820e-02
<VARIANCE> 52
 1.238070e+01 2.108598e+01 2.562327e+01 4.882525e+01 3.036329e+01 5.687567e+01 3.519497e+01 4.495757e+01 3.917236e+01 4.744909e+01 2.648419e+01 3.152498e+01 1.280163e+01 5.942057e-01 9.339766e-01 1.563987e+00 2.050031e+00 2.687998e+00 2.219230e+00 2.510464e+00 2.196973e+00 2.091060e+00 2.374333e+00 2.343550e+00 1.739745e+00 4.527766e-01 3.061069e-01 1.754480e-01 3.999752e-01 5.663062e-01 5.306738e-01 6.263920e-01 3.838790e-01 4.148727e-01 3.607717e-01 5.158392e-01 3.265803e-01 4.028804e-01 8.469024e-02 2.776536e-02 4.479415e-02 5.928070e-02 7.410060e-02 1.044582e-01 8.495393e-02 1.031496e-01 1.001653e-01 9.837230e-02 8.671390e-02 9.021728e-02 7.262406e-02 2.139866e-02
<GCONST> 9.759924e+01
<MIXTURE> 2 3.214900e-01
<MEAN> 52
 -9.262753e+00 -1.272494e+00 4.503769e+00 -2.862789e+01 -6.661371e+00 -6.236682e+00 -2.257349e+01 -7.553504e+00 -6.989590e+00 -4.213495e+00 -1.873220e+01 -7.151886e-01 7.191595e+01 4.645400e-01 -5.227781e-01 -1.036540e-01 8.056511e-01 3.069061e-01 -1.152260e-01 -3.595600e-01 6.794948e-01 -2.701607e-01 -9.614410e-01 6.766662e-03 5.413805e-02 -3.005815e-01 2.917748e-03 4.127939e-02 3.613125e-03 2.540135e-01 -1.814453e-01 -1.511933e-01 1.477024e-01 -6.512733e-02 -4.484830e-02 4.534879e-02 9.877830e-02 -8.088214e-02 -9.787484e-02 1.414739e-02 1.144220e-02 -2.243048e-02 -8.423285e-02 -6.071223e-03 4.308295e-03 3.283554e-02 -2.899754e-02 1.100672e-02 7.216159e-02 -2.581650e-02 -3.991609e-03 6.489178e-03
<VARIANCE> 52
 6.013349e+00 9.452180e+00 1.189659e+01 2.577169e+01 1.789717e+01 4.119648e+01 2.100394e+01 7.078159e+01 1.533200e+01 4.779044e+01 3.444183e+01 2.242217e+01 4.555549e+00 9.360649e-02 1.456415e-01 4.168647e-01 7.324258e-01 8.806486e-01 9.775528e-01 1.068895e+00 9.880986e-01 5.808129e-01 1.342801e+00 7.142738e-01 4.910759e-01 9.180558e-02 1.901994e-02 2.717630e-02 8.812615e-02 1.188125e-01 9.329673e-02 1.290161e-01 1.383100e-01 2.010530e-01 1.582639e-01 1.576703e-01 1.219281e-01 1.043501e-01 6.739840e-03 4.297376e-03 6.097982e-03 1.740851e-02 3.056114e-02 1.935059e-02 2.839625e-02 2.586448e-02 2.998009e-02 2.849113e-02 3.271109e-02 2.866804e-02 2.090646e-02 1.627071e-03
<GCONST> 3.798425e+01
<MIXTURE> 3 2.308761e-01
<MEAN> 52
 -3.704726e+00 4.601109e+00 9.613237e+00 -7.617007e+00 -1.238275e+01 3.352376e-01 -1.047255e+01 -7.072924e+00 -9.407452e+00 3.770028e-01 -2.157457e+00 -5.513779e+00 7.097633e+01 1.211280e+00 -8.833684e-01 -1.783446e+00 2.339870e+00 9.345967e-01 -1.734921e+00 1.129813e+00 1.589002e-01 -4.011487e-01 -7.751109e-02 -3.511758e-01 -2.018384e-01 -5.577461e-01 -1.514665e-01 2.487897e-02 -1.596494e-01 5.937659e-01 3.285193e-01 -6.203873e-01 3.355242e-01 -3.321905e-02 2.586368e-01 -2.394560e-01 -1.903222e-01 3.453243e-01 -3.056574e-01 1.062790e-01 9.693886e-02 3.216185e-01 -3.589622e-01 -2.265860e-01 3.734197e-01 -2.972783e-01 -7.738879e-02 3.758337e-02 3.999816e-02 3.815355e-03 -2.643733e-02 7.749880e-02
<VARIANCE> 52
 1.195023e+01 2.185340e+01 3.307293e+01 8.604578e+01 3.670901e+01 5.079441e+01 9.457829e+01 8.175083e+01 6.033052e+01 7.486567e+01 1.002097e+02 3.860478e+01 1.003981e+01 7.614521e-01 6.638682e-01 1.199064e+00 1.577622e+00 3.100915e+00 2.782359e+00 2.259203e+00 2.580583e+00 2.874331e+00 2.619350e+00 2.711142e+00 3.206919e+00 5.454504e-01 2.690126e-01 1.845048e-01 2.498261e-01 4.698841e-01 5.292233e-01 6.064872e-01 7.108690e-01 8.437333e-01 8.360201e-01 5.753467e-01 6.519890e-01 6.331553e-01 5.762504e-02 6.328703e-02 3.519274e-02 5.920453e-02 7.324369e-02 1.275853e-01 1.372564e-01 1.025630e-01 1.279729e-01 1.188711e-01 1.008210e-01 1.127120e-01 1.196106e-01 1.964497e-02
<GCONST> 1.081539e+02
<STATE> 9
<NUMMIXES> 3
<MIXTURE> 1 3.217762e-01
<MEAN> 52
 -4.544202e+00 2.150854e+00 1.519348e+01 -1.139059e+01 -1.448497e+01 2.662930e+00 -1.030130e+01 -6.596234e+00 -9.345797e+00 2.184099e+00 1.104915e+00 -8.668139e+00 7.140397e+01 4.115054e-01 8.766764e-02 -5.765817e-01 5.363420e-01 9.353416e-01 -2.589046e-02 -2.303931e-01 1.869877e-01 5.494013e-01 -1.124570e-01 -9.190019e-01 -2.829885e-01 -6.346028e-01 1.475816e-02 6.803682e-02 -7.561179e-02 3.411735e-01 6.049251e-02 -4.469833e-01 1.207665e-01 1.428813e-01 -8.057434e-02 -2.305316e-01 4.883819e-02 2.579642e-01 -1.118202e-01 1.361812e-02 -1.922839e-02 2.825863e-02 -3.205913e-02 -8.260290e-02 4.482479e-02 6.388301e-02 -3.300244e-02 -4.748764e-02 4.825950e-02 7.739665e-02 -2.618838e-02 1.820825e-02
<VARIANCE> 52
 9.090123e+00 1.646022e+01 1.336245e+01 2.592232e+01 5.941451e+01 3.933855e+01 3.766002e+01 5.609388e+01 3.124688e+01 4.138613e+01 3.319258e+01 2.563578e+01 1.066434e+01 7.253028e-02 3.860016e-01 4.537059e-01 9.319977e-01 1.336007e+00 1.467859e+00 1.396268e+00 1.233196e+00 1.127588e+00 2.037197e+00 1.017521e+00 1.536783e+00 1.447621e-01 1.111066e-02 5.801703e-02 6.539159e-02 1.686926e-01 1.602082e-01 2.121563e-01 2.997692e-01 2.300024e-01 1.682080e-01 2.941464e-01 2.081171e-01 2.678546e-01 1.288335e-02 5.979781e-03 1.376857e-02 2.279534e-02 3.226659e-02 3.750143e-02 4.459304e-02 5.130270e-02 4.872799e-02 4.214947e-02 5.959875e-02 4.403652e-02 5.976025e-02 4.317882e-03
<GCONST> 5.971075e+01
<MIXTURE> 2 3.505993e-01
<MEAN> 52
 -4.653541e+00 -2.188365e-01 9.253749e-01 -1.615683e+01 -8.885621e+00 -9.643231e+00 -1.929344e+01 -7.261707e+00 -1.077063e+01 -1.127734e+01 -1.530441e+01 -4.593674e+00 6.425143e+01 2.513012e-01 1.418359e-01 -3.464760e-01 9.661788e-01 -1.345398e-01 -2.395573e-01 4.821193e-01 -2.264769e-01 -2.756771e-01 -2.768128e-01 4.010253e-01 -2.126012e-01 -7.605982e-01 -8.182938e-02 6.745866e-02 6.293678e-02 1.796708e-02 1.021365e-02 6.822194e-02 8.549506e-02 -9.149748e-02 -3.366760e-02 3.499900e-02 7.943494e-02 3.068084e-02 -3.943657e-02 -1.036573e-02 -2.668450e-02 5.288438e-03 6.413012e-03 3.458022e-02 1.134968e-02 -1.078919e-02 3.832889e-02 1.388964e-02 -1.498524e-03 -7.412966e-03 1.989903e-02 1.197120e-02
<VARIANCE> 52
 9.374412e+00 1.886550e+01 1.685454e+01 5.104936e+01 4.157145e+01 4.044134e+01 3.460265e+01 3.587803e+01 2.143346e+01 7.804972e+01 4.096915e+01 2.694294e+01 3.733268e+01 2.495572e-01 4.659514e-01 8.569094e-01 1.293517e+00 1.126236e+00 1.277741e+00 1.321552e+00 1.425573e+00 1.284060e+00 1.526215e+00 1.155978e+00 8.793253e-01 1.926134e-01 2.855431e-02 7.939906e-02 1.223471e-01 2.252605e-01 1.961636e-01 2.463823e-01 1.969194e-01 2.200847e-01 2.370005e-01 2.302109e-01 2.263351e-01 1.588772e-01 2.268138e-02 6.386664e-03 1.321266e-02 3.131473e-02 4.678705e-02 4.109944e-02 4.746192e-02 4.497369e-02 5.778374e-02 6.162046e-02 4.904995e-02 5.570851e-02 3.394569e-02 4.484803e-03
<GCONST> 6.664642e+01
<MIXTURE> 3 3.276244e-01
<MEAN> 52
 -7.384142e-01 3.366007e+00 8.473291e+00 -1.302864e+00 -8.574492e+00 -3.280684e+00 -7.490906e+00 -4.906903e+00 -8.664732e+00 -1.979868e-01 -1.255970e+00 -6.912060e+00 6.756698e+01 7.673416e-01 7.071493e-02 -1.060737e+00 2.200895e+00 6.965559e-01 -1.271502e+00 1.001720e+00 -3.726706e-01 3.434767e-01 6.338895e-04 -8.602481e-01 3.108556e-01 -1.152505e+00 -2.187486e-01 1.039001e-01 2.402909e-01 -2.567161e-01 -8.452582e-02 4.418546e-01 -1.147742e-01 -2.228827e-01 2.553482e-01 7.287142e-02 -1.494420e-01 1.052689e-01 -4.642009e-02 -4.813492e-02 -5.104180e-02 8.077130e-02 -2.889749e-01 -2.461129e-02 2.045589e-01 -1.768406e-01 9.840669e-02 -1.557024e-02 -2.051140e-02 1.014667e-01 -6.680550e-02 9.950752e-02
<VARIANCE> 52
 1.074527e+01 2.073281e+01 3.121644e+01 5.285408e+01 3.666190e+01 4.389827e+01 5.029756e+01 4.213525e+01 5.984150e+01 5.234064e+01 5.084827e+01 3.504513e+01 1.491884e+01 4.222954e-01 1.067968e+00 8.671319e-01 1.475087e+00 1.559383e+00 2.364809e+00 2.332335e+00 3.025930e+00 3.036972e+00 2.705745e+00 2.725834e+00 2.684281e+00 3.878354e-01 8.478955e-02 1.309761e-01 1.799967e-01 3.545036e-01 3.134667e-01 4.083554e-01 4.602349e-01 4.217250e-01 5.316585e-01 4.721940e-01 4.696818e-01 4.126908e-01 5.933670e-02 2.584708e-02 3.932509e-02 3.668031e-02 5.977012e-02 7.412117e-02 8.889141e-02 9.339659e-02 1.153023e-01 1.186586e-01 9.985349e-02 1.115193e-01 1.015320e-01 9.921425e-03
<GCONST> 9.463055e+01
<STATE> 10
<NUMMIXES> 3
<MIXTURE> 1 5.768768e-01
<MEAN> 52
 -1.043640e-01 5.200702e+00 7.733389e+00 2.724577e+00 -4.459371e+00 -1.709496e+00 -4.391480e+00 -6.309222e+00 -6.328965e+00 -1.560201e-01 -3.952860e+00 -4.930290e+00 6.277805e+01 -3.890813e-01 -9.636805e-03 -6.983384e-02 1.841538e-01 9.700476e-01 6.186247e-01 2.417388e-01 2.929117e-01 7.823751e-01 -2.458283e-01 -4.608187e-01 2.492111e-01 -8.659780e-01 -2.091976e-01 -1.807111e-01 -5.998795e-02 -3.853815e-01 -1.215654e-01 3.106995e-02 -1.691061e-01 2.088979e-01 3.640968e-02 -3.483483e-03 2.168014e-01 2.015758e-02 7.236871e-02 4.084086e-02 -6.782120e-02 -1.043218e-01 2.205693e-02 -9.094368e-02 -1.516581e-01 -1.597011e-02 -1.143708e-02 -5.510203e-02 2.683314e-02 5.136350e-02 1.391525e-03 2.478657e-02
<VARIANCE> 52
 1.076190e+01 1.443095e+01 2.099855e+01 2.741129e+01 3.912592e+01 4.003503e+01 3.248518e+01 4.056609e+01 4.211506e+01 3.577509e+01 3.040326e+01 3.100792e+01 2.269322e+01 5.337802e-01 8.913999e-01 7.753690e-01 1.171652e+00 1.550840e+00 1.699688e+00 2.374695e+00 2.625889e+00 2.205959e+00 1.834963e+00 1.900741e+00 1.669184e+00 4.640235e-01 7.733928e-02 1.993679e-01 1.992467e-01 3.256460e-01 2.962243e-01 4.073770e-01 3.699375e-01 3.975511e-01 3.991379e-01 3.651724e-01 3.667265e-01 3.468160e-01 5.562907e-02 1.657006e-02 3.779982e-02 2.821046e-02 5.389207e-02 6.497169e-02 7.847939e-02 8.817851e-02 9.739286e-02 9.645952e-02 8.058659e-02 8.461741e-02 8.212574e-02 1.035795e-02
<GCONST> 8.643242e+01
<MIXTURE> 2 3.316943e-01
<MEAN> 52
 -3.567987e+00 -2.441624e+00 -2.484919e+00 -9.044497e+00 -6.766684e+00 -1.133244e+01 -1.251775e+01 -1.019147e+01 -1.368929e+01 -1.152727e+01 -9.515965e+00 -2.853431e+00 6.136396e+01 -1.990318e-01 -8.069128e-02 -1.087399e-01 1.139609e+00 2.392792e-01 2.130837e-01 3.337632e-01 -2.036424e-01 -1.664540e-01 1.195256e-04 4.511968e-01 -1.156619e-01 -5.520715e-01 -1.378321e-01 -1.217767e-01 5.300710e-02 -1.191449e-01 4.663378e-02 1.843474e-01 3.196264e-02 1.148639e-01 2.509010e-01 2.422226e-01 -3.826421e-02 5.158922e-02 6.326721e-02 1.599732e-02 -2.286228e-02 -2.113825e-02 -8.919973e-02 -1.624420e-02 -2.247220e-02 3.085233e-02 8.305935e-02 7.984611e-02 3.774883e-02 9.252781e-04 2.915367e-02 2.631076e-03
<VARIANCE> 52
 1.617876e+01 9.140796e+01 3.213223e+01 5.237303e+01 5.763350e+01 6.523404e+01 5.024916e+01 4.887839e+01 3.803541e+01 4.922320e+01 5.573824e+01 4.553750e+01 3.095716e+01 7.855818e-01 1.337002e+00 1.350303e+00 2.909656e+00 2.525434e+00 3.550481e+00 2.424938e+00 3.394379e+00 3.017797e+00 3.208448e+00 2.169408e+00 1.984743e+00 6.900061e-01 9.175082e-02 1.523494e-01 2.620479e-01 4.361033e-01 3.703732e-01 5.136593e-01 5.188591e-01 6.800947e-01 6.343393e-01 4.826763e-01 4.279948e-01 3.398953e-01 5.021200e-02 2.094311e-02 3.377752e-02 5.080821e-02 9.321069e-02 9.027497e-02 1.128233e-01 1.071129e-01 1.351851e-01 1.362604e-01 9.946959e-02 9.554882e-02 7.018658e-02 1.235159e-02
<GCONST> 1.038487e+02
<MIXTURE> 3 9.142888e-02
<MEAN> 52
 -8.569572e+00 1.466257e-01 4.847886e-02 -3.489722e+00 -4.109150e+00 -6.844604e+00 -1.032961e+01 -8.994703e+00 -1.119809e+01 -1.110020e+01 -8.482579e+00 -3.412451e+00 5.473477e+01 -1.253077e+00 -1.491075e+00 -1.091777e+00 -2.820868e-01 9.125204e-01 1.482617e+00 2.302082e+00 2.334575e+00 2.801960e+00 2.232329e+00 1.571373e+00 7.829981e-01 -8.064650e-01 1.719405e-01 -5.269721e-02 -2.564531e-01 -4.260696e-01 -1.745352e-01 -1.329443e-01 8.367834e-03 2.644901e-01 2.798974e-01 2.599967e-01 5.707380e-02 2.458704e-02 1.780402e-01 1.458536e-01 1.952655e-01 1.518053e-01 1.482051e-01 -4.227563e-02 -1.572382e-01 -2.785698e-01 -3.881391e-01 -4.184435e-01 -3.038481e-01 -1.234744e-01 -6.955092e-02 3.874844e-02
<VARIANCE> 52
 2.309540e+01 3.336991e+01 1.847110e+01 1.531974e+01 2.942011e+01 2.889976e+01 3.248293e+01 5.057283e+01 2.922462e+01 3.393211e+01 3.448584e+01 2.441254e+01 3.350901e+01 5.121339e-01 3.144270e-01 7.847183e-01 1.158767e+00 1.250244e+00 2.209163e+00 1.819130e+00 2.771478e+00 2.238758e+00 2.294368e+00 2.260128e+00 2.022694e+00 3.884802e-01 1.408710e-01 1.919073e-01 1.705372e-01 1.995780e-01 3.290648e-01 4.585980e-01 4.984529e-01 8.282362e-01 8.603733e-01 5.700643e-01 3.246251e-01 2.909735e-01 8.298703e-02 1.738977e-02 1.991740e-02 2.986725e-02 3.989416e-02 5.628869e-02 9.120311e-02 8.929503e-02 1.149041e-01 9.890430e-02 8.082556e-02 9.897772e-02 8.578585e-02 1.088776e-02
<GCONST> 8.808408e+01
<STATE> 11
<NUMMIXES> 3
<MIXTURE> 1 2.346181e-01
<MEAN> 52
 1.657454e+00 -2.117455e-01 5.632885e+00 2.310200e+00 -8.443373e+00 -3.692412e+00 -1.171226e+01 -7.083264e+00 -3.691764e+00 3.160141e-01 -3.900315e+00 -5.537977e+00 6.837554e+01 5.574975e-02 -8.857613e-01 -2.712152e-01 -3.676258e-01 -1.253556e-01 -1.524055e-01 -1.217576e+00 9.889271e-01 6.989817e-01 -2.724884e-01 3.795462e-01 4.205010e-01 5.297029e-01 -1.001923e-01 -1.041900e-01 1.258725e-01 -1.439834e-01 -3.141412e-01 -1.317722e-01 5.573944e-02 4.527149e-01 -9.227587e-02 -2.102058e-01 2.551188e-01 9.474371e-02 2.158256e-01 -1.616525e-02 6.851274e-02 6.272831e-02 6.059482e-02 -2.182190e-02 -1.175251e-02 1.221044e-01 -1.084287e-01 -3.256954e-02 1.752890e-02 -5.354935e-02 -2.726934e-02 -4.546497e-02
<VARIANCE> 52
 9.704272e+00 3.171408e+01 4.195862e+01 4.900449e+01 3.751173e+01 2.672771e+01 5.149431e+01 6.643864e+01 5.316799e+01 5.664650e+01 4.326192e+01 4.092645e+01 2.319057e+01 4.123629e-01 1.085731e+00 1.646426e+00 2.453270e+00 2.839640e+00 2.085512e+00 2.168614e+00 5.219963e+00 3.059642e+00 3.189023e+00 2.715362e+00 1.964009e+00 6.557724e-01 7.395832e-02 2.404764e-01 2.735122e-01 3.323735e-01 3.925991e-01 3.656228e-01 3.466274e-01 7.927599e-01 4.032791e-01 3.909367e-01 4.411765e-01 3.563453e-01 9.794284e-02 1.627878e-02 5.118755e-02 5.518617e-02 9.017626e-02 8.754492e-02 8.743668e-02 7.284053e-02 2.008760e-01 1.238263e-01 1.184491e-01 1.145906e-01 8.009645e-02 2.348336e-02
<GCONST> 1.011007e+02
<MIXTURE> 2 2.965845e-01
<MEAN> 52
 -6.064617e+00 1.805556e+00 3.695020e+00 3.547092e-02 -7.903507e-01 1.000832e+00 -1.965632e+00 -1.312976e+00 -1.825187e+00 -1.153228e+00 -3.515558e+00 -2.787327e+00 5.644463e+01 -1.252828e+00 -1.581938e+00 -1.943223e+00 -1.858820e+00 -1.149680e+00 -9.739535e-01 -5.453118e-01 -1.581911e-01 5.856596e-01 4.194670e-01 7.303555e-01 6.713833e-01 -8.825420e-01 1.049744e-01 -5.109689e-02 -5.268651e-02 -2.106014e-01 -2.965077e-01 -2.557888e-01 -3.112707e-01 -3.374586e-01 -2.490739e-01 -1.041754e-02 4.856578e-02 -1.528002e-01 1.682930e-01 1.309435e-01 2.161891e-01 2.334874e-01 3.140211e-01 2.381905e-01 1.687249e-01 1.658830e-01 7.593755e-02 -2.129792e-02 -1.104609e-01 -1.465513e-01 -8.272095e-02 2.077174e-02
<VARIANCE> 52
 1.128756e+01 1.246248e+01 2.475257e+01 2.314221e+01 2.864036e+01 2.963400e+01 3.321247e+01 3.282856e+01 2.842938e+01 2.539242e+01 2.047605e+01 1.977819e+01 1.442233e+01 4.612157e-01 8.819554e-01 8.373344e-01 1.329349e+00 1.462259e+00 2.004852e+00 2.128149e+00 2.389530e+00 2.187002e+00 1.834347e+00 1.753312e+00 1.616517e+00 3.134246e-01 9.787612e-02 2.877650e-01 2.509943e-01 4.287847e-01 4.077036e-01 4.616129e-01 4.591385e-01 4.139728e-01 4.161961e-01 3.661947e-01 3.859796e-01 3.169869e-01 5.879681e-02 1.665281e-02 3.742826e-02 2.997048e-02 6.119074e-02 6.023428e-02 9.100924e-02 1.050297e-01 9.076706e-02 8.967484e-02 7.357892e-02 7.576033e-02 7.787753e-02 1.066073e-02
<GCONST> 8.485823e+01
<MIXTURE> 3 4.687975e-01
<MEAN> 52
 -9.719237e+00 -2.100947e+00 -2.546363e+00 -4.900719e+00 -4.394846e+00 -3.047671e+00 -5.418827e+00 -4.047068e+00 -2.565283e+00 -2.266356e+00 -3.097600e+00 -2.291179e+00 5.498392e+01 -1.579056e-01 -3.027795e-01 -3.337536e-01 -1.339485e-01 -1.533153e-01 -6.973857e-02 1.565949e-01 7.571661e-02 1.586211e-01 1.260597e-01 1.680886e-01 4.005726e-02 -3.701052e-01 1.561234e-01 1.910933e-01 2.146297e-01 2.116559e-01 1.048764e-01 7.772190e-02 3.244767e-02 -7.506965e-03 -8.772755e-02 -6.645851e-02 -1.094878e-01 -7.555715e-02 8.923337e-02 -4.219736e-02 -2.816158e-02 -3.904730e-02 -2.104874e-02 1.138775e-02 1.372108e-02 1.316640e-02 2.423407e-02 4.014521e-02 2.107919e-02 2.512476e-02 3.949114e-02 -2.070198e-02
<VARIANCE> 52
 1.903588e+01 1.464184e+01 2.811037e+01 1.651006e+01 1.940763e+01 2.264792e+01 2.451775e+01 2.505227e+01 2.384153e+01 2.455755e+01 1.981941e+01 1.767589e+01 2.315153e+01 4.713812e-01 6.387166e-01 8.077598e-01 1.145425e+00 1.620746e+00 1.822852e+00 2.141663e+00 1.849161e+00 1.813510e+00 2.069909e+00 1.766632e+00 1.682360e+00 2.577808e-01 9.454611e-02 1.199419e-01 1.505300e-01 2.451196e-01 3.072645e-01 3.472931e-01 4.235054e-01 3.516359e-01 3.577954e-01 4.169141e-01 3.516449e-01 3.289129e-01 3.507987e-02 2.115514e-02 2.596298e-02 2.879156e-02 5.425977e-02 6.901973e-02 8.320551e-02 9.370882e-02 7.972018e-02 8.715068e-02 9.948111e-02 8.262207e-02 7.431815e-02 8.575800e-03
<GCONST> 7.950161e+01
<TRANSP> 12
 0.000000e+00 1.000000e+00 0.000000e+00 0.000000e+00 0.000000e+00 0.000000e+00 0.000000e+00 0.000000e+00 0.000000e+00 0.000000e+00 0.000000e+00 0.000000e+00
 0.000000e+00 8.030128e-01 1.969872e-01 0.000000e+00 0.000000e+00 0.000000e+00 0.000000e+00 0.000000e+00 0.000000e+00 0.000000e+00 0.000000e+00 0.000000e+00
 0.000000e+00 0.000000e+00 8.155809e-01 1.844191e-01 0.000000e+00 0.000000e+00 0.000000e+00 0.000000e+00 0.000000e+00 0.000000e+00 0.000000e+00 0.000000e+00
 0.000000e+00 0.000000e+00 0.000000e+00 8.267649e-01 1.732351e-01 0.000000e+00 0.000000e+00 0.000000e+00 0.000000e+00 0.000000e+00 0.000000e+00 0.000000e+00
 0.000000e+00 0.000000e+00 0.000000e+00 0.000000e+00 8.008199e-01 1.991801e-01 0.000000e+00 0.000000e+00 0.000000e+00 0.000000e+00 0.000000e+00 0.000000e+00
 0.000000e+00 0.000000e+00 0.000000e+00 0.000000e+00 0.000000e+00 8.335437e-01 1.664563e-01 0.000000e+00 0.000000e+00 0.000000e+00 0.000000e+00 0.000000e+00
 0.000000e+00 0.000000e+00 0.000000e+00 0.000000e+00 0.000000e+00 0.000000e+00 7.636857e-01 2.363143e-01 0.000000e+00 0.000000e+00 0.000000e+00 0.000000e+00
 0.000000e+00 0.000000e+00 0.000000e+00 0.000000e+00 0.000000e+00 0.000000e+00 0.000000e+00 7.635750e-01 2.364250e-01 0.000000e+00 0.000000e+00 0.000000e+00
 0.000000e+00 0.000000e+00 0.000000e+00 0.000000e+00 0.000000e+00 0.000000e+00 0.000000e+00 0.000000e+00 8.370889e-01 1.629111e-01 0.000000e+00 0.000000e+00
 0.000000e+00 0.000000e+00 0.000000e+00 0.000000e+00 0.000000e+00 0.000000e+00 0.000000e+00 0.000000e+00 0.000000e+00 8.229862e-01 1.770138e-01 0.000000e+00
 0.000000e+00 0.000000e+00 0.000000e+00 0.000000e+00 0.000000e+00 0.000000e+00 0.000000e+00 0.000000e+00 0.000000e+00 0.000000e+00 7.974472e-01 2.025528e-01
 0.000000e+00 0.000000e+00 0.000000e+00 0.000000e+00 0.000000e+00 0.000000e+00 0.000000e+00 0.000000e+00 0.000000e+00 0.000000e+00 0.000000e+00 0.000000e+00
<ENDHMM>
