~o
<STREAMINFO> 1 52
<VECSIZE> 52<NULLD><MFCC_D_A_T_0><DIAGC>
~h "lx"
<BEGINHMM>
<NUMSTATES> 12
<STATE> 2
<NUMMIXES> 3
<MIXTURE> 1 4.965935e-01
<MEAN> 52
 -3.489357e+00 2.525610e+00 1.469144e+01 -4.667192e-01 -1.044888e+01 -6.221756e+00 -1.055040e+01 -2.461513e+00 -9.071311e+00 -2.122738e+00 5.811803e-01 -1.094781e+00 6.906136e+01 -4.108358e-01 -7.791296e-01 1.091984e+00 -1.349228e+00 -2.663475e+00 1.274803e-01 -5.716313e-02 8.166021e-01 -7.868329e-01 1.287985e-01 1.728463e+00 3.745816e-01 2.178036e+00 -1.331402e-01 -3.754853e-02 -2.605789e-01 -2.265136e-01 -7.004389e-03 4.221229e-01 -7.885224e-04 -6.209254e-02 9.326261e-02 2.889629e-02 1.647959e-02 -1.440157e-01 -2.818746e-01 1.480194e-01 2.497350e-01 -3.378605e-02 1.978971e-01 3.974932e-01 3.583674e-03 -6.174720e-02 -1.707273e-01 6.473063e-02 2.020805e-02 -2.788672e-01 -1.065557e-01 -2.398895e-01
<VARIANCE> 52
 1.304843e+01 2.787126e+01 3.921989e+01 4.970775e+01 5.862617e+01 4.534867e+01 5.891512e+01 5.393074e+01 3.877214e+01 3.978607e+01 4.008660e+01 2.826125e+01 3.050781e+01 1.211482e+00 1.843295e+00 2.715982e+00 3.616240e+00 4.159364e+00 3.875214e+00 3.856916e+00 3.962508e+00 2.946115e+00 2.974413e+00 2.712303e+00 2.746999e+00 1.516229e+00 3.135940e-01 5.271914e-01 5.105792e-01 5.598833e-01 1.081637e+00 5.078949e-01 7.691433e-01 7.848994e-01 4.907251e-01 6.406212e-01 7.157744e-01 5.154969e-01 3.564119e-01 5.694279e-02 7.858688e-02 1.054947e-01 1.233328e-01 1.798599e-01 1.470536e-01 1.784341e-01 1.602833e-01 1.104217e-01 1.416604e-01 1.227201e-01 1.215720e-01 5.126012e-02
<GCONST> 1.203587e+02
<MIXTURE> 2 3.155619e-01
<MEAN> 52
 -5.003966e+00 2.233973e+00 4.733734e+00 3.700111e-01 -1.627680e+00 -3.033271e+00 -8.137383e+00 -4.339970e+00 -4.469130e+00 -3.483632e+00 -4.679005e+00 -2.089494e+00 5.659675e+01 1.508478e+00 1.251257e+00 3.109137e+00 1.118854e-01 -1.172908e+00 -1.333211e+00 -2.060964e+00 -8.546868e-01 -1.320057e+00 -4.881920e-01 -5.745375e-01 -7.869672e-02 2.539232e+00 -2.758585e-01 -4.504031e-01 8.598503e-02 -6.273198e-01 -7.095002e-01 -2.326742e-01 7.468489e-02 1.764857e-01 -1.807504e-01 1.676981e-01 2.312652e-01 2.367718e-01 5.565494e-01 -2.341000e-01 -1.977585e-01 -3.252761e-01 -9.519987e-02 2.406217e-02 2.079046e-01 3.068470e-01 1.522121e-01 1.380168e-01 1.346880e-01 1.133829e-01 4.125205e-02 -1.933676e-01
<VARIANCE> 52
 2.042918e+01 2.967481e+01 5.478345e+01 3.306950e+01 3.302086e+01 3.966884e+01 5.006895e+01 4.155825e+01 3.519907e+01 3.794118e+01 3.136050e+01 1.985243e+01 2.923512e+01 1.337755e+00 2.863758e+00 3.930619e+00 4.724542e+00 4.159346e+00 3.893599e+00 4.085212e+00 4.796222e+00 3.982417e+00 3.922405e+00 3.543530e+00 2.696760e+00 2.544194e+00 3.908198e-01 6.227607e-01 6.932376e-01 4.634362e-01 5.873968e-01 7.046551e-01 8.924993e-01 8.423039e-01 6.545787e-01 8.476119e-01 5.486769e-01 4.022548e-01 2.883210e-01 6.248258e-02 1.267516e-01 1.535079e-01 1.293454e-01 1.692900e-01 1.742177e-01 1.760512e-01 2.022886e-01 1.804100e-01 1.981141e-01 1.279807e-01 1.232075e-01 9.235135e-02
<GCONST> 1.247281e+02
<MIXTURE> 3 1.878446e-01
<MEAN> 52
 -6.680155e+00 -2.373767e+00 1.085900e+01 -1.769571e+01 -1.410539e+01 -1.268326e+01 -1.382786e+01 -7.895910e+00 -1.323202e+01 -1.193815e+00 -1.208404e+01 -7.111997e-01 6.787440e+01 -5.098119e-01 -4.569433e-01 1.485451e+00 -2.844657e+00 -2.359202e+00 3.839932e-01 1.812438e-01 -7.199984e-01 -3.216328e-01 2.869020e+00 -1.143022e+00 7.255445e-02 2.733636e+00 -2.209761e-01 2.180761e-01 -6.661887e-01 3.809905e-01 3.385122e-01 9.154945e-01 -5.717907e-02 -3.618635e-03 6.988609e-01 1.038756e-02 1.278873e-01 8.527279e-02 -5.802857e-01 1.386391e-01 2.222592e-01 -9.364445e-02 2.721779e-01 3.343389e-01 -1.120814e-01 -3.138228e-01 2.551530e-03 1.262754e-03 -5.278707e-01 3.484479e-02 1.574178e-02 -2.841084e-01
<VARIANCE> 52
 1.074309e+01 2.638366e+01 4.166220e+01 5.869948e+01 5.083945e+01 1.973013e+01 5.067311e+01 4.603700e+01 1.905603e+01 6.000943e+01 2.872392e+01 4.012801e+01 3.027066e+01 9.831356e-01 1.842476e+00 4.263948e+00 4.061937e+00 3.758448e+00 5.297447e+00 4.528821e+00 2.217488e+00 4.168049e+00 4.432687e+00 2.198747e+00 3.452575e+00 2.649787e+00 2.294239e-01 4.878965e-01 5.508261e-01 6.589179e-01 9.718778e-01 6.166553e-01 1.624391e+00 5.751740e-01 7.645084e-01 1.603961e+00 3.914458e-01 7.117849e-01 4.235336e-01 3.933150e-02 8.063184e-02 1.682170e-01 1.475451e-01 1.417857e-01 2.249854e-01 2.210252e-01 1.134471e-01 2.118024e-01 2.088318e-01 8.664593e-02 1.369887e-01 8.458436e-02
<GCONST> 1.235289e+02
<STATE> 3
<NUMMIXES> 3
<MIXTURE> 1 5.324344e-01
<MEAN> 52
 -3.976082e+00 2.882308e+00 1.695757e+01 -3.189187e+00 -1.841706e+01 -1.072570e+00 -1.200113e+01 -1.287974e+00 -1.006195e+01 -2.777689e+00 5.384724e+00 -1.739690e+00 7.366183e+01 8.926155e-02 9.412431e-01 -3.001835e-01 -8.762180e-01 1.068143e-01 1.297322e+00 -2.617268e-01 -8.096022e-01 1.922016e-01 2.660114e-01 -3.427201e-02 -8.190963e-01 -6.223874e-02 9.664363e-02 1.908298e-01 -4.276891e-01 2.319464e-01 8.121840e-01 -1.757630e-01 1.677447e-01 -3.044387e-01 9.156250e-02 1.517409e-01 -4.946119e-01 -1.644496e-01 -3.904867e-01 -1.004225e-02 -1.233543e-01 4.784068e-02 8.977769e-02 -1.638540e-01 -1.738379e-01 9.436310e-02 1.037698e-01 -9.313672e-02 -3.620595e-03 9.177236e-02 9.881190e-02 1.301781e-01
<VARIANCE> 52
 9.573128e+00 2.677478e+01 2.381351e+01 4.109460e+01 2.973141e+01 5.571417e+01 5.842802e+01 5.094547e+01 4.326200e+01 4.755509e+01 2.516023e+01 3.505123e+01 1.270220e+01 3.513846e-01 9.065475e-01 1.344723e+00 1.122533e+00 2.840521e+00 2.050033e+00 2.673163e+00 2.318524e+00 2.521872e+00 1.914109e+00 2.383180e+00 1.874231e+00 4.091340e-01 9.407110e-02 2.175173e-01 2.301277e-01 3.057150e-01 4.315036e-01 5.244931e-01 5.330966e-01 4.380218e-01 4.870645e-01 4.065830e-01 4.373195e-01 3.949384e-01 1.371829e-01 1.791508e-02 3.586477e-02 5.134097e-02 4.217760e-02 1.186353e-01 8.455449e-02 1.035255e-01 8.267295e-02 8.887231e-02 8.632120e-02 8.665572e-02 7.512885e-02 1.845166e-02
<GCONST> 9.380621e+01
<MIXTURE> 2 2.374264e-01
<MEAN> 52
 -9.027699e+00 4.083127e-01 1.152754e+01 -2.435825e+01 -1.649233e+01 -6.113726e+00 -1.806154e+01 -1.197306e+01 -9.189184e+00 3.614170e+00 -1.631790e+01 1.298524e+00 7.234249e+01 2.727996e-02 1.522957e+00 -3.027628e-01 -6.294974e-01 1.400579e+00 1.109131e+00 -2.365681e+00 -2.894797e-01 9.402485e-01 -9.596858e-01 -7.184060e-01 7.034552e-01 -2.950310e-01 2.549073e-01 1.579563e-02 -2.264293e-01 4.811089e-01 5.904838e-01 -4.415615e-01 -3.473590e-02 2.290582e-01 -1.742889e-01 -6.127301e-01 1.697839e-01 -1.137042e-01 -4.320709e-01 8.646782e-04 -2.283165e-01 8.667665e-02 -4.841847e-02 -2.674013e-01 -1.688947e-01 3.039823e-01 -4.428201e-03 -1.555744e-01 2.644257e-01 1.791130e-02 -1.207102e-01 1.933061e-01
<VARIANCE> 52
 5.509119e+00 1.610307e+01 1.202569e+01 2.468331e+01 2.731802e+01 1.745323e+01 3.554081e+01 2.776547e+01 2.990148e+01 3.283441e+01 2.620522e+01 3.382190e+01 1.064001e+01 3.312513e-01 4.463525e-01 1.234396e+00 1.226396e+00 1.989587e+00 1.893455e+00 2.480503e+00 2.448749e+00 2.475022e+00 2.397993e+00 1.293345e+00 1.725715e+00 4.062583e-01 7.280996e-02 2.756871e-01 2.273196e-01 2.387004e-01 4.910827e-01 3.904287e-01 6.256043e-01 3.129227e-01 4.955921e-01 6.456633e-01 2.559301e-01 3.860100e-01 1.503749e-01 1.878514e-02 2.837223e-02 4.816635e-02 4.931901e-02 7.369972e-02 1.001672e-01 1.010750e-01 7.731249e-02 1.222090e-01 1.116527e-01 5.859608e-02 6.573457e-02 2.186999e-02
<GCONST> 8.569740e+01
<MIXTURE> 3 2.301392e-01
<MEAN> 52
 -6.364043e+00 3.012528e-04 2.293897e+01 -1.517947e+01 -1.210923e+01 1.717512e+00 -1.246589e+01 -4.649574e+00 -1.399658e+01 4.384914e+00 2.981681e+00 -3.017623e+00 7.212936e+01 1.748332e-01 8.536226e-01 -2.401961e-01 -7.893755e-02 9.679427e-01 5.032297e-01 -3.572719e-01 -1.096933e+00 -6.264105e-01 6.926744e-01 -1.117845e-01 -6.869273e-01 -5.138227e-01 1.095503e-01 9.055811e-02 -3.474824e-01 3.633280e-01 8.963198e-02 -2.397206e-01 9.175933e-02 -2.793707e-02 2.424712e-02 -7.336964e-02 2.867676e-02 5.559107e-02 -1.338579e-01 -4.726025e-02 -7.886401e-02 3.166502e-02 -4.366535e-02 -1.291430e-01 -6.076875e-02 6.018725e-02 1.315642e-01 4.100664e-02 -1.024862e-01 3.654848e-02 1.037421e-01 1.002389e-01
<VARIANCE> 52
 9.062085e+00 2.128990e+01 1.739415e+01 6.333614e+01 2.875320e+01 2.198272e+01 2.116373e+01 2.234876e+01 2.511862e+01 3.502883e+01 1.467510e+01 2.968518e+01 9.433528e+00 2.051924e-01 2.049678e-01 7.875873e-01 7.909620e-01 4.777283e-01 9.813468e-01 7.175114e-01 7.648478e-01 9.163350e-01 5.672238e-01 6.335214e-01 6.876544e-01 1.196210e-01 2.994074e-02 1.153029e-01 8.584921e-02 1.537945e-01 1.387816e-01 1.191830e-01 1.509990e-01 1.888275e-01 1.317033e-01 1.834163e-01 9.811348e-02 1.544425e-01 4.394398e-02 8.451047e-03 2.112269e-02 1.369201e-02 3.389747e-02 2.070674e-02 2.944017e-02 2.862584e-02 3.285832e-02 3.493975e-02 2.914318e-02 2.407151e-02 3.194089e-02 8.133532e-03
<GCONST> 4.869418e+01
<STATE> 4
<NUMMIXES> 3
<MIXTURE> 1 2.950003e-01
<MEAN> 52
 -2.256494e+00 5.095902e+00 6.325186e+00 -8.013601e+00 -1.373690e+01 -5.143645e+00 -1.501102e+01 -8.787003e+00 -1.183107e+01 -1.451685e+00 -8.852293e+00 -4.993060e+00 6.882838e+01 -1.540140e-01 9.416087e-01 -6.773759e-01 6.616400e-01 1.978079e-01 -4.236982e-02 5.040829e-01 -8.453133e-01 -1.525303e-02 -5.640441e-01 -9.295002e-02 5.422926e-02 -4.314208e-01 -5.873871e-01 2.805319e-01 9.871064e-02 1.818138e-01 2.455305e-01 -1.606023e-02 3.112529e-01 9.789901e-05 2.680658e-01 -2.433922e-01 2.722562e-01 1.557466e-01 5.796646e-02 -2.205673e-01 -5.546468e-02 -2.320970e-02 9.368642e-03 1.270895e-01 1.522174e-02 9.611744e-02 1.444563e-01 9.108176e-02 7.825038e-02 3.832370e-02 -3.187427e-02 5.692742e-02
<VARIANCE> 52
 1.515162e+01 2.045991e+01 3.379158e+01 1.362081e+02 4.683454e+01 3.824643e+01 1.022743e+02 9.582835e+01 3.992958e+01 8.795724e+01 1.303260e+02 4.145638e+01 2.230821e+01 1.502957e+00 1.538114e+00 3.062196e+00 3.264771e+00 3.466034e+00 2.714136e+00 3.626032e+00 3.430650e+00 3.135468e+00 3.637155e+00 4.392685e+00 3.087315e+00 5.076693e-01 2.835605e-01 3.261454e-01 4.211760e-01 7.704198e-01 7.170922e-01 5.580767e-01 8.549727e-01 6.616220e-01 6.122822e-01 6.379305e-01 7.877674e-01 6.645511e-01 8.479656e-02 3.111199e-02 6.730404e-02 1.217072e-01 1.451029e-01 1.628544e-01 1.470615e-01 1.895301e-01 1.412755e-01 1.401812e-01 1.540730e-01 1.812002e-01 1.330340e-01 2.342043e-02
<GCONST> 1.206326e+02
<MIXTURE> 2 2.783579e-01
<MEAN> 52
 -5.483891e+00 2.611720e+00 6.989001e+00 -2.163494e+01 -9.166262e+00 -7.848331e+00 -2.468456e+01 -9.625854e+00 -9.548874e+00 -2.303250e+00 -1.870660e+01 1.281300e+00 6.811261e+01 4.531242e-01 -6.261481e-03 -5.936716e-01 7.007945e-01 2.203525e-01 -3.845589e-01 -1.130574e-01 -1.550339e-01 -1.952640e-01 -4.678023e-01 -2.368778e-01 -4.986447e-01 -4.786136e-01 -7.524608e-02 1.624456e-02 -2.716249e-02 7.191936e-02 -2.437963e-01 -7.201985e-03 2.277950e-01 -1.431166e-01 -5.414762e-02 3.022369e-02 1.025347e-01 -5.685487e-02 1.506315e-02 -6.580582e-02 9.538458e-02 -9.229460e-03 -1.596006e-03 6.937964e-03 5.403041e-02 -2.411142e-02 -3.082535e-02 3.972226e-02 -4.257464e-02 4.558263e-02 3.318686e-02 1.027430e-02
<VARIANCE> 52
 1.069061e+01 1.286075e+01 1.353048e+01 5.632934e+01 4.511085e+01 2.433210e+01 2.214631e+01 5.370281e+01 2.595311e+01 4.884235e+01 3.742157e+01 3.199414e+01 2.059637e+01 2.859890e-01 7.164784e-01 6.645914e-01 1.352953e+00 1.489478e+00 1.276995e+00 2.007426e+00 1.857131e+00 1.601786e+00 1.695909e+00 1.334219e+00 1.153714e+00 1.323424e-01 4.238346e-02 1.674147e-01 1.397453e-01 2.440038e-01 2.030652e-01 2.660930e-01 3.999947e-01 2.964632e-01 3.024521e-01 3.397025e-01 3.403305e-01 2.374925e-01 2.165636e-02 1.106572e-02 1.948201e-02 3.007408e-02 6.337082e-02 4.077847e-02 5.858562e-02 8.872937e-02 6.508910e-02 6.427673e-02 7.869412e-02 7.853828e-02 5.131400e-02 4.601031e-03
<GCONST> 7.406609e+01
<MIXTURE> 3 4.266418e-01
<MEAN> 52
 -2.495291e+00 5.878633e+00 1.173035e+01 -3.959691e+00 -1.296637e+01 -5.962057e-01 -9.483587e+00 -7.504696e+00 -9.768726e+00 -1.495778e-01 3.279356e+00 -5.142941e+00 7.152371e+01 3.435345e-02 3.748610e-01 -6.878437e-01 4.173505e-01 5.219701e-01 -5.159371e-01 5.648922e-01 -2.477368e-01 -3.949921e-01 2.042986e-01 -1.943144e-01 -2.182682e-01 -1.668276e-01 -2.625437e-01 1.247540e-01 3.616859e-02 1.656746e-01 -3.931997e-02 -2.612059e-01 2.970498e-01 1.281215e-01 3.225240e-02 -1.206611e-01 -9.935707e-03 2.328590e-01 4.010911e-02 -1.308744e-01 1.017811e-01 6.654004e-04 -2.557357e-02 7.612783e-02 8.176202e-02 2.037051e-02 -1.506771e-02 1.125754e-01 -2.945820e-02 -1.958329e-02 3.885058e-02 1.073050e-03
<VARIANCE> 52
 9.927979e+00 2.304912e+01 4.186232e+01 5.688215e+01 3.287296e+01 8.433808e+01 6.139067e+01 6.149321e+01 5.761646e+01 4.894333e+01 3.321720e+01 3.286335e+01 1.309902e+01 4.198139e-01 5.601388e-01 1.133009e+00 1.499326e+00 1.155059e+00 1.804906e+00 1.780598e+00 1.527020e+00 1.842220e+00 1.685764e+00 1.595982e+00 1.452549e+00 1.902835e-01 8.601025e-02 1.592875e-01 2.123813e-01 2.549687e-01 3.346663e-01 4.213792e-01 3.935869e-01 3.527773e-01 4.583494e-01 2.939827e-01 3.115710e-01 2.507886e-01 3.214287e-02 1.579179e-02 2.748553e-02 4.794423e-02 5.423872e-02 8.156291e-02 8.159877e-02 7.662690e-02 7.560430e-02 8.417973e-02 6.561890e-02 7.540610e-02 6.055025e-02 8.696657e-03
<GCONST> 8.526494e+01
<STATE> 5
<NUMMIXES> 3
<MIXTURE> 1 3.692981e-01
<MEAN> 52
 -5.706170e+00 1.027932e+01 1.116653e+01 -2.690681e+00 -1.015717e+01 -2.964333e+00 -5.239410e+00 -8.571415e+00 -1.065094e+01 -5.617462e-01 2.194897e+00 -3.364070e+00 7.090693e+01 -2.702461e+00 2.435026e+00 -1.267223e+00 1.192937e+00 2.515228e+00 -1.192348e+00 2.559692e+00 -1.158469e-01 1.553888e+00 -8.105690e-01 -7.835432e-01 1.323240e+00 -3.097149e-01 -9.844352e-01 -7.746767e-02 -3.610918e-01 6.175118e-02 5.271119e-01 2.320197e-01 4.837573e-02 3.650941e-01 4.266239e-01 -2.765145e-02 -2.143108e-01 -2.709318e-02 -9.252312e-03 1.290830e-01 -4.145406e-01 -6.533726e-03 -2.282777e-01 -3.249660e-01 1.553833e-01 -3.554238e-01 1.315208e-02 -2.011449e-01 1.444124e-01 7.816736e-02 -2.169517e-01 3.135687e-02
<VARIANCE> 52
 1.071828e+01 1.957882e+01 2.588209e+01 4.748103e+01 3.500472e+01 4.153453e+01 5.521634e+01 4.962343e+01 4.252396e+01 3.552424e+01 3.014826e+01 3.488719e+01 1.520343e+01 1.632563e+00 1.494444e+00 2.935056e+00 3.487566e+00 4.403132e+00 2.820205e+00 2.662969e+00 4.521240e+00 3.686952e+00 3.465400e+00 2.610752e+00 2.358870e+00 4.290077e-01 1.769768e-01 4.269578e-01 3.202948e-01 3.512643e-01 5.557103e-01 4.656751e-01 6.115648e-01 5.152232e-01 4.959629e-01 4.560536e-01 4.559628e-01 4.031603e-01 6.617253e-02 5.656247e-02 5.560782e-02 8.376940e-02 9.025173e-02 1.762725e-01 1.157793e-01 1.040949e-01 1.560034e-01 1.299939e-01 1.220003e-01 1.077939e-01 8.688235e-02 1.483378e-02
<GCONST> 1.071178e+02
<MIXTURE> 2 4.565226e-01
<MEAN> 52
 -1.764327e+01 1.503603e+01 5.456466e+00 5.318227e-01 -1.883723e+00 -3.860230e+00 -6.765747e-01 -7.449771e+00 -5.386636e+00 -3.597777e+00 -2.659257e+00 -1.794087e+00 6.955550e+01 -4.519663e+00 -1.669144e-01 -1.757171e+00 4.479633e-01 2.131670e+00 6.546038e-01 1.535887e+00 1.265664e+00 1.714389e+00 2.324179e-01 -1.423904e-01 4.152108e-01 5.363030e-02 2.656668e-01 -9.397032e-01 -1.751509e-01 -8.238993e-01 -8.493780e-01 2.339255e-02 -7.712628e-01 -5.900870e-02 -2.710182e-01 3.264349e-01 1.416909e-01 -1.421484e-01 2.796600e-02 5.061432e-01 8.578664e-02 1.654294e-01 -6.502124e-02 -3.016993e-01 -1.910865e-01 -1.163310e-01 -2.294754e-01 -2.169231e-01 -6.954997e-02 4.428820e-02 -1.746849e-02 -2.428845e-02
<VARIANCE> 52
 3.290540e+01 1.691309e+01 3.615181e+01 3.658428e+01 3.107002e+01 2.851888e+01 3.929294e+01 3.402044e+01 2.797372e+01 3.302414e+01 3.321651e+01 2.462730e+01 1.919909e+01 1.768377e+00 2.696651e+00 2.489223e+00 2.711839e+00 2.962316e+00 3.050080e+00 4.052239e+00 2.859155e+00 2.991453e+00 3.220273e+00 3.428169e+00 2.708529e+00 5.216962e-01 4.458942e-01 3.085283e-01 4.008967e-01 4.141044e-01 6.266266e-01 5.328173e-01 4.925217e-01 5.225550e-01 5.871547e-01 5.669458e-01 5.389017e-01 5.423931e-01 8.293317e-02 5.702086e-02 1.003041e-01 9.218694e-02 8.591931e-02 1.388986e-01 1.074801e-01 1.453950e-01 9.708361e-02 1.266120e-01 1.343977e-01 1.142138e-01 1.215096e-01 1.851598e-02
<GCONST> 1.096589e+02
<MIXTURE> 3 1.741794e-01
<MEAN> 52
 -1.074361e+01 1.143457e+01 1.626563e+00 -1.238883e+01 -1.211308e+01 -9.865458e+00 -1.983275e+01 -1.806110e+01 -1.037023e+01 -1.020056e+01 -1.247656e+01 -4.432884e+00 6.605921e+01 -4.099677e+00 1.602693e+00 -1.027895e+00 3.512563e+00 9.641324e-01 3.604554e-01 3.534865e+00 6.173496e-01 1.117790e+00 -5.424145e-01 2.282767e+00 -1.185881e+00 4.564822e-01 -7.297294e-01 -6.196751e-01 -5.747999e-02 1.241032e-01 6.779971e-01 5.531350e-01 6.854441e-01 9.027326e-01 4.935045e-01 7.797949e-01 7.849809e-02 3.252777e-01 2.399105e-01 4.109113e-01 -2.380398e-01 3.314093e-02 -5.055406e-01 -1.039262e-01 3.288324e-02 -4.337801e-01 -6.120140e-02 -8.834627e-02 1.633668e-01 -2.377348e-01 2.420497e-01 -7.380680e-02
<VARIANCE> 52
 3.006303e+01 1.976008e+01 2.485466e+01 5.712800e+01 2.179583e+01 3.428281e+01 3.595661e+01 4.033207e+01 2.091806e+01 2.848470e+01 2.782336e+01 4.048079e+01 2.327158e+01 1.772285e+00 2.148324e+00 1.668153e+00 4.218325e+00 5.119173e+00 5.289007e+00 3.126420e+00 3.289882e+00 2.201632e+00 4.409683e+00 3.669057e+00 3.460177e+00 5.168819e-01 4.361788e-01 3.241093e-01 3.396977e-01 9.462460e-01 5.468455e-01 5.604978e-01 7.596024e-01 3.374074e-01 4.034232e-01 4.917414e-01 7.184649e-01 8.710778e-01 8.873311e-02 7.172221e-02 8.360308e-02 6.245189e-02 1.317159e-01 1.955456e-01 2.003494e-01 1.547134e-01 1.425018e-01 1.013004e-01 1.742380e-01 1.829405e-01 1.398547e-01 1.820526e-02
<GCONST> 1.139227e+02
<STATE> 6
<NUMMIXES> 3
<MIXTURE> 1 2.577189e-01
<MEAN> 52
 -2.629642e+01 1.065493e+01 -6.842417e-01 -2.095035e+00 -2.279956e+00 -4.400656e+00 -5.706443e-01 -6.194763e+00 -2.752839e+00 -2.121543e+00 -1.613069e+00 -1.498221e+00 6.962636e+01 -2.349870e+00 -1.711692e+00 -1.884564e+00 -1.852957e+00 -9.393018e-01 -4.966122e-01 -3.682127e-01 -1.396403e-01 3.858409e-01 5.195252e-01 3.628482e-01 3.870507e-01 5.778851e-02 1.078550e+00 -1.832498e-02 5.249968e-01 -1.672709e-01 -4.606985e-01 -1.180573e-01 -3.276300e-01 -2.307458e-01 -4.105513e-01 -1.987637e-02 2.982204e-02 -3.781098e-02 -1.915135e-02 1.277153e-01 3.549730e-01 2.886861e-01 3.964849e-01 3.419446e-01 8.085596e-02 2.153948e-01 7.740524e-02 6.623738e-02 -1.336013e-01 -9.635188e-02 -2.690321e-02 -9.480531e-03
<VARIANCE> 52
 1.127612e+01 2.118659e+01 3.722024e+01 3.429590e+01 2.641400e+01 3.218371e+01 4.362000e+01 4.280468e+01 2.668019e+01 3.280775e+01 3.059589e+01 2.524978e+01 1.509904e+01 1.691281e+00 9.129355e-01 1.499827e+00 1.183555e+00 1.598237e+00 1.946576e+00 2.158929e+00 1.958661e+00 2.253746e+00 2.103448e+00 2.196170e+00 1.970700e+00 2.455560e-01 1.620000e-01 3.353044e-01 4.182535e-01 4.634149e-01 5.767683e-01 4.849837e-01 5.547928e-01 3.901538e-01 4.450803e-01 4.162859e-01 4.347923e-01 4.219459e-01 6.466930e-02 6.298287e-02 4.625436e-02 5.856955e-02 5.131582e-02 7.658708e-02 9.911986e-02 1.086042e-01 8.686241e-02 1.188936e-01 9.932717e-02 1.041289e-01 1.087833e-01 1.202551e-02
<GCONST> 9.580786e+01
<MIXTURE> 2 6.127942e-01
<MEAN> 52
 -2.970402e+01 8.381543e+00 -2.311443e+00 -6.555416e+00 -3.113570e+00 -4.318147e+00 -3.006793e+00 -5.440186e+00 -3.108686e+00 -7.369431e-01 -2.006018e+00 -1.061939e+00 6.915057e+01 -1.116974e-01 -5.071393e-01 2.765656e-01 -2.878108e-01 4.335910e-02 1.874984e-01 1.618317e-01 3.048751e-01 1.324554e-01 1.672089e-01 1.849196e-02 9.050151e-02 -1.661567e-01 7.044036e-01 1.954060e-01 5.641944e-01 1.543639e-01 -1.513651e-01 -1.226589e-01 -2.542807e-01 -2.223945e-01 -2.627221e-01 -2.261094e-01 -1.156372e-01 -7.610212e-02 -7.567749e-04 2.350836e-02 -8.573716e-03 2.500671e-02 -1.887116e-03 -8.747299e-02 -6.387526e-02 -1.185497e-01 -7.428077e-02 -6.386989e-02 -4.971636e-02 1.131469e-02 9.008966e-03 6.445488e-02
<VARIANCE> 52
 8.714585e+00 1.588301e+01 3.464130e+01 2.202718e+01 1.620626e+01 3.089533e+01 4.035502e+01 3.290012e+01 2.737854e+01 2.290051e+01 2.504967e+01 1.580859e+01 1.708768e+01 7.903531e-01 6.532913e-01 1.300653e+00 1.079363e+00 1.379510e+00 1.538285e+00 1.664395e+00 1.803164e+00 1.953928e+00 2.091246e+00 1.762429e+00 1.543639e+00 2.073384e-01 2.707026e-01 1.830390e-01 3.101146e-01 3.296150e-01 3.859598e-01 4.163873e-01 4.456381e-01 4.681107e-01 4.486549e-01 4.094536e-01 3.835183e-01 3.263674e-01 4.545723e-02 4.746099e-02 3.440966e-02 4.832939e-02 5.343276e-02 8.149562e-02 9.278258e-02 1.013034e-01 8.659931e-02 1.075145e-01 1.014393e-01 9.522260e-02 8.651455e-02 1.260483e-02
<GCONST> 8.693717e+01
<MIXTURE> 3 1.294868e-01
<MEAN> 52
 -2.373654e+01 8.286589e+00 -6.868658e-01 -1.029402e+01 -9.961710e+00 -6.352218e+00 -9.738173e+00 -1.291402e+01 -5.715498e+00 -3.312891e+00 -4.549256e+00 -1.663330e+00 6.681551e+01 3.490849e+00 -1.646717e-01 2.018353e+00 -2.523950e+00 -2.739009e+00 -2.251724e+00 -3.598074e+00 -3.228944e+00 -2.906857e+00 -1.620450e+00 -2.211798e+00 -5.111148e-01 6.965982e-01 5.671366e-02 -4.674861e-01 2.979751e-01 -5.014569e-01 2.580549e-01 1.604798e-01 -5.840984e-02 2.373652e-01 -1.275645e-01 -1.480338e-02 -6.135042e-01 -1.017020e-01 3.533070e-01 -4.800920e-01 -8.528011e-02 -1.589508e-01 2.145991e-01 4.540086e-01 3.474419e-01 5.060608e-01 5.162916e-01 3.961727e-01 2.693373e-01 2.517138e-01 8.879081e-02 -8.713419e-02
<VARIANCE> 52
 4.360781e+01 1.876091e+01 2.933760e+01 2.495064e+01 4.527533e+01 5.172302e+01 7.420179e+01 6.483012e+01 4.722027e+01 3.102730e+01 2.962594e+01 2.082744e+01 2.406465e+01 1.115699e+00 1.474858e+00 1.716702e+00 2.381359e+00 2.007951e+00 3.049966e+00 3.824565e+00 2.286475e+00 2.503195e+00 2.131859e+00 3.088999e+00 3.008492e+00 7.211862e-01 8.617247e-01 2.527127e-01 3.515647e-01 4.247721e-01 1.009162e+00 9.444812e-01 1.324450e+00 1.305140e+00 9.183035e-01 6.502106e-01 5.397286e-01 3.847085e-01 8.865484e-02 4.305125e-02 7.171887e-02 6.998641e-02 9.270743e-02 8.934037e-02 1.317899e-01 1.374345e-01 1.124157e-01 1.057432e-01 8.902386e-02 1.307123e-01 9.839723e-02 3.114429e-02
<GCONST> 1.121132e+02
<STATE> 7
<NUMMIXES> 3
<MIXTURE> 1 1.589021e-01
<MEAN> 52
 -1.090031e+01 2.486799e+00 1.587620e+01 -2.362878e+00 -1.299837e+01 -9.359215e+00 -1.025343e+01 -9.010970e+00 -8.791363e+00 -5.468462e+00 7.417520e-01 1.115203e+00 7.533127e+01 3.753130e+00 -2.836117e+00 3.777277e+00 2.818544e-01 -3.009017e+00 -2.947158e-01 -3.376999e+00 -6.733485e-01 -1.107064e+00 -1.731813e+00 1.489434e+00 9.699113e-01 1.777057e+00 -1.110515e+00 1.293316e-02 -8.307297e-01 -4.821191e-01 3.132447e-01 3.990270e-01 3.517160e-01 2.520714e-01 1.371242e-01 2.706754e-01 1.034497e-01 -1.303264e-01 -3.261781e-01 -3.969277e-01 3.825007e-01 -3.957008e-01 -6.302566e-02 3.769012e-01 9.936346e-02 4.863427e-01 1.237642e-01 1.160756e-01 2.540505e-01 -2.497921e-01 -2.076590e-01 -2.877694e-01
<VARIANCE> 52
 1.277809e+01 3.122000e+01 2.119882e+01 3.137427e+01 1.696513e+01 2.111083e+01 4.899267e+01 1.669354e+01 3.452027e+01 2.904099e+01 1.143342e+01 1.743604e+01 4.339630e+00 2.263216e+00 1.090466e+00 3.046062e+00 2.122452e+00 1.963936e+00 2.906262e+00 9.935902e-01 1.912953e+00 2.048204e+00 2.242200e+00 1.303024e+00 2.056008e+00 6.711764e-01 2.533243e-01 5.546983e-01 3.123867e-01 1.711375e-01 4.445235e-01 3.718280e-01 3.068262e-01 2.211790e-01 2.958739e-01 3.041225e-01 2.076809e-01 2.807056e-01 1.018458e-01 8.925376e-02 4.058126e-02 8.046608e-02 5.255141e-02 7.648937e-02 1.062320e-01 3.579134e-02 5.801453e-02 7.806653e-02 7.581133e-02 4.801200e-02 7.325441e-02 2.312029e-02
<GCONST> 8.804467e+01
<MIXTURE> 2 5.398409e-01
<MEAN> 52
 -2.501887e+01 7.099794e+00 4.068570e+00 -4.992940e+00 -2.761632e+00 -4.396008e+00 -8.157112e-01 -4.914793e+00 -4.053636e+00 -1.748057e+00 -2.215115e+00 -1.167079e+00 6.908996e+01 4.040523e+00 3.628141e-01 3.676509e+00 1.156332e+00 -1.341074e+00 -7.333248e-01 -1.983867e+00 -8.485804e-01 -1.483030e+00 -1.120829e+00 9.665823e-02 -1.316321e-01 6.050119e-01 9.857415e-01 -1.638167e-01 6.514401e-01 2.095994e-01 -7.873819e-01 -1.293599e-01 -9.224945e-01 -2.943358e-01 -4.764214e-01 -2.866050e-01 3.823390e-01 6.067909e-02 4.460772e-01 -5.551487e-01 -2.651123e-01 -4.703055e-01 -2.795237e-01 2.006087e-02 1.604134e-01 1.374673e-01 1.574971e-01 1.752276e-01 1.539291e-01 6.012459e-02 1.455289e-02 -5.126082e-02
<VARIANCE> 52
 2.085658e+01 2.149418e+01 3.731046e+01 2.101007e+01 2.037262e+01 2.719498e+01 3.269884e+01 2.864190e+01 2.644760e+01 2.325961e+01 2.026792e+01 1.815216e+01 1.127401e+01 2.263905e+00 2.723771e+00 2.544321e+00 1.890525e+00 3.027865e+00 2.308194e+00 2.247450e+00 2.039216e+00 2.173064e+00 1.819119e+00 1.952252e+00 1.448404e+00 6.609119e-01 4.070458e-01 3.669272e-01 5.003924e-01 3.253202e-01 3.639696e-01 4.891413e-01 3.745875e-01 3.046671e-01 5.252382e-01 4.374899e-01 3.992386e-01 4.091001e-01 7.434127e-02 7.200706e-02 8.353635e-02 7.112794e-02 5.426465e-02 1.439109e-01 8.831786e-02 1.052306e-01 8.218062e-02 8.617320e-02 8.146036e-02 9.260800e-02 7.354399e-02 2.638297e-02
<GCONST> 9.824289e+01
<MIXTURE> 3 3.012570e-01
<MEAN> 52
 -1.663031e+01 2.828105e+00 7.229885e+00 -2.106668e+01 -1.161351e+01 -1.009490e+01 -1.651116e+01 -1.861263e+01 -1.208930e+01 -6.889125e+00 -1.495198e+01 -2.466476e+00 7.117226e+01 2.431458e-01 -1.364115e+00 1.822197e+00 -2.135587e+00 1.106912e+00 5.491798e-02 -4.215222e-01 4.561084e-01 -5.520357e-01 2.188307e-01 -1.737339e+00 1.223045e-01 7.339129e-01 -6.241715e-01 3.042324e-01 -4.468340e-01 5.844909e-01 3.835535e-01 3.151540e-01 5.247388e-01 4.963185e-01 5.315635e-01 3.673719e-01 6.377236e-01 1.763351e-01 -2.089319e-01 2.125822e-01 1.787165e-01 -1.122402e-01 1.077806e-01 -3.248049e-01 -1.696257e-01 -1.778843e-01 -2.781113e-01 -9.059215e-02 -1.338334e-01 9.042367e-02 -3.355708e-02 -5.615484e-02
<VARIANCE> 52
 6.922547e+00 1.130302e+01 2.117930e+01 2.358771e+01 2.503590e+01 1.327146e+01 2.187980e+01 3.706910e+01 2.329575e+01 1.416413e+01 2.187354e+01 3.775292e+01 1.496847e+01 1.015022e+00 1.497931e+00 1.965452e+00 2.144295e+00 1.897227e+00 2.189998e+00 2.379562e+00 1.719710e+00 1.126976e+00 1.612115e+00 2.056738e+00 1.698734e+00 2.567954e-01 2.776237e-01 1.687548e-01 2.985914e-01 2.772693e-01 6.355267e-01 3.569205e-01 5.887858e-01 4.331309e-01 2.768394e-01 2.777119e-01 2.375504e-01 3.052415e-01 4.127919e-02 3.742366e-02 6.611329e-02 7.226174e-02 8.424840e-02 6.995888e-02 7.438506e-02 9.224716e-02 7.696456e-02 5.222151e-02 6.189544e-02 8.812700e-02 5.335953e-02 1.351655e-02
<GCONST> 8.556172e+01
<STATE> 8
<NUMMIXES> 3
<MIXTURE> 1 2.976301e-01
<MEAN> 52
 -8.602020e+00 2.324612e+00 1.813582e+01 -4.412078e+00 -1.531528e+01 -4.637728e+00 -1.583140e+01 -7.374847e+00 -1.231198e+01 -5.961406e+00 1.581385e+00 -1.576285e+00 7.407493e+01 7.346095e-01 -1.094992e+00 8.398516e-01 -4.363400e-01 -1.249209e+00 9.537079e-01 -1.435043e+00 4.782652e-01 -5.763264e-01 -1.300490e-01 8.160067e-01 -5.580297e-01 2.988116e-01 -8.099710e-01 4.433328e-01 -7.939007e-01 2.277244e-02 7.409656e-01 -3.157837e-02 9.180244e-01 1.280724e-01 4.322045e-01 2.489744e-01 -2.565901e-01 -1.227735e-01 -3.495487e-01 2.623365e-01 1.449650e-01 1.562256e-01 1.401055e-01 3.179041e-02 -1.975704e-01 1.567691e-02 -1.332121e-01 -4.144024e-02 -5.807826e-02 -1.118286e-01 6.429564e-02 -5.329244e-03
<VARIANCE> 52
 1.160601e+01 2.332877e+01 2.363512e+01 4.454358e+01 2.640494e+01 3.988427e+01 3.756184e+01 4.937760e+01 4.018442e+01 4.522784e+01 2.846939e+01 2.820384e+01 1.318637e+01 5.141222e-01 8.498681e-01 1.206128e+00 1.326921e+00 1.862798e+00 1.559609e+00 1.961011e+00 1.360862e+00 1.536311e+00 1.981452e+00 1.362197e+00 1.382759e+00 2.001685e-01 2.109391e-01 1.590763e-01 2.636649e-01 2.346006e-01 3.036876e-01 3.855082e-01 2.948254e-01 3.806901e-01 3.231010e-01 3.377830e-01 2.954507e-01 2.987396e-01 6.326712e-02 3.365941e-02 4.743477e-02 4.233347e-02 4.220913e-02 9.128295e-02 6.020087e-02 8.804438e-02 5.698953e-02 6.125962e-02 6.677340e-02 6.222447e-02 5.651897e-02 1.559546e-02
<GCONST> 8.472746e+01
<MIXTURE> 2 4.890740e-01
<MEAN> 52
 -1.745214e+01 2.132667e+00 1.058920e+01 -2.721431e+01 -7.820210e+00 -1.119049e+01 -1.624944e+01 -1.639699e+01 -1.037518e+01 -4.541576e+00 -1.823948e+01 -8.833214e-01 7.277608e+01 1.716071e-01 -6.808934e-02 6.097822e-02 -1.745760e-01 -5.242523e-02 9.422696e-02 -2.894536e-02 1.684595e-01 1.028528e-01 1.772167e-01 -1.021503e-01 -2.565918e-03 -1.223109e-01 4.202307e-02 9.702466e-03 -7.696041e-02 9.248305e-02 -9.378684e-02 2.649642e-02 6.830891e-04 -4.409431e-02 2.487325e-02 -4.744829e-02 5.305189e-02 -3.483569e-02 -7.134163e-02 1.081034e-02 -1.524799e-02 1.992672e-02 -3.339392e-02 7.965964e-03 -1.163020e-02 -4.795296e-03 -5.467584e-03 -1.487039e-02 -1.792081e-02 -2.777663e-02 2.465649e-03 1.696601e-03
<VARIANCE> 52
 1.043422e+01 8.153469e+00 1.033009e+01 1.840535e+01 8.863224e+00 1.512824e+01 2.407059e+01 1.991276e+01 1.928831e+01 1.840635e+01 1.606443e+01 8.886376e+00 5.211197e+00 1.101706e-01 1.620664e-01 2.653196e-01 4.414421e-01 3.868645e-01 4.603713e-01 6.224802e-01 6.010799e-01 4.866694e-01 4.765140e-01 5.831269e-01 3.486252e-01 1.035754e-01 2.037942e-02 3.449791e-02 5.464465e-02 8.722779e-02 8.288993e-02 8.165698e-02 1.250431e-01 1.120909e-01 9.247427e-02 9.910077e-02 1.156800e-01 6.665767e-02 6.614368e-03 4.889745e-03 1.031423e-02 1.577271e-02 2.378378e-02 1.847969e-02 2.020948e-02 2.900016e-02 2.601622e-02 2.177363e-02 2.286319e-02 3.170886e-02 1.583784e-02 2.076629e-03
<GCONST> 2.392597e+01
<MIXTURE> 3 2.132959e-01
<MEAN> 52
 -1.198285e+01 9.341337e+00 1.417715e+01 -1.771292e+00 -9.006880e+00 -6.963130e+00 -9.075720e+00 -8.934114e+00 -9.798272e+00 -5.628511e+00 -6.631404e-01 -1.275281e+00 7.189525e+01 3.913336e+00 -1.009897e+00 3.020019e+00 2.121879e-01 -3.353545e+00 -6.407520e-02 -3.582561e+00 -5.892887e-01 -2.149099e+00 -7.001472e-01 1.227964e+00 -2.499877e-01 1.141462e+00 -8.477479e-01 -5.941682e-01 -7.603774e-01 -3.969997e-01 -2.273613e-02 4.764960e-01 1.842975e-01 4.561322e-01 3.326874e-01 3.262667e-01 1.728721e-01 -1.057408e-01 -6.244367e-02 -4.753114e-01 1.364148e-01 -3.210920e-01 -9.860938e-03 4.732761e-01 1.253256e-02 4.876721e-01 1.152481e-01 2.660513e-01 8.121723e-02 -1.981592e-01 -2.287051e-03 -1.880518e-01
<VARIANCE> 52
 1.605771e+01 1.993224e+01 1.863586e+01 1.906523e+01 3.825832e+01 3.162430e+01 3.302018e+01 3.612618e+01 2.223470e+01 2.762790e+01 2.026071e+01 1.728581e+01 1.279002e+01 1.995391e+00 1.928621e+00 3.466994e+00 2.627677e+00 2.364862e+00 3.494204e+00 3.149470e+00 3.301794e+00 3.607389e+00 2.899365e+00 2.346754e+00 2.034730e+00 4.924394e-01 3.350963e-01 2.015657e-01 3.014822e-01 1.926291e-01 5.661038e-01 3.471901e-01 5.512891e-01 3.666642e-01 3.445584e-01 3.305099e-01 4.123275e-01 2.959712e-01 7.454447e-02 8.544251e-02 6.023380e-02 1.106357e-01 7.315718e-02 8.789752e-02 1.295172e-01 1.170434e-01 1.147659e-01 1.247860e-01 9.652538e-02 1.111323e-01 8.891845e-02 1.859469e-02
<GCONST> 9.990242e+01
<STATE> 9
<NUMMIXES> 3
<MIXTURE> 1 4.278829e-01
<MEAN> 52
 -7.666248e+00 3.466729e+00 1.730653e+01 -3.758209e+00 -1.534179e+01 -5.688067e+00 -1.509900e+01 -7.817872e+00 -1.156059e+01 -6.542368e+00 2.760448e+00 -2.229844e+00 7.322045e+01 3.019980e-01 -1.055968e-01 -1.060243e-01 7.896511e-02 -2.067349e-01 -5.274234e-02 9.380720e-02 2.247268e-01 7.260190e-02 1.528121e-01 -3.059529e-03 -1.964986e-01 -2.808360e-01 -2.248017e-02 1.354529e-01 -2.042266e-01 1.437407e-01 3.021985e-01 -8.748323e-02 2.892337e-01 2.545803e-02 1.110751e-01 1.294956e-01 -2.323373e-01 3.222545e-02 -2.076253e-01 9.401044e-02 -2.286826e-02 4.504162e-02 2.393877e-02 4.758250e-03 2.717262e-02 -6.681412e-02 -2.315115e-02 -2.402774e-02 -3.235907e-02 -8.365627e-03 2.062575e-02 -1.669535e-02
<VARIANCE> 52
 1.089761e+01 2.932080e+01 4.018307e+01 5.043678e+01 5.033207e+01 7.592882e+01 4.328499e+01 4.970803e+01 4.931495e+01 5.173095e+01 2.713988e+01 2.954070e+01 1.283121e+01 2.424906e-01 4.943310e-01 8.008732e-01 8.929625e-01 9.519246e-01 1.141403e+00 1.297399e+00 1.087915e+00 9.625868e-01 1.059745e+00 9.333274e-01 7.355897e-01 2.314993e-01 8.464962e-02 1.172182e-01 1.550778e-01 1.858088e-01 2.938121e-01 2.199932e-01 3.372394e-01 2.193935e-01 2.403997e-01 2.132000e-01 2.337149e-01 1.692463e-01 6.688380e-02 2.463132e-02 2.338210e-02 4.201151e-02 3.881492e-02 6.630974e-02 4.537619e-02 7.158822e-02 5.427167e-02 4.875210e-02 4.244533e-02 4.567628e-02 3.492862e-02 1.329037e-02
<GCONST> 7.352224e+01
<MIXTURE> 2 2.249589e-01
<MEAN> 52
 -1.335355e+01 1.120825e+00 8.838471e+00 -2.501947e+01 -1.273458e+01 -6.998627e+00 -1.926690e+01 -1.297025e+01 -1.127263e+01 -5.236275e+00 -1.730215e+01 -4.436890e+00 6.835328e+01 4.727610e-01 7.160927e-02 -3.671458e-01 2.398960e-01 -3.365771e-01 9.485702e-02 -2.720068e-02 -2.379331e-02 1.385060e-01 -2.200038e-01 4.663068e-02 1.426449e-01 -6.396967e-01 9.374669e-02 7.315348e-02 -9.147383e-02 2.873271e-01 -1.999793e-03 -7.086500e-02 1.168612e-02 -1.781363e-02 -3.091829e-02 -9.934537e-03 1.433914e-01 8.054394e-02 -1.616061e-01 -3.554721e-03 -1.652797e-02 1.137082e-02 6.200272e-02 5.690518e-02 6.261072e-03 1.060052e-02 4.154015e-02 -1.234463e-02 1.169282e-02 3.451744e-02 -1.471114e-02 -7.766548e-03
<VARIANCE> 52
 1.556490e+01 1.850775e+01 1.628298e+01 2.146562e+01 3.505600e+01 2.606617e+01 5.383862e+01 2.665903e+01 1.793225e+01 1.876220e+01 2.803597e+01 2.606968e+01 2.528572e+01 2.813053e-01 4.649882e-01 6.219664e-01 1.172028e+00 9.531280e-01 1.170223e+00 1.148621e+00 1.030742e+00 9.915192e-01 1.253072e+00 1.181490e+00 6.549321e-01 3.185074e-01 4.064997e-02 7.356527e-02 1.253504e-01 2.256321e-01 1.609987e-01 2.225423e-01 2.596729e-01 1.990815e-01 1.705512e-01 2.170021e-01 2.490780e-01 1.214184e-01 3.117525e-02 1.121024e-02 1.833517e-02 2.220187e-02 4.440050e-02 4.499373e-02 5.223974e-02 6.686015e-02 4.935050e-02 4.495248e-02 5.373141e-02 5.290482e-02 3.217395e-02 5.417306e-03
<GCONST> 6.283204e+01
<MIXTURE> 3 3.471582e-01
<MEAN> 52
 -7.922957e+00 4.353496e-01 2.055033e+01 -8.190374e+00 -1.661656e+01 -5.040133e+00 -1.734396e+01 -7.641147e+00 -1.443403e+01 -5.001452e+00 3.249188e+00 -2.153674e+00 7.416029e+01 1.491071e-01 4.741224e-02 9.997979e-02 -1.496076e-01 -1.750826e-01 1.848041e-01 3.201415e-03 2.237646e-02 -1.043358e-01 1.700518e-01 1.097325e-01 -1.616956e-01 -2.276823e-01 5.387775e-03 4.893660e-02 -7.769492e-02 5.689316e-02 2.719440e-02 -8.130884e-02 9.897613e-02 -2.067049e-02 2.333723e-02 2.000928e-02 -2.822591e-02 5.185062e-03 -5.236404e-02 2.364776e-02 -1.602475e-02 8.288676e-03 6.560735e-03 -1.133746e-03 -4.582210e-03 -1.104041e-02 1.244496e-02 3.188300e-05 -1.878476e-03 -7.919645e-03 -3.590289e-03 -7.553020e-03
<VARIANCE> 52
 1.184568e+01 2.503618e+01 2.183607e+01 4.876231e+01 2.160152e+01 3.793663e+01 1.839314e+01 3.882279e+01 4.005534e+01 5.030642e+01 2.943013e+01 1.746645e+01 8.856977e+00 4.362169e-02 1.275916e-01 2.194194e-01 2.465705e-01 3.359542e-01 3.686010e-01 4.796429e-01 3.573116e-01 3.388290e-01 4.520557e-01 3.773092e-01 3.500210e-01 5.970257e-02 8.530878e-03 1.865751e-02 3.305709e-02 5.219413e-02 5.595471e-02 6.116837e-02 7.828903e-02 7.333264e-02 6.753831e-02 1.015573e-01 6.663916e-02 5.845581e-02 7.430904e-03 3.131089e-03 6.578718e-03 9.468895e-03 1.113804e-02 1.388975e-02 1.476860e-02 2.359398e-02 1.611787e-02 1.747243e-02 2.202695e-02 1.681822e-02 1.447712e-02 2.657953e-03
<GCONST> 1.905953e+01
<STATE> 10
<NUMMIXES> 3
<MIXTURE> 1 4.083769e-01
<MEAN> 52
 -4.954363e+00 3.417130e+00 1.700628e+01 -4.247731e+00 -1.488332e+01 -4.658007e+00 -1.341347e+01 -5.724179e+00 -1.134882e+01 -1.491303e+00 1.298046e+00 -2.784649e+00 6.797789e+01 2.128814e-01 6.176170e-01 -1.120790e+00 8.985713e-01 1.089279e+00 1.847452e-01 9.814206e-01 -1.492054e-01 5.893772e-01 3.293343e-01 -6.605911e-01 -1.128313e-01 -1.363113e+00 -5.673696e-02 -1.048918e-01 -1.437004e-01 1.245803e-01 2.447463e-01 5.516818e-02 1.147931e-01 2.521738e-03 1.369941e-01 -1.543718e-01 -2.544264e-02 8.187021e-02 -1.604481e-01 -3.284334e-02 -1.243642e-01 3.344863e-02 -1.217874e-01 -7.996658e-02 -1.107633e-02 -8.206910e-02 3.025630e-02 -2.813251e-02 -1.461479e-02 7.166435e-02 1.328167e-02 6.756362e-02
<VARIANCE> 52
 7.013557e+00 2.544375e+01 2.138627e+01 5.604987e+01 3.191627e+01 6.814685e+01 6.178736e+01 4.288820e+01 5.698263e+01 4.175364e+01 2.031311e+01 2.525746e+01 2.080286e+01 3.300641e-01 1.001417e+00 8.625633e-01 1.703138e+00 1.146262e+00 1.537242e+00 2.602998e+00 1.576879e+00 1.708907e+00 1.955771e+00 1.424682e+00 1.331820e+00 3.528298e-01 6.483014e-02 2.038230e-01 2.062961e-01 3.310978e-01 3.169636e-01 3.170661e-01 4.815521e-01 3.201181e-01 3.182462e-01 2.634987e-01 3.261188e-01 2.752018e-01 8.068673e-02 1.454442e-02 3.638767e-02 3.629030e-02 6.676250e-02 5.276705e-02 6.305036e-02 1.094568e-01 6.709366e-02 6.866957e-02 7.513908e-02 5.952474e-02 5.610472e-02 9.964935e-03
<GCONST> 8.417338e+01
<MIXTURE> 2 3.133556e-01
<MEAN> 52
 -9.835769e+00 2.693177e+00 6.031151e+00 -1.674562e+01 -1.235894e+01 -8.346079e+00 -1.777152e+01 -1.440894e+01 -1.061210e+01 -4.980310e+00 -1.283815e+01 -7.931837e-03 6.268402e+01 4.466361e-01 -1.542178e-01 -9.356899e-01 2.263142e+00 8.735912e-01 -4.507679e-02 9.868612e-01 7.732448e-01 5.891228e-01 -3.294060e-01 1.316744e+00 3.172690e-02 -1.687287e+00 -2.228645e-01 -2.239733e-01 -4.909525e-02 -5.190727e-02 3.361495e-01 1.458840e-01 3.536465e-01 3.603225e-01 2.309227e-01 1.641963e-01 1.337174e-01 -6.117349e-02 1.239826e-02 -3.864308e-02 -2.475264e-02 6.418670e-02 -2.232070e-01 -8.343147e-02 4.314241e-02 -5.164603e-02 -3.137105e-02 -4.334431e-03 1.155832e-01 -1.026036e-01 3.514701e-02 1.249760e-01
<VARIANCE> 52
 1.263699e+01 2.716548e+01 2.653622e+01 4.594226e+01 3.996591e+01 3.657505e+01 3.793113e+01 4.656712e+01 3.137582e+01 5.738875e+01 4.193789e+01 6.276696e+01 4.188077e+01 1.198133e+00 1.836317e+00 1.776946e+00 2.245991e+00 2.487425e+00 3.587877e+00 3.983083e+00 3.155991e+00 3.184627e+00 3.321758e+00 2.875590e+00 2.872325e+00 7.175854e-01 1.543820e-01 2.772852e-01 2.813297e-01 5.236426e-01 3.290238e-01 6.177597e-01 5.290648e-01 4.911633e-01 5.230263e-01 6.430919e-01 5.119910e-01 4.646732e-01 1.347738e-01 4.562085e-02 6.856713e-02 6.704397e-02 8.828149e-02 9.199636e-02 1.423667e-01 1.472757e-01 1.370488e-01 1.383595e-01 1.512969e-01 1.211993e-01 1.059262e-01 2.322800e-02
<GCONST> 1.097595e+02
<MIXTURE> 3 2.782675e-01
<MEAN> 52
 -4.057625e+00 4.375252e+00 1.295331e+01 2.702193e+00 -1.202388e+01 -4.444944e+00 -9.085460e+00 -6.143811e+00 -9.379202e+00 -5.069903e+00 3.159691e-01 -4.296361e+00 6.731524e+01 8.193516e-01 8.286791e-02 -1.645722e+00 9.716752e-01 3.048696e+00 -2.635790e-01 1.753694e+00 7.149752e-01 9.296666e-01 4.225836e-01 -1.972932e+00 1.338577e-01 -2.250219e+00 -3.040578e-01 -1.343366e-01 -5.214573e-02 -4.660903e-01 5.620695e-02 2.348554e-01 -2.595300e-01 -7.121839e-02 9.904898e-02 -2.515614e-02 5.595751e-02 7.209955e-02 9.019765e-02 -1.402239e-01 -8.489477e-02 1.746313e-01 -1.925483e-01 -5.767002e-01 5.050061e-02 -2.492086e-01 -1.100533e-01 -1.401711e-01 -2.357497e-02 4.025081e-01 -2.365651e-02 3.497756e-01
<VARIANCE> 52
 1.407296e+01 2.640253e+01 2.484283e+01 3.261540e+01 6.161502e+01 5.193195e+01 5.216574e+01 4.448280e+01 3.592434e+01 3.776232e+01 3.490475e+01 2.049957e+01 3.821998e+01 1.241593e+00 1.382738e+00 2.435131e+00 3.022195e+00 2.950436e+00 3.223318e+00 3.889255e+00 3.197625e+00 3.211785e+00 2.211568e+00 1.857138e+00 2.264700e+00 1.147910e+00 2.475664e-01 3.016073e-01 2.815794e-01 3.652599e-01 1.115383e+00 3.817516e-01 5.598801e-01 5.217930e-01 3.891966e-01 3.002948e-01 6.339317e-01 2.861239e-01 4.240716e-01 6.324469e-02 5.261263e-02 6.345698e-02 1.157090e-01 1.272296e-01 1.310553e-01 1.547808e-01 1.403398e-01 1.239869e-01 9.437913e-02 9.025919e-02 8.768397e-02 4.799917e-02
<GCONST> 1.097468e+02
<STATE> 11
<NUMMIXES> 3
<MIXTURE> 1 2.747051e-01
<MEAN> 52
 -4.832922e+00 2.163473e+00 1.026664e+01 -1.168311e+00 -8.704848e+00 -5.641026e+00 -1.065585e+01 -6.360312e+00 -8.782416e+00 -4.032829e+00 -4.085330e+00 -3.231844e+00 6.552456e+01 -6.768131e-01 -2.525579e-01 1.479439e-02 -1.085481e+00 -4.213997e-01 3.183334e-01 2.144679e-01 2.240034e-01 -9.712679e-02 6.184965e-01 6.066875e-01 8.837995e-02 6.359399e-01 -1.775726e-01 -6.150190e-02 2.778796e-01 -3.140184e-01 -9.113307e-01 2.709914e-01 -1.327008e-01 -5.700310e-02 -1.051292e-01 1.682728e-02 5.028666e-01 -1.248846e-03 5.674911e-01 1.740121e-01 6.225965e-02 -2.635306e-02 1.662282e-01 7.703330e-02 -1.293174e-02 1.931257e-02 8.623675e-03 5.982096e-02 -8.536851e-02 -1.064726e-01 -1.844994e-02 -1.511835e-01
<VARIANCE> 52
 2.305063e+01 3.665596e+01 6.775132e+01 8.206817e+01 5.139306e+01 4.278651e+01 6.256559e+01 6.552605e+01 4.710653e+01 4.556023e+01 4.506513e+01 2.619540e+01 5.324430e+01 1.923726e+00 1.175470e+00 2.482536e+00 2.655491e+00 5.222955e+00 2.334413e+00 2.989475e+00 3.582993e+00 3.566887e+00 2.668958e+00 4.305683e+00 1.789299e+00 2.109538e+00 3.811734e-01 3.648696e-01 6.295843e-01 6.354034e-01 1.021829e+00 6.324596e-01 8.243884e-01 8.229432e-01 8.807861e-01 8.016751e-01 8.782640e-01 4.616478e-01 4.879663e-01 7.948709e-02 5.872578e-02 1.117871e-01 1.170721e-01 2.486427e-01 1.057300e-01 1.404279e-01 1.647067e-01 1.754287e-01 1.464057e-01 1.990549e-01 7.920305e-02 8.281592e-02
<GCONST> 1.251892e+02
<MIXTURE> 2 3.357995e-01
<MEAN> 52
 -8.750992e+00 1.331187e+00 3.796868e+00 -3.184516e+00 -2.809638e+00 -9.596086e-01 -5.175056e+00 -4.815618e+00 -3.950715e+00 -2.489455e+00 -3.465940e+00 -2.471041e+00 5.629281e+01 -7.168943e-01 -1.598462e+00 -1.750382e+00 -4.530434e-01 2.765657e-01 2.864060e-01 7.412588e-01 7.485236e-01 1.009305e+00 6.921158e-01 7.742683e-01 5.189966e-01 -1.098686e+00 5.668567e-02 6.332040e-03 1.689495e-01 -4.009934e-01 -6.095934e-01 -3.117507e-01 -4.692088e-01 -3.147545e-01 -3.248594e-01 -5.701379e-02 5.182561e-02 1.072206e-01 3.216625e-01 1.065049e-01 2.168599e-01 1.221707e-01 1.731762e-01 8.418699e-02 -1.916662e-02 -1.221058e-02 -9.366163e-02 -1.028460e-01 -1.115999e-01 -1.402355e-01 -8.199340e-02 1.173757e-02
<VARIANCE> 52
 1.602032e+01 1.838587e+01 5.771019e+01 3.612812e+01 2.987408e+01 2.842135e+01 3.187272e+01 2.593997e+01 2.188195e+01 2.760850e+01 2.816634e+01 1.720655e+01 2.559059e+01 5.562791e-01 9.116708e-01 1.446950e+00 2.478045e+00 2.590652e+00 3.125477e+00 3.600640e+00 2.832694e+00 2.363186e+00 2.597629e+00 2.099793e+00 1.856892e+00 4.976225e-01 1.323607e-01 2.629536e-01 2.536246e-01 4.239953e-01 3.910657e-01 3.721564e-01 4.281565e-01 4.268249e-01 4.433889e-01 5.596543e-01 5.072240e-01 3.184060e-01 8.351536e-02 2.418735e-02 4.077226e-02 5.422423e-02 7.908456e-02 1.137960e-01 1.226986e-01 1.328034e-01 1.143290e-01 1.152336e-01 1.316833e-01 7.609212e-02 7.372381e-02 1.671257e-02
<GCONST> 9.646784e+01
<MIXTURE> 3 3.894954e-01
<MEAN> 52
 -9.223191e+00 -1.478021e+00 3.621754e+00 -7.692516e+00 -8.730410e+00 -5.805647e+00 -9.732065e+00 -8.566424e+00 -6.641577e+00 -2.164216e+00 -1.143474e+00 -2.906539e-01 5.544176e+01 -9.156324e-03 -4.216945e-01 -5.941316e-01 6.953125e-02 2.033858e-01 5.553677e-02 1.049875e-01 4.535240e-02 4.930597e-02 -4.693664e-02 -4.028175e-02 -7.946078e-02 -5.019505e-01 5.900493e-02 1.784642e-01 1.575226e-01 1.084979e-01 7.222703e-02 2.293286e-02 2.201510e-02 8.350307e-02 -2.016472e-02 -1.779340e-02 -8.523498e-02 -5.938530e-02 1.282566e-01 -3.148269e-02 -1.742744e-02 -3.750485e-02 -3.784491e-04 2.469390e-02 2.516717e-02 5.315391e-02 3.316286e-02 6.229862e-02 2.652433e-02 4.294636e-02 2.593988e-02 -2.468784e-02
<VARIANCE> 52
 1.118705e+01 1.643525e+01 4.062194e+01 2.402706e+01 4.037275e+01 3.491386e+01 3.717164e+01 3.164681e+01 3.791928e+01 1.912421e+01 3.798587e+01 2.047051e+01 1.181870e+01 2.177341e-01 5.619984e-01 8.873490e-01 1.346531e+00 1.170532e+00 1.595089e+00 1.824047e+00 2.007156e+00 1.675836e+00 1.617797e+00 1.450229e+00 1.377698e+00 1.023348e-01 6.332882e-02 1.256769e-01 1.941250e-01 2.359912e-01 2.382564e-01 3.224181e-01 3.824685e-01 3.845398e-01 4.018267e-01 3.343013e-01 2.760665e-01 2.749501e-01 2.479498e-02 1.047855e-02 2.515245e-02 3.676239e-02 5.795909e-02 5.432751e-02 7.095870e-02 8.394443e-02 8.656672e-02 8.119056e-02 7.881222e-02 6.505114e-02 6.198364e-02 5.776777e-03
<GCONST> 7.583324e+01
<TRANSP> 12
 0.000000e+00 1.000000e+00 0.000000e+00 0.000000e+00 0.000000e+00 0.000000e+00 0.000000e+00 0.000000e+00 0.000000e+00 0.000000e+00 0.000000e+00 0.000000e+00
 0.000000e+00 8.087859e-01 1.912142e-01 0.000000e+00 0.000000e+00 0.000000e+00 0.000000e+00 0.000000e+00 0.000000e+00 0.000000e+00 0.000000e+00 0.000000e+00
 0.000000e+00 0.000000e+00 7.706495e-01 2.293505e-01 0.000000e+00 0.000000e+00 0.000000e+00 0.000000e+00 0.000000e+00 0.000000e+00 0.000000e+00 0.000000e+00
 0.000000e+00 0.000000e+00 0.000000e+00 8.561028e-01 1.438972e-01 0.000000e+00 0.000000e+00 0.000000e+00 0.000000e+00 0.000000e+00 0.000000e+00 0.000000e+00
 0.000000e+00 0.000000e+00 0.000000e+00 0.000000e+00 7.926809e-01 2.073191e-01 0.000000e+00 0.000000e+00 0.000000e+00 0.000000e+00 0.000000e+00 0.000000e+00
 0.000000e+00 0.000000e+00 0.000000e+00 0.000000e+00 0.000000e+00 8.704121e-01 1.295879e-01 0.000000e+00 0.000000e+00 0.000000e+00 0.000000e+00 0.000000e+00
 0.000000e+00 0.000000e+00 0.000000e+00 0.000000e+00 0.000000e+00 0.000000e+00 6.645328e-01 3.354672e-01 0.000000e+00 0.000000e+00 0.000000e+00 0.000000e+00
 0.000000e+00 0.000000e+00 0.000000e+00 0.000000e+00 0.000000e+00 0.000000e+00 0.000000e+00 7.961897e-01 2.038103e-01 0.000000e+00 0.000000e+00 0.000000e+00
 0.000000e+00 0.000000e+00 0.000000e+00 0.000000e+00 0.000000e+00 0.000000e+00 0.000000e+00 0.000000e+00 8.667195e-01 1.332805e-01 0.000000e+00 0.000000e+00
 0.000000e+00 0.000000e+00 0.000000e+00 0.000000e+00 0.000000e+00 0.000000e+00 0.000000e+00 0.000000e+00 0.000000e+00 7.939315e-01 2.060685e-01 0.000000e+00
 0.000000e+00 0.000000e+00 0.000000e+00 0.000000e+00 0.000000e+00 0.000000e+00 0.000000e+00 0.000000e+00 0.000000e+00 0.000000e+00 8.072451e-01 1.927550e-01
 0.000000e+00 0.000000e+00 0.000000e+00 0.000000e+00 0.000000e+00 0.000000e+00 0.000000e+00 0.000000e+00 0.000000e+00 0.000000e+00 0.000000e+00 0.000000e+00
<ENDHMM>
