~o
<STREAMINFO> 1 13
<VECSIZE> 13<NULLD><MFCC_0><DIAGC>
~h "rx"
<BEGINHMM>
<NUMSTATES> 12
<STATE> 2
<MEAN> 13
 1.915216e+00 -9.428053e-02 1.292260e+00 1.922854e+00 -4.904321e+00 -5.755417e+00 -1.707144e+01 -9.488360e+00 -3.285676e+00 -7.903268e-01 -5.185090e+00 -3.604272e+00 6.490971e+01
<VARIANCE> 13
 1.686350e+01 3.192270e+01 3.258029e+01 4.571559e+01 5.087570e+01 7.020033e+01 7.812260e+01 6.746249e+01 5.468539e+01 3.851698e+01 3.778227e+01 3.233922e+01 3.921440e+01
<GCONST> 7.266748e+01
<STATE> 3
<MEAN> 13
 -5.524544e-01 -6.464658e+00 9.162189e+00 -1.069239e+00 -1.561581e+01 -6.133477e+00 -1.894276e+01 1.528937e+00 -3.451542e+00 -5.202823e+00 7.586703e-01 -2.572617e+00 7.397267e+01
<VARIANCE> 13
 1.004236e+01 4.438308e+01 4.269426e+01 4.464199e+01 2.631834e+01 3.933147e+01 5.985562e+01 4.503977e+01 4.954899e+01 4.163717e+01 3.973234e+01 3.854250e+01 1.126470e+01
<GCONST> 6.977415e+01
<STATE> 4
<MEAN> 13
 -7.224284e+00 -8.312899e-01 1.433070e+01 -8.624086e+00 -1.637280e+01 -6.996024e+00 -1.479082e+01 -4.051071e+00 -1.273997e+01 -1.512527e+00 -2.735667e+00 -2.383914e+00 7.205249e+01
<VARIANCE> 13
 1.148363e+01 5.387886e+01 6.435020e+01 8.587598e+01 5.584861e+01 4.520743e+01 4.092340e+01 6.811904e+01 4.361131e+01 4.187561e+01 9.375761e+01 4.297752e+01 3.581249e+01
<GCONST> 7.409387e+01
<STATE> 5
<MEAN> 13
 -1.713317e+01 1.241088e+01 1.024033e+01 5.119371e-02 -1.881607e+00 -5.401264e+00 -2.031151e+00 -4.200372e+00 -3.502629e+00 -1.571813e+00 -8.683946e-01 9.405387e-01 6.929350e+01
<VARIANCE> 13
 2.994357e+01 1.409649e+01 2.484812e+01 1.947724e+01 3.451944e+01 4.337498e+01 3.394096e+01 3.575537e+01 2.577525e+01 2.900981e+01 2.264317e+01 2.169143e+01 1.248726e+01
<GCONST> 6.587093e+01
<STATE> 6
<MEAN> 13
 -2.777583e+01 7.729746e+00 5.392759e-01 -7.045004e+00 -4.354712e+00 -6.642229e+00 -2.938934e+00 -3.892615e+00 -2.690072e+00 5.692720e-02 -9.883596e-01 1.949863e-01 6.823186e+01
<VARIANCE> 13
 1.014400e+01 2.255606e+01 2.978108e+01 2.804695e+01 2.240236e+01 4.425769e+01 3.481979e+01 2.717434e+01 2.574955e+01 2.625168e+01 2.183799e+01 1.811047e+01 1.744231e+01
<GCONST> 6.515989e+01
<STATE> 7
<MEAN> 13
 -1.375871e+01 9.660486e+00 1.076644e+01 -2.711841e+00 -6.275446e+00 -4.800057e+00 -4.713307e+00 -7.120975e+00 -5.355058e+00 -2.739130e+00 -1.826164e+00 -1.335166e+00 6.762228e+01
<VARIANCE> 13
 3.094585e+01 1.985548e+01 2.382365e+01 1.573283e+01 3.515273e+01 4.102903e+01 2.670224e+01 3.069647e+01 2.632271e+01 2.533709e+01 2.304376e+01 2.054644e+01 1.934635e+01
<GCONST> 6.584771e+01
<STATE> 8
<MEAN> 13
 -5.499145e+00 3.305065e+00 1.591302e+01 -9.193089e+00 -1.493136e+01 5.038687e-01 -1.041302e+01 -5.560940e+00 -1.027754e+01 -4.277175e-02 2.588554e+00 -5.344509e+00 7.209907e+01
<VARIANCE> 13
 1.145351e+01 2.067335e+01 2.109289e+01 3.790583e+01 4.085672e+01 5.752903e+01 3.912663e+01 4.778807e+01 3.888963e+01 5.076652e+01 3.340590e+01 3.422001e+01 1.150315e+01
<GCONST> 6.841165e+01
<STATE> 9
<MEAN> 13
 -3.625227e+00 2.925739e+00 4.144279e+00 -1.241722e+01 -1.167609e+01 -6.560779e+00 -1.593920e+01 -1.082892e+01 -1.020619e+01 -5.166459e+00 -8.987489e+00 -4.253731e+00 6.500443e+01
<VARIANCE> 13
 1.633410e+01 2.828134e+01 4.059620e+01 1.000134e+02 3.661884e+01 7.695824e+01 7.482016e+01 6.731527e+01 4.235666e+01 7.129401e+01 6.563182e+01 5.708841e+01 4.694064e+01
<GCONST> 7.489562e+01
<STATE> 10
<MEAN> 13
 9.394905e-01 3.757295e+00 7.078704e+00 2.153348e+00 -7.343283e+00 -3.344496e+00 -6.012047e+00 -6.701013e+00 -7.467024e+00 2.314437e-01 -2.569994e+00 -6.011660e+00 6.627632e+01
<VARIANCE> 13
 8.013898e+00 2.282875e+01 2.890955e+01 3.587366e+01 3.466675e+01 3.633052e+01 4.188330e+01 4.673963e+01 5.340484e+01 4.841460e+01 4.490785e+01 3.646839e+01 2.255948e+01
<GCONST> 6.913861e+01
<STATE> 11
<MEAN> 13
 -5.182039e+00 1.387804e+00 3.626642e+00 -1.338965e+00 -2.816745e+00 -8.406539e-01 -4.745480e+00 -3.107981e+00 -2.641292e+00 -1.540808e+00 -3.402601e+00 -3.124847e+00 5.771781e+01
<VARIANCE> 13
 1.711223e+01 2.393757e+01 4.048862e+01 3.358227e+01 3.499922e+01 3.508038e+01 4.203548e+01 3.478695e+01 3.361278e+01 2.596311e+01 2.050030e+01 2.136673e+01 3.102782e+01
<GCONST> 6.781213e+01
<TRANSP> 12
 0.000000e+00 1.000000e+00 0.000000e+00 0.000000e+00 0.000000e+00 0.000000e+00 0.000000e+00 0.000000e+00 0.000000e+00 0.000000e+00 0.000000e+00 0.000000e+00
 0.000000e+00 7.889286e-01 2.110714e-01 0.000000e+00 0.000000e+00 0.000000e+00 0.000000e+00 0.000000e+00 0.000000e+00 0.000000e+00 0.000000e+00 0.000000e+00
 0.000000e+00 0.000000e+00 8.195168e-01 1.804832e-01 0.000000e+00 0.000000e+00 0.000000e+00 0.000000e+00 0.000000e+00 0.000000e+00 0.000000e+00 0.000000e+00
 0.000000e+00 0.000000e+00 0.000000e+00 8.162049e-01 1.837951e-01 0.000000e+00 0.000000e+00 0.000000e+00 0.000000e+00 0.000000e+00 0.000000e+00 0.000000e+00
 0.000000e+00 0.000000e+00 0.000000e+00 0.000000e+00 7.045045e-01 2.954955e-01 0.000000e+00 0.000000e+00 0.000000e+00 0.000000e+00 0.000000e+00 0.000000e+00
 0.000000e+00 0.000000e+00 0.000000e+00 0.000000e+00 0.000000e+00 8.635510e-01 1.364490e-01 0.000000e+00 0.000000e+00 0.000000e+00 0.000000e+00 0.000000e+00
 0.000000e+00 0.000000e+00 0.000000e+00 0.000000e+00 0.000000e+00 0.000000e+00 4.808644e-01 5.191356e-01 0.000000e+00 0.000000e+00 0.000000e+00 0.000000e+00
 0.000000e+00 0.000000e+00 0.000000e+00 0.000000e+00 0.000000e+00 0.000000e+00 0.000000e+00 8.203668e-01 1.796332e-01 0.000000e+00 0.000000e+00 0.000000e+00
 0.000000e+00 0.000000e+00 0.000000e+00 0.000000e+00 0.000000e+00 0.000000e+00 0.000000e+00 0.000000e+00 7.185677e-01 2.814323e-01 0.000000e+00 0.000000e+00
 0.000000e+00 0.000000e+00 0.000000e+00 0.000000e+00 0.000000e+00 0.000000e+00 0.000000e+00 0.000000e+00 0.000000e+00 8.226228e-01 1.773772e-01 0.000000e+00
 0.000000e+00 0.000000e+00 0.000000e+00 0.000000e+00 0.000000e+00 0.000000e+00 0.000000e+00 0.000000e+00 0.000000e+00 0.000000e+00 8.084233e-01 1.915767e-01
 0.000000e+00 0.000000e+00 0.000000e+00 0.000000e+00 0.000000e+00 0.000000e+00 0.000000e+00 0.000000e+00 0.000000e+00 0.000000e+00 0.000000e+00 0.000000e+00
<ENDHMM>
