~o
<STREAMINFO> 1 26
<VECSIZE> 26<NULLD><MFCC_D_0><DIAGC>
~h "rx"
<BEGINHMM>
<NUMSTATES> 12
<STATE> 2
<MEAN> 26
 1.784537e+00 -1.738122e+00 1.762472e+00 1.281704e+00 -6.649320e+00 -5.541173e+00 -1.809540e+01 -8.154325e+00 -3.087665e+00 -1.185033e+00 -5.136797e+00 -3.476337e+00 6.612153e+01 3.016509e-01 -1.161049e+00 5.101385e-01 -3.352562e-01 -1.308018e+00 -5.742283e-01 -1.635069e+00 1.099946e+00 2.879870e-01 -2.664176e-01 1.790035e-01 8.828257e-02 1.820908e+00
<VARIANCE> 26
 1.623333e+01 4.377419e+01 3.585387e+01 5.256199e+01 6.171160e+01 6.561825e+01 7.841370e+01 6.944852e+01 5.397293e+01 3.896651e+01 4.059381e+01 3.475506e+01 4.259447e+01 2.153122e+00 2.699949e+00 2.484326e+00 4.297279e+00 4.774587e+00 4.717422e+00 5.773125e+00 5.987968e+00 4.011831e+00 2.889957e+00 3.500565e+00 2.773678e+00 2.131415e+00
<GCONST> 1.137222e+02
<STATE> 3
<MEAN> 26
 -1.393462e+00 -6.777321e+00 9.509299e+00 -2.887253e+00 -1.641941e+01 -7.261051e+00 -1.806920e+01 2.525380e+00 -5.324913e+00 -4.296716e+00 6.367581e-01 -2.870869e+00 7.466563e+01 -1.037095e+00 6.502600e-01 1.800396e+00 -4.659478e-01 -8.974439e-01 -1.722132e-01 1.238755e+00 2.551900e-01 -1.556203e+00 -3.135511e-01 1.121535e+00 2.011930e-01 3.649990e-01
<VARIANCE> 26
 1.064585e+01 4.410408e+01 4.078146e+01 5.129617e+01 3.152575e+01 3.659231e+01 5.378607e+01 4.472340e+01 6.268606e+01 3.775396e+01 4.330830e+01 4.160128e+01 1.142422e+01 3.654615e-01 9.337327e-01 1.133517e+00 1.967103e+00 1.589542e+00 1.875478e+00 1.790217e+00 3.397617e+00 1.887489e+00 2.319965e+00 1.925053e+00 1.327517e+00 4.502697e-01
<GCONST> 9.836157e+01
<STATE> 4
<MEAN> 26
 -7.033788e+00 -5.189785e-01 1.543908e+01 -7.869668e+00 -1.657577e+01 -6.130060e+00 -1.506309e+01 -4.502086e+00 -1.231209e+01 -2.399211e+00 -1.900982e+00 -2.218028e+00 7.208315e+01 -8.868626e-01 2.146832e+00 3.029746e-01 3.999221e-01 1.411728e+00 7.607211e-02 8.130326e-01 -1.079248e+00 3.222473e-01 2.343240e-01 -3.741899e-01 2.865179e-01 -7.795702e-01
<VARIANCE> 26
 1.207594e+01 3.990071e+01 5.286454e+01 9.971461e+01 4.955386e+01 4.802985e+01 4.239070e+01 6.566182e+01 4.888034e+01 5.398050e+01 9.757591e+01 3.953602e+01 3.164151e+01 8.275465e-01 1.265324e+00 2.900956e+00 2.356880e+00 3.137985e+00 2.417421e+00 3.495320e+00 2.756250e+00 3.410067e+00 3.210717e+00 2.134782e+00 2.364336e+00 4.079522e-01
<GCONST> 1.072046e+02
<STATE> 5
<MEAN> 26
 -1.481236e+01 1.146153e+01 1.119355e+01 -3.562761e-01 -4.141394e+00 -6.408392e+00 -4.262300e+00 -4.720307e+00 -4.607351e+00 -2.188567e+00 -8.686802e-01 4.977470e-01 6.926504e+01 -3.946678e+00 1.616478e+00 -2.484817e+00 -1.199261e-02 2.794909e+00 6.537038e-01 2.575408e+00 3.428313e-01 1.695106e+00 7.814436e-01 -3.784705e-01 3.215936e-01 -5.110181e-01
<VARIANCE> 26
 3.639804e+01 2.074025e+01 3.247588e+01 2.512416e+01 4.111423e+01 3.927125e+01 4.218182e+01 3.910496e+01 2.942222e+01 3.223833e+01 2.697046e+01 2.391150e+01 1.911108e+01 1.029600e+00 4.399261e+00 3.318308e+00 4.472177e+00 3.765263e+00 2.899354e+00 3.642603e+00 3.222548e+00 3.295169e+00 3.388106e+00 2.950932e+00 2.109510e+00 5.152569e-01
<GCONST> 1.048244e+02
<STATE> 6
<MEAN> 26
 -2.782424e+01 8.473241e+00 7.456031e-01 -6.597830e+00 -3.748792e+00 -6.439615e+00 -2.771007e+00 -3.693531e+00 -2.601606e+00 -2.796208e-02 -8.289822e-01 3.100693e-01 6.855604e+01 -3.868531e-01 -7.661350e-01 -3.908070e-01 -6.389311e-01 -3.970951e-01 -2.133492e-02 -7.687899e-02 -1.391937e-01 -1.328972e-02 3.167361e-02 -4.472761e-02 -9.580090e-02 -2.033529e-01
<VARIANCE> 26
 1.024721e+01 2.126076e+01 3.223721e+01 3.008273e+01 2.377542e+01 4.750944e+01 3.662014e+01 2.735637e+01 2.474373e+01 2.648009e+01 2.145796e+01 1.876662e+01 1.496120e+01 2.653294e+00 1.036342e+00 2.892509e+00 1.883713e+00 1.729095e+00 1.685081e+00 1.575593e+00 1.866811e+00 1.689394e+00 1.883287e+00 1.720712e+00 1.398788e+00 2.281896e-01
<GCONST> 9.458678e+01
<STATE> 7
<MEAN> 26
 -1.496187e+01 7.109593e+00 9.606650e+00 -5.131320e+00 -8.085484e+00 -4.840508e+00 -5.574329e+00 -5.968789e+00 -6.035933e+00 -2.181027e+00 -1.161169e+00 -1.065789e+00 6.828191e+01 4.372635e+00 -2.273415e-01 2.528950e+00 -1.078386e-01 -2.248827e+00 3.525875e-01 -1.803488e+00 -5.289029e-01 -1.665406e+00 -4.109120e-01 4.261225e-01 -5.324028e-01 7.881407e-01
<VARIANCE> 26
 6.854527e+01 2.600857e+01 5.003176e+01 3.744575e+01 4.981788e+01 4.277703e+01 4.336348e+01 4.303368e+01 3.912523e+01 2.750900e+01 3.027564e+01 2.167575e+01 2.329048e+01 2.293085e+00 2.731635e+00 3.628971e+00 5.576945e+00 3.972995e+00 4.310887e+00 3.305571e+00 3.766533e+00 3.309007e+00 4.108540e+00 3.663153e+00 2.693777e+00 1.072714e+00
<GCONST> 1.097921e+02
<STATE> 8
<MEAN> 26
 -5.199556e+00 3.360984e+00 1.566060e+01 -9.780740e+00 -1.616515e+01 2.232427e-01 -9.670192e+00 -5.728172e+00 -1.062533e+01 -4.601293e-02 3.122699e+00 -5.438247e+00 7.228024e+01 6.463500e-01 -3.596337e-01 -4.764577e-01 -4.745989e-01 2.509466e-01 1.095097e+00 -1.911539e-01 -1.243702e-01 4.835692e-02 8.001035e-01 -2.568899e-01 -1.120015e+00 -1.383991e-01
<VARIANCE> 26
 1.157641e+01 1.753886e+01 2.148404e+01 4.577524e+01 3.798468e+01 5.255304e+01 3.956314e+01 4.915164e+01 3.239263e+01 4.836271e+01 3.686489e+01 3.411066e+01 1.047004e+01 3.832712e-01 7.216049e-01 1.007097e+00 2.137002e+00 2.124292e+00 2.479410e+00 1.978553e+00 1.779256e+00 1.764668e+00 1.808484e+00 2.157676e+00 1.675218e+00 3.688079e-01
<GCONST> 9.585227e+01
<STATE> 9
<MEAN> 26
 -3.214741e+00 2.891731e+00 8.051735e+00 -9.514047e+00 -1.024448e+01 -2.367679e+00 -1.355377e+01 -8.005112e+00 -8.934392e+00 -1.286212e+00 -5.274328e+00 -6.044374e+00 6.702008e+01 7.569340e-01 -1.789922e-01 -1.037014e+00 1.774770e+00 7.782332e-01 -1.233147e+00 5.904620e-01 2.340933e-01 8.653420e-02 -5.354636e-01 -3.976183e-01 2.281200e-01 -8.563692e-01
<VARIANCE> 26
 1.468898e+01 2.808640e+01 4.469493e+01 9.721968e+01 3.776723e+01 7.498703e+01 8.043221e+01 6.298245e+01 5.198294e+01 7.436693e+01 6.945120e+01 4.709225e+01 3.624509e+01 4.382684e-01 8.921658e-01 1.147367e+00 2.123556e+00 1.870121e+00 2.714067e+00 2.670887e+00 2.264577e+00 2.588590e+00 2.769250e+00 2.372473e+00 2.382005e+00 3.517639e-01
<GCONST> 1.046386e+02
<STATE> 10
<MEAN> 26
 6.481674e-01 3.943785e+00 6.066925e+00 1.803783e+00 -6.694757e+00 -4.096773e+00 -6.534820e+00 -7.427078e+00 -7.459503e+00 -1.295831e+00 -3.975889e+00 -5.167108e+00 6.477496e+01 -1.303190e-01 -1.060451e-01 -1.448240e-01 3.497431e-01 7.093843e-01 4.353259e-01 -6.471781e-02 4.389967e-02 6.510969e-01 -8.284318e-02 -4.328302e-01 1.951235e-01 -6.415267e-01
<VARIANCE> 26
 8.596566e+00 2.259717e+01 3.266130e+01 3.858255e+01 3.749797e+01 4.603456e+01 4.539872e+01 4.684774e+01 5.241452e+01 5.386485e+01 4.663764e+01 3.911764e+01 2.787997e+01 6.137712e-01 9.827438e-01 1.013529e+00 1.588627e+00 1.940473e+00 1.880396e+00 2.651140e+00 3.463995e+00 2.607734e+00 2.409479e+00 2.322995e+00 1.776693e+00 7.226921e-01
<GCONST> 1.005049e+02
<STATE> 11
<MEAN> 26
 -5.612844e+00 5.620039e-01 2.603302e+00 -1.797156e+00 -3.121281e+00 -1.176384e+00 -4.790024e+00 -3.186263e+00 -2.406151e+00 -1.627613e+00 -3.311436e+00 -3.006950e+00 5.727710e+01 -7.140056e-01 -1.023259e+00 -1.026929e+00 -9.157219e-01 -5.572989e-01 -3.979924e-01 -1.359737e-01 2.138637e-01 4.871688e-01 1.947411e-01 3.838823e-01 3.532122e-01 -4.783240e-01
<VARIANCE> 26
 1.768217e+01 2.198813e+01 3.962814e+01 3.533456e+01 3.667514e+01 3.765559e+01 4.621596e+01 3.853353e+01 3.311544e+01 2.835487e+01 2.206125e+01 2.066421e+01 3.362840e+01 6.696400e-01 1.096725e+00 1.453234e+00 2.133514e+00 2.100236e+00 2.327925e+00 2.688423e+00 2.784278e+00 2.443736e+00 2.067749e+00 2.050870e+00 1.825595e+00 6.923393e-01
<GCONST> 9.918542e+01
<TRANSP> 12
 0.000000e+00 1.000000e+00 0.000000e+00 0.000000e+00 0.000000e+00 0.000000e+00 0.000000e+00 0.000000e+00 0.000000e+00 0.000000e+00 0.000000e+00 0.000000e+00
 0.000000e+00 8.264464e-01 1.735536e-01 0.000000e+00 0.000000e+00 0.000000e+00 0.000000e+00 0.000000e+00 0.000000e+00 0.000000e+00 0.000000e+00 0.000000e+00
 0.000000e+00 0.000000e+00 7.917536e-01 2.082464e-01 0.000000e+00 0.000000e+00 0.000000e+00 0.000000e+00 0.000000e+00 0.000000e+00 0.000000e+00 0.000000e+00
 0.000000e+00 0.000000e+00 0.000000e+00 7.792723e-01 2.207277e-01 0.000000e+00 0.000000e+00 0.000000e+00 0.000000e+00 0.000000e+00 0.000000e+00 0.000000e+00
 0.000000e+00 0.000000e+00 0.000000e+00 0.000000e+00 7.168748e-01 2.831252e-01 0.000000e+00 0.000000e+00 0.000000e+00 0.000000e+00 0.000000e+00 0.000000e+00
 0.000000e+00 0.000000e+00 0.000000e+00 0.000000e+00 0.000000e+00 8.504052e-01 1.495948e-01 0.000000e+00 0.000000e+00 0.000000e+00 0.000000e+00 0.000000e+00
 0.000000e+00 0.000000e+00 0.000000e+00 0.000000e+00 0.000000e+00 0.000000e+00 7.608422e-01 2.391578e-01 0.000000e+00 0.000000e+00 0.000000e+00 0.000000e+00
 0.000000e+00 0.000000e+00 0.000000e+00 0.000000e+00 0.000000e+00 0.000000e+00 0.000000e+00 7.462508e-01 2.537492e-01 0.000000e+00 0.000000e+00 0.000000e+00
 0.000000e+00 0.000000e+00 0.000000e+00 0.000000e+00 0.000000e+00 0.000000e+00 0.000000e+00 0.000000e+00 7.891811e-01 2.108189e-01 0.000000e+00 0.000000e+00
 0.000000e+00 0.000000e+00 0.000000e+00 0.000000e+00 0.000000e+00 0.000000e+00 0.000000e+00 0.000000e+00 0.000000e+00 8.227763e-01 1.772237e-01 0.000000e+00
 0.000000e+00 0.000000e+00 0.000000e+00 0.000000e+00 0.000000e+00 0.000000e+00 0.000000e+00 0.000000e+00 0.000000e+00 0.000000e+00 7.786084e-01 2.213916e-01
 0.000000e+00 0.000000e+00 0.000000e+00 0.000000e+00 0.000000e+00 0.000000e+00 0.000000e+00 0.000000e+00 0.000000e+00 0.000000e+00 0.000000e+00 0.000000e+00
<ENDHMM>
