~o
<STREAMINFO> 1 26
<VECSIZE> 26<NULLD><MFCC_D_0><DIAGC>
~h "lx"
<BEGINHMM>
<NUMSTATES> 12
<STATE> 2
<MEAN> 26
 -3.857585e+00 2.551040e+00 1.222097e+01 -1.233702e+00 -8.267785e+00 -5.699807e+00 -1.060001e+01 -3.369228e+00 -8.126863e+00 -2.441646e+00 -1.842452e+00 -1.398860e+00 6.576626e+01 2.089774e-01 -2.556991e-02 1.719324e+00 -8.036255e-01 -2.183548e+00 -5.887269e-02 -6.840567e-01 2.426272e-01 -8.208438e-01 1.284438e-01 9.491870e-01 1.086741e-01 2.262951e+00
<VARIANCE> 26
 1.402358e+01 3.043010e+01 5.247781e+01 6.719756e+01 7.581851e+01 4.983546e+01 5.980066e+01 5.124811e+01 4.421980e+01 4.001249e+01 4.998502e+01 2.966887e+01 5.665432e+01 2.060477e+00 3.197003e+00 3.908341e+00 4.307334e+00 4.680778e+00 4.553607e+00 4.769577e+00 4.353314e+00 3.199162e+00 3.911153e+00 3.805056e+00 2.972526e+00 1.797302e+00
<GCONST> 1.134308e+02
<STATE> 3
<MEAN> 26
 -3.611103e+00 3.132808e+00 1.521999e+01 -5.287082e+00 -1.561029e+01 -5.324779e-01 -1.078475e+01 -4.042628e+00 -1.099955e+01 -5.062419e-01 3.960764e+00 -4.123887e+00 7.275888e+01 4.509041e-02 6.504655e-01 -4.174282e-01 -1.988923e-01 4.799271e-01 4.240173e-01 1.244617e-01 -7.045510e-01 -2.551999e-01 4.208768e-01 -2.578182e-01 -5.236135e-01 -1.730134e-01
<VARIANCE> 26
 1.239719e+01 2.662971e+01 4.820800e+01 7.863616e+01 3.666578e+01 6.357461e+01 5.595060e+01 6.327816e+01 5.050753e+01 4.766314e+01 3.472914e+01 3.685421e+01 1.193696e+01 3.777422e-01 7.282120e-01 1.186761e+00 1.506290e+00 1.572009e+00 2.374148e+00 2.201825e+00 2.104654e+00 2.163885e+00 1.648886e+00 1.762981e+00 1.637991e+00 2.798378e-01
<GCONST> 9.837073e+01
<STATE> 4
<MEAN> 26
 -4.239751e+00 7.408310e+00 9.145729e+00 -9.980017e+00 -1.240872e+01 -3.541278e+00 -1.399820e+01 -1.024854e+01 -1.154490e+01 7.982740e-02 -6.172437e+00 -3.812599e+00 6.850037e+01 -7.734016e-01 1.333221e+00 -7.692161e-01 8.524024e-01 1.041083e+00 -6.968110e-01 1.118918e+00 -4.231628e-01 5.523270e-01 -6.790867e-01 -8.542150e-02 4.327686e-01 -3.605747e-01
<VARIANCE> 26
 1.458897e+01 2.260334e+01 3.681257e+01 1.107491e+02 4.199738e+01 4.249648e+01 9.434084e+01 5.961375e+01 3.509922e+01 6.085695e+01 9.984315e+01 3.923571e+01 2.733164e+01 2.825957e+00 1.602266e+00 2.466452e+00 3.304461e+00 3.665804e+00 2.952098e+00 4.397759e+00 2.656689e+00 2.767318e+00 2.404262e+00 3.144517e+00 2.722251e+00 4.882299e-01
<GCONST> 1.090394e+02
<STATE> 5
<MEAN> 26
 -1.627506e+01 1.459041e+01 6.462901e+00 1.387042e-02 -2.959481e+00 -4.488732e+00 -3.821909e-01 -7.908937e+00 -6.227387e+00 -3.046794e+00 -1.619305e+00 -1.683300e+00 6.981593e+01 -4.287781e+00 1.706454e-01 -1.865400e+00 3.285399e-01 1.939474e+00 1.206871e-01 1.429398e+00 8.956916e-01 1.604459e+00 2.156305e-03 -4.243153e-01 4.364610e-01 -5.927325e-02
<VARIANCE> 26
 4.873331e+01 1.688045e+01 3.055014e+01 4.058960e+01 3.886350e+01 3.220564e+01 4.337755e+01 4.240044e+01 2.966934e+01 3.199111e+01 3.448938e+01 2.327985e+01 1.980443e+01 1.798823e+00 4.322392e+00 2.542763e+00 4.035585e+00 4.134692e+00 3.215374e+00 4.387312e+00 3.224641e+00 3.037840e+00 3.295023e+00 2.993634e+00 2.669492e+00 4.648765e-01
<GCONST> 1.060314e+02
<STATE> 6
<MEAN> 26
 -2.896534e+01 8.925063e+00 -8.715710e-01 -5.745925e+00 -2.672095e+00 -5.254831e+00 -1.837857e+00 -5.320227e+00 -3.652103e+00 -6.410925e-01 -1.306614e+00 -8.296458e-01 6.947179e+01 -4.155944e-01 -8.264244e-01 -6.638806e-02 -6.577340e-01 -2.848617e-01 -4.951710e-02 -1.797752e-01 1.212299e-01 4.031660e-02 1.024308e-01 1.241356e-02 1.040771e-01 -1.019371e-01
<VARIANCE> 26
 1.106538e+01 1.973548e+01 3.060917e+01 2.891698e+01 1.862908e+01 2.952289e+01 4.344909e+01 3.531153e+01 2.730240e+01 2.153357e+01 2.510792e+01 1.779523e+01 1.881598e+01 1.826998e+00 1.037058e+00 2.538610e+00 1.641351e+00 1.693800e+00 1.769722e+00 1.650998e+00 1.750607e+00 1.998648e+00 1.913986e+00 1.752354e+00 1.601260e+00 2.388230e-01
<GCONST> 9.418259e+01
<STATE> 7
<MEAN> 26
 -2.113283e+01 8.336034e+00 6.795643e+00 -4.426591e+00 -5.058901e+00 -6.112165e+00 -3.842074e+00 -7.072816e+00 -5.889586e+00 -3.156544e+00 -2.218260e+00 -9.673301e-01 6.942454e+01 4.405158e+00 -9.357683e-02 3.527708e+00 5.308827e-01 -2.359357e+00 -9.473729e-01 -2.918442e+00 -1.318924e+00 -1.962345e+00 -1.233800e+00 1.381404e-01 -1.183466e-01 8.757154e-01
<VARIANCE> 26
 4.792335e+01 2.441265e+01 4.433604e+01 2.715020e+01 3.377915e+01 3.485921e+01 4.622012e+01 4.182800e+01 2.964280e+01 2.481614e+01 2.036596e+01 1.904407e+01 2.195042e+01 1.722140e+00 2.878254e+00 3.247086e+00 3.581188e+00 3.429287e+00 3.024894e+00 3.224539e+00 3.007250e+00 3.006139e+00 2.313964e+00 2.972232e+00 1.997675e+00 7.534523e-01
<GCONST> 1.043340e+02
<STATE> 8
<MEAN> 26
 -1.004690e+01 3.716901e+00 1.549400e+01 -5.666534e+00 -1.377384e+01 -6.320076e+00 -1.494122e+01 -9.810155e+00 -1.209269e+01 -5.311330e+00 -7.741671e-01 -4.120574e-01 7.343585e+01 1.602436e+00 -1.680405e+00 1.539678e+00 -5.377318e-01 -1.711111e+00 6.814942e-01 -2.059227e+00 2.564151e-01 -9.658545e-01 -4.128189e-01 6.137819e-01 -3.765020e-01 6.969236e-01
<VARIANCE> 26
 1.366178e+01 2.737862e+01 3.508553e+01 6.002746e+01 2.920469e+01 3.865451e+01 4.644136e+01 6.809132e+01 3.608729e+01 4.306771e+01 4.100097e+01 4.523063e+01 1.716147e+01 1.764716e+00 1.213050e+00 2.474368e+00 1.963469e+00 3.599888e+00 2.586062e+00 3.597820e+00 2.182317e+00 2.470387e+00 2.457054e+00 3.042539e+00 2.536344e+00 6.154718e-01
<GCONST> 1.041615e+02
<STATE> 9
<MEAN> 26
 -8.643205e+00 1.096631e+00 1.829043e+01 -9.036635e+00 -1.628326e+01 -4.883758e+00 -1.732757e+01 -8.145027e+00 -1.355181e+01 -5.214698e+00 1.292519e-01 -3.044468e+00 7.301530e+01 2.072880e-01 -4.678844e-02 5.621715e-02 -1.352262e-01 -2.078649e-01 1.821436e-01 -5.141700e-02 1.199021e-01 -6.098234e-03 1.333629e-01 7.629765e-02 -1.763864e-01 -1.946561e-01
<VARIANCE> 26
 1.353598e+01 2.508967e+01 3.536483e+01 8.470781e+01 2.451932e+01 3.883249e+01 3.483281e+01 4.198063e+01 3.936653e+01 4.540797e+01 7.570781e+01 2.639830e+01 1.902127e+01 1.111406e-01 2.419909e-01 4.322364e-01 5.543493e-01 5.701943e-01 6.324705e-01 7.939656e-01 6.130314e-01 5.705934e-01 7.695835e-01 5.801580e-01 5.154182e-01 1.207769e-01
<GCONST> 8.286983e+01
<STATE> 10
<MEAN> 26
 -5.546990e+00 3.531670e+00 1.465272e+01 -4.087501e+00 -1.492706e+01 -6.135841e+00 -1.401942e+01 -7.607917e+00 -1.115742e+01 -4.225401e+00 -8.948617e-01 -2.982275e+00 6.869902e+01 5.085552e-01 3.627681e-01 -8.798032e-01 9.048697e-01 1.031093e+00 -2.639713e-01 9.979412e-01 1.872148e-01 5.104509e-01 2.589051e-01 -6.498159e-01 2.043198e-02 -1.290800e+00
<VARIANCE> 26
 1.275518e+01 2.882292e+01 3.545436e+01 8.699172e+01 4.671008e+01 7.456480e+01 6.332237e+01 5.443719e+01 4.671004e+01 4.966370e+01 5.957636e+01 3.004187e+01 2.628249e+01 7.138290e-01 1.027923e+00 1.336742e+00 2.147981e+00 2.891133e+00 2.172498e+00 2.817034e+00 2.203189e+00 2.208318e+00 1.924898e+00 2.406255e+00 1.494865e+00 9.824513e-01
<GCONST> 1.036527e+02
<STATE> 11
<MEAN> 26
 -6.860888e+00 1.467803e+00 6.824865e+00 -3.160278e+00 -6.768454e+00 -3.935607e+00 -8.018044e+00 -6.523049e+00 -6.411738e+00 -2.886096e+00 -1.966679e+00 -2.351228e+00 5.874511e+01 -5.515218e-01 -8.847821e-01 -1.101792e+00 -5.290245e-01 3.274303e-01 2.132465e-01 3.817755e-01 2.643327e-01 4.250588e-01 2.587866e-01 2.902516e-01 2.058821e-01 -6.133988e-01
<VARIANCE> 26
 1.616720e+01 2.799325e+01 4.577102e+01 5.017380e+01 4.925150e+01 4.509514e+01 4.803403e+01 4.114805e+01 3.423213e+01 2.594666e+01 3.846676e+01 2.142217e+01 4.078146e+01 9.368640e-01 1.344105e+00 2.452038e+00 2.677176e+00 4.286692e+00 2.611903e+00 3.125839e+00 2.830665e+00 2.551026e+00 2.340077e+00 3.041618e+00 1.806284e+00 1.852723e+00
<GCONST> 1.049604e+02
<TRANSP> 12
 0.000000e+00 1.000000e+00 0.000000e+00 0.000000e+00 0.000000e+00 0.000000e+00 0.000000e+00 0.000000e+00 0.000000e+00 0.000000e+00 0.000000e+00 0.000000e+00
 0.000000e+00 8.061523e-01 1.938477e-01 0.000000e+00 0.000000e+00 0.000000e+00 0.000000e+00 0.000000e+00 0.000000e+00 0.000000e+00 0.000000e+00 0.000000e+00
 0.000000e+00 0.000000e+00 8.617018e-01 1.382982e-01 0.000000e+00 0.000000e+00 0.000000e+00 0.000000e+00 0.000000e+00 0.000000e+00 0.000000e+00 0.000000e+00
 0.000000e+00 0.000000e+00 0.000000e+00 7.907121e-01 2.092879e-01 0.000000e+00 0.000000e+00 0.000000e+00 0.000000e+00 0.000000e+00 0.000000e+00 0.000000e+00
 0.000000e+00 0.000000e+00 0.000000e+00 0.000000e+00 7.350155e-01 2.649845e-01 0.000000e+00 0.000000e+00 0.000000e+00 0.000000e+00 0.000000e+00 0.000000e+00
 0.000000e+00 0.000000e+00 0.000000e+00 0.000000e+00 0.000000e+00 8.365325e-01 1.634675e-01 0.000000e+00 0.000000e+00 0.000000e+00 0.000000e+00 0.000000e+00
 0.000000e+00 0.000000e+00 0.000000e+00 0.000000e+00 0.000000e+00 0.000000e+00 6.687266e-01 3.312734e-01 0.000000e+00 0.000000e+00 0.000000e+00 0.000000e+00
 0.000000e+00 0.000000e+00 0.000000e+00 0.000000e+00 0.000000e+00 0.000000e+00 0.000000e+00 6.461709e-01 3.538291e-01 0.000000e+00 0.000000e+00 0.000000e+00
 0.000000e+00 0.000000e+00 0.000000e+00 0.000000e+00 0.000000e+00 0.000000e+00 0.000000e+00 0.000000e+00 8.616863e-01 1.383137e-01 0.000000e+00 0.000000e+00
 0.000000e+00 0.000000e+00 0.000000e+00 0.000000e+00 0.000000e+00 0.000000e+00 0.000000e+00 0.000000e+00 0.000000e+00 8.243833e-01 1.756167e-01 0.000000e+00
 0.000000e+00 0.000000e+00 0.000000e+00 0.000000e+00 0.000000e+00 0.000000e+00 0.000000e+00 0.000000e+00 0.000000e+00 0.000000e+00 8.050719e-01 1.949281e-01
 0.000000e+00 0.000000e+00 0.000000e+00 0.000000e+00 0.000000e+00 0.000000e+00 0.000000e+00 0.000000e+00 0.000000e+00 0.000000e+00 0.000000e+00 0.000000e+00
<ENDHMM>
