~o
<STREAMINFO> 1 13
<VECSIZE> 13<NULLD><MFCC_0><DIAGC>
~h "dd"
<BEGINHMM>
<NUMSTATES> 6
<STATE> 2
<MEAN> 13
 -6.275045e+00 2.570557e+00 9.028941e+00 -5.321805e+00 -1.536741e+01 -2.405894e+00 -1.051748e+01 -7.026794e+00 -9.987409e+00 -3.250179e+00 -1.466272e+00 -3.517670e+00 6.935942e+01
<VARIANCE> 13
 2.670767e+01 2.460334e+01 7.888538e+01 9.316550e+01 6.791668e+01 4.905922e+01 9.082376e+01 5.775098e+01 5.939987e+01 5.975533e+01 1.035793e+02 4.888228e+01 3.592691e+01
<GCONST> 7.624477e+01
<STATE> 3
<MEAN> 13
 1.789696e+00 5.729848e+00 6.709054e+00 4.851236e+00 -1.176391e+01 -2.157099e+00 -7.234457e+00 -1.102380e+01 -8.706626e+00 3.063946e+00 -4.816139e+00 -5.775279e+00 6.543129e+01
<VARIANCE> 13
 1.030789e+01 1.730036e+01 1.922295e+01 3.227282e+01 4.502210e+01 3.753050e+01 3.978580e+01 3.567200e+01 4.313591e+01 3.995698e+01 3.649787e+01 3.542788e+01 1.766498e+01
<GCONST> 6.768504e+01
<STATE> 4
<MEAN> 13
 2.596530e-01 -1.036092e+00 -4.001736e+00 -1.215950e+01 -7.676035e+00 -1.631128e+00 -1.388584e+01 -6.057071e+00 -7.656048e+00 -3.678038e+00 -4.362129e+00 -5.237613e+00 6.853735e+01
<VARIANCE> 13
 1.554599e+01 3.037523e+01 4.415626e+01 5.221735e+01 5.032632e+01 1.007280e+02 6.510791e+01 8.093720e+01 1.013904e+02 7.621276e+01 8.176308e+01 4.804199e+01 7.254519e+01
<GCONST> 7.640627e+01
<STATE> 5
<MEAN> 13
 -4.745502e-01 3.728348e+00 3.800960e+00 -9.368193e-01 -5.396419e+00 1.692011e+00 -4.790886e+00 -7.531108e+00 -5.091136e+00 -2.378469e-01 -4.744328e+00 -3.433713e+00 6.329104e+01
<VARIANCE> 13
 2.621073e+01 2.141328e+01 3.152061e+01 3.355582e+01 4.222006e+01 4.025402e+01 4.910043e+01 4.812850e+01 4.510654e+01 4.299288e+01 2.717871e+01 2.515114e+01 4.169028e+01
<GCONST> 7.021996e+01
<TRANSP> 6
 0.000000e+00 1.000000e+00 0.000000e+00 0.000000e+00 0.000000e+00 0.000000e+00
 0.000000e+00 8.970387e-01 1.029613e-01 0.000000e+00 0.000000e+00 0.000000e+00
 0.000000e+00 0.000000e+00 8.926675e-01 1.073326e-01 0.000000e+00 0.000000e+00
 0.000000e+00 0.000000e+00 0.000000e+00 9.297105e-01 7.028952e-02 0.000000e+00
 0.000000e+00 0.000000e+00 0.000000e+00 0.000000e+00 9.075261e-01 9.247388e-02
 0.000000e+00 0.000000e+00 0.000000e+00 0.000000e+00 0.000000e+00 0.000000e+00
<ENDHMM>
