~o
<STREAMINFO> 1 13
<VECSIZE> 13<NULLD><MFCC_0><DIAGC>
~h "lx"
<BEGINHMM>
<NUMSTATES> 6
<STATE> 2
<MEAN> 13
 -3.961904e+00 4.676135e+00 1.137927e+01 -4.672618e+00 -1.300192e+01 -3.009646e+00 -1.111071e+01 -5.902222e+00 -9.796027e+00 -1.606171e+00 -1.197025e+00 -3.594988e+00 6.985849e+01
<VARIANCE> 13
 1.427503e+01 3.243032e+01 4.691026e+01 9.155393e+01 5.842982e+01 6.415075e+01 8.015414e+01 7.003703e+01 4.622955e+01 5.270110e+01 8.199692e+01 3.829133e+01 3.767402e+01
<GCONST> 7.473634e+01
<STATE> 3
<MEAN> 13
 -2.450318e+01 9.956543e+00 2.654452e+00 -3.157799e+00 -2.427963e+00 -4.159034e+00 -4.503849e-01 -5.989100e+00 -3.725375e+00 -2.153473e+00 -2.206285e+00 -1.091936e+00 6.947494e+01
<VARIANCE> 13
 4.730838e+01 2.844640e+01 4.692733e+01 3.428693e+01 2.502221e+01 2.880617e+01 3.786007e+01 3.712275e+01 2.470189e+01 2.570706e+01 2.595172e+01 2.078324e+01 2.046475e+01
<GCONST> 6.807169e+01
<STATE> 4
<MEAN> 13
 -9.145770e+00 3.506066e+00 1.544844e+01 -9.135481e+00 -1.476937e+01 -4.539116e+00 -1.735733e+01 -8.430584e+00 -1.327120e+01 -4.120534e+00 -3.023082e+00 -3.750538e+00 7.108356e+01
<VARIANCE> 13
 1.547245e+01 2.617310e+01 4.274752e+01 9.010004e+01 2.802491e+01 4.043684e+01 4.550365e+01 6.814052e+01 2.553305e+01 4.684576e+01 7.853033e+01 3.487342e+01 2.884328e+01
<GCONST> 7.158855e+01
<STATE> 5
<MEAN> 13
 -5.432484e+00 2.832083e+00 1.046608e+01 5.967566e-01 -9.242344e+00 -2.977626e+00 -7.559158e+00 -6.175966e+00 -5.391454e+00 -5.180143e+00 -6.767747e-01 -2.497456e+00 6.471037e+01
<VARIANCE> 13
 1.503578e+01 3.050368e+01 6.560330e+01 3.547354e+01 7.449229e+01 6.264549e+01 4.392746e+01 3.832552e+01 2.832595e+01 5.695636e+01 3.669814e+01 2.691571e+01 7.595920e+01
<GCONST> 7.226163e+01
<TRANSP> 6
 0.000000e+00 1.000000e+00 0.000000e+00 0.000000e+00 0.000000e+00 0.000000e+00
 0.000000e+00 9.417826e-01 5.821739e-02 0.000000e+00 0.000000e+00 0.000000e+00
 0.000000e+00 0.000000e+00 9.120811e-01 8.791892e-02 0.000000e+00 0.000000e+00
 0.000000e+00 0.000000e+00 0.000000e+00 9.093447e-01 9.065529e-02 0.000000e+00
 0.000000e+00 0.000000e+00 0.000000e+00 0.000000e+00 8.810699e-01 1.189301e-01
 0.000000e+00 0.000000e+00 0.000000e+00 0.000000e+00 0.000000e+00 0.000000e+00
<ENDHMM>
