~o
<STREAMINFO> 1 13
<VECSIZE> 13<NULLD><MFCC_0><DIAGC>
~h "lx"
<BEGINHMM>
<NUMSTATES> 12
<STATE> 2
<MEAN> 13
 -3.402629e+00 3.728403e+00 9.798612e+00 9.709403e-01 -4.514999e+00 -6.819471e+00 -8.753930e+00 -4.829463e+00 -6.788520e+00 -2.985620e+00 -3.184253e+00 -1.441718e+00 6.345753e+01
<VARIANCE> 13
 1.504864e+01 2.366296e+01 5.079170e+01 4.665711e+01 5.024349e+01 7.510740e+01 7.438652e+01 4.737783e+01 5.012245e+01 4.064551e+01 3.953551e+01 2.632955e+01 5.413711e+01
<GCONST> 7.250015e+01
<STATE> 3
<MEAN> 13
 -3.944387e+00 2.300230e+00 1.687547e+01 -5.921847e+00 -1.533253e+01 -8.316827e-01 -1.214352e+01 -1.980734e+00 -1.243233e+01 -2.000848e-02 4.122281e+00 -3.248753e+00 7.253728e+01
<VARIANCE> 13
 1.052681e+01 2.553562e+01 3.648850e+01 7.462986e+01 3.843043e+01 4.800005e+01 3.977135e+01 4.563998e+01 3.997220e+01 4.733750e+01 2.692002e+01 3.832306e+01 1.330356e+01
<GCONST> 6.949236e+01
<STATE> 4
<MEAN> 13
 -4.365392e+00 7.531167e+00 8.182007e+00 -8.356885e+00 -1.343886e+01 -3.741674e+00 -1.202818e+01 -1.127788e+01 -9.566891e+00 -9.930844e-01 -5.454563e+00 -4.400969e+00 6.895016e+01
<VARIANCE> 13
 1.852254e+01 2.949816e+01 2.555239e+01 1.170418e+02 4.022926e+01 4.598301e+01 1.092890e+02 5.880137e+01 3.717164e+01 5.598174e+01 1.051827e+02 3.615467e+01 2.787060e+01
<GCONST> 7.370167e+01
<STATE> 5
<MEAN> 13
 -1.592439e+01 1.507856e+01 6.469069e+00 1.138822e+00 -1.688413e+00 -5.199047e+00 -7.527335e-01 -7.834928e+00 -5.542501e+00 -4.184143e+00 -1.969971e+00 -7.490711e-01 6.982077e+01
<VARIANCE> 13
 3.928306e+01 1.505897e+01 2.828669e+01 3.228553e+01 3.139656e+01 5.663584e+01 4.125459e+01 3.997607e+01 2.574893e+01 3.505069e+01 2.846747e+01 2.808865e+01 1.675060e+01
<GCONST> 6.829132e+01
<STATE> 6
<MEAN> 13
 -2.874278e+01 8.401265e+00 -3.859019e-01 -5.964022e+00 -2.856099e+00 -5.075197e+00 -1.497858e+00 -5.254664e+00 -3.652611e+00 -5.994707e-01 -1.306090e+00 -7.857260e-01 6.926407e+01
<VARIANCE> 13
 1.091525e+01 2.044343e+01 3.098006e+01 2.703884e+01 1.941820e+01 2.931414e+01 4.299384e+01 3.484607e+01 2.678201e+01 2.094066e+01 2.437165e+01 1.751724e+01 1.881957e+01
<GCONST> 6.500805e+01
<STATE> 7
<MEAN> 13
 -1.725593e+01 1.106860e+01 1.051603e+01 -2.586138e+00 -4.548882e+00 -6.976656e+00 -5.551307e+00 -8.026526e+00 -7.508922e+00 -4.282694e+00 -2.834846e+00 -1.133852e+00 7.046602e+01
<VARIANCE> 13
 2.390968e+01 1.761582e+01 1.957050e+01 1.895576e+01 2.732624e+01 2.673147e+01 3.271160e+01 3.606012e+01 2.060556e+01 1.789988e+01 1.924581e+01 1.618620e+01 2.502852e+01
<GCONST> 6.439005e+01
<STATE> 8
<MEAN> 13
 -1.119670e+01 6.406322e+00 1.272270e+01 -4.140600e+00 -1.316450e+01 -9.483020e+00 -1.163079e+01 -1.288924e+01 -1.050540e+01 -4.716229e+00 -9.079430e-01 -9.954975e-01 7.342450e+01
<VARIANCE> 13
 1.285604e+01 1.542026e+01 3.791889e+01 4.405161e+01 2.199086e+01 4.715967e+01 4.575830e+01 5.672357e+01 2.654067e+01 4.042917e+01 2.359636e+01 5.800204e+01 1.550496e+01
<GCONST> 6.834939e+01
<STATE> 9
<MEAN> 13
 -7.167132e+00 1.024871e+00 1.950268e+01 -5.193803e+00 -1.693585e+01 -4.350954e+00 -1.645932e+01 -6.832793e+00 -1.320499e+01 -5.501730e+00 3.233263e+00 -2.301259e+00 7.355006e+01
<VARIANCE> 13
 1.080458e+01 2.210217e+01 2.356843e+01 5.571923e+01 2.565715e+01 4.618711e+01 3.440585e+01 4.926788e+01 4.832029e+01 5.401573e+01 2.471091e+01 2.022758e+01 1.112771e+01
<GCONST> 6.755217e+01
<STATE> 10
<MEAN> 13
 -8.341113e+00 2.168269e+00 1.127262e+01 -1.258106e+01 -1.440385e+01 -7.529658e+00 -1.707020e+01 -1.020020e+01 -1.264484e+01 -3.662967e+00 -7.358473e+00 -3.651856e+00 6.491853e+01
<VARIANCE> 13
 2.106417e+01 2.824281e+01 2.474771e+01 1.086562e+02 2.979414e+01 3.781836e+01 5.590712e+01 4.090307e+01 2.558481e+01 2.648784e+01 9.479301e+01 3.805953e+01 3.803645e+01
<GCONST> 7.128781e+01
<STATE> 11
<MEAN> 13
 -6.151678e+00 2.335179e+00 7.329270e+00 -1.348010e+00 -5.751895e+00 -2.136697e+00 -6.612630e+00 -5.383774e+00 -5.297863e+00 -2.556617e+00 -2.035773e+00 -2.816603e+00 5.971323e+01
<VARIANCE> 13
 1.725452e+01 3.142784e+01 5.172223e+01 4.452007e+01 4.343601e+01 3.720957e+01 4.215746e+01 3.410054e+01 3.153094e+01 2.770590e+01 2.663063e+01 2.071710e+01 4.525797e+01
<GCONST> 6.948660e+01
<TRANSP> 12
 0.000000e+00 1.000000e+00 0.000000e+00 0.000000e+00 0.000000e+00 0.000000e+00 0.000000e+00 0.000000e+00 0.000000e+00 0.000000e+00 0.000000e+00 0.000000e+00
 0.000000e+00 7.222871e-01 2.777129e-01 0.000000e+00 0.000000e+00 0.000000e+00 0.000000e+00 0.000000e+00 0.000000e+00 0.000000e+00 0.000000e+00 0.000000e+00
 0.000000e+00 0.000000e+00 8.766840e-01 1.233160e-01 0.000000e+00 0.000000e+00 0.000000e+00 0.000000e+00 0.000000e+00 0.000000e+00 0.000000e+00 0.000000e+00
 0.000000e+00 0.000000e+00 0.000000e+00 8.295129e-01 1.704871e-01 0.000000e+00 0.000000e+00 0.000000e+00 0.000000e+00 0.000000e+00 0.000000e+00 0.000000e+00
 0.000000e+00 0.000000e+00 0.000000e+00 0.000000e+00 7.050806e-01 2.949195e-01 0.000000e+00 0.000000e+00 0.000000e+00 0.000000e+00 0.000000e+00 0.000000e+00
 0.000000e+00 0.000000e+00 0.000000e+00 0.000000e+00 0.000000e+00 8.678512e-01 1.321488e-01 0.000000e+00 0.000000e+00 0.000000e+00 0.000000e+00 0.000000e+00
 0.000000e+00 0.000000e+00 0.000000e+00 0.000000e+00 0.000000e+00 0.000000e+00 3.314607e-01 6.685393e-01 0.000000e+00 0.000000e+00 0.000000e+00 0.000000e+00
 0.000000e+00 0.000000e+00 0.000000e+00 0.000000e+00 0.000000e+00 0.000000e+00 0.000000e+00 5.277778e-01 4.722222e-01 0.000000e+00 0.000000e+00 0.000000e+00
 0.000000e+00 0.000000e+00 0.000000e+00 0.000000e+00 0.000000e+00 0.000000e+00 0.000000e+00 0.000000e+00 8.917690e-01 1.082310e-01 0.000000e+00 0.000000e+00
 0.000000e+00 0.000000e+00 0.000000e+00 0.000000e+00 0.000000e+00 0.000000e+00 0.000000e+00 0.000000e+00 0.000000e+00 7.890071e-01 2.109929e-01 0.000000e+00
 0.000000e+00 0.000000e+00 0.000000e+00 0.000000e+00 0.000000e+00 0.000000e+00 0.000000e+00 0.000000e+00 0.000000e+00 0.000000e+00 7.930435e-01 2.069565e-01
 0.000000e+00 0.000000e+00 0.000000e+00 0.000000e+00 0.000000e+00 0.000000e+00 0.000000e+00 0.000000e+00 0.000000e+00 0.000000e+00 0.000000e+00 0.000000e+00
<ENDHMM>
