~o
<STREAMINFO> 1 13
<VECSIZE> 13<NULLD><MFCC_0><DIAGC>
~h "sil"
<BEGINHMM>
<NUMSTATES> 6
<STATE> 2
<MEAN> 13
 -6.570323e+00 -3.974115e+00 1.096433e+00 -5.689504e+00 -1.644445e-01 -5.475754e+00 4.870999e+00 -2.560402e+00 2.216341e+00 4.539128e-01 -3.467173e+00 -1.632360e-01 5.601080e+01
<VARIANCE> 13
 1.915142e+00 4.979104e+00 6.018169e+00 1.165295e+01 1.381684e+01 1.575394e+01 1.476475e+01 2.482795e+01 1.895142e+01 2.518739e+01 1.809114e+01 1.417005e+01 8.264903e-01
<GCONST> 5.320919e+01
<STATE> 3
<MEAN> 13
 -7.770666e+00 -3.146053e+00 5.754200e-01 -3.713061e+00 -1.358536e+00 -6.557591e+00 1.876218e+00 -4.528139e+00 9.535199e-01 8.001228e-01 -4.820329e+00 9.642167e-01 5.661940e+01
<VARIANCE> 13
 9.518384e+00 1.319240e+01 1.907557e+01 1.463583e+01 1.334478e+01 3.019812e+01 7.417420e+00 1.824899e+01 7.131510e+00 3.884979e+01 7.310325e+00 1.643347e+01 2.007653e+00
<GCONST> 5.637380e+01
<STATE> 4
<MEAN> 13
 -1.286237e+01 1.321247e+00 -5.476686e+00 1.049077e+00 -4.249856e+00 -1.993316e+00 -6.095201e-01 9.796579e-01 -1.699609e+00 -1.793247e+00 -1.345062e+00 -1.542230e+00 5.942128e+01
<VARIANCE> 13
 2.258921e+01 2.180082e+01 2.799701e+01 2.486017e+01 2.895700e+01 2.463895e+01 1.828385e+01 2.823497e+01 1.950821e+01 1.785055e+01 2.714801e+01 1.583596e+01 7.069455e+00
<GCONST> 6.332615e+01
<STATE> 5
<MEAN> 13
 -6.202634e+00 -3.713299e+00 1.294155e+00 -4.575840e+00 1.293731e+00 -5.050377e+00 4.772559e+00 -2.075614e+00 8.178502e-01 -6.575902e-01 -4.057810e+00 -8.058597e-01 5.635422e+01
<VARIANCE> 13
 5.688340e+00 9.492613e+00 9.139002e+00 6.557792e+00 1.744689e+01 1.596686e+01 1.822641e+01 3.569989e+01 3.623510e+01 1.769580e+01 1.847341e+01 1.219467e+01 2.448012e+00
<GCONST> 5.685820e+01
<TRANSP> 6
 0.000000e+00 1.000000e+00 0.000000e+00 0.000000e+00 0.000000e+00 0.000000e+00
 0.000000e+00 8.751833e-01 1.248167e-01 0.000000e+00 0.000000e+00 0.000000e+00
 0.000000e+00 0.000000e+00 0.000000e+00 1.000000e+00 0.000000e+00 0.000000e+00
 0.000000e+00 0.000000e+00 0.000000e+00 6.247941e-01 3.752060e-01 0.000000e+00
 0.000000e+00 0.000000e+00 0.000000e+00 0.000000e+00 4.866709e-01 5.133291e-01
 0.000000e+00 0.000000e+00 0.000000e+00 0.000000e+00 0.000000e+00 0.000000e+00
<ENDHMM>
