~o
<STREAMINFO> 1 26
<VECSIZE> 26<NULLD><MFCC_D_0><DIAGC>
~h "lx"
<BEGINHMM>
<NUMSTATES> 12
<STATE> 2
<MEAN> 26
 -3.857598e+00 2.550979e+00 1.222106e+01 -1.233822e+00 -8.268028e+00 -5.699780e+00 -1.060007e+01 -3.369186e+00 -8.126946e+00 -2.441626e+00 -1.842489e+00 -1.398877e+00 6.576632e+01 2.089668e-01 -2.556968e-02 1.719306e+00 -8.036272e-01 -2.183550e+00 -5.883592e-02 -6.840564e-01 2.426195e-01 -8.208324e-01 1.284451e-01 9.491785e-01 1.086550e-01 2.262936e+00
<VARIANCE> 26
 1.402353e+01 3.043030e+01 5.247797e+01 6.719888e+01 7.581974e+01 4.983541e+01 5.980020e+01 5.124917e+01 4.421933e+01 4.001274e+01 4.998621e+01 2.966918e+01 5.665512e+01 2.060442e+00 3.196984e+00 3.908361e+00 4.307294e+00 4.680690e+00 4.553596e+00 4.769566e+00 4.353320e+00 3.199122e+00 3.911161e+00 3.805033e+00 2.972533e+00 1.797343e+00
<GCONST> 1.134309e+02
<STATE> 3
<MEAN> 26
 -3.611247e+00 3.132874e+00 1.521990e+01 -5.287633e+00 -1.561020e+01 -5.323654e-01 -1.078503e+01 -4.042916e+00 -1.099970e+01 -5.059444e-01 3.960430e+00 -4.124024e+00 7.275880e+01 4.509166e-02 6.504995e-01 -4.174497e-01 -1.988554e-01 4.799572e-01 4.239651e-01 1.244909e-01 -7.045597e-01 -2.551862e-01 4.208487e-01 -2.578207e-01 -5.235648e-01 -1.730416e-01
<VARIANCE> 26
 1.239718e+01 2.663025e+01 4.820776e+01 7.864100e+01 3.666773e+01 6.357011e+01 5.595089e+01 6.327740e+01 5.050710e+01 4.766451e+01 3.473373e+01 3.685393e+01 1.193711e+01 3.777595e-01 7.281973e-01 1.186841e+00 1.506334e+00 1.571905e+00 2.374161e+00 2.201786e+00 2.104605e+00 2.163834e+00 1.648887e+00 1.762949e+00 1.638016e+00 2.798317e-01
<GCONST> 9.837092e+01
<STATE> 4
<MEAN> 26
 -4.239925e+00 7.409280e+00 9.145338e+00 -9.978610e+00 -1.240848e+01 -3.541656e+00 -1.399674e+01 -1.024878e+01 -1.154460e+01 7.922889e-02 -6.171955e+00 -3.812345e+00 6.850047e+01 -7.738349e-01 1.333381e+00 -7.692671e-01 8.524975e-01 1.041456e+00 -6.969162e-01 1.119221e+00 -4.230200e-01 5.525410e-01 -6.792104e-01 -8.549997e-02 4.329378e-01 -3.605496e-01
<VARIANCE> 26
 1.458971e+01 2.260205e+01 3.680751e+01 1.107477e+02 4.199269e+01 4.249901e+01 9.435136e+01 5.961429e+01 3.509972e+01 6.085718e+01 9.984318e+01 3.923405e+01 2.733143e+01 2.826811e+00 1.602544e+00 2.466489e+00 3.304750e+00 3.666969e+00 2.952263e+00 4.398148e+00 2.657120e+00 2.767719e+00 2.404490e+00 3.144778e+00 2.722661e+00 4.882873e-01
<GCONST> 1.090410e+02
<STATE> 5
<MEAN> 26
 -1.627867e+01 1.459065e+01 6.461298e+00 1.436792e-02 -2.957617e+00 -4.488350e+00 -3.810781e-01 -7.908262e+00 -6.226091e+00 -3.046917e+00 -1.619478e+00 -1.683014e+00 6.981589e+01 -4.287731e+00 1.698452e-01 -1.865650e+00 3.279767e-01 1.938707e+00 1.207939e-01 1.428783e+00 8.956039e-01 1.604262e+00 2.493746e-03 -4.241793e-01 4.362760e-01 -5.922502e-02
<VARIANCE> 26
 4.873237e+01 1.688114e+01 3.055875e+01 4.058631e+01 3.885222e+01 3.220122e+01 4.336863e+01 4.239850e+01 2.966664e+01 3.198909e+01 3.448439e+01 2.327917e+01 1.980321e+01 1.798853e+00 4.322255e+00 2.542356e+00 4.035688e+00 4.135055e+00 3.214976e+00 4.387526e+00 3.224371e+00 3.037778e+00 3.294699e+00 2.993439e+00 2.668854e+00 4.647956e-01
<GCONST> 1.060298e+02
<STATE> 6
<MEAN> 26
 -2.896591e+01 8.924766e+00 -8.720006e-01 -5.746698e+00 -2.672384e+00 -5.255188e+00 -1.838376e+00 -5.320155e+00 -3.652242e+00 -6.408544e-01 -1.306497e+00 -8.295144e-01 6.947174e+01 -4.155335e-01 -8.264357e-01 -6.633051e-02 -6.577229e-01 -2.847891e-01 -4.940964e-02 -1.796714e-01 1.213400e-01 4.031138e-02 1.024353e-01 1.245685e-02 1.040718e-01 -1.019421e-01
<VARIANCE> 26
 1.106402e+01 1.973215e+01 3.060682e+01 2.891321e+01 1.862823e+01 2.952289e+01 4.344858e+01 3.531190e+01 2.730281e+01 2.153209e+01 2.510846e+01 1.779492e+01 1.881716e+01 1.825447e+00 1.036670e+00 2.537739e+00 1.641035e+00 1.693703e+00 1.769599e+00 1.650846e+00 1.750401e+00 1.998600e+00 1.913970e+00 1.752253e+00 1.601246e+00 2.388085e-01
<GCONST> 9.417979e+01
<STATE> 7
<MEAN> 26
 -2.113977e+01 8.338180e+00 6.790095e+00 -4.426769e+00 -5.053853e+00 -6.110747e+00 -3.837381e+00 -7.070715e+00 -5.886841e+00 -3.154612e+00 -2.219428e+00 -9.670757e-01 6.942205e+01 4.404788e+00 -9.221129e-02 3.527135e+00 5.314235e-01 -2.358152e+00 -9.477666e-01 -2.917409e+00 -1.319127e+00 -1.962153e+00 -1.233496e+00 1.374508e-01 -1.185451e-01 8.748803e-01
<VARIANCE> 26
 4.788903e+01 2.440426e+01 4.431206e+01 2.714786e+01 3.374937e+01 3.486356e+01 4.620564e+01 4.181845e+01 2.963889e+01 2.481400e+01 2.036217e+01 1.904532e+01 2.194107e+01 1.723302e+00 2.875925e+00 3.246879e+00 3.580741e+00 3.428843e+00 3.024847e+00 3.224974e+00 3.007139e+00 3.005610e+00 2.313346e+00 2.971360e+00 1.997103e+00 7.530854e-01
<GCONST> 1.043284e+02
<STATE> 8
<MEAN> 26
 -1.004783e+01 3.716895e+00 1.549322e+01 -5.665827e+00 -1.377404e+01 -6.320737e+00 -1.493854e+01 -9.811281e+00 -1.209137e+01 -5.311698e+00 -7.739770e-01 -4.129402e-01 7.343640e+01 1.604421e+00 -1.681066e+00 1.541478e+00 -5.376601e-01 -1.712728e+00 6.810397e-01 -2.060757e+00 2.557860e-01 -9.665570e-01 -4.136405e-01 6.141295e-01 -3.761782e-01 6.978197e-01
<VARIANCE> 26
 1.366057e+01 2.737316e+01 3.508193e+01 6.000373e+01 2.918928e+01 3.864313e+01 4.643689e+01 6.807460e+01 3.608200e+01 4.305801e+01 4.098761e+01 4.522007e+01 1.715671e+01 1.768631e+00 1.213460e+00 2.478830e+00 1.964287e+00 3.602183e+00 2.586545e+00 3.599475e+00 2.183575e+00 2.471960e+00 2.458501e+00 3.043141e+00 2.537023e+00 6.164239e-01
<GCONST> 1.041682e+02
<STATE> 9
<MEAN> 26
 -8.643239e+00 1.096803e+00 1.829039e+01 -9.036244e+00 -1.628316e+01 -4.883816e+00 -1.732755e+01 -8.145054e+00 -1.355173e+01 -5.214785e+00 1.292132e-01 -3.044311e+00 7.301546e+01 2.073071e-01 -4.684463e-02 5.627173e-02 -1.352701e-01 -2.078815e-01 1.821791e-01 -5.150378e-02 1.199469e-01 -6.121509e-03 1.333579e-01 7.633228e-02 -1.763903e-01 -1.946297e-01
<VARIANCE> 26
 1.353590e+01 2.508943e+01 3.536535e+01 8.470824e+01 2.451855e+01 3.883219e+01 3.483284e+01 4.198304e+01 3.936665e+01 4.540820e+01 7.570490e+01 2.639889e+01 1.902065e+01 1.111576e-01 2.420417e-01 4.323033e-01 5.544450e-01 5.703060e-01 6.325495e-01 7.940628e-01 6.130559e-01 5.706415e-01 7.696233e-01 5.802897e-01 5.154839e-01 1.207880e-01
<GCONST> 8.287155e+01
<STATE> 10
<MEAN> 26
 -5.547028e+00 3.531793e+00 1.465274e+01 -4.087548e+00 -1.492665e+01 -6.135888e+00 -1.401951e+01 -7.607787e+00 -1.115724e+01 -4.225310e+00 -8.946041e-01 -2.982177e+00 6.869884e+01 5.085367e-01 3.627709e-01 -8.798072e-01 9.048545e-01 1.031084e+00 -2.639553e-01 9.979373e-01 1.871805e-01 5.104295e-01 2.588923e-01 -6.497791e-01 2.041660e-02 -1.290774e+00
<VARIANCE> 26
 1.275501e+01 2.882338e+01 3.545413e+01 8.699014e+01 4.671466e+01 7.456336e+01 6.332465e+01 5.443650e+01 4.670875e+01 4.966415e+01 5.957724e+01 3.004201e+01 2.628322e+01 7.138308e-01 1.027889e+00 1.336724e+00 2.147925e+00 2.891116e+00 2.172483e+00 2.817047e+00 2.203217e+00 2.208306e+00 1.924918e+00 2.406364e+00 1.494908e+00 9.825102e-01
<GCONST> 1.036529e+02
<STATE> 11
<MEAN> 26
 -6.860905e+00 1.467736e+00 6.824831e+00 -3.160306e+00 -6.768404e+00 -3.935562e+00 -8.018068e+00 -6.523055e+00 -6.411713e+00 -2.886076e+00 -1.966712e+00 -2.351276e+00 5.874508e+01 -5.515229e-01 -8.847876e-01 -1.101781e+00 -5.290434e-01 3.274181e-01 2.132459e-01 3.817682e-01 2.643356e-01 4.250659e-01 2.587965e-01 2.902537e-01 2.058905e-01 -6.133912e-01
<VARIANCE> 26
 1.616711e+01 2.799288e+01 4.577105e+01 5.017378e+01 4.925131e+01 4.509431e+01 4.803396e+01 4.114904e+01 3.423196e+01 2.594688e+01 3.846678e+01 2.142233e+01 4.078154e+01 9.368631e-01 1.344098e+00 2.452039e+00 2.677186e+00 4.286714e+00 2.611899e+00 3.125854e+00 2.830695e+00 2.551060e+00 2.340108e+00 3.041598e+00 1.806279e+00 1.852742e+00
<GCONST> 1.049604e+02
<TRANSP> 12
 0.000000e+00 1.000000e+00 0.000000e+00 0.000000e+00 0.000000e+00 0.000000e+00 0.000000e+00 0.000000e+00 0.000000e+00 0.000000e+00 0.000000e+00 0.000000e+00
 0.000000e+00 8.061553e-01 1.938447e-01 0.000000e+00 0.000000e+00 0.000000e+00 0.000000e+00 0.000000e+00 0.000000e+00 0.000000e+00 0.000000e+00 0.000000e+00
 0.000000e+00 0.000000e+00 8.617090e-01 1.382910e-01 0.000000e+00 0.000000e+00 0.000000e+00 0.000000e+00 0.000000e+00 0.000000e+00 0.000000e+00 0.000000e+00
 0.000000e+00 0.000000e+00 0.000000e+00 7.907218e-01 2.092783e-01 0.000000e+00 0.000000e+00 0.000000e+00 0.000000e+00 0.000000e+00 0.000000e+00 0.000000e+00
 0.000000e+00 0.000000e+00 0.000000e+00 0.000000e+00 7.350218e-01 2.649781e-01 0.000000e+00 0.000000e+00 0.000000e+00 0.000000e+00 0.000000e+00 0.000000e+00
 0.000000e+00 0.000000e+00 0.000000e+00 0.000000e+00 0.000000e+00 8.364974e-01 1.635026e-01 0.000000e+00 0.000000e+00 0.000000e+00 0.000000e+00 0.000000e+00
 0.000000e+00 0.000000e+00 0.000000e+00 0.000000e+00 0.000000e+00 0.000000e+00 6.686090e-01 3.313910e-01 0.000000e+00 0.000000e+00 0.000000e+00 0.000000e+00
 0.000000e+00 0.000000e+00 0.000000e+00 0.000000e+00 0.000000e+00 0.000000e+00 0.000000e+00 6.462866e-01 3.537134e-01 0.000000e+00 0.000000e+00 0.000000e+00
 0.000000e+00 0.000000e+00 0.000000e+00 0.000000e+00 0.000000e+00 0.000000e+00 0.000000e+00 0.000000e+00 8.616995e-01 1.383005e-01 0.000000e+00 0.000000e+00
 0.000000e+00 0.000000e+00 0.000000e+00 0.000000e+00 0.000000e+00 0.000000e+00 0.000000e+00 0.000000e+00 0.000000e+00 8.243867e-01 1.756134e-01 0.000000e+00
 0.000000e+00 0.000000e+00 0.000000e+00 0.000000e+00 0.000000e+00 0.000000e+00 0.000000e+00 0.000000e+00 0.000000e+00 0.000000e+00 8.050708e-01 1.949292e-01
 0.000000e+00 0.000000e+00 0.000000e+00 0.000000e+00 0.000000e+00 0.000000e+00 0.000000e+00 0.000000e+00 0.000000e+00 0.000000e+00 0.000000e+00 0.000000e+00
<ENDHMM>
