~o
<STREAMINFO> 1 39
<VECSIZE> 39<NULLD><MFCC_D_A_0><DIAGC>
~h "hello"
<BEGINHMM>
<NUMSTATES> 10
<STATE> 2
<MEAN> 39
 -1.082461e+01 -1.490517e+01 -6.830724e+00 -2.426987e+01 1.930730e+01 8.033299e+00 -2.947926e-01 -1.870072e+01 1.595462e+01 -6.166000e+00 3.835418e+00 -6.813679e+00 6.687758e+01 1.362997e+00 5.479394e-02 3.386864e-01 1.760088e-01 2.619601e-01 -9.938502e-01 7.624667e-01 4.746147e-01 -2.098602e+00 3.574801e-01 -1.646592e+00 1.289976e-01 1.627293e+00 4.020119e-01 1.317334e-01 1.146054e-01 -5.733407e-02 -1.718454e-01 3.878957e-02 -2.576543e-01 1.823937e-01 -6.536392e-01 3.254417e-01 -3.768461e-01 6.266946e-01 -1.963932e-01
<VARIANCE> 39
 2.664154e+01 2.865650e+01 1.512831e+01 1.636242e+01 1.661728e+01 3.420288e+01 1.936536e+01 2.763636e+01 4.601478e+01 1.783713e+01 4.077233e+01 1.128931e+01 9.305796e+00 4.196082e+00 5.285126e+00 3.779729e+00 2.997869e+00 2.623842e+00 2.932474e+00 2.587809e+00 3.687953e+00 4.868629e+00 1.680919e+00 1.935548e+00 4.179423e+00 1.284075e+00 4.913461e-01 9.358048e-01 7.173822e-01 7.805429e-01 4.202871e-01 7.806784e-01 2.950960e-01 9.052438e-01 4.517955e-01 3.527835e-01 1.916631e-01 6.455374e-01 5.996920e-01
<GCONST> 1.175617e+02
<STATE> 3
<MEAN> 39
 1.911518e+00 -1.403993e+01 -3.249887e+00 -2.611966e+01 1.579547e+01 3.209869e+00 1.500410e+00 -1.199403e+01 -9.660562e-01 1.298957e+00 -1.025463e+01 -6.170229e-01 7.680964e+01 8.696613e-01 -8.170117e-01 -1.305523e-01 1.029792e+00 -1.642632e+00 -2.692419e-01 5.910035e-01 7.443281e-01 -5.083049e-01 7.842416e-01 -7.065676e-01 6.243170e-02 3.927194e-01 -1.098207e-01 -1.817829e-01 -1.961019e-01 6.855463e-01 -1.761213e-01 -2.573513e-01 1.449156e-01 -1.403699e-02 5.119711e-01 -2.585330e-01 3.049689e-01 -1.508079e-01 -3.288791e-01
<VARIANCE> 39
 4.986841e+00 6.018951e+00 1.982798e+00 2.346031e+01 4.941429e+01 2.022852e+01 1.479740e+01 9.174150e+00 4.691168e+00 6.533778e+00 9.562298e+00 1.075607e+01 2.757937e+00 2.106417e-01 7.633884e-01 4.212952e-01 4.186478e+00 1.501262e+00 1.325285e+00 1.634298e+00 1.302789e+00 1.862391e+00 1.148430e+00 1.198166e+00 2.331740e+00 6.922742e-01 1.670363e-01 1.299898e-01 1.375504e-01 1.477485e-01 2.227458e-01 6.397468e-01 4.136374e-01 4.202811e-01 2.943668e-01 1.262054e-01 1.344498e-01 6.934374e-01 7.301679e-02
<GCONST> 8.170441e+01
<STATE> 4
<MEAN> 39
 9.041720e+00 -1.777753e+01 -6.619692e+00 -3.949773e+00 6.000335e+00 -1.656544e+01 5.322715e+00 -4.424195e+00 4.974201e+00 -7.194891e-02 -1.415101e+01 7.552773e+00 7.350557e+01 6.615161e-01 7.326290e-01 -1.923226e-01 2.391397e+00 5.239406e-01 -4.588138e+00 3.652199e-03 9.726436e-01 2.322395e-01 1.297120e-01 -1.268513e+00 2.463712e+00 -1.035278e+00 -1.811668e-01 2.694521e-01 3.034583e-01 -6.352127e-01 3.045779e-01 2.761101e-01 -1.734870e-01 -1.346974e-01 -6.384759e-01 3.035758e-01 -4.594379e-02 -2.712812e-01 -6.042603e-02
<VARIANCE> 39
 4.128127e+00 1.391483e+01 5.392219e+00 4.119783e+01 3.410080e+01 1.497020e+02 1.254102e+01 1.403077e+01 2.752382e+01 2.298054e+01 2.109746e+01 5.146927e+01 1.014972e+01 5.807213e-01 1.183206e+00 1.756107e+00 4.392643e+00 1.455750e+00 2.351926e+00 1.684241e+00 2.468895e+00 8.811800e+00 4.277129e+00 1.384894e+00 2.107751e+00 2.509845e-01 5.578680e-02 2.548689e-01 2.394539e-01 3.587924e-01 4.606187e-01 1.316169e+00 5.679716e-01 4.709384e-01 1.576087e+00 6.648642e-01 4.561856e-01 1.143813e+00 5.394031e-02
<GCONST> 1.061883e+02
<STATE> 5
<MEAN> 39
 9.089283e+00 -1.315988e+01 6.414842e-01 -5.799798e+00 7.047599e+00 -2.468159e+01 2.898439e+00 -1.905262e+00 -3.239249e+00 8.198012e+00 -1.983601e+01 7.286165e+00 6.958316e+01 -6.000622e-01 -4.212884e-02 1.848887e+00 -3.281670e+00 -6.891685e-01 3.230255e+00 -1.057086e+00 -6.264336e-01 1.039208e+00 1.092455e+00 -1.343791e-01 -2.457659e+00 5.876076e-01 -3.626606e-02 -1.147918e-02 -1.773549e-01 -6.596907e-01 2.068497e-01 6.410193e-01 1.303713e-01 -7.367925e-01 1.315834e+00 -3.367865e-01 2.334758e-01 -1.364039e-01 2.183037e-01
<VARIANCE> 39
 8.814079e+00 1.842611e+01 2.683909e+01 5.948344e+01 3.665511e+01 1.077437e+02 2.644639e+01 7.472682e+00 2.905758e+01 1.451512e+01 2.242231e+01 2.765407e+01 1.877337e+01 4.097281e-01 1.408423e+00 2.094168e+00 5.944086e+00 5.825098e+00 6.380461e+00 1.726603e+00 3.528975e+00 1.643640e+01 1.074722e+00 2.669590e+00 7.782768e-01 1.178220e+00 1.288102e-01 4.475337e-01 6.357093e-01 7.719866e-01 1.573079e+00 2.413905e+00 6.237901e-01 3.001615e-01 1.626575e+00 1.317347e-01 7.777368e-01 5.333709e-01 3.145440e-01
<GCONST> 1.167951e+02
<STATE> 6
<MEAN> 39
 1.124098e+01 -6.669353e+00 2.000942e+00 -1.967733e+01 7.478339e+00 -5.157759e+00 2.565878e+00 -1.485132e+01 7.207576e+00 5.022897e+00 -1.135046e+01 3.523684e+00 6.773240e+01 7.623650e-01 6.889580e-01 -7.371413e-01 7.873393e-01 -6.732692e-02 9.806796e-01 1.989033e-01 -2.522118e-01 -4.127721e-01 -6.965669e-01 1.306909e+00 2.499336e-01 -8.621274e-01 8.704288e-02 -1.654727e-02 -1.726455e-01 4.346662e-01 -2.166991e-01 -5.650002e-02 -7.664572e-02 3.884939e-01 -2.743269e-01 -4.185824e-02 -8.939412e-02 1.720154e-01 -1.494092e-01
<VARIANCE> 39
 2.349659e+01 3.164399e+01 1.425484e+01 1.789745e+02 2.616975e+01 4.366687e+01 1.995592e+01 8.664752e+01 5.517089e+01 3.701421e+01 2.943846e+01 3.879490e+01 1.570474e+01 5.944347e-01 4.749254e+00 8.677225e-01 1.300885e+01 3.658662e+00 5.577375e+00 1.716850e+00 8.875839e+00 3.687587e+00 2.191204e+00 2.021802e+00 4.433626e+00 5.474308e-01 1.015102e-01 6.630763e-01 2.521828e-01 1.155269e+00 5.968455e-01 8.859762e-01 3.070544e-01 6.275386e-01 8.963960e-01 4.341029e-01 4.383610e-01 7.848119e-01 1.051412e-01
<GCONST> 1.204482e+02
<STATE> 7
<MEAN> 39
 1.934488e+01 -5.838575e-01 -1.473200e+01 -9.523382e+00 8.983622e+00 1.065959e+00 -3.927213e+00 -3.497229e+00 3.359054e+00 -1.303738e+00 -5.030232e+00 7.719316e-02 5.619281e+01 4.476067e-01 2.524936e-01 -1.010630e+00 1.423748e-01 -1.559814e-01 5.742394e-01 -8.233387e-01 4.332012e-02 3.484082e-01 -1.096903e+00 -1.044736e+00 2.171049e-01 -4.382817e-01 -9.227923e-02 -3.301746e-01 3.240657e-01 3.083221e-01 -7.962960e-02 -2.310912e-01 3.594616e-03 8.015326e-02 -1.674609e-01 -7.084949e-02 -6.798211e-02 -2.828548e-02 2.527014e-01
<VARIANCE> 39
 1.504522e+01 1.600798e+01 7.491376e+01 2.008788e+02 1.873431e+01 3.025923e+01 2.873826e+01 1.197679e+02 8.638109e+00 9.275039e+00 3.467535e+01 2.528070e+01 2.734919e+01 2.389506e-01 2.215423e+00 2.617269e+00 4.049540e+00 4.186042e+00 4.104849e+00 6.987341e-01 5.371077e+00 1.386719e+00 1.711420e+00 1.046057e+00 1.553167e+00 9.467871e-01 4.590058e-02 7.521565e-02 1.416236e-01 3.386868e-01 1.681794e-01 6.468909e-01 1.951955e-01 1.086622e+00 9.334271e-02 3.744998e-01 5.863327e-01 1.673426e-01 3.589248e-02
<GCONST> 1.014413e+02
<STATE> 8
<MEAN> 39
 1.879854e+01 -3.582332e+00 -1.292201e+01 -2.891231e+00 4.136570e+00 1.268347e+00 6.285666e-01 -1.658138e+00 1.961138e-01 -4.003695e+00 -5.936060e+00 2.490346e+00 5.630262e+01 -4.550839e-03 1.346508e+00 -4.315349e-01 -4.141928e-01 -6.874224e-01 4.453616e-01 5.768831e-01 9.781030e-01 -3.620931e-01 -3.118821e-02 7.056311e-01 1.824751e-04 -1.187622e+00 -7.901841e-02 3.841085e-01 7.122479e-02 -2.674615e-01 5.693510e-02 -5.053026e-03 8.936795e-02 -1.520320e-01 -2.616342e-02 6.539862e-02 1.555059e-01 -9.727524e-02 -1.628660e-01
<VARIANCE> 39
 1.185919e+01 7.336460e+01 9.059301e+01 2.678818e+02 6.318662e+01 3.861164e+01 2.580906e+01 7.499358e+01 2.008515e+01 1.632148e+01 4.827697e+01 4.862472e+01 2.012476e+01 3.927384e-01 5.112311e+00 1.916799e+00 7.972667e+00 1.365528e+00 1.850363e+00 3.272791e+00 2.227679e+00 1.202726e+00 1.746506e+00 2.885810e+00 2.416592e+00 1.774050e+00 7.864567e-02 6.186309e-01 3.064328e-01 1.037531e+00 3.638165e-01 3.285718e-01 6.704747e-01 3.880785e-01 2.070631e-01 3.850294e-01 4.995819e-01 4.852325e-01 1.975666e-01
<GCONST> 1.168535e+02
<STATE> 9
<MEAN> 39
 1.439885e+01 1.541600e+01 -6.310147e+00 -1.286471e+01 -4.606817e+00 4.975673e+00 6.188027e+00 9.746957e-01 -1.291180e+00 -4.781607e+00 -2.866745e+00 1.849467e+00 4.443974e+01 -1.051763e+00 1.747702e+00 1.568261e+00 5.039814e-02 -9.775996e-01 -2.776900e-01 9.812719e-01 1.113517e+00 -2.384596e-01 -3.522195e-01 -3.892740e-02 -8.211192e-01 -1.300173e+00 -5.367949e-02 -3.564571e-01 -4.262858e-02 6.405735e-02 5.369657e-02 -1.673191e-01 -1.035287e-01 1.296224e-01 1.225306e-01 -1.241255e-02 -2.362074e-01 2.743860e-02 1.878136e-01
<VARIANCE> 39
 8.798816e+00 2.036440e+01 3.643373e+01 2.356220e+01 2.512900e+01 7.003281e+01 3.545804e+01 3.320500e+01 2.163716e+01 3.151360e+01 2.298737e+01 1.791984e+01 7.822674e+00 3.800706e-01 2.062772e+00 3.916073e+00 3.414217e+00 3.790014e+00 3.018998e+00 2.028417e+00 3.452067e+00 2.714386e+00 7.579290e-01 1.543275e+00 1.453777e+00 4.616381e-01 1.248750e-01 1.698580e-01 5.920628e-01 6.930779e-01 5.456036e-01 5.413858e-01 4.358790e-01 7.155079e-01 3.517986e-01 1.200664e-01 1.807559e-01 2.750422e-01 4.510400e-02
<GCONST> 1.038639e+02
<TRANSP> 10
 0.000000e+00 1.000000e+00 0.000000e+00 0.000000e+00 0.000000e+00 0.000000e+00 0.000000e+00 0.000000e+00 0.000000e+00 0.000000e+00
 0.000000e+00 8.695652e-01 1.304348e-01 0.000000e+00 0.000000e+00 0.000000e+00 0.000000e+00 0.000000e+00 0.000000e+00 0.000000e+00
 0.000000e+00 0.000000e+00 8.750000e-01 1.250000e-01 0.000000e+00 0.000000e+00 0.000000e+00 0.000000e+00 0.000000e+00 0.000000e+00
 0.000000e+00 0.000000e+00 0.000000e+00 8.571429e-01 1.428571e-01 0.000000e+00 0.000000e+00 0.000000e+00 0.000000e+00 0.000000e+00
 0.000000e+00 0.000000e+00 0.000000e+00 0.000000e+00 8.235294e-01 1.764706e-01 0.000000e+00 0.000000e+00 0.000000e+00 0.000000e+00
 0.000000e+00 0.000000e+00 0.000000e+00 0.000000e+00 0.000000e+00 9.142857e-01 8.571428e-02 0.000000e+00 0.000000e+00 0.000000e+00
 0.000000e+00 0.000000e+00 0.000000e+00 0.000000e+00 0.000000e+00 0.000000e+00 7.857143e-01 2.142857e-01 0.000000e+00 0.000000e+00
 0.000000e+00 0.000000e+00 0.000000e+00 0.000000e+00 0.000000e+00 0.000000e+00 0.000000e+00 8.928571e-01 1.071429e-01 0.000000e+00
 0.000000e+00 0.000000e+00 0.000000e+00 0.000000e+00 0.000000e+00 0.000000e+00 0.000000e+00 0.000000e+00 8.421053e-01 1.578947e-01
 0.000000e+00 0.000000e+00 0.000000e+00 0.000000e+00 0.000000e+00 0.000000e+00 0.000000e+00 0.000000e+00 0.000000e+00 0.000000e+00
<ENDHMM>
