~o
<STREAMINFO> 1 39
<VECSIZE> 39<NULLD><MFCC_D_A_0><DIAGC>
~h "world"
<BEGINHMM>
<NUMSTATES> 10
<STATE> 2
<MEAN> 39
 1.610442e+001 7.710425e+000 -1.207857e+000 -1.875746e+001 -6.745608e+000 9.652930e-001 4.523519e-001 -4.740945e+000 -6.551606e+000 -4.511520e+000 -7.456115e+000 3.084629e+000 5.567696e+001 8.675458e-001 -7.016315e-001 3.575752e-001 -4.745681e+000 3.662719e-002 8.206382e-001 -8.835620e-001 -7.106614e-001 -4.493542e-002 1.139149e+000 -1.966362e+000 1.600417e+000 3.124930e+000 -1.001946e+000 -2.952307e-001 2.979633e-001 -1.943596e-001 5.892804e-001 -1.641005e-002 -1.556626e-001 3.320762e-001 2.902728e-001 5.169474e-001 -1.238199e-001 -1.930628e-003 -1.994516e-001
<VARIANCE> 39
 3.327021e+001 1.647873e+002 3.637823e+001 1.597882e+002 5.100862e+001 7.321847e+001 2.586584e+001 2.734591e+001 2.141815e+001 4.123459e+001 7.035780e+001 5.249156e+001 7.810743e+001 1.281173e+001 8.939725e+000 7.653427e+000 7.900559e+000 6.594662e+000 6.404456e+000 3.263510e+000 2.265890e+000 3.906172e+000 5.820816e+000 7.148633e+000 3.847649e+000 5.230020e+000 1.992355e+000 1.339224e+000 1.560293e+000 1.633252e+000 1.172646e+000 1.324087e+000 6.340337e-001 4.402260e-001 7.975411e-001 9.021639e-001 1.414514e+000 1.082225e+000 8.069240e-001
<GCONST> 1.467397e+002
<STATE> 3
<MEAN> 39
 9.498231e+000 8.966392e-001 4.508206e-001 -4.579596e+001 2.482085e+000 3.929950e+000 -5.076593e+000 -2.048658e+000 -5.099252e+000 5.163250e+000 -1.941923e+001 7.815331e+000 7.088392e+001 -1.239023e+000 -1.584945e+000 -4.215285e-001 -6.913149e-001 1.474905e+000 -3.046914e-001 6.434166e-001 4.680533e-001 -8.820233e-002 -1.136409e-001 5.366775e-001 -1.106790e+000 1.511371e+000 2.022875e-001 8.842254e-002 -2.503540e-001 1.065080e+000 -3.548802e-001 2.034292e-002 5.542529e-001 -4.682001e-001 5.157240e-002 -5.791546e-001 7.269768e-001 -2.592814e-001 -3.479422e-001
<VARIANCE> 39
 6.769592e+000 1.532747e+001 9.151075e+000 2.364433e+001 3.834305e+001 2.229624e+001 2.286271e+001 2.317177e+001 7.007159e+000 1.468653e+001 3.240105e+001 2.534350e+001 1.245172e+001 4.915878e-001 7.941861e-001 7.191134e-001 8.058185e+000 4.109151e+000 1.329262e+000 3.008798e+000 3.893935e+000 1.584097e+000 3.457468e+000 4.670162e+000 8.520034e-001 8.114720e-001 6.217825e-002 1.396156e-001 1.121557e-001 7.413894e-001 4.758654e-001 2.331699e-001 3.207126e-001 5.628023e-001 4.089023e-001 4.469284e-001 4.940647e-001 3.352856e-001 8.369014e-002
<GCONST> 9.931155e+001
<STATE> 4
<MEAN> 39
 4.617033e+000 -8.035751e+000 -4.565379e+000 -3.585035e+001 3.141419e+000 2.951286e+000 5.994784e+000 -1.261843e+001 -6.181682e-001 1.500033e-001 -5.487489e+000 -1.798409e+000 7.638727e+001 -2.881891e-001 -1.167102e+000 -6.785439e-001 2.466450e+000 -5.934875e-001 -5.919973e-001 1.350812e+000 -1.924488e+000 9.452128e-001 -1.580828e-001 2.164601e+000 -1.742538e+000 2.973115e-001 1.047528e-001 -6.344999e-003 8.439085e-002 2.240802e-001 -1.434045e-001 -1.989917e-001 -2.801169e-001 3.796833e-001 -2.895848e-002 1.280315e-001 -1.252790e-001 -6.336303e-002 -1.051191e-001
<VARIANCE> 39
 3.889838e+000 1.430600e+001 1.185393e+001 4.265473e+001 1.675386e+001 1.423248e+001 4.800508e+001 8.214029e+001 2.165281e+001 1.119283e+001 3.234724e+001 2.743726e+001 7.728298e+000 1.302193e-001 3.164477e-001 3.981974e-001 1.789973e+000 1.102768e+000 2.031958e+000 1.413272e+000 3.095306e+000 1.157032e+000 1.928189e+000 1.068218e+000 1.639102e+000 1.367161e-001 3.028473e-002 6.417264e-002 6.212192e-002 1.692671e-001 1.901338e-001 2.429505e-001 3.103102e-001 7.099042e-001 2.573191e-001 3.834371e-001 1.606190e-001 2.718956e-001 2.469286e-002
<GCONST> 8.359300e+001
<STATE> 5
<MEAN> 39
 4.930546e+000 -1.576891e+001 -7.718450e+000 -1.320215e+001 -2.401608e+000 -7.439962e+000 5.445195e+000 -1.099918e+001 5.061173e+000 -2.369789e+000 3.680434e+000 -9.361162e+000 7.578908e+001 3.198386e-001 -3.110564e-001 -3.922959e-001 2.705123e+000 -1.967412e-002 -2.177433e+000 -1.177835e+000 1.082675e+000 1.423877e+000 -1.249664e+000 -3.427757e-001 1.233333e+000 -5.767279e-001 9.398671e-002 1.987453e-001 8.993132e-002 -1.923107e-001 3.177861e-001 -1.785755e-001 -1.038261e-001 -2.162149e-001 2.188315e-001 -1.118617e-001 -5.190676e-001 7.059150e-001 -1.672313e-001
<VARIANCE> 39
 5.459197e+000 8.566246e+000 6.883605e+000 5.335037e+001 9.342965e+000 3.291021e+001 3.490870e+001 4.381026e+001 2.503039e+001 3.217905e+001 1.386207e+001 2.815383e+001 7.105441e+000 2.345961e-001 7.548203e-001 6.375426e-001 1.070499e+000 1.460759e+000 1.251940e+000 9.244303e-001 1.957119e+000 1.256571e+000 1.035911e+000 1.795541e+000 3.918169e+000 2.032793e-001 3.328738e-002 8.427369e-002 1.733294e-001 1.187658e-001 1.606376e-001 1.998153e-001 2.119672e-001 3.938620e-001 1.303487e-001 1.684389e-001 1.206647e-001 1.481714e-001 1.676918e-002
<GCONST> 8.120074e+001
<STATE> 6
<MEAN> 39
 8.791528e+000 -1.537864e+001 -4.030578e+000 8.566850e-001 1.667371e+000 -2.170823e+001 -1.020981e+000 -1.133374e+001 1.277128e+001 -9.333534e+000 -8.033699e+000 8.163947e+000 6.745088e+001 -4.459521e-002 3.475775e-001 3.050511e+000 7.598725e-001 -9.458950e-002 4.040531e-001 -9.587122e-001 -5.458527e-001 -1.254773e+000 5.297000e-001 -2.400818e+000 1.188580e+000 -1.806259e+000 -6.230680e-001 3.214324e-001 6.471779e-001 -6.286980e-001 -1.802645e-001 9.757592e-001 -9.082440e-003 3.183437e-002 -7.396775e-001 5.371325e-001 2.615291e-001 -1.068572e+000 -6.210274e-002
<VARIANCE> 39
 9.404493e+000 7.162342e+000 4.551346e+001 3.217494e+001 2.216307e+001 3.069061e+001 2.659134e+001 2.302293e+001 4.367307e+001 2.567008e+001 3.268605e+001 3.031880e+001 1.808921e+001 1.541993e+000 1.155341e+000 3.348745e+000 2.939494e+000 3.434179e+000 1.081603e+001 2.391383e+000 1.940930e+000 6.337882e+000 3.237655e+000 2.720124e+000 7.072887e+000 3.970920e-001 3.658898e-001 2.887995e-001 4.654273e-001 3.824710e-001 9.150459e-001 1.265541e+000 5.958858e-001 3.260705e-001 1.063801e+000 3.269756e-001 6.643581e-001 4.818627e-001 1.086265e-001
<GCONST> 1.161210e+002
<STATE> 7
<MEAN> 39
 -5.924163e+000 -7.626821e+000 9.927456e+000 -8.991487e+000 5.590144e+000 -1.480865e+001 -6.596568e-001 -1.126280e+001 2.785610e+000 -2.187089e+000 -8.479374e+000 -9.828615e-001 6.141071e+001 -1.454250e+000 8.163459e-001 -7.840137e-001 -2.735151e+000 1.589777e+000 -1.014164e+000 7.866855e-001 2.289193e-003 7.824515e-001 5.213563e-001 8.704460e-001 -1.364599e+000 1.142934e+000 6.562512e-001 -2.932989e-001 -7.283911e-001 -1.089485e-001 1.298995e-001 -4.451681e-001 5.426805e-002 -4.475719e-002 8.045363e-001 -9.682601e-002 -2.030810e-001 2.858346e-001 4.940836e-001
<VARIANCE> 39
 5.923932e+001 3.332148e+001 5.595944e+001 6.245184e+001 5.743240e+001 7.247636e+001 6.429707e+001 3.755630e+001 3.273038e+001 3.699055e+001 9.477143e+001 5.518294e+001 4.725635e+001 1.213849e+001 4.819152e+000 1.035247e+001 3.360666e+000 4.651541e+000 1.019292e+001 8.352071e+000 4.675748e+000 8.290593e+000 4.163602e+000 1.001637e+001 4.743825e+000 8.106881e+000 1.559327e+000 8.042453e-001 1.774663e+000 6.275938e-001 9.844489e-001 2.259696e+000 2.008941e+000 9.728056e-001 6.778497e-001 8.183537e-001 2.431489e+000 6.956246e-001 1.265218e+000
<GCONST> 1.496766e+002
<STATE> 8
<MEAN> 39
 -2.118521e+000 -7.651842e+000 5.534014e-001 -2.260294e+001 1.393407e+001 -1.869234e+001 2.334078e+000 -1.606606e+001 1.969033e+001 -9.264908e-001 -1.297241e+001 -4.373928e+000 7.196642e+001 6.002173e-001 2.448636e-001 -5.826013e-001 4.060770e-001 8.601106e-001 2.156187e+000 4.937734e-001 -8.702086e-001 1.512845e+000 -7.605932e-001 -6.515894e-001 -1.760491e-001 -8.151764e-001 -2.259170e-001 3.280225e-002 -1.308492e-002 6.539448e-001 -3.648974e-002 6.777382e-001 -8.589063e-003 1.955470e-001 -6.793280e-001 -4.160649e-001 6.157292e-001 1.616266e-001 -7.894768e-001
<VARIANCE> 39
 3.349654e+000 6.237841e+000 4.442926e+000 8.311148e+000 1.477908e+001 2.590953e+001 1.711363e+001 1.525694e+001 1.758475e+001 1.751210e+001 2.173496e+001 9.473997e+000 1.115262e+001 8.365542e-001 1.013828e+000 6.612718e-001 3.824803e+000 1.120025e+000 2.512427e+000 1.777713e+000 1.484084e+000 3.305151e+000 2.998160e+000 3.938768e+000 8.854197e-001 3.138702e+000 2.804174e-001 2.646869e-001 2.569035e-001 3.936026e-001 2.129934e-001 3.477035e-001 6.085535e-001 3.069097e-001 2.759749e-001 3.884268e-001 4.676172e-001 1.566490e-001 9.450529e-002
<GCONST> 9.438282e+001
<STATE> 9
<MEAN> 39
 2.116140e+000 -3.634745e+000 -7.709223e+000 -1.152786e+001 1.723486e+001 1.163892e-001 -3.058801e+000 -1.261296e+001 1.542418e+001 -5.314921e+000 -4.305779e+000 -1.771820e+000 5.294838e+001 3.196510e-001 8.947753e-001 -9.592884e-001 1.311829e+000 -4.753973e-001 1.937509e+000 -1.140763e+000 1.163433e+000 -1.538800e+000 6.997318e-001 1.489138e+000 6.402893e-001 -2.795694e+000 -1.018623e-001 3.208727e-001 4.032670e-001 4.513823e-002 -2.660215e-001 -2.331553e-001 2.141030e-001 1.703458e-001 -2.165842e-001 2.721774e-001 -1.246041e-001 -9.239465e-002 9.983733e-002
<VARIANCE> 39
 1.603986e+001 3.739560e+001 4.448568e+001 8.246361e+001 3.175427e+001 4.064719e+001 3.780182e+001 5.013637e+001 6.500286e+001 3.344642e+001 4.273515e+001 1.820058e+001 5.696444e+001 1.583562e+000 3.556947e+000 4.426697e+000 3.299969e+000 3.095212e+000 3.740021e+000 4.189690e+000 2.866411e+000 2.529215e+000 3.803179e+000 2.921634e+000 1.322912e+000 8.588992e-001 1.739411e-001 6.011978e-001 7.225789e-001 7.152349e-001 4.375549e-001 5.548834e-001 8.445678e-001 5.966877e-001 3.872052e-001 7.704502e-001 3.853825e-001 2.673142e-001 6.700502e-002
<GCONST> 1.209789e+002
<TRANSP> 10
 0.000000e+000 1.000000e+000 0.000000e+000 0.000000e+000 0.000000e+000 0.000000e+000 0.000000e+000 0.000000e+000 0.000000e+000 0.000000e+000
 0.000000e+000 8.591549e-001 1.408451e-001 0.000000e+000 0.000000e+000 0.000000e+000 0.000000e+000 0.000000e+000 0.000000e+000 0.000000e+000
 0.000000e+000 0.000000e+000 8.461539e-001 1.538462e-001 0.000000e+000 0.000000e+000 0.000000e+000 0.000000e+000 0.000000e+000 0.000000e+000
 0.000000e+000 0.000000e+000 0.000000e+000 8.666667e-001 1.333333e-001 0.000000e+000 0.000000e+000 0.000000e+000 0.000000e+000 0.000000e+000
 0.000000e+000 0.000000e+000 0.000000e+000 0.000000e+000 8.684211e-001 1.315790e-001 0.000000e+000 0.000000e+000 0.000000e+000 0.000000e+000
 0.000000e+000 0.000000e+000 0.000000e+000 0.000000e+000 0.000000e+000 8.275862e-001 1.724138e-001 0.000000e+000 0.000000e+000 0.000000e+000
 0.000000e+000 0.000000e+000 0.000000e+000 0.000000e+000 0.000000e+000 0.000000e+000 8.666667e-001 1.333333e-001 0.000000e+000 0.000000e+000
 0.000000e+000 0.000000e+000 0.000000e+000 0.000000e+000 0.000000e+000 0.000000e+000 0.000000e+000 8.437500e-001 1.562500e-001 0.000000e+000
 0.000000e+000 0.000000e+000 0.000000e+000 0.000000e+000 0.000000e+000 0.000000e+000 0.000000e+000 0.000000e+000 8.717949e-001 1.282051e-001
 0.000000e+000 0.000000e+000 0.000000e+000 0.000000e+000 0.000000e+000 0.000000e+000 0.000000e+000 0.000000e+000 0.000000e+000 0.000000e+000
<ENDHMM>
