~o
<STREAMINFO> 1 39
<VECSIZE> 39<NULLD><MFCC_D_A_0><DIAGC>
~h "sil"
<BEGINHMM>
<NUMSTATES> 3
<STATE> 2
<MEAN> 39
 -1.129369e+001 4.427169e+000 2.415116e+000 2.635504e+000 3.235763e+000 8.732354e-001 1.927548e+000 7.763340e-001 1.936625e+000 2.440301e-001 7.306926e-001 -1.489009e-001 3.149721e+001 3.757063e-002 7.360375e-002 1.325037e-001 -1.702727e-002 1.501993e-001 -2.816215e-002 6.155169e-002 -9.236044e-003 7.296032e-002 7.747057e-003 3.904327e-002 -2.926016e-002 1.984604e-001 -1.007195e-002 -3.152166e-002 -3.496281e-002 -5.998811e-002 -3.995087e-003 -3.542951e-002 5.802173e-003 -2.349956e-002 9.085200e-003 -1.932825e-002 -4.564254e-003 -8.693313e-003 6.676193e-002
<VARIANCE> 39
 1.725864e+002 1.246555e+002 1.024885e+002 8.634129e+001 7.037241e+001 7.186000e+001 4.972722e+001 4.914692e+001 4.045799e+001 3.498298e+001 3.048220e+001 2.360735e+001 8.786208e+001 3.551128e+000 3.622855e+000 3.729762e+000 4.152730e+000 4.254106e+000 4.236891e+000 3.593799e+000 3.494242e+000 3.011888e+000 2.610769e+000 2.178651e+000 1.989799e+000 4.510800e+000 4.888482e-001 5.504962e-001 5.990740e-001 6.686938e-001 7.062093e-001 6.989599e-001 6.566182e-001 6.019617e-001 5.393279e-001 4.608282e-001 3.868369e-001 3.918240e-001 4.974799e-001
<GCONST> 1.332946e+002
<TRANSP> 3
 0.000000e+000 1.000000e+000 0.000000e+000
 0.000000e+000 9.770203e-001 2.297970e-002
 0.000000e+000 0.000000e+000 0.000000e+000
<ENDHMM>
