~o
<STREAMINFO> 1 39
<VECSIZE> 39<NULLD><MFCC_D_A_0><DIAGC>
~h "standby"
<BEGINHMM>
<NUMSTATES> 10
<STATE> 2
<MEAN> 39
 -1.546016e+001 5.929987e+000 4.649542e-001 -7.641084e+000 1.796357e+001 -1.669541e+001 1.142671e+001 -7.056387e+000 4.723587e+000 -6.045233e+000 2.085568e+000 -4.054386e+000 6.867834e+001 -1.794091e+000 -9.668047e-001 -3.881281e-001 6.823961e-002 1.723440e-002 -1.961892e-001 6.411147e-001 -9.828963e-001 3.039230e-001 -2.221497e-001 6.812057e-001 -2.181769e-001 1.908781e+000 1.041615e-001 -8.825578e-002 9.684593e-002 2.382275e-001 -2.296570e-001 3.170461e-001 -1.539839e-001 4.887719e-002 -1.876053e-003 7.934612e-002 -4.794377e-002 3.509683e-002 -6.186611e-001
<VARIANCE> 39
 2.212355e+002 4.241320e+001 3.859668e+001 2.832656e+001 5.640725e+001 3.510145e+001 2.972239e+001 3.345148e+001 2.768562e+001 2.905318e+001 2.904626e+001 1.670548e+001 7.984521e+001 1.011005e+001 5.388237e+000 4.446704e+000 6.002334e+000 6.365411e+000 7.182188e+000 3.174626e+000 2.801498e+000 2.962299e+000 3.501399e+000 3.717580e+000 2.149190e+000 7.856979e+000 1.652844e+000 1.150427e+000 9.525951e-001 9.585763e-001 1.151643e+000 1.441912e+000 7.928992e-001 6.310729e-001 6.712924e-001 7.614985e-001 8.195366e-001 5.246872e-001 6.675599e-001
<GCONST> 1.377845e+002
<STATE> 3
<MEAN> 39
 -1.469423e+001 -7.348383e+000 -1.511235e+000 -1.085781e+001 8.737454e+000 -1.252415e+001 8.236325e+000 -1.233200e+001 7.176173e+000 -5.248843e+000 3.168897e+000 -5.367801e+000 6.746711e+001 1.902780e+000 -1.397824e+000 -1.265359e-001 -2.021918e+000 -7.458328e-002 4.268394e-001 -1.229964e+000 1.892575e-001 -8.239301e-002 5.832147e-001 -1.184101e+000 -2.998991e-001 1.050999e+000 -6.438011e-002 5.292041e-002 4.858653e-004 -1.318997e-001 3.218581e-001 3.096904e-002 4.580220e-002 1.391962e-002 -1.308564e-001 1.284490e-002 -2.451473e-001 -3.325466e-002 1.972740e-001
<VARIANCE> 39
 6.776224e+001 3.643076e+001 2.589423e+001 9.265421e+001 2.224694e+001 3.061120e+001 4.926753e+001 2.361061e+001 2.506901e+001 3.090471e+001 4.487289e+001 1.412988e+001 1.515273e+002 4.275463e+000 1.993208e+000 2.657676e+000 6.639833e+000 4.372218e+000 4.752297e+000 5.299028e+000 3.231779e+000 3.593022e+000 3.116035e+000 4.951180e+000 1.462427e+000 2.699747e+001 1.123109e+000 3.746900e-001 5.696034e-001 1.441190e+000 5.832556e-001 1.032514e+000 1.209803e+000 7.856519e-001 6.916571e-001 7.388041e-001 5.983148e-001 3.218889e-001 5.055346e+000
<GCONST> 1.352392e+002
<STATE> 4
<MEAN> 39
 -2.965999e+000 -1.521850e+001 -3.615495e+000 -2.366236e+001 1.600399e+001 -8.516535e+000 9.817535e-001 -1.423576e+001 6.806006e+000 -4.646249e+000 -1.277421e+001 -5.668368e+000 8.225805e+001 1.232549e-001 6.506473e-001 2.379225e-001 8.397207e-001 3.213505e-001 -6.072816e-001 3.105233e-002 -2.681697e-001 1.978075e-001 -5.881380e-001 -7.963207e-001 5.101902e-001 -7.210099e-001 2.235464e-002 4.169751e-001 1.689586e-001 3.086170e-001 -2.881321e-001 -4.689150e-001 1.427697e-002 4.206004e-002 -7.473860e-002 6.054609e-002 2.599216e-001 3.546537e-002 -3.699733e-001
<VARIANCE> 39
 1.766020e+000 4.331445e+000 3.570927e+000 1.027951e+001 6.562262e+000 1.364708e+001 5.993707e+000 1.244357e+001 1.611817e+001 1.773879e+001 8.896300e+000 5.814522e+000 3.919749e+000 1.638748e-001 1.226397e+000 2.495033e-001 3.479122e-001 8.065680e-001 2.309264e+000 6.062797e-001 1.035661e+000 5.203150e-001 1.093697e+000 6.124204e-001 4.532694e-001 3.698394e-001 6.886141e-002 5.274907e-002 9.486809e-002 3.283252e-001 9.813192e-002 1.067322e-001 1.630466e-001 2.211356e-001 2.724535e-001 2.296684e-001 3.163432e-001 9.638946e-002 1.717175e-001
<GCONST> 6.536513e+001
<STATE> 5
<MEAN> 39
 6.695772e-001 -3.786321e+000 4.267041e+000 -1.628842e+001 1.295119e+001 -1.489716e+001 8.720936e-001 -1.516449e+001 4.021225e+000 -3.775060e+000 -9.642110e+000 -2.639920e+000 6.835436e+001 1.111139e-001 6.406780e-001 6.459801e-001 7.024334e-001 -3.415443e-001 8.511374e-001 8.753280e-002 1.983877e-001 -4.908724e-001 1.906449e-001 9.469924e-001 1.417039e-001 -1.805891e+000 8.934915e-003 -2.732280e-001 -1.890448e-001 -2.674636e-001 1.382475e-003 2.259931e-001 7.022077e-002 5.893244e-002 6.193453e-002 3.804061e-002 -9.093957e-002 8.461282e-002 2.438791e-001
<VARIANCE> 39
 1.068895e+001 2.596019e+001 2.020997e+001 5.799879e+001 2.478864e+001 4.741750e+001 1.960639e+001 2.251826e+001 6.021857e+001 2.664168e+001 3.180053e+001 7.925637e+000 8.412584e+001 1.956705e+000 5.449316e+000 3.116535e+000 1.063931e+001 3.702778e+000 4.877806e+000 2.075691e+000 2.729593e+000 1.084443e+001 2.802284e+000 2.051472e+000 1.443299e+000 1.476523e+001 4.647355e-001 1.356685e+000 7.734050e-001 3.196432e+000 7.434134e-001 7.936737e-001 4.246797e-001 5.058503e-001 2.471880e+000 6.682636e-001 6.640016e-001 3.226008e-001 4.409584e+000
<GCONST> 1.313828e+002
<STATE> 6
<MEAN> 39
 2.311324e+000 -8.630702e+000 1.271218e+000 -2.503474e+001 1.318901e+001 -3.904642e+000 4.176209e+000 -1.221588e+001 2.699231e+000 1.796360e+000 -9.622169e+000 1.904709e+000 6.808293e+001 -5.604653e-003 -2.489453e+000 -1.691121e+000 -4.138872e+000 1.262107e+000 -4.594545e-001 7.267296e-001 -8.297460e-001 4.235074e-001 8.141993e-001 -1.604844e+000 3.043285e-001 4.779590e+000 -3.781843e-001 7.022899e-002 1.085960e-001 4.585835e-001 2.945234e-001 -2.451531e-001 -8.546023e-002 -2.176332e-001 1.756463e-001 -3.527162e-001 2.010076e-001 -4.561170e-001 6.611738e-002
<VARIANCE> 39
 1.168085e+001 3.836692e+001 1.398260e+001 1.254511e+002 2.774888e+001 1.383031e+001 1.977766e+001 2.471336e+001 1.062491e+001 4.579886e+001 4.361661e+001 1.376179e+001 1.312586e+002 2.887404e+000 2.239296e+000 7.954274e-001 9.613304e+000 2.541663e+000 1.412759e+000 1.638675e+000 3.719426e+000 1.699884e+000 5.893368e+000 3.731142e+000 2.770169e+000 6.830557e+000 3.628443e-001 1.015486e+000 2.274420e-001 4.030444e+000 7.798536e-001 4.306542e-001 3.718827e-001 8.574756e-001 3.110443e-001 1.273200e+000 8.980718e-001 3.461182e-001 4.767407e+000
<GCONST> 1.245516e+002
<STATE> 7
<MEAN> 39
 -2.133952e+000 -1.530576e+001 -1.734518e+000 -2.378873e+001 1.632760e+001 -9.171811e+000 7.873266e+000 -1.512395e+001 8.654686e+000 -4.571846e+000 -1.365318e+001 -2.608611e+000 7.907156e+001 -2.056986e-001 5.257209e-002 4.199091e-001 2.146457e+000 -7.391292e-001 -9.969138e-001 1.022593e+000 4.466754e-001 1.059571e+000 -1.321599e+000 -2.868185e-001 -2.621322e-001 -3.338220e-001 1.399529e-001 2.429333e-001 2.230468e-001 1.803428e-001 -2.517538e-001 -1.285020e-001 2.136914e-001 2.596129e-001 1.327859e-002 8.559743e-002 1.783457e-001 1.984473e-001 -2.811936e-001
<VARIANCE> 39
 2.729358e+000 3.967973e+000 5.203933e+000 4.468707e+001 1.168480e+001 1.312776e+001 1.552109e+001 1.081445e+001 1.660244e+001 2.254251e+001 7.690433e+000 5.708039e+000 3.727292e+000 3.740012e-001 5.982478e-001 6.858160e-001 6.764194e-001 8.544432e-001 7.439508e-001 1.317767e+000 6.765732e-001 3.862013e-001 6.366012e-001 7.479129e-001 7.007978e-001 3.836752e-001 7.296641e-002 7.729090e-002 1.134084e-001 2.737764e-001 1.412402e-001 1.044178e-001 1.495436e-001 1.103461e-001 9.729005e-002 1.960204e-001 2.798328e-001 6.909650e-002 7.922701e-002
<GCONST> 6.743511e+001
<STATE> 8
<MEAN> 39
 2.286312e+000 -8.907305e+000 4.948883e+000 -7.574012e+000 8.422924e+000 -1.327997e+001 1.502057e+001 -9.347071e+000 7.179078e+000 -7.761117e+000 -3.136112e+000 -1.939329e+000 6.895055e+001 8.096473e-001 5.763379e-001 3.708261e-001 6.478953e-001 -4.681718e-001 6.372519e-001 -3.371771e-001 2.752242e-001 -1.259992e+000 6.855023e-001 1.159028e+000 1.267784e-001 -1.203329e+000 1.035163e-001 -5.181608e-002 -1.394321e-001 -4.875887e-002 9.631733e-003 2.364974e-001 -2.592863e-001 3.385714e-002 -2.148782e-001 1.061640e-001 -1.238403e-001 -4.490137e-002 -5.429537e-002
<VARIANCE> 39
 2.394469e+001 1.277987e+001 1.696692e+001 1.410945e+001 1.480545e+001 2.736809e+001 2.985828e+001 2.249224e+001 4.827086e+001 2.638885e+001 4.661465e+001 1.334029e+001 1.699503e+001 2.054325e+000 1.756124e+000 2.843374e+000 1.919953e+000 2.214440e+000 2.752367e+000 4.084777e+000 3.350667e+000 2.243965e+000 1.809667e+000 3.671110e+000 1.641378e+000 7.648013e-001 3.521322e-001 2.598515e-001 4.405083e-001 4.035670e-001 4.217933e-001 5.319998e-001 8.035990e-001 6.901837e-001 4.343957e-001 3.671890e-001 5.735176e-001 3.353975e-001 1.452741e-001
<GCONST> 1.105262e+002
<STATE> 9
<MEAN> 39
 1.120986e+001 3.987987e+000 3.325418e+000 2.226606e+000 4.022953e-001 -5.983554e+000 6.553849e+000 4.467858e+000 -3.839319e+000 -3.040525e+000 1.988966e-002 9.146927e-001 5.025623e+001 -1.371924e-001 2.088168e+000 2.963503e-001 9.417031e-001 -5.474640e-001 2.117110e-001 -7.490194e-001 1.359187e+000 2.235353e-001 -2.412860e-001 6.778020e-002 2.923934e-001 -1.911912e+000 -1.921897e-001 9.237764e-002 1.476028e-001 -1.002696e-001 1.658126e-001 -4.073552e-002 5.420633e-002 -2.478514e-001 2.276105e-001 -6.438715e-002 -1.719972e-002 -1.019153e-002 7.697035e-002
<VARIANCE> 39
 4.094782e+001 1.238101e+002 8.798074e+001 6.273086e+001 3.227719e+001 5.155709e+001 5.956163e+001 7.587297e+001 3.782730e+001 2.923838e+001 3.222683e+001 2.826634e+001 5.493012e+001 2.663862e+000 2.358572e+000 4.019975e+000 3.970688e+000 3.498401e+000 4.555182e+000 3.902574e+000 6.072156e+000 4.671623e+000 3.397734e+000 3.021972e+000 2.144598e+000 9.969980e-001 3.095515e-001 4.353821e-001 5.822560e-001 6.010633e-001 6.128717e-001 7.779150e-001 7.727880e-001 7.047383e-001 6.195179e-001 7.178959e-001 6.398806e-001 3.802445e-001 1.522780e-001
<GCONST> 1.291507e+002
<TRANSP> 10
 0.000000e+000 1.000000e+000 0.000000e+000 0.000000e+000 0.000000e+000 0.000000e+000 0.000000e+000 0.000000e+000 0.000000e+000 0.000000e+000
 0.000000e+000 9.159664e-001 8.403361e-002 0.000000e+000 0.000000e+000 0.000000e+000 0.000000e+000 0.000000e+000 0.000000e+000 0.000000e+000
 0.000000e+000 0.000000e+000 9.122807e-001 8.771931e-002 0.000000e+000 0.000000e+000 0.000000e+000 0.000000e+000 0.000000e+000 0.000000e+000
 0.000000e+000 0.000000e+000 0.000000e+000 8.876405e-001 1.123595e-001 0.000000e+000 0.000000e+000 0.000000e+000 0.000000e+000 0.000000e+000
 0.000000e+000 0.000000e+000 0.000000e+000 0.000000e+000 9.264706e-001 7.352941e-002 0.000000e+000 0.000000e+000 0.000000e+000 0.000000e+000
 0.000000e+000 0.000000e+000 0.000000e+000 0.000000e+000 0.000000e+000 8.148148e-001 1.851852e-001 0.000000e+000 0.000000e+000 0.000000e+000
 0.000000e+000 0.000000e+000 0.000000e+000 0.000000e+000 0.000000e+000 0.000000e+000 8.913044e-001 1.086957e-001 0.000000e+000 0.000000e+000
 0.000000e+000 0.000000e+000 0.000000e+000 0.000000e+000 0.000000e+000 0.000000e+000 0.000000e+000 9.186992e-001 8.130082e-002 0.000000e+000
 0.000000e+000 0.000000e+000 0.000000e+000 0.000000e+000 0.000000e+000 0.000000e+000 0.000000e+000 0.000000e+000 9.107143e-001 8.928571e-002
 0.000000e+000 0.000000e+000 0.000000e+000 0.000000e+000 0.000000e+000 0.000000e+000 0.000000e+000 0.000000e+000 0.000000e+000 0.000000e+000
<ENDHMM>
