~o
<STREAMINFO> 1 26
<VECSIZE> 26<NULLD><MFCC_D_0><DIAGC>
~h "sil"
<BEGINHMM>
<NUMSTATES> 12
<STATE> 2
<MEAN> 26
 -7.740153e+00 -2.734321e+00 -4.154415e+00 -3.113383e+00 1.187505e+00 -1.569687e+00 -1.988634e+00 -4.814628e-01 -5.206234e-01 1.538124e+00 -2.253331e+00 -4.399999e+00 5.796136e+01 -4.898099e-02 -1.900603e-01 -1.179920e-01 9.073551e-02 -2.123815e-01 -8.027704e-02 5.872332e-03 -6.660791e-02 1.243908e-02 -2.014127e-01 -4.346460e-02 1.044226e-01 -1.811487e-01
<VARIANCE> 26
 2.954390e+01 1.744610e+01 1.706597e+01 2.222377e+01 3.712500e+01 3.693699e+01 3.023785e+01 2.748350e+01 2.716529e+01 3.006296e+01 2.024632e+01 2.579143e+01 2.298474e+01 1.644557e+00 1.064112e+00 1.423778e+00 1.466483e+00 1.820588e+00 2.130289e+00 2.334085e+00 2.158668e+00 2.330181e+00 2.156786e+00 1.778976e+00 1.747924e+00 7.485297e-01
<GCONST> 9.674002e+01
<STATE> 3
<MEAN> 26
 -1.047555e+01 -2.046488e+00 -3.664429e+00 -4.984164e+00 -2.752399e+00 -2.767733e+00 -4.335008e+00 -3.897336e+00 -2.986566e+00 -2.007203e+00 -2.971781e+00 -1.786053e+00 5.513009e+01 -4.279305e-02 2.151193e-02 -2.884013e-02 -6.008315e-02 1.609231e-02 -4.063966e-02 5.745373e-02 -9.004240e-03 2.230326e-02 -6.781426e-02 6.287897e-02 1.181071e-01 -1.187241e-01
<VARIANCE> 26
 1.260084e+01 8.763292e+00 1.624391e+01 1.733720e+01 1.742952e+01 1.818570e+01 2.057742e+01 2.054517e+01 2.174282e+01 1.954208e+01 1.832317e+01 1.647537e+01 1.037288e+01 4.404326e-01 5.195534e-01 9.737284e-01 1.036642e+00 1.364921e+00 1.451220e+00 1.718507e+00 1.733029e+00 1.843256e+00 1.610454e+00 1.749804e+00 1.307345e+00 2.357456e-01
<GCONST> 8.481638e+01
<STATE> 4
<MEAN> 26
 -8.259984e+00 -2.730870e+00 -3.162213e+00 -4.057561e+00 -2.651509e+00 -1.947368e+00 -3.463170e+00 -2.499965e+00 -1.019615e+00 -1.485941e+00 -2.240343e+00 -9.680119e-01 5.233134e+01 1.340271e-02 -7.126491e-02 -2.819474e-02 1.202422e-02 1.849767e-02 -1.077108e-02 -8.376967e-03 6.019720e-02 2.685601e-02 -1.472184e-02 1.908849e-02 5.995723e-02 -3.968965e-02
<VARIANCE> 26
 4.969880e+00 5.605914e+00 7.980001e+00 1.207279e+01 1.416378e+01 1.624559e+01 1.786436e+01 1.797222e+01 1.833969e+01 1.664712e+01 1.664825e+01 1.523155e+01 6.576282e+00 2.080640e-01 3.743415e-01 5.395381e-01 7.819008e-01 1.082450e+00 1.234370e+00 1.437924e+00 1.416686e+00 1.551342e+00 1.454153e+00 1.486042e+00 1.295968e+00 8.445951e-02
<GCONST> 7.661367e+01
<STATE> 5
<MEAN> 26
 -9.946730e+00 -4.808107e+00 -3.864486e+00 -2.224019e+00 1.094008e+00 -5.559205e-01 -2.130380e+00 -1.786452e+00 -2.318585e+00 -1.966857e+00 -6.020132e-01 4.187912e-01 5.374400e+01 -2.406702e-01 -1.688395e-01 1.288123e-02 3.944748e-02 2.995584e-02 -1.115446e-01 -2.763060e-02 7.575515e-02 -3.713719e-02 -8.835569e-02 9.967536e-02 2.409338e-02 2.235742e-01
<VARIANCE> 26
 1.494737e+01 2.438099e+01 2.140791e+01 2.042222e+01 4.075439e+01 3.753400e+01 2.611546e+01 2.866177e+01 2.665694e+01 2.142955e+01 2.578703e+01 2.227941e+01 6.827883e+01 1.142064e+00 2.551692e+00 1.767943e+00 1.312125e+00 4.740914e+00 4.716778e+00 2.723478e+00 2.639475e+00 2.709791e+00 2.111838e+00 2.824545e+00 2.548450e+00 2.633665e+00
<GCONST> 1.023169e+02
<STATE> 6
<MEAN> 26
 -9.878594e+00 -5.526415e+00 -3.434433e+00 -2.634509e+00 -1.876924e+00 -4.993602e+00 -3.675423e+00 8.526784e-02 -1.246319e+00 -3.299610e+00 -2.364169e+00 -5.297258e-01 5.510748e+01 -2.133302e-02 -1.046245e-02 9.448325e-03 -1.258571e-01 -2.727191e-01 -1.394912e-01 -5.068723e-02 1.875721e-01 1.401751e-01 -1.820691e-02 -9.863027e-02 -7.482650e-02 -6.091088e-02
<VARIANCE> 26
 6.701865e+00 1.614816e+01 1.076947e+01 1.542794e+01 1.698734e+01 2.108477e+01 2.185115e+01 3.000622e+01 2.134367e+01 2.506401e+01 1.899457e+01 1.555265e+01 1.206137e+01 3.073148e-01 4.575267e-01 6.742975e-01 8.759341e-01 1.227045e+00 1.704051e+00 1.797398e+00 2.077610e+00 1.700931e+00 1.840980e+00 1.513750e+00 1.274446e+00 2.132953e-01
<GCONST> 8.422947e+01
<STATE> 7
<MEAN> 26
 -1.209715e+01 -5.138984e+00 -2.986795e+00 -4.384538e+00 -4.262698e+00 -3.557068e+00 -4.269239e+00 -4.578263e-01 -9.500868e-01 -1.471776e+00 -5.820268e-01 -8.629493e-01 5.777211e+01 1.553197e-01 7.474958e-02 -1.406349e-01 -3.640186e-02 -1.876650e-02 2.061353e-01 -2.821232e-02 -1.344484e-01 7.592029e-02 5.298671e-02 -2.544866e-02 -1.013025e-02 -1.863511e-01
<VARIANCE> 26
 1.693342e+01 1.620788e+01 1.489321e+01 2.554334e+01 2.539051e+01 2.616140e+01 2.902423e+01 3.492500e+01 2.915177e+01 2.499505e+01 2.423953e+01 2.019247e+01 2.345134e+01 4.794776e-01 6.362606e-01 8.373630e-01 1.076373e+00 1.514312e+00 1.774526e+00 1.791270e+00 2.168794e+00 2.161488e+00 2.237556e+00 1.708333e+00 1.468409e+00 2.943771e-01
<GCONST> 9.102775e+01
<STATE> 8
<MEAN> 26
 -6.997224e+00 -4.472034e+00 -6.262010e+00 -7.419916e+00 -3.740374e+00 -8.530435e-01 -3.884687e+00 -2.113569e+00 -1.093572e+00 -1.079637e+00 -3.277718e+00 -3.072018e+00 5.441274e+01 1.349284e-03 7.919497e-02 3.954670e-02 1.073124e-01 8.849493e-02 8.076472e-02 5.504177e-02 5.156235e-03 -1.520589e-02 1.050269e-01 -2.455005e-02 3.868896e-02 -1.031371e-01
<VARIANCE> 26
 6.771714e+00 9.343843e+00 1.876661e+01 2.295807e+01 1.503259e+01 2.121907e+01 2.109460e+01 2.054048e+01 1.982341e+01 2.709292e+01 2.565307e+01 2.139025e+01 1.321985e+01 2.542025e-01 4.677435e-01 6.662814e-01 9.465964e-01 1.088721e+00 1.408511e+00 1.431767e+00 1.600768e+00 1.668819e+00 1.785972e+00 1.680819e+00 1.417177e+00 9.202224e-02
<GCONST> 8.325085e+01
<STATE> 9
<MEAN> 26
 -9.245065e+00 -2.447591e+00 -3.559331e+00 -2.686643e+00 -1.944208e+00 -7.775718e-01 -2.496481e+00 -7.132868e-01 -6.714557e-01 -9.472312e-01 -1.362470e+00 -4.454994e-01 4.892176e+01 -8.505606e-03 7.000274e-02 1.452050e-02 1.299925e-02 4.750463e-02 3.943253e-02 5.991118e-03 2.346180e-02 -2.576722e-02 7.852894e-02 6.885096e-02 7.593217e-02 -3.242891e-02
<VARIANCE> 26
 5.880434e+00 5.062101e+00 7.766784e+00 1.219141e+01 1.348231e+01 1.412107e+01 1.418768e+01 1.705938e+01 1.619095e+01 1.611939e+01 1.565240e+01 1.459195e+01 2.434140e+01 2.310089e-01 3.633498e-01 5.682246e-01 8.696950e-01 1.001824e+00 1.308702e+00 1.271468e+00 1.447776e+00 1.525476e+00 1.494206e+00 1.367969e+00 1.200711e+00 1.062531e-01
<GCONST> 7.743141e+01
<STATE> 10
<MEAN> 26
 -1.089887e+01 -1.782688e+00 -3.533709e+00 -3.136918e+00 -2.628001e+00 -1.359971e+00 -3.485100e+00 -1.277562e+00 -1.846671e+00 -4.527672e-01 -1.533118e+00 -5.222179e-01 5.166378e+01 1.826034e-02 2.226727e-01 2.758649e-01 1.563394e-01 1.171948e-01 4.764808e-02 -8.655887e-02 -1.997047e-01 -1.389364e-01 -3.657835e-02 -8.370347e-02 -7.586252e-02 3.492884e-01
<VARIANCE> 26
 1.317231e+01 9.236127e+00 1.365184e+01 1.615969e+01 1.816574e+01 1.936697e+01 2.219580e+01 2.213326e+01 2.183637e+01 2.065529e+01 2.328203e+01 1.980148e+01 1.502775e+01 9.920495e-01 8.293307e-01 1.397543e+00 1.498668e+00 2.003788e+00 1.863466e+00 2.261302e+00 2.424898e+00 2.074277e+00 1.985758e+00 2.201091e+00 1.742180e+00 6.183302e-01
<GCONST> 9.083978e+01
<STATE> 11
<MEAN> 26
 -7.879006e+00 -1.064675e+00 -2.755711e-01 -1.735318e+00 -1.712755e+00 -6.915050e-01 -3.528716e+00 -3.740704e+00 -3.110779e+00 -2.135323e+00 -1.621136e+00 -6.515431e-01 5.637984e+01 6.315695e-01 7.881209e-01 1.201121e+00 4.679192e-01 -2.905503e-01 -4.726410e-01 -8.138154e-01 -4.653618e-01 -5.181854e-01 -2.629922e-01 -1.268920e-01 -1.842780e-01 1.392868e+00
<VARIANCE> 26
 1.942227e+01 3.568694e+01 5.449621e+01 2.730994e+01 4.218160e+01 3.140136e+01 3.043315e+01 3.570868e+01 2.642727e+01 2.606973e+01 3.040162e+01 2.278958e+01 4.211689e+01 2.852943e+00 3.484039e+00 5.058729e+00 2.746654e+00 5.201696e+00 4.849658e+00 4.790080e+00 3.728968e+00 3.346617e+00 2.830003e+00 3.137225e+00 2.532699e+00 4.213758e+00
<GCONST> 1.094254e+02
<TRANSP> 12
 0.000000e+00 1.000000e+00 0.000000e+00 0.000000e+00 0.000000e+00 0.000000e+00 0.000000e+00 0.000000e+00 0.000000e+00 0.000000e+00 0.000000e+00 0.000000e+00
 0.000000e+00 7.676075e-01 2.323926e-01 0.000000e+00 0.000000e+00 0.000000e+00 0.000000e+00 0.000000e+00 0.000000e+00 0.000000e+00 0.000000e+00 0.000000e+00
 0.000000e+00 0.000000e+00 7.403046e-01 2.596954e-01 0.000000e+00 0.000000e+00 0.000000e+00 0.000000e+00 0.000000e+00 0.000000e+00 0.000000e+00 0.000000e+00
 0.000000e+00 0.000000e+00 0.000000e+00 8.871474e-01 1.128526e-01 0.000000e+00 0.000000e+00 0.000000e+00 0.000000e+00 0.000000e+00 0.000000e+00 0.000000e+00
 0.000000e+00 0.000000e+00 0.000000e+00 0.000000e+00 7.563761e-01 2.436239e-01 0.000000e+00 0.000000e+00 0.000000e+00 0.000000e+00 0.000000e+00 0.000000e+00
 0.000000e+00 0.000000e+00 0.000000e+00 0.000000e+00 0.000000e+00 7.275624e-01 2.724376e-01 0.000000e+00 0.000000e+00 0.000000e+00 0.000000e+00 0.000000e+00
 0.000000e+00 0.000000e+00 0.000000e+00 0.000000e+00 0.000000e+00 0.000000e+00 7.701327e-01 2.298673e-01 0.000000e+00 0.000000e+00 0.000000e+00 0.000000e+00
 0.000000e+00 0.000000e+00 0.000000e+00 0.000000e+00 0.000000e+00 0.000000e+00 0.000000e+00 7.897226e-01 2.102774e-01 0.000000e+00 0.000000e+00 0.000000e+00
 0.000000e+00 0.000000e+00 0.000000e+00 0.000000e+00 0.000000e+00 0.000000e+00 0.000000e+00 0.000000e+00 8.437382e-01 1.562618e-01 0.000000e+00 0.000000e+00
 0.000000e+00 0.000000e+00 0.000000e+00 0.000000e+00 0.000000e+00 0.000000e+00 0.000000e+00 0.000000e+00 0.000000e+00 6.701875e-01 3.298125e-01 0.000000e+00
 0.000000e+00 0.000000e+00 0.000000e+00 0.000000e+00 0.000000e+00 0.000000e+00 0.000000e+00 0.000000e+00 0.000000e+00 0.000000e+00 6.515347e-01 3.484653e-01
 0.000000e+00 0.000000e+00 0.000000e+00 0.000000e+00 0.000000e+00 0.000000e+00 0.000000e+00 0.000000e+00 0.000000e+00 0.000000e+00 0.000000e+00 0.000000e+00
<ENDHMM>
