~o
<STREAMINFO> 1 26
<VECSIZE> 26<NULLD><MFCC_D_0><DIAGC>
~h "lx"
<BEGINHMM>
<NUMSTATES> 12
<STATE> 2
<MEAN> 26
 -3.857591e+00 2.550975e+00 1.222106e+01 -1.233870e+00 -8.268088e+00 -5.699853e+00 -1.060007e+01 -3.369156e+00 -8.127027e+00 -2.441594e+00 -1.842475e+00 -1.398896e+00 6.576633e+01 2.089676e-01 -2.556640e-02 1.719275e+00 -8.036306e-01 -2.183541e+00 -5.882792e-02 -6.840499e-01 2.426229e-01 -8.208214e-01 1.284475e-01 9.491851e-01 1.086580e-01 2.262911e+00
<VARIANCE> 26
 1.402355e+01 3.042986e+01 5.247766e+01 6.720029e+01 7.582002e+01 4.983536e+01 5.979966e+01 5.124892e+01 4.421989e+01 4.001238e+01 4.998652e+01 2.966866e+01 5.665480e+01 2.060426e+00 3.196940e+00 3.908365e+00 4.307299e+00 4.680670e+00 4.553564e+00 4.769481e+00 4.353268e+00 3.199134e+00 3.911141e+00 3.804993e+00 2.972479e+00 1.797336e+00
<GCONST> 1.134308e+02
<STATE> 3
<MEAN> 26
 -3.611305e+00 3.132921e+00 1.521983e+01 -5.287990e+00 -1.561009e+01 -5.323543e-01 -1.078522e+01 -4.043069e+00 -1.099972e+01 -5.058032e-01 3.960153e+00 -4.124056e+00 7.275872e+01 4.509090e-02 6.505122e-01 -4.174586e-01 -1.988332e-01 4.799713e-01 4.239390e-01 1.244882e-01 -7.045626e-01 -2.551699e-01 4.208355e-01 -2.578262e-01 -5.235465e-01 -1.730533e-01
<VARIANCE> 26
 1.239710e+01 2.663028e+01 4.820787e+01 7.864334e+01 3.666863e+01 6.356786e+01 5.595153e+01 6.327703e+01 5.050640e+01 4.766437e+01 3.473551e+01 3.685340e+01 1.193730e+01 3.777604e-01 7.281908e-01 1.186876e+00 1.506348e+00 1.571878e+00 2.374169e+00 2.201750e+00 2.104561e+00 2.163806e+00 1.648866e+00 1.762902e+00 1.638030e+00 2.798272e-01
<GCONST> 9.837090e+01
<STATE> 4
<MEAN> 26
 -4.239990e+00 7.409768e+00 9.145144e+00 -9.977971e+00 -1.240819e+01 -3.541908e+00 -1.399616e+01 -1.024869e+01 -1.154448e+01 7.891829e-02 -6.171705e+00 -3.812193e+00 6.850038e+01 -7.740516e-01 1.333462e+00 -7.692823e-01 8.525460e-01 1.041636e+00 -6.969597e-01 1.119380e+00 -4.229446e-01 5.526427e-01 -6.792649e-01 -8.553158e-02 4.330208e-01 -3.605408e-01
<VARIANCE> 26
 1.458991e+01 2.260117e+01 3.680506e+01 1.107468e+02 4.199115e+01 4.250051e+01 9.435725e+01 5.961448e+01 3.510004e+01 6.085632e+01 9.984245e+01 3.923344e+01 2.733191e+01 2.827218e+00 1.602643e+00 2.466527e+00 3.304878e+00 3.667525e+00 2.952299e+00 4.398297e+00 2.657350e+00 2.767897e+00 2.404587e+00 3.144828e+00 2.722845e+00 4.883057e-01
<GCONST> 1.090418e+02
<STATE> 5
<MEAN> 26
 -1.628039e+01 1.459077e+01 6.460536e+00 1.461741e-02 -2.956669e+00 -4.488194e+00 -3.805227e-01 -7.907793e+00 -6.225463e+00 -3.046924e+00 -1.619473e+00 -1.682829e+00 6.981580e+01 -4.287721e+00 1.694516e-01 -1.865775e+00 3.276969e-01 1.938320e+00 1.208193e-01 1.428482e+00 8.955443e-01 1.604147e+00 2.641083e-03 -4.241207e-01 4.361945e-01 -5.919869e-02
<VARIANCE> 26
 4.873152e+01 1.688162e+01 3.056319e+01 4.058432e+01 3.884650e+01 3.219857e+01 4.336445e+01 4.239724e+01 2.966545e+01 3.198747e+01 3.448190e+01 2.327898e+01 1.980277e+01 1.798820e+00 4.322226e+00 2.542162e+00 4.035778e+00 4.135257e+00 3.214756e+00 4.387680e+00 3.224272e+00 3.037737e+00 3.294427e+00 2.993312e+00 2.668540e+00 4.647581e-01
<GCONST> 1.060289e+02
<STATE> 6
<MEAN> 26
 -2.896624e+01 8.924853e+00 -8.723865e-01 -5.747081e+00 -2.672472e+00 -5.255545e+00 -1.838960e+00 -5.320013e+00 -3.652409e+00 -6.408474e-01 -1.306395e+00 -8.294097e-01 6.947160e+01 -4.157766e-01 -8.265843e-01 -6.652673e-02 -6.578340e-01 -2.847123e-01 -4.928569e-02 -1.795410e-01 1.214973e-01 4.040011e-02 1.025158e-01 1.250926e-02 1.040998e-01 -1.019286e-01
<VARIANCE> 26
 1.106324e+01 1.972958e+01 3.060453e+01 2.891209e+01 1.862770e+01 2.952317e+01 4.344770e+01 3.531301e+01 2.730359e+01 2.153112e+01 2.510989e+01 1.779451e+01 1.881888e+01 1.823910e+00 1.036227e+00 2.536819e+00 1.640629e+00 1.693584e+00 1.769459e+00 1.650728e+00 1.750169e+00 1.998609e+00 1.913969e+00 1.752138e+00 1.601216e+00 2.387844e-01
<GCONST> 9.417715e+01
<STATE> 7
<MEAN> 26
 -2.115041e+01 8.341499e+00 6.781618e+00 -4.427070e+00 -5.045886e+00 -6.108545e+00 -3.830246e+00 -7.067313e+00 -5.882593e+00 -3.151623e+00 -2.221317e+00 -9.666317e-01 6.941808e+01 4.404226e+00 -9.010097e-02 3.526271e+00 5.322452e-01 -2.356318e+00 -9.483629e-01 -2.915781e+00 -1.319434e+00 -1.961896e+00 -1.233002e+00 1.364151e-01 -1.188491e-01 8.735869e-01
<VARIANCE> 26
 4.783615e+01 2.439187e+01 4.427438e+01 2.714474e+01 3.370311e+01 3.487051e+01 4.618295e+01 4.180349e+01 2.963321e+01 2.481002e+01 2.035600e+01 1.904735e+01 2.192754e+01 1.725118e+00 2.872381e+00 3.246620e+00 3.580019e+00 3.428191e+00 3.024797e+00 3.225641e+00 3.006979e+00 3.004824e+00 2.312331e+00 2.970120e+00 1.996145e+00 7.525198e-01
<GCONST> 1.043198e+02
<STATE> 8
<MEAN> 26
 -1.004922e+01 3.717046e+00 1.549195e+01 -5.664682e+00 -1.377419e+01 -6.321878e+00 -1.493411e+01 -9.812765e+00 -1.208929e+01 -5.312279e+00 -7.737792e-01 -4.143744e-01 7.343711e+01 1.607528e+00 -1.682107e+00 1.544273e+00 -5.375869e-01 -1.715275e+00 6.803043e-01 -2.063137e+00 2.548133e-01 -9.676489e-01 -4.149007e-01 6.146054e-01 -3.756807e-01 6.992298e-01
<VARIANCE> 26
 1.365828e+01 2.736554e+01 3.507550e+01 5.996896e+01 2.916639e+01 3.862749e+01 4.642962e+01 6.804503e+01 3.607283e+01 4.304172e+01 4.096795e+01 4.520084e+01 1.715033e+01 1.774747e+00 1.214104e+00 2.485661e+00 1.965637e+00 3.605744e+00 2.587295e+00 3.602020e+00 2.185541e+00 2.474420e+00 2.460757e+00 3.044088e+00 2.538064e+00 6.178945e-01
<GCONST> 1.041786e+02
<STATE> 9
<MEAN> 26
 -8.643224e+00 1.097097e+00 1.829018e+01 -9.035974e+00 -1.628294e+01 -4.884112e+00 -1.732736e+01 -8.145018e+00 -1.355176e+01 -5.214773e+00 1.288015e-01 -3.043933e+00 7.301561e+01 2.073351e-01 -4.692809e-02 5.636048e-02 -1.353505e-01 -2.079104e-01 1.822394e-01 -5.163105e-02 1.200077e-01 -6.159397e-03 1.333523e-01 7.638182e-02 -1.763925e-01 -1.945885e-01
<VARIANCE> 26
 1.353604e+01 2.508948e+01 3.536554e+01 8.471019e+01 2.451809e+01 3.883271e+01 3.483278e+01 4.198600e+01 3.936644e+01 4.540599e+01 7.570311e+01 2.639926e+01 1.901993e+01 1.111848e-01 2.421221e-01 4.324071e-01 5.545934e-01 5.704758e-01 6.326573e-01 7.942080e-01 6.130818e-01 5.707009e-01 7.696901e-01 5.804932e-01 5.155874e-01 1.208064e-01
<GCONST> 8.287425e+01
<STATE> 10
<MEAN> 26
 -5.547037e+00 3.532061e+00 1.465276e+01 -4.087601e+00 -1.492599e+01 -6.136104e+00 -1.401943e+01 -7.607530e+00 -1.115701e+01 -4.225152e+00 -8.943412e-01 -2.981911e+00 6.869858e+01 5.085121e-01 3.627772e-01 -8.798223e-01 9.048755e-01 1.031058e+00 -2.639177e-01 9.979149e-01 1.871273e-01 5.104024e-01 2.588661e-01 -6.497084e-01 2.038824e-02 -1.290728e+00
<VARIANCE> 26
 1.275444e+01 2.882451e+01 3.545365e+01 8.698796e+01 4.672193e+01 7.456487e+01 6.332689e+01 5.443440e+01 4.670687e+01 4.966469e+01 5.957801e+01 3.004206e+01 2.628390e+01 7.138173e-01 1.027855e+00 1.336675e+00 2.147891e+00 2.891063e+00 2.172502e+00 2.817053e+00 2.203208e+00 2.208251e+00 1.924950e+00 2.406536e+00 1.494963e+00 9.825893e-01
<GCONST> 1.036531e+02
<STATE> 11
<MEAN> 26
 -6.860950e+00 1.467685e+00 6.824697e+00 -3.160381e+00 -6.768387e+00 -3.935571e+00 -8.018037e+00 -6.523085e+00 -6.411716e+00 -2.886068e+00 -1.966731e+00 -2.351260e+00 5.874493e+01 -5.515274e-01 -8.848099e-01 -1.101801e+00 -5.290457e-01 3.274114e-01 2.132345e-01 3.817539e-01 2.643307e-01 4.250659e-01 2.587856e-01 2.902707e-01 2.058869e-01 -6.133953e-01
<VARIANCE> 26
 1.616690e+01 2.799265e+01 4.577040e+01 5.017295e+01 4.925167e+01 4.509417e+01 4.803317e+01 4.114803e+01 3.423170e+01 2.594658e+01 3.846729e+01 2.142219e+01 4.078133e+01 9.368589e-01 1.344079e+00 2.452027e+00 2.677179e+00 4.286628e+00 2.611917e+00 3.125809e+00 2.830665e+00 2.550997e+00 2.340059e+00 3.041547e+00 1.806282e+00 1.852700e+00
<GCONST> 1.049601e+02
<TRANSP> 12
 0.000000e+00 1.000000e+00 0.000000e+00 0.000000e+00 0.000000e+00 0.000000e+00 0.000000e+00 0.000000e+00 0.000000e+00 0.000000e+00 0.000000e+00 0.000000e+00
 0.000000e+00 8.061565e-01 1.938435e-01 0.000000e+00 0.000000e+00 0.000000e+00 0.000000e+00 0.000000e+00 0.000000e+00 0.000000e+00 0.000000e+00 0.000000e+00
 0.000000e+00 0.000000e+00 8.617128e-01 1.382872e-01 0.000000e+00 0.000000e+00 0.000000e+00 0.000000e+00 0.000000e+00 0.000000e+00 0.000000e+00 0.000000e+00
 0.000000e+00 0.000000e+00 0.000000e+00 7.907256e-01 2.092744e-01 0.000000e+00 0.000000e+00 0.000000e+00 0.000000e+00 0.000000e+00 0.000000e+00 0.000000e+00
 0.000000e+00 0.000000e+00 0.000000e+00 0.000000e+00 7.350246e-01 2.649754e-01 0.000000e+00 0.000000e+00 0.000000e+00 0.000000e+00 0.000000e+00 0.000000e+00
 0.000000e+00 0.000000e+00 0.000000e+00 0.000000e+00 0.000000e+00 8.364645e-01 1.635356e-01 0.000000e+00 0.000000e+00 0.000000e+00 0.000000e+00 0.000000e+00
 0.000000e+00 0.000000e+00 0.000000e+00 0.000000e+00 0.000000e+00 0.000000e+00 6.684208e-01 3.315792e-01 0.000000e+00 0.000000e+00 0.000000e+00 0.000000e+00
 0.000000e+00 0.000000e+00 0.000000e+00 0.000000e+00 0.000000e+00 0.000000e+00 0.000000e+00 6.464611e-01 3.535388e-01 0.000000e+00 0.000000e+00 0.000000e+00
 0.000000e+00 0.000000e+00 0.000000e+00 0.000000e+00 0.000000e+00 0.000000e+00 0.000000e+00 0.000000e+00 8.617212e-01 1.382788e-01 0.000000e+00 0.000000e+00
 0.000000e+00 0.000000e+00 0.000000e+00 0.000000e+00 0.000000e+00 0.000000e+00 0.000000e+00 0.000000e+00 0.000000e+00 8.243918e-01 1.756082e-01 0.000000e+00
 0.000000e+00 0.000000e+00 0.000000e+00 0.000000e+00 0.000000e+00 0.000000e+00 0.000000e+00 0.000000e+00 0.000000e+00 0.000000e+00 8.050687e-01 1.949313e-01
 0.000000e+00 0.000000e+00 0.000000e+00 0.000000e+00 0.000000e+00 0.000000e+00 0.000000e+00 0.000000e+00 0.000000e+00 0.000000e+00 0.000000e+00 0.000000e+00
<ENDHMM>
