~o
<STREAMINFO> 1 26
<VECSIZE> 26<NULLD><MFCC_D_0><DIAGC>
~h "dd"
<BEGINHMM>
<NUMSTATES> 12
<STATE> 2
<MEAN> 26
 -9.084375e+00 1.909448e+00 7.691185e+00 -3.459045e+00 -1.193655e+01 -3.895055e+00 -7.791017e+00 -6.709630e+00 -7.740067e+00 -2.787084e+00 5.295065e-01 -2.570469e+00 6.709029e+01 5.355691e-01 9.593865e-02 3.226843e+00 -7.870396e-01 -3.022534e+00 1.403837e-01 -1.938247e+00 -1.262097e-01 -1.631222e+00 -4.478064e-01 9.625756e-01 -3.556124e-01 2.705577e+00
<VARIANCE> 26
 2.529108e+01 2.888124e+01 1.021254e+02 5.024469e+01 7.528970e+01 3.283660e+01 6.416692e+01 3.898864e+01 4.996572e+01 3.952947e+01 4.112261e+01 2.888105e+01 4.867071e+01 3.757828e+00 3.089333e+00 7.436145e+00 4.832888e+00 4.344762e+00 4.374419e+00 5.811606e+00 4.051658e+00 4.678384e+00 4.481079e+00 4.369009e+00 3.604526e+00 2.676002e+00
<GCONST> 1.160336e+02
<STATE> 3
<MEAN> 26
 -3.560832e+00 2.046126e+00 1.091589e+01 -6.305389e+00 -1.714119e+01 -2.110125e+00 -1.224504e+01 -7.891737e+00 -1.226332e+01 -1.751480e+00 -6.554205e-01 -5.423576e+00 7.095692e+01 1.128330e+00 1.617077e-01 -1.373518e+00 1.087455e+00 7.268136e-01 -5.808071e-02 5.552024e-01 -7.871534e-01 1.047138e-01 7.721705e-01 -9.010390e-01 -3.842249e-01 -7.415319e-01
<VARIANCE> 26
 2.178457e+01 2.787462e+01 6.704643e+01 1.248646e+02 4.425430e+01 5.076101e+01 8.278828e+01 5.850339e+01 5.284564e+01 6.451355e+01 1.124125e+02 5.608900e+01 2.164486e+01 7.704397e-01 8.612576e-01 2.044154e+00 4.881007e+00 2.866940e+00 4.543072e+00 3.531899e+00 3.874583e+00 2.883545e+00 3.393638e+00 3.553771e+00 2.276540e+00 7.796591e-01
<GCONST> 1.105829e+02
<STATE> 4
<MEAN> 26
 1.876977e+00 3.736700e+00 6.410041e+00 8.927593e-01 -1.384286e+01 -2.491856e+00 -1.113108e+01 -1.354460e+01 -9.681137e+00 1.095852e+00 -5.592927e+00 -5.055638e+00 6.495478e+01 -9.143799e-03 5.178575e-01 2.007321e-01 1.475766e-02 4.830461e-01 1.503900e-01 -1.214754e-01 -4.912743e-02 2.853781e-01 -9.191394e-02 -3.360887e-01 2.336766e-01 -7.069765e-01
<VARIANCE> 26
 5.839217e+00 2.587837e+01 3.686107e+01 6.896793e+01 3.534760e+01 4.280566e+01 6.227957e+01 3.692513e+01 3.858772e+01 5.233662e+01 5.200591e+01 4.395075e+01 2.658708e+01 3.178398e-01 5.859411e-01 6.690113e-01 8.316622e-01 1.399922e+00 1.380513e+00 1.483252e+00 1.968929e+00 1.632091e+00 1.397200e+00 1.603759e+00 1.116986e+00 2.553001e-01
<GCONST> 9.383707e+01
<STATE> 5
<MEAN> 26
 -9.159960e-01 6.005699e+00 6.881575e+00 1.106367e+00 -7.626356e+00 -3.080469e+00 -8.715362e+00 -1.050569e+01 -8.067078e+00 -9.589276e-01 -5.785480e+00 -4.704788e+00 6.110704e+01 -1.804521e+00 -1.068670e+00 -1.435335e+00 -1.189555e+00 1.778150e+00 -1.056142e+00 8.833638e-02 1.774751e+00 1.740490e+00 -6.247355e-01 5.367099e-01 2.976712e-01 1.350979e+00
<VARIANCE> 26
 1.682784e+01 1.916071e+01 2.889623e+01 4.265402e+01 4.140659e+01 4.025206e+01 4.166934e+01 3.480121e+01 3.060380e+01 4.317785e+01 3.184694e+01 2.627256e+01 2.611431e+01 1.393270e+00 2.198459e+00 2.739695e+00 3.692219e+00 3.483947e+00 3.596772e+00 4.838124e+00 3.472447e+00 3.900486e+00 3.580507e+00 3.459234e+00 2.715774e+00 4.522957e+00
<GCONST> 1.077229e+02
<STATE> 6
<MEAN> 26
 -4.116202e+00 -1.679196e+00 -1.578856e+00 -8.106826e+00 -5.854146e+00 -5.305698e+00 -1.466214e+01 -3.418223e+00 -1.356509e-01 3.271081e-01 -3.684869e+00 -5.084763e+00 7.315234e+01 1.164517e+00 -1.919231e+00 -1.945690e+00 -3.690430e+00 -1.567836e-01 2.154452e+00 -2.562865e+00 7.936950e-01 9.505458e-01 1.284506e+00 9.225668e-01 -1.030401e+00 2.579628e+00
<VARIANCE> 26
 2.717219e+01 2.859400e+01 3.723758e+01 6.014136e+01 3.781150e+01 6.167213e+01 6.798528e+01 5.160521e+01 5.210438e+01 5.714920e+01 4.784813e+01 3.851876e+01 2.650043e+01 2.602123e+00 1.980398e+00 2.373392e+00 2.960933e+00 4.984698e+00 6.454802e+00 6.465043e+00 6.857064e+00 6.005315e+00 4.273574e+00 5.571431e+00 3.119090e+00 3.391803e+00
<GCONST> 1.150408e+02
<STATE> 7
<MEAN> 26
 9.702039e-01 -2.939899e+00 -4.370608e+00 -1.825447e+01 -5.252287e+00 5.932863e+00 -1.686977e+01 -5.508218e+00 -4.688614e+00 2.698400e+00 1.147656e+00 -5.624193e+00 7.424419e+01 7.917374e-01 4.239053e-01 -5.595312e-01 -1.051394e+00 -1.685746e-01 1.624523e+00 1.486644e+00 1.075632e-01 -1.831549e+00 -1.215927e+00 1.039060e+00 5.177359e-01 -5.855624e-01
<VARIANCE> 26
 1.007160e+01 2.288019e+01 4.102330e+01 6.289863e+01 3.429974e+01 5.964625e+01 6.593073e+01 5.478492e+01 7.365789e+01 5.470647e+01 5.610791e+01 2.803932e+01 1.201502e+01 2.397570e-01 5.981271e-01 6.929652e-01 1.805938e+00 1.470261e+00 2.557729e+00 2.012843e+00 2.499017e+00 1.835656e+00 3.106239e+00 1.843694e+00 1.840086e+00 2.523586e-01
<GCONST> 9.785223e+01
<STATE> 8
<MEAN> 26
 2.955460e+00 -1.346946e+00 -1.672791e+00 -1.407543e+01 -1.056995e+01 7.446626e+00 -9.654250e+00 -3.296379e+00 -6.861723e+00 -4.227576e+00 3.181928e-01 -7.485315e+00 7.178551e+01 -1.982171e-02 1.237776e-01 6.581553e-01 1.167084e+00 -1.754981e-01 -6.135601e-01 5.238854e-01 -7.104892e-02 -1.135903e-01 -8.780175e-02 -1.071565e+00 -1.989766e-01 -5.069396e-01
<VARIANCE> 26
 6.957913e+00 2.368815e+01 3.398148e+01 5.609672e+01 5.041582e+01 3.678062e+01 6.894637e+01 4.496048e+01 5.135371e+01 4.577078e+01 3.959428e+01 2.951509e+01 1.017789e+01 1.885072e-01 4.561890e-01 8.532867e-01 9.104367e-01 1.345379e+00 1.088549e+00 2.811986e+00 1.870643e+00 1.890617e+00 1.831497e+00 2.229997e+00 1.603902e+00 1.621599e-01
<GCONST> 9.318617e+01
<STATE> 9
<MEAN> 26
 9.693536e-01 -1.486925e+00 -3.215493e+00 -1.079131e+01 -7.650308e+00 -4.297433e+00 -1.430464e+01 -7.090165e+00 -1.304621e+01 -4.617752e+00 -8.863370e+00 -5.439851e+00 6.506838e+01 -2.597508e-03 6.931824e-01 1.068145e+00 1.403408e+00 -3.621199e-01 -5.525627e-01 -3.917656e-02 -9.691257e-01 1.750240e-01 1.214571e-01 -5.930226e-01 2.747987e-01 -1.011235e+00
<VARIANCE> 26
 7.103252e+00 3.226850e+01 7.274980e+01 6.172979e+01 4.774738e+01 7.621667e+01 7.735453e+01 6.877446e+01 9.030740e+01 8.815395e+01 4.818927e+01 6.502893e+01 4.993541e+01 3.456296e-01 6.701249e-01 2.038552e+00 1.989773e+00 2.282588e+00 2.297101e+00 3.105009e+00 2.228015e+00 3.405419e+00 2.643034e+00 3.015120e+00 2.237419e+00 4.008748e-01
<GCONST> 1.060718e+02
<STATE> 10
<MEAN> 26
 1.985168e+00 5.169154e+00 4.996126e+00 -1.080057e+00 -7.187870e+00 1.974419e+00 -6.706559e+00 -9.183968e+00 -6.169706e+00 -4.852001e-01 -6.165152e+00 -4.618496e+00 6.322301e+01 -3.811155e-01 5.123481e-01 1.264209e-01 8.015364e-01 9.127092e-01 -2.442213e-01 3.277214e-01 2.588045e-02 1.000979e-01 -6.096470e-02 1.082951e-01 1.029867e-01 -9.816915e-01
<VARIANCE> 26
 7.619380e+00 1.298963e+01 2.256593e+01 4.016463e+01 4.830124e+01 3.933388e+01 4.783106e+01 5.152144e+01 3.734303e+01 5.260419e+01 2.454504e+01 2.898095e+01 1.910932e+01 4.152723e-01 9.755790e-01 1.148186e+00 1.303711e+00 1.885079e+00 1.844816e+00 2.451467e+00 2.735322e+00 2.048017e+00 2.283573e+00 1.746606e+00 1.815571e+00 5.001662e-01
<GCONST> 9.630157e+01
<STATE> 11
<MEAN> 26
 -4.533979e+00 1.610104e+00 1.115734e+00 -2.586507e+00 -3.476767e+00 -1.402090e+00 -5.473076e+00 -5.466110e+00 -4.713117e+00 -2.108352e+00 -3.317024e+00 -3.016211e+00 5.826313e+01 -1.195508e+00 -9.656277e-01 -3.188668e-01 -7.807229e-01 -6.396592e-01 -5.205751e-01 1.282336e-01 4.718463e-01 3.809980e-01 -4.396194e-02 9.012073e-01 4.618565e-01 3.568858e-01
<VARIANCE> 26
 2.365588e+01 3.331242e+01 3.389428e+01 4.731467e+01 3.301493e+01 3.812680e+01 5.216240e+01 3.718026e+01 3.467535e+01 3.012481e+01 2.602574e+01 2.200795e+01 3.969987e+01 1.564051e+00 1.446209e+00 3.096735e+00 2.666612e+00 4.054308e+00 3.380864e+00 4.367377e+00 3.494575e+00 3.317934e+00 3.494838e+00 2.631156e+00 2.275697e+00 2.727148e+00
<GCONST> 1.070399e+02
<TRANSP> 12
 0.000000e+00 1.000000e+00 0.000000e+00 0.000000e+00 0.000000e+00 0.000000e+00 0.000000e+00 0.000000e+00 0.000000e+00 0.000000e+00 0.000000e+00 0.000000e+00
 0.000000e+00 7.643794e-01 2.356206e-01 0.000000e+00 0.000000e+00 0.000000e+00 0.000000e+00 0.000000e+00 0.000000e+00 0.000000e+00 0.000000e+00 0.000000e+00
 0.000000e+00 0.000000e+00 8.540142e-01 1.459858e-01 0.000000e+00 0.000000e+00 0.000000e+00 0.000000e+00 0.000000e+00 0.000000e+00 0.000000e+00 0.000000e+00
 0.000000e+00 0.000000e+00 0.000000e+00 8.455917e-01 1.544083e-01 0.000000e+00 0.000000e+00 0.000000e+00 0.000000e+00 0.000000e+00 0.000000e+00 0.000000e+00
 0.000000e+00 0.000000e+00 0.000000e+00 0.000000e+00 6.671587e-01 3.328412e-01 0.000000e+00 0.000000e+00 0.000000e+00 0.000000e+00 0.000000e+00 0.000000e+00
 0.000000e+00 0.000000e+00 0.000000e+00 0.000000e+00 0.000000e+00 6.755246e-01 3.244754e-01 0.000000e+00 0.000000e+00 0.000000e+00 0.000000e+00 0.000000e+00
 0.000000e+00 0.000000e+00 0.000000e+00 0.000000e+00 0.000000e+00 0.000000e+00 7.105097e-01 2.894904e-01 0.000000e+00 0.000000e+00 0.000000e+00 0.000000e+00
 0.000000e+00 0.000000e+00 0.000000e+00 0.000000e+00 0.000000e+00 0.000000e+00 0.000000e+00 8.214436e-01 1.785564e-01 0.000000e+00 0.000000e+00 0.000000e+00
 0.000000e+00 0.000000e+00 0.000000e+00 0.000000e+00 0.000000e+00 0.000000e+00 0.000000e+00 0.000000e+00 7.631890e-01 2.368111e-01 0.000000e+00 0.000000e+00
 0.000000e+00 0.000000e+00 0.000000e+00 0.000000e+00 0.000000e+00 0.000000e+00 0.000000e+00 0.000000e+00 0.000000e+00 8.170974e-01 1.829026e-01 0.000000e+00
 0.000000e+00 0.000000e+00 0.000000e+00 0.000000e+00 0.000000e+00 0.000000e+00 0.000000e+00 0.000000e+00 0.000000e+00 0.000000e+00 7.673947e-01 2.326054e-01
 0.000000e+00 0.000000e+00 0.000000e+00 0.000000e+00 0.000000e+00 0.000000e+00 0.000000e+00 0.000000e+00 0.000000e+00 0.000000e+00 0.000000e+00 0.000000e+00
<ENDHMM>
