~o
<STREAMINFO> 1 13
<VECSIZE> 13<NULLD><MFCC_0><DIAGC>
~h "lx"
<BEGINHMM>
<NUMSTATES> 6
<STATE> 2
<MEAN> 13
 -3.961899e+00 4.676136e+00 1.137929e+01 -4.672565e+00 -1.300192e+01 -3.009644e+00 -1.111067e+01 -5.902219e+00 -9.796010e+00 -1.606209e+00 -1.196942e+00 -3.595001e+00 6.985853e+01
<VARIANCE> 13
 1.427499e+01 3.243058e+01 4.691040e+01 9.155379e+01 5.842976e+01 6.415143e+01 8.015435e+01 7.003751e+01 4.622989e+01 5.270098e+01 8.199679e+01 3.829140e+01 3.767384e+01
<GCONST> 7.473637e+01
<STATE> 3
<MEAN> 13
 -2.450314e+01 9.956583e+00 2.654456e+00 -3.157772e+00 -2.427941e+00 -4.159044e+00 -4.503899e-01 -5.989106e+00 -3.725367e+00 -2.153507e+00 -2.206269e+00 -1.091942e+00 6.947501e+01
<VARIANCE> 13
 4.730868e+01 2.844660e+01 4.692756e+01 3.428724e+01 2.502253e+01 2.880633e+01 3.786002e+01 3.712277e+01 2.470198e+01 2.570721e+01 2.595181e+01 2.078320e+01 2.046466e+01
<GCONST> 6.807174e+01
<STATE> 4
<MEAN> 13
 -9.145710e+00 3.506023e+00 1.544854e+01 -9.135205e+00 -1.476939e+01 -4.539081e+00 -1.735731e+01 -8.430566e+00 -1.327101e+01 -4.120794e+00 -3.022920e+00 -3.750466e+00 7.108356e+01
<VARIANCE> 13
 1.547228e+01 2.617282e+01 4.274713e+01 9.010119e+01 2.802496e+01 4.043704e+01 4.550335e+01 6.814080e+01 2.553384e+01 4.684666e+01 7.852992e+01 3.487345e+01 2.884232e+01
<GCONST> 7.158855e+01
<STATE> 5
<MEAN> 13
 -5.432400e+00 2.832130e+00 1.046581e+01 5.967274e-01 -9.242216e+00 -2.977692e+00 -7.559011e+00 -6.175899e+00 -5.391479e+00 -5.179930e+00 -6.768970e-01 -2.497546e+00 6.471024e+01
<VARIANCE> 13
 1.503590e+01 3.050419e+01 6.560273e+01 3.547440e+01 7.449326e+01 6.264771e+01 4.392703e+01 3.832536e+01 2.832645e+01 5.695533e+01 3.669827e+01 2.691590e+01 7.595914e+01
<GCONST> 7.226171e+01
<TRANSP> 6
 0.000000e+00 1.000000e+00 0.000000e+00 0.000000e+00 0.000000e+00 0.000000e+00
 0.000000e+00 9.417827e-01 5.821732e-02 0.000000e+00 0.000000e+00 0.000000e+00
 0.000000e+00 0.000000e+00 9.120812e-01 8.791880e-02 0.000000e+00 0.000000e+00
 0.000000e+00 0.000000e+00 0.000000e+00 9.093457e-01 9.065434e-02 0.000000e+00
 0.000000e+00 0.000000e+00 0.000000e+00 0.000000e+00 8.810675e-01 1.189325e-01
 0.000000e+00 0.000000e+00 0.000000e+00 0.000000e+00 0.000000e+00 0.000000e+00
<ENDHMM>
