~o
<STREAMINFO> 1 52
<VECSIZE> 52<NULLD><MFCC_D_A_T_0><DIAGC>
~h "sil"
<BEGINHMM>
<NUMSTATES> 12
<STATE> 2
<NUMMIXES> 3
<MIXTURE> 1 2.468038e-01
<MEAN> 52
 -1.147541e+01 1.039337e-01 -2.553150e+00 -6.825302e+00 3.035243e+00 -3.233427e+00 -3.585925e+00 1.515779e+00 3.194456e-01 2.112382e+00 -2.279782e+00 -4.353143e+00 5.905471e+01 1.031118e+00 -9.082864e-01 -6.000402e-01 6.604419e-01 -4.895068e-01 -1.799153e-01 8.142770e-01 5.646746e-01 3.892650e-01 1.577478e-01 -3.510501e-01 -8.145677e-01 4.061528e-01 9.205400e-02 -7.853948e-02 -2.378914e-02 3.417016e-02 -2.059537e-01 2.439885e-02 4.128309e-02 -2.105412e-02 -1.168720e-01 -2.810873e-02 -3.087516e-02 1.679961e-02 3.413777e-02 -3.849487e-02 5.267515e-02 7.620852e-02 -4.412780e-02 9.574930e-02 5.450492e-02 -6.511633e-02 -1.012840e-01 -9.345507e-02 -7.402883e-03 6.036730e-02 9.419105e-02 -8.350362e-02
<VARIANCE> 52
 4.547089e+01 3.142869e+01 1.793929e+01 2.670732e+01 4.489322e+01 3.816662e+01 2.885338e+01 3.424184e+01 2.458818e+01 3.679579e+01 2.244426e+01 2.520285e+01 1.946786e+01 4.046667e+00 1.624630e+00 1.822516e+00 2.469094e+00 2.828606e+00 2.675571e+00 2.992579e+00 2.340312e+00 3.122936e+00 4.059093e+00 2.719608e+00 2.026492e+00 9.260495e-01 3.785294e-01 2.788695e-01 2.626449e-01 3.067761e-01 3.555117e-01 5.379830e-01 5.271935e-01 4.093850e-01 6.078398e-01 5.513137e-01 3.563918e-01 3.054398e-01 1.863142e-01 8.763696e-02 5.990124e-02 6.155893e-02 7.960372e-02 1.129675e-01 1.304123e-01 1.360292e-01 8.526316e-02 1.161880e-01 1.318814e-01 8.610091e-02 5.862575e-02 3.948114e-02
<GCONST> 1.061023e+02
<MIXTURE> 2 4.486088e-01
<MEAN> 52
 -8.959522e+00 -2.862470e+00 -3.107532e+00 -5.367326e+00 -4.656487e+00 -3.284900e+00 -4.052269e+00 -3.538195e+00 -3.239404e+00 -1.431723e+00 -2.173334e+00 -1.744003e+00 5.336498e+01 -1.243499e-01 -1.649639e-01 -2.514270e-01 -2.673207e-02 2.933923e-02 -2.176169e-01 -5.594698e-02 -1.738598e-01 2.866316e-01 -4.317082e-02 2.578268e-01 1.247146e-01 -1.814728e-01 2.198021e-01 2.961433e-01 3.442556e-01 3.612032e-01 3.354075e-01 3.072675e-01 9.588489e-02 6.797368e-02 6.166558e-02 -5.698163e-02 -7.560746e-02 -8.327037e-02 1.402224e-01 -6.253693e-02 -9.367946e-02 -9.753508e-02 -7.232243e-02 -2.314507e-02 1.763509e-02 3.454430e-02 7.485781e-02 8.013240e-03 1.863126e-02 -1.950653e-02 -5.055052e-04 -4.561913e-02
<VARIANCE> 52
 8.869574e+00 9.002539e+00 1.672870e+01 1.651053e+01 1.480840e+01 1.748726e+01 1.934624e+01 2.244583e+01 2.358176e+01 2.183886e+01 1.951919e+01 1.723722e+01 1.066693e+01 3.422143e-01 6.246359e-01 9.696793e-01 1.410171e+00 1.707208e+00 1.748518e+00 1.883485e+00 1.716627e+00 1.638481e+00 1.852096e+00 1.625868e+00 1.520942e+00 1.939302e-01 6.493483e-02 1.408821e-01 2.159775e-01 2.358214e-01 2.684657e-01 2.706897e-01 3.996821e-01 3.829404e-01 3.930405e-01 3.725131e-01 3.541591e-01 2.761790e-01 4.420824e-02 1.408022e-02 2.745138e-02 4.066020e-02 6.142362e-02 7.772617e-02 8.061002e-02 8.975630e-02 8.447471e-02 7.729105e-02 8.869004e-02 7.998750e-02 7.171359e-02 8.978967e-03
<GCONST> 7.484603e+01
<MIXTURE> 3 3.045874e-01
<MEAN> 52
 -8.138049e+00 -1.308318e+00 -3.337780e+00 -2.281159e+00 2.371750e+00 -7.857296e-01 -2.618172e+00 -1.739102e+00 -1.013505e+00 1.398682e+00 -2.537172e+00 -3.699407e+00 5.633084e+01 -2.275670e-01 -9.142514e-02 1.042380e-02 2.322652e-01 3.631909e-02 -9.788229e-02 -1.841649e-01 -9.121684e-02 -1.798447e-01 -3.672768e-01 5.140485e-02 4.172365e-01 -2.677477e-01 -6.330185e-02 -7.722865e-02 -5.108847e-02 -7.465012e-02 -8.250342e-02 1.790290e-02 1.143715e-02 3.023760e-02 5.025644e-02 -1.801405e-02 -1.508691e-02 -9.393267e-02 8.701855e-03 5.128004e-04 -9.920212e-04 -2.564431e-02 -7.924845e-03 -3.055643e-03 2.293432e-02 2.927677e-02 9.429081e-03 3.732713e-02 1.136559e-02 2.456777e-02 -2.559794e-02 2.951428e-02
<VARIANCE> 52
 3.101474e+01 1.221246e+01 1.509856e+01 1.653454e+01 3.888479e+01 3.369707e+01 2.112492e+01 1.955083e+01 2.582618e+01 3.204267e+01 1.931422e+01 2.756246e+01 1.822078e+01 4.318251e-01 4.850655e-01 6.455145e-01 5.751569e-01 9.837285e-01 1.708331e+00 1.503829e+00 1.502633e+00 1.655499e+00 1.716225e+00 1.164253e+00 1.255450e+00 2.919713e-01 7.080190e-02 8.046034e-02 1.278431e-01 8.539858e-02 1.328515e-01 2.664208e-01 2.743943e-01 1.971544e-01 2.669974e-01 2.877260e-01 2.116988e-01 1.853491e-01 3.345832e-02 9.158036e-03 1.599044e-02 1.982309e-02 1.478019e-02 2.179769e-02 3.809490e-02 3.828386e-02 3.272440e-02 4.108945e-02 4.689509e-02 3.767993e-02 2.867452e-02 6.273208e-03
<GCONST> 6.106025e+01
<STATE> 3
<NUMMIXES> 3
<MIXTURE> 1 2.309941e-01
<MEAN> 52
 -9.621500e+00 -3.196777e+00 -4.858485e+00 -2.001695e+00 -1.970227e-01 -8.859543e-01 -2.722953e+00 -1.458900e+00 -4.029717e-01 -4.869821e-01 -1.563515e+00 -1.906318e+00 5.453020e+01 -2.527997e-01 -1.788954e-01 -1.505521e-01 1.099604e-01 -4.156096e-02 -5.391252e-02 -4.013186e-03 -1.491431e-01 -1.444107e-01 -9.829267e-02 3.738685e-02 1.024898e-01 1.346262e-01 7.666634e-02 3.945852e-02 1.693978e-01 -4.041861e-02 -4.351485e-02 -4.371953e-02 1.121588e-02 4.608481e-02 -6.888045e-02 1.123021e-02 -1.778895e-02 1.793225e-03 -8.137644e-02 1.855348e-02 -2.559645e-03 9.728208e-03 -2.525730e-02 -1.872558e-03 -1.768300e-02 2.433824e-03 3.807684e-02 4.161810e-02 -1.611306e-03 -4.006266e-03 -9.776648e-04 -3.067037e-02
<VARIANCE> 52
 1.540646e+01 9.979265e+00 1.860406e+01 2.010340e+01 2.699139e+01 1.988888e+01 2.424094e+01 2.493045e+01 2.003313e+01 1.889250e+01 2.146879e+01 2.039184e+01 2.511987e+01 1.457559e+00 8.785895e-01 1.856037e+00 1.575483e+00 1.838584e+00 1.925449e+00 2.327249e+00 2.345139e+00 1.889436e+00 1.628686e+00 2.089379e+00 1.373178e+00 8.667639e-01 2.708437e-01 1.401841e-01 3.652790e-01 3.456433e-01 3.621456e-01 3.722903e-01 4.447533e-01 4.710691e-01 3.614676e-01 3.323424e-01 4.513620e-01 2.670051e-01 1.584520e-01 6.325648e-02 3.546342e-02 8.730279e-02 7.989395e-02 7.734208e-02 8.602163e-02 1.103929e-01 1.123181e-01 8.418012e-02 7.687466e-02 9.892934e-02 5.994844e-02 3.351845e-02
<GCONST> 9.176071e+01
<MIXTURE> 2 3.764112e-01
<MEAN> 52
 -8.495405e+00 -2.901740e+00 -3.047890e+00 -3.750425e+00 -2.293801e+00 -1.696624e+00 -3.165407e+00 -1.788070e+00 -8.366814e-01 -1.358719e+00 -1.720764e+00 -7.819621e-01 5.132626e+01 1.226411e-03 -8.442375e-02 -1.327005e-01 -2.665542e-01 -4.443941e-01 -7.078491e-01 -5.586860e-01 -2.062565e-01 -5.340897e-02 1.264984e-01 2.648609e-01 2.427461e-01 -8.481430e-02 -2.519450e-02 -6.836143e-03 -6.642877e-03 2.055319e-02 -2.616632e-02 -1.054202e-02 -7.178196e-03 -5.123050e-02 -4.853961e-02 -3.681451e-02 -3.000944e-02 1.250382e-02 2.952295e-02 -9.499890e-04 1.040336e-02 1.639096e-02 5.609448e-02 9.708995e-02 1.493655e-01 1.175955e-01 5.671673e-02 1.932338e-02 -3.209819e-02 -6.273291e-02 -4.503150e-02 7.880827e-03
<VARIANCE> 52
 4.055567e+00 5.104775e+00 7.460348e+00 1.171025e+01 1.381569e+01 1.615550e+01 1.673242e+01 1.709488e+01 1.548425e+01 1.613425e+01 1.780119e+01 1.399425e+01 6.054544e+00 1.677418e-01 3.257421e-01 4.673412e-01 7.249787e-01 8.126467e-01 6.372802e-01 9.519216e-01 1.229674e+00 1.464359e+00 1.311699e+00 1.405314e+00 1.048240e+00 5.869409e-02 3.463201e-02 6.350843e-02 9.880124e-02 1.573790e-01 2.154912e-01 2.404621e-01 2.712348e-01 2.603278e-01 2.790933e-01 2.651383e-01 3.011290e-01 2.227804e-01 1.540778e-02 8.184228e-03 1.475693e-02 2.205988e-02 3.531447e-02 4.010309e-02 3.022638e-02 4.622798e-02 5.844038e-02 6.962057e-02 6.118038e-02 6.765267e-02 4.463474e-02 3.080246e-03
<GCONST> 4.946392e+01
<MIXTURE> 3 3.925947e-01
<MEAN> 52
 -8.423339e+00 -2.792815e+00 -2.850402e+00 -3.510164e+00 -2.758686e+00 -1.683042e+00 -3.131479e+00 -2.227023e+00 -1.150435e+00 -1.665208e+00 -1.836027e+00 -6.622178e-01 5.138340e+01 7.393361e-02 2.797672e-02 5.926495e-02 2.509024e-01 5.133764e-01 7.607499e-01 5.906206e-01 3.639591e-01 1.675551e-01 -8.788817e-02 -2.509276e-01 -1.460813e-01 -6.339625e-02 -1.242477e-02 1.413280e-02 -1.388727e-02 -3.639039e-02 2.683770e-02 -1.330224e-02 -7.489199e-04 3.825263e-02 -9.046057e-03 -1.190539e-02 -1.916082e-02 -2.145404e-02 3.218109e-02 -2.403081e-02 -2.306811e-02 -3.736923e-02 -6.443444e-02 -1.198623e-01 -1.831488e-01 -1.350665e-01 -7.341871e-02 -3.089345e-02 2.210977e-02 6.329739e-02 4.538567e-02 -1.547320e-03
<VARIANCE> 52
 4.384076e+00 5.734399e+00 8.812683e+00 1.118055e+01 1.349303e+01 1.478780e+01 1.780541e+01 1.787121e+01 1.863007e+01 1.616903e+01 1.686391e+01 1.404194e+01 7.456110e+00 1.589856e-01 3.473446e-01 5.214587e-01 7.289383e-01 8.773466e-01 7.112605e-01 1.143121e+00 1.257053e+00 1.412232e+00 1.388056e+00 1.423104e+00 1.176635e+00 6.702825e-02 3.760138e-02 6.185062e-02 1.075979e-01 1.628643e-01 2.135628e-01 2.427818e-01 2.788728e-01 2.796801e-01 2.881128e-01 2.772445e-01 3.005659e-01 2.260718e-01 1.392510e-02 8.723224e-03 1.561175e-02 2.503708e-02 3.596302e-02 4.308902e-02 3.522780e-02 5.664375e-02 6.273086e-02 6.733842e-02 6.649270e-02 6.927221e-02 5.221374e-02 3.322802e-03
<GCONST> 5.224950e+01
<STATE> 4
<NUMMIXES> 3
<MIXTURE> 1 1.739256e-01
<MEAN> 52
 -1.895952e+00 -5.695325e+00 -5.962077e+00 -2.462811e+00 6.230118e-01 -6.289951e-01 2.302979e+00 6.997419e-01 -1.383974e+00 4.431225e+00 -4.226090e+00 -9.447308e+00 6.083863e+01 -2.106878e-01 4.223761e-01 5.996490e-02 2.244122e-01 2.607043e-01 6.120568e-01 -8.512670e-02 -6.575509e-01 -1.323564e-01 -1.737321e-01 2.264682e-01 5.271938e-01 -5.033063e-01 -2.141723e-01 1.692375e-01 8.653475e-02 -4.350076e-02 2.528346e-02 -5.882095e-03 -1.742210e-01 3.547821e-02 7.186880e-02 -9.651645e-02 3.158967e-02 1.367465e-01 -7.751717e-02 5.885492e-02 -6.834528e-02 -4.022064e-03 -8.084262e-03 -5.916503e-02 -6.341359e-02 1.990875e-02 6.247736e-02 1.013354e-02 1.166375e-02 -4.283348e-02 -4.646327e-02 3.329940e-02
<VARIANCE> 52
 4.227146e+00 1.336414e+01 1.135772e+01 2.130075e+01 3.576883e+01 2.832828e+01 3.133742e+01 2.115125e+01 3.484663e+01 2.182178e+01 2.075613e+01 1.563931e+01 1.450269e+01 5.588024e-01 7.446806e-01 6.014307e-01 8.281915e-01 1.391387e+00 1.164761e+00 2.409462e+00 1.927860e+00 1.931374e+00 1.347312e+00 1.037839e+00 1.053094e+00 3.119950e-01 6.404270e-02 1.452732e-01 1.522294e-01 1.918104e-01 2.621124e-01 2.030008e-01 4.621475e-01 3.932990e-01 4.417413e-01 2.917301e-01 2.792269e-01 1.600459e-01 3.770960e-02 1.590159e-02 2.170422e-02 2.874806e-02 4.466209e-02 5.952232e-02 5.565223e-02 1.162268e-01 1.027080e-01 1.005450e-01 5.662922e-02 5.208713e-02 3.997171e-02 8.641983e-03
<GCONST> 7.178024e+01
<MIXTURE> 2 4.923349e-01
<MEAN> 52
 -1.033342e+01 -2.364488e+00 -3.735806e+00 -4.645987e+00 -2.776908e+00 -3.896825e+00 -5.085419e+00 -2.906489e+00 -1.920087e+00 -1.588186e+00 -2.537100e+00 -1.243013e+00 5.540754e+01 7.231546e-03 1.475453e-02 -1.342570e-01 -2.102590e-01 -1.443770e-01 -1.893430e-01 -4.872396e-01 -5.220153e-01 -5.077162e-01 -4.163080e-01 -7.572340e-02 1.188214e-01 4.171260e-02 -1.474469e-02 -9.266927e-03 -3.664009e-02 2.358631e-02 5.918960e-02 1.271227e-01 1.151387e-01 1.268812e-01 1.070899e-01 7.788719e-02 5.997810e-02 -2.647746e-02 3.280524e-02 -1.910938e-02 -1.227920e-02 1.822213e-02 2.728531e-02 1.899420e-02 3.199158e-02 9.603529e-02 1.144496e-01 1.216668e-01 9.737714e-02 2.977509e-02 -1.177860e-02 -7.758989e-03
<VARIANCE> 52
 1.559473e+01 7.766326e+00 1.234033e+01 1.989307e+01 2.094461e+01 2.664975e+01 2.116541e+01 2.852648e+01 2.184635e+01 1.855644e+01 1.660348e+01 1.945343e+01 2.727872e+01 3.686264e-01 4.222009e-01 6.460586e-01 7.776226e-01 9.725047e-01 1.222496e+00 1.495833e+00 1.621332e+00 1.707017e+00 1.643568e+00 1.530056e+00 1.752064e+00 1.486921e-01 6.544328e-02 8.950704e-02 1.453923e-01 1.591136e-01 1.808868e-01 2.756205e-01 3.303438e-01 3.456933e-01 3.354758e-01 3.510433e-01 2.938201e-01 3.443704e-01 2.737978e-02 1.252296e-02 1.952898e-02 2.966489e-02 3.397921e-02 4.196568e-02 6.200917e-02 7.512505e-02 7.186035e-02 8.523630e-02 8.556963e-02 7.250478e-02 8.333180e-02 6.248984e-03
<GCONST> 6.871149e+01
<MIXTURE> 3 3.337395e-01
<MEAN> 52
 -9.080272e+00 -2.474292e+00 -3.309390e+00 -1.305721e+00 1.547686e+00 -2.841896e-01 -1.611589e+00 2.179221e-01 -3.410934e-02 -1.149534e-01 -1.652988e+00 -8.529837e-01 5.376135e+01 4.312404e-02 4.432228e-02 6.235972e-01 -3.960490e-02 -3.342277e-01 -1.631909e-01 4.583585e-01 8.770600e-01 3.269761e-01 -6.397476e-02 -2.190098e-01 1.264042e-02 -3.388950e-01 -2.573314e-02 -1.086647e-01 -6.101548e-02 -9.360512e-02 -2.175318e-01 -3.516948e-01 -2.249859e-01 -1.277465e-01 -1.577716e-01 -1.314890e-01 -9.637295e-02 -1.348687e-01 3.244309e-03 -5.156771e-02 -4.744568e-02 -1.530980e-01 -2.942724e-03 7.226267e-02 4.468558e-02 -1.165192e-01 -2.056519e-01 -7.165057e-02 -1.848313e-02 8.424137e-02 5.193189e-02 7.905313e-02
<VARIANCE> 52
 1.389712e+01 8.855741e+00 9.385386e+00 1.480081e+01 1.906235e+01 2.960833e+01 2.421004e+01 2.366404e+01 2.109162e+01 1.893595e+01 1.375553e+01 1.664517e+01 5.138202e+01 5.889882e-01 5.979993e-01 7.548002e-01 1.217420e+00 1.495151e+00 2.227461e+00 2.012062e+00 1.576952e+00 2.100900e+00 1.649408e+00 1.690018e+00 1.642559e+00 4.822176e-01 1.306158e-01 1.251025e-01 1.654270e-01 1.769122e-01 2.238103e-01 3.376125e-01 4.022864e-01 3.978909e-01 3.806231e-01 2.993375e-01 2.646238e-01 3.026341e-01 9.857124e-02 2.575035e-02 3.409963e-02 3.526801e-02 5.493635e-02 6.810495e-02 1.008122e-01 1.072195e-01 8.080569e-02 9.516760e-02 8.207948e-02 7.997946e-02 7.827292e-02 2.275372e-02
<GCONST> 8.033268e+01
<STATE> 5
<NUMMIXES> 3
<MIXTURE> 1 1.156338e-01
<MEAN> 52
 -9.397420e+00 -1.153410e+01 -9.298097e+00 -2.343360e+00 1.204183e+01 7.899323e+00 2.198989e+00 -6.512352e+00 -3.948424e+00 -3.586775e+00 5.491791e+00 4.552744e+00 6.383767e+01 5.417309e-01 4.799203e-01 -1.244674e-01 -3.487859e-01 -7.286364e-01 1.120803e+00 4.712719e-02 -8.171945e-01 -7.757854e-01 7.209324e-01 4.535248e-01 1.120522e+00 -1.235815e+00 4.267456e-02 1.189182e+00 8.273380e-01 -4.638309e-02 -1.873044e+00 -1.424979e+00 -8.248784e-01 5.840520e-01 2.135700e-01 2.667682e-01 -9.681155e-01 -7.970988e-01 -1.185093e+00 -1.375011e-01 -1.164834e-01 5.190503e-02 2.116076e-02 7.164720e-02 -3.171159e-01 -2.356034e-02 1.788611e-01 1.893549e-01 -1.492526e-01 -7.819013e-02 -2.548083e-01 2.237624e-01
<VARIANCE> 52
 9.879219e+00 1.359640e+01 1.142013e+01 1.534158e+01 3.110781e+01 2.789163e+01 2.327535e+01 2.757598e+01 3.136540e+01 2.106047e+01 2.091363e+01 3.058530e+01 4.361965e+01 4.287471e-01 3.799565e+00 2.246685e+00 8.278152e-01 1.078381e+01 7.182209e+00 4.633300e+00 2.397765e+00 2.065992e+00 1.864337e+00 4.375970e+00 3.142543e+00 4.893472e+00 2.583922e-01 3.506300e-01 2.088454e-01 2.098084e-01 8.463276e-01 7.597277e-01 6.332670e-01 5.919114e-01 6.777261e-01 4.631041e-01 4.496342e-01 6.479260e-01 6.454641e-01 2.925400e-02 1.951817e-01 1.030856e-01 4.644970e-02 5.425817e-01 3.418914e-01 2.300394e-01 1.019201e-01 1.077772e-01 9.447046e-02 2.027916e-01 1.670450e-01 2.477373e-01
<GCONST> 1.139247e+02
<MIXTURE> 2 4.474934e-01
<MEAN> 52
 -8.537580e+00 -3.174890e+00 -3.224320e+00 -4.099903e+00 -3.026053e+00 -2.863297e+00 -3.835087e+00 -2.584404e+00 -2.325877e+00 -2.725499e+00 -2.983506e+00 -1.922215e+00 5.409375e+01 -2.711719e-01 -2.461924e-01 -9.274342e-02 -1.781854e-01 -3.753826e-01 -6.207864e-01 -1.915440e-01 3.547117e-01 2.794218e-01 -1.758538e-01 -2.174092e-01 -2.599436e-01 -2.109040e-02 -5.585126e-02 -2.003967e-01 -1.612618e-01 9.674605e-02 3.707733e-01 2.424579e-01 1.253786e-01 2.475818e-03 1.260506e-01 1.545148e-01 2.787392e-01 2.010037e-01 2.723593e-01 5.256907e-02 5.161401e-02 9.702791e-03 2.523553e-02 7.065534e-02 1.390602e-01 4.312168e-02 -7.565934e-02 -6.847399e-02 3.908210e-02 5.356712e-02 8.333565e-02 -8.492504e-03
<VARIANCE> 52
 1.044615e+01 1.003878e+01 1.037652e+01 1.654160e+01 1.925514e+01 2.414796e+01 1.989721e+01 2.465772e+01 2.577208e+01 2.218007e+01 1.916405e+01 1.666370e+01 1.426095e+01 4.069884e-01 7.157765e-01 8.677782e-01 8.383528e-01 1.415164e+00 1.730346e+00 1.677502e+00 1.758031e+00 1.448980e+00 1.511665e+00 1.343207e+00 1.233423e+00 3.935049e-01 9.271445e-02 2.514566e-01 1.522207e-01 1.831242e-01 4.490204e-01 4.106502e-01 4.028584e-01 4.082510e-01 4.622083e-01 3.952806e-01 2.978442e-01 2.842136e-01 1.464731e-01 1.617180e-02 3.871586e-02 4.273722e-02 3.983331e-02 7.846771e-02 9.033935e-02 8.595851e-02 7.308850e-02 7.121091e-02 7.904893e-02 6.444596e-02 6.080154e-02 2.691828e-02
<GCONST> 7.822723e+01
<MIXTURE> 3 4.368728e-01
<MEAN> 52
 -9.469846e+00 -4.430120e+00 -3.611539e+00 -1.436153e+00 1.812633e-01 -1.049688e+00 -2.553841e+00 -1.798013e+00 -1.594589e+00 -9.177930e-01 -1.058456e+00 -3.225740e-01 5.452522e+01 -4.382268e-01 -2.649046e-01 1.973663e-02 7.624643e-03 3.320268e-01 -6.048457e-02 1.375289e-01 7.849834e-02 5.575065e-02 -2.765807e-01 1.577948e-01 -1.862952e-02 5.467579e-01 -4.210162e-03 -5.347077e-02 -6.622095e-02 -6.910007e-02 8.123513e-02 1.018811e-01 8.941963e-02 -3.395661e-02 -2.091205e-02 -5.765796e-02 4.302307e-02 3.110854e-02 3.718767e-02 5.059919e-02 2.682969e-02 -1.007397e-02 -1.903970e-02 -7.691769e-02 1.455998e-02 -2.325079e-02 -1.844720e-02 -1.901876e-02 3.851977e-02 2.008906e-03 3.838409e-02 -1.004728e-01
<VARIANCE> 52
 1.603338e+01 2.345151e+01 1.651181e+01 1.794843e+01 2.629931e+01 2.829550e+01 2.273796e+01 2.077321e+01 2.523600e+01 2.228039e+01 2.413214e+01 2.082647e+01 4.270033e+01 1.687264e+00 4.157050e+00 2.270268e+00 1.508491e+00 6.621560e+00 5.711197e+00 3.137553e+00 3.043684e+00 3.474287e+00 2.249554e+00 3.745776e+00 3.138401e+00 3.853337e+00 2.574457e-01 4.837051e-01 2.540790e-01 2.344659e-01 5.849661e-01 7.593632e-01 5.126331e-01 4.617819e-01 5.555888e-01 4.420256e-01 5.728660e-01 4.976082e-01 5.222616e-01 7.565557e-02 2.095705e-01 9.764379e-02 6.050102e-02 3.065221e-01 2.521798e-01 1.558013e-01 1.323116e-01 1.645986e-01 1.118666e-01 1.915650e-01 1.558584e-01 2.004609e-01
<GCONST> 1.159087e+02
<STATE> 6
<NUMMIXES> 3
<MIXTURE> 1 3.098042e-01
<MEAN> 52
 -1.215722e+01 -4.560270e+00 -3.081543e+00 -4.083446e+00 -2.355972e+00 -3.289429e+00 -2.949384e+00 -9.161155e-01 -2.626523e+00 -2.811082e+00 -6.876969e-01 -1.993456e-01 5.678541e+01 -4.713959e-01 1.521119e-01 -1.268579e-01 -7.266250e-01 -8.774229e-01 -9.132451e-01 -8.694236e-01 -7.645820e-01 -5.722288e-01 -2.933651e-01 -6.432113e-02 -1.022574e-01 5.088980e-02 1.060424e-01 -1.005067e-02 -2.811211e-03 4.197488e-02 -4.771709e-02 2.789652e-02 -5.863399e-02 -3.150553e-02 7.668899e-02 -3.149181e-02 -1.386384e-01 -6.531962e-02 -3.680192e-02 8.440555e-02 -1.106063e-02 5.133788e-02 1.546580e-01 1.767736e-01 1.919521e-01 1.921117e-01 1.777735e-01 1.165483e-01 5.671360e-02 1.548771e-02 3.048132e-02 -3.286215e-03
<VARIANCE> 52
 1.254157e+01 1.908101e+01 1.955308e+01 2.130541e+01 1.849559e+01 2.776318e+01 2.913519e+01 2.836120e+01 2.975768e+01 2.948865e+01 2.438409e+01 1.897264e+01 1.555969e+01 6.747246e-01 9.579604e-01 1.346584e+00 9.846516e-01 1.387430e+00 1.452241e+00 1.683385e+00 2.107230e+00 1.733258e+00 2.793536e+00 1.882104e+00 1.424850e+00 6.274903e-01 1.379647e-01 1.589138e-01 2.207106e-01 2.484548e-01 3.046662e-01 4.219603e-01 3.954589e-01 5.053101e-01 4.728913e-01 5.705037e-01 3.902824e-01 2.843349e-01 8.446939e-02 2.393372e-02 3.805184e-02 5.614090e-02 4.046042e-02 6.659096e-02 7.281504e-02 8.193062e-02 9.181599e-02 8.225655e-02 1.340330e-01 9.154513e-02 6.620591e-02 2.307186e-02
<GCONST> 8.655123e+01
<MIXTURE> 2 3.058724e-01
<MEAN> 52
 -1.060834e+01 -4.028058e+00 -3.965902e+00 -4.233153e+00 -2.798014e+00 -3.405486e+00 -2.875751e+00 -8.189068e-01 -9.865895e-01 -2.294060e+00 -2.485757e+00 -9.694432e-01 5.494920e+01 1.288760e-02 -1.384015e-01 -2.530491e-01 -2.567954e-01 -3.366024e-01 1.319981e-01 4.788198e-01 7.765700e-01 1.159594e+00 1.431502e+00 7.683773e-01 1.058994e-01 -1.420670e-01 4.648870e-02 7.856218e-03 3.065786e-02 1.844900e-02 -2.225230e-02 5.231688e-02 -1.230269e-01 -1.315583e-01 -5.116986e-02 5.525782e-02 1.276137e-01 7.379974e-02 -4.968396e-03 -7.071128e-03 4.036971e-02 5.662436e-02 4.433022e-02 6.367917e-02 -2.257068e-02 -1.029469e-01 -1.641235e-01 -2.636324e-01 -3.181812e-01 -1.770831e-01 -2.939366e-02 2.190732e-02
<VARIANCE> 52
 1.143525e+01 1.606468e+01 1.487783e+01 2.205860e+01 1.326158e+01 2.039276e+01 1.890954e+01 2.535443e+01 2.468740e+01 2.460082e+01 2.038502e+01 1.584058e+01 1.410541e+01 2.822271e-01 3.953124e-01 6.438904e-01 7.232730e-01 7.687694e-01 1.119436e+00 1.422391e+00 1.524323e+00 1.346884e+00 1.210744e+00 1.212442e+00 1.406908e+00 1.581411e-01 6.422444e-02 1.080710e-01 1.535634e-01 1.883912e-01 2.132806e-01 2.867571e-01 2.684512e-01 3.540945e-01 4.013803e-01 3.960960e-01 2.769812e-01 2.398124e-01 3.943209e-02 1.254624e-02 2.144502e-02 3.131772e-02 3.463313e-02 3.954135e-02 5.167172e-02 6.482513e-02 7.003322e-02 6.178881e-02 5.680958e-02 5.497216e-02 6.037590e-02 7.486584e-03
<GCONST> 6.569279e+01
<MIXTURE> 3 3.843234e-01
<MEAN> 52
 -1.110796e+01 -4.743196e+00 -3.582289e+00 -4.433178e+00 -3.490368e+00 -4.169046e+00 -4.546476e+00 -1.448224e+00 -2.127250e+00 -3.306485e+00 -2.076496e+00 -1.015699e+00 5.666412e+01 1.869797e-01 1.119332e-01 1.243526e-01 5.482232e-01 7.559001e-01 7.074524e-01 4.696945e-01 1.172402e-01 -1.812111e-01 -4.595737e-01 -3.756822e-01 4.513208e-02 4.619636e-02 3.430408e-02 6.092577e-02 -3.084341e-03 4.937906e-03 8.856931e-02 1.290761e-01 1.110523e-01 -3.527464e-04 3.036859e-02 1.668257e-01 1.360497e-01 5.691351e-02 -3.016336e-02 -5.418884e-02 -1.907648e-02 -3.425969e-02 -1.330170e-01 -1.859783e-01 -1.593657e-01 -9.854935e-02 -1.998739e-02 5.234967e-02 1.032802e-01 6.272343e-02 -1.253001e-02 -1.962062e-02
<VARIANCE> 52
 1.330196e+01 1.942947e+01 1.595299e+01 2.229984e+01 2.265853e+01 2.312885e+01 2.815990e+01 2.617106e+01 2.802506e+01 2.673151e+01 2.287626e+01 1.609946e+01 1.180838e+01 5.401357e-01 7.122927e-01 8.912867e-01 7.445821e-01 9.786358e-01 1.316595e+00 1.393547e+00 1.764409e+00 1.875439e+00 2.000452e+00 1.581229e+00 1.133362e+00 2.686785e-01 1.035836e-01 1.278388e-01 1.853187e-01 2.100952e-01 3.174720e-01 3.139631e-01 3.813764e-01 3.711931e-01 3.637331e-01 4.937022e-01 3.272207e-01 2.139342e-01 4.909351e-02 2.246439e-02 2.893641e-02 4.158217e-02 3.504912e-02 4.551140e-02 6.125490e-02 6.746291e-02 8.416577e-02 8.438263e-02 9.972963e-02 7.295645e-02 5.148843e-02 1.161431e-02
<GCONST> 7.627641e+01
<STATE> 7
<NUMMIXES> 3
<MIXTURE> 1 1.265864e-01
<MEAN> 52
 -1.145646e+01 -2.093427e+00 -1.450211e+00 -2.261585e+00 -1.297620e+00 -2.335912e+00 -2.268396e+00 -8.890236e-01 -1.646448e+00 -2.418001e+00 -3.185862e-01 -1.198005e-01 5.714466e+01 2.056800e-01 3.549481e-02 5.198221e-01 3.291655e-01 -2.322033e-01 -2.148444e-01 -2.939031e-02 5.939245e-01 4.137541e-01 5.032080e-01 4.446993e-01 1.319770e-01 2.309894e-01 5.245439e-02 -1.062852e-01 -9.785178e-02 -1.246387e-01 -6.511060e-02 -7.047614e-02 -1.437153e-01 -2.902046e-02 -7.029842e-02 4.034085e-02 -5.046380e-03 -4.805023e-02 -4.685107e-02 -3.174341e-02 -8.730293e-03 -5.601717e-02 -4.994443e-02 1.340228e-02 1.413872e-02 -2.273539e-02 -1.143887e-01 -8.757536e-02 -1.253429e-01 -4.891016e-02 -1.038411e-02 -2.193924e-03
<VARIANCE> 52
 2.393494e+01 2.150196e+01 4.534399e+01 2.367848e+01 3.873542e+01 3.032578e+01 2.954458e+01 3.479026e+01 3.374149e+01 2.414999e+01 3.534552e+01 2.319667e+01 6.537362e+01 1.707883e+00 1.057499e+00 2.429928e+00 1.899504e+00 3.468697e+00 3.887505e+00 2.331465e+00 2.354151e+00 3.256380e+00 1.717018e+00 2.860533e+00 2.469649e+00 1.372816e+00 2.865195e-01 1.321605e-01 4.337579e-01 3.461197e-01 5.497224e-01 5.485484e-01 3.658176e-01 4.070871e-01 6.495157e-01 4.039461e-01 5.378821e-01 4.273017e-01 1.845180e-01 7.075030e-02 4.127140e-02 8.642077e-02 9.290461e-02 1.431848e-01 1.756479e-01 1.032866e-01 1.068325e-01 1.612497e-01 7.958222e-02 1.241586e-01 1.220377e-01 3.852151e-02
<GCONST> 1.073823e+02
<MIXTURE> 2 4.280746e-01
<MEAN> 52
 -7.278485e+00 -4.699186e+00 -6.212113e+00 -7.327035e+00 -3.295843e+00 -4.569281e-01 -2.279297e+00 1.860880e-01 3.453344e-01 4.971184e-01 -2.341640e+00 -2.729008e+00 5.447454e+01 -8.649319e-02 -1.210344e-01 -3.986225e-02 2.502823e-01 3.754522e-01 2.869064e-01 6.118259e-02 -1.069881e-01 -1.403075e-01 -1.931716e-02 -7.895882e-02 1.173540e-01 -1.314701e-01 -1.934267e-02 1.188824e-02 4.586372e-02 3.305206e-02 -3.906554e-02 -1.555960e-01 -2.231919e-01 -2.732005e-01 -2.324991e-01 -2.023958e-01 -1.179416e-01 -8.956972e-03 -2.363826e-03 2.027790e-02 2.604860e-02 1.688894e-02 -3.893433e-02 -8.149823e-02 -6.591245e-02 -1.012439e-02 2.698430e-02 3.316104e-02 1.161146e-02 1.023442e-02 -3.075096e-02 1.000044e-02
<VARIANCE> 52
 7.861350e+00 9.411958e+00 1.690890e+01 2.437497e+01 1.262375e+01 1.941808e+01 1.805439e+01 1.826890e+01 1.715462e+01 2.673151e+01 2.365589e+01 2.459846e+01 1.179289e+01 1.733657e-01 3.566609e-01 6.241222e-01 7.256724e-01 8.750349e-01 1.332243e+00 1.298835e+00 1.433002e+00 1.363429e+00 1.303159e+00 1.389222e+00 1.566510e+00 5.660650e-02 3.082938e-02 5.970421e-02 1.117445e-01 1.510700e-01 1.900986e-01 2.378332e-01 2.176060e-01 2.527692e-01 2.935805e-01 3.061821e-01 2.517169e-01 3.217908e-01 1.108521e-02 6.681601e-03 1.536645e-02 2.766317e-02 3.451465e-02 4.203951e-02 6.459923e-02 5.752910e-02 7.036740e-02 6.961568e-02 6.072620e-02 6.222503e-02 7.402276e-02 2.211579e-03
<GCONST> 5.751990e+01
<MIXTURE> 3 4.453391e-01
<MEAN> 52
 -8.278687e+00 -4.181868e+00 -5.082379e+00 -6.389547e+00 -4.221341e+00 -3.378977e+00 -6.160718e+00 -4.429628e+00 -2.816622e+00 -1.579209e+00 -3.115529e+00 -2.212654e+00 5.470732e+01 1.389171e-01 1.283662e-01 9.410600e-02 -6.620946e-02 -3.135835e-01 -3.060261e-01 -3.497217e-01 -1.701342e-01 -2.169471e-02 -4.915560e-02 2.065459e-03 6.738955e-03 -7.600827e-02 9.523119e-03 4.074603e-02 4.705870e-02 5.820700e-02 1.214399e-01 1.740464e-01 2.718077e-01 2.660233e-01 1.670871e-01 5.979733e-02 3.776446e-02 7.365767e-03 1.377001e-02 -2.239545e-02 -1.843165e-02 -1.415347e-02 2.791341e-02 7.383799e-02 6.624250e-02 7.505425e-02 4.041776e-02 1.033878e-02 1.979553e-02 -1.067863e-02 1.549591e-03 -2.405503e-03
<VARIANCE> 52
 8.558970e+00 1.014648e+01 1.648347e+01 2.053987e+01 1.259687e+01 1.971301e+01 1.458309e+01 1.874642e+01 1.758854e+01 1.695330e+01 1.980156e+01 1.693568e+01 8.024553e+00 1.952294e-01 3.165336e-01 4.157971e-01 6.938627e-01 7.140070e-01 1.130117e+00 1.249926e+00 1.533720e+00 1.714854e+00 1.505964e+00 1.488042e+00 1.173416e+00 7.856224e-02 3.724803e-02 6.263961e-02 1.067316e-01 1.549028e-01 1.813857e-01 2.427252e-01 2.210026e-01 2.364059e-01 2.903611e-01 2.605604e-01 2.652402e-01 2.341610e-01 1.295301e-02 7.075491e-03 1.291812e-02 1.932027e-02 3.316683e-02 3.519516e-02 5.240064e-02 5.872922e-02 7.443377e-02 8.347870e-02 7.268480e-02 6.563345e-02 5.824215e-02 3.076955e-03
<GCONST> 5.516971e+01
<STATE> 8
<NUMMIXES> 3
<MIXTURE> 1 2.536614e-01
<MEAN> 52
 -1.333835e+01 -5.935965e+00 -3.289592e+00 -3.154374e+00 -3.308280e+00 -4.321564e+00 -4.079103e+00 2.061651e+00 -8.090476e-01 -1.162269e+00 -8.565474e-01 -1.123771e+00 5.795554e+01 2.081531e-01 -7.783652e-03 -8.910739e-02 -1.923631e-01 -2.095984e-01 7.515960e-02 -1.804012e-01 -1.307469e-01 -1.943538e-01 -8.443148e-02 -4.784061e-03 5.782978e-02 -2.810372e-01 5.819532e-02 5.496217e-02 2.152993e-02 3.097583e-02 1.414374e-01 1.472751e-01 4.783225e-02 -1.571339e-01 -9.810297e-02 -3.533899e-02 -5.143215e-02 -2.588347e-02 -1.173451e-02 -1.203474e-02 1.414389e-02 2.069000e-02 4.682188e-02 3.803005e-02 6.655671e-03 2.865197e-02 1.223179e-02 4.082822e-02 1.250669e-02 -1.901503e-02 -2.690749e-02 3.497188e-02
<VARIANCE> 52
 2.162371e+01 1.798485e+01 1.626702e+01 1.366967e+01 2.551248e+01 3.253603e+01 2.197160e+01 3.078261e+01 2.639760e+01 2.296666e+01 2.925670e+01 2.763297e+01 3.091833e+01 2.737353e-01 4.059963e-01 7.821696e-01 6.751910e-01 1.213072e+00 1.847889e+00 1.342066e+00 1.785516e+00 2.055750e+00 1.822687e+00 1.326869e+00 1.780050e+00 2.337934e-01 4.462025e-02 8.956183e-02 1.494593e-01 1.425881e-01 2.818466e-01 3.791739e-01 2.967016e-01 3.406315e-01 3.383538e-01 3.525490e-01 3.007536e-01 4.012470e-01 6.282308e-02 1.181553e-02 1.954523e-02 3.364770e-02 3.175911e-02 5.224205e-02 7.917461e-02 7.029106e-02 8.649404e-02 9.973516e-02 8.558103e-02 5.893278e-02 8.679214e-02 9.138301e-03
<GCONST> 7.483475e+01
<MIXTURE> 2 4.508303e-01
<MEAN> 52
 -9.719584e+00 -2.472052e+00 -3.265430e+00 -2.851110e+00 -2.029098e+00 -1.500684e+00 -3.075242e+00 -1.439997e+00 -7.352229e-01 -2.879527e-01 -1.447222e+00 -1.015058e+00 5.067007e+01 4.583518e-02 -4.409511e-03 -1.760967e-01 -2.820713e-01 -2.520782e-01 -1.821546e-01 -1.566810e-01 -1.328849e-01 -4.663706e-02 -6.268376e-02 3.311141e-02 1.293676e-02 -9.279180e-02 -3.327187e-02 -3.595036e-02 -5.096425e-02 -7.400949e-02 -5.035581e-02 -2.710229e-02 -5.423339e-03 -1.965144e-02 -7.815511e-02 -1.125032e-01 -4.301114e-02 1.906949e-02 1.369232e-02 2.433859e-03 1.091484e-02 3.585510e-02 6.303098e-02 5.562044e-02 5.230646e-02 4.015166e-02 2.332607e-02 9.038898e-03 1.517404e-02 -5.456046e-03 -9.359937e-04 6.020373e-03
<VARIANCE> 52
 1.112672e+01 3.649126e+00 7.002692e+00 9.197094e+00 1.150305e+01 1.438089e+01 1.214629e+01 1.452370e+01 1.562267e+01 1.503491e+01 1.328096e+01 1.384763e+01 2.376918e+01 1.394600e-01 2.358132e-01 3.950956e-01 4.772107e-01 6.262493e-01 1.084102e+00 1.259958e+00 1.200922e+00 1.340697e+00 1.286865e+00 1.008962e+00 1.133409e+00 5.256252e-02 3.087283e-02 4.592014e-02 8.844933e-02 1.348860e-01 1.724114e-01 2.337685e-01 2.543688e-01 2.441215e-01 2.556763e-01 2.684120e-01 2.021228e-01 2.339765e-01 8.817646e-03 6.705969e-03 1.002963e-02 1.794975e-02 2.183785e-02 2.954810e-02 5.347883e-02 6.225615e-02 5.820210e-02 5.973884e-02 6.166138e-02 4.415791e-02 5.339199e-02 2.162162e-03
<GCONST> 4.548784e+01
<MIXTURE> 3 2.955084e-01
<MEAN> 52
 -1.022137e+01 -3.185573e+00 -3.485836e+00 -3.659302e+00 -2.147471e+00 -1.719001e+00 -3.654915e+00 -2.220829e+00 -2.362219e+00 -2.577628e+00 -2.934783e+00 -1.445930e+00 5.296489e+01 1.603237e-01 2.953525e-01 4.856686e-01 8.163907e-01 8.070616e-01 6.902567e-01 5.972000e-01 3.206763e-01 2.402000e-01 1.191318e-01 -7.398981e-02 -1.091320e-01 -6.829268e-02 -4.890624e-03 4.309978e-03 -3.843759e-03 4.257770e-03 -3.567102e-02 -3.483959e-02 6.640779e-02 1.289582e-01 1.693454e-01 2.000551e-01 1.131840e-01 1.420289e-02 2.449140e-02 -2.277289e-02 -4.211954e-02 -1.029071e-01 -1.695186e-01 -1.736013e-01 -1.402539e-01 -1.333406e-01 -8.857870e-02 -4.744223e-02 -1.044305e-02 2.604603e-02 3.065271e-02 -3.389491e-03
<VARIANCE> 52
 1.269399e+01 7.716837e+00 7.551107e+00 1.111392e+01 1.055737e+01 1.551427e+01 1.720725e+01 2.094655e+01 1.846119e+01 1.749798e+01 1.533681e+01 1.584617e+01 1.306371e+01 2.334165e-01 3.916735e-01 4.514281e-01 5.063370e-01 7.349875e-01 9.697573e-01 1.264002e+00 1.320180e+00 1.554989e+00 1.513791e+00 1.239693e+00 1.518984e+00 1.117742e-01 3.514873e-02 6.330463e-02 9.268381e-02 1.573178e-01 1.700345e-01 2.390886e-01 2.632221e-01 2.727951e-01 3.200665e-01 2.768819e-01 2.263948e-01 2.616846e-01 1.297936e-02 8.930999e-03 1.520240e-02 1.965412e-02 2.302190e-02 3.351410e-02 4.558932e-02 6.190446e-02 6.315918e-02 7.006798e-02 7.362413e-02 5.829642e-02 6.803877e-02 3.162925e-03
<GCONST> 5.406071e+01
<STATE> 9
<NUMMIXES> 3
<MIXTURE> 1 1.894184e-01
<MEAN> 52
 -5.420635e+00 6.199658e-01 2.424564e+00 -4.056390e+00 -7.535475e+00 -1.910265e+00 -5.682043e+00 -6.625297e+00 -2.425443e+00 -3.631893e+00 1.757799e-02 -2.964673e-01 5.928032e+01 -4.954167e-02 -1.088566e-01 -2.913766e-01 1.544374e-01 2.188760e-01 3.129763e-01 9.237277e-02 -1.298314e-01 3.403152e-01 -3.229708e-06 1.164541e-01 2.437649e-02 -2.703294e-01 -8.216675e-02 -9.407018e-02 1.891023e-02 8.514410e-02 1.220403e-01 8.005465e-02 1.170728e-01 4.467179e-03 -4.285236e-02 4.373208e-02 -2.864550e-02 2.101510e-02 8.081771e-02 1.402541e-02 -6.756365e-04 3.446066e-02 -3.977593e-02 -5.307473e-02 -4.580607e-02 -4.827603e-02 1.216012e-02 -6.947304e-02 -5.840949e-03 -6.205989e-02 -1.742928e-02 3.057780e-02
<VARIANCE> 52
 2.304017e+01 3.865779e+01 1.002060e+02 8.706614e+01 3.401840e+01 2.928612e+01 2.095868e+01 6.062271e+01 3.243521e+01 3.254111e+01 3.388314e+01 1.832481e+01 8.695729e+01 5.225899e-01 1.295902e+00 1.751943e+00 1.329664e+00 1.823698e+00 3.072541e+00 2.354490e+00 1.642449e+00 1.356525e+00 2.048327e+00 2.307451e+00 1.558237e+00 1.063359e+00 9.421100e-02 1.627744e-01 2.444248e-01 1.889983e-01 4.667551e-01 6.887751e-01 4.618348e-01 4.297781e-01 3.215159e-01 4.044494e-01 3.099631e-01 3.810521e-01 1.442387e-01 1.893223e-02 3.971687e-02 5.782537e-02 4.487164e-02 9.336440e-02 1.425520e-01 1.015082e-01 7.441151e-02 5.798025e-02 8.624540e-02 7.001530e-02 7.095896e-02 2.137658e-02
<GCONST> 9.632275e+01
<MIXTURE> 2 4.244145e-01
<MEAN> 52
 -1.055362e+01 -1.370533e+00 -2.892634e+00 -1.797163e+00 3.624010e-01 1.347110e+00 -1.901089e+00 3.970748e-01 1.857601e-01 -8.938168e-01 -9.474401e-01 6.782295e-01 4.600381e+01 1.871226e-02 1.376126e-01 3.226690e-02 1.239062e-01 1.036861e-01 8.470344e-02 7.144674e-02 4.017338e-02 6.483028e-02 2.320893e-01 1.277675e-01 9.451661e-02 3.930015e-02 -1.572817e-02 -5.983831e-02 -7.934164e-02 -1.951578e-01 -2.289146e-01 -2.505982e-01 -1.232515e-01 -1.556985e-01 -1.565706e-01 -8.361936e-02 -1.259708e-01 -1.100539e-01 5.569079e-02 6.320293e-03 -2.378369e-03 7.287289e-03 -2.997242e-02 -4.597290e-02 -2.974537e-02 -3.117033e-02 -2.136281e-02 -2.324922e-02 -4.455260e-02 -3.596760e-02 -2.642174e-02 2.043545e-02
<VARIANCE> 52
 9.697884e+00 7.125496e+00 1.589286e+01 1.596176e+01 1.252280e+01 1.199255e+01 1.568451e+01 2.045270e+01 1.630258e+01 1.771336e+01 1.841932e+01 1.430027e+01 5.862211e+01 3.082610e-01 4.786567e-01 7.635259e-01 1.227120e+00 1.428261e+00 1.676015e+00 1.209427e+00 1.812271e+00 2.199574e+00 2.154014e+00 1.865144e+00 1.567206e+00 1.593276e-01 6.566301e-02 1.184264e-01 1.504235e-01 2.082332e-01 3.041877e-01 2.858869e-01 2.761915e-01 3.830348e-01 4.298299e-01 3.983907e-01 3.858743e-01 2.915365e-01 2.392397e-02 1.621359e-02 2.354889e-02 2.684205e-02 5.624745e-02 8.143115e-02 8.427807e-02 6.132853e-02 9.304392e-02 1.173641e-01 1.124121e-01 9.359040e-02 7.896651e-02 1.008243e-02
<GCONST> 7.286682e+01
<MIXTURE> 3 3.861671e-01
<MEAN> 52
 -8.731536e+00 -3.045276e+00 -5.060018e+00 -4.913903e+00 -3.668081e+00 -2.636336e+00 -4.075794e+00 -2.798381e+00 -1.993462e+00 -1.304900e+00 -2.362319e+00 -1.267570e+00 5.170314e+01 -1.872292e-01 -2.700176e-01 -4.222866e-01 -6.346737e-01 -5.783215e-01 -2.340547e-01 -1.180437e-01 -2.263970e-01 -2.692759e-01 -2.671267e-01 -3.411496e-01 -1.179241e-01 -6.733225e-02 -8.216682e-03 6.141511e-02 1.514857e-01 2.033625e-01 1.625164e-01 1.747925e-01 4.696744e-02 1.562276e-01 9.287392e-02 -5.942614e-04 2.098737e-04 2.544088e-02 6.727818e-02 6.782161e-02 1.140385e-01 1.434077e-01 1.727342e-01 1.459586e-01 6.726612e-02 -1.162141e-02 2.982773e-02 4.575877e-02 5.897989e-02 6.239035e-02 3.251373e-02 7.525218e-02
<VARIANCE> 52
 9.014365e+00 7.617477e+00 9.454696e+00 1.287551e+01 1.381372e+01 1.714640e+01 1.727885e+01 1.493522e+01 1.781701e+01 1.932950e+01 1.731969e+01 2.007502e+01 1.937082e+01 2.826168e-01 4.125462e-01 6.674799e-01 8.674387e-01 1.019716e+00 1.578066e+00 1.667605e+00 2.130437e+00 1.445842e+00 1.291668e+00 1.444373e+00 1.381254e+00 1.224125e-01 6.095210e-02 8.751567e-02 1.236435e-01 1.919203e-01 2.215861e-01 2.541499e-01 2.889015e-01 3.295950e-01 3.403249e-01 2.981743e-01 2.851579e-01 2.966305e-01 3.104878e-02 1.957197e-02 2.181234e-02 3.185664e-02 4.182675e-02 5.539523e-02 7.231962e-02 8.987562e-02 1.052504e-01 7.341482e-02 5.690898e-02 6.442634e-02 7.022224e-02 1.461715e-02
<GCONST> 6.644588e+01
<STATE> 10
<NUMMIXES> 3
<MIXTURE> 1 2.770531e-01
<MEAN> 52
 -9.032516e+00 -3.175127e+00 -4.177337e+00 -5.362445e+00 -3.978440e+00 -2.248603e+00 -3.253328e+00 -2.471722e+00 -1.800835e+00 -2.058203e+00 -3.013602e+00 -1.468154e+00 5.295910e+01 5.726290e-02 2.368602e-01 3.643035e-01 3.600681e-01 2.258645e-01 8.526835e-02 2.992464e-01 2.758009e-01 -2.231694e-01 1.005362e-01 2.252438e-01 2.568628e-01 3.622852e-03 2.014916e-02 2.024047e-02 9.337272e-02 1.679598e-01 1.832535e-01 4.616143e-02 -2.269942e-02 8.621156e-02 9.554546e-02 1.303406e-01 6.982531e-02 7.739767e-02 6.088327e-02 -9.720663e-05 -1.498762e-02 -3.624411e-02 -5.224267e-02 -1.378790e-02 -2.569173e-02 -7.764684e-02 -5.522064e-02 3.807609e-02 -1.598478e-02 -4.996308e-02 -4.647177e-02 3.439771e-02
<VARIANCE> 52
 6.936514e+00 8.374763e+00 9.575076e+00 9.484419e+00 1.573825e+01 1.976287e+01 1.922014e+01 1.616564e+01 1.490818e+01 1.804809e+01 2.328494e+01 1.639070e+01 8.165384e+00 2.856533e-01 2.824732e-01 7.085291e-01 7.761475e-01 9.476977e-01 1.154083e+00 1.062146e+00 1.493216e+00 1.244389e+00 1.959141e+00 2.814300e+00 1.603061e+00 9.168843e-02 5.383183e-02 8.487006e-02 1.500965e-01 2.011754e-01 2.184890e-01 2.621706e-01 2.483273e-01 3.819983e-01 2.276214e-01 3.294258e-01 5.633717e-01 2.710154e-01 2.403649e-02 1.185918e-02 1.347503e-02 3.614697e-02 3.158671e-02 3.664387e-02 3.681161e-02 4.251812e-02 5.572903e-02 3.971289e-02 7.966319e-02 1.260176e-01 5.834968e-02 6.232982e-03
<GCONST> 6.048406e+01
<MIXTURE> 2 3.443156e-01
<MEAN> 52
 -9.675679e+00 -3.985177e+00 -3.940541e+00 -3.986519e+00 -2.784152e+00 -1.418814e+00 -3.066834e+00 -7.869669e-01 -1.661189e+00 -1.460657e+00 -2.663246e+00 -7.687569e-01 5.273191e+01 -9.762502e-02 1.315211e-01 1.544234e-01 -7.286893e-03 1.575857e-01 3.998635e-01 9.755100e-02 5.943983e-01 6.008373e-01 5.719329e-01 -6.212165e-03 2.929112e-02 1.232249e-01 2.042543e-01 3.761195e-01 4.389794e-01 1.853754e-01 4.701000e-02 -1.386315e-01 -2.383454e-01 -3.046624e-01 -1.341581e-01 -9.762340e-02 3.632604e-02 -7.415679e-02 4.722915e-01 1.320320e-01 9.116991e-02 2.098693e-01 4.689772e-02 -1.297431e-01 -1.733670e-01 -1.821982e-01 -2.082708e-01 -2.392995e-01 -1.654330e-01 6.625937e-04 -1.070900e-02 2.118269e-01
<VARIANCE> 52
 8.816663e+00 1.490469e+01 1.544029e+01 1.390416e+01 1.726436e+01 1.822170e+01 2.593279e+01 2.528910e+01 2.092311e+01 2.690289e+01 2.050633e+01 2.098673e+01 1.447137e+01 2.520844e-01 6.139152e-01 9.651949e-01 1.045737e+00 1.399972e+00 1.929978e+00 1.763160e+00 1.871988e+00 1.525792e+00 1.463817e+00 1.866466e+00 1.254754e+00 2.977066e-01 2.205110e-01 1.641292e-01 2.611902e-01 2.801819e-01 3.915587e-01 4.478571e-01 5.248096e-01 4.822934e-01 4.082668e-01 3.775751e-01 4.030657e-01 3.100041e-01 1.951477e-01 2.528063e-02 3.938048e-02 6.173371e-02 5.667436e-02 8.806811e-02 9.540943e-02 8.495861e-02 9.538321e-02 6.472615e-02 7.847566e-02 9.568167e-02 7.049160e-02 2.563273e-02
<GCONST> 8.315864e+01
<MIXTURE> 3 3.786314e-01
<MEAN> 52
 -9.763209e+00 -3.191402e+00 -2.694753e+00 -2.880563e+00 -1.794901e+00 -7.860329e-01 -2.601938e+00 -1.673553e+00 -2.176672e+00 -1.340018e+00 -1.703862e+00 -5.514298e-02 5.365371e+01 4.342825e-01 7.088176e-01 8.200066e-01 6.968258e-01 4.740578e-01 1.285365e-01 -5.647407e-01 -8.050125e-01 -7.938381e-01 -4.891520e-01 -5.216285e-01 -4.619490e-01 5.198936e-01 3.149950e-01 2.280822e-01 3.399698e-01 1.289564e-01 -1.624828e-01 -3.197394e-01 -4.499142e-01 -1.399582e-01 -2.293973e-01 -1.702954e-01 -1.942295e-01 -1.201347e-01 3.878358e-01 -4.495571e-02 -1.277332e-01 -3.479757e-02 -1.172878e-01 -1.659792e-01 -4.225140e-02 -1.801118e-02 1.507149e-01 1.214156e-01 9.277876e-02 8.364271e-02 8.312814e-02 7.400409e-02
<VARIANCE> 52
 1.029515e+01 1.693734e+01 1.761904e+01 2.058935e+01 2.924092e+01 2.239033e+01 2.560338e+01 2.706425e+01 2.293949e+01 2.639706e+01 2.246332e+01 1.609713e+01 1.858639e+01 1.251045e+00 2.059953e+00 1.753814e+00 1.943461e+00 2.811500e+00 2.231609e+00 2.074317e+00 2.021107e+00 1.805932e+00 2.170540e+00 2.151090e+00 1.606932e+00 7.924877e-01 3.384097e-01 3.359171e-01 3.935191e-01 4.013959e-01 5.472755e-01 5.116799e-01 5.823144e-01 6.518266e-01 4.494765e-01 5.075389e-01 4.741310e-01 3.780555e-01 3.011729e-01 4.336705e-02 7.892002e-02 5.893700e-02 7.402598e-02 1.292066e-01 8.841340e-02 1.040678e-01 9.528497e-02 7.217800e-02 1.002355e-01 9.309340e-02 7.364698e-02 4.841638e-02
<GCONST> 9.888979e+01
<STATE> 11
<NUMMIXES> 3
<MIXTURE> 1 4.977398e-01
<MEAN> 52
 -8.143109e+00 2.018695e-01 8.253843e-02 -1.338767e+00 -5.696316e-01 -8.868143e-01 -4.491956e+00 -3.600839e+00 -4.313057e+00 -2.363672e+00 -2.845412e+00 -8.633490e-01 5.607263e+01 2.118918e+00 2.013840e+00 2.716947e+00 8.350214e-01 -8.368495e-01 -1.387576e+00 -2.194618e+00 -9.362826e-01 -1.308878e+00 -4.834519e-01 -6.055423e-01 -3.211145e-01 2.277497e+00 2.546889e-01 -1.515425e-01 4.556842e-01 -2.879863e-01 -7.143401e-01 -3.840586e-01 -5.208205e-01 5.395174e-02 -1.100220e-01 7.571924e-02 -8.552877e-03 5.167955e-02 6.692154e-01 -3.480527e-01 -3.858904e-01 -3.158359e-01 -2.111992e-01 -4.760021e-02 2.269579e-01 2.726678e-01 1.813213e-01 1.919494e-01 1.118122e-01 1.279982e-01 6.915743e-02 -1.368454e-01
<VARIANCE> 52
 2.048516e+01 3.318092e+01 3.164077e+01 2.471901e+01 3.359100e+01 3.696023e+01 3.511201e+01 2.967881e+01 2.772392e+01 2.822644e+01 3.129412e+01 2.530768e+01 4.031928e+01 1.794645e+00 2.501905e+00 4.564480e+00 4.080077e+00 5.385299e+00 5.607477e+00 5.686697e+00 5.084816e+00 4.410943e+00 3.386882e+00 3.552698e+00 3.522527e+00 3.526088e+00 4.337651e-01 8.716228e-01 7.312869e-01 4.821944e-01 7.029912e-01 7.027258e-01 8.603194e-01 6.638616e-01 6.123847e-01 6.444597e-01 6.088567e-01 4.798660e-01 6.390415e-01 6.806338e-02 9.995741e-02 1.521774e-01 1.139411e-01 2.300630e-01 2.281019e-01 2.225027e-01 2.132384e-01 1.645588e-01 1.615782e-01 1.356884e-01 1.577397e-01 1.418611e-01
<GCONST> 1.271965e+02
<MIXTURE> 2 2.261848e-01
<MEAN> 52
 -8.652361e+00 -2.586977e+00 -3.431760e+00 -3.367460e+00 -9.017776e-01 -6.416920e-01 -2.927915e+00 -2.161591e+00 -2.733366e-01 -6.664553e-01 -1.314025e+00 -2.568087e-01 5.373549e+01 3.934141e-02 -1.179206e-01 -4.325368e-02 1.554545e-01 6.617451e-01 2.972885e-01 1.459674e-02 1.665254e-01 2.275945e-01 -4.563761e-02 1.426465e-02 1.107555e-01 2.651028e-01 -4.783773e-02 -5.693468e-02 -7.897939e-02 -5.345787e-02 -2.835659e-02 -2.491004e-03 -5.621632e-02 1.373893e-02 -2.230088e-03 -1.421534e-01 -5.515275e-02 -1.681747e-02 -8.938837e-03 -9.701978e-03 9.214013e-03 1.865796e-03 -3.401367e-02 -7.232369e-02 -1.269908e-02 6.474052e-03 -1.376236e-02 -3.888715e-02 -9.624708e-03 -9.120736e-03 -1.744827e-02 -1.658785e-02
<VARIANCE> 52
 1.328905e+01 6.143977e+00 9.126359e+00 1.074599e+01 1.953493e+01 1.715598e+01 1.663547e+01 1.844000e+01 1.355160e+01 2.090433e+01 1.734051e+01 1.755547e+01 1.171199e+01 3.555496e-01 2.681585e-01 6.723186e-01 9.788018e-01 3.549133e+00 1.892305e+00 1.983933e+00 2.303618e+00 1.462996e+00 1.921831e+00 2.066114e+00 1.576422e+00 6.485898e-01 3.087204e-02 3.465689e-02 7.540957e-02 7.918698e-02 2.120792e-01 1.555462e-01 1.461136e-01 1.626743e-01 1.916026e-01 2.445735e-01 1.358301e-01 1.201149e-01 4.896542e-02 4.731351e-03 5.045871e-03 1.430254e-02 1.455522e-02 3.668678e-02 1.764840e-02 2.679161e-02 2.911767e-02 2.872627e-02 3.081223e-02 3.300264e-02 2.685995e-02 5.810432e-03
<GCONST> 5.023147e+01
<MIXTURE> 3 2.760754e-01
<MEAN> 52
 -9.767608e+00 -2.509287e+00 -3.418021e+00 -3.529952e+00 -2.716007e+00 -1.326186e+00 -3.099961e+00 -3.110633e+00 -2.375642e+00 -1.700641e+00 -2.873694e+00 -1.893528e+00 5.497509e+01 -1.345452e+00 -5.698946e-02 2.687201e-01 -5.002433e-02 -4.315943e-01 -3.522100e-01 2.021698e-02 -7.743645e-01 -1.283159e-01 -2.659308e-01 7.590767e-01 -1.850205e-02 2.778926e+00 2.461197e-01 3.201859e-01 9.488717e-01 4.596743e-02 -4.867521e-01 1.375317e-02 -3.439664e-01 -1.451137e-01 -5.180936e-01 -1.563690e-01 3.140018e-01 4.780472e-02 7.885833e-01 3.204499e-01 8.363681e-02 2.207657e-01 1.277735e-02 -1.246658e-01 6.641961e-02 -1.501474e-01 1.631240e-01 -1.783713e-01 9.423256e-03 -1.168408e-01 -3.550402e-02 -2.911386e-01
<VARIANCE> 52
 1.230453e+01 2.144320e+01 1.833932e+01 2.305411e+01 3.188886e+01 2.359948e+01 2.868527e+01 2.862866e+01 2.350060e+01 1.621719e+01 1.764847e+01 1.859298e+01 3.351571e+01 8.439385e-01 3.173274e+00 4.069290e+00 2.346801e+00 4.741349e+00 3.975074e+00 3.925541e+00 3.165865e+00 3.215087e+00 2.254595e+00 2.270023e+00 1.850509e+00 3.192664e+00 3.010632e-01 3.996431e-01 9.592304e-01 4.808352e-01 7.699313e-01 6.534030e-01 7.865414e-01 5.681137e-01 7.253398e-01 5.980130e-01 4.106783e-01 5.580128e-01 5.759207e-01 3.486197e-02 1.462007e-01 1.550536e-01 1.049544e-01 1.996982e-01 1.845335e-01 1.789701e-01 1.386843e-01 1.251269e-01 1.193648e-01 1.034222e-01 1.082192e-01 1.214661e-01
<GCONST> 1.146062e+02
<TRANSP> 12
 0.000000e+00 1.000000e+00 0.000000e+00 0.000000e+00 0.000000e+00 0.000000e+00 0.000000e+00 0.000000e+00 0.000000e+00 0.000000e+00 0.000000e+00 0.000000e+00
 0.000000e+00 6.325660e-01 3.674340e-01 0.000000e+00 0.000000e+00 0.000000e+00 0.000000e+00 0.000000e+00 0.000000e+00 0.000000e+00 0.000000e+00 0.000000e+00
 0.000000e+00 0.000000e+00 8.954163e-01 1.045837e-01 0.000000e+00 0.000000e+00 0.000000e+00 0.000000e+00 0.000000e+00 0.000000e+00 0.000000e+00 0.000000e+00
 0.000000e+00 0.000000e+00 0.000000e+00 7.469011e-01 2.530990e-01 0.000000e+00 0.000000e+00 0.000000e+00 0.000000e+00 0.000000e+00 0.000000e+00 0.000000e+00
 0.000000e+00 0.000000e+00 0.000000e+00 0.000000e+00 7.517939e-01 2.482061e-01 0.000000e+00 0.000000e+00 0.000000e+00 0.000000e+00 0.000000e+00 0.000000e+00
 0.000000e+00 0.000000e+00 0.000000e+00 0.000000e+00 0.000000e+00 8.158354e-01 1.841647e-01 0.000000e+00 0.000000e+00 0.000000e+00 0.000000e+00 0.000000e+00
 0.000000e+00 0.000000e+00 0.000000e+00 0.000000e+00 0.000000e+00 0.000000e+00 8.200648e-01 1.799352e-01 0.000000e+00 0.000000e+00 0.000000e+00 0.000000e+00
 0.000000e+00 0.000000e+00 0.000000e+00 0.000000e+00 0.000000e+00 0.000000e+00 0.000000e+00 8.414006e-01 1.585994e-01 0.000000e+00 0.000000e+00 0.000000e+00
 0.000000e+00 0.000000e+00 0.000000e+00 0.000000e+00 0.000000e+00 0.000000e+00 0.000000e+00 0.000000e+00 7.058622e-01 2.941378e-01 0.000000e+00 0.000000e+00
 0.000000e+00 0.000000e+00 0.000000e+00 0.000000e+00 0.000000e+00 0.000000e+00 0.000000e+00 0.000000e+00 0.000000e+00 6.661700e-01 3.338300e-01 0.000000e+00
 0.000000e+00 0.000000e+00 0.000000e+00 0.000000e+00 0.000000e+00 0.000000e+00 0.000000e+00 0.000000e+00 0.000000e+00 0.000000e+00 5.164537e-01 4.835463e-01
 0.000000e+00 0.000000e+00 0.000000e+00 0.000000e+00 0.000000e+00 0.000000e+00 0.000000e+00 0.000000e+00 0.000000e+00 0.000000e+00 0.000000e+00 0.000000e+00
<ENDHMM>
