~o
<STREAMINFO> 1 52
<VECSIZE> 52<NULLD><MFCC_D_A_T_0><DIAGC>
~h "rx"
<BEGINHMM>
<NUMSTATES> 12
<STATE> 2
<NUMMIXES> 3
<MIXTURE> 1 2.494845e-01
<MEAN> 52
 -3.109511e+00 -1.522692e+01 6.459617e-01 -1.252368e+01 -1.377097e+01 -1.389235e+01 -1.773195e+01 5.680625e-01 -4.903458e+00 -6.769627e+00 -1.360464e+01 2.493994e+00 7.177017e+01 -1.114390e+00 -5.363243e-01 8.135284e-01 -2.409325e+00 -3.986410e-01 5.202661e-01 2.157512e+00 1.888815e+00 -7.602906e-01 9.748178e-01 2.120385e-01 2.855835e-02 1.793121e+00 -2.266051e-01 7.749582e-01 -3.889285e-02 2.198939e-01 1.490312e-01 -2.097196e-02 5.721744e-01 -6.952906e-01 -4.195388e-01 3.034876e-01 3.101515e-01 -2.455842e-01 -4.550201e-01 1.679388e-01 -2.689003e-03 5.149464e-02 2.445916e-01 -1.082794e-01 -1.462115e-01 -4.046447e-01 -3.538872e-01 5.051570e-02 -4.880808e-02 -1.129334e-01 4.222311e-02 -2.932144e-02
<VARIANCE> 52
 1.247391e+01 2.909178e+01 3.108051e+01 7.424269e+01 4.871136e+01 3.326764e+01 8.450654e+01 6.617072e+01 6.071170e+01 3.060611e+01 4.435352e+01 2.246550e+01 2.759034e+01 5.710583e-01 2.055500e+00 2.235265e+00 4.004301e+00 3.131082e+00 2.905033e+00 3.110096e+00 4.847416e+00 5.876917e+00 2.388987e+00 3.554539e+00 2.106630e+00 7.211192e-01 1.339398e-01 3.157547e-01 3.882425e-01 7.796394e-01 6.140561e-01 5.431845e-01 8.046589e-01 1.064238e+00 8.778130e-01 4.189812e-01 5.886432e-01 3.206167e-01 1.585484e-01 3.141297e-02 8.080322e-02 1.006684e-01 1.875475e-01 1.351211e-01 1.479234e-01 1.320355e-01 1.919729e-01 2.322074e-01 1.058335e-01 1.520424e-01 8.709469e-02 3.234277e-02
<GCONST> 1.154613e+02
<MIXTURE> 2 3.876289e-01
<MEAN> 52
 1.589584e+00 1.784133e+00 1.618657e+00 1.604607e+00 -3.581618e+00 -4.510427e+00 -1.607500e+01 -1.090743e+01 -4.402585e+00 -3.195546e-01 -5.894244e+00 -4.709691e+00 6.349790e+01 4.659239e-01 -5.786633e-01 -1.151876e-01 3.628485e-01 -3.600256e-01 -7.594897e-01 -1.521859e+00 2.868462e-01 4.739826e-01 1.390268e-01 1.205078e-01 1.117416e-01 6.863239e-01 -6.038917e-02 -2.686198e-01 1.453566e-01 -1.285247e-01 -4.214919e-01 5.452698e-02 1.080993e-01 3.804904e-01 -4.284582e-02 -1.644404e-01 1.126546e-01 7.039693e-02 2.323137e-01 -7.256728e-02 -2.161280e-03 6.733550e-02 -5.920175e-02 -3.454415e-02 5.296419e-02 9.710395e-02 3.668516e-02 -5.440675e-02 -1.158427e-02 1.854100e-02 -9.746477e-03 1.537582e-02
<VARIANCE> 52
 1.873372e+01 1.833785e+01 4.011996e+01 4.173972e+01 4.453254e+01 4.321411e+01 7.902620e+01 7.652351e+01 4.445454e+01 3.150209e+01 3.688664e+01 2.491004e+01 3.699268e+01 5.132680e-01 1.393120e+00 1.286737e+00 2.107753e+00 2.715380e+00 2.348709e+00 3.127595e+00 4.442911e+00 2.435379e+00 2.160712e+00 2.443694e+00 2.205193e+00 4.593156e-01 1.267187e-01 2.556959e-01 2.773652e-01 3.478118e-01 4.537203e-01 4.732732e-01 5.363621e-01 8.106090e-01 5.063610e-01 4.048745e-01 4.839613e-01 3.969964e-01 1.237065e-01 1.807670e-02 6.212430e-02 5.278655e-02 8.217661e-02 1.035582e-01 1.051644e-01 1.086828e-01 1.456660e-01 1.144342e-01 9.477346e-02 1.068371e-01 9.557371e-02 1.738295e-02
<GCONST> 1.029721e+02
<MIXTURE> 3 3.628866e-01
<MEAN> 52
 3.978983e-01 -3.202586e+00 -9.541056e-01 1.078021e+00 -6.059956e+00 -9.867817e+00 -1.810117e+01 -7.951554e+00 -4.468395e+00 -4.383943e+00 -7.140822e+00 -8.053581e-01 6.261894e+01 1.318775e+00 -2.186106e+00 8.246877e-01 -2.964975e-01 -2.227371e+00 -1.238166e+00 -2.771725e+00 5.500706e-01 1.710664e-01 -4.596923e-01 -7.324945e-01 4.235565e-01 3.433376e+00 -5.827554e-01 -4.717552e-01 8.385491e-02 -7.679786e-01 -3.037766e-01 5.161756e-01 4.767766e-01 7.024507e-01 1.893092e-01 1.276868e-01 1.754245e-01 -7.829203e-02 1.626243e-01 -2.153407e-01 3.264633e-01 -6.101117e-03 -3.097686e-02 2.441027e-01 1.303114e-01 4.084079e-01 2.259407e-03 -9.445867e-02 4.196083e-02 1.268639e-01 -6.997140e-02 -3.442311e-01
<VARIANCE> 52
 2.528516e+01 5.028204e+01 3.297694e+01 3.920073e+01 4.242584e+01 7.686737e+01 7.979820e+01 4.131235e+01 4.105198e+01 4.651068e+01 4.909417e+01 3.025064e+01 4.083706e+01 3.377578e+00 4.764136e+00 2.974193e+00 5.111807e+00 5.043999e+00 8.388202e+00 8.375827e+00 6.617110e+00 4.656362e+00 3.943067e+00 4.479546e+00 2.979764e+00 1.379538e+00 4.262013e-01 7.926012e-01 5.197234e-01 6.152195e-01 8.835256e-01 1.183420e+00 1.654855e+00 7.874077e-01 7.333513e-01 7.368639e-01 8.505982e-01 5.368149e-01 4.457260e-01 1.172895e-01 1.860558e-01 1.148471e-01 1.906428e-01 1.936075e-01 3.346776e-01 2.839459e-01 2.708142e-01 1.989007e-01 1.712558e-01 1.675039e-01 1.214153e-01 4.787596e-02
<GCONST> 1.363372e+02
<STATE> 3
<NUMMIXES> 3
<MIXTURE> 1 4.283904e-01
<MEAN> 52
 -1.414149e+00 -6.541729e+00 9.880689e+00 -2.787946e+00 -1.601325e+01 -8.137462e+00 -1.757520e+01 3.606765e+00 -5.079669e+00 -4.130554e+00 1.291045e+00 -2.663545e+00 7.492249e+01 -1.023551e+00 7.773495e-01 1.854904e+00 -2.715660e-01 -9.977123e-01 -2.831981e-01 1.488424e+00 -8.384115e-02 -1.693227e+00 -3.276286e-01 1.380487e+00 2.765054e-01 2.809815e-01 -8.644789e-03 3.989705e-01 1.175327e-01 1.616002e-01 3.332927e-01 3.418341e-01 4.584266e-02 -7.307310e-01 -7.361108e-02 2.148464e-01 -1.546207e-01 -3.530601e-02 -3.124033e-01 2.692241e-02 -6.094497e-02 -1.351567e-01 -3.543970e-02 1.497252e-01 2.126193e-02 -1.837788e-01 1.091786e-01 2.448580e-01 2.605008e-02 -1.806913e-01 -8.719302e-03 2.301768e-02
<VARIANCE> 52
 9.128337e+00 4.655912e+01 3.109903e+01 4.271581e+01 2.871870e+01 3.960177e+01 4.981313e+01 4.544403e+01 5.754605e+01 3.704759e+01 3.028156e+01 3.395270e+01 1.115495e+01 3.526445e-01 6.457785e-01 1.070784e+00 1.213772e+00 1.274978e+00 1.353108e+00 1.475639e+00 2.465039e+00 1.704549e+00 1.578779e+00 1.525599e+00 1.219202e+00 2.277306e-01 6.238971e-02 1.222958e-01 1.665809e-01 2.057508e-01 2.418070e-01 2.881756e-01 3.332266e-01 4.426181e-01 3.331975e-01 2.960203e-01 3.897235e-01 1.970545e-01 3.973572e-02 1.560984e-02 2.339072e-02 3.867996e-02 4.787160e-02 5.493121e-02 6.751076e-02 6.477689e-02 1.045205e-01 7.247160e-02 5.600784e-02 6.767503e-02 5.301344e-02 1.000000e-02
<GCONST> 7.986015e+01
<MIXTURE> 2 2.547528e-01
<MEAN> 52
 -9.733533e+00 -1.113966e+01 3.512086e+00 -2.093657e+01 -1.820306e+01 -1.231763e+01 -6.872782e+00 -3.913964e+00 -1.142166e+01 2.103605e+00 -1.301614e+01 5.755325e-01 7.587432e+01 -7.899695e-01 1.421179e+00 1.510144e+00 -8.937995e-01 -7.272612e-01 5.125212e-01 -4.746731e-02 -2.323125e+00 -4.033442e-01 1.897039e+00 -1.415177e-01 -3.639101e-02 1.963408e-02 2.068369e-01 1.591097e-01 1.247683e-01 1.758344e-01 1.700337e-01 8.696364e-02 -7.891889e-01 -1.233585e-01 3.863576e-01 -3.182469e-01 -1.599127e-01 1.496945e-01 -2.939339e-01 2.031779e-02 -5.731741e-02 -1.227102e-01 6.254618e-03 7.449961e-02 4.591334e-03 6.463037e-02 2.923689e-01 -2.127741e-02 -2.181368e-01 2.865686e-02 -5.168842e-03 3.994433e-02
<VARIANCE> 52
 8.111814e+00 1.873182e+01 2.413834e+01 2.797009e+01 4.155231e+01 2.104510e+01 5.248579e+01 6.805762e+01 4.998898e+01 5.061987e+01 2.203521e+01 3.903709e+01 2.992416e+01 3.409154e-01 5.947908e-01 1.228763e+00 8.304930e-01 9.575553e-01 1.226156e+00 3.677754e+00 1.495672e+00 2.597813e+00 1.723653e+00 1.795183e+00 1.261043e+00 3.281518e-01 3.627556e-02 8.147091e-02 2.127558e-01 2.261769e-01 2.573802e-01 1.867489e-01 3.963799e-01 5.651465e-01 3.717027e-01 4.995655e-01 2.832454e-01 2.702121e-01 2.520300e-02 1.000000e-02 2.443724e-02 4.322084e-02 5.625333e-02 5.131869e-02 4.920710e-02 1.234415e-01 9.417917e-02 1.098896e-01 7.640176e-02 7.990299e-02 6.498376e-02 1.000000e-02
<GCONST> 8.080473e+01
<MIXTURE> 3 3.168568e-01
<MEAN> 52
 1.997392e+00 -5.634720e+00 3.914362e+00 5.161406e-01 -1.336710e+01 -2.826419e+00 -2.081354e+01 -3.600155e+00 2.358932e-01 -7.799777e-01 -1.662330e+00 -5.115963e+00 7.287405e+01 -9.439911e-01 -8.189639e-01 1.369629e+00 -1.326310e+00 -1.646812e+00 -5.211143e-01 -3.723545e-01 2.567506e+00 -1.074855e-02 -1.136610e+00 9.600462e-01 -7.317904e-02 1.494409e+00 -2.707315e-01 5.873972e-01 3.079964e-01 1.584855e-01 2.942923e-01 -2.700247e-01 6.978166e-01 -1.403162e-01 -6.643395e-01 -1.365931e-01 1.317005e-01 1.631611e-01 -3.192708e-01 1.001576e-01 1.100847e-01 -6.255081e-02 2.014392e-01 9.161892e-02 6.711391e-02 3.374298e-02 -3.626257e-01 -7.266398e-02 1.421379e-01 -4.206366e-02 3.952058e-02 -1.142651e-01
<VARIANCE> 52
 9.556238e+00 2.062163e+01 3.882605e+01 5.231285e+01 3.778146e+01 4.858678e+01 5.148318e+01 5.725042e+01 6.104946e+01 3.869461e+01 3.640053e+01 4.150466e+01 1.074832e+01 5.886357e-01 1.695225e+00 1.989036e+00 3.424366e+00 3.455087e+00 4.015633e+00 3.577933e+00 3.340221e+00 4.584952e+00 3.027966e+00 3.814094e+00 2.764563e+00 5.983794e-01 9.655230e-02 2.314169e-01 2.957096e-01 6.180999e-01 6.981439e-01 7.214960e-01 5.030779e-01 7.517975e-01 6.056857e-01 5.060965e-01 6.120882e-01 3.982582e-01 1.227887e-01 2.112325e-02 6.404301e-02 7.608717e-02 1.396947e-01 1.681819e-01 1.678857e-01 1.471263e-01 1.287453e-01 1.591527e-01 1.251954e-01 1.835024e-01 9.489549e-02 2.088183e-02
<GCONST> 1.105674e+02
<STATE> 4
<NUMMIXES> 3
<MIXTURE> 1 4.088319e-01
<MEAN> 52
 -5.040666e+00 -1.799308e+00 1.750205e+01 -3.211432e+00 -1.721157e+01 -5.205950e+00 -1.498957e+01 -5.335814e-01 -1.074359e+01 -4.737809e+00 4.549198e+00 -3.364503e+00 7.420081e+01 -6.958984e-01 1.513044e+00 1.346558e+00 1.355590e-01 8.060341e-01 6.412134e-01 5.063291e-01 -9.677507e-01 -7.750737e-01 1.027045e-01 -2.494289e-01 1.643730e-01 -6.591930e-01 -8.757438e-02 3.142414e-01 -6.179482e-01 1.678753e-01 7.702797e-01 -2.071232e-01 1.638310e-01 3.379714e-02 6.247177e-01 2.140798e-01 -4.653900e-01 2.082522e-01 -2.225577e-01 -1.884218e-01 2.552160e-02 -2.138031e-01 -7.758409e-03 3.722468e-02 -1.373949e-01 2.265421e-01 1.379836e-01 1.181658e-01 4.144472e-03 8.795982e-02 6.257002e-02 6.066119e-02
<VARIANCE> 52
 1.050988e+01 2.931985e+01 3.542444e+01 5.026101e+01 3.672631e+01 4.069893e+01 3.266332e+01 4.284874e+01 4.360851e+01 4.388970e+01 2.490928e+01 3.387348e+01 1.400467e+01 3.840681e-01 7.136493e-01 1.081340e+00 1.085222e+00 1.752033e+00 1.378857e+00 1.378889e+00 2.208725e+00 1.701376e+00 1.295256e+00 1.244028e+00 1.383481e+00 2.393948e-01 1.564007e-01 1.772375e-01 2.251416e-01 2.657496e-01 3.987955e-01 2.827360e-01 3.991296e-01 4.596761e-01 3.269685e-01 3.296372e-01 2.982106e-01 2.926378e-01 5.259237e-02 2.589409e-02 4.103986e-02 3.847250e-02 5.764771e-02 6.619255e-02 6.103070e-02 6.559126e-02 1.124820e-01 7.983457e-02 5.526754e-02 6.163641e-02 5.741691e-02 1.000000e-02
<GCONST> 8.409437e+01
<MIXTURE> 2 2.977208e-01
<MEAN> 52
 -1.120831e+01 -7.644102e-01 1.053110e+01 -2.232233e+01 -1.749677e+01 -8.877780e+00 -1.524132e+01 -1.347416e+01 -1.109800e+01 3.261011e+00 -1.654305e+01 2.148068e+00 7.163050e+01 1.069218e-01 1.890197e+00 -3.457454e-02 1.104041e+00 4.542920e-01 4.758293e-01 -1.122406e+00 -5.611313e-01 2.273583e-02 -1.442767e+00 -2.975426e-02 -4.872289e-01 -1.004360e+00 -1.172803e-01 1.346064e-01 -5.704687e-01 6.194478e-01 7.459908e-02 -4.160121e-02 4.339928e-01 2.276908e-01 3.957840e-02 -4.840180e-01 3.325346e-01 -3.801363e-01 -8.575524e-02 -1.879132e-01 -7.241253e-03 -2.560228e-02 -3.855516e-03 3.134742e-02 2.754249e-02 1.974449e-01 -2.063116e-03 8.469752e-02 1.813386e-01 8.420810e-02 -3.149909e-03 7.047949e-02
<VARIANCE> 52
 9.371261e+00 2.489789e+01 9.423729e+00 2.147949e+01 2.600385e+01 3.189726e+01 3.686814e+01 3.031409e+01 2.673516e+01 4.776196e+01 3.904621e+01 3.323047e+01 3.151403e+01 3.797469e-01 5.337583e-01 1.840621e+00 2.304412e+00 1.190268e+00 1.746835e+00 1.762870e+00 2.998318e+00 1.838446e+00 2.596230e+00 2.471990e+00 2.378511e+00 3.218200e-01 1.918218e-01 1.348325e-01 1.802335e-01 1.964816e-01 2.343232e-01 3.544039e-01 3.617745e-01 5.221252e-01 2.767851e-01 3.613706e-01 4.307363e-01 2.898581e-01 3.126003e-02 2.763737e-02 3.386319e-02 4.426320e-02 5.388949e-02 6.480367e-02 6.122869e-02 7.801524e-02 1.120855e-01 6.904543e-02 1.177344e-01 9.457519e-02 7.974011e-02 1.000000e-02
<GCONST> 8.570443e+01
<MIXTURE> 3 2.934473e-01
<MEAN> 52
 -6.024428e+00 2.339281e+00 1.812379e+01 -1.845649e+00 -1.323268e+01 -5.058177e+00 -1.317794e+01 -2.046728e+00 -1.032127e+01 -3.713608e+00 2.161366e+00 -1.896682e+00 7.178434e+01 -1.739775e+00 3.000601e+00 -9.857843e-01 7.058916e-01 2.876728e+00 -7.240748e-01 2.391750e+00 -1.022713e+00 1.287586e+00 7.004570e-01 -8.511806e-01 1.222606e+00 -1.077508e+00 -8.568226e-01 3.543894e-01 -9.673132e-01 2.375981e-02 6.389642e-01 -3.097086e-02 7.032154e-01 1.582874e-01 6.983234e-01 2.016593e-01 -1.009586e-01 9.585542e-02 -1.838761e-02 -8.324602e-02 -3.669896e-01 6.427695e-02 -1.853606e-01 -3.605798e-01 1.834015e-01 -2.112381e-01 1.280174e-01 -2.202957e-01 -8.270302e-02 1.399536e-01 -1.928820e-01 1.286074e-01
<VARIANCE> 52
 1.081829e+01 2.170834e+01 2.772300e+01 4.576934e+01 3.670881e+01 4.049901e+01 4.131313e+01 3.880341e+01 5.091193e+01 4.853617e+01 2.787142e+01 2.396783e+01 1.861118e+01 1.283354e+00 1.676574e+00 2.663637e+00 2.509364e+00 2.490247e+00 2.177489e+00 2.303430e+00 2.685862e+00 3.718620e+00 3.049692e+00 2.082052e+00 1.487904e+00 4.288254e-01 1.168736e-01 2.741894e-01 3.391138e-01 5.057401e-01 5.465608e-01 3.487357e-01 4.110508e-01 4.407034e-01 5.944684e-01 4.716946e-01 3.658987e-01 2.971591e-01 7.550579e-02 4.419413e-02 6.165984e-02 6.423011e-02 8.315359e-02 1.063498e-01 8.728946e-02 9.235541e-02 1.159402e-01 1.212004e-01 1.046148e-01 7.807717e-02 6.632330e-02 1.390020e-02
<GCONST> 1.000857e+02
<STATE> 5
<NUMMIXES> 3
<MIXTURE> 1 3.194335e-01
<MEAN> 52
 -1.191045e+01 1.097653e+01 1.308933e+01 4.260940e-01 -5.284775e+00 -8.091979e+00 -4.874062e+00 -4.487152e+00 -5.066761e+00 -1.831139e+00 2.879353e-01 1.991587e+00 6.974347e+01 -4.026496e+00 2.658309e+00 -2.571612e+00 2.508524e-01 3.540331e+00 4.895255e-01 3.224342e+00 8.419436e-03 2.081650e+00 9.133596e-01 -7.373097e-01 6.242440e-01 -6.962714e-01 -4.979749e-01 -9.402128e-01 -4.879187e-01 -5.497373e-01 -5.241978e-01 3.612367e-01 -4.267251e-01 3.688881e-01 -1.743945e-01 -6.793542e-02 1.328094e-01 -4.168525e-01 2.331839e-01 4.332652e-01 -3.697264e-01 3.309929e-01 -1.411942e-01 -5.312564e-01 -8.777899e-02 -4.584249e-01 -9.990253e-02 -3.408129e-01 -1.297757e-01 7.995100e-02 -7.547600e-02 4.745979e-02
<VARIANCE> 52
 1.484724e+01 1.676868e+01 1.816821e+01 2.067201e+01 2.611193e+01 3.475164e+01 2.506297e+01 2.899892e+01 2.734840e+01 2.685589e+01 1.851086e+01 1.750361e+01 1.407952e+01 8.992468e-01 2.388367e+00 3.762073e+00 3.973096e+00 3.180315e+00 3.126025e+00 3.078516e+00 3.184972e+00 3.516479e+00 3.718455e+00 2.666862e+00 1.944284e+00 4.870999e-01 2.267461e-01 2.808772e-01 2.922308e-01 3.528226e-01 5.309212e-01 3.865333e-01 4.265210e-01 4.965597e-01 5.921767e-01 4.340015e-01 4.056052e-01 2.823187e-01 5.464723e-02 3.565822e-02 7.085069e-02 9.740736e-02 1.192879e-01 1.161278e-01 9.161294e-02 1.084669e-01 1.215622e-01 1.387991e-01 1.210367e-01 1.085242e-01 7.607815e-02 1.297556e-02
<GCONST> 9.985513e+01
<MIXTURE> 2 4.964595e-01
<MEAN> 52
 -2.281964e+01 1.204685e+01 5.096012e+00 -1.550744e+00 -8.666531e-01 -2.949839e+00 -1.007621e+00 -3.639640e+00 -1.930654e+00 -9.647487e-01 -2.036771e+00 -3.543352e-01 6.859332e+01 -3.300971e+00 -7.791001e-01 -2.613950e+00 -1.190283e+00 5.584313e-01 6.124536e-01 8.511813e-01 7.025452e-01 9.853548e-01 7.045974e-01 1.591203e-01 -4.998868e-02 -1.688836e-01 8.370271e-01 -7.801588e-01 3.722102e-01 -5.147875e-01 -1.107248e+00 -4.080231e-01 -8.682901e-01 -2.476392e-01 -5.474985e-01 -1.797977e-01 5.607987e-02 -4.079955e-02 1.326556e-01 3.696317e-01 3.162059e-01 3.145105e-01 2.549446e-01 9.402152e-02 -1.166227e-01 4.797439e-02 -1.678075e-01 -6.205944e-02 -1.104391e-01 -3.983187e-02 3.306012e-02 -5.406026e-02
<VARIANCE> 52
 1.468480e+01 1.467081e+01 4.493587e+01 2.352097e+01 2.962874e+01 3.507460e+01 3.542748e+01 3.634610e+01 2.354316e+01 2.903743e+01 2.655554e+01 2.584463e+01 1.259800e+01 1.626683e+00 1.950129e+00 2.019474e+00 2.751346e+00 3.111275e+00 2.416312e+00 2.712186e+00 2.887513e+00 2.565607e+00 2.540989e+00 2.402494e+00 1.718307e+00 3.136159e-01 1.888388e-01 3.503118e-01 4.183295e-01 4.387466e-01 4.545407e-01 3.398649e-01 4.359769e-01 4.832142e-01 4.328994e-01 5.516016e-01 4.950983e-01 3.926606e-01 3.926132e-02 4.855097e-02 6.456374e-02 6.685238e-02 7.958017e-02 1.441492e-01 1.023864e-01 1.104098e-01 1.119993e-01 1.191361e-01 1.344221e-01 9.874418e-02 9.354046e-02 1.000000e-02
<GCONST> 9.950431e+01
<MIXTURE> 3 1.841070e-01
<MEAN> 52
 -1.350760e+01 1.002159e+01 3.907220e+00 -1.041109e+01 -1.529953e+01 -7.109092e+00 -1.418141e+01 -1.557345e+01 -9.868563e+00 -7.437183e+00 -1.166811e+01 -5.018274e+00 6.732281e+01 -3.009196e+00 2.186911e+00 -2.237380e+00 3.584153e+00 1.962077e+00 1.107167e+00 2.303927e+00 9.641558e-01 1.348767e+00 -1.160930e+00 2.155735e+00 -1.588447e+00 -5.956998e-01 -7.785433e-01 -6.567882e-01 -1.723799e-01 -3.181127e-01 4.605688e-01 2.646579e-01 4.962664e-01 7.684605e-01 4.773131e-01 1.073284e+00 1.532089e-01 5.610675e-01 2.654202e-01 3.285264e-01 -2.443090e-01 1.839566e-01 -4.157301e-01 -2.058889e-01 -9.481522e-02 -3.238032e-01 -9.630704e-02 -1.059163e-01 1.643234e-01 -2.521039e-01 2.307296e-01 -1.206260e-02
<VARIANCE> 52
 2.136202e+01 2.529420e+01 2.598925e+01 3.718773e+01 2.866096e+01 2.291092e+01 3.670797e+01 1.328843e+01 1.646637e+01 3.179273e+01 2.565360e+01 2.132869e+01 2.220123e+01 1.888552e+00 2.297988e+00 1.730556e+00 1.638865e+00 4.645059e+00 3.834722e+00 3.812787e+00 3.458945e+00 2.894914e+00 5.831375e+00 1.790273e+00 2.843055e+00 3.710324e-01 3.444905e-01 3.951168e-01 2.946466e-01 5.715657e-01 4.859138e-01 4.927848e-01 5.938826e-01 3.576893e-01 4.166982e-01 6.400849e-01 4.446404e-01 4.973762e-01 3.837216e-02 8.767258e-02 7.838795e-02 6.955808e-02 6.869529e-02 1.521178e-01 1.297502e-01 1.146632e-01 1.574232e-01 1.006644e-01 2.380642e-01 7.989755e-02 1.127538e-01 1.000000e-02
<GCONST> 1.043548e+02
<STATE> 6
<NUMMIXES> 3
<MIXTURE> 1 1.185880e-01
<MEAN> 52
 -2.644036e+01 8.341152e+00 -2.353582e+00 -5.348954e+00 -4.707004e+00 -2.341162e+00 -3.110742e+00 -7.718757e+00 -1.758282e+00 -5.178926e-01 -3.039864e+00 -2.081787e+00 6.560326e+01 3.135459e+00 3.169235e-01 2.251752e+00 -1.213760e+00 -2.000679e+00 -1.732621e+00 -2.705343e+00 -2.992487e+00 -2.540146e+00 -1.518087e+00 -1.182882e+00 -4.633387e-01 1.641428e-01 1.005713e+00 -6.466506e-02 4.846008e-01 -9.158502e-01 -7.360183e-01 -4.222053e-01 -8.334700e-01 -4.919911e-01 -4.356160e-01 -9.051109e-02 -5.512977e-01 -1.418069e-01 3.597687e-01 -3.890135e-01 -1.922759e-01 -2.684250e-01 -1.191868e-01 3.152525e-01 3.418036e-01 3.424533e-01 5.091230e-01 4.187591e-01 3.562096e-01 6.412219e-02 7.156347e-02 3.385926e-02
<VARIANCE> 52
 1.418666e+01 1.165432e+01 3.684620e+01 2.672949e+01 2.986613e+01 2.672876e+01 3.874149e+01 3.806981e+01 2.881942e+01 2.728923e+01 1.809407e+01 1.918104e+01 2.185762e+01 2.519453e+00 1.228122e+00 1.363233e+00 3.042091e+00 2.597547e+00 2.060963e+00 3.125830e+00 2.861559e+00 1.800353e+00 2.116670e+00 2.216180e+00 2.193130e+00 4.999662e-01 2.205420e-01 2.566228e-01 2.579442e-01 4.423545e-01 5.268627e-01 5.353978e-01 5.619968e-01 7.675427e-01 4.926059e-01 6.480663e-01 3.640750e-01 4.794652e-01 6.782857e-02 9.491752e-02 5.349652e-02 5.050237e-02 1.029447e-01 1.272923e-01 9.439753e-02 1.408728e-01 1.191652e-01 8.917399e-02 9.200367e-02 1.016482e-01 1.140771e-01 1.713661e-02
<GCONST> 1.006925e+02
<MIXTURE> 2 7.970215e-01
<MEAN> 52
 -2.841042e+01 8.559691e+00 -1.906077e+00 -6.703718e+00 -5.001576e+00 -6.049864e+00 -3.383952e+00 -4.403777e+00 -2.301202e+00 -2.697070e-01 -1.393478e+00 -5.527166e-01 6.811582e+01 -3.030488e-01 -6.112336e-01 -2.425979e-01 -5.216537e-01 -2.026500e-01 -4.253616e-02 3.983679e-02 -4.108454e-02 7.791692e-02 1.378291e-01 6.537947e-02 4.912012e-02 -1.677769e-01 7.116654e-01 9.196290e-02 6.146173e-01 2.153415e-01 -6.891917e-02 4.426893e-03 -1.439905e-01 -1.508289e-01 -1.766744e-01 -1.266049e-01 -1.009532e-01 -5.772162e-02 -2.601889e-02 4.885843e-02 8.835578e-02 2.603141e-02 4.735790e-02 2.213758e-02 3.004778e-02 -5.156324e-03 -9.681136e-03 -2.008064e-02 -9.901158e-03 6.320544e-04 -1.724139e-02 2.399236e-02
<VARIANCE> 52
 6.994582e+00 1.825644e+01 3.896139e+01 2.727122e+01 2.148023e+01 4.976435e+01 3.060547e+01 2.920668e+01 2.789144e+01 2.846471e+01 2.206178e+01 1.841014e+01 1.508496e+01 8.512787e-01 7.564398e-01 1.521217e+00 1.339815e+00 1.586754e+00 1.508075e+00 1.521811e+00 1.699828e+00 1.679834e+00 1.740482e+00 1.682834e+00 1.402194e+00 1.756396e-01 2.804771e-01 1.974646e-01 2.658660e-01 3.499977e-01 3.527074e-01 3.451133e-01 3.741850e-01 4.340543e-01 4.073269e-01 4.141163e-01 3.563705e-01 2.818526e-01 3.684822e-02 4.669493e-02 4.557678e-02 4.869306e-02 7.865074e-02 1.053644e-01 8.364715e-02 1.025801e-01 9.083681e-02 9.849877e-02 1.009617e-01 8.201048e-02 7.703163e-02 1.259887e-02
<GCONST> 8.709753e+01
<MIXTURE> 3 8.439051e-02
<MEAN> 52
 -1.415101e+01 9.185753e+00 3.186831e+00 -1.431953e+01 -1.536676e+01 -9.615404e+00 -1.569049e+01 -1.851799e+01 -9.319726e+00 -5.958144e+00 -9.420830e+00 -4.831210e+00 6.755772e+01 3.657196e+00 -1.200225e+00 2.674083e+00 -4.666635e+00 -2.148464e+00 -1.176402e+00 -3.187023e+00 -1.711452e+00 -1.552825e+00 2.655469e-01 -2.721502e+00 -3.635573e-01 1.322485e+00 -8.640029e-01 -4.983759e-01 -4.664120e-01 -3.913555e-01 9.228906e-01 8.758109e-01 7.524697e-01 1.233725e+00 8.414295e-01 9.038059e-01 4.916628e-02 3.343786e-01 9.697437e-02 -4.264272e-01 1.444159e-01 -3.680426e-01 5.908766e-01 3.763379e-01 2.064610e-01 3.675117e-01 2.019314e-01 1.659398e-01 -1.035049e-01 3.215656e-01 6.874244e-02 -2.103428e-01
<VARIANCE> 52
 1.009956e+01 1.926691e+01 2.167083e+01 3.206989e+01 2.270282e+01 1.706852e+01 2.794031e+01 2.800697e+01 1.361297e+01 2.829412e+01 2.017308e+01 2.005099e+01 2.534922e+01 1.448373e+00 1.442542e+00 1.899348e+00 3.438161e+00 3.805870e+00 3.986557e+00 4.243998e+00 4.501017e+00 2.535069e+00 3.485505e+00 1.731189e+00 3.572163e+00 4.398455e-01 2.421412e-01 2.143994e-01 3.531515e-01 5.528246e-01 3.903391e-01 2.930811e-01 5.645440e-01 3.586675e-01 3.335477e-01 4.124564e-01 5.529735e-01 4.898322e-01 8.386081e-02 6.500681e-02 6.157854e-02 6.849024e-02 8.770132e-02 1.359649e-01 1.776411e-01 1.665673e-01 1.773249e-01 1.243968e-01 1.391227e-01 9.626854e-02 1.260873e-01 1.281486e-02
<GCONST> 1.018263e+02
<STATE> 7
<NUMMIXES> 3
<MIXTURE> 1 4.185855e-01
<MEAN> 52
 -9.149632e+00 8.090662e+00 1.405738e+01 -3.067744e+00 -9.933509e+00 -4.711085e+00 -6.662412e+00 -5.627363e+00 -7.546561e+00 -2.814977e+00 6.756087e-01 -7.311133e-01 6.990542e+01 4.242340e+00 -7.988783e-01 2.350252e+00 -2.894944e-01 -2.842051e+00 6.837627e-01 -1.901164e+00 -7.805923e-02 -1.788869e+00 -2.410540e-01 1.116646e+00 -6.124688e-01 1.258463e+00 -8.973122e-01 -3.929146e-01 -8.637836e-01 -5.050105e-01 2.198690e-01 2.976179e-01 2.145672e-01 1.511362e-01 1.523419e-01 3.553531e-01 2.045485e-02 -2.593844e-01 1.508008e-02 -4.579560e-01 7.202151e-02 -3.433753e-01 9.150593e-02 4.549181e-01 -3.524657e-02 2.841758e-01 -2.443072e-02 2.633044e-01 7.313553e-02 -2.017911e-01 -1.993707e-02 -2.468658e-01
<VARIANCE> 52
 2.486617e+01 2.551446e+01 2.098178e+01 2.598937e+01 4.361499e+01 4.999571e+01 3.016156e+01 3.406466e+01 3.400966e+01 2.344940e+01 2.428729e+01 2.246573e+01 1.631154e+01 2.480104e+00 2.274316e+00 4.630660e+00 3.900613e+00 2.955675e+00 4.388456e+00 2.485267e+00 3.269198e+00 3.553955e+00 4.566437e+00 2.764832e+00 2.996211e+00 7.482063e-01 3.968355e-01 2.643983e-01 4.285094e-01 4.621445e-01 7.161173e-01 6.108571e-01 4.743420e-01 4.380932e-01 5.171769e-01 4.150593e-01 4.639965e-01 3.961298e-01 1.590018e-01 1.121545e-01 7.409627e-02 1.353940e-01 1.470854e-01 1.090245e-01 1.737474e-01 8.992632e-02 1.295559e-01 1.264259e-01 1.666842e-01 1.143424e-01 1.201425e-01 2.837413e-02
<GCONST> 1.124354e+02
<MIXTURE> 2 3.643092e-01
<MEAN> 52
 -2.430135e+01 4.810930e+00 4.333704e+00 -6.691609e+00 -4.272703e+00 -4.647015e+00 -1.967224e+00 -3.561202e+00 -2.727633e+00 -5.398135e-01 -1.788270e+00 -4.931552e-01 6.706392e+01 4.173660e+00 4.627654e-01 2.766236e+00 1.330250e+00 -8.380672e-01 4.058848e-01 -7.681603e-01 -4.111973e-01 -9.639313e-01 -5.355730e-01 4.355503e-02 -4.357167e-01 -9.172469e-02 1.177840e+00 2.326648e-01 6.695953e-01 1.808015e-01 -5.571609e-01 1.180696e-01 -4.819290e-01 -2.456346e-02 -5.371646e-01 -1.141525e-01 4.120576e-01 -1.895498e-02 4.508672e-01 -5.113406e-01 -2.185087e-01 -4.180092e-01 -3.297567e-01 -3.590492e-02 2.654557e-02 4.067289e-02 4.847290e-02 5.824192e-02 1.136581e-01 5.210714e-02 -1.718855e-02 6.465740e-02
<VARIANCE> 52
 2.039730e+01 1.991784e+01 2.631032e+01 2.348676e+01 2.552028e+01 3.729781e+01 2.465079e+01 2.409524e+01 2.818277e+01 2.497114e+01 2.361712e+01 1.975737e+01 1.229516e+01 2.483106e+00 2.131255e+00 2.388771e+00 2.282639e+00 2.905399e+00 2.723097e+00 2.236212e+00 2.100933e+00 2.432533e+00 2.729948e+00 2.327040e+00 1.607278e+00 7.975641e-01 3.644638e-01 3.449343e-01 4.823850e-01 5.993345e-01 5.191731e-01 6.476402e-01 3.702781e-01 3.811479e-01 5.095128e-01 6.237490e-01 4.696724e-01 4.005562e-01 1.442354e-01 9.076495e-02 6.716716e-02 8.972679e-02 8.995826e-02 1.392533e-01 1.128080e-01 8.525524e-02 9.039439e-02 1.108122e-01 1.056764e-01 1.157709e-01 8.091898e-02 3.317084e-02
<GCONST> 1.038450e+02
<MIXTURE> 3 2.171053e-01
<MEAN> 52
 -1.184896e+01 4.008162e+00 7.152041e+00 -2.651266e+01 -1.198519e+01 -7.293546e+00 -1.799001e+01 -1.402883e+01 -8.511276e+00 -1.113606e-01 -1.586004e+01 -2.657225e+00 7.079971e+01 7.300480e-01 -8.746920e-01 -1.531584e-01 -2.180490e+00 1.137346e+00 8.762331e-01 -8.709543e-01 1.041186e+00 5.404888e-01 3.357793e-01 -1.361271e+00 5.004516e-01 4.745055e-01 -3.753504e-01 1.929212e-01 -6.717731e-01 1.105536e+00 3.513357e-01 1.071569e-01 3.060766e-01 2.215471e-01 2.277048e-01 -5.046427e-01 4.457485e-01 4.645522e-02 -3.009350e-01 2.018124e-01 3.966112e-02 1.612349e-01 1.362640e-01 -2.612432e-01 -2.602821e-01 -1.247889e-01 -2.347427e-01 -2.350958e-01 -1.722466e-01 3.186129e-02 -8.122856e-02 -2.399731e-02
<VARIANCE> 52
 1.197937e+01 1.232302e+01 1.533983e+01 3.230422e+01 1.527069e+01 2.010862e+01 3.273632e+01 3.451851e+01 2.225091e+01 4.041185e+01 3.355740e+01 1.907785e+01 1.437173e+01 5.388908e-01 8.175204e-01 2.290765e+00 3.586797e+00 1.319004e+00 1.353890e+00 1.828860e+00 3.383575e+00 2.507683e+00 3.761796e+00 2.961782e+00 1.942697e+00 3.726677e-01 3.009184e-01 1.676182e-01 4.394011e-01 3.041292e-01 3.201399e-01 5.623068e-01 4.792550e-01 4.402931e-01 4.782396e-01 3.847036e-01 4.407183e-01 3.089275e-01 3.191079e-02 4.778175e-02 5.039672e-02 9.750026e-02 1.213495e-01 4.246713e-02 6.492413e-02 1.015344e-01 1.046755e-01 8.998152e-02 1.480668e-01 1.142916e-01 7.409189e-02 1.264440e-02
<GCONST> 9.238562e+01
<STATE> 8
<NUMMIXES> 3
<MIXTURE> 1 3.859497e-01
<MEAN> 52
 -6.040872e+00 3.597162e+00 1.720001e+01 -8.706979e+00 -1.582337e+01 -1.439048e-01 -1.049502e+01 -5.704710e+00 -1.059625e+01 -1.313449e+00 4.277670e+00 -3.422113e+00 7.250938e+01 7.708581e-01 -5.137764e-01 -3.852859e-01 -1.282195e+00 -2.158143e-01 1.957466e+00 -2.464392e-01 -1.321222e-01 -2.648311e-01 1.070981e+00 3.670063e-01 -1.539434e+00 1.308146e-01 -5.180030e-01 2.472972e-01 -7.248596e-01 4.284746e-01 8.661572e-01 -2.759225e-01 4.789000e-01 -6.561338e-02 3.804349e-01 1.424701e-01 -4.943123e-01 -5.607703e-02 -4.212795e-01 2.621615e-01 2.722071e-02 2.182722e-01 3.015352e-01 -8.299202e-02 -2.958136e-01 -6.422597e-02 -1.156126e-02 -3.241193e-02 -1.984762e-01 -7.288530e-02 2.017076e-01 -4.957134e-03
<VARIANCE> 52
 1.135576e+01 1.965534e+01 2.110847e+01 4.038611e+01 2.637031e+01 5.910448e+01 3.507776e+01 4.601688e+01 3.850631e+01 4.879395e+01 2.580824e+01 3.053642e+01 1.171663e+01 4.256859e-01 8.318334e-01 1.335520e+00 1.792792e+00 2.156586e+00 2.048536e+00 2.525664e+00 2.101510e+00 1.715974e+00 2.328135e+00 2.205519e+00 1.585890e+00 3.636969e-01 2.562901e-01 1.409545e-01 3.997169e-01 4.800669e-01 5.209610e-01 6.057803e-01 4.004468e-01 4.062727e-01 3.388765e-01 4.864472e-01 2.973989e-01 4.155512e-01 8.728947e-02 2.473975e-02 4.089174e-02 5.186203e-02 6.851061e-02 8.289571e-02 7.773850e-02 1.029035e-01 9.393056e-02 8.009521e-02 8.633804e-02 7.984816e-02 7.140461e-02 1.783618e-02
<GCONST> 9.308816e+01
<MIXTURE> 2 3.373807e-01
<MEAN> 52
 -9.179086e+00 -1.053112e+00 4.400564e+00 -2.873716e+01 -6.753026e+00 -6.130525e+00 -2.250068e+01 -7.903126e+00 -7.047188e+00 -4.283259e+00 -1.864133e+01 -5.831286e-01 7.185609e+01 4.648484e-01 -5.109967e-01 -1.007214e-01 7.701032e-01 3.452668e-01 -1.045088e-01 -3.944605e-01 6.938353e-01 -2.124942e-01 -9.990459e-01 1.455025e-02 8.429391e-02 -3.000636e-01 3.070140e-04 4.539850e-02 4.328183e-03 2.655441e-01 -1.747317e-01 -1.658046e-01 1.514116e-01 -6.640403e-02 -5.382392e-02 3.204981e-02 1.211958e-01 -7.945164e-02 -1.015938e-01 1.581240e-02 6.887060e-03 -2.544133e-02 -8.273429e-02 -1.106622e-02 -2.083017e-03 3.933330e-02 -3.065752e-02 1.382057e-03 7.915028e-02 -2.640795e-02 -5.663766e-03 7.732682e-03
<VARIANCE> 52
 6.613353e+00 1.058383e+01 1.163762e+01 2.494232e+01 1.773218e+01 4.012347e+01 2.086563e+01 7.184463e+01 1.576941e+01 4.881449e+01 3.422324e+01 2.389343e+01 4.732938e+00 9.012272e-02 1.496936e-01 4.221689e-01 7.357439e-01 9.069755e-01 9.829216e-01 1.058436e+00 9.999136e-01 7.115295e-01 1.346552e+00 7.400603e-01 5.174074e-01 9.388191e-02 1.935670e-02 2.758082e-02 9.562082e-02 1.283331e-01 9.695202e-02 1.359521e-01 1.401403e-01 2.007608e-01 1.661641e-01 1.606221e-01 1.405142e-01 1.012287e-01 1.000000e-02 1.000000e-02 1.000000e-02 2.043410e-02 3.120061e-02 1.993465e-02 3.121592e-02 2.607603e-02 2.960483e-02 3.238235e-02 3.258799e-02 2.991861e-02 2.141084e-02 1.000000e-02
<GCONST> 4.312814e+01
<MIXTURE> 3 2.766696e-01
<MEAN> 52
 -3.359814e+00 4.632901e+00 9.355052e+00 -6.101272e+00 -1.211870e+01 -2.220832e-01 -9.099821e+00 -6.570349e+00 -9.920963e+00 4.195848e-02 -1.008376e+00 -5.716759e+00 7.101155e+01 1.214454e+00 -8.441305e-01 -1.682439e+00 2.137247e+00 9.490193e-01 -1.552683e+00 1.016295e+00 7.792112e-02 -3.031098e-01 3.389689e-02 -2.744689e-01 -3.396529e-01 -4.895627e-01 -2.581756e-01 4.305934e-02 -1.523680e-01 4.900180e-01 3.490483e-01 -4.906827e-01 2.731515e-01 -8.859200e-02 3.343936e-01 -1.797755e-01 -2.203203e-01 3.200553e-01 -3.206348e-01 1.245610e-01 9.859131e-02 3.198566e-01 -3.110843e-01 -2.281582e-01 3.326505e-01 -2.800502e-01 -6.596889e-02 1.239087e-02 2.611863e-02 -3.932185e-03 1.378022e-03 6.830881e-02
<VARIANCE> 52
 1.264902e+01 2.149897e+01 3.369685e+01 9.138880e+01 3.928499e+01 4.843934e+01 8.446346e+01 7.888548e+01 6.275288e+01 7.026375e+01 8.231643e+01 3.716031e+01 1.071979e+01 7.512802e-01 7.240337e-01 1.310286e+00 1.817146e+00 3.065158e+00 2.954295e+00 2.320307e+00 2.538478e+00 3.159715e+00 2.609291e+00 2.945506e+00 3.295422e+00 6.482751e-01 3.407856e-01 2.006356e-01 2.727018e-01 5.675098e-01 5.558624e-01 7.534556e-01 6.877619e-01 8.414521e-01 8.547710e-01 6.511673e-01 6.429256e-01 5.884715e-01 6.572753e-02 6.333936e-02 3.723560e-02 5.757940e-02 9.194657e-02 1.266334e-01 1.449304e-01 1.057528e-01 1.264823e-01 1.455438e-01 1.030288e-01 1.280413e-01 1.202323e-01 2.214267e-02
<GCONST> 1.105036e+02
<STATE> 9
<NUMMIXES> 3
<MIXTURE> 1 3.367289e-01
<MEAN> 52
 -4.312819e+00 2.249989e+00 1.488166e+01 -1.068048e+01 -1.390010e+01 2.697549e+00 -1.037320e+01 -6.717695e+00 -9.062105e+00 1.532083e+00 9.264675e-01 -8.425961e+00 7.128861e+01 4.179742e-01 9.736653e-02 -5.813373e-01 5.738194e-01 9.463786e-01 -7.456677e-02 -2.029850e-01 1.917868e-01 5.191419e-01 -1.503814e-01 -8.479053e-01 -2.687334e-01 -6.559519e-01 1.435528e-02 7.006356e-02 -7.422213e-02 3.420474e-01 5.279590e-02 -4.447051e-01 1.442940e-01 1.387451e-01 -9.209213e-02 -1.968810e-01 5.027675e-02 2.368156e-01 -1.146656e-01 1.308287e-02 -1.981479e-02 2.890902e-02 -3.386821e-02 -8.139142e-02 5.151346e-02 5.762262e-02 -3.472006e-02 -4.227135e-02 5.222562e-02 6.357297e-02 -2.504618e-02 2.030088e-02
<VARIANCE> 52
 9.750949e+00 1.642659e+01 1.399661e+01 3.200283e+01 6.047083e+01 4.084789e+01 3.873246e+01 5.506216e+01 3.301822e+01 4.749075e+01 3.276756e+01 2.559207e+01 1.074562e+01 9.096386e-02 3.777215e-01 4.611447e-01 1.013634e+00 1.302648e+00 1.572847e+00 1.409467e+00 1.186759e+00 1.104112e+00 2.056791e+00 1.131931e+00 1.544151e+00 1.516801e-01 1.273596e-02 6.250206e-02 6.358232e-02 1.717748e-01 1.718611e-01 2.100174e-01 3.040237e-01 2.186604e-01 1.715876e-01 3.097376e-01 2.186507e-01 2.664476e-01 1.418456e-02 1.000000e-02 1.442440e-02 2.291320e-02 3.450716e-02 4.147105e-02 4.786717e-02 5.142577e-02 4.736763e-02 4.264033e-02 6.031277e-02 4.901160e-02 6.105238e-02 1.000000e-02
<GCONST> 6.295969e+01
<MIXTURE> 2 3.305037e-01
<MEAN> 52
 -4.816948e+00 -5.270981e-01 1.087267e+00 -1.662025e+01 -8.987985e+00 -9.314818e+00 -1.959462e+01 -7.327003e+00 -1.043230e+01 -1.085024e+01 -1.548326e+01 -4.077654e+00 6.499855e+01 3.059301e-01 1.306208e-01 -4.448026e-01 1.037899e+00 -2.716750e-01 -3.123261e-01 5.753826e-01 -2.187958e-01 -3.372797e-01 -3.010432e-01 4.092980e-01 -3.057757e-01 -7.734820e-01 -7.521468e-02 8.330224e-02 7.652494e-02 1.068730e-02 -2.206271e-03 5.316813e-02 9.959555e-02 -9.052424e-02 -4.889918e-02 4.150888e-02 6.633156e-02 -1.021963e-02 -4.443209e-02 -1.174532e-02 -2.275858e-02 2.262095e-02 8.186200e-04 5.912483e-02 1.697540e-02 -3.350158e-02 3.621628e-02 1.610799e-02 -1.120091e-02 -1.347691e-02 2.752201e-02 1.525065e-02
<VARIANCE> 52
 8.682752e+00 1.779963e+01 1.876539e+01 4.659457e+01 4.331384e+01 4.051476e+01 3.417572e+01 3.913873e+01 2.495536e+01 7.647964e+01 4.471605e+01 2.807259e+01 3.397187e+01 2.740696e-01 5.741098e-01 9.038555e-01 1.495811e+00 1.005354e+00 1.373800e+00 1.324007e+00 1.463303e+00 1.235676e+00 1.613440e+00 1.184025e+00 8.553573e-01 2.135298e-01 3.394233e-02 7.458858e-02 1.299607e-01 2.334665e-01 2.091064e-01 2.543514e-01 2.184051e-01 2.381903e-01 2.465921e-01 2.400582e-01 1.979903e-01 1.746621e-01 2.492123e-02 1.000000e-02 1.563001e-02 3.156951e-02 5.404963e-02 4.177446e-02 4.892365e-02 4.542461e-02 5.956789e-02 5.545282e-02 4.777711e-02 5.260485e-02 3.481930e-02 1.000000e-02
<GCONST> 6.953133e+01
<MIXTURE> 3 3.327674e-01
<MEAN> 52
 3.767409e-02 3.623417e+00 8.289552e+00 3.049406e-01 -8.459085e+00 -3.674912e+00 -6.445201e+00 -4.781183e+00 -8.641099e+00 1.191988e-01 -1.021614e+00 -6.811472e+00 6.725735e+01 6.464679e-01 1.146487e-01 -8.373084e-01 1.845099e+00 7.277375e-01 -8.959298e-01 7.612182e-01 -5.118781e-01 4.990391e-01 1.071068e-01 -1.034501e+00 3.518850e-01 -1.121653e+00 -2.632650e-01 9.637049e-02 2.722228e-01 -3.585838e-01 -5.193757e-02 5.231759e-01 -1.736111e-01 -1.638656e-01 2.818993e-01 7.464913e-03 -1.439542e-01 1.228470e-01 -1.603347e-02 -4.020425e-02 -5.997340e-02 3.590271e-02 -2.220426e-01 -2.038905e-02 1.334227e-01 -1.255612e-01 1.238666e-01 -4.059110e-02 -3.282757e-02 1.306963e-01 -7.022173e-02 8.788969e-02
<VARIANCE> 52
 9.928552e+00 1.905078e+01 2.696012e+01 4.090715e+01 3.051797e+01 3.932232e+01 4.297786e+01 3.828133e+01 5.350546e+01 5.251855e+01 4.704505e+01 3.530291e+01 1.360834e+01 4.742476e-01 1.053934e+00 9.408696e-01 1.826579e+00 1.493187e+00 2.297383e+00 2.672338e+00 2.767763e+00 3.175824e+00 2.440545e+00 2.579313e+00 2.589704e+00 3.866507e-01 8.181608e-02 1.266871e-01 1.710313e-01 2.988321e-01 2.642569e-01 3.189913e-01 4.105556e-01 4.360519e-01 4.614076e-01 4.776535e-01 4.530528e-01 4.304070e-01 5.286554e-02 2.279622e-02 3.874019e-02 3.740596e-02 7.378103e-02 6.720158e-02 9.450261e-02 1.063690e-01 1.115150e-01 1.228507e-01 9.482062e-02 1.083895e-01 1.038044e-01 1.101975e-02
<GCONST> 9.266855e+01
<STATE> 10
<NUMMIXES> 3
<MIXTURE> 1 5.426742e-01
<MEAN> 52
 -1.580065e+00 5.595466e+00 8.219569e+00 2.760012e+00 -1.988537e+00 5.164134e-01 -3.226996e+00 -4.114786e+00 -5.125858e+00 -8.921263e-01 -4.304882e+00 -4.652926e+00 6.044431e+01 -7.623279e-01 -2.716599e-01 -5.043793e-01 -9.975815e-02 7.562185e-01 4.842440e-01 5.026777e-01 6.602324e-01 8.939346e-01 -2.350991e-01 -2.537815e-01 5.082390e-01 -1.037553e+00 -1.796113e-01 -3.227201e-01 -2.124537e-01 -4.589185e-01 -3.062572e-01 -1.369453e-01 -2.251525e-01 3.467285e-02 -2.161048e-02 1.152023e-01 2.514134e-01 7.513856e-03 8.053127e-02 7.004043e-02 -2.103087e-02 -4.670448e-02 4.173797e-02 -6.641410e-02 -1.336783e-01 -3.293838e-02 -7.470919e-02 -8.107916e-02 1.477093e-02 2.658897e-02 -3.225953e-02 2.833543e-02
<VARIANCE> 52
 1.196488e+01 1.233485e+01 1.578199e+01 2.407848e+01 3.633452e+01 3.696158e+01 3.324127e+01 3.461379e+01 3.509776e+01 2.888919e+01 2.538132e+01 2.829767e+01 1.730851e+01 5.550550e-01 1.344176e+00 1.283410e+00 1.883514e+00 2.008731e+00 2.048672e+00 2.093896e+00 2.086876e+00 2.265586e+00 1.980110e+00 2.094490e+00 1.561070e+00 4.182049e-01 7.585926e-02 1.903330e-01 1.909157e-01 3.607409e-01 3.569072e-01 4.488311e-01 4.070123e-01 4.218901e-01 4.074378e-01 3.417892e-01 3.282728e-01 3.461255e-01 5.518664e-02 1.765263e-02 5.176001e-02 4.614333e-02 7.295665e-02 7.306486e-02 8.957012e-02 9.026859e-02 8.123690e-02 9.764244e-02 8.465759e-02 8.688861e-02 8.093976e-02 1.055043e-02
<GCONST> 8.790675e+01
<MIXTURE> 2 3.065434e-01
<MEAN> 52
 -2.799433e+00 -4.895979e+00 -2.721400e+00 -7.778496e+00 -6.048848e+00 -1.014214e+01 -1.013675e+01 -8.635866e+00 -1.266772e+01 -8.517619e+00 -7.331120e+00 -3.994190e+00 6.302050e+01 1.196994e-01 -2.221239e-01 -2.857554e-01 8.515554e-01 2.285683e-01 7.790083e-02 2.729271e-01 2.706055e-02 1.840837e-01 7.792240e-02 9.366255e-02 -1.368239e-01 -3.542678e-01 -9.167475e-02 2.175153e-02 1.473813e-01 -1.460318e-01 -3.808603e-03 1.608260e-01 -9.891752e-02 -8.422787e-03 1.513813e-01 7.219065e-02 -3.318878e-02 8.058778e-02 5.866330e-02 -2.603832e-03 -9.306530e-03 7.582706e-03 -4.550205e-02 -1.648924e-02 -4.056739e-02 -2.428248e-02 3.335110e-02 9.808668e-03 -1.196662e-02 2.299451e-02 3.091515e-02 2.773722e-03
<VARIANCE> 52
 1.830877e+01 9.234294e+01 3.853006e+01 7.201532e+01 7.427847e+01 7.690213e+01 5.476289e+01 4.344403e+01 4.836914e+01 6.665493e+01 4.095443e+01 4.941896e+01 3.472968e+01 7.199010e-01 1.243123e+00 1.653520e+00 3.483966e+00 2.793156e+00 4.417899e+00 2.853821e+00 4.170168e+00 3.437342e+00 3.373942e+00 2.151297e+00 2.078530e+00 5.575658e-01 1.020747e-01 1.182274e-01 2.695618e-01 5.016984e-01 4.103831e-01 5.270849e-01 4.693973e-01 5.847483e-01 6.272425e-01 5.038981e-01 4.745149e-01 3.306120e-01 5.929349e-02 2.161043e-02 3.105819e-02 5.822599e-02 1.074433e-01 1.012140e-01 1.315470e-01 1.108271e-01 1.583627e-01 1.385393e-01 1.178233e-01 1.005347e-01 7.054374e-02 1.422453e-02
<GCONST> 1.074581e+02
<MIXTURE> 3 1.507824e-01
<MEAN> 52
 -3.953646e+00 3.848108e+00 9.440262e-02 -6.038892e+00 -8.163334e+00 -1.214273e+01 -1.560897e+01 -1.233024e+01 -1.454549e+01 -1.438280e+01 -1.318878e+01 -4.274960e+00 5.795418e+01 -5.840471e-01 -7.880309e-02 2.612309e-01 1.308555e+00 8.584524e-01 7.081660e-01 2.125815e-01 -7.029185e-01 -1.905091e-01 1.654146e-01 9.733288e-01 2.564279e-01 -1.051082e+00 -2.144107e-01 -3.469408e-01 -1.771636e-01 -1.936487e-01 8.767112e-02 3.209048e-01 2.719580e-01 4.628371e-01 4.224037e-01 4.517831e-01 1.660269e-01 1.349919e-01 5.887824e-02 8.468711e-03 -2.182535e-02 -9.511982e-02 -1.205759e-01 -8.413618e-02 -2.232631e-02 1.534906e-01 1.886131e-01 1.354244e-01 7.908934e-02 -1.310275e-02 -1.823659e-02 2.620687e-02
<VARIANCE> 52
 1.649410e+01 9.838272e+00 1.753273e+01 2.722573e+01 2.087118e+01 2.300940e+01 1.970257e+01 4.089631e+01 2.827044e+01 4.362409e+01 4.987758e+01 3.212736e+01 1.221248e+01 3.642561e-01 1.031098e+00 5.603830e-01 1.026844e+00 1.521685e+00 1.327350e+00 1.678900e+00 3.329130e+00 2.904524e+00 2.481859e+00 1.772060e+00 1.505809e+00 2.736070e-01 4.283184e-02 1.130093e-01 1.346974e-01 2.104615e-01 2.639137e-01 2.587597e-01 3.768536e-01 6.885894e-01 6.484405e-01 3.765037e-01 4.288597e-01 2.909518e-01 3.028610e-02 1.318933e-02 3.302983e-02 2.014745e-02 4.248460e-02 5.673185e-02 6.211253e-02 6.538428e-02 1.309828e-01 1.416962e-01 8.394564e-02 9.554619e-02 5.801992e-02 1.000000e-02
<GCONST> 7.988742e+01
<STATE> 11
<NUMMIXES> 3
<MIXTURE> 1 2.719606e-01
<MEAN> 52
 2.091172e+00 1.353614e+00 5.898194e+00 3.091995e+00 -8.259030e+00 -4.088524e+00 -1.039390e+01 -8.610053e+00 -3.832935e+00 1.441064e+00 -4.324247e+00 -5.419336e+00 6.815386e+01 5.591094e-03 -6.679458e-01 -1.195369e-01 -3.159596e-01 -8.215859e-02 -5.626348e-02 -1.280564e+00 7.076264e-01 6.683508e-01 -3.161472e-01 4.184304e-01 2.244032e-01 3.542241e-01 -1.139957e-01 -1.183048e-01 9.232347e-02 -1.480600e-01 -2.550470e-01 -1.370214e-01 -3.520333e-02 5.289317e-01 -1.102257e-01 -2.474835e-01 3.010523e-01 5.761309e-02 2.172209e-01 3.061571e-03 2.251985e-02 2.425394e-02 6.055490e-02 -1.966594e-02 -2.417426e-02 1.159400e-01 -6.496313e-02 -1.209174e-02 1.944793e-02 -8.653710e-02 3.253423e-03 -2.400308e-02
<VARIANCE> 52
 6.786715e+00 3.058422e+01 3.923545e+01 3.756390e+01 3.623268e+01 2.229848e+01 5.024412e+01 5.855642e+01 4.829478e+01 5.160744e+01 4.417128e+01 3.805735e+01 1.765893e+01 3.590725e-01 1.044588e+00 1.400382e+00 1.776899e+00 2.200249e+00 1.797235e+00 1.610789e+00 4.448927e+00 2.445135e+00 2.546818e+00 2.057167e+00 1.827454e+00 4.729769e-01 6.840982e-02 2.298386e-01 2.465359e-01 3.151801e-01 3.523805e-01 3.257887e-01 3.505591e-01 6.784847e-01 3.859843e-01 3.460975e-01 4.390278e-01 3.410176e-01 8.491847e-02 1.583019e-02 4.843063e-02 4.984874e-02 6.977988e-02 7.231839e-02 8.107604e-02 6.466326e-02 1.579141e-01 1.024511e-01 9.928647e-02 9.195542e-02 7.736290e-02 1.695259e-02
<GCONST> 9.382584e+01
<MIXTURE> 2 5.115952e-01
<MEAN> 52
 -8.616405e+00 -1.384368e+00 -5.054114e-01 -4.116269e+00 -3.848672e+00 -2.229188e+00 -4.290400e+00 -2.705080e+00 -1.528585e+00 -1.362574e+00 -2.591464e+00 -2.294072e+00 5.546011e+01 -4.803721e-01 -7.440366e-01 -9.243144e-01 -8.122076e-01 -7.289143e-01 -6.424589e-01 -4.816564e-01 -3.557527e-01 -1.454369e-02 1.433849e-01 3.599603e-01 1.943638e-01 -4.943399e-01 1.599344e-01 1.777630e-01 1.860939e-01 1.862926e-01 8.599465e-02 5.510534e-02 -1.446273e-02 -1.002702e-01 -1.788958e-01 -1.039495e-01 -1.244810e-01 -1.443639e-01 1.248888e-01 1.251734e-02 5.227719e-02 5.818801e-02 9.436791e-02 1.242735e-01 1.210513e-01 1.313852e-01 1.054307e-01 7.658949e-02 -3.675071e-03 -3.752493e-02 9.946096e-03 -1.101335e-02
<VARIANCE> 52
 1.724632e+01 1.346237e+01 3.239512e+01 1.751430e+01 2.357729e+01 2.570496e+01 2.871797e+01 2.597863e+01 2.359208e+01 2.367268e+01 1.851796e+01 1.743254e+01 1.743186e+01 5.040929e-01 9.590322e-01 1.392730e+00 1.953642e+00 1.695634e+00 1.750256e+00 1.854589e+00 1.678317e+00 1.633206e+00 1.780476e+00 1.630140e+00 1.792776e+00 2.164939e-01 6.382097e-02 1.349189e-01 1.707860e-01 2.720150e-01 3.163854e-01 3.298879e-01 4.572368e-01 3.459085e-01 3.526185e-01 3.817956e-01 3.301052e-01 3.243493e-01 2.998976e-02 1.563399e-02 3.793166e-02 4.840641e-02 8.458386e-02 7.517903e-02 7.301565e-02 9.510626e-02 7.016373e-02 7.628318e-02 8.545703e-02 7.887123e-02 8.432858e-02 1.000000e-02
<GCONST> 8.097896e+01
<MIXTURE> 3 2.164441e-01
<MEAN> 52
 -9.277645e+00 -1.932677e-01 -2.016353e+00 -4.098452e+00 -4.333474e+00 -4.348862e+00 -8.034954e+00 -7.221463e+00 -7.183692e+00 -6.138432e+00 -5.835205e+00 -2.092241e+00 5.440014e+01 -7.729619e-01 -9.355124e-01 -5.972553e-01 -2.299506e-01 5.582552e-01 8.279398e-01 1.746235e+00 1.549571e+00 1.616282e+00 1.203382e+00 7.272793e-01 3.686704e-01 -4.418262e-01 1.923205e-01 1.393293e-01 5.853647e-02 -1.019542e-01 -6.819415e-02 -1.725749e-01 -5.693460e-02 6.983685e-02 9.118330e-02 8.700987e-02 -3.247244e-02 -3.156630e-02 1.416879e-01 5.385216e-02 1.016982e-01 6.234690e-02 1.012738e-01 -4.494650e-02 -9.919134e-02 -2.201882e-01 -2.331272e-01 -2.089640e-01 -1.535985e-01 -3.734744e-02 -7.291378e-03 -9.630774e-03
<VARIANCE> 52
 2.319679e+01 2.150775e+01 2.077637e+01 2.334105e+01 2.345330e+01 3.692635e+01 3.780527e+01 4.925574e+01 3.389961e+01 3.388353e+01 2.490669e+01 2.131960e+01 3.611361e+01 1.266237e+00 1.224651e+00 1.025109e+00 1.600864e+00 1.821736e+00 3.123500e+00 2.165291e+00 2.959145e+00 3.078207e+00 3.439463e+00 2.985820e+00 2.000278e+00 9.552229e-01 1.897991e-01 2.098447e-01 1.888482e-01 2.767518e-01 3.145369e-01 5.011954e-01 4.643562e-01 6.421290e-01 5.572475e-01 4.585930e-01 3.688420e-01 2.828321e-01 9.774276e-02 5.212738e-02 5.330613e-02 4.082105e-02 6.705543e-02 7.866657e-02 1.338876e-01 8.860666e-02 1.267610e-01 1.256381e-01 1.227785e-01 1.116663e-01 7.470935e-02 2.386112e-02
<GCONST> 9.909392e+01
<TRANSP> 12
 0.000000e+00 1.000000e+00 0.000000e+00 0.000000e+00 0.000000e+00 0.000000e+00 0.000000e+00 0.000000e+00 0.000000e+00 0.000000e+00 0.000000e+00 0.000000e+00
 0.000000e+00 8.103093e-01 1.896907e-01 0.000000e+00 0.000000e+00 0.000000e+00 0.000000e+00 0.000000e+00 0.000000e+00 0.000000e+00 0.000000e+00 0.000000e+00
 0.000000e+00 0.000000e+00 8.250951e-01 1.749049e-01 0.000000e+00 0.000000e+00 0.000000e+00 0.000000e+00 0.000000e+00 0.000000e+00 0.000000e+00 0.000000e+00
 0.000000e+00 0.000000e+00 0.000000e+00 8.034188e-01 1.965812e-01 0.000000e+00 0.000000e+00 0.000000e+00 0.000000e+00 0.000000e+00 0.000000e+00 0.000000e+00
 0.000000e+00 0.000000e+00 0.000000e+00 0.000000e+00 7.828482e-01 2.171519e-01 0.000000e+00 0.000000e+00 0.000000e+00 0.000000e+00 0.000000e+00 0.000000e+00
 0.000000e+00 0.000000e+00 0.000000e+00 0.000000e+00 0.000000e+00 8.477662e-01 1.522339e-01 0.000000e+00 0.000000e+00 0.000000e+00 0.000000e+00 0.000000e+00
 0.000000e+00 0.000000e+00 0.000000e+00 0.000000e+00 0.000000e+00 0.000000e+00 7.730263e-01 2.269737e-01 0.000000e+00 0.000000e+00 0.000000e+00 0.000000e+00
 0.000000e+00 0.000000e+00 0.000000e+00 0.000000e+00 0.000000e+00 0.000000e+00 0.000000e+00 7.606245e-01 2.393756e-01 0.000000e+00 0.000000e+00 0.000000e+00
 0.000000e+00 0.000000e+00 0.000000e+00 0.000000e+00 0.000000e+00 0.000000e+00 0.000000e+00 0.000000e+00 8.438030e-01 1.561970e-01 0.000000e+00 0.000000e+00
 0.000000e+00 0.000000e+00 0.000000e+00 0.000000e+00 0.000000e+00 0.000000e+00 0.000000e+00 0.000000e+00 0.000000e+00 8.036984e-01 1.963015e-01 0.000000e+00
 0.000000e+00 0.000000e+00 0.000000e+00 0.000000e+00 0.000000e+00 0.000000e+00 0.000000e+00 0.000000e+00 0.000000e+00 0.000000e+00 8.060436e-01 1.939564e-01
 0.000000e+00 0.000000e+00 0.000000e+00 0.000000e+00 0.000000e+00 0.000000e+00 0.000000e+00 0.000000e+00 0.000000e+00 0.000000e+00 0.000000e+00 0.000000e+00
<ENDHMM>
