~o
<STREAMINFO> 1 26
<VECSIZE> 26<NULLD><MFCC_D_0><DIAGC>
~h "sil"
<BEGINHMM>
<NUMSTATES> 12
<STATE> 2
<MEAN> 26
 -7.694311e+00 -2.620712e+00 -3.958048e+00 -3.274520e+00 1.537608e+00 -1.500858e+00 -1.457747e+00 -1.415855e-01 -8.552685e-01 1.807289e+00 -2.381275e+00 -4.630570e+00 5.829057e+01 9.666017e-03 -2.046424e-01 -1.327805e-01 1.270955e-01 -2.123962e-01 -2.483347e-02 5.159556e-02 -6.120930e-02 5.232820e-02 -1.296129e-01 -7.449182e-03 1.292313e-01 -1.851421e-01
<VARIANCE> 26
 3.351508e+01 1.950609e+01 1.752004e+01 2.412624e+01 4.051073e+01 4.092101e+01 3.005675e+01 2.846145e+01 2.772909e+01 3.196111e+01 2.099039e+01 2.785548e+01 2.400393e+01 1.800513e+00 1.138660e+00 1.422665e+00 1.476241e+00 1.807275e+00 2.241507e+00 2.475045e+00 2.148559e+00 2.313933e+00 2.254812e+00 1.797017e+00 1.832533e+00 7.215506e-01
<GCONST> 9.786280e+01
<STATE> 3
<MEAN> 26
 -9.633236e+00 -2.483843e+00 -3.829556e+00 -4.309702e+00 -2.182158e+00 -2.178560e+00 -4.023137e+00 -3.197329e+00 -1.649695e+00 -1.260928e+00 -2.555588e+00 -2.218355e+00 5.516080e+01 -1.242594e-01 -2.987032e-02 -5.207109e-02 -5.831452e-02 -2.709913e-02 -1.208950e-01 -8.188750e-03 -4.017933e-02 -3.552854e-02 -1.525613e-01 -1.243725e-02 9.315153e-02 -1.188983e-01
<VARIANCE> 26
 1.461529e+01 9.409989e+00 1.643770e+01 1.705200e+01 1.912825e+01 1.792318e+01 2.149881e+01 2.228372e+01 2.507193e+01 2.075367e+01 1.819571e+01 1.756436e+01 1.329697e+01 5.945296e-01 6.038446e-01 1.069720e+00 1.109978e+00 1.478959e+00 1.502378e+00 1.771873e+00 1.879228e+00 1.902449e+00 1.622920e+00 1.663983e+00 1.313592e+00 3.778218e-01
<GCONST> 8.704731e+01
<STATE> 4
<MEAN> 26
 -8.375227e+00 -2.647634e+00 -3.123508e+00 -4.065669e+00 -2.603693e+00 -2.030275e+00 -3.522075e+00 -2.603880e+00 -1.301848e+00 -1.593430e+00 -2.305809e+00 -9.273845e-01 5.235481e+01 2.699755e-02 -6.338408e-02 -3.389844e-02 1.733908e-02 2.215941e-02 -2.796523e-03 -5.718067e-03 6.152828e-02 3.805654e-02 -1.763470e-02 3.223094e-02 6.434820e-02 -4.616059e-02
<VARIANCE> 26
 4.923903e+00 5.581769e+00 7.650505e+00 1.230440e+01 1.417334e+01 1.656115e+01 1.791519e+01 1.777002e+01 1.830895e+01 1.687598e+01 1.671494e+01 1.467083e+01 6.832634e+00 2.021058e-01 3.672940e-01 5.397396e-01 7.982559e-01 1.091887e+00 1.240246e+00 1.430503e+00 1.403249e+00 1.574823e+00 1.480354e+00 1.523957e+00 1.271329e+00 7.891848e-02
<GCONST> 7.654781e+01
<STATE> 5
<MEAN> 26
 -9.952455e+00 -4.786325e+00 -3.917467e+00 -2.209891e+00 1.114109e+00 -5.757047e-01 -2.104053e+00 -1.782968e+00 -2.291219e+00 -1.974239e+00 -6.443884e-01 3.869557e-01 5.379218e+01 -2.404221e-01 -1.590685e-01 2.342045e-02 4.817002e-02 3.817387e-02 -9.352189e-02 -3.378439e-02 6.475268e-02 -5.208668e-02 -9.685154e-02 9.537769e-02 1.464238e-02 2.190083e-01
<VARIANCE> 26
 1.502128e+01 2.427030e+01 2.141072e+01 2.049095e+01 4.095459e+01 3.780966e+01 2.638130e+01 2.888419e+01 2.669489e+01 2.122975e+01 2.597437e+01 2.227549e+01 6.829485e+01 1.135419e+00 2.547021e+00 1.787694e+00 1.329653e+00 4.760563e+00 4.731465e+00 2.760166e+00 2.646667e+00 2.682095e+00 2.080807e+00 2.852840e+00 2.554053e+00 2.644036e+00
<GCONST> 1.023813e+02
<STATE> 6
<MEAN> 26
 -9.913120e+00 -5.566511e+00 -3.418839e+00 -2.586588e+00 -1.787618e+00 -4.904886e+00 -3.631258e+00 1.177072e-01 -1.330382e+00 -3.387280e+00 -2.398153e+00 -5.485452e-01 5.514138e+01 -4.262859e-02 5.583527e-03 2.581951e-02 -1.339139e-01 -2.688097e-01 -1.280334e-01 -2.781092e-02 1.918348e-01 1.168344e-01 -3.291661e-02 -8.508474e-02 -7.253066e-02 -6.104459e-02
<VARIANCE> 26
 6.766660e+00 1.637820e+01 1.133291e+01 1.560179e+01 1.695649e+01 2.158453e+01 2.219049e+01 2.993709e+01 2.101417e+01 2.461738e+01 1.946330e+01 1.588831e+01 1.220537e+01 3.166505e-01 4.776286e-01 7.103317e-01 9.109201e-01 1.225220e+00 1.716807e+00 1.777730e+00 2.054200e+00 1.690725e+00 1.845422e+00 1.525205e+00 1.328110e+00 2.240317e-01
<GCONST> 8.461629e+01
<STATE> 7
<MEAN> 26
 -1.220426e+01 -4.993390e+00 -3.058177e+00 -4.420630e+00 -4.247803e+00 -3.593646e+00 -4.308009e+00 -6.427922e-01 -1.077156e+00 -1.552413e+00 -6.544771e-01 -9.617706e-01 5.778968e+01 1.595175e-01 7.537192e-02 -1.284247e-01 -3.803357e-02 -4.203122e-02 1.771597e-01 -3.103721e-02 -1.290907e-01 9.667124e-02 7.752017e-02 -1.002794e-02 1.184756e-02 -1.857971e-01
<VARIANCE> 26
 1.650841e+01 1.665274e+01 1.539615e+01 2.579108e+01 2.508876e+01 2.627586e+01 2.901473e+01 3.554019e+01 3.014204e+01 2.470788e+01 2.440927e+01 2.050239e+01 2.337969e+01 4.675810e-01 6.327596e-01 8.267174e-01 1.055425e+00 1.485224e+00 1.742946e+00 1.760256e+00 2.163947e+00 2.231440e+00 2.235553e+00 1.715238e+00 1.461090e+00 2.891012e-01
<GCONST> 9.101459e+01
<STATE> 8
<MEAN> 26
 -7.108179e+00 -4.305398e+00 -6.079660e+00 -7.341952e+00 -3.882966e+00 -1.154940e+00 -3.995716e+00 -2.194038e+00 -1.166042e+00 -1.044603e+00 -3.170769e+00 -2.794077e+00 5.449804e+01 8.592341e-03 6.331944e-02 2.469346e-02 9.305500e-02 7.033703e-02 7.586892e-02 5.729903e-02 2.953642e-02 9.456851e-03 8.740754e-02 -4.415577e-02 2.194883e-02 -1.004369e-01
<VARIANCE> 26
 6.807118e+00 9.101991e+00 1.850528e+01 2.180812e+01 1.444582e+01 2.164732e+01 2.066371e+01 2.044247e+01 1.973831e+01 2.597840e+01 2.457296e+01 2.164265e+01 1.220894e+01 2.520776e-01 4.473923e-01 6.505501e-01 8.952389e-01 1.059084e+00 1.383112e+00 1.415216e+00 1.604748e+00 1.636172e+00 1.721165e+00 1.648053e+00 1.415537e+00 8.821815e-02
<GCONST> 8.265476e+01
<STATE> 9
<MEAN> 26
 -9.331780e+00 -2.447808e+00 -3.572543e+00 -2.678962e+00 -1.960777e+00 -7.945264e-01 -2.534729e+00 -7.168677e-01 -5.671668e-01 -9.237714e-01 -1.350664e+00 -4.902843e-01 4.889911e+01 -5.605623e-03 6.644378e-02 2.023460e-02 1.360259e-02 5.451377e-02 4.264933e-02 3.600093e-03 9.660596e-03 -3.388135e-02 7.481195e-02 7.587390e-02 8.230732e-02 -3.359827e-02
<VARIANCE> 26
 6.077003e+00 5.053441e+00 7.571527e+00 1.213962e+01 1.341214e+01 1.408871e+01 1.415314e+01 1.681525e+01 1.584174e+01 1.635915e+01 1.576027e+01 1.450988e+01 2.409824e+01 2.173330e-01 3.599283e-01 5.582794e-01 8.712192e-01 1.013720e+00 1.315004e+00 1.289567e+00 1.425281e+00 1.514862e+00 1.508166e+00 1.369109e+00 1.199991e+00 9.928881e-02
<GCONST> 7.725609e+01
<STATE> 10
<MEAN> 26
 -1.081571e+01 -1.855573e+00 -3.555026e+00 -3.195743e+00 -2.582778e+00 -1.370490e+00 -3.499430e+00 -1.292497e+00 -1.907799e+00 -5.081106e-01 -1.567364e+00 -5.270573e-01 5.166829e+01 1.707905e-02 2.114242e-01 2.592232e-01 1.368912e-01 1.317880e-01 5.761503e-02 -7.719973e-02 -1.774033e-01 -1.336405e-01 -2.127020e-02 -8.419103e-02 -7.349378e-02 3.422528e-01
<VARIANCE> 26
 1.315757e+01 9.466660e+00 1.383424e+01 1.613464e+01 1.851106e+01 1.912454e+01 2.216832e+01 2.237941e+01 2.191558e+01 2.087589e+01 2.325884e+01 1.983548e+01 1.504909e+01 9.650220e-01 8.202989e-01 1.391358e+00 1.484226e+00 1.999255e+00 1.851736e+00 2.240164e+00 2.430703e+00 2.090818e+00 2.014900e+00 2.176023e+00 1.739853e+00 5.974512e-01
<GCONST> 9.081456e+01
<STATE> 11
<MEAN> 26
 -7.881207e+00 -1.051784e+00 -2.874086e-01 -1.736601e+00 -1.695780e+00 -7.057858e-01 -3.505840e+00 -3.720074e+00 -3.102125e+00 -2.123561e+00 -1.629310e+00 -6.436009e-01 5.637469e+01 6.311263e-01 7.910161e-01 1.202567e+00 4.679751e-01 -2.956767e-01 -4.798663e-01 -8.128186e-01 -4.734665e-01 -5.204127e-01 -2.581760e-01 -1.258085e-01 -1.853639e-01 1.393746e+00
<VARIANCE> 26
 1.940887e+01 3.564102e+01 5.425119e+01 2.729160e+01 4.193911e+01 3.145691e+01 3.028066e+01 3.570348e+01 2.645492e+01 2.609283e+01 3.047101e+01 2.275714e+01 4.203580e+01 2.860607e+00 3.479123e+00 5.047687e+00 2.750497e+00 5.189446e+00 4.844314e+00 4.776043e+00 3.720791e+00 3.341264e+00 2.827099e+00 3.132568e+00 2.529177e+00 4.208589e+00
<GCONST> 1.093951e+02
<TRANSP> 12
 0.000000e+00 1.000000e+00 0.000000e+00 0.000000e+00 0.000000e+00 0.000000e+00 0.000000e+00 0.000000e+00 0.000000e+00 0.000000e+00 0.000000e+00 0.000000e+00
 0.000000e+00 7.091933e-01 2.908067e-01 0.000000e+00 0.000000e+00 0.000000e+00 0.000000e+00 0.000000e+00 0.000000e+00 0.000000e+00 0.000000e+00 0.000000e+00
 0.000000e+00 0.000000e+00 7.670398e-01 2.329601e-01 0.000000e+00 0.000000e+00 0.000000e+00 0.000000e+00 0.000000e+00 0.000000e+00 0.000000e+00 0.000000e+00
 0.000000e+00 0.000000e+00 0.000000e+00 8.864996e-01 1.135004e-01 0.000000e+00 0.000000e+00 0.000000e+00 0.000000e+00 0.000000e+00 0.000000e+00 0.000000e+00
 0.000000e+00 0.000000e+00 0.000000e+00 0.000000e+00 7.570277e-01 2.429723e-01 0.000000e+00 0.000000e+00 0.000000e+00 0.000000e+00 0.000000e+00 0.000000e+00
 0.000000e+00 0.000000e+00 0.000000e+00 0.000000e+00 0.000000e+00 7.280077e-01 2.719924e-01 0.000000e+00 0.000000e+00 0.000000e+00 0.000000e+00 0.000000e+00
 0.000000e+00 0.000000e+00 0.000000e+00 0.000000e+00 0.000000e+00 0.000000e+00 7.728377e-01 2.271623e-01 0.000000e+00 0.000000e+00 0.000000e+00 0.000000e+00
 0.000000e+00 0.000000e+00 0.000000e+00 0.000000e+00 0.000000e+00 0.000000e+00 0.000000e+00 8.062446e-01 1.937554e-01 0.000000e+00 0.000000e+00 0.000000e+00
 0.000000e+00 0.000000e+00 0.000000e+00 0.000000e+00 0.000000e+00 0.000000e+00 0.000000e+00 0.000000e+00 8.414063e-01 1.585937e-01 0.000000e+00 0.000000e+00
 0.000000e+00 0.000000e+00 0.000000e+00 0.000000e+00 0.000000e+00 0.000000e+00 0.000000e+00 0.000000e+00 0.000000e+00 6.791037e-01 3.208963e-01 0.000000e+00
 0.000000e+00 0.000000e+00 0.000000e+00 0.000000e+00 0.000000e+00 0.000000e+00 0.000000e+00 0.000000e+00 0.000000e+00 0.000000e+00 6.525754e-01 3.474246e-01
 0.000000e+00 0.000000e+00 0.000000e+00 0.000000e+00 0.000000e+00 0.000000e+00 0.000000e+00 0.000000e+00 0.000000e+00 0.000000e+00 0.000000e+00 0.000000e+00
<ENDHMM>
