~o
<STREAMINFO> 1 26
<VECSIZE> 26<NULLD><MFCC_D_0><DIAGC>
~h "lx"
<BEGINHMM>
<NUMSTATES> 12
<STATE> 2
<MEAN> 26
 -3.856910e+00 2.554484e+00 1.222008e+01 -1.226457e+00 -8.254529e+00 -5.698380e+00 -1.059807e+01 -3.371583e+00 -8.121912e+00 -2.442887e+00 -1.841769e+00 -1.397526e+00 6.576228e+01 2.091914e-01 -2.583874e-02 1.721405e+00 -8.041877e-01 -2.183844e+00 -6.066880e-02 -6.846096e-01 2.434044e-01 -8.216886e-01 1.282831e-01 9.495933e-01 1.097485e-01 2.264885e+00
<VARIANCE> 26
 1.402347e+01 3.042784e+01 5.248051e+01 6.709448e+01 7.573376e+01 4.980262e+01 5.981018e+01 5.123927e+01 4.421261e+01 4.001484e+01 4.992227e+01 2.966621e+01 5.663929e+01 2.062580e+00 3.199692e+00 3.907873e+00 4.310015e+00 4.683968e+00 4.553486e+00 4.770894e+00 4.354448e+00 3.199431e+00 3.912784e+00 3.807458e+00 2.973862e+00 1.796329e+00
<GCONST> 1.134304e+02
<STATE> 3
<MEAN> 26
 -3.601766e+00 3.125359e+00 1.522644e+01 -5.244646e+00 -1.562906e+01 -5.360346e-01 -1.076248e+01 -4.017043e+00 -1.098938e+01 -5.281608e-01 3.989025e+00 -4.115403e+00 7.277135e+01 4.543798e-02 6.474245e-01 -4.146382e-01 -2.033462e-01 4.772128e-01 4.299536e-01 1.224267e-01 -7.038609e-01 -2.575639e-01 4.241577e-01 -2.574809e-01 -5.279666e-01 -1.707843e-01
<VARIANCE> 26
 1.240030e+01 2.661213e+01 4.819687e+01 7.829706e+01 3.645650e+01 6.383259e+01 5.585247e+01 6.330867e+01 5.055591e+01 4.760350e+01 3.445407e+01 3.688490e+01 1.190302e+01 3.765672e-01 7.286170e-01 1.180544e+00 1.502477e+00 1.578333e+00 2.372441e+00 2.203651e+00 2.110711e+00 2.167965e+00 1.648851e+00 1.764770e+00 1.635092e+00 2.804368e-01
<GCONST> 9.835246e+01
<STATE> 4
<MEAN> 26
 -4.209728e+00 7.313454e+00 9.198207e+00 -1.009109e+01 -1.242137e+01 -3.486741e+00 -1.411453e+01 -1.021313e+01 -1.157600e+01 1.428726e-01 -6.200642e+00 -3.830051e+00 6.849307e+01 -7.279931e-01 1.318626e+00 -7.665979e-01 8.398783e-01 1.004175e+00 -6.894524e-01 1.085613e+00 -4.382888e-01 5.317255e-01 -6.664104e-01 -8.187924e-02 4.202058e-01 -3.645003e-01
<VARIANCE> 26
 1.445129e+01 2.264557e+01 3.725965e+01 1.109068e+02 4.238974e+01 4.205859e+01 9.342485e+01 5.938340e+01 3.513374e+01 6.086297e+01 1.000489e+02 3.939271e+01 2.729022e+01 2.729257e+00 1.579129e+00 2.460919e+00 3.258413e+00 3.545529e+00 2.932640e+00 4.350793e+00 2.612864e+00 2.729416e+00 2.384275e+00 3.126539e+00 2.671978e+00 4.806737e-01
<GCONST> 1.088411e+02
<STATE> 5
<MEAN> 26
 -1.597938e+01 1.455765e+01 6.574854e+00 -6.575184e-02 -3.154130e+00 -4.532937e+00 -5.129663e-01 -7.992785e+00 -6.345526e+00 -3.042232e+00 -1.617241e+00 -1.718700e+00 6.982037e+01 -4.289491e+00 2.370486e-01 -1.842686e+00 3.771519e-01 2.000395e+00 1.064476e-01 1.482881e+00 8.982638e-01 1.618583e+00 -2.969750e-02 -4.309277e-01 4.490711e-01 -6.092234e-02
<VARIANCE> 26
 4.894293e+01 1.682149e+01 2.996771e+01 4.119983e+01 4.019998e+01 3.286018e+01 4.464716e+01 4.307578e+01 2.994040e+01 3.234567e+01 3.498014e+01 2.338698e+01 1.996165e+01 1.792490e+00 4.327744e+00 2.573400e+00 4.060542e+00 4.134651e+00 3.259967e+00 4.383596e+00 3.248983e+00 3.043061e+00 3.325799e+00 3.009625e+00 2.738127e+00 4.739714e-01
<GCONST> 1.062706e+02
<STATE> 6
<MEAN> 26
 -2.893416e+01 8.962917e+00 -8.542716e-01 -5.689383e+00 -2.652517e+00 -5.232702e+00 -1.808337e+00 -5.328874e+00 -3.644683e+00 -6.585395e-01 -1.308520e+00 -8.361550e-01 6.947486e+01 -4.369848e-01 -8.353032e-01 -8.448733e-02 -6.653978e-01 -2.878930e-01 -5.244398e-02 -1.817807e-01 1.204323e-01 4.622040e-02 1.071369e-01 1.292153e-02 1.069643e-01 -1.011811e-01
<VARIANCE> 26
 1.114813e+01 1.994844e+01 3.073926e+01 2.927160e+01 1.871491e+01 2.952816e+01 4.345148e+01 3.532410e+01 2.726519e+01 2.162909e+01 2.507986e+01 1.781910e+01 1.877766e+01 1.888353e+00 1.050541e+00 2.575523e+00 1.649173e+00 1.694205e+00 1.774143e+00 1.658567e+00 1.756909e+00 2.004788e+00 1.919459e+00 1.754834e+00 1.600924e+00 2.390142e-01
<GCONST> 9.430761e+01
<STATE> 7
<MEAN> 26
 -2.110660e+01 8.329185e+00 6.818333e+00 -4.427254e+00 -5.078201e+00 -6.119393e+00 -3.860828e+00 -7.079760e+00 -5.901394e+00 -3.164021e+00 -2.214552e+00 -9.672994e-01 6.943199e+01 4.407401e+00 -9.830073e-02 3.530280e+00 5.296875e-01 -2.364526e+00 -9.464344e-01 -2.923452e+00 -1.318656e+00 -1.963976e+00 -1.235453e+00 1.404305e-01 -1.179881e-01 8.789983e-01
<VARIANCE> 26
 4.802708e+01 2.443146e+01 4.437312e+01 2.716181e+01 3.387515e+01 3.484771e+01 4.625214e+01 4.187623e+01 2.964955e+01 2.481731e+01 2.038458e+01 1.904405e+01 2.198810e+01 1.717309e+00 2.886366e+00 3.247749e+00 3.583503e+00 3.427752e+00 3.025726e+00 3.220195e+00 3.008318e+00 3.007774e+00 2.316292e+00 2.976057e+00 1.999984e+00 7.544404e-01
<GCONST> 1.043505e+02
<STATE> 8
<MEAN> 26
 -1.004408e+01 3.716856e+00 1.549633e+01 -5.668674e+00 -1.377314e+01 -6.317616e+00 -1.494999e+01 -9.806929e+00 -1.209687e+01 -5.310207e+00 -7.749097e-01 -4.094936e-01 7.343422e+01 1.596202e+00 -1.678368e+00 1.533962e+00 -5.378276e-01 -1.706032e+00 6.829787e-01 -2.054451e+00 2.584305e-01 -9.635601e-01 -4.103211e-01 6.126815e-01 -3.775094e-01 6.940762e-01
<VARIANCE> 26
 1.366505e+01 2.739304e+01 3.509681e+01 6.009710e+01 2.925316e+01 3.868747e+01 4.645288e+01 6.814479e+01 3.610258e+01 4.310026e+01 4.104244e+01 4.526607e+01 1.717573e+01 1.752276e+00 1.211683e+00 2.460020e+00 1.960826e+00 3.592626e+00 2.584707e+00 3.592730e+00 2.178382e+00 2.465347e+00 2.452506e+00 3.040548e+00 2.534201e+00 6.124593e-01
<GCONST> 1.041397e+02
<STATE> 9
<MEAN> 26
 -8.643193e+00 1.096199e+00 1.829073e+01 -9.037453e+00 -1.628349e+01 -4.883327e+00 -1.732790e+01 -8.145039e+00 -1.355187e+01 -5.214652e+00 1.297414e-01 -3.045165e+00 7.301487e+01 2.072381e-01 -4.662792e-02 5.604987e-02 -1.350840e-01 -2.078122e-01 1.820342e-01 -5.117408e-02 1.197820e-01 -6.033870e-03 1.333773e-01 7.619216e-02 -1.763729e-01 -1.947387e-01
<VARIANCE> 26
 1.353596e+01 2.508919e+01 3.536369e+01 8.470464e+01 2.452019e+01 3.883183e+01 3.483217e+01 4.197331e+01 3.936609e+01 4.541061e+01 7.571600e+01 2.639660e+01 1.902276e+01 1.110910e-01 2.418488e-01 4.320451e-01 5.540786e-01 5.698807e-01 6.322747e-01 7.936877e-01 6.129659e-01 5.704809e-01 7.694645e-01 5.797958e-01 5.152327e-01 1.207396e-01
<GCONST> 8.286480e+01
<STATE> 10
<MEAN> 26
 -5.546926e+00 3.531347e+00 1.465261e+01 -4.087469e+00 -1.492814e+01 -6.135570e+00 -1.401928e+01 -7.608373e+00 -1.115797e+01 -4.225582e+00 -8.955653e-01 -2.982679e+00 6.869943e+01 5.085947e-01 3.627678e-01 -8.798001e-01 9.048703e-01 1.031151e+00 -2.640363e-01 9.979867e-01 1.873234e-01 5.105106e-01 2.589502e-01 -6.499541e-01 2.047147e-02 -1.290897e+00
<VARIANCE> 26
 1.275566e+01 2.882102e+01 3.545478e+01 8.699488e+01 4.669664e+01 7.456422e+01 6.331578e+01 5.443753e+01 4.671379e+01 4.966379e+01 5.957504e+01 3.004161e+01 2.628150e+01 7.138504e-01 1.027990e+00 1.336816e+00 2.148079e+00 2.891178e+00 2.172451e+00 2.817006e+00 2.203126e+00 2.208382e+00 1.924838e+00 2.405915e+00 1.494750e+00 9.822945e-01
<GCONST> 1.036521e+02
<STATE> 11
<MEAN> 26
 -6.860884e+00 1.467887e+00 6.824912e+00 -3.160312e+00 -6.768404e+00 -3.935671e+00 -8.018114e+00 -6.523079e+00 -6.411819e+00 -2.886112e+00 -1.966709e+00 -2.351248e+00 5.874522e+01 -5.515152e-01 -8.847635e-01 -1.101786e+00 -5.289945e-01 3.274512e-01 2.132552e-01 3.817902e-01 2.643169e-01 4.250697e-01 2.587783e-01 2.902428e-01 2.058839e-01 -6.134111e-01
<VARIANCE> 26
 1.616691e+01 2.799318e+01 4.577156e+01 5.017295e+01 4.925070e+01 4.509652e+01 4.803385e+01 4.114810e+01 3.423214e+01 2.594685e+01 3.846659e+01 2.142253e+01 4.078164e+01 9.368477e-01 1.344086e+00 2.452015e+00 2.677238e+00 4.286629e+00 2.611926e+00 3.125788e+00 2.830624e+00 2.551008e+00 2.340101e+00 3.041651e+00 1.806286e+00 1.852708e+00
<GCONST> 1.049603e+02
<TRANSP> 12
 0.000000e+00 1.000000e+00 0.000000e+00 0.000000e+00 0.000000e+00 0.000000e+00 0.000000e+00 0.000000e+00 0.000000e+00 0.000000e+00 0.000000e+00 0.000000e+00
 0.000000e+00 8.059092e-01 1.940908e-01 0.000000e+00 0.000000e+00 0.000000e+00 0.000000e+00 0.000000e+00 0.000000e+00 0.000000e+00 0.000000e+00 0.000000e+00
 0.000000e+00 0.000000e+00 8.610004e-01 1.389996e-01 0.000000e+00 0.000000e+00 0.000000e+00 0.000000e+00 0.000000e+00 0.000000e+00 0.000000e+00 0.000000e+00
 0.000000e+00 0.000000e+00 0.000000e+00 7.896153e-01 2.103847e-01 0.000000e+00 0.000000e+00 0.000000e+00 0.000000e+00 0.000000e+00 0.000000e+00 0.000000e+00
 0.000000e+00 0.000000e+00 0.000000e+00 0.000000e+00 7.360251e-01 2.639749e-01 0.000000e+00 0.000000e+00 0.000000e+00 0.000000e+00 0.000000e+00 0.000000e+00
 0.000000e+00 0.000000e+00 0.000000e+00 0.000000e+00 0.000000e+00 8.380550e-01 1.619450e-01 0.000000e+00 0.000000e+00 0.000000e+00 0.000000e+00 0.000000e+00
 0.000000e+00 0.000000e+00 0.000000e+00 0.000000e+00 0.000000e+00 0.000000e+00 6.688557e-01 3.311442e-01 0.000000e+00 0.000000e+00 0.000000e+00 0.000000e+00
 0.000000e+00 0.000000e+00 0.000000e+00 0.000000e+00 0.000000e+00 0.000000e+00 0.000000e+00 6.457768e-01 3.542232e-01 0.000000e+00 0.000000e+00 0.000000e+00
 0.000000e+00 0.000000e+00 0.000000e+00 0.000000e+00 0.000000e+00 0.000000e+00 0.000000e+00 0.000000e+00 8.616506e-01 1.383494e-01 0.000000e+00 0.000000e+00
 0.000000e+00 0.000000e+00 0.000000e+00 0.000000e+00 0.000000e+00 0.000000e+00 0.000000e+00 0.000000e+00 0.000000e+00 8.243726e-01 1.756274e-01 0.000000e+00
 0.000000e+00 0.000000e+00 0.000000e+00 0.000000e+00 0.000000e+00 0.000000e+00 0.000000e+00 0.000000e+00 0.000000e+00 0.000000e+00 8.050767e-01 1.949233e-01
 0.000000e+00 0.000000e+00 0.000000e+00 0.000000e+00 0.000000e+00 0.000000e+00 0.000000e+00 0.000000e+00 0.000000e+00 0.000000e+00 0.000000e+00 0.000000e+00
<ENDHMM>
