~o
<STREAMINFO> 1 39
<VECSIZE> 39<NULLD><MFCC_D_A_0><DIAGC>
~h "port"
<BEGINHMM>
<NUMSTATES> 10
<STATE> 2
<MEAN> 39
 -5.304408e+000 -3.475862e+000 1.076528e+000 -1.553336e+001 6.582508e+000 -3.476453e+000 7.940008e+000 -1.574650e+001 9.358624e+000 -1.017373e+001 1.342319e+000 -5.103156e+000 7.594482e+001 -2.720791e-001 1.958603e+000 -6.664925e-001 -1.910758e+000 -5.738552e-001 1.543007e+000 7.558708e-001 -1.281961e+000 1.090858e+000 -4.128836e-001 -5.198366e-001 -7.752585e-001 4.927893e-001 -2.236351e-001 1.334336e-001 -1.650751e-001 -4.301509e-002 -2.398003e-001 3.724784e-001 -1.668961e-002 6.003886e-001 -3.069499e-001 3.491086e-001 -2.143674e-001 7.653855e-002 -1.381462e+000
<VARIANCE> 39
 1.378934e+001 4.618258e+001 1.111056e+001 3.060644e+001 1.869526e+001 3.122329e+001 2.254092e+001 2.920900e+001 2.120167e+001 1.519847e+001 2.096831e+001 1.612045e+001 1.627077e+001 1.970884e+000 2.368939e+000 1.991441e+000 3.861571e+000 2.864395e+000 1.875647e+000 3.027121e+000 3.400324e+000 2.597300e+000 2.116012e+000 1.920633e+000 1.542474e+000 8.351625e+000 9.548616e-001 1.032785e+000 6.218495e-001 9.724634e-001 7.928462e-001 6.929075e-001 4.490461e-001 5.559654e-001 4.592113e-001 3.219998e-001 4.456262e-001 3.308978e-001 3.638526e+000
<GCONST> 1.186783e+002
<STATE> 3
<MEAN> 39
 -3.107181e+000 3.293199e+000 -3.788034e+000 -2.896321e+001 1.249124e+000 3.094190e+000 1.132328e+001 -1.463985e+001 8.117396e+000 -8.617559e+000 -4.266344e+000 -7.917919e+000 7.370589e+001 2.135921e+000 -1.183047e-001 -1.353210e+000 -3.375542e+000 -2.679715e+000 -8.123546e-001 -1.125321e+000 1.353325e+000 -2.943088e+000 1.284873e+000 -1.725297e+000 -8.586072e-002 6.442977e-001 1.087473e-001 -4.384654e-001 9.857962e-002 1.862456e-001 -2.935980e-001 -5.599892e-001 -4.619938e-001 1.440876e-002 -4.655052e-001 3.560565e-001 -7.186388e-002 1.440296e-001 1.494109e-001
<VARIANCE> 39
 2.416057e+001 1.258292e+001 8.881560e+000 3.935961e+001 2.502927e+001 2.443965e+001 5.893399e+001 3.665638e+001 6.392572e+001 1.280219e+001 2.096923e+001 1.049900e+001 1.209521e+001 1.278834e+000 1.619508e+000 8.367633e-001 1.760310e+000 1.705205e+000 3.048471e+000 1.706108e+000 2.768869e+000 3.647014e+000 3.243896e+000 1.660944e+000 1.327835e+000 8.519856e-001 5.812820e-001 1.896148e-001 1.931099e-001 6.239654e-001 6.344666e-001 4.983207e-001 6.161311e-001 4.707828e-001 1.392226e+000 4.591051e-001 3.784849e-001 2.283925e-001 2.277238e-001
<GCONST> 1.082715e+002
<STATE> 4
<MEAN> 39
 3.203541e+000 -2.031749e+000 -7.367874e+000 -3.452007e+001 -8.249038e+000 -1.199117e+000 8.169990e+000 -1.160276e+001 -2.113966e+000 -1.122719e+000 -5.887908e+000 -8.384729e+000 7.513265e+001 3.102244e-001 -1.231296e+000 -5.343661e-001 1.491538e+000 -7.629191e-001 -4.430573e-002 5.748281e-001 -2.067917e-001 -2.526544e-001 1.031201e-001 1.718863e+000 -4.119772e-001 -1.514613e-001 -1.328198e-001 -1.219209e-001 -1.196875e-002 8.887016e-001 2.321598e-001 2.253578e-001 1.156408e-001 -1.424304e-001 3.757643e-001 -4.387925e-001 6.190600e-001 -9.609996e-002 -7.399829e-002
<VARIANCE> 39
 1.775292e+000 1.021516e+001 6.102864e+000 2.800801e+001 5.669976e+000 2.239983e+001 3.615773e+001 2.807872e+001 7.417541e+000 2.534490e+001 2.295351e+001 6.379990e+000 4.585477e+000 1.908571e-001 6.448967e-001 7.550839e-001 4.797602e+000 6.819428e-001 6.279406e-001 1.197997e+000 1.271829e+000 1.304089e+000 3.850398e+000 3.541947e+000 7.542717e-001 1.836907e-001 6.158587e-002 8.285277e-002 1.485123e-001 1.726896e-001 2.765291e-001 1.086951e-001 3.797956e-001 2.100424e-001 2.938908e-001 5.088483e-001 2.737498e-001 1.432376e-001 5.523414e-002
<GCONST> 7.988683e+001
<STATE> 5
<MEAN> 39
 4.723898e+000 -1.123275e+001 -1.196403e+001 -1.380315e+001 -1.073652e+001 9.177304e-001 8.503588e+000 -1.177142e+001 -3.050004e-001 -5.961164e+000 9.464679e+000 -1.055206e+001 7.386687e+001 3.178690e-001 -1.056786e+000 -3.386905e-001 3.714339e+000 1.447113e+000 -6.907429e-001 -1.375647e+000 2.352042e-001 1.259094e+000 -1.660231e-001 -2.986883e-002 1.272672e+000 -7.445190e-001 -2.166093e-001 4.456910e-001 7.766716e-001 -6.381165e-001 8.447766e-001 -6.011671e-001 -3.620522e-001 3.607253e-002 3.168632e-001 3.414169e-001 -1.335596e+000 4.813642e-001 -3.473617e-001
<VARIANCE> 39
 3.154181e+000 6.208664e+000 7.669864e+000 3.253249e+001 1.395958e+001 2.020852e+001 2.351402e+001 2.958792e+001 8.638682e+000 9.336276e+000 1.336933e+001 1.148182e+001 1.583773e+000 1.655509e-001 9.434042e-001 1.354264e+000 1.123507e+000 4.786107e+000 3.574393e+000 1.741764e+000 8.260233e-001 1.441702e+000 1.843766e+000 8.315576e+000 3.114695e+000 4.280156e-001 1.493334e-001 7.631283e-002 6.023591e-001 3.105955e-001 3.475281e-001 3.740078e-001 2.162935e-001 2.280475e-001 1.605296e-001 3.442752e-001 4.937045e-001 5.054910e-001 4.780142e-002
<GCONST> 8.886721e+001
<STATE> 6
<MEAN> 39
 -5.938445e+000 -1.014369e+001 2.464326e+000 -9.360205e+000 1.309416e+000 -7.723547e+000 2.319920e+000 -8.357358e+000 5.997781e+000 -3.245983e+000 2.100167e+000 -4.425925e+000 6.064743e+001 -2.522280e+000 4.568655e-001 1.967022e+000 -5.615247e-001 9.167848e-001 -7.290590e-001 3.497548e-001 1.342930e+000 2.006108e-001 3.966839e-001 -2.211610e-001 2.456561e-001 -2.855286e+000 1.493510e-002 -1.101477e-001 -5.987498e-001 -3.122506e-001 -2.571327e-001 7.052204e-002 5.109984e-001 2.780639e-002 -3.189993e-001 -8.923814e-002 3.104769e-001 -1.427393e-001 3.046972e-001
<VARIANCE> 39
 7.682670e+001 8.488242e+000 7.489143e+001 3.677708e+001 2.693435e+001 2.583750e+001 3.345306e+001 4.255382e+001 2.495064e+001 3.520009e+001 3.086100e+001 1.933031e+001 7.237756e+001 4.515890e+000 9.695542e-001 1.094259e+001 4.238948e+000 4.973146e+000 4.086273e+000 8.413078e+000 4.217688e+000 3.441668e+000 3.301400e+000 4.925963e+000 2.434794e+000 2.368492e+000 1.300327e+000 3.084912e-001 1.866730e+000 1.136781e+000 1.059452e+000 8.828039e-001 1.231748e+000 1.017650e+000 7.674852e-001 5.676025e-001 1.262494e+000 6.386119e-001 1.597164e+000
<GCONST> 1.344267e+002
<STATE> 7
<MEAN> 39
 -1.535641e+001 -1.213950e+001 -1.579876e+000 -1.551902e+001 7.306991e+000 -1.509066e+001 1.144622e+001 -4.429322e+000 4.319905e+000 -3.865207e+000 3.316240e+000 -3.306841e+000 5.985321e+001 4.118772e-001 -1.051482e-001 -8.187180e-001 -1.837105e-001 2.001786e+000 -1.908349e+000 9.286966e-001 -1.499232e+000 6.123540e-002 -9.510804e-001 3.536542e-001 -3.111584e-001 5.199506e+000 6.542243e-001 7.240198e-001 9.688259e-001 6.721646e-001 2.560885e-004 3.685749e-001 -4.010625e-001 -2.310213e-001 2.618965e-001 -1.688784e-001 2.279770e-002 -2.011211e-001 5.151388e-001
<VARIANCE> 39
 1.306816e+001 3.128938e+001 4.154458e+001 2.819328e+001 3.567561e+001 6.755384e+001 7.666354e+001 4.293808e+001 2.643356e+001 2.586174e+001 2.793241e+001 1.686871e+001 1.452903e+002 2.271275e+000 5.857833e+000 7.867466e+000 6.151183e+000 2.170107e+000 7.786459e+000 9.297879e+000 2.710929e+000 3.239845e+000 3.004005e+000 3.831365e+000 1.719822e+000 9.155450e+000 4.245974e-001 8.938925e-001 9.696355e-001 9.698666e-001 7.348039e-001 2.080665e+000 2.266143e+000 1.041973e+000 4.513600e-001 7.917162e-001 8.452175e-001 3.040579e-001 4.751419e+000
<GCONST> 1.366257e+002
<STATE> 8
<MEAN> 39
 -3.032356e+000 -4.525631e+000 5.228606e+000 -7.399648e+000 1.303052e+001 -1.377696e+001 1.019587e+001 -8.794845e+000 6.778760e+000 -7.922010e+000 2.188544e+000 -4.360428e+000 7.139476e+001 1.869437e+000 9.742052e-001 5.068722e-001 1.170716e+000 5.309079e-001 1.284332e+000 -8.324059e-001 1.680850e-001 4.284465e-001 3.102573e-001 -3.328411e-001 2.077442e-001 -2.019716e+000 -4.687133e-001 -3.054333e-001 -4.728965e-001 -1.985187e-001 -2.422874e-001 1.891959e-001 -2.681274e-001 2.122647e-001 -9.798539e-002 4.498260e-001 4.950362e-002 1.092798e-001 -1.215646e+000
<VARIANCE> 39
 4.166434e+001 1.396796e+001 4.637164e+000 9.410123e+000 2.120998e+001 1.848301e+001 1.786944e+001 2.101868e+001 1.538756e+001 1.562740e+001 2.095501e+001 1.131579e+001 4.087188e+001 4.086673e+000 3.420925e+000 2.941637e+000 2.306988e+000 2.469940e+000 1.524384e+000 1.481146e+000 2.867629e+000 2.296229e+000 3.270689e+000 2.012677e+000 1.281947e+000 7.214726e+000 6.593421e-001 5.469137e-001 3.937828e-001 5.192705e-001 6.154311e-001 4.919714e-001 4.282881e-001 4.311367e-001 4.133229e-001 3.930331e-001 3.743705e-001 3.131249e-001 6.983784e-001
<GCONST> 1.108344e+002
<STATE> 9
<MEAN> 39
 -5.848112e+000 -1.349172e+000 1.716158e+000 -2.208580e+000 1.106484e+001 -4.261352e+000 2.487606e+000 -4.353744e+000 6.296748e+000 -5.772993e-001 1.858059e+000 -1.492164e+000 4.512201e+001 -1.675806e+000 2.939163e-001 -6.913387e-001 7.483969e-001 -1.222816e+000 1.275953e+000 -1.044763e+000 9.262815e-001 -7.180569e-001 8.436393e-001 -2.589905e-001 5.836441e-001 -3.987679e+000 -1.909109e-001 -1.153140e-001 4.115922e-002 -3.652974e-002 -1.784686e-001 -8.579616e-002 1.477527e-001 7.686192e-002 -6.997640e-002 -2.297013e-001 -1.051649e-001 -4.169354e-002 3.198189e-001
<VARIANCE> 39
 2.844933e+001 1.062798e+001 1.581510e+001 3.268911e+001 2.661741e+001 5.129509e+001 2.703520e+001 2.555613e+001 2.750451e+001 1.875671e+001 1.508248e+001 1.758578e+001 9.403793e+001 8.822131e-001 9.412223e-001 9.940361e-001 1.629898e+000 1.265371e+000 2.055189e+000 1.872029e+000 1.052059e+000 1.010991e+000 1.548489e+000 1.521489e+000 1.514988e+000 1.505066e+000 2.063248e-001 2.004734e-001 2.054041e-001 2.488430e-001 2.635336e-001 3.813227e-001 2.947508e-001 2.812109e-001 3.598350e-001 3.039347e-001 3.014496e-001 2.707494e-001 9.695679e-002
<GCONST> 9.938721e+001
<TRANSP> 10
 0.000000e+000 1.000000e+000 0.000000e+000 0.000000e+000 0.000000e+000 0.000000e+000 0.000000e+000 0.000000e+000 0.000000e+000 0.000000e+000
 0.000000e+000 8.457220e-001 1.542780e-001 0.000000e+000 0.000000e+000 0.000000e+000 0.000000e+000 0.000000e+000 0.000000e+000 0.000000e+000
 0.000000e+000 0.000000e+000 7.582410e-001 2.417590e-001 0.000000e+000 0.000000e+000 0.000000e+000 0.000000e+000 0.000000e+000 0.000000e+000
 0.000000e+000 0.000000e+000 0.000000e+000 8.625882e-001 1.374118e-001 0.000000e+000 0.000000e+000 0.000000e+000 0.000000e+000 0.000000e+000
 0.000000e+000 0.000000e+000 0.000000e+000 0.000000e+000 7.778404e-001 2.221597e-001 0.000000e+000 0.000000e+000 0.000000e+000 0.000000e+000
 0.000000e+000 0.000000e+000 0.000000e+000 0.000000e+000 0.000000e+000 8.734409e-001 1.265591e-001 0.000000e+000 0.000000e+000 0.000000e+000
 0.000000e+000 0.000000e+000 0.000000e+000 0.000000e+000 0.000000e+000 0.000000e+000 7.828169e-001 2.171831e-001 0.000000e+000 0.000000e+000
 0.000000e+000 0.000000e+000 0.000000e+000 0.000000e+000 0.000000e+000 0.000000e+000 0.000000e+000 8.440150e-001 1.559850e-001 0.000000e+000
 0.000000e+000 0.000000e+000 0.000000e+000 0.000000e+000 0.000000e+000 0.000000e+000 0.000000e+000 0.000000e+000 8.241434e-001 1.758566e-001
 0.000000e+000 0.000000e+000 0.000000e+000 0.000000e+000 0.000000e+000 0.000000e+000 0.000000e+000 0.000000e+000 0.000000e+000 0.000000e+000
<ENDHMM>
