~o
<STREAMINFO> 1 39
<VECSIZE> 39<NULLD><MFCC_D_A_0><DIAGC>
~h "world"
<BEGINHMM>
<NUMSTATES> 10
<STATE> 2
<MEAN> 39
 1.616927e+001 7.694975e+000 -1.492175e+000 -1.715367e+001 -6.991992e+000 6.074693e-001 7.366135e-001 -4.483890e+000 -6.796846e+000 -5.324283e+000 -6.578677e+000 2.417886e+000 5.504945e+001 1.145987e+000 -5.498993e-001 3.160424e-001 -4.725424e+000 -8.195404e-002 9.070045e-001 -7.819892e-001 -7.794620e-001 -1.314104e-001 9.950417e-001 -1.949556e+000 1.684980e+000 3.088554e+000 -1.060507e+000 -3.245834e-001 3.885939e-001 -2.912503e-001 6.218852e-001 6.781373e-004 -1.711511e-001 2.960654e-001 3.348652e-001 6.206665e-001 -2.302099e-001 1.235471e-001 -1.718893e-001
<VARIANCE> 39
 3.555110e+001 1.768374e+002 3.773853e+001 1.339011e+002 5.304115e+001 7.484133e+001 2.566685e+001 2.589646e+001 2.083829e+001 3.225021e+001 5.866068e+001 4.761864e+001 7.789288e+001 1.264536e+001 9.219685e+000 8.139713e+000 8.321040e+000 6.819631e+000 6.538618e+000 3.332024e+000 2.183366e+000 4.055848e+000 5.851922e+000 7.542214e+000 3.990741e+000 5.593256e+000 2.087901e+000 1.424018e+000 1.523742e+000 1.611478e+000 1.225854e+000 1.372974e+000 6.681965e-001 4.128603e-001 7.865819e-001 7.757145e-001 1.222411e+000 9.282843e-001 8.392045e-001
<GCONST> 1.462646e+002
<STATE> 3
<MEAN> 39
 1.052256e+001 2.172679e+000 9.796324e-001 -4.567714e+001 1.429474e+000 4.283100e+000 -5.854268e+000 -2.496623e+000 -4.909464e+000 5.737688e+000 -1.972966e+001 8.458553e+000 6.977949e+001 -1.492648e+000 -1.764579e+000 -2.339015e-001 -1.404191e+000 1.639810e+000 -3.557132e-001 1.502571e-001 9.188300e-001 -1.524229e-001 4.046510e-001 -6.085896e-002 -9.674020e-001 1.860453e+000 1.752600e-001 8.178485e-002 -3.208404e-001 1.244616e+000 -3.546672e-001 4.975620e-003 6.154364e-001 -2.759165e-001 -5.036181e-002 -7.209746e-001 8.188972e-001 -3.871429e-001 -4.068539e-001
<VARIANCE> 39
 7.632702e+000 1.694424e+001 8.168015e+000 2.657533e+001 3.955764e+001 2.491677e+001 1.978962e+001 2.736755e+001 8.816436e+000 1.655384e+001 4.019316e+001 2.869907e+001 1.398620e+001 6.180832e-001 9.593489e-001 9.005840e-001 9.470758e+000 4.205299e+000 1.588242e+000 3.271876e+000 2.300578e+000 1.493426e+000 3.905900e+000 4.832480e+000 1.081197e+000 9.970534e-001 8.333498e-002 1.491042e-001 1.841977e-001 5.922369e-001 5.198013e-001 2.938426e-001 2.982709e-001 7.108676e-001 4.397909e-001 4.118490e-001 6.689515e-001 4.919241e-001 9.794976e-002
<GCONST> 1.035549e+002
<STATE> 4
<MEAN> 39
 4.927982e+000 -6.967645e+000 -4.069479e+000 -3.754527e+001 3.552873e+000 3.093847e+000 4.827617e+000 -1.088647e+001 -1.374068e+000 4.667711e-001 -7.487498e+000 -3.420017e-001 7.599120e+001 -3.545313e-001 -1.157337e+000 -7.177991e-001 2.237984e+000 -4.104876e-001 -4.507058e-001 1.485708e+000 -2.041210e+000 9.525811e-001 -3.275419e-001 2.224960e+000 -1.651731e+000 3.684805e-001 1.153096e-001 6.164743e-003 4.548609e-002 2.265943e-001 -1.482102e-001 -1.815035e-001 -2.233087e-001 1.763051e-001 2.608678e-002 1.324534e-001 -2.352617e-002 -1.199612e-001 -1.124755e-001
<VARIANCE> 39
 4.089241e+000 1.442518e+001 1.307511e+001 3.995020e+001 1.807570e+001 1.310794e+001 4.646564e+001 8.562064e+001 2.144577e+001 1.102120e+001 4.563296e+001 3.153934e+001 8.877624e+000 1.435461e-001 2.999493e-001 3.807516e-001 1.899125e+000 1.370809e+000 1.844600e+000 1.399953e+000 3.114757e+000 1.185535e+000 2.063624e+000 9.791266e-001 1.567135e+000 1.343734e-001 3.017251e-002 6.421465e-002 7.010749e-002 1.802530e-001 1.994380e-001 2.350853e-001 3.101237e-001 8.313626e-001 2.810337e-001 3.718813e-001 2.165052e-001 2.478840e-001 2.713510e-002
<GCONST> 8.511321e+001
<STATE> 5
<MEAN> 39
 4.931210e+000 -1.579805e+001 -7.449097e+000 -1.445264e+001 -2.217767e+000 -6.585372e+000 6.046234e+000 -1.158566e+001 4.460807e+000 -1.685108e+000 3.639605e+000 -9.710351e+000 7.590747e+001 2.780987e-001 -3.709319e-001 -4.377476e-001 2.795880e+000 -1.559371e-001 -2.102272e+000 -1.102192e+000 1.160653e+000 1.275470e+000 -1.188562e+000 -1.249485e-001 9.406954e-001 -5.179027e-001 9.043426e-002 2.135547e-001 5.560803e-002 -1.861306e-001 3.155089e-001 -1.916340e-001 -1.484771e-001 -1.565123e-001 2.446561e-001 -1.478586e-001 -5.154866e-001 7.324985e-001 -1.588332e-001
<VARIANCE> 39
 5.525776e+000 7.860033e+000 6.304226e+000 5.085748e+001 1.022502e+001 3.174012e+001 3.479789e+001 4.689299e+001 2.205035e+001 2.692494e+001 1.401365e+001 2.517493e+001 6.841722e+000 2.234318e-001 8.148401e-001 5.683479e-001 1.001250e+000 1.299052e+000 1.155455e+000 1.014370e+000 1.742312e+000 1.214839e+000 1.188877e+000 1.759682e+000 4.025860e+000 1.798706e-001 3.315213e-002 7.880779e-002 1.444828e-001 1.271611e-001 1.555296e-001 1.950180e-001 2.116127e-001 4.627851e-001 1.125429e-001 1.514237e-001 1.189172e-001 1.364856e-001 1.690713e-002
<GCONST> 7.985587e+001
<STATE> 6
<MEAN> 39
 8.284147e+000 -1.526380e+001 -6.457682e+000 1.089051e-001 2.091591e+000 -2.234900e+001 -4.572951e-001 -1.099800e+001 1.456889e+001 -1.005176e+001 -6.262520e+000 7.201844e+000 6.909659e+001 4.711191e-001 -1.367516e-002 2.437700e+000 1.335734e+000 1.367142e-001 -6.560574e-001 -8.039070e-001 -4.734253e-001 -6.396987e-001 2.889830e-002 -2.538060e+000 2.169811e+000 -1.711222e+000 -3.996072e-001 1.655722e-001 8.353024e-001 -5.021298e-001 -4.180641e-001 1.172523e+000 -5.028372e-002 1.909358e-002 -1.011239e+000 6.160193e-001 8.281053e-002 -9.737685e-001 -1.440911e-001
<VARIANCE> 39
 9.984709e+000 6.559741e+000 2.752706e+001 2.514777e+001 2.047844e+001 2.514218e+001 2.594202e+001 2.421140e+001 3.008879e+001 2.252391e+001 3.221667e+001 3.700663e+001 1.334453e+001 4.134272e-001 5.749596e-001 3.029910e+000 1.423649e+000 3.611761e+000 9.434703e+000 2.043210e+000 1.898703e+000 7.130420e+000 2.709565e+000 1.603047e+000 4.419024e+000 3.815134e-001 2.196219e-001 2.060746e-001 1.989598e-001 3.001271e-001 5.839322e-001 7.624665e-001 4.433615e-001 3.083807e-001 6.547043e-001 2.549698e-001 5.728142e-001 5.960085e-001 3.913873e-002
<GCONST> 1.053258e+002
<STATE> 7
<MEAN> 39
 -3.880647e+000 -8.584305e+000 9.082078e+000 -7.441349e+000 4.692405e+000 -1.516935e+001 -1.016332e+000 -1.127325e+001 3.194299e+000 -2.849769e+000 -9.017435e+000 3.010677e-001 6.167609e+001 -1.469021e+000 9.407029e-001 -1.636072e-002 -2.558439e+000 1.289835e+000 -3.781277e-001 3.883198e-001 -1.547209e-001 4.126711e-001 7.593513e-001 4.426903e-001 -1.475413e+000 7.217699e-001 3.820443e-001 -1.517507e-001 -6.410155e-001 -2.174928e-001 2.310441e-001 -3.923852e-001 8.730356e-002 -3.875218e-002 7.544197e-001 -5.140476e-002 -7.028346e-002 1.104705e-001 4.407831e-001
<VARIANCE> 39
 7.894543e+001 3.722095e+001 5.654711e+001 7.837084e+001 5.803438e+001 6.753923e+001 5.965928e+001 3.513360e+001 3.266053e+001 3.920252e+001 8.613763e+001 6.144904e+001 4.384833e+001 1.092481e+001 4.356387e+000 1.267108e+001 3.350265e+000 4.896690e+000 1.162805e+001 8.584420e+000 4.383396e+000 9.122351e+000 4.223164e+000 1.069858e+001 4.493305e+000 8.151203e+000 1.845042e+000 8.765746e-001 1.667494e+000 7.047354e-001 1.005453e+000 2.205348e+000 1.864259e+000 8.760539e-001 6.905337e-001 7.801021e-001 2.281087e+000 8.404930e-001 1.163649e+000
<GCONST> 1.505065e+002
<STATE> 8
<MEAN> 39
 -2.109943e+000 -7.715615e+000 5.881624e-001 -2.270698e+001 1.398599e+001 -1.862603e+001 2.446077e+000 -1.618772e+001 1.975607e+001 -8.536198e-001 -1.304518e+001 -4.424298e+000 7.197458e+001 5.496923e-001 2.315371e-001 -6.143883e-001 4.256369e-001 9.034176e-001 2.189592e+000 5.834108e-001 -8.531900e-001 1.450857e+000 -8.270025e-001 -5.693077e-001 -1.740255e-001 -8.384379e-001 -2.232480e-001 4.721586e-002 -1.717775e-002 6.551477e-001 -3.185064e-002 6.718325e-001 -1.523053e-002 1.987578e-001 -6.704788e-001 -4.425254e-001 6.250156e-001 1.602647e-001 -7.809922e-001
<VARIANCE> 39
 3.398139e+000 6.079443e+000 4.434089e+000 7.753635e+000 1.484397e+001 2.604065e+001 1.656953e+001 1.454540e+001 1.758913e+001 1.744927e+001 2.174557e+001 9.454289e+000 1.132756e+001 6.873963e-001 1.017352e+000 6.056966e-001 3.860195e+000 1.017520e+000 2.478393e+000 1.290889e+000 1.489368e+000 3.111117e+000 2.763720e+000 3.564841e+000 8.988925e-001 3.152609e+000 2.844652e-001 2.556422e-001 2.597981e-001 3.996556e-001 2.149272e-001 3.510652e-001 6.152902e-001 3.111930e-001 2.751857e-001 3.496991e-001 4.695626e-001 1.589954e-001 9.135930e-002
<GCONST> 9.324715e+001
<STATE> 9
<MEAN> 39
 2.116005e+000 -3.634905e+000 -7.708808e+000 -1.152831e+001 1.723442e+001 1.155406e-001 -3.057805e+000 -1.261326e+001 1.542473e+001 -5.315160e+000 -4.306161e+000 -1.772527e+000 5.294925e+001 3.197950e-001 8.947397e-001 -9.593766e-001 1.311869e+000 -4.752778e-001 1.937862e+000 -1.140727e+000 1.163307e+000 -1.538805e+000 6.995790e-001 1.489116e+000 6.402482e-001 -2.795721e+000 -1.018556e-001 3.208021e-001 4.031683e-001 4.509130e-002 -2.659455e-001 -2.331110e-001 2.140252e-001 1.703214e-001 -2.165963e-001 2.721637e-001 -1.245431e-001 -9.232435e-002 9.981553e-002
<VARIANCE> 39
 1.603933e+001 3.739365e+001 4.448619e+001 8.246201e+001 3.175530e+001 4.065660e+001 3.781256e+001 5.013506e+001 6.500190e+001 3.344376e+001 4.273543e+001 1.820678e+001 5.697350e+001 1.583582e+000 3.556732e+000 4.426509e+000 3.299896e+000 3.095274e+000 3.741008e+000 4.189492e+000 2.866552e+000 2.528991e+000 3.803325e+000 2.921436e+000 1.322846e+000 8.588231e-001 1.739143e-001 6.012555e-001 7.226837e-001 7.152167e-001 4.376131e-001 5.548652e-001 8.445988e-001 5.966297e-001 3.871835e-001 7.703782e-001 3.853899e-001 2.673667e-001 6.700967e-002
<GCONST> 1.209799e+002
<TRANSP> 10
 0.000000e+000 1.000000e+000 0.000000e+000 0.000000e+000 0.000000e+000 0.000000e+000 0.000000e+000 0.000000e+000 0.000000e+000 0.000000e+000
 0.000000e+000 8.486477e-001 1.513523e-001 0.000000e+000 0.000000e+000 0.000000e+000 0.000000e+000 0.000000e+000 0.000000e+000 0.000000e+000
 0.000000e+000 0.000000e+000 8.288377e-001 1.711623e-001 0.000000e+000 0.000000e+000 0.000000e+000 0.000000e+000 0.000000e+000 0.000000e+000
 0.000000e+000 0.000000e+000 0.000000e+000 8.787601e-001 1.212399e-001 0.000000e+000 0.000000e+000 0.000000e+000 0.000000e+000 0.000000e+000
 0.000000e+000 0.000000e+000 0.000000e+000 0.000000e+000 8.683590e-001 1.316410e-001 0.000000e+000 0.000000e+000 0.000000e+000 0.000000e+000
 0.000000e+000 0.000000e+000 0.000000e+000 0.000000e+000 0.000000e+000 8.026302e-001 1.973698e-001 0.000000e+000 0.000000e+000 0.000000e+000
 0.000000e+000 0.000000e+000 0.000000e+000 0.000000e+000 0.000000e+000 0.000000e+000 8.855813e-001 1.144187e-001 0.000000e+000 0.000000e+000
 0.000000e+000 0.000000e+000 0.000000e+000 0.000000e+000 0.000000e+000 0.000000e+000 0.000000e+000 8.412462e-001 1.587538e-001 0.000000e+000
 0.000000e+000 0.000000e+000 0.000000e+000 0.000000e+000 0.000000e+000 0.000000e+000 0.000000e+000 0.000000e+000 8.718022e-001 1.281979e-001
 0.000000e+000 0.000000e+000 0.000000e+000 0.000000e+000 0.000000e+000 0.000000e+000 0.000000e+000 0.000000e+000 0.000000e+000 0.000000e+000
<ENDHMM>
