~o
<STREAMINFO> 1 39
<VECSIZE> 39<NULLD><MFCC_D_A_0><DIAGC>
~h "hello"
<BEGINHMM>
<NUMSTATES> 10
<STATE> 2
<MEAN> 39
 -1.092416e+001 -1.291890e+001 -4.744270e+000 -2.352775e+001 2.163907e+001 9.140488e+000 9.691049e-001 -1.933254e+001 1.884220e+001 -7.283305e+000 5.733839e+000 -6.739959e+000 6.738379e+001 8.199540e-001 2.740239e-001 7.735701e-002 -3.809225e-001 1.295857e-001 -1.054979e+000 2.950969e-001 4.180300e-001 -1.693531e+000 4.359331e-003 -1.158406e+000 2.652470e-002 1.557190e+000 4.825044e-001 2.618095e-002 -1.823869e-002 1.277413e-001 -3.602274e-001 6.648879e-002 -2.583252e-001 3.187448e-001 -8.790272e-001 4.832732e-001 -5.354526e-001 5.184423e-001 -2.876984e-001
<VARIANCE> 39
 2.019551e+001 3.267759e+001 2.368590e+001 2.693059e+001 2.295820e+001 3.324908e+001 2.731169e+001 2.303768e+001 4.229155e+001 2.123516e+001 5.964682e+001 1.621739e+001 1.030090e+001 6.070524e+000 3.331156e+000 3.665286e+000 2.703689e+000 3.494171e+000 3.629306e+000 3.133042e+000 2.992430e+000 8.415985e+000 3.038715e+000 4.361815e+000 2.946568e+000 1.720350e+000 5.890363e-001 6.337718e-001 6.738678e-001 5.823420e-001 6.618108e-001 7.648633e-001 3.788069e-001 6.011664e-001 7.225623e-001 5.163254e-001 5.374530e-001 5.653859e-001 7.451417e-001
<GCONST> 1.235803e+002
<STATE> 3
<MEAN> 39
 9.873958e-001 -1.214564e+001 -3.503272e+000 -2.832603e+001 1.786568e+001 4.153224e+000 -1.398143e+000 -1.120219e+001 -2.084914e+000 1.365932e+000 -9.877411e+000 2.930672e-001 7.770854e+001 8.792627e-001 -5.509522e-001 -3.777707e-001 9.038710e-002 -1.558166e+000 1.964277e-001 1.845447e-002 6.268432e-001 -1.014336e+000 7.509301e-001 -1.093883e+000 3.877569e-001 9.119882e-001 -3.756422e-001 -2.611962e-001 -1.378287e-001 5.567943e-001 -3.097632e-001 1.573479e-001 3.742796e-001 -4.641457e-001 9.435625e-001 -3.890019e-001 5.121936e-001 -5.454451e-001 -3.603308e-001
<VARIANCE> 39
 2.387542e+000 4.132174e+000 9.531982e+000 1.170033e+001 1.795413e+001 1.805264e+001 1.146264e+001 1.273082e+001 2.383517e+001 1.640538e+001 2.107182e+001 9.134458e+000 7.922201e+000 9.529027e-001 5.235843e-001 7.235501e-001 3.392779e+000 2.723255e+000 1.596031e+000 1.944210e+000 2.680923e+000 5.368444e+000 2.558985e+000 2.244750e+000 3.016416e+000 9.761503e-001 2.265300e-001 1.485856e-001 2.252102e-001 2.513162e-001 1.751863e-001 3.266342e-001 2.355709e-001 1.809298e-001 2.837737e-001 1.982880e-001 1.814075e-001 1.921644e-001 6.556393e-002
<GCONST> 8.933681e+001
<STATE> 4
<MEAN> 39
 5.220252e+000 -1.720444e+001 -5.966932e+000 -1.505853e+001 3.892261e+000 9.995924e-001 4.667485e+000 -1.282112e+001 3.731000e+000 -1.790902e+000 -8.993425e+000 -4.167763e+000 7.683221e+001 1.036809e+000 -6.251869e-001 -1.412180e-001 3.218509e+000 -1.359776e+000 -3.691022e+000 1.305810e+000 9.077962e-001 9.576153e-001 -2.441185e-001 -2.707211e-001 8.210887e-001 -6.395215e-001 1.059712e-002 3.756276e-001 1.355805e-002 5.492901e-002 6.762661e-001 -9.100167e-001 -3.116111e-001 4.897755e-001 -1.451301e-001 1.651103e-001 -2.407300e-001 6.976425e-001 -2.342592e-001
<VARIANCE> 39
 6.421731e+000 1.187481e+001 1.371948e+001 4.364196e+001 2.997917e+001 8.239536e+001 2.885789e+001 2.916720e+001 2.538862e+001 2.171335e+001 2.421062e+001 2.287024e+001 8.689204e+000 2.735144e-001 1.344999e+000 5.452201e-001 8.283589e-001 3.205474e+000 6.817570e+000 2.197803e+000 4.112240e+000 2.044918e+000 1.108425e+000 1.082975e+000 4.418634e+000 3.555728e-001 6.967746e-002 2.119580e-001 1.051174e-001 2.842398e-001 3.001844e-001 5.666494e-001 4.779329e-001 6.691526e-001 4.157317e-001 2.319681e-001 2.524886e-001 3.842101e-001 3.121470e-002
<GCONST> 9.780932e+001
<STATE> 5
<MEAN> 39
 9.537771e+000 -1.321413e+001 -3.799715e+000 -1.845657e+000 7.984626e+000 -2.716672e+001 5.442270e+000 -3.464675e+000 2.364701e-001 3.087160e+000 -1.540486e+001 6.792609e+000 6.971771e+001 -4.821505e-003 7.047971e-001 1.438135e+000 -4.573383e-001 5.814494e-001 -1.094228e+000 -1.089055e+000 7.926785e-001 -1.593369e+000 1.530764e+000 -9.691252e-001 -2.843622e-002 -8.032582e-001 -2.251388e-001 -2.773333e-001 3.511647e-001 -9.985859e-001 -2.637728e-001 1.428278e+000 -1.859282e-001 -4.195934e-001 3.524891e-001 3.915779e-002 -4.840797e-003 -6.188139e-001 2.969654e-001
<VARIANCE> 39
 5.103679e+000 1.583444e+001 1.875147e+001 2.020331e+001 4.822396e+001 5.248558e+001 2.310698e+001 1.715213e+001 5.379880e+001 3.036506e+001 2.524078e+001 2.887861e+001 1.997000e+001 3.639967e-001 1.290573e+000 1.754307e+000 5.714834e+000 4.171545e+000 1.389168e+001 2.200760e+000 1.829144e+000 6.318051e+000 1.715217e+000 2.108327e+000 4.767884e+000 6.176249e-001 3.499094e-002 1.938413e-001 2.159275e-001 3.315556e-001 6.040195e-001 5.789885e-001 4.384548e-001 3.645734e-001 2.706220e+000 4.671973e-001 4.278855e-001 5.096240e-001 9.359116e-002
<GCONST> 1.098486e+002
<STATE> 6
<MEAN> 39
 6.732889e+000 -1.380814e+001 6.731906e+000 -1.888005e+001 8.644021e+000 -1.490443e+001 6.207147e-002 -6.676216e+000 5.041005e+000 8.403507e+000 -1.942548e+001 6.052499e-001 7.145393e+001 -2.802376e-001 3.981622e-001 2.353652e-001 -2.599247e+000 7.889688e-001 1.963597e+000 6.187712e-001 -2.144849e+000 2.756599e+000 -1.389324e-001 4.838634e-001 -7.465751e-001 3.486432e-001 2.094119e-001 4.856441e-001 -6.094439e-001 5.808052e-001 2.279918e-001 -3.951744e-001 3.746794e-001 -3.330816e-001 -3.154860e-001 -1.173746e-001 5.490386e-001 1.159681e-001 -3.132257e-001
<VARIANCE> 39
 3.306015e+000 8.226715e+000 9.089825e+000 4.105112e+001 2.120207e+001 1.735023e+001 3.110440e+001 2.598844e+001 4.567237e+001 2.151497e+001 3.906716e+001 1.930703e+001 1.443366e+001 4.452129e-001 1.805500e+000 2.401894e+000 6.617338e+000 2.730885e+000 5.095599e+000 2.404802e+000 2.024760e+000 5.720761e+000 1.670626e+000 4.843240e+000 1.675462e+000 9.954229e-001 5.627525e-002 1.696562e-001 2.468806e-001 6.620622e-001 6.032974e-001 6.188980e-001 5.927623e-001 3.081814e-001 1.178583e+000 3.782183e-001 7.347199e-001 3.396149e-001 1.475598e-001
<GCONST> 1.075428e+002
<STATE> 7
<MEAN> 39
 8.861025e+000 -3.395149e+000 1.594004e+000 -2.663596e+001 9.859221e+000 -2.672919e+000 4.327583e+000 -1.973185e+001 8.625923e+000 6.643819e+000 -1.238054e+001 1.586109e+000 6.624378e+001 8.502476e-001 1.807048e+000 -9.033926e-001 -3.199360e-001 -8.754794e-001 2.789919e+000 1.100686e-001 -8.348949e-001 -5.930334e-001 -7.377735e-001 3.621741e-001 1.406450e+000 -1.431776e+000 1.613127e-001 -1.152199e-001 -5.484101e-002 4.013697e-001 -2.966452e-001 5.945516e-002 -1.168022e-001 6.958973e-001 -3.664250e-001 -3.064379e-001 -1.968203e-001 2.283408e-001 -1.132870e-001
<VARIANCE> 39
 6.206132e+000 2.287435e+001 2.044378e+001 5.719168e+001 2.443370e+001 6.055116e+001 1.717314e+001 2.605025e+001 4.167972e+001 3.205293e+001 3.041100e+001 4.300595e+001 1.927709e+001 5.625333e-001 8.408264e-001 1.357557e+000 1.883303e+000 1.976365e+000 2.170230e+000 1.279443e+000 3.612272e+000 2.013454e+000 1.752887e+000 3.602331e+000 3.454784e+000 3.328579e-001 7.159318e-002 1.905002e-001 1.878002e-001 3.836371e-001 4.004007e-001 4.924500e-001 2.900999e-001 3.348590e-001 4.436041e-001 2.731304e-001 5.535339e-001 8.516462e-001 3.949232e-002
<GCONST> 1.033166e+002
<STATE> 8
<MEAN> 39
 1.799546e+001 -3.210295e-001 -9.302773e+000 -9.060856e+000 3.786322e+000 4.041985e+000 8.736851e-001 -6.478422e+000 1.936274e+000 -2.525622e+000 -7.651879e+000 4.316628e+000 5.655097e+001 4.987148e-001 1.050512e+000 -8.875971e-001 8.750566e-001 -8.284283e-001 3.771372e-001 1.402452e-001 1.518318e+000 -9.975199e-001 -9.081474e-001 5.796425e-001 -4.306867e-001 -1.277862e+000 -1.988991e-001 1.176552e-001 1.301995e-001 -1.629810e-001 5.295717e-002 -2.656958e-001 1.612997e-001 -1.410434e-002 -1.262295e-002 7.590517e-002 9.326316e-002 -2.558174e-001 -1.630066e-002
<VARIANCE> 39
 1.146375e+001 6.745132e+001 7.817050e+001 1.932051e+002 4.211740e+001 6.608850e+001 3.285789e+001 9.193642e+001 3.153072e+001 1.930429e+001 3.997928e+001 3.993634e+001 2.618587e+001 8.200977e-001 4.595665e+000 2.335355e+000 9.306289e+000 2.617261e+000 3.900608e+000 2.596759e+000 3.369581e+000 3.780071e+000 2.714248e+000 2.625018e+000 2.640667e+000 1.286732e+000 8.403412e-002 4.425665e-001 2.858745e-001 8.527265e-001 3.686695e-001 8.147479e-001 4.479587e-001 4.588131e-001 4.978672e-001 3.873540e-001 4.584111e-001 4.728544e-001 1.167172e-001
<GCONST> 1.215509e+002
<STATE> 9
<MEAN> 39
 1.441748e+001 1.610270e+001 -6.972167e+000 -1.524784e+001 -4.284878e+000 8.711305e+000 8.864095e+000 -6.598982e-001 -5.491214e+000 -8.655469e+000 -5.957473e+000 1.317835e+000 4.463593e+001 -6.918499e-001 7.037025e-001 3.743961e-001 4.499559e-001 -4.448868e-001 -3.999485e-001 6.116760e-001 1.201068e+000 -1.748360e-001 -3.307233e-001 3.641807e-001 -5.943179e-001 -9.521923e-001 -8.504812e-002 -2.455854e-001 6.574607e-002 -1.947326e-002 9.316371e-002 -5.898624e-002 -1.347653e-001 -1.562815e-001 2.351497e-001 1.847901e-001 -8.067329e-002 1.650118e-001 1.517610e-001
<VARIANCE> 39
 9.348251e+000 1.597334e+001 2.313359e+001 2.105064e+001 3.945460e+001 4.150209e+001 2.732909e+001 2.654165e+001 2.128940e+001 2.860946e+001 2.127707e+001 1.825143e+001 9.419826e+000 8.191538e-001 1.570222e+000 2.262628e+000 2.233332e+000 2.529530e+000 1.657650e+000 2.520433e+000 2.764960e+000 2.731445e+000 2.241184e+000 1.848832e+000 2.211973e+000 6.529025e-001 9.412412e-002 2.135126e-001 3.756965e-001 4.994612e-001 4.512701e-001 3.885774e-001 3.891219e-001 4.419023e-001 4.959882e-001 3.613266e-001 3.103870e-001 4.499956e-001 5.419381e-002
<GCONST> 1.038316e+002
<TRANSP> 10
 0.000000e+000 1.000000e+000 0.000000e+000 0.000000e+000 0.000000e+000 0.000000e+000 0.000000e+000 0.000000e+000 0.000000e+000 0.000000e+000
 0.000000e+000 8.666953e-001 1.333047e-001 0.000000e+000 0.000000e+000 0.000000e+000 0.000000e+000 0.000000e+000 0.000000e+000 0.000000e+000
 0.000000e+000 0.000000e+000 8.306670e-001 1.693330e-001 0.000000e+000 0.000000e+000 0.000000e+000 0.000000e+000 0.000000e+000 0.000000e+000
 0.000000e+000 0.000000e+000 0.000000e+000 8.307390e-001 1.692611e-001 0.000000e+000 0.000000e+000 0.000000e+000 0.000000e+000 0.000000e+000
 0.000000e+000 0.000000e+000 0.000000e+000 0.000000e+000 8.526227e-001 1.473773e-001 0.000000e+000 0.000000e+000 0.000000e+000 0.000000e+000
 0.000000e+000 0.000000e+000 0.000000e+000 0.000000e+000 0.000000e+000 8.127835e-001 1.872166e-001 0.000000e+000 0.000000e+000 0.000000e+000
 0.000000e+000 0.000000e+000 0.000000e+000 0.000000e+000 0.000000e+000 0.000000e+000 8.542323e-001 1.457678e-001 0.000000e+000 0.000000e+000
 0.000000e+000 0.000000e+000 0.000000e+000 0.000000e+000 0.000000e+000 0.000000e+000 0.000000e+000 8.806086e-001 1.193915e-001 0.000000e+000
 0.000000e+000 0.000000e+000 0.000000e+000 0.000000e+000 0.000000e+000 0.000000e+000 0.000000e+000 0.000000e+000 8.783763e-001 1.216237e-001
 0.000000e+000 0.000000e+000 0.000000e+000 0.000000e+000 0.000000e+000 0.000000e+000 0.000000e+000 0.000000e+000 0.000000e+000 0.000000e+000
<ENDHMM>
