~o
<STREAMINFO> 1 13
<VECSIZE> 13<NULLD><MFCC_E><DIAGC>
~h "rui"
<BEGINHMM>
<NUMSTATES> 6
<STATE> 2
<MEAN> 13
 -7.011338e+00 -5.888068e-01 2.372052e-01 -2.665378e+00 3.967994e-01 -8.005179e+00 1.616391e+00 -5.500124e+00 3.937566e+00 -3.876164e+00 1.836620e+00 -1.684667e+00 4.706817e-01
<VARIANCE> 13
 1.542074e+00 5.764833e+00 7.683103e+00 1.626706e+01 4.473439e+00 1.162257e+01 1.005243e+01 1.501974e+01 1.629392e+01 1.113277e+01 1.432525e+01 1.708927e+01 9.640199e-03
<GCONST> 4.593311e+01
<STATE> 3
<MEAN> 13
 -7.799529e-01 -1.077036e+00 8.357461e+00 -1.181891e+01 -2.895247e+00 -1.106190e+01 -2.008987e+01 -8.128469e+00 2.906263e+00 -6.384991e+00 -7.040784e+00 -2.714124e+00 9.298331e-01
<VARIANCE> 13
 8.759264e-01 2.425155e+01 1.268301e+01 8.972855e+01 1.153248e+01 1.584074e+01 1.113347e+02 3.713516e+01 2.074769e+01 4.677745e+01 2.094506e+01 1.420020e+01 4.162648e-03
<GCONST> 5.461171e+01
<STATE> 4
<MEAN> 13
 -3.344473e+00 -3.064817e+00 1.146649e+01 -1.326902e+01 -7.899550e+00 -1.752029e+01 -1.171097e+01 -6.491594e+00 -2.789577e+00 -4.215491e-01 -5.685697e+00 1.788868e+00 8.515041e-01
<VARIANCE> 13
 1.849652e+00 2.495430e+01 1.279648e+01 1.859879e+01 1.883307e+01 9.281783e+00 5.507796e+01 4.168940e+01 4.522689e+01 9.591643e+00 3.860839e+01 1.642321e+01 1.186088e-02
<GCONST> 5.418962e+01
<STATE> 5
<MEAN> 13
 -8.709889e+00 -1.217869e+00 1.503679e+00 -3.936333e+00 -2.458511e+00 -8.245866e+00 5.690400e-01 -6.134004e+00 3.324515e+00 -4.715506e+00 2.582199e+00 6.642761e-01 4.620622e-01
<VARIANCE> 13
 3.865381e+00 4.205524e+00 8.845213e+00 1.208717e+01 1.344482e+01 1.245982e+01 7.938460e+00 1.356933e+01 1.470453e+01 1.109639e+01 1.091949e+01 9.507388e+00 4.950287e-03
<GCONST> 4.558260e+01
<TRANSP> 6
 0.000000e+00 1.000000e+00 0.000000e+00 0.000000e+00 0.000000e+00 0.000000e+00
 0.000000e+00 9.000000e-01 9.999995e-02 0.000000e+00 0.000000e+00 0.000000e+00
 0.000000e+00 0.000000e+00 9.186845e-01 8.131547e-02 0.000000e+00 0.000000e+00
 0.000000e+00 0.000000e+00 0.000000e+00 8.507744e-01 1.492256e-01 0.000000e+00
 0.000000e+00 0.000000e+00 0.000000e+00 0.000000e+00 9.285761e-01 7.142396e-02
 0.000000e+00 0.000000e+00 0.000000e+00 0.000000e+00 0.000000e+00 0.000000e+00
<ENDHMM>
