~o
<STREAMINFO> 1 13
<VECSIZE> 13<NULLD><MFCC_0><DIAGC>
~h "\347\221\236"
<BEGINHMM>
<NUMSTATES> 6
<STATE> 2
<MEAN> 13
 -1.409820e+00 -1.970885e+00 3.803410e+00 -5.142812e+00 -5.732987e+00 -1.243720e+01 3.051296e+00 -5.334936e+00 -3.801947e+00 -3.561143e+00 -6.489664e+00 -2.015783e+00 5.864622e+01
<VARIANCE> 13
 1.231596e+01 6.891157e+00 6.670229e+00 1.155852e+01 3.293267e+01 2.323023e+01 1.936327e+01 3.271208e+01 2.207862e+01 1.996883e+01 1.586611e+01 1.245729e+01 5.503002e+00
<GCONST> 5.885022e+01
<STATE> 3
<MEAN> 13
 2.046771e+00 -5.913883e+00 3.983645e+00 -1.434484e+01 -2.033388e+01 -1.537787e+01 4.584976e+00 -6.371472e+00 -2.445370e+00 -3.919657e+00 2.277659e+00 -6.784159e+00 6.608831e+01
<VARIANCE> 13
 2.077371e+00 4.704350e+00 2.420213e+00 2.458934e+01 9.155272e+00 2.846703e+01 7.645216e+00 7.008491e+00 8.824199e+00 2.066718e+01 3.290487e+01 9.650530e+00 7.677881e+00
<GCONST> 5.280746e+01
<STATE> 4
<MEAN> 13
 -2.746628e+00 -2.470577e+00 -1.279750e+00 -2.278835e+01 -1.101677e+01 -6.023769e+00 4.659945e+00 9.391207e-01 2.331947e+00 -6.529798e+00 -1.126538e+01 -2.173404e+00 6.734760e+01
<VARIANCE> 13
 4.905111e+00 9.851889e+00 6.684272e+00 6.031095e+00 1.682621e+01 8.923746e+00 7.656703e+00 1.713806e+01 1.027816e+01 1.277857e+01 1.469574e+01 1.874518e+01 1.413813e+01
<GCONST> 5.450072e+01
<STATE> 5
<MEAN> 13
 -4.323520e+00 8.379662e-01 5.389752e-01 -1.097545e+01 -4.796237e+00 -7.407691e+00 3.139475e+00 -1.661642e+00 1.144097e+00 -6.605789e-01 -5.472285e+00 -3.108807e+00 5.870519e+01
<VARIANCE> 13
 3.128425e+00 8.454373e+00 1.292132e+01 1.828996e+01 3.246284e+01 1.938210e+01 4.344645e+01 2.671044e+01 2.123316e+01 2.973300e+01 2.791527e+01 5.457971e+01 4.568236e+00
<GCONST> 6.142966e+01
<TRANSP> 6
 0.000000e+00 1.000000e+00 0.000000e+00 0.000000e+00 0.000000e+00 0.000000e+00
 0.000000e+00 7.906792e-01 2.093209e-01 0.000000e+00 0.000000e+00 0.000000e+00
 0.000000e+00 0.000000e+00 8.323906e-01 1.676094e-01 0.000000e+00 0.000000e+00
 0.000000e+00 0.000000e+00 0.000000e+00 8.572500e-01 1.427501e-01 0.000000e+00
 0.000000e+00 0.000000e+00 0.000000e+00 0.000000e+00 8.333669e-01 1.666331e-01
 0.000000e+00 0.000000e+00 0.000000e+00 0.000000e+00 0.000000e+00 0.000000e+00
<ENDHMM>
