~o
<STREAMINFO> 1 13
<VECSIZE> 13<NULLD><MFCC_0><DIAGC>
~h "lx"
<BEGINHMM>
<NUMSTATES> 12
<STATE> 2
<MEAN> 13
 -3.364940e+00 3.787497e+00 9.759482e+00 1.031982e+00 -4.579631e+00 -6.804779e+00 -8.753426e+00 -4.788811e+00 -6.900245e+00 -2.874269e+00 -3.106976e+00 -1.541838e+00 6.344605e+01
<VARIANCE> 13
 1.500456e+01 2.363101e+01 5.057699e+01 4.556969e+01 5.094489e+01 7.596368e+01 7.364497e+01 4.713401e+01 5.014518e+01 4.056880e+01 3.972055e+01 2.561087e+01 5.423575e+01
<GCONST> 7.245545e+01
<STATE> 3
<MEAN> 13
 -3.952544e+00 2.336048e+00 1.682498e+01 -5.824454e+00 -1.529520e+01 -7.504025e-01 -1.211694e+01 -2.140914e+00 -1.218347e+01 -1.815733e-01 4.097600e+00 -3.242741e+00 7.251775e+01
<VARIANCE> 13
 1.062576e+01 2.595238e+01 3.658003e+01 7.472961e+01 3.910595e+01 4.720073e+01 4.062014e+01 4.729793e+01 4.170021e+01 4.827754e+01 2.766951e+01 3.858555e+01 1.343270e+01
<GCONST> 6.968513e+01
<STATE> 4
<MEAN> 13
 -4.360036e+00 7.414223e+00 8.184702e+00 -8.631081e+00 -1.338425e+01 -3.908422e+00 -1.215371e+01 -1.115004e+01 -9.864809e+00 -8.514411e-01 -5.661638e+00 -4.285826e+00 6.889304e+01
<VARIANCE> 13
 1.859882e+01 2.931643e+01 2.591087e+01 1.163822e+02 4.088269e+01 4.604638e+01 1.092593e+02 6.057312e+01 3.708796e+01 5.554994e+01 1.041046e+02 3.701473e+01 2.812697e+01
<GCONST> 7.376714e+01
<STATE> 5
<MEAN> 13
 -1.595320e+01 1.497600e+01 6.319496e+00 1.104895e+00 -1.997978e+00 -5.181674e+00 -8.178191e-01 -7.916813e+00 -5.490896e+00 -4.030423e+00 -1.856333e+00 -9.631113e-01 6.981724e+01
<VARIANCE> 13
 4.264496e+01 1.561731e+01 3.030946e+01 3.241629e+01 3.320599e+01 5.501771e+01 4.171883e+01 3.883326e+01 2.507630e+01 3.534686e+01 2.932266e+01 2.839020e+01 1.664925e+01
<GCONST> 6.850833e+01
<STATE> 6
<MEAN> 13
 -2.883855e+01 8.387794e+00 -4.800634e-01 -6.012967e+00 -2.829522e+00 -5.080776e+00 -1.487482e+00 -5.285068e+00 -3.651077e+00 -5.851181e-01 -1.318707e+00 -7.801646e-01 6.931528e+01
<VARIANCE> 13
 1.062735e+01 2.020949e+01 3.043878e+01 2.688624e+01 1.921034e+01 2.934314e+01 4.271381e+01 3.471948e+01 2.696284e+01 2.092817e+01 2.433306e+01 1.747011e+01 1.878963e+01
<GCONST> 6.492684e+01
<STATE> 7
<MEAN> 13
 -1.870173e+01 1.066506e+01 9.620386e+00 -2.980858e+00 -3.979846e+00 -6.627935e+00 -4.867271e+00 -7.433462e+00 -6.917387e+00 -3.906900e+00 -2.981318e+00 -1.208509e+00 7.011918e+01
<VARIANCE> 13
 2.388506e+01 1.988879e+01 2.111016e+01 2.104762e+01 2.808538e+01 3.073827e+01 3.400999e+01 4.077884e+01 2.266530e+01 2.021667e+01 1.888391e+01 1.668627e+01 2.693536e+01
<GCONST> 6.532160e+01
<STATE> 8
<MEAN> 13
 -1.114880e+01 6.856583e+00 1.311514e+01 -3.575769e+00 -1.293383e+01 -8.909454e+00 -1.113567e+01 -1.233347e+01 -1.022022e+01 -4.977865e+00 -5.616513e-01 -9.128098e-01 7.324952e+01
<VARIANCE> 13
 1.193086e+01 1.663614e+01 3.312463e+01 4.009943e+01 2.668717e+01 4.639095e+01 4.391444e+01 5.313734e+01 2.598011e+01 3.865860e+01 2.062060e+01 5.399566e+01 1.574943e+01
<GCONST> 6.793526e+01
<STATE> 9
<MEAN> 13
 -7.233513e+00 1.020099e+00 1.962727e+01 -5.377054e+00 -1.681975e+01 -4.503481e+00 -1.674374e+01 -6.626084e+00 -1.336490e+01 -5.608076e+00 3.249501e+00 -2.232423e+00 7.357822e+01
<VARIANCE> 13
 1.054679e+01 2.211997e+01 2.350902e+01 5.580278e+01 2.491824e+01 4.569014e+01 3.008338e+01 4.748428e+01 4.760432e+01 5.105260e+01 2.510710e+01 1.983095e+01 1.114792e+01
<GCONST> 6.724320e+01
<STATE> 10
<MEAN> 13
 -8.580751e+00 2.076262e+00 1.138742e+01 -1.289332e+01 -1.457540e+01 -7.381678e+00 -1.719861e+01 -1.031964e+01 -1.261782e+01 -3.869611e+00 -7.389725e+00 -3.650285e+00 6.525307e+01
<VARIANCE> 13
 1.980403e+01 2.779228e+01 2.607182e+01 1.044419e+02 3.001589e+01 3.859211e+01 5.566885e+01 4.427094e+01 2.697356e+01 2.579385e+01 9.617988e+01 3.827560e+01 3.770771e+01
<GCONST> 7.136295e+01
<STATE> 11
<MEAN> 13
 -5.907670e+00 2.309436e+00 7.519836e+00 -1.258819e+00 -6.331614e+00 -2.320385e+00 -6.702746e+00 -5.769901e+00 -5.589841e+00 -2.233845e+00 -1.971062e+00 -2.931823e+00 6.001852e+01
<VARIANCE> 13
 1.792614e+01 3.137824e+01 4.998794e+01 4.463700e+01 4.919863e+01 4.001808e+01 4.517479e+01 3.661453e+01 3.256715e+01 3.265120e+01 2.741071e+01 2.092863e+01 4.739183e+01
<GCONST> 7.011099e+01
<TRANSP> 12
 0.000000e+00 1.000000e+00 0.000000e+00 0.000000e+00 0.000000e+00 0.000000e+00 0.000000e+00 0.000000e+00 0.000000e+00 0.000000e+00 0.000000e+00 0.000000e+00
 0.000000e+00 7.202768e-01 2.797232e-01 0.000000e+00 0.000000e+00 0.000000e+00 0.000000e+00 0.000000e+00 0.000000e+00 0.000000e+00 0.000000e+00 0.000000e+00
 0.000000e+00 0.000000e+00 8.776317e-01 1.223684e-01 0.000000e+00 0.000000e+00 0.000000e+00 0.000000e+00 0.000000e+00 0.000000e+00 0.000000e+00 0.000000e+00
 0.000000e+00 0.000000e+00 0.000000e+00 8.262081e-01 1.737919e-01 0.000000e+00 0.000000e+00 0.000000e+00 0.000000e+00 0.000000e+00 0.000000e+00 0.000000e+00
 0.000000e+00 0.000000e+00 0.000000e+00 0.000000e+00 7.169743e-01 2.830257e-01 0.000000e+00 0.000000e+00 0.000000e+00 0.000000e+00 0.000000e+00 0.000000e+00
 0.000000e+00 0.000000e+00 0.000000e+00 0.000000e+00 0.000000e+00 8.640540e-01 1.359460e-01 0.000000e+00 0.000000e+00 0.000000e+00 0.000000e+00 0.000000e+00
 0.000000e+00 0.000000e+00 0.000000e+00 0.000000e+00 0.000000e+00 0.000000e+00 3.006367e-01 6.993634e-01 0.000000e+00 0.000000e+00 0.000000e+00 0.000000e+00
 0.000000e+00 0.000000e+00 0.000000e+00 0.000000e+00 0.000000e+00 0.000000e+00 0.000000e+00 5.781955e-01 4.218046e-01 0.000000e+00 0.000000e+00 0.000000e+00
 0.000000e+00 0.000000e+00 0.000000e+00 0.000000e+00 0.000000e+00 0.000000e+00 0.000000e+00 0.000000e+00 8.884177e-01 1.115823e-01 0.000000e+00 0.000000e+00
 0.000000e+00 0.000000e+00 0.000000e+00 0.000000e+00 0.000000e+00 0.000000e+00 0.000000e+00 0.000000e+00 0.000000e+00 7.861609e-01 2.138391e-01 0.000000e+00
 0.000000e+00 0.000000e+00 0.000000e+00 0.000000e+00 0.000000e+00 0.000000e+00 0.000000e+00 0.000000e+00 0.000000e+00 0.000000e+00 8.050214e-01 1.949786e-01
 0.000000e+00 0.000000e+00 0.000000e+00 0.000000e+00 0.000000e+00 0.000000e+00 0.000000e+00 0.000000e+00 0.000000e+00 0.000000e+00 0.000000e+00 0.000000e+00
<ENDHMM>
