~o
<STREAMINFO> 1 13
<VECSIZE> 13<NULLD><MFCC_0><DIAGC>
~h "rx"
<BEGINHMM>
<NUMSTATES> 12
<STATE> 2
<MEAN> 13
 1.938270e+00 -2.282137e-01 1.275347e+00 1.916413e+00 -5.066990e+00 -5.749073e+00 -1.715279e+01 -9.407617e+00 -3.228451e+00 -8.008357e-01 -5.134643e+00 -3.619945e+00 6.503181e+01
<VARIANCE> 13
 1.676351e+01 3.279982e+01 3.275288e+01 4.582703e+01 5.228891e+01 7.019567e+01 7.825378e+01 6.722428e+01 5.474496e+01 3.855598e+01 3.779562e+01 3.281208e+01 3.951825e+01
<GCONST> 7.274651e+01
<STATE> 3
<MEAN> 13
 -6.469207e-01 -6.420113e+00 9.368141e+00 -1.151993e+00 -1.566001e+01 -6.154311e+00 -1.887368e+01 1.646635e+00 -3.591606e+00 -5.237855e+00 8.401551e-01 -2.551619e+00 7.401605e+01
<VARIANCE> 13
 9.883516e+00 4.464635e+01 4.164214e+01 4.459348e+01 2.590432e+01 3.881651e+01 5.941812e+01 4.435423e+01 4.985967e+01 4.142611e+01 3.973400e+01 3.815420e+01 1.121613e+01
<GCONST> 6.967313e+01
<STATE> 4
<MEAN> 13
 -7.261930e+00 -7.889008e-01 1.431508e+01 -8.653399e+00 -1.635481e+01 -6.997832e+00 -1.476787e+01 -4.128098e+00 -1.274261e+01 -1.502712e+00 -2.802788e+00 -2.370257e+00 7.202229e+01
<VARIANCE> 13
 1.146010e+01 5.403618e+01 6.478966e+01 8.615790e+01 5.620968e+01 4.530257e+01 4.104398e+01 6.800497e+01 4.381495e+01 4.192694e+01 9.387508e+01 4.304652e+01 3.596733e+01
<GCONST> 7.412769e+01
<STATE> 5
<MEAN> 13
 -1.714895e+01 1.241613e+01 1.023329e+01 5.263713e-02 -1.867349e+00 -5.392828e+00 -2.018617e+00 -4.195833e+00 -3.495449e+00 -1.566949e+00 -8.698922e-01 9.415755e-01 6.929193e+01
<VARIANCE> 13
 2.989083e+01 1.407709e+01 2.481075e+01 1.945697e+01 3.443842e+01 4.335051e+01 3.388722e+01 3.574617e+01 2.575412e+01 2.898301e+01 2.264025e+01 2.166474e+01 1.246596e+01
<GCONST> 6.585567e+01
<STATE> 6
<MEAN> 13
 -2.777635e+01 7.728998e+00 5.385769e-01 -7.046193e+00 -4.355778e+00 -6.643250e+00 -2.939604e+00 -3.892445e+00 -2.690209e+00 5.742973e-02 -9.878644e-01 1.951985e-01 6.823208e+01
<VARIANCE> 13
 1.014405e+01 2.255464e+01 2.978079e+01 2.804270e+01 2.239814e+01 4.425891e+01 3.481593e+01 2.716782e+01 2.574836e+01 2.625000e+01 2.183435e+01 1.810958e+01 1.743963e+01
<GCONST> 6.515868e+01
<STATE> 7
<MEAN> 13
 -1.375782e+01 9.659754e+00 1.076640e+01 -2.711990e+00 -6.276393e+00 -4.800682e+00 -4.714061e+00 -7.121018e+00 -5.355479e+00 -2.739688e+00 -1.826239e+00 -1.335234e+00 6.762210e+01
<VARIANCE> 13
 3.094563e+01 1.985504e+01 2.382440e+01 1.573255e+01 3.514866e+01 4.102992e+01 2.669789e+01 3.069705e+01 2.632631e+01 2.533588e+01 2.304213e+01 2.054753e+01 1.934904e+01
<GCONST> 6.584767e+01
<STATE> 8
<MEAN> 13
 -5.499185e+00 3.305090e+00 1.591307e+01 -9.193105e+00 -1.493156e+01 5.038921e-01 -1.041302e+01 -5.560946e+00 -1.027756e+01 -4.283718e-02 2.588668e+00 -5.344425e+00 7.209913e+01
<VARIANCE> 13
 1.145317e+01 2.067340e+01 2.109309e+01 3.790591e+01 4.085740e+01 5.752939e+01 3.912681e+01 4.778768e+01 3.888961e+01 5.076649e+01 3.340524e+01 3.421931e+01 1.150276e+01
<GCONST> 6.841158e+01
<STATE> 9
<MEAN> 13
 -3.625601e+00 2.925955e+00 4.144611e+00 -1.241764e+01 -1.167621e+01 -6.560905e+00 -1.593979e+01 -1.082869e+01 -1.020630e+01 -5.166451e+00 -8.987700e+00 -4.254196e+00 6.500422e+01
<VARIANCE> 13
 1.633376e+01 2.828191e+01 4.059767e+01 1.000162e+02 3.662069e+01 7.695964e+01 7.481921e+01 6.731844e+01 4.235783e+01 7.129659e+01 6.563522e+01 5.708559e+01 4.694115e+01
<GCONST> 7.489587e+01
<STATE> 10
<MEAN> 13
 9.396229e-01 3.756806e+00 7.078424e+00 2.152626e+00 -7.344079e+00 -3.344998e+00 -6.012336e+00 -6.701388e+00 -7.467210e+00 2.316118e-01 -2.569870e+00 -6.011465e+00 6.627708e+01
<VARIANCE> 13
 8.013492e+00 2.282899e+01 2.891127e+01 3.587803e+01 3.466239e+01 3.632652e+01 4.188095e+01 4.674109e+01 5.340552e+01 4.841537e+01 4.490880e+01 3.647261e+01 2.255660e+01
<GCONST> 6.913853e+01
<STATE> 11
<MEAN> 13
 -5.181591e+00 1.388443e+00 3.627201e+00 -1.338448e+00 -2.816496e+00 -8.402928e-01 -4.745284e+00 -3.108132e+00 -2.641738e+00 -1.540765e+00 -3.402755e+00 -3.125013e+00 5.771798e+01
<VARIANCE> 13
 1.711298e+01 2.393931e+01 4.048832e+01 3.358413e+01 3.499865e+01 3.508197e+01 4.203535e+01 3.478598e+01 3.361341e+01 2.596307e+01 2.050051e+01 2.136679e+01 3.102614e+01
<GCONST> 6.781226e+01
<TRANSP> 12
 0.000000e+00 1.000000e+00 0.000000e+00 0.000000e+00 0.000000e+00 0.000000e+00 0.000000e+00 0.000000e+00 0.000000e+00 0.000000e+00 0.000000e+00 0.000000e+00
 0.000000e+00 7.927354e-01 2.072646e-01 0.000000e+00 0.000000e+00 0.000000e+00 0.000000e+00 0.000000e+00 0.000000e+00 0.000000e+00 0.000000e+00 0.000000e+00
 0.000000e+00 0.000000e+00 8.185316e-01 1.814684e-01 0.000000e+00 0.000000e+00 0.000000e+00 0.000000e+00 0.000000e+00 0.000000e+00 0.000000e+00 0.000000e+00
 0.000000e+00 0.000000e+00 0.000000e+00 8.144696e-01 1.855304e-01 0.000000e+00 0.000000e+00 0.000000e+00 0.000000e+00 0.000000e+00 0.000000e+00 0.000000e+00
 0.000000e+00 0.000000e+00 0.000000e+00 0.000000e+00 7.041253e-01 2.958747e-01 0.000000e+00 0.000000e+00 0.000000e+00 0.000000e+00 0.000000e+00 0.000000e+00
 0.000000e+00 0.000000e+00 0.000000e+00 0.000000e+00 0.000000e+00 8.635249e-01 1.364751e-01 0.000000e+00 0.000000e+00 0.000000e+00 0.000000e+00 0.000000e+00
 0.000000e+00 0.000000e+00 0.000000e+00 0.000000e+00 0.000000e+00 0.000000e+00 4.808034e-01 5.191966e-01 0.000000e+00 0.000000e+00 0.000000e+00 0.000000e+00
 0.000000e+00 0.000000e+00 0.000000e+00 0.000000e+00 0.000000e+00 0.000000e+00 0.000000e+00 8.203626e-01 1.796374e-01 0.000000e+00 0.000000e+00 0.000000e+00
 0.000000e+00 0.000000e+00 0.000000e+00 0.000000e+00 0.000000e+00 0.000000e+00 0.000000e+00 0.000000e+00 7.185517e-01 2.814484e-01 0.000000e+00 0.000000e+00
 0.000000e+00 0.000000e+00 0.000000e+00 0.000000e+00 0.000000e+00 0.000000e+00 0.000000e+00 0.000000e+00 0.000000e+00 8.226168e-01 1.773832e-01 0.000000e+00
 0.000000e+00 0.000000e+00 0.000000e+00 0.000000e+00 0.000000e+00 0.000000e+00 0.000000e+00 0.000000e+00 0.000000e+00 0.000000e+00 8.084427e-01 1.915573e-01
 0.000000e+00 0.000000e+00 0.000000e+00 0.000000e+00 0.000000e+00 0.000000e+00 0.000000e+00 0.000000e+00 0.000000e+00 0.000000e+00 0.000000e+00 0.000000e+00
<ENDHMM>
