~o
<STREAMINFO> 1 13
<VECSIZE> 13<NULLD><MFCC_0><DIAGC>
~h "dd"
<BEGINHMM>
<NUMSTATES> 12
<STATE> 2
<MEAN> 13
 -1.126316e+01 1.978172e+00 1.199702e+00 -3.154491e+00 -6.477552e+00 -3.767273e+00 -3.796338e+00 -6.859860e+00 -4.805815e+00 -1.768244e+00 -1.165431e+00 -1.752623e+00 6.359433e+01
<VARIANCE> 13
 2.368743e+01 2.807328e+01 5.423375e+01 3.460589e+01 3.852853e+01 3.113773e+01 3.772834e+01 3.185092e+01 3.235281e+01 3.305399e+01 3.518337e+01 2.289186e+01 4.547894e+01
<GCONST> 6.959424e+01
<STATE> 3
<MEAN> 13
 -5.951715e+00 1.506397e+00 1.555253e+01 -7.807634e+00 -1.900744e+01 -1.159159e+00 -1.434024e+01 -6.777596e+00 -1.230876e+01 -2.892544e+00 1.863476e+00 -4.383731e+00 7.283585e+01
<VARIANCE> 13
 1.254032e+01 2.992879e+01 4.403481e+01 8.716109e+01 3.312599e+01 4.541480e+01 6.567017e+01 5.559642e+01 5.300420e+01 6.074873e+01 7.414027e+01 4.927312e+01 1.007906e+01
<GCONST> 7.218275e+01
<STATE> 4
<MEAN> 13
 1.672232e+00 3.670370e+00 5.343369e+00 2.749917e+00 -1.561031e+01 -3.725127e+00 -7.873514e+00 -1.211979e+01 -1.049216e+01 8.804351e-01 -3.491789e+00 -7.386106e+00 6.849030e+01
<VARIANCE> 13
 9.053001e+00 1.789275e+01 3.262017e+01 5.834466e+01 3.098702e+01 4.702805e+01 6.559132e+01 5.611428e+01 5.082286e+01 6.339878e+01 7.638960e+01 4.633232e+01 1.045222e+01
<GCONST> 7.062263e+01
<STATE> 5
<MEAN> 13
 3.783082e-01 5.258510e+00 9.336435e+00 1.221760e+00 -8.849275e+00 -7.833225e-01 -1.124370e+01 -1.062809e+01 -8.348706e+00 1.794824e+00 -4.523248e+00 -3.828257e+00 6.240912e+01
<VARIANCE> 13
 1.095224e+01 2.963384e+01 2.038998e+01 5.331438e+01 3.387597e+01 2.337024e+01 5.501269e+01 2.242035e+01 2.891462e+01 2.643535e+01 3.358513e+01 2.119963e+01 1.315207e+01
<GCONST> 6.624152e+01
<STATE> 6
<MEAN> 13
 -5.586266e+00 9.122211e-01 -9.773833e-01 -4.498203e+00 -5.307836e+00 -7.851315e+00 -9.384627e+00 -7.172923e+00 -4.728066e-02 -1.653028e+00 -5.075377e+00 -2.649277e+00 7.122175e+01
<VARIANCE> 13
 2.490532e+01 1.791582e+01 3.346128e+01 4.591177e+01 4.907339e+01 3.806313e+01 5.217522e+01 6.176834e+01 7.558259e+01 4.562320e+01 3.509950e+01 2.996435e+01 2.968524e+01
<GCONST> 7.143533e+01
<STATE> 7
<MEAN> 13
 1.149969e-01 -4.660737e+00 -4.094431e-02 -1.761403e+01 -3.880321e+00 3.564644e+00 -1.978152e+01 -1.767713e+00 -7.522528e+00 4.185198e+00 -9.700838e-01 -6.334472e+00 7.340501e+01
<VARIANCE> 13
 7.605257e+00 2.343160e+01 2.649225e+01 5.556200e+01 2.384834e+01 2.891936e+01 3.295678e+01 4.270440e+01 5.817723e+01 4.469318e+01 4.177012e+01 2.778559e+01 1.609715e+01
<GCONST> 6.785406e+01
<STATE> 8
<MEAN> 13
 3.309859e+00 -9.820956e-02 -2.580992e+00 -1.297491e+01 -1.203345e+01 8.607865e+00 -9.042605e+00 -5.267349e+00 -4.515655e+00 -4.317123e+00 1.176896e+00 -7.560089e+00 7.225608e+01
<VARIANCE> 13
 7.804006e+00 1.562406e+01 3.613493e+01 5.947563e+01 3.794651e+01 4.003266e+01 6.312131e+01 4.932996e+01 5.484890e+01 4.707991e+01 5.436719e+01 3.682529e+01 1.297880e+01
<GCONST> 6.975983e+01
<STATE> 9
<MEAN> 13
 -2.395166e-01 -1.322369e+00 -5.188340e+00 -1.278645e+01 -8.914178e+00 -7.633865e+00 -1.514185e+01 -8.713068e+00 -1.289678e+01 -7.426394e+00 -1.063486e+01 -4.611249e+00 6.220330e+01
<VARIANCE> 13
 1.398941e+01 3.689980e+01 5.988129e+01 5.552524e+01 6.125384e+01 6.661742e+01 5.979217e+01 8.037925e+01 7.323551e+01 5.286424e+01 4.854505e+01 6.328533e+01 7.004173e+01
<GCONST> 7.558038e+01
<STATE> 10
<MEAN> 13
 1.935713e+00 5.354975e+00 5.382674e+00 -5.838167e-01 -7.065059e+00 2.032647e+00 -6.524764e+00 -9.264178e+00 -6.696724e+00 -1.648107e-01 -6.237172e+00 -4.503742e+00 6.312448e+01
<VARIANCE> 13
 7.432469e+00 1.443091e+01 2.349272e+01 4.121821e+01 4.345544e+01 3.386050e+01 4.752413e+01 4.824219e+01 3.942345e+01 5.395023e+01 2.390101e+01 2.799586e+01 2.067995e+01
<GCONST> 6.767223e+01
<STATE> 11
<MEAN> 13
 -5.354873e+00 9.713196e-01 6.925604e-01 -3.114023e+00 -2.732893e+00 -8.688540e-01 -4.648284e+00 -4.334191e+00 -3.590702e+00 -1.778810e+00 -2.608730e+00 -2.623499e+00 5.834379e+01
<VARIANCE> 13
 2.032494e+01 3.108032e+01 2.936213e+01 4.321891e+01 3.178781e+01 3.569471e+01 4.619828e+01 2.894847e+01 2.715231e+01 2.531987e+01 2.344242e+01 2.032286e+01 3.769335e+01
<GCONST> 6.804819e+01
<TRANSP> 12
 0.000000e+00 1.000000e+00 0.000000e+00 0.000000e+00 0.000000e+00 0.000000e+00 0.000000e+00 0.000000e+00 0.000000e+00 0.000000e+00 0.000000e+00 0.000000e+00
 0.000000e+00 5.833018e-01 4.166982e-01 0.000000e+00 0.000000e+00 0.000000e+00 0.000000e+00 0.000000e+00 0.000000e+00 0.000000e+00 0.000000e+00 0.000000e+00
 0.000000e+00 0.000000e+00 8.238318e-01 1.761682e-01 0.000000e+00 0.000000e+00 0.000000e+00 0.000000e+00 0.000000e+00 0.000000e+00 0.000000e+00 0.000000e+00
 0.000000e+00 0.000000e+00 0.000000e+00 8.356529e-01 1.643471e-01 0.000000e+00 0.000000e+00 0.000000e+00 0.000000e+00 0.000000e+00 0.000000e+00 0.000000e+00
 0.000000e+00 0.000000e+00 0.000000e+00 0.000000e+00 7.988616e-01 2.011384e-01 0.000000e+00 0.000000e+00 0.000000e+00 0.000000e+00 0.000000e+00 0.000000e+00
 0.000000e+00 0.000000e+00 0.000000e+00 0.000000e+00 0.000000e+00 5.604601e-01 4.395399e-01 0.000000e+00 0.000000e+00 0.000000e+00 0.000000e+00 0.000000e+00
 0.000000e+00 0.000000e+00 0.000000e+00 0.000000e+00 0.000000e+00 0.000000e+00 7.755412e-01 2.244588e-01 0.000000e+00 0.000000e+00 0.000000e+00 0.000000e+00
 0.000000e+00 0.000000e+00 0.000000e+00 0.000000e+00 0.000000e+00 0.000000e+00 0.000000e+00 8.339017e-01 1.660983e-01 0.000000e+00 0.000000e+00 0.000000e+00
 0.000000e+00 0.000000e+00 0.000000e+00 0.000000e+00 0.000000e+00 0.000000e+00 0.000000e+00 0.000000e+00 8.101602e-01 1.898398e-01 0.000000e+00 0.000000e+00
 0.000000e+00 0.000000e+00 0.000000e+00 0.000000e+00 0.000000e+00 0.000000e+00 0.000000e+00 0.000000e+00 0.000000e+00 8.286895e-01 1.713105e-01 0.000000e+00
 0.000000e+00 0.000000e+00 0.000000e+00 0.000000e+00 0.000000e+00 0.000000e+00 0.000000e+00 0.000000e+00 0.000000e+00 0.000000e+00 7.306393e-01 2.693607e-01
 0.000000e+00 0.000000e+00 0.000000e+00 0.000000e+00 0.000000e+00 0.000000e+00 0.000000e+00 0.000000e+00 0.000000e+00 0.000000e+00 0.000000e+00 0.000000e+00
<ENDHMM>
