~o
<STREAMINFO> 1 13
<VECSIZE> 13<NULLD><MFCC_0><DIAGC>
~h "sil"
<BEGINHMM>
<NUMSTATES> 6
<STATE> 2
<MEAN> 13
 -7.298806e+00 -3.582407e+00 -5.947952e+00 -5.369950e+00 -1.307126e+00 -1.103937e+00 -2.972096e+00 -1.421761e+00 -4.359044e-01 1.013444e+00 -2.734437e+00 -4.347731e+00 5.632812e+01
<VARIANCE> 13
 1.831694e+01 1.425156e+01 1.868070e+01 2.896591e+01 3.274122e+01 2.711113e+01 2.534352e+01 2.552089e+01 2.479180e+01 2.797135e+01 2.211569e+01 2.346920e+01 1.851171e+01
<GCONST> 6.472339e+01
<STATE> 3
<MEAN> 13
 -9.202789e+00 -2.711093e+00 -3.002574e+00 -2.176585e+00 -1.642076e+00 -1.074335e+00 -2.786986e+00 -1.156002e+00 -1.394502e+00 -1.335950e+00 -1.709555e+00 -5.207300e-01 4.916924e+01
<VARIANCE> 13
 8.304580e+00 7.917810e+00 1.067532e+01 1.268325e+01 1.779131e+01 1.839178e+01 1.623849e+01 2.006957e+01 1.770957e+01 1.728551e+01 1.755450e+01 1.599247e+01 2.456493e+01
<GCONST> 5.912646e+01
<STATE> 4
<MEAN> 13
 -1.136272e+01 -5.577009e+00 -2.716400e+00 -3.198231e+00 -1.534693e+00 -2.748863e+00 -3.022868e+00 -1.334095e+00 -2.101068e+00 -2.436652e+00 -3.161957e-01 -6.077068e-01 5.906689e+01
<VARIANCE> 13
 2.195042e+01 3.119429e+01 3.246169e+01 2.898119e+01 4.650427e+01 4.039370e+01 3.540853e+01 4.140111e+01 3.195189e+01 2.953282e+01 2.891209e+01 2.352629e+01 2.595858e+01
<GCONST> 6.872522e+01
<STATE> 5
<MEAN> 13
 -9.006375e+00 -2.506714e+00 -3.371262e+00 -4.539994e+00 -2.871091e+00 -2.337227e+00 -3.978918e+00 -2.393327e+00 -1.553893e+00 -1.703203e+00 -2.454859e+00 -8.818352e-01 5.409069e+01
<VARIANCE> 13
 8.937166e+00 9.202982e+00 1.212043e+01 1.480541e+01 1.589656e+01 1.942297e+01 2.034981e+01 2.168261e+01 2.061319e+01 1.951043e+01 1.946216e+01 1.631984e+01 8.520620e+00
<GCONST> 5.921440e+01
<TRANSP> 6
 0.000000e+00 1.000000e+00 0.000000e+00 0.000000e+00 0.000000e+00 0.000000e+00
 0.000000e+00 8.573426e-01 1.426574e-01 0.000000e+00 0.000000e+00 0.000000e+00
 0.000000e+00 0.000000e+00 9.200192e-01 7.998078e-02 0.000000e+00 0.000000e+00
 0.000000e+00 0.000000e+00 0.000000e+00 8.658906e-01 1.341094e-01 0.000000e+00
 0.000000e+00 0.000000e+00 0.000000e+00 0.000000e+00 9.391916e-01 6.080839e-02
 0.000000e+00 0.000000e+00 0.000000e+00 0.000000e+00 0.000000e+00 0.000000e+00
<ENDHMM>
