~o
<STREAMINFO> 1 13
<VECSIZE> 13<NULLD><MFCC_0><DIAGC>
~h "rx"
<BEGINHMM>
<NUMSTATES> 6
<STATE> 2
<MEAN> 13
 -2.636527e+00 -1.561155e+00 8.597465e+00 -2.348233e+00 -1.288586e+01 -6.183092e+00 -1.562097e+01 -3.725178e+00 -6.440702e+00 -2.667408e+00 -2.815949e+00 -2.353874e+00 7.074209e+01
<VARIANCE> 13
 2.613092e+01 4.393711e+01 6.344462e+01 8.563860e+01 6.095684e+01 5.291515e+01 5.177557e+01 7.472572e+01 7.560246e+01 4.860936e+01 6.882767e+01 3.868645e+01 3.943852e+01
<GCONST> 7.564932e+01
<STATE> 3
<MEAN> 13
 -2.302950e+01 8.952122e+00 4.529206e+00 -4.009680e+00 -2.866775e+00 -4.097950e+00 -1.736125e+00 -4.272424e+00 -2.450062e+00 -1.114799e+00 -1.216000e+00 2.840486e-01 6.783440e+01
<VARIANCE> 13
 4.773153e+01 2.660077e+01 5.393422e+01 3.043742e+01 2.668624e+01 2.903312e+01 3.105394e+01 3.177478e+01 2.419737e+01 2.601422e+01 2.290970e+01 2.127009e+01 1.730013e+01
<GCONST> 6.747383e+01
<STATE> 4
<MEAN> 13
 -3.939276e+00 4.656032e+00 1.136219e+01 -7.870927e+00 -1.310850e+01 -1.061536e+00 -1.081065e+01 -7.416573e+00 -1.051312e+01 -8.098231e-01 -1.579562e+00 -4.927716e+00 7.008799e+01
<VARIANCE> 13
 1.735902e+01 2.239116e+01 4.989241e+01 8.450168e+01 3.325796e+01 6.316498e+01 6.490769e+01 7.450589e+01 4.554612e+01 7.495361e+01 7.704164e+01 4.426600e+01 1.204592e+01
<GCONST> 7.309459e+01
<STATE> 5
<MEAN> 13
 -1.844996e+00 2.351683e+00 3.891434e+00 -5.549415e-01 -4.811176e+00 -2.638707e+00 -7.031180e+00 -5.308136e+00 -5.290609e+00 -1.700961e+00 -4.585725e+00 -3.803113e+00 6.127572e+01
<VARIANCE> 13
 1.994123e+01 2.945370e+01 4.004318e+01 6.482424e+01 4.340179e+01 5.252965e+01 6.779551e+01 4.958181e+01 4.960186e+01 4.521411e+01 3.614252e+01 3.366903e+01 4.947854e+01
<GCONST> 7.270267e+01
<TRANSP> 6
 0.000000e+00 1.000000e+00 0.000000e+00 0.000000e+00 0.000000e+00 0.000000e+00
 0.000000e+00 9.321391e-01 6.786090e-02 0.000000e+00 0.000000e+00 0.000000e+00
 0.000000e+00 0.000000e+00 9.129094e-01 8.709055e-02 0.000000e+00 0.000000e+00
 0.000000e+00 0.000000e+00 0.000000e+00 8.758398e-01 1.241602e-01 0.000000e+00
 0.000000e+00 0.000000e+00 0.000000e+00 0.000000e+00 9.095090e-01 9.049104e-02
 0.000000e+00 0.000000e+00 0.000000e+00 0.000000e+00 0.000000e+00 0.000000e+00
<ENDHMM>
