~o
<STREAMINFO> 1 13
<VECSIZE> 13<NULLD><MFCC_0><DIAGC>
~h "dd"
<BEGINHMM>
<NUMSTATES> 6
<STATE> 2
<MEAN> 13
 -6.275081e+00 2.570541e+00 9.028988e+00 -5.321910e+00 -1.536739e+01 -2.405879e+00 -1.051759e+01 -7.026749e+00 -9.987419e+00 -3.250177e+00 -1.466317e+00 -3.517635e+00 6.935941e+01
<VARIANCE> 13
 2.670779e+01 2.460334e+01 7.888545e+01 9.316674e+01 6.791682e+01 4.905914e+01 9.082418e+01 5.775112e+01 5.940006e+01 5.975547e+01 1.035794e+02 4.888260e+01 3.592722e+01
<GCONST> 7.624482e+01
<STATE> 3
<MEAN> 13
 1.789704e+00 5.729805e+00 6.709026e+00 4.851196e+00 -1.176394e+01 -2.157036e+00 -7.234466e+00 -1.102376e+01 -8.706626e+00 3.063899e+00 -4.816088e+00 -5.775248e+00 6.543127e+01
<VARIANCE> 13
 1.030804e+01 1.730032e+01 1.922296e+01 3.227311e+01 4.502239e+01 3.753131e+01 3.978600e+01 3.567216e+01 4.313584e+01 3.995702e+01 3.649778e+01 3.542775e+01 1.766522e+01
<GCONST> 6.768512e+01
<STATE> 4
<MEAN> 13
 2.594481e-01 -1.036178e+00 -4.002052e+00 -1.215992e+01 -7.676009e+00 -1.631747e+00 -1.388659e+01 -6.056893e+00 -7.656473e+00 -3.678351e+00 -4.362252e+00 -5.237745e+00 6.853703e+01
<VARIANCE> 13
 1.554591e+01 3.037657e+01 4.415585e+01 5.221688e+01 5.032785e+01 1.007298e+02 6.510166e+01 8.093885e+01 1.013889e+02 7.621368e+01 8.176748e+01 4.804281e+01 7.255096e+01
<GCONST> 7.640641e+01
<STATE> 5
<MEAN> 13
 -4.742191e-01 3.727995e+00 3.800608e+00 -9.373839e-01 -5.396688e+00 1.692412e+00 -4.790806e+00 -7.531244e+00 -5.091036e+00 -2.378471e-01 -4.744266e+00 -3.433698e+00 6.329171e+01
<VARIANCE> 13
 2.620990e+01 2.141393e+01 3.152227e+01 3.355895e+01 4.222068e+01 4.025413e+01 4.910054e+01 4.812950e+01 4.511108e+01 4.299369e+01 2.717888e+01 2.515189e+01 4.169310e+01
<GCONST> 7.022036e+01
<TRANSP> 6
 0.000000e+00 1.000000e+00 0.000000e+00 0.000000e+00 0.000000e+00 0.000000e+00
 0.000000e+00 8.970385e-01 1.029615e-01 0.000000e+00 0.000000e+00 0.000000e+00
 0.000000e+00 0.000000e+00 8.926686e-01 1.073314e-01 0.000000e+00 0.000000e+00
 0.000000e+00 0.000000e+00 0.000000e+00 9.297058e-01 7.029423e-02 0.000000e+00
 0.000000e+00 0.000000e+00 0.000000e+00 0.000000e+00 9.075343e-01 9.246570e-02
 0.000000e+00 0.000000e+00 0.000000e+00 0.000000e+00 0.000000e+00 0.000000e+00
<ENDHMM>
