~o
<STREAMINFO> 1 13
<VECSIZE> 13<NULLD><MFCC_0><DIAGC>
~h "dd"
<BEGINHMM>
<NUMSTATES> 12
<STATE> 2
<MEAN> 13
 -1.126316e+01 1.978183e+00 1.199723e+00 -3.154548e+00 -6.477544e+00 -3.767255e+00 -3.796344e+00 -6.859812e+00 -4.805798e+00 -1.768274e+00 -1.165413e+00 -1.752601e+00 6.359433e+01
<VARIANCE> 13
 2.368744e+01 2.807327e+01 5.423407e+01 3.460612e+01 3.852861e+01 3.113775e+01 3.772858e+01 3.185081e+01 3.235271e+01 3.305412e+01 3.518367e+01 2.289193e+01 4.547894e+01
<GCONST> 6.959427e+01
<STATE> 3
<MEAN> 13
 -5.951568e+00 1.506444e+00 1.555219e+01 -7.807524e+00 -1.900739e+01 -1.159311e+00 -1.434020e+01 -6.777636e+00 -1.230876e+01 -2.892605e+00 1.863325e+00 -4.383611e+00 7.283579e+01
<VARIANCE> 13
 1.254097e+01 2.992832e+01 4.403756e+01 8.716335e+01 3.312545e+01 4.541545e+01 6.567332e+01 5.559813e+01 5.300458e+01 6.074952e+01 7.414658e+01 4.927560e+01 1.007884e+01
<GCONST> 7.218308e+01
<STATE> 4
<MEAN> 13
 1.672448e+00 3.670444e+00 5.343616e+00 2.750401e+00 -1.561003e+01 -3.724731e+00 -7.873412e+00 -1.212003e+01 -1.049199e+01 8.809296e-01 -3.492084e+00 -7.386073e+00 6.848994e+01
<VARIANCE> 13
 9.052559e+00 1.789211e+01 3.261909e+01 5.834264e+01 3.098729e+01 4.702760e+01 6.558636e+01 5.610982e+01 5.082163e+01 6.339538e+01 7.638116e+01 4.632730e+01 1.045230e+01
<GCONST> 7.062204e+01
<STATE> 5
<MEAN> 13
 3.779857e-01 5.258584e+00 9.336446e+00 1.221216e+00 -8.848731e+00 -7.834397e-01 -1.124408e+01 -1.062776e+01 -8.348498e+00 1.794454e+00 -4.523064e+00 -3.828041e+00 6.240876e+01
<VARIANCE> 13
 1.095267e+01 2.963560e+01 2.039085e+01 5.331424e+01 3.387469e+01 2.336992e+01 5.501223e+01 2.242025e+01 2.891279e+01 2.643496e+01 3.358558e+01 2.119926e+01 1.315210e+01
<GCONST> 6.624151e+01
<STATE> 6
<MEAN> 13
 -5.586170e+00 9.121018e-01 -9.775983e-01 -4.498360e+00 -5.307866e+00 -7.851234e+00 -9.384768e+00 -7.173044e+00 -4.701947e-02 -1.652932e+00 -5.075333e+00 -2.649272e+00 7.122210e+01
<VARIANCE> 13
 2.490614e+01 1.791506e+01 3.346044e+01 4.591141e+01 4.907182e+01 3.806402e+01 5.217556e+01 6.177185e+01 7.558369e+01 4.562374e+01 3.510043e+01 2.996496e+01 2.968200e+01
<GCONST> 7.143530e+01
<STATE> 7
<MEAN> 13
 1.150356e-01 -4.660713e+00 -4.102619e-02 -1.761411e+01 -3.880338e+00 3.564760e+00 -1.978155e+01 -1.767705e+00 -7.522539e+00 4.185200e+00 -9.700533e-01 -6.334453e+00 7.340498e+01
<VARIANCE> 13
 7.605257e+00 2.343175e+01 2.649293e+01 5.556188e+01 2.384819e+01 2.891979e+01 3.295684e+01 4.270472e+01 5.817649e+01 4.469296e+01 4.176984e+01 2.778595e+01 1.609706e+01
<GCONST> 6.785408e+01
<STATE> 8
<MEAN> 13
 3.309878e+00 -9.817634e-02 -2.580893e+00 -1.297481e+01 -1.203350e+01 8.607862e+00 -9.042488e+00 -5.267329e+00 -4.515698e+00 -4.317121e+00 1.176839e+00 -7.560076e+00 7.225601e+01
<VARIANCE> 13
 7.803947e+00 1.562400e+01 3.613504e+01 5.947448e+01 3.794671e+01 4.003266e+01 6.312019e+01 4.932926e+01 5.484867e+01 4.707974e+01 5.436734e+01 3.682508e+01 1.297903e+01
<GCONST> 6.975979e+01
<STATE> 9
<MEAN> 13
 -2.394972e-01 -1.322278e+00 -5.188403e+00 -1.278646e+01 -8.914072e+00 -7.633949e+00 -1.514180e+01 -8.713081e+00 -1.289685e+01 -7.426439e+00 -1.063488e+01 -4.611124e+00 6.220340e+01
<VARIANCE> 13
 1.398950e+01 3.689983e+01 5.988192e+01 5.552543e+01 6.125397e+01 6.661843e+01 5.979236e+01 8.038058e+01 7.323564e+01 5.286473e+01 4.854456e+01 6.328569e+01 7.004124e+01
<GCONST> 7.558044e+01
<STATE> 10
<MEAN> 13
 1.935689e+00 5.354991e+00 5.382710e+00 -5.837648e-01 -7.065051e+00 2.032629e+00 -6.524806e+00 -9.264171e+00 -6.696728e+00 -1.647452e-01 -6.237129e+00 -4.503712e+00 6.312445e+01
<VARIANCE> 13
 7.432513e+00 1.443091e+01 2.349271e+01 4.121811e+01 4.345544e+01 3.386053e+01 4.752387e+01 4.824197e+01 3.942322e+01 5.395018e+01 2.390102e+01 2.799591e+01 2.068002e+01
<GCONST> 6.767222e+01
<STATE> 11
<MEAN> 13
 -5.354865e+00 9.712654e-01 6.925446e-01 -3.114070e+00 -2.732950e+00 -8.689122e-01 -4.648298e+00 -4.334166e+00 -3.590688e+00 -1.778795e+00 -2.608690e+00 -2.623451e+00 5.834375e+01
<VARIANCE> 13
 2.032469e+01 3.108039e+01 2.936219e+01 4.321915e+01 3.178749e+01 3.569483e+01 4.619846e+01 2.894833e+01 2.715226e+01 2.531975e+01 2.344234e+01 2.032284e+01 3.769384e+01
<GCONST> 6.804818e+01
<TRANSP> 12
 0.000000e+00 1.000000e+00 0.000000e+00 0.000000e+00 0.000000e+00 0.000000e+00 0.000000e+00 0.000000e+00 0.000000e+00 0.000000e+00 0.000000e+00 0.000000e+00
 0.000000e+00 5.833026e-01 4.166975e-01 0.000000e+00 0.000000e+00 0.000000e+00 0.000000e+00 0.000000e+00 0.000000e+00 0.000000e+00 0.000000e+00 0.000000e+00
 0.000000e+00 0.000000e+00 8.238389e-01 1.761611e-01 0.000000e+00 0.000000e+00 0.000000e+00 0.000000e+00 0.000000e+00 0.000000e+00 0.000000e+00 0.000000e+00
 0.000000e+00 0.000000e+00 0.000000e+00 8.356606e-01 1.643394e-01 0.000000e+00 0.000000e+00 0.000000e+00 0.000000e+00 0.000000e+00 0.000000e+00 0.000000e+00
 0.000000e+00 0.000000e+00 0.000000e+00 0.000000e+00 7.988447e-01 2.011553e-01 0.000000e+00 0.000000e+00 0.000000e+00 0.000000e+00 0.000000e+00 0.000000e+00
 0.000000e+00 0.000000e+00 0.000000e+00 0.000000e+00 0.000000e+00 5.604514e-01 4.395486e-01 0.000000e+00 0.000000e+00 0.000000e+00 0.000000e+00 0.000000e+00
 0.000000e+00 0.000000e+00 0.000000e+00 0.000000e+00 0.000000e+00 0.000000e+00 7.755429e-01 2.244571e-01 0.000000e+00 0.000000e+00 0.000000e+00 0.000000e+00
 0.000000e+00 0.000000e+00 0.000000e+00 0.000000e+00 0.000000e+00 0.000000e+00 0.000000e+00 8.339002e-01 1.660998e-01 0.000000e+00 0.000000e+00 0.000000e+00
 0.000000e+00 0.000000e+00 0.000000e+00 0.000000e+00 0.000000e+00 0.000000e+00 0.000000e+00 0.000000e+00 8.101604e-01 1.898396e-01 0.000000e+00 0.000000e+00
 0.000000e+00 0.000000e+00 0.000000e+00 0.000000e+00 0.000000e+00 0.000000e+00 0.000000e+00 0.000000e+00 0.000000e+00 8.286889e-01 1.713111e-01 0.000000e+00
 0.000000e+00 0.000000e+00 0.000000e+00 0.000000e+00 0.000000e+00 0.000000e+00 0.000000e+00 0.000000e+00 0.000000e+00 0.000000e+00 7.306384e-01 2.693616e-01
 0.000000e+00 0.000000e+00 0.000000e+00 0.000000e+00 0.000000e+00 0.000000e+00 0.000000e+00 0.000000e+00 0.000000e+00 0.000000e+00 0.000000e+00 0.000000e+00
<ENDHMM>
