~o
<STREAMINFO> 1 13
<VECSIZE> 13<NULLD><MFCC_0><DIAGC>
~h "rx"
<BEGINHMM>
<NUMSTATES> 12
<STATE> 2
<MEAN> 13
 1.929665e+00 -1.782271e-01 1.282201e+00 1.918492e+00 -5.005088e+00 -5.751848e+00 -1.712291e+01 -9.437394e+00 -3.249600e+00 -7.974994e-01 -5.152949e+00 -3.613171e+00 6.498650e+01
<VARIANCE> 13
 1.680052e+01 3.247123e+01 3.268693e+01 4.579023e+01 5.172615e+01 7.020313e+01 7.821609e+01 6.731525e+01 5.472899e+01 3.854226e+01 3.779712e+01 3.265001e+01 3.940074e+01
<GCONST> 7.271745e+01
<STATE> 3
<MEAN> 13
 -6.120846e-01 -6.437513e+00 9.291277e+00 -1.120702e+00 -1.564589e+01 -6.146093e+00 -1.889936e+01 1.603190e+00 -3.540042e+00 -5.224716e+00 8.100280e-01 -2.560095e+00 7.400062e+01
<VARIANCE> 13
 9.946591e+00 4.455066e+01 4.205577e+01 4.460793e+01 2.606023e+01 3.900616e+01 5.957589e+01 4.460621e+01 4.974404e+01 4.150797e+01 3.973439e+01 3.829254e+01 1.123194e+01
<GCONST> 6.971143e+01
<STATE> 4
<MEAN> 13
 -7.248211e+00 -8.038635e-01 1.432109e+01 -8.643373e+00 -1.636119e+01 -6.997383e+00 -1.477595e+01 -4.100119e+00 -1.274176e+01 -1.505748e+00 -2.778492e+00 -2.375542e+00 7.203311e+01
<VARIANCE> 13
 1.146982e+01 5.397433e+01 6.462749e+01 8.605119e+01 5.607833e+01 4.526486e+01 4.099506e+01 6.804501e+01 4.374251e+01 4.190401e+01 9.382920e+01 4.301929e+01 3.591354e+01
<GCONST> 7.411505e+01
<STATE> 5
<MEAN> 13
 -1.714341e+01 1.241429e+01 1.023578e+01 5.214594e-02 -1.872335e+00 -5.395738e+00 -2.022985e+00 -4.197423e+00 -3.497974e+00 -1.568680e+00 -8.693359e-01 9.411837e-01 6.929247e+01
<VARIANCE> 13
 2.990965e+01 1.408393e+01 2.482413e+01 1.946407e+01 3.446698e+01 4.335851e+01 3.390590e+01 3.574936e+01 2.576146e+01 2.899260e+01 2.264128e+01 2.167410e+01 1.247355e+01
<GCONST> 6.586105e+01
<STATE> 6
<MEAN> 13
 -2.777620e+01 7.729247e+00 5.388067e-01 -7.045791e+00 -4.355380e+00 -6.642877e+00 -2.939354e+00 -3.892487e+00 -2.690157e+00 5.727528e-02 -9.880263e-01 1.951199e-01 6.823198e+01
<VARIANCE> 13
 1.014404e+01 2.255524e+01 2.978088e+01 2.804424e+01 2.239947e+01 4.425804e+01 3.481716e+01 2.716990e+01 2.574856e+01 2.625054e+01 2.183555e+01 1.810984e+01 1.744090e+01
<GCONST> 6.515907e+01
<STATE> 7
<MEAN> 13
 -1.375813e+01 9.659987e+00 1.076641e+01 -2.711932e+00 -6.276044e+00 -4.800423e+00 -4.713778e+00 -7.120996e+00 -5.355319e+00 -2.739474e+00 -1.826233e+00 -1.335228e+00 6.762213e+01
<VARIANCE> 13
 3.094602e+01 1.985525e+01 2.382399e+01 1.573274e+01 3.515006e+01 4.102961e+01 2.669956e+01 3.069699e+01 2.632473e+01 2.533647e+01 2.304271e+01 2.054723e+01 1.934837e+01
<GCONST> 6.584773e+01
<STATE> 8
<MEAN> 13
 -5.499183e+00 3.305090e+00 1.591307e+01 -9.193093e+00 -1.493154e+01 5.038947e-01 -1.041305e+01 -5.560921e+00 -1.027757e+01 -4.286439e-02 2.588634e+00 -5.344430e+00 7.209915e+01
<VARIANCE> 13
 1.145310e+01 2.067331e+01 2.109305e+01 3.790610e+01 4.085692e+01 5.752929e+01 3.912696e+01 4.778740e+01 3.888958e+01 5.076685e+01 3.340543e+01 3.421934e+01 1.150317e+01
<GCONST> 6.841160e+01
<STATE> 9
<MEAN> 13
 -3.625560e+00 2.925917e+00 4.144625e+00 -1.241768e+01 -1.167627e+01 -6.560907e+00 -1.593979e+01 -1.082864e+01 -1.020629e+01 -5.166397e+00 -8.987608e+00 -4.254267e+00 6.500414e+01
<VARIANCE> 13
 1.633378e+01 2.828218e+01 4.059784e+01 1.000171e+02 3.662125e+01 7.696069e+01 7.481950e+01 6.731835e+01 4.235784e+01 7.129650e+01 6.563474e+01 5.708659e+01 4.694227e+01
<GCONST> 7.489596e+01
<STATE> 10
<MEAN> 13
 9.396291e-01 3.756820e+00 7.078454e+00 2.152662e+00 -7.344100e+00 -3.344992e+00 -6.012367e+00 -6.701372e+00 -7.467196e+00 2.315960e-01 -2.569878e+00 -6.011436e+00 6.627707e+01
<VARIANCE> 13
 8.013498e+00 2.282891e+01 2.891102e+01 3.587822e+01 3.466259e+01 3.632644e+01 4.188122e+01 4.674113e+01 5.340559e+01 4.841515e+01 4.490867e+01 3.647235e+01 2.255667e+01
<GCONST> 6.913852e+01
<STATE> 11
<MEAN> 13
 -5.181601e+00 1.388457e+00 3.627199e+00 -1.338424e+00 -2.816473e+00 -8.403103e-01 -4.745322e+00 -3.108124e+00 -2.641732e+00 -1.540791e+00 -3.402735e+00 -3.124992e+00 5.771795e+01
<VARIANCE> 13
 1.711296e+01 2.393914e+01 4.048829e+01 3.358419e+01 3.499877e+01 3.508178e+01 4.203517e+01 3.478608e+01 3.361347e+01 2.596314e+01 2.050054e+01 2.136688e+01 3.102638e+01
<GCONST> 6.781228e+01
<TRANSP> 12
 0.000000e+00 1.000000e+00 0.000000e+00 0.000000e+00 0.000000e+00 0.000000e+00 0.000000e+00 0.000000e+00 0.000000e+00 0.000000e+00 0.000000e+00 0.000000e+00
 0.000000e+00 7.913405e-01 2.086595e-01 0.000000e+00 0.000000e+00 0.000000e+00 0.000000e+00 0.000000e+00 0.000000e+00 0.000000e+00 0.000000e+00 0.000000e+00
 0.000000e+00 0.000000e+00 8.189169e-01 1.810832e-01 0.000000e+00 0.000000e+00 0.000000e+00 0.000000e+00 0.000000e+00 0.000000e+00 0.000000e+00 0.000000e+00
 0.000000e+00 0.000000e+00 0.000000e+00 8.151008e-01 1.848992e-01 0.000000e+00 0.000000e+00 0.000000e+00 0.000000e+00 0.000000e+00 0.000000e+00 0.000000e+00
 0.000000e+00 0.000000e+00 0.000000e+00 0.000000e+00 7.042605e-01 2.957394e-01 0.000000e+00 0.000000e+00 0.000000e+00 0.000000e+00 0.000000e+00 0.000000e+00
 0.000000e+00 0.000000e+00 0.000000e+00 0.000000e+00 0.000000e+00 8.635339e-01 1.364661e-01 0.000000e+00 0.000000e+00 0.000000e+00 0.000000e+00 0.000000e+00
 0.000000e+00 0.000000e+00 0.000000e+00 0.000000e+00 0.000000e+00 0.000000e+00 4.808263e-01 5.191737e-01 0.000000e+00 0.000000e+00 0.000000e+00 0.000000e+00
 0.000000e+00 0.000000e+00 0.000000e+00 0.000000e+00 0.000000e+00 0.000000e+00 0.000000e+00 8.203624e-01 1.796376e-01 0.000000e+00 0.000000e+00 0.000000e+00
 0.000000e+00 0.000000e+00 0.000000e+00 0.000000e+00 0.000000e+00 0.000000e+00 0.000000e+00 0.000000e+00 7.185518e-01 2.814483e-01 0.000000e+00 0.000000e+00
 0.000000e+00 0.000000e+00 0.000000e+00 0.000000e+00 0.000000e+00 0.000000e+00 0.000000e+00 0.000000e+00 0.000000e+00 8.226172e-01 1.773828e-01 0.000000e+00
 0.000000e+00 0.000000e+00 0.000000e+00 0.000000e+00 0.000000e+00 0.000000e+00 0.000000e+00 0.000000e+00 0.000000e+00 0.000000e+00 8.084417e-01 1.915583e-01
 0.000000e+00 0.000000e+00 0.000000e+00 0.000000e+00 0.000000e+00 0.000000e+00 0.000000e+00 0.000000e+00 0.000000e+00 0.000000e+00 0.000000e+00 0.000000e+00
<ENDHMM>
