~o
<STREAMINFO> 1 13
<VECSIZE> 13<NULLD><MFCC_0><DIAGC>
~h "sil"
<BEGINHMM>
<NUMSTATES> 6
<STATE> 2
<MEAN> 13
 -7.298779e+00 -3.582392e+00 -5.947919e+00 -5.369813e+00 -1.307065e+00 -1.103919e+00 -2.972037e+00 -1.421745e+00 -4.358964e-01 1.013444e+00 -2.734427e+00 -4.347738e+00 5.632812e+01
<VARIANCE> 13
 1.831722e+01 1.425173e+01 1.868080e+01 2.896539e+01 3.274165e+01 2.711129e+01 2.534375e+01 2.552117e+01 2.479210e+01 2.797155e+01 2.211584e+01 2.346940e+01 1.851199e+01
<GCONST> 6.472348e+01
<STATE> 3
<MEAN> 13
 -9.202759e+00 -2.711078e+00 -3.002559e+00 -2.176601e+00 -1.642082e+00 -1.074332e+00 -2.786981e+00 -1.155993e+00 -1.394474e+00 -1.335966e+00 -1.709544e+00 -5.207188e-01 4.916916e+01
<VARIANCE> 13
 8.304496e+00 7.917726e+00 1.067525e+01 1.268324e+01 1.779127e+01 1.839164e+01 1.623839e+01 2.006944e+01 1.770946e+01 1.728544e+01 1.755437e+01 1.599237e+01 2.456491e+01
<GCONST> 5.912639e+01
<STATE> 4
<MEAN> 13
 -1.136277e+01 -5.577086e+00 -2.716455e+00 -3.198210e+00 -1.534678e+00 -2.748897e+00 -3.022886e+00 -1.334016e+00 -2.101083e+00 -2.436650e+00 -3.162021e-01 -6.076674e-01 5.906684e+01
<VARIANCE> 13
 2.195001e+01 3.119399e+01 3.246108e+01 2.898068e+01 4.650391e+01 4.039337e+01 3.540834e+01 4.140083e+01 3.195190e+01 2.953286e+01 2.891208e+01 2.352633e+01 2.595848e+01
<GCONST> 6.872514e+01
<STATE> 5
<MEAN> 13
 -9.006395e+00 -2.506704e+00 -3.371257e+00 -4.539963e+00 -2.871096e+00 -2.337241e+00 -3.978918e+00 -2.393332e+00 -1.553884e+00 -1.703208e+00 -2.454832e+00 -8.818122e-01 5.409068e+01
<VARIANCE> 13
 8.937148e+00 9.203032e+00 1.212042e+01 1.480544e+01 1.589647e+01 1.942294e+01 2.034983e+01 2.168263e+01 2.061318e+01 1.951037e+01 1.946215e+01 1.631980e+01 8.520705e+00
<GCONST> 5.921440e+01
<TRANSP> 6
 0.000000e+00 1.000000e+00 0.000000e+00 0.000000e+00 0.000000e+00 0.000000e+00
 0.000000e+00 8.573439e-01 1.426561e-01 0.000000e+00 0.000000e+00 0.000000e+00
 0.000000e+00 0.000000e+00 9.200202e-01 7.997982e-02 0.000000e+00 0.000000e+00
 0.000000e+00 0.000000e+00 0.000000e+00 8.658924e-01 1.341076e-01 0.000000e+00
 0.000000e+00 0.000000e+00 0.000000e+00 0.000000e+00 9.391909e-01 6.080911e-02
 0.000000e+00 0.000000e+00 0.000000e+00 0.000000e+00 0.000000e+00 0.000000e+00
<ENDHMM>
