~o
<STREAMINFO> 1 13
<VECSIZE> 13<NULLD><MFCC_0><DIAGC>
~h "dd"
<BEGINHMM>
<NUMSTATES> 6
<STATE> 2
<MEAN> 13
 -6.275066e+00 2.570589e+00 9.028994e+00 -5.321888e+00 -1.536737e+01 -2.405864e+00 -1.051756e+01 -7.026819e+00 -9.987353e+00 -3.250230e+00 -1.466321e+00 -3.517621e+00 6.935939e+01
<VARIANCE> 13
 2.670773e+01 2.460347e+01 7.888461e+01 9.316668e+01 6.791657e+01 4.905883e+01 9.082497e+01 5.775142e+01 5.939983e+01 5.975559e+01 1.035804e+02 4.888219e+01 3.592712e+01
<GCONST> 7.624481e+01
<STATE> 3
<MEAN> 13
 1.789709e+00 5.729807e+00 6.709019e+00 4.851199e+00 -1.176393e+01 -2.157058e+00 -7.234416e+00 -1.102378e+01 -8.706600e+00 3.063928e+00 -4.816092e+00 -5.775250e+00 6.543128e+01
<VARIANCE> 13
 1.030801e+01 1.730029e+01 1.922282e+01 3.227285e+01 4.502229e+01 3.753098e+01 3.978585e+01 3.567204e+01 4.313588e+01 3.995683e+01 3.649794e+01 3.542780e+01 1.766521e+01
<GCONST> 6.768508e+01
<STATE> 4
<MEAN> 13
 2.594521e-01 -1.036161e+00 -4.002041e+00 -1.215988e+01 -7.675971e+00 -1.631807e+00 -1.388655e+01 -6.056978e+00 -7.656411e+00 -3.678364e+00 -4.362302e+00 -5.237700e+00 6.853703e+01
<VARIANCE> 13
 1.554601e+01 3.037665e+01 4.415553e+01 5.221674e+01 5.032738e+01 1.007307e+02 6.510146e+01 8.093944e+01 1.013896e+02 7.621439e+01 8.176830e+01 4.804308e+01 7.255075e+01
<GCONST> 7.640645e+01
<STATE> 5
<MEAN> 13
 -4.742420e-01 3.727978e+00 3.800625e+00 -9.373903e-01 -5.396693e+00 1.692436e+00 -4.790754e+00 -7.531241e+00 -5.090973e+00 -2.378287e-01 -4.744274e+00 -3.433677e+00 6.329176e+01
<VARIANCE> 13
 2.621004e+01 2.141392e+01 3.152232e+01 3.355888e+01 4.222073e+01 4.025425e+01 4.910052e+01 4.812945e+01 4.511140e+01 4.299389e+01 2.717892e+01 2.515190e+01 4.169305e+01
<GCONST> 7.022038e+01
<TRANSP> 6
 0.000000e+00 1.000000e+00 0.000000e+00 0.000000e+00 0.000000e+00 0.000000e+00
 0.000000e+00 8.970383e-01 1.029617e-01 0.000000e+00 0.000000e+00 0.000000e+00
 0.000000e+00 0.000000e+00 8.926684e-01 1.073316e-01 0.000000e+00 0.000000e+00
 0.000000e+00 0.000000e+00 0.000000e+00 9.297055e-01 7.029452e-02 0.000000e+00
 0.000000e+00 0.000000e+00 0.000000e+00 0.000000e+00 9.075345e-01 9.246545e-02
 0.000000e+00 0.000000e+00 0.000000e+00 0.000000e+00 0.000000e+00 0.000000e+00
<ENDHMM>
