~o
<STREAMINFO> 1 13
<VECSIZE> 13<NULLD><MFCC_0><DIAGC>
~h "rx"
<BEGINHMM>
<NUMSTATES> 12
<STATE> 2
<MEAN> 13
 1.919238e+00 -1.178346e-01 1.289705e+00 1.921359e+00 -4.932074e+00 -5.754621e+00 -1.708629e+01 -9.473961e+00 -3.275543e+00 -7.925742e-01 -5.175837e+00 -3.606488e+00 6.493146e+01
<VARIANCE> 13
 1.684574e+01 3.207560e+01 3.260848e+01 4.573923e+01 5.110012e+01 7.020575e+01 7.815600e+01 6.742268e+01 5.469979e+01 3.852448e+01 3.778905e+01 3.243539e+01 3.926561e+01
<GCONST> 7.268181e+01
<STATE> 3
<MEAN> 13
 -5.693047e-01 -6.457395e+00 9.198355e+00 -1.083316e+00 -1.562511e+01 -6.136756e+00 -1.893057e+01 1.549979e+00 -3.476412e+00 -5.209062e+00 7.732300e-01 -2.569173e+00 7.398077e+01
<VARIANCE> 13
 1.001697e+01 4.443095e+01 4.252404e+01 4.463017e+01 2.624439e+01 3.923673e+01 5.977267e+01 4.491603e+01 4.960209e+01 4.160178e+01 3.973226e+01 3.846717e+01 1.125442e+01
<GCONST> 6.975641e+01
<STATE> 4
<MEAN> 13
 -7.230998e+00 -8.233779e-01 1.432801e+01 -8.629711e+00 -1.636961e+01 -6.996457e+00 -1.478649e+01 -4.064976e+00 -1.274053e+01 -1.510336e+00 -2.747817e+00 -2.381807e+00 7.204704e+01
<VARIANCE> 13
 1.148036e+01 5.390367e+01 6.442880e+01 8.592351e+01 5.591498e+01 4.522296e+01 4.094245e+01 6.809736e+01 4.364929e+01 4.188167e+01 9.377681e+01 4.298955e+01 3.584036e+01
<GCONST> 7.409978e+01
<STATE> 5
<MEAN> 13
 -1.713614e+01 1.241187e+01 1.023904e+01 5.145198e-02 -1.878910e+00 -5.399621e+00 -2.028797e+00 -4.199512e+00 -3.501279e+00 -1.570882e+00 -8.686624e-01 9.407244e-01 6.929321e+01
<VARIANCE> 13
 2.993363e+01 1.409271e+01 2.484108e+01 1.947350e+01 3.450408e+01 4.336987e+01 3.393076e+01 3.575357e+01 2.577109e+01 2.900493e+01 2.264245e+01 2.168620e+01 1.248302e+01
<GCONST> 6.586800e+01
<STATE> 6
<MEAN> 13
 -2.777594e+01 7.729610e+00 5.391617e-01 -7.045291e+00 -4.354919e+00 -6.642409e+00 -2.939092e+00 -3.892580e+00 -2.690107e+00 5.706054e-02 -9.882671e-01 1.950186e-01 6.823196e+01
<VARIANCE> 13
 1.014403e+01 2.255580e+01 2.978101e+01 2.804647e+01 2.240163e+01 4.425755e+01 3.481918e+01 2.717326e+01 2.574917e+01 2.625141e+01 2.183718e+01 1.811023e+01 1.744144e+01
<GCONST> 6.515964e+01
<STATE> 7
<MEAN> 13
 -1.375855e+01 9.660365e+00 1.076643e+01 -2.711868e+00 -6.275599e+00 -4.800157e+00 -4.713459e+00 -7.120993e+00 -5.355144e+00 -2.739249e+00 -1.826199e+00 -1.335181e+00 6.762225e+01
<VARIANCE> 13
 3.094597e+01 1.985530e+01 2.382384e+01 1.573278e+01 3.515190e+01 4.102904e+01 2.670162e+01 3.069656e+01 2.632320e+01 2.533676e+01 2.304348e+01 2.054680e+01 1.934658e+01
<GCONST> 6.584769e+01
<STATE> 8
<MEAN> 13
 -5.499156e+00 3.305111e+00 1.591302e+01 -9.193040e+00 -1.493151e+01 5.038182e-01 -1.041301e+01 -5.560896e+00 -1.027756e+01 -4.289404e-02 2.588640e+00 -5.344460e+00 7.209909e+01
<VARIANCE> 13
 1.145334e+01 2.067321e+01 2.109286e+01 3.790588e+01 4.085717e+01 5.752956e+01 3.912680e+01 4.778773e+01 3.888980e+01 5.076644e+01 3.340549e+01 3.421988e+01 1.150286e+01
<GCONST> 6.841161e+01
<STATE> 9
<MEAN> 13
 -3.625387e+00 2.925836e+00 4.144433e+00 -1.241732e+01 -1.167622e+01 -6.560812e+00 -1.593940e+01 -1.082887e+01 -1.020630e+01 -5.166443e+00 -8.987530e+00 -4.254021e+00 6.500444e+01
<VARIANCE> 13
 1.633394e+01 2.828175e+01 4.059704e+01 1.000151e+02 3.662061e+01 7.695960e+01 7.482012e+01 6.731775e+01 4.235740e+01 7.129551e+01 6.563365e+01 5.708795e+01 4.694044e+01
<GCONST> 7.489582e+01
<STATE> 10
<MEAN> 13
 9.395712e-01 3.757049e+00 7.078539e+00 2.152994e+00 -7.343678e+00 -3.344755e+00 -6.012216e+00 -6.701198e+00 -7.467123e+00 2.315047e-01 -2.569929e+00 -6.011559e+00 6.627669e+01
<VARIANCE> 13
 8.013680e+00 2.282888e+01 2.891053e+01 3.587586e+01 3.466469e+01 3.632839e+01 4.188216e+01 4.674031e+01 5.340508e+01 4.841449e+01 4.490822e+01 3.647061e+01 2.255798e+01
<GCONST> 6.913856e+01
<STATE> 11
<MEAN> 13
 -5.181813e+00 1.388124e+00 3.626881e+00 -1.338707e+00 -2.816600e+00 -8.404841e-01 -4.745382e+00 -3.108060e+00 -2.641528e+00 -1.540816e+00 -3.402669e+00 -3.124942e+00 5.771790e+01
<VARIANCE> 13
 1.711246e+01 2.393829e+01 4.048814e+01 3.358305e+01 3.499891e+01 3.508090e+01 4.203517e+01 3.478632e+01 3.361297e+01 2.596284e+01 2.050044e+01 2.136666e+01 3.102669e+01
<GCONST> 6.781212e+01
<TRANSP> 12
 0.000000e+00 1.000000e+00 0.000000e+00 0.000000e+00 0.000000e+00 0.000000e+00 0.000000e+00 0.000000e+00 0.000000e+00 0.000000e+00 0.000000e+00 0.000000e+00
 0.000000e+00 7.896181e-01 2.103819e-01 0.000000e+00 0.000000e+00 0.000000e+00 0.000000e+00 0.000000e+00 0.000000e+00 0.000000e+00 0.000000e+00 0.000000e+00
 0.000000e+00 0.000000e+00 8.193496e-01 1.806504e-01 0.000000e+00 0.000000e+00 0.000000e+00 0.000000e+00 0.000000e+00 0.000000e+00 0.000000e+00 0.000000e+00
 0.000000e+00 0.000000e+00 0.000000e+00 8.158925e-01 1.841076e-01 0.000000e+00 0.000000e+00 0.000000e+00 0.000000e+00 0.000000e+00 0.000000e+00 0.000000e+00
 0.000000e+00 0.000000e+00 0.000000e+00 0.000000e+00 7.044339e-01 2.955661e-01 0.000000e+00 0.000000e+00 0.000000e+00 0.000000e+00 0.000000e+00 0.000000e+00
 0.000000e+00 0.000000e+00 0.000000e+00 0.000000e+00 0.000000e+00 8.635461e-01 1.364539e-01 0.000000e+00 0.000000e+00 0.000000e+00 0.000000e+00 0.000000e+00
 0.000000e+00 0.000000e+00 0.000000e+00 0.000000e+00 0.000000e+00 0.000000e+00 4.808542e-01 5.191458e-01 0.000000e+00 0.000000e+00 0.000000e+00 0.000000e+00
 0.000000e+00 0.000000e+00 0.000000e+00 0.000000e+00 0.000000e+00 0.000000e+00 0.000000e+00 8.203660e-01 1.796340e-01 0.000000e+00 0.000000e+00 0.000000e+00
 0.000000e+00 0.000000e+00 0.000000e+00 0.000000e+00 0.000000e+00 0.000000e+00 0.000000e+00 0.000000e+00 7.185580e-01 2.814420e-01 0.000000e+00 0.000000e+00
 0.000000e+00 0.000000e+00 0.000000e+00 0.000000e+00 0.000000e+00 0.000000e+00 0.000000e+00 0.000000e+00 0.000000e+00 8.226203e-01 1.773797e-01 0.000000e+00
 0.000000e+00 0.000000e+00 0.000000e+00 0.000000e+00 0.000000e+00 0.000000e+00 0.000000e+00 0.000000e+00 0.000000e+00 0.000000e+00 8.084335e-01 1.915666e-01
 0.000000e+00 0.000000e+00 0.000000e+00 0.000000e+00 0.000000e+00 0.000000e+00 0.000000e+00 0.000000e+00 0.000000e+00 0.000000e+00 0.000000e+00 0.000000e+00
<ENDHMM>
