~o
<STREAMINFO> 1 13
<VECSIZE> 13<NULLD><MFCC_0><DIAGC>
~h "sil"
<BEGINHMM>
<NUMSTATES> 12
<STATE> 2
<MEAN> 13
 -7.597650e+00 -2.326287e+00 -4.153156e+00 -3.172018e+00 1.353892e+00 -8.119210e-01 -1.363302e+00 -4.831225e-01 -9.489184e-01 1.999230e+00 -2.437145e+00 -4.798305e+00 5.804934e+01
<VARIANCE> 13
 3.227257e+01 1.951839e+01 1.662181e+01 2.343586e+01 3.811804e+01 3.053113e+01 2.984118e+01 2.826130e+01 2.755593e+01 2.903266e+01 2.090087e+01 2.684922e+01 2.187879e+01
<GCONST> 6.619996e+01
<STATE> 3
<MEAN> 13
 -7.105986e+00 -4.133158e+00 -6.330694e+00 -6.524990e+00 -3.643771e+00 -1.612878e+00 -3.502064e+00 -2.428733e+00 -5.664474e-01 -2.972237e-01 -2.083072e+00 -2.877618e+00 5.443637e+01
<VARIANCE> 13
 7.987534e+00 1.016735e+01 2.067157e+01 2.132280e+01 2.089688e+01 2.349479e+01 2.004177e+01 2.311680e+01 2.468065e+01 2.394630e+01 2.061293e+01 2.151760e+01 1.232587e+01
<GCONST> 6.170108e+01
<STATE> 4
<MEAN> 13
 -8.848521e+00 -3.006454e+00 -2.616535e+00 -1.897030e+00 -9.432674e-01 -1.621124e+00 -2.256353e+00 -1.205609e+00 -1.048585e+00 -1.492928e+00 -2.240015e+00 -7.940829e-01 5.257803e+01
<VARIANCE> 13
 5.250041e+00 7.844096e+00 9.378269e+00 1.133250e+01 1.671873e+01 2.085342e+01 1.817491e+01 1.871815e+01 1.685705e+01 1.624642e+01 1.673840e+01 1.487766e+01 8.818213e+00
<GCONST> 5.726707e+01
<STATE> 5
<MEAN> 13
 -1.228448e+01 -7.209072e+00 -3.722251e+00 -2.285299e+00 1.071001e-01 -3.184751e+00 -2.285400e+00 -2.554871e-01 -1.920992e+00 -2.148245e+00 -7.448991e-01 6.262442e-02 5.887260e+01
<VARIANCE> 13
 1.454562e+01 2.102171e+01 1.963509e+01 1.723689e+01 4.052085e+01 4.271236e+01 3.257307e+01 3.510323e+01 3.200629e+01 2.665850e+01 2.784900e+01 2.250531e+01 2.502139e+01
<GCONST> 6.634702e+01
<STATE> 6
<MEAN> 13
 -8.416678e+00 -3.203299e+00 -3.641450e+00 -5.069139e+00 -3.184252e+00 -2.430127e+00 -4.479282e+00 -2.713666e+00 -1.847404e+00 -1.770877e+00 -2.773525e+00 -1.002723e+00 5.414796e+01
<VARIANCE> 13
 4.162144e+00 7.350287e+00 8.277943e+00 1.186582e+01 1.388556e+01 1.647939e+01 1.664635e+01 1.949191e+01 2.052465e+01 1.943038e+01 1.719426e+01 1.574751e+01 4.311524e+00
<GCONST> 5.616659e+01
<STATE> 7
<MEAN> 13
 -1.216694e+01 -2.502455e+00 -3.939034e+00 -5.020508e+00 -2.749791e+00 -2.815345e+00 -4.859842e+00 -2.234408e+00 -2.347455e+00 -2.224366e+00 -2.074703e+00 -1.890454e+00 5.551398e+01
<VARIANCE> 13
 1.103691e+01 8.491041e+00 9.667198e+00 1.516210e+01 1.280860e+01 1.958582e+01 1.722676e+01 2.540277e+01 1.942186e+01 2.181763e+01 1.926425e+01 1.520471e+01 1.010359e+01
<GCONST> 5.906831e+01
<STATE> 8
<MEAN> 13
 -7.309523e+00 -2.307434e+00 -1.849918e+00 -5.919924e+00 -5.542560e+00 -2.496232e+00 -5.556562e+00 -3.372714e+00 -1.136105e+00 -2.213171e+00 -1.607531e+00 -2.155252e+00 5.767604e+01
<VARIANCE> 13
 1.568622e+01 2.604499e+01 5.597395e+01 5.261335e+01 2.722445e+01 2.967272e+01 2.829155e+01 4.100669e+01 2.638176e+01 3.152666e+01 3.870581e+01 2.370651e+01 3.099096e+01
<GCONST> 6.862245e+01
<STATE> 9
<MEAN> 13
 -1.057257e+01 -1.746971e+00 -3.785321e+00 -1.654305e+00 -5.624338e-01 1.861491e-01 -2.335606e+00 -4.054849e-01 -1.291612e+00 -1.363843e+00 -1.624781e+00 2.560068e-01 4.579678e+01
<VARIANCE> 13
 1.142485e+01 9.452948e+00 1.668524e+01 1.869504e+01 1.798801e+01 2.073556e+01 1.802362e+01 2.474944e+01 2.136034e+01 1.832918e+01 1.851179e+01 1.609109e+01 5.331424e+01
<GCONST> 6.198225e+01
<STATE> 10
<MEAN> 13
 -8.521027e+00 -2.758318e+00 -3.117029e+00 -3.429018e+00 -3.091149e+00 -1.470811e+00 -3.009639e+00 -1.455532e+00 -8.778797e-01 -1.040619e+00 -1.553473e+00 -5.512454e-01 4.984042e+01
<VARIANCE> 13
 7.267236e+00 4.960749e+00 7.578290e+00 1.066368e+01 1.229252e+01 1.520847e+01 1.589699e+01 1.771849e+01 1.689357e+01 1.718177e+01 1.739554e+01 1.574974e+01 6.961645e+00
<GCONST> 5.596528e+01
<STATE> 11
<MEAN> 13
 -9.223680e+00 -1.968576e+00 -2.648959e+00 -2.621661e+00 -6.848553e-01 -1.466813e+00 -3.570978e+00 -2.640561e+00 -2.635635e+00 -2.003818e+00 -1.586783e+00 -5.859839e-01 5.523203e+01
<VARIANCE> 13
 1.740227e+01 3.239340e+01 3.169344e+01 2.300382e+01 3.817677e+01 3.406706e+01 3.131334e+01 2.904527e+01 2.773547e+01 2.783407e+01 3.018360e+01 2.530919e+01 3.030195e+01
<GCONST> 6.750083e+01
<TRANSP> 12
 0.000000e+00 1.000000e+00 0.000000e+00 0.000000e+00 0.000000e+00 0.000000e+00 0.000000e+00 0.000000e+00 0.000000e+00 0.000000e+00 0.000000e+00 0.000000e+00
 0.000000e+00 7.148958e-01 2.851043e-01 0.000000e+00 0.000000e+00 0.000000e+00 0.000000e+00 0.000000e+00 0.000000e+00 0.000000e+00 0.000000e+00 0.000000e+00
 0.000000e+00 0.000000e+00 7.600965e-01 2.399036e-01 0.000000e+00 0.000000e+00 0.000000e+00 0.000000e+00 0.000000e+00 0.000000e+00 0.000000e+00 0.000000e+00
 0.000000e+00 0.000000e+00 0.000000e+00 8.316776e-01 1.683224e-01 0.000000e+00 0.000000e+00 0.000000e+00 0.000000e+00 0.000000e+00 0.000000e+00 0.000000e+00
 0.000000e+00 0.000000e+00 0.000000e+00 0.000000e+00 8.055419e-01 1.944581e-01 0.000000e+00 0.000000e+00 0.000000e+00 0.000000e+00 0.000000e+00 0.000000e+00
 0.000000e+00 0.000000e+00 0.000000e+00 0.000000e+00 0.000000e+00 8.595427e-01 1.404573e-01 0.000000e+00 0.000000e+00 0.000000e+00 0.000000e+00 0.000000e+00
 0.000000e+00 0.000000e+00 0.000000e+00 0.000000e+00 0.000000e+00 0.000000e+00 7.546656e-01 2.453345e-01 0.000000e+00 0.000000e+00 0.000000e+00 0.000000e+00
 0.000000e+00 0.000000e+00 0.000000e+00 0.000000e+00 0.000000e+00 0.000000e+00 0.000000e+00 6.675753e-01 3.324247e-01 0.000000e+00 0.000000e+00 0.000000e+00
 0.000000e+00 0.000000e+00 0.000000e+00 0.000000e+00 0.000000e+00 0.000000e+00 0.000000e+00 0.000000e+00 6.946778e-01 3.053222e-01 0.000000e+00 0.000000e+00
 0.000000e+00 0.000000e+00 0.000000e+00 0.000000e+00 0.000000e+00 0.000000e+00 0.000000e+00 0.000000e+00 0.000000e+00 8.687373e-01 1.312627e-01 0.000000e+00
 0.000000e+00 0.000000e+00 0.000000e+00 0.000000e+00 0.000000e+00 0.000000e+00 0.000000e+00 0.000000e+00 0.000000e+00 0.000000e+00 5.728135e-01 4.271866e-01
 0.000000e+00 0.000000e+00 0.000000e+00 0.000000e+00 0.000000e+00 0.000000e+00 0.000000e+00 0.000000e+00 0.000000e+00 0.000000e+00 0.000000e+00 0.000000e+00
<ENDHMM>
