~o
<STREAMINFO> 1 52
<VECSIZE> 52<NULLD><MFCC_D_A_T_0><DIAGC>
~h "rx"
<BEGINHMM>
<NUMSTATES> 12
<STATE> 2
<NUMMIXES> 3
<MIXTURE> 1 2.783075e-01
<MEAN> 52
 -2.666663e+00 -1.482722e+01 6.681464e-02 -1.072145e+01 -1.354156e+01 -1.433664e+01 -1.886016e+01 -4.433501e-01 -4.783872e+00 -7.144276e+00 -1.333141e+01 2.338469e+00 7.095161e+01 -1.040290e+00 -9.612172e-01 8.668249e-01 -2.490721e+00 -5.826074e-01 6.335000e-01 1.753158e+00 2.129011e+00 -5.046863e-01 9.252132e-01 -2.406154e-02 1.078791e-01 2.010466e+00 -3.155545e-01 7.765253e-01 -2.689935e-02 5.022426e-02 1.946978e-01 1.396466e-01 7.803254e-01 -5.091045e-01 -3.945827e-01 3.495708e-01 3.238257e-01 -2.415877e-01 -4.545860e-01 1.708229e-01 7.422300e-02 3.739787e-02 2.717136e-01 -8.357580e-02 -1.999667e-01 -3.499725e-01 -4.024430e-01 -1.826210e-02 -5.727511e-02 -7.197578e-02 3.109401e-02 -5.694290e-02
<VARIANCE> 52
 1.309009e+01 2.817945e+01 3.399509e+01 7.939724e+01 4.868341e+01 3.675829e+01 8.313277e+01 6.683804e+01 5.788161e+01 3.238739e+01 4.855970e+01 2.477881e+01 2.867057e+01 6.609617e-01 2.748240e+00 2.255742e+00 3.908057e+00 3.514495e+00 3.018448e+00 3.834284e+00 4.486801e+00 6.125865e+00 2.431677e+00 4.196030e+00 2.120895e+00 8.395303e-01 1.912872e-01 3.243721e-01 4.147120e-01 9.531165e-01 6.118664e-01 7.256137e-01 9.595577e-01 1.201226e+00 8.990291e-01 4.915333e-01 6.144353e-01 3.442607e-01 1.953707e-01 3.378786e-02 1.071279e-01 1.025278e-01 1.784277e-01 1.486382e-01 1.458375e-01 1.435065e-01 1.847066e-01 2.372644e-01 1.128958e-01 1.786502e-01 8.695129e-02 3.528013e-02
<GCONST> 1.195759e+02
<MIXTURE> 2 3.687819e-01
<MEAN> 52
 1.976322e+00 1.738770e+00 1.827069e+00 1.594568e+00 -3.637231e+00 -4.962703e+00 -1.621065e+01 -1.111759e+01 -4.276550e+00 -3.713585e-01 -5.970689e+00 -4.902854e+00 6.380212e+01 4.145274e-01 -5.901212e-01 -1.138713e-01 2.894752e-01 -3.456359e-01 -7.628167e-01 -1.422809e+00 3.145700e-01 4.883772e-01 1.686655e-01 1.468582e-01 1.842103e-01 6.090471e-01 -7.364114e-02 -2.246900e-01 1.365361e-01 -1.291900e-01 -3.903611e-01 8.954065e-02 1.395436e-01 3.814758e-01 -6.180450e-02 -1.464942e-01 1.431388e-01 7.909202e-02 2.074569e-01 -6.631781e-02 4.765779e-03 5.766508e-02 -4.028101e-02 -2.694104e-02 6.018112e-02 8.112563e-02 2.885232e-02 -4.570112e-02 -6.586588e-03 1.322935e-02 -2.237441e-02 1.554037e-02
<VARIANCE> 52
 1.506176e+01 1.905097e+01 3.750258e+01 4.384243e+01 4.704044e+01 4.487318e+01 8.061583e+01 7.763425e+01 4.337378e+01 3.127725e+01 3.720328e+01 2.514978e+01 3.345936e+01 3.442864e-01 1.034809e+00 1.146577e+00 1.989592e+00 2.624056e+00 2.083493e+00 2.988331e+00 4.217906e+00 2.435793e+00 2.021588e+00 2.389193e+00 1.935500e+00 3.658704e-01 8.242384e-02 2.275023e-01 2.424586e-01 3.297607e-01 4.455076e-01 4.040780e-01 4.695917e-01 7.720326e-01 4.816091e-01 3.958984e-01 4.554608e-01 3.818276e-01 9.531473e-02 1.391505e-02 4.419070e-02 4.842155e-02 7.951639e-02 9.757682e-02 9.513149e-02 9.896986e-02 1.336849e-01 1.144977e-01 9.020732e-02 1.056192e-01 8.530453e-02 1.470625e-02
<GCONST> 9.829087e+01
<MIXTURE> 3 3.529106e-01
<MEAN> 52
 -4.731235e-02 -1.618398e+00 -5.095581e-01 9.043594e-01 -4.967235e+00 -8.375450e+00 -1.712390e+01 -8.289436e+00 -4.122618e+00 -3.870808e+00 -6.791391e+00 -1.126756e+00 6.146024e+01 1.619757e+00 -1.885463e+00 7.190675e-01 1.551950e-01 -1.877959e+00 -1.739686e+00 -3.091499e+00 2.202762e-01 3.006788e-02 -6.546655e-01 -6.478466e-01 4.407813e-01 3.318997e+00 -5.094532e-01 -6.742415e-01 5.512147e-02 -6.527961e-01 -4.492413e-01 3.695481e-01 3.605968e-01 7.145253e-01 1.729401e-01 5.085480e-02 1.549665e-01 -2.940136e-02 2.681413e-01 -2.637419e-01 2.596742e-01 1.150965e-02 -1.044797e-01 1.800156e-01 2.310745e-01 4.504763e-01 6.585867e-02 -4.871293e-02 7.124268e-02 1.114334e-01 -7.773033e-02 -3.236130e-01
<VARIANCE> 52
 2.836001e+01 4.363533e+01 3.379978e+01 3.731734e+01 3.538420e+01 7.648187e+01 7.975533e+01 4.072600e+01 4.164644e+01 4.299596e+01 4.441277e+01 2.856861e+01 4.079638e+01 2.948664e+00 5.414300e+00 3.116328e+00 4.334608e+00 4.571770e+00 6.480392e+00 7.687956e+00 6.501579e+00 4.211159e+00 3.671605e+00 4.271080e+00 2.870351e+00 1.767571e+00 5.093269e-01 6.009251e-01 5.185956e-01 6.033918e-01 7.549791e-01 1.254955e+00 1.460514e+00 8.485817e-01 7.549531e-01 6.559255e-01 8.446027e-01 5.250918e-01 4.284060e-01 1.047238e-01 2.205112e-01 1.167680e-01 1.665850e-01 1.779898e-01 2.601332e-01 2.700450e-01 2.592725e-01 1.788715e-01 1.584934e-01 1.550095e-01 1.212027e-01 6.215452e-02
<GCONST> 1.343484e+02
<STATE> 3
<NUMMIXES> 3
<MIXTURE> 1 4.566507e-01
<MEAN> 52
 -1.131009e+00 -7.071042e+00 9.350653e+00 -2.842243e+00 -1.570712e+01 -7.948306e+00 -1.816290e+01 3.632324e+00 -4.569596e+00 -4.084348e+00 9.567106e-01 -2.858327e+00 7.485071e+01 -1.070004e+00 6.804904e-01 1.815021e+00 -3.537966e-01 -1.046702e+00 -4.616933e-01 1.522451e+00 1.712751e-01 -1.698176e+00 -4.169754e-01 1.413348e+00 2.826917e-01 3.998480e-01 -2.155026e-02 4.300763e-01 1.512456e-01 1.943493e-01 2.636174e-01 3.291867e-01 1.123329e-01 -7.784860e-01 -1.705023e-01 2.189651e-01 -1.097144e-01 -1.571762e-02 -3.223682e-01 5.023963e-02 -6.972170e-02 -1.171098e-01 -2.778229e-02 1.282587e-01 6.985603e-02 -2.171526e-01 6.481248e-02 2.460987e-01 3.978254e-02 -1.866428e-01 -1.898172e-02 1.595487e-02
<VARIANCE> 52
 9.272497e+00 4.606474e+01 3.271173e+01 4.362065e+01 2.908671e+01 3.894394e+01 4.740120e+01 4.409706e+01 5.859079e+01 3.678082e+01 3.271569e+01 3.484787e+01 1.082960e+01 3.802263e-01 6.984378e-01 1.097088e+00 1.374439e+00 1.361360e+00 1.462603e+00 1.532014e+00 2.841759e+00 1.870994e+00 1.793896e+00 1.643629e+00 1.289583e+00 2.256747e-01 5.827519e-02 1.229173e-01 1.751704e-01 2.190595e-01 2.461568e-01 2.905430e-01 3.595676e-01 4.363284e-01 3.720838e-01 3.056373e-01 4.249481e-01 1.926350e-01 3.999894e-02 1.453831e-02 2.316124e-02 3.933538e-02 5.284182e-02 6.101467e-02 7.481629e-02 6.417848e-02 1.153638e-01 7.853278e-02 6.221091e-02 7.501184e-02 5.722572e-02 9.408650e-03
<GCONST> 8.189130e+01
<MIXTURE> 2 2.274558e-01
<MEAN> 52
 -9.326733e+00 -1.203162e+01 2.276508e+00 -2.065939e+01 -1.726749e+01 -1.288184e+01 -6.144578e+00 -2.070014e+00 -1.120290e+01 7.451070e-01 -1.288009e+01 9.335629e-01 7.613429e+01 -9.080435e-01 1.319945e+00 1.423649e+00 -9.057683e-01 -9.131244e-01 4.178494e-01 4.461598e-01 -2.398808e+00 -7.188943e-01 2.157544e+00 -2.634769e-02 -1.797957e-01 1.556335e-01 1.925208e-01 1.768623e-01 2.203565e-01 1.357637e-01 1.067246e-01 1.012451e-01 -8.604326e-01 -3.018187e-01 4.539670e-01 -1.643052e-01 -1.938412e-01 1.544532e-01 -3.142334e-01 3.328967e-02 -6.890012e-02 -9.687408e-02 -3.225492e-02 1.086528e-01 2.903997e-02 -7.552722e-03 3.350088e-01 3.694253e-02 -2.510695e-01 8.850168e-03 3.493497e-02 4.386408e-02
<VARIANCE> 52
 8.222034e+00 1.847239e+01 2.030876e+01 2.785851e+01 4.200571e+01 1.852640e+01 5.117029e+01 5.921804e+01 5.054812e+01 4.757228e+01 2.132116e+01 3.785947e+01 2.890313e+01 2.883560e-01 5.819374e-01 1.360756e+00 6.664749e-01 8.604072e-01 1.043810e+00 3.746878e+00 1.578389e+00 2.700980e+00 1.502691e+00 1.595977e+00 1.149835e+00 2.936386e-01 3.985620e-02 9.156834e-02 1.732861e-01 2.482448e-01 2.890244e-01 2.008644e-01 3.878231e-01 4.869699e-01 3.376827e-01 4.614709e-01 2.815205e-01 3.016408e-01 2.643496e-02 8.629139e-03 2.542832e-02 4.848135e-02 5.641122e-02 5.328199e-02 4.566495e-02 1.275555e-01 9.290592e-02 1.282061e-01 7.646844e-02 7.889989e-02 5.820881e-02 5.334718e-03
<GCONST> 7.876434e+01
<MIXTURE> 3 3.158935e-01
<MEAN> 52
 2.280235e+00 -5.448873e+00 3.052108e+00 1.217768e+00 -1.324147e+01 -2.715802e+00 -2.088423e+01 -4.423563e+00 -4.799406e-01 -2.437617e-01 -1.997450e+00 -4.924346e+00 7.258010e+01 -8.915169e-01 -1.048466e+00 1.276572e+00 -1.487818e+00 -1.949342e+00 -9.695695e-02 -6.030214e-01 2.563803e+00 3.307428e-01 -9.431406e-01 8.173504e-01 -2.507482e-01 1.656733e+00 -2.925071e-01 5.771807e-01 3.413134e-01 4.495587e-02 3.447821e-01 -2.961456e-01 6.081760e-01 -3.075609e-02 -5.487590e-01 -1.997702e-01 1.061114e-01 1.104407e-01 -2.915432e-01 9.217681e-02 1.546855e-01 -5.486488e-02 2.356352e-01 1.476041e-01 -2.861129e-02 8.307643e-02 -3.506422e-01 -1.452421e-01 1.023669e-01 -6.035279e-03 7.366960e-02 -1.392733e-01
<VARIANCE> 52
 1.009859e+01 2.044911e+01 4.138055e+01 5.666465e+01 4.171135e+01 5.126917e+01 5.151611e+01 5.712536e+01 6.546095e+01 3.859251e+01 3.581772e+01 3.991171e+01 1.091952e+01 5.434790e-01 1.820323e+00 2.209175e+00 3.706653e+00 4.588675e+00 5.302047e+00 3.836792e+00 3.562575e+00 4.451885e+00 3.543349e+00 3.933825e+00 3.269867e+00 7.109119e-01 9.682045e-02 2.469874e-01 3.188530e-01 7.750444e-01 8.076094e-01 7.833089e-01 7.015526e-01 7.226724e-01 7.087806e-01 5.390142e-01 6.368859e-01 4.674778e-01 1.323208e-01 2.053222e-02 7.002394e-02 8.457305e-02 1.417416e-01 2.099328e-01 2.129908e-01 1.587994e-01 1.404111e-01 1.528163e-01 1.467844e-01 1.857414e-01 1.076832e-01 2.388663e-02
<GCONST> 1.148877e+02
<STATE> 4
<NUMMIXES> 3
<MIXTURE> 1 4.263650e-01
<MEAN> 52
 -4.805806e+00 -1.779844e+00 1.700466e+01 -3.026534e+00 -1.715870e+01 -5.451770e+00 -1.482026e+01 -5.789719e-01 -1.026324e+01 -4.591164e+00 4.255112e+00 -3.215529e+00 7.418530e+01 -7.205104e-01 1.534111e+00 1.341937e+00 1.852188e-01 7.365210e-01 5.530976e-01 6.001351e-01 -9.485420e-01 -7.970210e-01 1.086077e-01 -1.609182e-01 1.967032e-01 -6.499450e-01 -1.119259e-01 3.360703e-01 -5.936885e-01 1.476194e-01 7.744927e-01 -1.570162e-01 1.666489e-01 -1.732880e-04 6.068631e-01 2.192181e-01 -4.494420e-01 1.850750e-01 -2.279731e-01 -1.857755e-01 1.086070e-02 -2.081946e-01 -2.649833e-02 4.813344e-02 -1.229464e-01 1.994810e-01 1.459106e-01 1.229164e-01 2.289647e-03 7.031137e-02 5.529428e-02 6.429126e-02
<VARIANCE> 52
 1.101754e+01 2.770226e+01 3.520119e+01 4.924990e+01 3.657820e+01 4.124428e+01 3.461599e+01 4.481577e+01 4.900943e+01 4.477014e+01 2.542262e+01 3.409742e+01 1.399455e+01 3.887069e-01 7.453251e-01 1.182161e+00 1.087040e+00 1.993647e+00 1.483814e+00 1.446602e+00 2.164133e+00 1.759159e+00 1.397764e+00 1.411256e+00 1.342635e+00 2.530858e-01 1.701941e-01 1.834043e-01 2.404693e-01 2.792324e-01 3.835783e-01 3.189428e-01 4.196190e-01 4.491764e-01 3.617551e-01 3.467029e-01 3.015847e-01 2.890339e-01 5.417098e-02 2.532431e-02 4.239890e-02 3.875548e-02 5.786976e-02 7.114897e-02 6.621738e-02 6.613251e-02 1.079686e-01 7.800511e-02 5.643288e-02 6.568570e-02 5.605500e-02 8.523758e-03
<GCONST> 8.551373e+01
<MIXTURE> 2 2.661043e-01
<MEAN> 52
 -1.130752e+01 -2.544673e+00 1.032382e+01 -2.283292e+01 -1.827600e+01 -9.105813e+00 -1.406771e+01 -1.285002e+01 -1.110518e+01 4.375042e+00 -1.607342e+01 1.949830e+00 7.256444e+01 4.700979e-02 1.805987e+00 5.615686e-01 4.765239e-01 4.809043e-01 5.296597e-01 -1.457073e+00 -7.347456e-01 8.217464e-02 -8.030603e-01 -2.890871e-01 -6.195690e-02 -8.624061e-01 5.795739e-02 9.420870e-02 -5.081077e-01 5.578508e-01 8.955957e-02 -6.957413e-02 2.068892e-01 2.711830e-01 -2.380803e-02 -5.853242e-01 2.160459e-01 -2.990078e-01 -1.422127e-01 -1.403787e-01 1.572178e-02 -8.693384e-02 6.086777e-02 -2.121367e-02 6.047029e-03 2.419467e-01 -2.580617e-02 3.211490e-02 8.739919e-02 1.009883e-01 -7.884810e-02 5.467965e-02
<VARIANCE> 52
 9.007874e+00 2.730301e+01 1.003244e+01 1.924593e+01 2.874269e+01 3.239870e+01 3.983385e+01 3.981506e+01 3.380121e+01 4.844223e+01 3.567852e+01 3.635669e+01 3.148478e+01 3.998433e-01 4.786931e-01 1.344100e+00 1.937025e+00 1.032522e+00 1.633641e+00 1.208712e+00 3.051848e+00 1.600859e+00 1.984133e+00 2.289379e+00 1.901267e+00 3.331680e-01 8.346379e-02 1.109081e-01 1.725712e-01 1.715965e-01 2.194570e-01 3.007530e-01 3.828696e-01 5.072426e-01 2.759854e-01 3.610170e-01 3.442264e-01 3.005956e-01 2.121098e-02 2.730651e-02 2.767071e-02 3.732825e-02 4.159515e-02 5.427011e-02 5.811149e-02 7.203969e-02 9.895378e-02 7.283486e-02 8.527806e-02 9.211048e-02 6.350615e-02 5.544055e-03
<GCONST> 8.045747e+01
<MIXTURE> 3 3.075306e-01
<MEAN> 52
 -6.858547e+00 4.004807e+00 1.753784e+01 -1.426893e+00 -1.180758e+01 -5.851761e+00 -1.133009e+01 -2.872977e+00 -9.556627e+00 -3.284010e+00 1.851942e+00 -9.201185e-01 7.134040e+01 -2.203066e+00 3.180514e+00 -1.460974e+00 7.284328e-01 3.178293e+00 -6.435348e-01 2.786299e+00 -8.654549e-01 1.629792e+00 7.983991e-01 -9.047667e-01 1.266794e+00 -1.060839e+00 -8.788086e-01 9.457097e-02 -9.086244e-01 -7.391915e-02 4.506884e-01 9.729528e-02 5.145817e-01 2.724020e-01 5.428292e-01 1.430820e-01 -4.132554e-02 -4.744005e-02 4.960597e-02 1.866610e-02 -4.209074e-01 1.375220e-01 -2.050226e-01 -4.323431e-01 1.593274e-01 -3.142775e-01 8.802736e-02 -2.838935e-01 -9.691002e-02 1.368519e-01 -2.071304e-01 1.215238e-01
<VARIANCE> 52
 1.144868e+01 2.495597e+01 2.634731e+01 4.084607e+01 3.294784e+01 3.935097e+01 4.295149e+01 3.697299e+01 4.524038e+01 4.055618e+01 2.284169e+01 2.464059e+01 1.804671e+01 1.503880e+00 1.655453e+00 3.314927e+00 3.245510e+00 3.014432e+00 2.424417e+00 2.697922e+00 2.960487e+00 3.946822e+00 3.310888e+00 2.208589e+00 1.489223e+00 4.439531e-01 1.062486e-01 3.964885e-01 3.286183e-01 4.748425e-01 5.335469e-01 3.866200e-01 4.588569e-01 4.977328e-01 6.141067e-01 4.128295e-01 3.644440e-01 3.452843e-01 7.390053e-02 5.607798e-02 5.826742e-02 8.259343e-02 1.021637e-01 1.239963e-01 8.887755e-02 1.137940e-01 1.219867e-01 1.353057e-01 1.135539e-01 8.271756e-02 6.071092e-02 1.385540e-02
<GCONST> 1.026247e+02
<STATE> 5
<NUMMIXES> 3
<MIXTURE> 1 4.216182e-01
<MEAN> 52
 -1.672489e+01 1.288607e+01 8.561506e+00 -5.409937e-01 -4.077903e+00 -6.068158e+00 -4.120650e+00 -5.932591e+00 -4.443573e+00 -3.115392e+00 -2.377833e+00 -6.229491e-01 6.860015e+01 -4.255524e+00 1.212215e+00 -2.611593e+00 3.332106e-01 2.830127e+00 1.195427e+00 2.582757e+00 9.785740e-01 1.935923e+00 1.000817e+00 4.307799e-02 1.358483e-01 -3.970765e-01 2.341101e-02 -1.109782e+00 -1.684227e-01 -7.529925e-01 -8.148679e-01 7.981005e-02 -6.369280e-01 2.038236e-01 -2.682105e-01 1.514963e-01 6.098039e-02 -6.637507e-02 2.078460e-01 5.263467e-01 -7.678620e-02 3.100286e-01 -4.877356e-02 -3.814667e-01 -2.152129e-01 -3.208268e-01 -2.379036e-01 -2.733296e-01 -1.921750e-01 -6.173070e-03 -9.402069e-03 -1.711463e-02
<VARIANCE> 52
 2.338499e+01 1.256146e+01 4.209986e+01 2.267216e+01 3.570708e+01 3.956614e+01 3.508285e+01 4.233813e+01 2.620524e+01 3.503529e+01 3.246319e+01 3.053066e+01 1.672750e+01 7.327124e-01 3.299782e+00 2.923593e+00 4.068119e+00 2.723521e+00 2.576755e+00 3.176476e+00 3.501705e+00 2.841377e+00 3.309070e+00 3.422775e+00 2.025708e+00 4.262489e-01 3.222124e-01 2.438528e-01 3.671318e-01 3.664320e-01 5.965295e-01 4.993773e-01 4.959092e-01 4.848450e-01 6.152047e-01 7.363416e-01 4.580573e-01 5.501971e-01 4.980811e-02 2.472603e-02 1.149037e-01 8.675718e-02 9.861459e-02 1.103037e-01 8.488337e-02 1.116672e-01 1.196211e-01 1.153658e-01 1.320284e-01 1.120528e-01 9.198306e-02 1.211014e-02
<GCONST> 1.051093e+02
<MIXTURE> 2 4.156432e-01
<MEAN> 52
 -2.494973e+01 1.041224e+01 3.662903e+00 -3.251513e+00 -1.236048e+00 -3.544513e+00 -9.549125e-01 -2.843911e+00 -1.530300e+00 -2.835854e-02 -1.052148e+00 4.903139e-01 6.892061e+01 -2.434336e+00 -1.215250e+00 -2.347668e+00 -1.728778e+00 -5.978386e-01 -1.368253e-01 -2.256997e-02 -4.099575e-02 3.006345e-01 2.410237e-01 5.687423e-02 -1.268617e-01 -1.104871e-01 1.055815e+00 -3.873396e-01 6.343772e-01 -1.244582e-01 -8.117971e-01 -3.577886e-01 -6.823544e-01 -3.133575e-01 -5.028304e-01 -3.019341e-01 6.796882e-03 -7.397105e-02 8.244544e-02 2.200312e-01 3.841724e-01 2.714774e-01 3.394361e-01 3.100024e-01 3.405014e-02 2.162904e-01 -1.792108e-02 6.492940e-02 -1.345456e-03 -3.737840e-02 4.806278e-02 -5.438351e-02
<VARIANCE> 52
 1.198004e+01 1.749811e+01 4.015947e+01 2.813295e+01 2.902146e+01 3.907040e+01 3.363956e+01 3.152242e+01 2.399522e+01 2.377168e+01 2.408386e+01 2.206239e+01 9.471322e+00 1.739169e+00 1.341483e+00 1.739215e+00 1.704190e+00 2.070122e+00 1.954077e+00 2.267473e+00 2.247724e+00 2.277639e+00 2.189664e+00 2.187345e+00 1.421451e+00 2.409782e-01 1.235221e-01 3.878381e-01 3.733803e-01 5.329447e-01 5.909293e-01 3.690417e-01 4.452735e-01 4.194480e-01 3.992990e-01 3.937785e-01 4.573964e-01 3.152702e-01 4.301530e-02 4.924644e-02 4.512295e-02 6.656394e-02 6.379780e-02 9.984528e-02 8.989759e-02 9.696780e-02 9.987342e-02 1.172332e-01 1.182970e-01 1.045534e-01 7.643168e-02 8.054430e-03
<GCONST> 9.345564e+01
<MIXTURE> 3 1.627386e-01
<MEAN> 52
 -1.074736e+01 6.472547e+00 6.242700e+00 -1.497107e+01 -1.663372e+01 -8.023473e+00 -1.642082e+01 -1.543678e+01 -1.075801e+01 -4.631301e+00 -1.425999e+01 -2.420253e+00 6.803217e+01 -1.658836e+00 2.712924e+00 -2.150884e+00 3.538144e+00 1.097709e+00 6.369787e-01 1.527636e+00 -9.261744e-02 7.322439e-01 -2.548145e+00 1.847176e+00 -2.050357e+00 -9.341106e-01 -1.043197e+00 -1.793371e-01 -3.505673e-01 2.429856e-01 5.678762e-01 2.913662e-01 8.298419e-01 6.475450e-01 4.722642e-01 6.010743e-01 4.860075e-01 1.420175e-01 2.506569e-01 4.068233e-02 -3.188552e-01 1.873037e-01 -3.978386e-01 -1.501241e-02 1.381214e-02 -1.982931e-01 1.146638e-01 2.770385e-02 4.345985e-01 -1.914108e-01 3.224599e-01 5.062008e-02
<VARIANCE> 52
 7.896642e+00 2.704995e+01 2.633323e+01 3.466816e+01 2.494072e+01 2.182056e+01 3.692706e+01 1.490546e+01 1.576251e+01 4.816705e+01 3.361283e+01 2.678774e+01 2.462159e+01 2.252116e+00 1.079142e+00 1.586419e+00 1.768581e+00 4.432578e+00 3.797690e+00 3.459070e+00 2.874384e+00 2.925288e+00 3.501598e+00 2.220214e+00 2.536130e+00 4.019040e-01 1.065894e-01 4.081120e-01 3.464039e-01 4.691457e-01 4.042761e-01 3.774351e-01 4.536321e-01 6.195734e-01 3.620067e-01 9.852284e-01 5.056384e-01 5.522604e-01 3.557717e-02 1.025292e-01 4.381585e-02 5.737102e-02 7.241701e-02 1.406787e-01 1.203965e-01 1.077292e-01 1.209670e-01 8.775043e-02 1.246503e-01 9.025057e-02 8.727839e-02 1.002448e-02
<GCONST> 1.001690e+02
<STATE> 6
<NUMMIXES> 3
<MIXTURE> 1 1.307742e-01
<MEAN> 52
 -2.594873e+01 8.431818e+00 -1.686054e+00 -5.494317e+00 -4.555447e+00 -2.354060e+00 -2.988508e+00 -7.584110e+00 -1.849549e+00 -5.523360e-01 -2.967105e+00 -2.168683e+00 6.574055e+01 3.300252e+00 3.568411e-01 2.328840e+00 -1.233276e+00 -2.189457e+00 -1.805724e+00 -2.787778e+00 -3.003962e+00 -2.570953e+00 -1.525131e+00 -1.132727e+00 -4.558424e-01 2.113604e-01 1.009327e+00 -7.919695e-02 4.846601e-01 -8.690282e-01 -7.398122e-01 -4.037564e-01 -8.294036e-01 -4.731045e-01 -4.365866e-01 -3.981277e-02 -5.151101e-01 -1.074306e-01 3.706163e-01 -4.229070e-01 -1.994905e-01 -2.844406e-01 -1.110618e-01 3.422443e-01 3.657899e-01 3.628633e-01 5.176443e-01 4.169384e-01 3.614129e-01 5.626136e-02 5.948598e-02 2.702825e-02
<VARIANCE> 52
 1.566024e+01 1.123907e+01 4.330281e+01 2.491537e+01 2.947885e+01 2.801162e+01 3.942900e+01 3.889432e+01 2.949023e+01 2.636097e+01 1.841404e+01 1.953176e+01 2.006272e+01 2.283681e+00 1.174995e+00 1.446134e+00 3.075307e+00 2.459793e+00 1.880244e+00 2.942570e+00 2.850370e+00 1.870839e+00 2.045297e+00 2.250054e+00 2.174171e+00 4.794270e-01 2.228969e-01 2.425264e-01 2.780102e-01 4.941905e-01 5.078087e-01 5.339907e-01 5.523764e-01 7.255019e-01 5.245178e-01 6.315014e-01 4.000787e-01 4.787048e-01 6.683958e-02 8.805108e-02 5.151327e-02 5.433362e-02 1.047788e-01 1.269854e-01 8.425222e-02 1.291382e-01 1.153030e-01 9.348630e-02 8.829066e-02 9.696389e-02 1.170336e-01 1.652743e-02
<GCONST> 1.003747e+02
<MIXTURE> 2 7.713693e-01
<MEAN> 52
 -2.859462e+01 8.642629e+00 -2.434309e+00 -6.767350e+00 -5.224794e+00 -6.052325e+00 -3.532725e+00 -4.590611e+00 -2.317725e+00 -2.174188e-01 -1.606611e+00 -7.901700e-01 6.797066e+01 -1.546214e-01 -5.157688e-01 -1.956707e-02 -3.503642e-01 -4.608683e-02 7.067651e-02 1.456621e-01 3.467602e-02 1.271271e-01 1.954394e-01 9.664019e-02 8.249965e-02 -1.795222e-01 6.529073e-01 8.917411e-02 5.815240e-01 1.827890e-01 -6.386865e-02 4.106176e-03 -1.351599e-01 -1.480137e-01 -1.694292e-01 -1.213872e-01 -1.029883e-01 -5.330277e-02 -2.821106e-02 4.590885e-02 5.037502e-02 2.757462e-03 6.700989e-03 -3.041857e-02 6.979277e-03 -5.013466e-02 -2.709728e-02 -4.349208e-02 -2.441766e-02 -4.176099e-04 -2.549887e-02 3.266272e-02
<VARIANCE> 52
 6.737110e+00 1.826564e+01 3.830886e+01 2.798841e+01 2.068855e+01 5.043016e+01 3.007393e+01 2.930182e+01 2.810349e+01 2.845269e+01 2.183685e+01 1.812419e+01 1.629725e+01 6.353519e-01 6.587946e-01 1.177041e+00 1.141445e+00 1.410889e+00 1.452834e+00 1.367513e+00 1.674224e+00 1.621244e+00 1.726868e+00 1.629550e+00 1.445425e+00 1.665549e-01 2.743241e-01 1.954216e-01 2.607563e-01 3.497092e-01 3.514086e-01 3.387896e-01 3.919764e-01 4.575364e-01 4.144284e-01 4.227805e-01 3.473044e-01 2.900711e-01 3.468837e-02 4.932785e-02 3.583469e-02 4.482697e-02 7.085009e-02 8.511454e-02 8.427365e-02 8.724985e-02 9.076259e-02 9.056413e-02 1.003128e-01 7.813249e-02 7.918067e-02 1.239874e-02
<GCONST> 8.500277e+01
<MIXTURE> 3 9.785661e-02
<MEAN> 52
 -1.406564e+01 8.899426e+00 3.559704e+00 -1.460091e+01 -1.538942e+01 -9.548578e+00 -1.584969e+01 -1.848691e+01 -9.390029e+00 -5.598289e+00 -9.603364e+00 -4.721541e+00 6.743172e+01 3.476769e+00 -1.268721e+00 2.645632e+00 -4.613932e+00 -2.030200e+00 -1.073692e+00 -3.081463e+00 -1.459514e+00 -1.462709e+00 4.385645e-01 -2.719665e+00 -3.012339e-01 1.335521e+00 -8.763939e-01 -4.584906e-01 -5.017917e-01 -3.344889e-01 9.286037e-01 8.219220e-01 7.584987e-01 1.245331e+00 8.633887e-01 8.381462e-01 3.655611e-02 3.283171e-01 7.759950e-02 -3.865746e-01 1.591562e-01 -3.678175e-01 5.813838e-01 3.430425e-01 1.794324e-01 3.426483e-01 1.672120e-01 1.502487e-01 -1.385833e-01 3.151417e-01 6.096496e-02 -2.115801e-01
<VARIANCE> 52
 1.056547e+01 1.981261e+01 2.405807e+01 3.104258e+01 2.067757e+01 1.757573e+01 2.708276e+01 2.800979e+01 1.356217e+01 2.905985e+01 1.965121e+01 2.041593e+01 2.683340e+01 1.837897e+00 1.496873e+00 2.019557e+00 3.364479e+00 3.641438e+00 3.929888e+00 4.189319e+00 5.360922e+00 2.739553e+00 3.749416e+00 1.945948e+00 3.341671e+00 4.240803e-01 2.294683e-01 2.310364e-01 3.681160e-01 5.741348e-01 3.515076e-01 3.327592e-01 5.774483e-01 3.455473e-01 3.357169e-01 4.481916e-01 5.581340e-01 4.866778e-01 8.700496e-02 8.451449e-02 6.316019e-02 7.081240e-02 8.637366e-02 1.328755e-01 1.759805e-01 1.659993e-01 1.875954e-01 1.296124e-01 1.488257e-01 9.936266e-02 1.194964e-01 1.222858e-02
<GCONST> 1.031333e+02
<STATE> 7
<NUMMIXES> 3
<MIXTURE> 1 4.430172e-01
<MEAN> 52
 -1.014318e+01 8.109687e+00 1.361924e+01 -2.889291e+00 -8.977291e+00 -4.796134e+00 -6.077435e+00 -5.519949e+00 -7.060369e+00 -2.879630e+00 6.382542e-02 -6.158636e-01 6.944215e+01 4.530768e+00 -6.174701e-01 2.533865e+00 -7.368756e-02 -2.801237e+00 5.443194e-01 -1.843616e+00 -1.553565e-01 -1.838783e+00 -3.134823e-01 1.189617e+00 -4.992343e-01 1.235822e+00 -7.655282e-01 -4.060556e-01 -7.959602e-01 -5.064623e-01 8.486369e-02 2.804835e-01 1.428138e-01 1.508705e-01 6.929936e-02 3.445820e-01 1.148900e-01 -2.486306e-01 7.825158e-02 -5.249241e-01 3.147397e-02 -3.822637e-01 4.578935e-02 4.422068e-01 -5.800156e-03 2.806340e-01 -8.854179e-03 2.673972e-01 8.303824e-02 -2.162891e-01 -3.930272e-02 -2.418861e-01
<VARIANCE> 52
 3.010725e+01 2.543831e+01 2.207820e+01 2.317923e+01 4.645506e+01 4.881015e+01 3.126002e+01 3.339275e+01 3.587733e+01 2.226112e+01 2.669766e+01 2.043674e+01 1.786564e+01 2.347476e+00 2.450867e+00 4.306801e+00 4.059843e+00 3.033550e+00 4.505486e+00 2.587011e+00 3.228383e+00 3.387588e+00 4.447168e+00 2.756410e+00 2.884438e+00 7.565134e-01 5.229080e-01 2.482544e-01 4.456406e-01 4.410605e-01 7.277551e-01 6.097870e-01 4.797774e-01 4.394090e-01 5.610611e-01 4.118571e-01 4.835153e-01 4.083920e-01 1.740018e-01 1.030572e-01 8.082317e-02 1.234319e-01 1.486206e-01 1.133235e-01 1.738197e-01 9.385420e-02 1.248945e-01 1.213503e-01 1.658319e-01 1.135384e-01 1.192717e-01 2.838773e-02
<GCONST> 1.130454e+02
<MIXTURE> 2 3.382677e-01
<MEAN> 52
 -2.523847e+01 4.348974e+00 3.514652e+00 -7.088370e+00 -4.491241e+00 -5.141970e+00 -2.082922e+00 -3.455004e+00 -2.687589e+00 -5.783988e-01 -1.444138e+00 -9.340820e-02 6.718718e+01 3.940432e+00 3.929932e-01 2.684214e+00 1.350379e+00 -5.840665e-01 4.714105e-01 -6.863328e-01 -3.747361e-01 -8.085059e-01 -5.751611e-01 -1.443882e-01 -4.484616e-01 -2.142658e-01 1.268069e+00 2.959658e-01 7.600370e-01 2.331268e-01 -5.133476e-01 1.613861e-01 -4.860533e-01 -2.272654e-02 -5.200902e-01 -1.234172e-01 3.887475e-01 -5.571202e-02 4.371198e-01 -4.568197e-01 -2.057023e-01 -3.909762e-01 -3.407503e-01 -8.902042e-02 1.819472e-02 1.303637e-02 3.980037e-02 2.991718e-02 1.187107e-01 9.659516e-02 -1.364770e-02 9.291335e-02
<VARIANCE> 52
 1.562733e+01 1.818112e+01 2.118975e+01 2.106261e+01 2.283776e+01 3.604264e+01 2.569997e+01 2.348284e+01 2.736771e+01 2.726078e+01 2.239571e+01 2.042766e+01 1.164548e+01 2.325842e+00 2.301502e+00 2.441128e+00 2.021665e+00 2.591294e+00 2.329209e+00 2.186386e+00 1.936005e+00 2.341633e+00 2.673710e+00 2.033216e+00 1.372975e+00 7.915216e-01 2.849916e-01 3.296601e-01 3.674205e-01 5.508872e-01 5.260714e-01 6.296986e-01 3.751940e-01 3.732222e-01 4.731770e-01 6.710606e-01 4.626694e-01 3.889196e-01 1.529917e-01 9.046380e-02 7.336578e-02 9.711964e-02 8.256296e-02 1.258967e-01 9.523561e-02 7.841703e-02 8.404498e-02 1.108462e-01 1.027449e-01 1.057196e-01 6.789004e-02 3.199714e-02
<GCONST> 1.008593e+02
<MIXTURE> 3 2.187150e-01
<MEAN> 52
 -1.188793e+01 3.822253e+00 6.774872e+00 -2.717969e+01 -1.201836e+01 -7.271218e+00 -1.832823e+01 -1.403063e+01 -8.423040e+00 -2.500053e-01 -1.640549e+01 -2.632230e+00 7.110806e+01 7.128763e-01 -7.955059e-01 -2.809916e-01 -2.100406e+00 1.256176e+00 8.719487e-01 -8.460264e-01 1.039845e+00 5.581114e-01 1.770251e-01 -1.274389e+00 5.200091e-01 4.047532e-01 -3.224776e-01 2.088646e-01 -6.202354e-01 1.114170e+00 3.213603e-01 1.096589e-01 2.719095e-01 1.691915e-01 1.653991e-01 -5.109512e-01 4.722306e-01 3.402686e-02 -2.965410e-01 1.969760e-01 1.634477e-02 1.880745e-01 1.101232e-01 -2.738348e-01 -2.583659e-01 -1.322958e-01 -2.369783e-01 -2.360273e-01 -1.437295e-01 1.299197e-02 -8.166813e-02 -7.411945e-03
<VARIANCE> 52
 1.034687e+01 1.128765e+01 1.422028e+01 2.609362e+01 1.492940e+01 1.967049e+01 3.351967e+01 3.333228e+01 2.250163e+01 4.057756e+01 3.372445e+01 1.842458e+01 1.145533e+01 5.084876e-01 6.876712e-01 2.001589e+00 3.601900e+00 1.093747e+00 1.420727e+00 1.802614e+00 3.128876e+00 2.465532e+00 3.568276e+00 2.787917e+00 1.976043e+00 3.265471e-01 2.702672e-01 1.523982e-01 4.592974e-01 2.791383e-01 3.278021e-01 5.667422e-01 4.456401e-01 4.026536e-01 4.579962e-01 3.783189e-01 4.257830e-01 2.975345e-01 3.062732e-02 4.796375e-02 4.380003e-02 8.529063e-02 1.213449e-01 4.007869e-02 6.998909e-02 1.005488e-01 9.826552e-02 8.805496e-02 1.472756e-01 1.117808e-01 7.603558e-02 1.012007e-02
<GCONST> 8.960597e+01
<STATE> 8
<NUMMIXES> 3
<MIXTURE> 1 4.474361e-01
<MEAN> 52
 -5.765890e+00 4.027752e+00 1.640833e+01 -7.889325e+00 -1.532165e+01 -2.418037e-01 -1.010370e+01 -5.658124e+00 -1.026531e+01 -1.375654e+00 3.864029e+00 -3.621181e+00 7.229119e+01 9.083053e-01 -6.190366e-01 -3.545649e-01 -1.162140e+00 -3.390148e-01 1.844741e+00 -3.665015e-01 -8.551705e-02 -3.088041e-01 1.015369e+00 3.476242e-01 -1.545617e+00 1.905639e-01 -6.071749e-01 2.038909e-01 -7.349315e-01 3.644324e-01 8.486692e-01 -2.443567e-01 4.787803e-01 -5.116397e-02 4.032180e-01 1.342518e-01 -4.672763e-01 -3.504883e-02 -4.107809e-01 2.456844e-01 5.615079e-02 2.104663e-01 2.937987e-01 -5.479310e-02 -2.839511e-01 -4.297395e-02 -2.185324e-02 -2.680851e-02 -1.838561e-01 -6.754816e-02 2.036720e-01 -2.013394e-02
<VARIANCE> 52
 1.238145e+01 2.108600e+01 2.562365e+01 4.882807e+01 3.036475e+01 5.687634e+01 3.519480e+01 4.495473e+01 3.917296e+01 4.744646e+01 2.648687e+01 3.152291e+01 1.280190e+01 5.941991e-01 9.339478e-01 1.563890e+00 2.050332e+00 2.687965e+00 2.219534e+00 2.510334e+00 2.196718e+00 2.091007e+00 2.374386e+00 2.343567e+00 1.739681e+00 4.528147e-01 3.061138e-01 1.754536e-01 3.999506e-01 5.662453e-01 5.306570e-01 6.264101e-01 3.838948e-01 4.148795e-01 3.607648e-01 5.158201e-01 3.266010e-01 4.028738e-01 8.469395e-02 2.776545e-02 4.479164e-02 5.927632e-02 7.410152e-02 1.044552e-01 8.495738e-02 1.031435e-01 1.001559e-01 9.836848e-02 8.671562e-02 9.021813e-02 7.262003e-02 2.139889e-02
<GCONST> 9.759907e+01
<MIXTURE> 2 3.217806e-01
<MEAN> 52
 -9.259591e+00 -1.274538e+00 4.503109e+00 -2.861867e+01 -6.663057e+00 -6.237114e+00 -2.257584e+01 -7.546380e+00 -6.991951e+00 -4.221119e+00 -1.872901e+01 -7.171916e-01 7.191201e+01 4.649281e-01 -5.219409e-01 -1.045551e-01 8.073014e-01 3.061096e-01 -1.157716e-01 -3.581212e-01 6.790893e-01 -2.699047e-01 -9.604409e-01 6.784133e-03 5.383195e-02 -3.013621e-01 2.899999e-03 4.144638e-02 3.282148e-03 2.535377e-01 -1.812206e-01 -1.513228e-01 1.482642e-01 -6.565179e-02 -4.494962e-02 4.565063e-02 9.858890e-02 -8.098494e-02 -9.789912e-02 1.406196e-02 1.142244e-02 -2.237292e-02 -8.432946e-02 -5.988034e-03 4.295220e-03 3.275262e-02 -2.895834e-02 1.091384e-02 7.196762e-02 -2.571019e-02 -3.986675e-03 6.484048e-03
<VARIANCE> 52
 6.016234e+00 9.444262e+00 1.190357e+01 2.582995e+01 1.790858e+01 4.118040e+01 2.100357e+01 7.077481e+01 1.532203e+01 4.784467e+01 3.447832e+01 2.242256e+01 4.562601e+00 9.372309e-02 1.462203e-01 4.169667e-01 7.338921e-01 8.808495e-01 9.779554e-01 1.069927e+00 9.890606e-01 5.812171e-01 1.343646e+00 7.142547e-01 4.907419e-01 9.212441e-02 1.901374e-02 2.719297e-02 8.811763e-02 1.188737e-01 9.328453e-02 1.291813e-01 1.385011e-01 2.012070e-01 1.582453e-01 1.578515e-01 1.218754e-01 1.042394e-01 6.750383e-03 4.298627e-03 6.100618e-03 1.738994e-02 3.055978e-02 1.935341e-02 2.841152e-02 2.587182e-02 2.997400e-02 2.849278e-02 3.276510e-02 2.865965e-02 2.089239e-02 1.627040e-03
<GCONST> 3.801031e+01
<MIXTURE> 3 2.307834e-01
<MEAN> 52
 -3.705829e+00 4.602961e+00 9.608709e+00 -7.623940e+00 -1.237752e+01 3.367562e-01 -1.047404e+01 -7.078450e+00 -9.408761e+00 3.757616e-01 -2.160631e+00 -5.510113e+00 7.097618e+01 1.211146e+00 -8.836290e-01 -1.783338e+00 2.340163e+00 9.347183e-01 -1.735510e+00 1.129104e+00 1.592461e-01 -4.007369e-01 -7.830589e-02 -3.509479e-01 -2.013798e-01 -5.577092e-01 -1.513347e-01 2.458591e-02 -1.595566e-01 5.937107e-01 3.278105e-01 -6.204870e-01 3.354200e-01 -3.338411e-02 2.583387e-01 -2.394252e-01 -1.901354e-01 3.450211e-01 -3.055097e-01 1.062400e-01 9.690542e-02 3.215553e-01 -3.591484e-01 -2.265081e-01 3.735219e-01 -2.971601e-01 -7.739885e-02 3.751019e-02 4.013818e-02 3.757753e-03 -2.647593e-02 7.749742e-02
<VARIANCE> 52
 1.195450e+01 2.182445e+01 3.312861e+01 8.612395e+01 3.673289e+01 5.074167e+01 9.454869e+01 8.179530e+01 6.034570e+01 7.490050e+01 1.001130e+02 3.867540e+01 1.004663e+01 7.610369e-01 6.634450e-01 1.199075e+00 1.577549e+00 3.099555e+00 2.781466e+00 2.261615e+00 2.583212e+00 2.873749e+00 2.620067e+00 2.711479e+00 3.207562e+00 5.451437e-01 2.688985e-01 1.842870e-01 2.498832e-01 4.700095e-01 5.296475e-01 6.062295e-01 7.109778e-01 8.435301e-01 8.364364e-01 5.755664e-01 6.516479e-01 6.335689e-01 5.762366e-02 6.324799e-02 3.518240e-02 5.920437e-02 7.325627e-02 1.275799e-01 1.371767e-01 1.027190e-01 1.281212e-01 1.188486e-01 1.008890e-01 1.126813e-01 1.196680e-01 1.963711e-02
<GCONST> 1.081593e+02
<STATE> 9
<NUMMIXES> 3
<MIXTURE> 1 3.210283e-01
<MEAN> 52
 -4.543783e+00 2.150625e+00 1.519194e+01 -1.139093e+01 -1.448511e+01 2.662497e+00 -1.030204e+01 -6.597128e+00 -9.345829e+00 2.184264e+00 1.103372e+00 -8.668749e+00 7.140347e+01 4.115539e-01 8.755119e-02 -5.767225e-01 5.366523e-01 9.353319e-01 -2.635324e-02 -2.302747e-01 1.870772e-01 5.492712e-01 -1.126438e-01 -9.189571e-01 -2.829079e-01 -6.346384e-01 1.474379e-02 6.804635e-02 -7.562625e-02 3.411935e-01 6.039581e-02 -4.469021e-01 1.207964e-01 1.427765e-01 -8.059744e-02 -2.304789e-01 4.889431e-02 2.578755e-01 -1.118142e-01 1.360422e-02 -1.921707e-02 2.825402e-02 -3.208593e-02 -8.258080e-02 4.486760e-02 6.387634e-02 -3.300060e-02 -4.746594e-02 4.825462e-02 7.737949e-02 -2.617885e-02 1.820647e-02
<VARIANCE> 52
 9.089419e+00 1.646415e+01 1.337046e+01 2.592919e+01 5.940873e+01 3.933932e+01 3.766001e+01 5.610124e+01 3.124666e+01 4.138413e+01 3.319919e+01 2.563737e+01 1.066434e+01 7.254113e-02 3.860760e-01 4.537238e-01 9.320816e-01 1.335746e+00 1.468511e+00 1.395908e+00 1.233425e+00 1.127775e+00 2.037540e+00 1.017341e+00 1.537177e+00 1.447691e-01 1.111078e-02 5.802839e-02 6.540102e-02 1.686963e-01 1.602363e-01 2.121567e-01 2.997505e-01 2.300956e-01 1.682449e-01 2.941293e-01 2.081271e-01 2.679370e-01 1.288179e-02 5.980033e-03 1.376856e-02 2.279589e-02 3.226787e-02 3.748449e-02 4.460235e-02 5.128448e-02 4.872601e-02 4.214716e-02 5.959895e-02 4.402889e-02 5.977587e-02 4.316384e-03
<GCONST> 5.971358e+01
<MIXTURE> 2 3.522710e-01
<MEAN> 52
 -4.649765e+00 -2.084878e-01 9.178492e-01 -1.612790e+01 -8.890788e+00 -9.647496e+00 -1.927884e+01 -7.285518e+00 -1.077753e+01 -1.125798e+01 -1.528778e+01 -4.601733e+00 6.421262e+01 2.487827e-01 1.417445e-01 -3.433073e-01 9.700714e-01 -1.308867e-01 -2.358308e-01 4.858831e-01 -2.292449e-01 -2.803423e-01 -2.781710e-01 4.061279e-01 -2.117290e-01 -7.635477e-01 -8.306355e-02 6.553755e-02 6.290691e-02 1.932953e-02 1.207759e-02 7.004275e-02 8.563785e-02 -8.846236e-02 -3.231304e-02 3.422510e-02 7.910372e-02 3.219308e-02 -3.842296e-02 -1.058752e-02 -2.680258e-02 4.630636e-03 6.148377e-03 3.436111e-02 1.114819e-02 -1.084932e-02 3.889972e-02 1.546656e-02 -4.303362e-04 -7.852565e-03 1.973329e-02 1.236174e-02
<VARIANCE> 52
 9.373805e+00 1.898621e+01 1.680752e+01 5.118664e+01 4.137933e+01 4.041795e+01 3.454208e+01 3.584743e+01 2.142116e+01 7.781625e+01 4.091446e+01 2.694397e+01 3.743481e+01 2.511404e-01 4.680955e-01 8.586810e-01 1.294611e+00 1.137063e+00 1.283374e+00 1.325873e+00 1.422531e+00 1.290777e+00 1.524045e+00 1.162785e+00 8.820266e-01 1.955847e-01 2.890233e-02 8.018821e-02 1.226839e-01 2.259463e-01 1.965805e-01 2.485969e-01 1.980061e-01 2.217114e-01 2.375497e-01 2.304293e-01 2.282795e-01 1.599652e-01 2.306835e-02 6.422107e-03 1.328275e-02 3.137914e-02 4.684479e-02 4.138523e-02 4.769314e-02 4.505027e-02 5.784349e-02 6.204995e-02 4.921700e-02 5.579434e-02 3.401558e-02 4.539584e-03
<GCONST> 6.684162e+01
<MIXTURE> 3 3.267008e-01
<MEAN> 52
 -7.424568e-01 3.368082e+00 8.471457e+00 -1.306815e+00 -8.568783e+00 -3.274880e+00 -7.496222e+00 -4.908140e+00 -8.661646e+00 -1.983980e-01 -1.250573e+00 -6.910793e+00 6.756473e+01 7.667243e-01 7.206360e-02 -1.060264e+00 2.202682e+00 6.942960e-01 -1.270517e+00 1.004389e+00 -3.748381e-01 3.410943e-01 2.640143e-03 -8.583283e-01 3.092175e-01 -1.153379e+00 -2.186862e-01 1.035715e-01 2.405867e-01 -2.566244e-01 -8.385772e-02 4.413367e-01 -1.143766e-01 -2.228986e-01 2.554208e-01 7.275956e-02 -1.499622e-01 1.051182e-01 -4.666339e-02 -4.813396e-02 -5.117740e-02 8.070353e-02 -2.892992e-01 -2.425217e-02 2.044962e-01 -1.773667e-01 9.876146e-02 -1.505082e-02 -2.076956e-02 1.011463e-01 -6.651209e-02 9.956183e-02
<VARIANCE> 52
 1.075874e+01 2.068786e+01 3.125166e+01 5.291919e+01 3.655703e+01 4.377580e+01 5.031245e+01 4.213800e+01 5.986169e+01 5.228046e+01 5.077928e+01 3.502775e+01 1.492419e+01 4.231639e-01 1.069396e+00 8.679985e-01 1.475137e+00 1.563307e+00 2.369006e+00 2.329804e+00 3.015463e+00 3.039412e+00 2.702299e+00 2.730695e+00 2.683844e+00 3.877960e-01 8.480783e-02 1.311221e-01 1.799826e-01 3.542311e-01 3.138070e-01 4.080036e-01 4.600451e-01 4.212483e-01 5.315112e-01 4.719209e-01 4.700000e-01 4.127414e-01 5.934826e-02 2.585889e-02 3.936474e-02 3.676375e-02 5.967619e-02 7.424382e-02 8.905614e-02 9.336922e-02 1.150869e-01 1.187923e-01 9.982546e-02 1.115984e-01 1.015313e-01 9.923531e-03
<GCONST> 9.463415e+01
<STATE> 10
<NUMMIXES> 3
<MIXTURE> 1 5.809635e-01
<MEAN> 52
 -1.081439e-01 5.207215e+00 7.734060e+00 2.725559e+00 -4.446474e+00 -1.706539e+00 -4.385454e+00 -6.301258e+00 -6.338012e+00 -1.667838e-01 -3.963124e+00 -4.933036e+00 6.277279e+01 -3.894391e-01 -1.145812e-02 -7.229733e-02 1.840454e-01 9.692299e-01 6.205295e-01 2.450878e-01 2.939394e-01 7.833162e-01 -2.451264e-01 -4.601575e-01 2.485774e-01 -8.654490e-01 -2.089575e-01 -1.809088e-01 -6.046971e-02 -3.858746e-01 -1.217029e-01 3.062752e-02 -1.689840e-01 2.087303e-01 3.688220e-02 -2.231790e-03 2.168395e-01 2.154123e-02 7.229760e-02 4.081398e-02 -6.741493e-02 -1.039729e-01 2.206891e-02 -9.062385e-02 -1.519878e-01 -1.664047e-02 -1.164071e-02 -5.523469e-02 2.629466e-02 5.138014e-02 1.634187e-03 2.464314e-02
<VARIANCE> 52
 1.077126e+01 1.444216e+01 2.096646e+01 2.742908e+01 3.933213e+01 4.001039e+01 3.252375e+01 4.054129e+01 4.205611e+01 3.589268e+01 3.046741e+01 3.098871e+01 2.264008e+01 5.341265e-01 8.930105e-01 7.805454e-01 1.170686e+00 1.550481e+00 1.701764e+00 2.379703e+00 2.626411e+00 2.204529e+00 1.833217e+00 1.897320e+00 1.667140e+00 4.644619e-01 7.729774e-02 1.996883e-01 1.999306e-01 3.261790e-01 2.965380e-01 4.075095e-01 3.701107e-01 3.972201e-01 3.982417e-01 3.676700e-01 3.666671e-01 3.477718e-01 5.560861e-02 1.656479e-02 3.789330e-02 2.827025e-02 5.386939e-02 6.501154e-02 7.860284e-02 8.831552e-02 9.741914e-02 9.637496e-02 8.068608e-02 8.444677e-02 8.201069e-02 1.037565e-02
<GCONST> 8.646774e+01
<MIXTURE> 2 3.300094e-01
<MEAN> 52
 -3.560745e+00 -2.609349e+00 -2.567342e+00 -9.022896e+00 -6.649034e+00 -1.137686e+01 -1.241240e+01 -1.012389e+01 -1.371061e+01 -1.159400e+01 -9.465524e+00 -2.849615e+00 6.140726e+01 -1.954593e-01 -8.605996e-02 -1.230024e-01 1.121286e+00 2.475605e-01 2.091006e-01 3.199841e-01 -1.838950e-01 -1.417206e-01 2.199961e-02 4.517245e-01 -1.220704e-01 -5.449347e-01 -1.349589e-01 -1.180638e-01 5.684512e-02 -1.203450e-01 3.945605e-02 1.806436e-01 2.324583e-02 1.055264e-01 2.474715e-01 2.454891e-01 -3.972390e-02 4.983944e-02 6.394722e-02 1.615503e-02 -2.212728e-02 -1.863928e-02 -8.714684e-02 -1.828630e-02 -2.181595e-02 3.295478e-02 7.983400e-02 7.538819e-02 3.282379e-02 -1.273076e-04 3.042276e-02 2.127114e-03
<VARIANCE> 52
 1.608401e+01 9.367635e+01 3.236946e+01 5.174280e+01 5.985981e+01 6.533358e+01 5.024417e+01 4.944673e+01 3.819549e+01 4.920689e+01 5.587050e+01 4.559578e+01 3.088312e+01 7.780065e-01 1.341580e+00 1.380197e+00 2.972424e+00 2.541301e+00 3.555319e+00 2.414766e+00 3.486670e+00 3.104330e+00 3.338472e+00 2.185476e+00 1.995929e+00 6.878262e-01 9.262858e-02 1.534367e-01 2.628505e-01 4.349436e-01 3.756775e-01 5.142820e-01 5.154581e-01 6.913839e-01 6.415429e-01 4.825402e-01 4.248775e-01 3.378096e-01 4.977234e-02 2.079907e-02 3.380723e-02 5.144148e-02 9.507241e-02 9.047199e-02 1.124661e-01 1.071231e-01 1.379168e-01 1.385560e-01 1.037556e-01 9.661996e-02 7.081843e-02 1.226663e-02
<GCONST> 1.042121e+02
<MIXTURE> 3 8.902707e-02
<MEAN> 52
 -8.511977e+00 5.716821e-01 1.003591e-01 -3.508401e+00 -4.736896e+00 -7.024582e+00 -1.080314e+01 -9.623441e+00 -1.137946e+01 -1.110526e+01 -8.633650e+00 -3.334433e+00 5.449530e+01 -1.274110e+00 -1.483945e+00 -1.030094e+00 -2.435696e-01 8.924139e-01 1.512121e+00 2.347402e+00 2.305105e+00 2.759267e+00 2.201118e+00 1.566950e+00 8.103818e-01 -8.198127e-01 1.594878e-01 -6.685922e-02 -2.778074e-01 -4.365321e-01 -1.435122e-01 -1.180870e-01 4.742276e-02 3.270132e-01 3.086387e-01 2.530470e-01 6.006185e-02 2.118130e-02 1.787309e-01 1.478697e-01 1.925909e-01 1.448137e-01 1.421837e-01 -3.898503e-02 -1.585327e-01 -2.868493e-01 -3.831275e-01 -4.099694e-01 -2.901611e-01 -1.167652e-01 -7.205262e-02 4.113223e-02
<VARIANCE> 52
 2.298220e+01 2.314185e+01 1.511153e+01 1.360680e+01 2.221729e+01 2.746011e+01 3.072144e+01 4.625313e+01 2.880580e+01 3.350824e+01 3.480562e+01 2.484700e+01 3.281670e+01 5.081853e-01 3.377584e-01 7.844755e-01 1.121356e+00 1.257948e+00 2.243864e+00 1.786116e+00 2.859911e+00 2.323867e+00 2.159460e+00 2.270381e+00 2.009135e+00 3.695636e-01 1.442152e-01 1.811749e-01 1.503822e-01 1.961148e-01 3.204740e-01 4.667179e-01 5.181062e-01 7.648704e-01 8.630433e-01 5.691776e-01 3.348771e-01 2.944956e-01 8.320189e-02 1.724649e-02 2.056530e-02 3.115721e-02 3.710511e-02 5.619299e-02 9.223374e-02 8.806194e-02 1.187647e-01 1.034228e-01 7.714192e-02 9.960862e-02 8.451288e-02 1.061262e-02
<GCONST> 8.669216e+01
<STATE> 11
<NUMMIXES> 3
<MIXTURE> 1 2.336843e-01
<MEAN> 52
 1.670843e+00 -2.145288e-01 5.648748e+00 2.324989e+00 -8.455255e+00 -3.686252e+00 -1.172225e+01 -7.083809e+00 -3.691762e+00 3.212215e-01 -3.895350e+00 -5.541338e+00 6.838630e+01 5.601419e-02 -8.849946e-01 -2.694065e-01 -3.680876e-01 -1.242201e-01 -1.502920e-01 -1.220534e+00 9.879894e-01 6.990259e-01 -2.751032e-01 3.784160e-01 4.224361e-01 5.280716e-01 -1.008031e-01 -1.043183e-01 1.260848e-01 -1.439903e-01 -3.145751e-01 -1.321664e-01 5.618280e-02 4.532202e-01 -9.159837e-02 -2.106486e-01 2.552852e-01 9.492564e-02 2.160183e-01 -1.606951e-02 6.842545e-02 6.256427e-02 6.095263e-02 -2.228163e-02 -1.229630e-02 1.223477e-01 -1.085220e-01 -3.257918e-02 1.791470e-02 -5.342475e-02 -2.759511e-02 -4.527273e-02
<VARIANCE> 52
 9.613939e+00 3.162318e+01 4.185094e+01 4.894043e+01 3.738261e+01 2.659953e+01 5.146055e+01 6.642948e+01 5.319028e+01 5.666245e+01 4.321980e+01 4.094820e+01 2.314474e+01 4.125186e-01 1.085414e+00 1.645335e+00 2.453896e+00 2.837469e+00 2.083357e+00 2.165216e+00 5.220753e+00 3.065075e+00 3.189390e+00 2.724037e+00 1.964171e+00 6.531337e-01 7.362523e-02 2.404214e-01 2.735750e-01 3.325845e-01 3.926944e-01 3.656399e-01 3.470163e-01 7.926594e-01 4.032188e-01 3.911626e-01 4.413770e-01 3.561246e-01 9.790981e-02 1.627776e-02 5.120254e-02 5.525984e-02 9.014753e-02 8.760645e-02 8.741689e-02 7.283576e-02 2.009447e-01 1.240601e-01 1.184148e-01 1.149354e-01 8.015139e-02 2.347064e-02
<GCONST> 1.010755e+02
<MIXTURE> 2 2.970143e-01
<MEAN> 52
 -6.063800e+00 1.825846e+00 3.723239e+00 6.122890e-02 -7.623097e-01 1.016803e+00 -1.962191e+00 -1.296781e+00 -1.842402e+00 -1.179345e+00 -3.523643e+00 -2.796419e+00 5.645702e+01 -1.255359e+00 -1.581121e+00 -1.940704e+00 -1.849219e+00 -1.138446e+00 -9.644501e-01 -5.375554e-01 -1.469515e-01 5.951454e-01 4.231559e-01 7.323015e-01 6.745210e-01 -8.843693e-01 1.055992e-01 -5.220381e-02 -5.378300e-02 -2.128603e-01 -2.992099e-01 -2.570278e-01 -3.123474e-01 -3.379671e-01 -2.482318e-01 -7.651874e-03 4.895966e-02 -1.516024e-01 1.684829e-01 1.316046e-01 2.163743e-01 2.331423e-01 3.129008e-01 2.362217e-01 1.665208e-01 1.646919e-01 7.391722e-02 -2.312315e-02 -1.110674e-01 -1.462640e-01 -8.327944e-02 2.107751e-02
<VARIANCE> 52
 1.129029e+01 1.252004e+01 2.489845e+01 2.314328e+01 2.870385e+01 2.958344e+01 3.310973e+01 3.283572e+01 2.838867e+01 2.550886e+01 2.048501e+01 1.980172e+01 1.448920e+01 4.618608e-01 8.807659e-01 8.368900e-01 1.347079e+00 1.483625e+00 2.016130e+00 2.132385e+00 2.402765e+00 2.197279e+00 1.840711e+00 1.757311e+00 1.608904e+00 3.143429e-01 9.806146e-02 2.882967e-01 2.514265e-01 4.276664e-01 4.061628e-01 4.602957e-01 4.574943e-01 4.140494e-01 4.166159e-01 3.678827e-01 3.858964e-01 3.171463e-01 5.960102e-02 1.681948e-02 3.743628e-02 2.989465e-02 6.187638e-02 6.091785e-02 9.175894e-02 1.050331e-01 9.112592e-02 9.000862e-02 7.371898e-02 7.581432e-02 7.758708e-02 1.067779e-02
<GCONST> 8.498383e+01
<MIXTURE> 3 4.693013e-01
<MEAN> 52
 -9.737885e+00 -2.114777e+00 -2.552691e+00 -4.915009e+00 -4.380571e+00 -3.054667e+00 -5.413127e+00 -4.029779e+00 -2.567017e+00 -2.278037e+00 -3.100885e+00 -2.286556e+00 5.499563e+01 -1.595768e-01 -3.069023e-01 -3.375533e-01 -1.348045e-01 -1.531097e-01 -7.126001e-02 1.588264e-01 7.838064e-02 1.639757e-01 1.300383e-01 1.713730e-01 4.182988e-02 -3.667994e-01 1.573186e-01 1.922033e-01 2.153421e-01 2.119359e-01 1.035542e-01 7.858871e-02 3.112634e-02 -1.139950e-02 -8.872472e-02 -6.650888e-02 -1.091868e-01 -7.616364e-02 8.909197e-02 -4.201383e-02 -2.747560e-02 -3.837886e-02 -2.063530e-02 1.206975e-02 1.430487e-02 1.334235e-02 2.392154e-02 3.903037e-02 2.056299e-02 2.427464e-02 3.873064e-02 -2.116112e-02
<VARIANCE> 52
 1.915554e+01 1.471501e+01 2.805144e+01 1.654418e+01 1.949104e+01 2.266966e+01 2.453788e+01 2.528135e+01 2.385935e+01 2.461307e+01 1.980737e+01 1.766332e+01 2.311115e+01 4.727622e-01 6.427707e-01 8.099255e-01 1.146414e+00 1.619515e+00 1.821142e+00 2.142767e+00 1.853204e+00 1.826057e+00 2.074331e+00 1.767940e+00 1.683881e+00 2.631055e-01 9.485101e-02 1.203972e-01 1.505806e-01 2.445427e-01 3.079068e-01 3.482229e-01 4.239521e-01 3.567642e-01 3.574419e-01 4.162295e-01 3.511286e-01 3.286503e-01 3.512596e-02 2.115518e-02 2.610147e-02 2.883350e-02 5.418368e-02 6.890915e-02 8.317395e-02 9.356419e-02 7.986442e-02 8.769634e-02 9.947773e-02 8.259258e-02 7.457525e-02 8.652299e-03
<GCONST> 7.961636e+01
<TRANSP> 12
 0.000000e+00 1.000000e+00 0.000000e+00 0.000000e+00 0.000000e+00 0.000000e+00 0.000000e+00 0.000000e+00 0.000000e+00 0.000000e+00 0.000000e+00 0.000000e+00
 0.000000e+00 8.030145e-01 1.969855e-01 0.000000e+00 0.000000e+00 0.000000e+00 0.000000e+00 0.000000e+00 0.000000e+00 0.000000e+00 0.000000e+00 0.000000e+00
 0.000000e+00 0.000000e+00 8.155867e-01 1.844133e-01 0.000000e+00 0.000000e+00 0.000000e+00 0.000000e+00 0.000000e+00 0.000000e+00 0.000000e+00 0.000000e+00
 0.000000e+00 0.000000e+00 0.000000e+00 8.267663e-01 1.732337e-01 0.000000e+00 0.000000e+00 0.000000e+00 0.000000e+00 0.000000e+00 0.000000e+00 0.000000e+00
 0.000000e+00 0.000000e+00 0.000000e+00 0.000000e+00 8.008108e-01 1.991892e-01 0.000000e+00 0.000000e+00 0.000000e+00 0.000000e+00 0.000000e+00 0.000000e+00
 0.000000e+00 0.000000e+00 0.000000e+00 0.000000e+00 0.000000e+00 8.335426e-01 1.664574e-01 0.000000e+00 0.000000e+00 0.000000e+00 0.000000e+00 0.000000e+00
 0.000000e+00 0.000000e+00 0.000000e+00 0.000000e+00 0.000000e+00 0.000000e+00 7.636899e-01 2.363100e-01 0.000000e+00 0.000000e+00 0.000000e+00 0.000000e+00
 0.000000e+00 0.000000e+00 0.000000e+00 0.000000e+00 0.000000e+00 0.000000e+00 0.000000e+00 7.637054e-01 2.362947e-01 0.000000e+00 0.000000e+00 0.000000e+00
 0.000000e+00 0.000000e+00 0.000000e+00 0.000000e+00 0.000000e+00 0.000000e+00 0.000000e+00 0.000000e+00 8.374993e-01 1.625007e-01 0.000000e+00 0.000000e+00
 0.000000e+00 0.000000e+00 0.000000e+00 0.000000e+00 0.000000e+00 0.000000e+00 0.000000e+00 0.000000e+00 0.000000e+00 8.220275e-01 1.779725e-01 0.000000e+00
 0.000000e+00 0.000000e+00 0.000000e+00 0.000000e+00 0.000000e+00 0.000000e+00 0.000000e+00 0.000000e+00 0.000000e+00 0.000000e+00 7.979518e-01 2.020482e-01
 0.000000e+00 0.000000e+00 0.000000e+00 0.000000e+00 0.000000e+00 0.000000e+00 0.000000e+00 0.000000e+00 0.000000e+00 0.000000e+00 0.000000e+00 0.000000e+00
<ENDHMM>
