~o
<STREAMINFO> 1 52
<VECSIZE> 52<NULLD><MFCC_D_A_T_0><DIAGC>
~h "sil"
<BEGINHMM>
<NUMSTATES> 12
<STATE> 2
<NUMMIXES> 3
<MIXTURE> 1 2.092956e-01
<MEAN> 52
 -1.129648e+01 -1.856572e-01 -2.704324e+00 -6.258839e+00 3.582561e+00 -3.304435e+00 -3.171660e+00 1.769713e+00 5.622013e-01 2.374429e+00 -2.552247e+00 -4.827100e+00 5.933890e+01 1.311539e+00 -9.598081e-01 -4.896452e-01 8.850304e-01 -5.947078e-01 -1.577190e-01 9.975088e-01 5.416363e-01 3.138697e-01 6.485405e-02 -4.510573e-01 -9.446245e-01 4.349397e-01 7.287575e-02 -9.784186e-02 -4.303415e-02 4.653242e-03 -2.142603e-01 3.719465e-02 3.731584e-02 -1.733956e-02 -1.342065e-01 -4.977834e-02 -2.073304e-02 3.255278e-02 2.960681e-02 -6.574533e-02 5.934239e-02 6.286954e-02 -7.748596e-02 9.798587e-02 4.334553e-02 -9.252331e-02 -1.019227e-01 -7.931708e-02 2.694229e-02 7.609527e-02 1.049216e-01 -8.577554e-02
<VARIANCE> 52
 4.357284e+01 2.879232e+01 1.963304e+01 2.628392e+01 4.220156e+01 3.986677e+01 2.966010e+01 3.662651e+01 2.605164e+01 3.444773e+01 2.348457e+01 2.515757e+01 1.824154e+01 4.215159e+00 1.782303e+00 1.803847e+00 2.398355e+00 2.821691e+00 2.567719e+00 2.800807e+00 2.293370e+00 3.425192e+00 4.403627e+00 2.900963e+00 2.112091e+00 1.085178e+00 4.367234e-01 2.847489e-01 2.767569e-01 3.252476e-01 3.778535e-01 5.896568e-01 5.216272e-01 4.093959e-01 6.129631e-01 5.788128e-01 4.027335e-01 3.402948e-01 2.186932e-01 9.657066e-02 6.401733e-02 6.363820e-02 8.467840e-02 1.157067e-01 1.264899e-01 1.354727e-01 8.167627e-02 1.265743e-01 1.397822e-01 9.320996e-02 6.336664e-02 4.668636e-02
<GCONST> 1.080334e+02
<MIXTURE> 2 4.118404e-01
<MEAN> 52
 -8.937235e+00 -2.826116e+00 -3.052155e+00 -5.405782e+00 -4.586267e+00 -3.268644e+00 -3.984884e+00 -3.293609e+00 -3.182244e+00 -1.372896e+00 -2.186146e+00 -1.670822e+00 5.334105e+01 -1.968777e-01 -2.267190e-01 -3.263074e-01 -1.751360e-01 -1.107630e-01 -2.737249e-01 -5.453039e-02 -1.941992e-01 2.044834e-01 -9.347118e-02 2.267561e-01 5.089625e-02 -1.928269e-01 2.445367e-01 3.342844e-01 3.839855e-01 4.106753e-01 3.531854e-01 3.094803e-01 7.641266e-02 3.299106e-02 2.777546e-02 -7.509121e-02 -5.527149e-02 -7.106909e-02 1.597695e-01 -5.493041e-02 -8.749039e-02 -8.465806e-02 -4.251628e-02 5.287021e-03 3.048208e-02 3.593253e-02 8.052056e-02 2.726554e-02 2.732142e-02 -8.911870e-03 1.796611e-02 -4.942073e-02
<VARIANCE> 52
 8.266278e+00 8.431215e+00 1.654264e+01 1.773615e+01 1.479245e+01 1.786835e+01 1.936381e+01 2.218141e+01 2.422485e+01 2.160471e+01 2.004227e+01 1.663481e+01 1.174656e+01 3.748944e-01 6.529674e-01 9.600118e-01 1.445545e+00 1.736886e+00 1.931626e+00 2.053020e+00 1.761986e+00 1.623273e+00 1.996197e+00 1.719360e+00 1.486123e+00 1.934048e-01 6.549250e-02 1.308338e-01 2.000356e-01 2.349511e-01 2.668450e-01 2.979527e-01 4.512205e-01 3.900333e-01 4.057276e-01 3.942847e-01 3.707546e-01 2.679871e-01 4.138624e-02 1.633469e-02 2.910421e-02 4.100716e-02 6.352069e-02 7.902604e-02 8.720183e-02 1.003565e-01 8.529372e-02 7.609560e-02 9.526905e-02 8.705065e-02 6.812540e-02 9.017765e-03
<GCONST> 7.603955e+01
<MIXTURE> 3 3.788641e-01
<MEAN> 52
 -1.016061e+01 -8.757657e-01 -2.805351e+00 -2.908055e+00 1.952191e+00 -1.412966e+00 -2.785126e+00 -1.673776e+00 -2.071306e+00 1.069963e+00 -1.884114e+00 -2.818263e+00 5.744857e+01 -9.995603e-02 -5.964848e-02 3.590149e-02 3.109168e-01 1.021177e-01 -4.843825e-02 -2.488245e-01 -1.692980e-01 -9.915257e-02 -3.193348e-01 3.420126e-02 2.819781e-01 -1.756334e-01 -2.693379e-02 -8.362018e-02 -5.332289e-02 -5.841229e-02 -8.607307e-02 2.249478e-03 9.920479e-03 8.661939e-02 9.933557e-02 5.309771e-04 -3.634721e-02 -1.013407e-01 -1.250745e-02 -3.282279e-03 -1.236731e-02 -3.510834e-02 -2.356309e-02 -9.592548e-03 2.286055e-02 4.119565e-02 1.029947e-02 1.362686e-02 5.635968e-03 1.864821e-02 -1.532322e-02 1.567958e-02
<VARIANCE> 52
 4.234226e+01 1.478197e+01 1.276276e+01 2.057790e+01 3.754918e+01 3.239794e+01 1.920789e+01 2.144366e+01 2.270393e+01 2.931633e+01 1.955103e+01 2.908559e+01 2.293892e+01 4.760481e-01 4.647751e-01 6.290752e-01 6.068581e-01 9.559377e-01 1.589358e+00 1.551786e+00 1.522171e+00 1.694965e+00 1.749140e+00 1.181518e+00 1.508709e+00 3.158225e-01 7.260263e-02 7.550577e-02 1.170820e-01 1.013879e-01 1.257123e-01 2.454093e-01 2.829008e-01 1.752588e-01 2.687361e-01 3.037972e-01 2.045190e-01 2.289946e-01 3.368077e-02 8.846685e-03 1.545560e-02 1.975235e-02 1.860649e-02 2.349547e-02 3.931297e-02 4.762560e-02 3.171961e-02 4.594913e-02 5.224594e-02 3.716660e-02 4.082881e-02 7.387387e-03
<GCONST> 6.320007e+01
<STATE> 3
<NUMMIXES> 3
<MIXTURE> 1 2.329635e-01
<MEAN> 52
 -9.446912e+00 -3.067446e+00 -4.694506e+00 -1.965266e+00 -1.672145e-01 -8.903863e-01 -2.685963e+00 -1.631731e+00 -3.816511e-01 -6.021483e-01 -1.748084e+00 -2.079794e+00 5.442662e+01 -3.130075e-01 -1.642764e-01 -1.747373e-01 1.243221e-01 -7.256020e-02 -1.120693e-01 -1.488933e-01 -2.243583e-01 -1.215550e-01 -8.831890e-02 1.009621e-01 1.384927e-01 1.427616e-01 6.084574e-02 3.100580e-02 1.353856e-01 -3.046826e-02 -3.559361e-02 -2.342238e-02 3.760815e-03 5.008896e-02 -4.526845e-02 4.880410e-02 5.651710e-03 1.981875e-02 -6.558289e-02 2.915206e-02 -8.132018e-03 1.500520e-02 -2.975072e-02 2.826181e-03 -5.256757e-03 2.990489e-02 5.601154e-02 3.629192e-02 -6.620285e-03 -1.856953e-02 -2.675536e-03 -3.268037e-02
<VARIANCE> 52
 1.475760e+01 9.090094e+00 1.834475e+01 1.910447e+01 2.579166e+01 2.059779e+01 2.223918e+01 2.449601e+01 1.997339e+01 1.931283e+01 2.067814e+01 1.974780e+01 2.314176e+01 1.425080e+00 8.590145e-01 1.928669e+00 1.660538e+00 1.923320e+00 1.899828e+00 2.196002e+00 2.177952e+00 1.803355e+00 1.678762e+00 2.159669e+00 1.386331e+00 8.816251e-01 2.708038e-01 1.448080e-01 3.515167e-01 3.404532e-01 3.692305e-01 3.540589e-01 3.992601e-01 4.594808e-01 3.617261e-01 3.368330e-01 4.385359e-01 2.659707e-01 1.553027e-01 6.277045e-02 3.515616e-02 9.016520e-02 8.447705e-02 8.057748e-02 8.858683e-02 1.048498e-01 1.064823e-01 8.024656e-02 7.845931e-02 1.027568e-01 6.195942e-02 3.424494e-02
<GCONST> 9.117989e+01
<MIXTURE> 2 3.832251e-01
<MEAN> 52
 -8.387862e+00 -2.948003e+00 -3.095896e+00 -3.666883e+00 -2.342311e+00 -1.793950e+00 -3.144380e+00 -1.667221e+00 -9.133395e-01 -1.534980e+00 -1.806557e+00 -8.220484e-01 5.124283e+01 -2.735888e-03 -7.619235e-02 -1.342466e-01 -2.635754e-01 -4.196152e-01 -7.049989e-01 -4.935624e-01 -1.133301e-01 5.406635e-02 1.876247e-01 2.518696e-01 2.407640e-01 -8.082124e-02 -2.835129e-02 -1.600852e-03 4.807015e-04 2.080836e-02 -2.020412e-02 -2.492490e-03 -2.187242e-03 -5.735123e-02 -5.537181e-02 -2.815871e-02 -2.638591e-02 1.472346e-02 2.502025e-02 -1.680027e-03 8.054970e-03 1.446441e-02 5.637085e-02 9.172828e-02 1.476542e-01 1.032793e-01 3.405178e-02 -4.495340e-03 -4.525289e-02 -5.970293e-02 -4.274927e-02 6.338555e-03
<VARIANCE> 52
 4.143048e+00 4.994722e+00 7.704072e+00 1.192392e+01 1.430516e+01 1.607660e+01 1.677944e+01 1.677997e+01 1.634857e+01 1.653934e+01 1.786121e+01 1.389352e+01 6.004412e+00 1.768276e-01 3.483592e-01 4.516100e-01 7.130188e-01 8.056502e-01 6.138744e-01 9.811762e-01 1.208950e+00 1.450397e+00 1.331273e+00 1.418356e+00 1.072345e+00 5.706136e-02 3.522990e-02 6.606650e-02 9.641852e-02 1.580743e-01 2.099059e-01 2.342481e-01 2.667905e-01 2.437025e-01 2.710133e-01 2.747905e-01 2.974530e-01 2.188361e-01 1.487978e-02 8.520381e-03 1.584267e-02 2.171471e-02 3.471282e-02 3.967871e-02 2.812703e-02 4.774204e-02 5.731335e-02 6.818883e-02 6.137538e-02 6.750105e-02 4.563601e-02 3.048759e-03
<GCONST> 4.948344e+01
<MIXTURE> 3 3.838115e-01
<MEAN> 52
 -8.418427e+00 -2.822110e+00 -2.834752e+00 -3.468397e+00 -2.780238e+00 -1.737789e+00 -3.075507e+00 -2.162776e+00 -1.338498e+00 -1.728896e+00 -1.869180e+00 -6.490952e-01 5.126747e+01 7.074798e-02 1.100542e-02 5.495151e-02 2.710898e-01 5.366280e-01 7.996451e-01 5.603464e-01 2.777502e-01 9.916580e-02 -1.335106e-01 -2.414970e-01 -1.293194e-01 -7.064696e-02 -9.931284e-03 1.276949e-02 -1.595695e-02 -2.506547e-02 3.741017e-02 -7.680356e-03 4.095933e-03 4.922104e-02 8.669125e-03 -1.411278e-02 -2.408863e-02 -3.257865e-02 3.717496e-02 -2.436107e-02 -1.967339e-02 -3.759905e-02 -6.970651e-02 -1.243584e-01 -1.902132e-01 -1.260919e-01 -5.220887e-02 -1.380131e-02 3.413213e-02 6.149976e-02 4.052808e-02 -5.363487e-04
<VARIANCE> 52
 4.332545e+00 5.900561e+00 9.010978e+00 1.151031e+01 1.367929e+01 1.474936e+01 1.766633e+01 1.835218e+01 1.943336e+01 1.650259e+01 1.700165e+01 1.399280e+01 7.560901e+00 1.580360e-01 3.470773e-01 5.209450e-01 7.258792e-01 8.994260e-01 6.611283e-01 1.135347e+00 1.258835e+00 1.427506e+00 1.386827e+00 1.408474e+00 1.141004e+00 7.023697e-02 3.884107e-02 6.596456e-02 1.086776e-01 1.597287e-01 2.121550e-01 2.405698e-01 2.756485e-01 2.766968e-01 2.894851e-01 2.801637e-01 3.027362e-01 2.217325e-01 1.461902e-02 8.724576e-03 1.612593e-02 2.535833e-02 3.640691e-02 4.391679e-02 3.231806e-02 5.659091e-02 6.291275e-02 6.791797e-02 6.657112e-02 6.862288e-02 5.066000e-02 3.436984e-03
<GCONST> 5.247573e+01
<STATE> 4
<NUMMIXES> 3
<MIXTURE> 1 1.651082e-01
<MEAN> 52
 -1.496168e+00 -5.786297e+00 -5.693572e+00 -1.965425e+00 9.172227e-01 -8.128296e-01 2.550224e+00 8.743438e-01 -1.701851e+00 4.545005e+00 -4.591510e+00 -9.774475e+00 6.111413e+01 -1.759488e-01 4.562388e-01 6.991722e-02 2.751930e-01 3.105166e-01 5.958019e-01 -2.008871e-01 -7.613864e-01 -1.443811e-01 -1.842189e-01 2.097899e-01 4.762035e-01 -5.401394e-01 -2.319075e-01 1.787037e-01 5.288242e-02 -5.924822e-02 1.062714e-02 5.331770e-03 -1.802701e-01 3.831920e-02 1.200649e-01 -7.430058e-02 4.703218e-02 1.469145e-01 -8.130744e-02 6.073726e-02 -7.287714e-02 -5.266335e-03 -1.045472e-02 -6.761418e-02 -4.737143e-02 5.240843e-02 7.691051e-02 8.968839e-03 1.667747e-02 -4.327294e-02 -3.769224e-02 3.577619e-02
<VARIANCE> 52
 2.811053e+00 1.258305e+01 1.030952e+01 1.604928e+01 3.596501e+01 2.920148e+01 3.190930e+01 2.010189e+01 3.558226e+01 2.162940e+01 1.968769e+01 1.436326e+01 1.256110e+01 5.123620e-01 7.329204e-01 6.134876e-01 8.084549e-01 1.435254e+00 1.162983e+00 2.319204e+00 1.783290e+00 1.894440e+00 1.387462e+00 1.121141e+00 9.764568e-01 2.974685e-01 5.946741e-02 1.326025e-01 1.415833e-01 1.907635e-01 2.652717e-01 2.074646e-01 4.635877e-01 3.552078e-01 4.119183e-01 2.910064e-01 2.672143e-01 1.607979e-01 3.385676e-02 1.591640e-02 2.077732e-02 2.880617e-02 4.568651e-02 6.104112e-02 5.326309e-02 1.093378e-01 9.939503e-02 9.898119e-02 5.685680e-02 5.507771e-02 3.839139e-02 9.004786e-03
<GCONST> 6.982246e+01
<MIXTURE> 2 4.439164e-01
<MEAN> 52
 -9.503510e+00 -2.766515e+00 -3.404848e+00 -3.337979e+00 -1.954684e+00 -3.187610e+00 -3.822099e+00 -1.414291e+00 -8.505102e-01 -1.068359e+00 -2.380698e+00 -1.327083e+00 5.380383e+01 3.230601e-02 3.545494e-02 -1.066372e-01 -2.023543e-01 -2.470351e-01 -3.462687e-01 -7.999337e-01 -8.439757e-01 -7.860230e-01 -5.745927e-01 -5.531614e-02 1.506088e-01 2.164246e-02 -1.629031e-02 2.444170e-03 -7.417332e-02 -8.254412e-03 3.631519e-02 1.098911e-01 -1.144406e-02 3.355330e-02 2.808341e-02 1.100637e-02 7.427616e-02 -1.886258e-02 6.591257e-02 -3.155404e-02 -1.998980e-02 1.446944e-02 2.177335e-02 3.546041e-02 7.520974e-02 1.707362e-01 1.967494e-01 1.921152e-01 1.340833e-01 2.627309e-02 -1.519563e-02 -7.140785e-03
<VARIANCE> 52
 1.234459e+01 7.690702e+00 1.159384e+01 1.710468e+01 2.401727e+01 3.276244e+01 2.572941e+01 3.187915e+01 2.338564e+01 1.951626e+01 1.639876e+01 1.943932e+01 3.885332e+01 4.082380e-01 4.480063e-01 7.456239e-01 8.181841e-01 1.127355e+00 1.391866e+00 1.192817e+00 1.335690e+00 1.516028e+00 1.544263e+00 1.526692e+00 1.830002e+00 1.688711e-01 7.378655e-02 9.646441e-02 1.501070e-01 1.423867e-01 2.278530e-01 3.112886e-01 3.722641e-01 4.008951e-01 4.058380e-01 3.683930e-01 2.990524e-01 3.354611e-01 3.060704e-02 1.587261e-02 2.277076e-02 3.316226e-02 3.823058e-02 4.991329e-02 7.445209e-02 5.979142e-02 6.230557e-02 7.812268e-02 7.735901e-02 7.334665e-02 8.416906e-02 7.060932e-03
<GCONST> 7.120221e+01
<MIXTURE> 3 3.909754e-01
<MEAN> 52
 -9.345319e+00 -2.906660e+00 -3.946857e+00 -2.264889e+00 2.216679e-01 -7.443744e-01 -2.960572e+00 -1.137272e+00 -6.648147e-01 -1.655736e-01 -9.169683e-01 -8.982519e-01 5.509586e+01 4.156663e-02 1.701213e-02 5.099834e-01 -7.815082e-02 -1.550075e-01 1.301021e-01 9.266653e-01 1.235435e+00 6.190051e-01 1.382061e-01 -1.993907e-01 1.223937e-01 -2.635416e-01 3.689665e-02 -6.922488e-02 4.271231e-02 -5.521690e-02 -1.595459e-01 -2.834226e-01 -1.522427e-02 6.217372e-02 -8.426987e-02 -1.082453e-01 -1.829052e-01 -1.421890e-01 -3.921428e-02 -4.746324e-02 -3.612543e-02 -1.250656e-01 -4.648752e-03 2.455653e-02 -3.601395e-02 -2.206111e-01 -2.817644e-01 -1.396844e-01 -6.127334e-02 7.449168e-02 2.314259e-02 6.028797e-02
<VARIANCE> 52
 1.538119e+01 1.202766e+01 1.282810e+01 2.268556e+01 2.912175e+01 2.987461e+01 3.296033e+01 2.691768e+01 2.396643e+01 2.155873e+01 1.812405e+01 2.058529e+01 3.910123e+01 6.741859e-01 6.770498e-01 8.778741e-01 1.184119e+00 1.586756e+00 2.100407e+00 1.751278e+00 1.239235e+00 2.263538e+00 1.550722e+00 1.741948e+00 1.654355e+00 4.795823e-01 1.335419e-01 1.343853e-01 2.157865e-01 2.356792e-01 3.136258e-01 3.932965e-01 4.952736e-01 4.849671e-01 4.592915e-01 2.808912e-01 3.451712e-01 3.179621e-01 9.853292e-02 2.733351e-02 3.383827e-02 3.952691e-02 5.140834e-02 7.625407e-02 9.212650e-02 8.560524e-02 5.485778e-02 1.047878e-01 7.622175e-02 8.160107e-02 7.641266e-02 1.999301e-02
<GCONST> 8.425107e+01
<STATE> 5
<NUMMIXES> 3
<MIXTURE> 1 1.183411e-01
<MEAN> 52
 -9.412920e+00 -1.147974e+01 -9.305260e+00 -2.405646e+00 1.218000e+01 7.922170e+00 2.306883e+00 -6.638788e+00 -4.148940e+00 -3.714969e+00 5.548551e+00 4.622022e+00 6.391961e+01 5.507838e-01 4.714494e-01 -1.391199e-01 -3.512743e-01 -7.171010e-01 1.146323e+00 4.096626e-02 -8.521647e-01 -8.143783e-01 7.326685e-01 4.436477e-01 1.136231e+00 -1.244199e+00 3.332406e-02 1.173021e+00 8.307840e-01 -3.860825e-02 -1.899761e+00 -1.434165e+00 -8.327017e-01 5.907120e-01 2.368722e-01 2.836411e-01 -9.642620e-01 -8.018592e-01 -1.183497e+00 -1.385139e-01 -1.142411e-01 5.593740e-02 1.915945e-02 6.669363e-02 -3.234079e-01 -2.450366e-02 1.839900e-01 1.989780e-01 -1.524787e-01 -7.516868e-02 -2.577912e-01 2.247331e-01
<VARIANCE> 52
 9.614670e+00 1.346101e+01 1.135388e+01 1.516497e+01 2.960071e+01 2.825437e+01 2.459920e+01 2.653862e+01 2.990711e+01 2.049192e+01 2.052348e+01 3.069880e+01 4.366264e+01 4.247712e-01 3.812400e+00 2.224252e+00 8.077127e-01 1.087129e+01 7.239586e+00 4.636809e+00 2.401868e+00 2.089012e+00 1.846186e+00 4.390886e+00 3.180712e+00 4.909479e+00 2.641389e-01 3.606713e-01 2.029884e-01 2.027521e-01 7.991173e-01 7.649608e-01 6.284611e-01 5.824211e-01 6.471338e-01 4.411870e-01 4.481853e-01 6.509514e-01 6.468476e-01 2.919168e-02 1.963637e-01 1.017754e-01 4.441570e-02 5.475181e-01 3.449314e-01 2.307900e-01 1.011058e-01 1.092016e-01 9.264082e-02 2.030468e-01 1.687854e-01 2.486538e-01
<GCONST> 1.135498e+02
<MIXTURE> 2 4.530821e-01
<MEAN> 52
 -8.487368e+00 -3.092446e+00 -3.240506e+00 -3.897331e+00 -2.690117e+00 -2.681191e+00 -3.960989e+00 -2.727922e+00 -2.295967e+00 -2.552458e+00 -2.807328e+00 -1.725741e+00 5.421252e+01 -2.736692e-01 -2.287553e-01 -7.495890e-02 -1.704568e-01 -4.150417e-01 -6.163527e-01 -1.646680e-01 4.459527e-01 2.888537e-01 -2.113322e-01 -3.045572e-01 -3.543935e-01 -4.156085e-02 -7.125670e-02 -2.344012e-01 -1.575571e-01 7.240885e-02 3.579528e-01 2.295346e-01 1.400439e-01 1.595931e-02 1.183294e-01 1.439487e-01 2.598469e-01 1.726892e-01 2.661263e-01 4.944170e-02 3.822821e-02 5.188654e-03 2.720163e-02 9.207154e-02 1.476532e-01 4.332991e-02 -9.393401e-02 -7.026170e-02 4.826301e-02 7.553910e-02 1.101269e-01 3.543524e-03
<VARIANCE> 52
 1.044319e+01 9.567101e+00 1.077573e+01 1.650586e+01 1.938771e+01 2.453695e+01 2.048325e+01 2.465631e+01 2.327692e+01 2.140450e+01 1.760546e+01 1.756874e+01 1.482374e+01 3.852283e-01 7.676167e-01 9.454097e-01 8.001332e-01 1.423824e+00 1.807009e+00 1.704467e+00 1.745032e+00 1.439990e+00 1.459219e+00 1.444123e+00 1.219930e+00 4.146593e-01 9.289432e-02 2.439404e-01 1.612325e-01 1.917108e-01 4.689608e-01 4.278308e-01 4.058660e-01 4.277287e-01 4.325413e-01 3.705837e-01 2.873535e-01 3.066481e-01 1.602120e-01 1.723767e-02 4.199438e-02 4.367135e-02 3.929305e-02 7.931727e-02 9.278836e-02 8.421230e-02 7.196530e-02 7.158049e-02 7.759610e-02 6.924222e-02 5.949047e-02 2.909642e-02
<GCONST> 7.880116e+01
<MIXTURE> 3 4.285767e-01
<MEAN> 52
 -9.430609e+00 -4.528271e+00 -3.624152e+00 -1.192515e+00 3.167513e-01 -8.275117e-01 -2.278876e+00 -1.515180e+00 -1.429122e+00 -8.767666e-01 -1.190228e+00 -4.026695e-01 5.448034e+01 -4.333608e-01 -2.673857e-01 -3.769750e-04 -4.315354e-03 3.937460e-01 -1.123973e-02 1.807479e-01 6.979984e-02 3.914753e-02 -2.940846e-01 1.815461e-01 1.483741e-02 5.563533e-01 -1.490385e-02 -4.021731e-02 -6.893585e-02 -8.123789e-02 7.147883e-02 9.091847e-02 7.064467e-02 -6.631234e-02 -5.198716e-02 -6.160573e-02 5.628154e-02 3.213337e-02 3.790747e-02 4.723317e-02 2.685377e-02 -7.030536e-03 -1.785995e-02 -8.902601e-02 5.556074e-03 -3.091860e-02 -2.118977e-02 -1.513585e-02 4.523923e-02 3.354680e-04 3.191239e-02 -1.057968e-01
<VARIANCE> 52
 1.651839e+01 2.491898e+01 1.647089e+01 1.676183e+01 2.572839e+01 2.851231e+01 2.369075e+01 1.970993e+01 2.573673e+01 2.109997e+01 2.357156e+01 2.073505e+01 4.258369e+01 1.730514e+00 4.279221e+00 2.248321e+00 1.422313e+00 6.802854e+00 5.844030e+00 3.173231e+00 3.088058e+00 3.516254e+00 2.128883e+00 3.727727e+00 3.077702e+00 3.915261e+00 2.620193e-01 5.021552e-01 2.543041e-01 2.148694e-01 5.714141e-01 7.925225e-01 5.289485e-01 4.444701e-01 5.755257e-01 4.306885e-01 5.513199e-01 4.837295e-01 5.249006e-01 7.759827e-02 2.155743e-01 9.717935e-02 5.542926e-02 3.120739e-01 2.581688e-01 1.589196e-01 1.360675e-01 1.649431e-01 1.055307e-01 1.908631e-01 1.513118e-01 2.047162e-01
<GCONST> 1.157578e+02
<STATE> 6
<NUMMIXES> 3
<MIXTURE> 1 2.835703e-01
<MEAN> 52
 -1.221482e+01 -4.402188e+00 -2.964108e+00 -4.170854e+00 -2.199918e+00 -3.082822e+00 -2.599698e+00 -7.086498e-01 -2.147650e+00 -2.276829e+00 -3.188407e-01 -1.013685e-01 5.659555e+01 -5.077240e-01 1.108507e-01 -1.844692e-01 -8.355222e-01 -9.518617e-01 -9.857257e-01 -9.123516e-01 -8.214275e-01 -5.485367e-01 -2.136018e-01 -2.432981e-02 -1.079123e-01 5.155923e-02 1.075200e-01 -5.806598e-03 -1.785777e-03 5.865003e-02 -4.800859e-02 1.882698e-02 -1.073678e-01 -8.186147e-02 -1.116118e-04 -1.083736e-01 -1.846534e-01 -7.286495e-02 -2.685574e-02 8.985464e-02 -1.950670e-04 6.223658e-02 1.741428e-01 1.910844e-01 1.993358e-01 1.979781e-01 1.909508e-01 1.107693e-01 3.837071e-02 6.039914e-03 2.783294e-02 -6.284839e-03
<VARIANCE> 52
 1.289120e+01 1.868873e+01 1.909266e+01 2.025237e+01 1.860439e+01 2.745518e+01 2.939912e+01 3.031945e+01 3.026088e+01 3.259961e+01 2.463472e+01 1.871926e+01 1.684220e+01 6.507545e-01 9.838080e-01 1.488434e+00 9.719046e-01 1.508733e+00 1.595660e+00 1.733826e+00 2.260391e+00 1.774043e+00 2.944652e+00 1.961440e+00 1.475101e+00 7.074177e-01 1.392162e-01 1.602830e-01 2.225187e-01 2.478092e-01 3.090238e-01 4.261316e-01 4.076691e-01 5.402095e-01 4.792897e-01 6.071386e-01 4.072124e-01 2.957416e-01 8.946553e-02 2.311245e-02 3.825548e-02 6.064280e-02 3.956737e-02 7.089949e-02 7.741487e-02 8.485665e-02 9.890805e-02 8.483564e-02 1.437452e-01 9.473821e-02 7.101436e-02 2.480055e-02
<GCONST> 8.826952e+01
<MIXTURE> 2 3.187841e-01
<MEAN> 52
 -1.076240e+01 -4.150076e+00 -3.390690e+00 -3.576096e+00 -2.527520e+00 -3.158344e+00 -2.640364e+00 -2.383710e-01 -1.154731e+00 -2.658392e+00 -2.354255e+00 -7.233738e-01 5.530287e+01 8.424995e-03 -7.371564e-02 -1.135294e-01 -5.500878e-02 -5.751915e-03 2.808407e-01 5.641962e-01 8.523282e-01 9.935444e-01 1.393975e+00 7.332196e-01 1.386795e-01 -8.808133e-02 1.218644e-02 2.104639e-04 -1.882729e-02 -9.918898e-02 -1.056226e-01 -2.574402e-02 -1.614818e-01 -2.202938e-01 -8.487216e-02 7.855567e-02 1.841293e-01 8.053458e-02 -6.929807e-03 -1.216166e-02 3.224856e-02 2.824525e-02 -1.586234e-03 -1.353870e-02 -5.970889e-02 -1.257568e-01 -1.829602e-01 -2.206635e-01 -3.100545e-01 -1.737147e-01 -3.212972e-02 7.250945e-03
<VARIANCE> 52
 1.263230e+01 1.682708e+01 1.450602e+01 2.190762e+01 1.337481e+01 2.011620e+01 2.199412e+01 2.654339e+01 2.369234e+01 2.343317e+01 2.038392e+01 1.619884e+01 1.392657e+01 3.238088e-01 4.625799e-01 6.544165e-01 8.704220e-01 1.023104e+00 1.143274e+00 1.645635e+00 1.591014e+00 1.603103e+00 1.229945e+00 1.092953e+00 1.441161e+00 1.918302e-01 7.250017e-02 1.079779e-01 1.557744e-01 1.950065e-01 2.032048e-01 2.654167e-01 3.174809e-01 3.541838e-01 4.103082e-01 3.864412e-01 2.700272e-01 2.324556e-01 4.592369e-02 1.424316e-02 2.361342e-02 3.259934e-02 4.117508e-02 5.104236e-02 5.242048e-02 7.562467e-02 7.194436e-02 7.462376e-02 5.714081e-02 5.172561e-02 6.527518e-02 9.699040e-03
<GCONST> 6.887510e+01
<MIXTURE> 3 3.976455e-01
<MEAN> 52
 -1.173653e+01 -4.727357e+00 -3.326385e+00 -4.456334e+00 -3.975671e+00 -4.535226e+00 -4.997468e+00 -2.042329e+00 -2.922948e+00 -3.415501e+00 -1.953574e+00 -6.514784e-01 5.669364e+01 1.440836e-01 1.299120e-01 1.102741e-01 4.464754e-01 5.264357e-01 4.517581e-01 2.620368e-01 5.124049e-03 -2.974769e-01 -6.742894e-01 -5.330921e-01 1.090640e-02 -5.422299e-02 6.563598e-02 5.188516e-02 1.441409e-02 5.470484e-02 1.350508e-01 1.735225e-01 1.806511e-01 7.218760e-02 1.335653e-01 1.911818e-01 1.063584e-01 2.865377e-02 -3.006847e-02 -3.904770e-02 -1.267058e-02 -2.864014e-02 -1.038953e-01 -1.404130e-01 -1.150741e-01 -4.891679e-02 6.236328e-03 7.599059e-02 1.529391e-01 1.032923e-01 -6.692949e-03 -5.577579e-03
<VARIANCE> 52
 1.245727e+01 1.891650e+01 1.344786e+01 1.956948e+01 2.139760e+01 1.953544e+01 2.562867e+01 2.518417e+01 2.717223e+01 2.437553e+01 2.174202e+01 1.709069e+01 1.109216e+01 5.145593e-01 6.615506e-01 7.766778e-01 6.754351e-01 1.055863e+00 1.281143e+00 1.295121e+00 1.551879e+00 1.723192e+00 1.496575e+00 1.397740e+00 1.221674e+00 2.911154e-01 9.884056e-02 1.281873e-01 1.802019e-01 1.867322e-01 3.008285e-01 3.006372e-01 3.260868e-01 3.509732e-01 3.516923e-01 4.498883e-01 3.279701e-01 2.363482e-01 4.992548e-02 2.216182e-02 2.743462e-02 3.830614e-02 3.262606e-02 5.079854e-02 6.466821e-02 6.505967e-02 7.508948e-02 7.695229e-02 7.714355e-02 6.622288e-02 5.497641e-02 1.143857e-02
<GCONST> 7.338355e+01
<STATE> 7
<NUMMIXES> 3
<MIXTURE> 1 1.456803e-01
<MEAN> 52
 -1.122485e+01 -2.002191e+00 -1.212125e+00 -2.515808e+00 -1.497994e+00 -2.440741e+00 -2.917200e+00 -8.115832e-01 -1.338876e+00 -2.427566e+00 -7.773985e-01 -1.065875e-01 5.742849e+01 2.614142e-01 6.979708e-02 6.793841e-01 4.897526e-01 -1.357044e-01 4.061180e-02 1.003125e-01 5.443170e-01 4.576587e-01 5.321851e-01 4.189090e-01 1.108460e-01 2.765852e-01 6.270467e-02 -9.404908e-02 -1.048319e-01 -1.300275e-01 -3.382233e-02 -4.130579e-02 -8.289038e-02 -2.237580e-02 -7.735250e-02 5.411484e-02 2.415140e-02 -5.419241e-02 -4.480677e-02 -3.915358e-02 -7.162747e-03 -8.775823e-02 -7.831993e-02 -5.412006e-03 -3.606533e-02 -4.571424e-02 -1.037770e-01 -8.940894e-02 -1.261523e-01 -3.081966e-02 2.635732e-03 -6.292521e-03
<VARIANCE> 52
 2.543404e+01 2.198396e+01 4.569863e+01 2.508296e+01 3.893409e+01 2.607998e+01 2.295382e+01 3.491036e+01 3.386895e+01 2.473436e+01 3.626839e+01 2.284107e+01 6.196077e+01 1.738079e+00 1.121326e+00 2.447089e+00 2.021463e+00 3.422996e+00 4.138967e+00 2.244387e+00 2.545478e+00 3.095431e+00 1.848965e+00 3.033708e+00 2.430208e+00 1.397944e+00 2.898796e-01 1.340094e-01 4.452487e-01 3.746966e-01 5.433356e-01 4.992562e-01 3.368262e-01 4.414240e-01 5.863494e-01 4.073217e-01 5.752183e-01 4.190498e-01 1.893867e-01 7.213098e-02 4.306567e-02 8.747983e-02 9.915738e-02 1.421849e-01 1.790232e-01 9.080166e-02 1.148817e-01 1.522909e-01 8.387548e-02 1.338075e-01 1.170058e-01 3.892909e-02
<GCONST> 1.075763e+02
<MIXTURE> 2 3.546517e-01
<MEAN> 52
 -6.171095e+00 -4.731645e+00 -7.697406e+00 -8.623453e+00 -3.630726e+00 -9.507315e-02 -3.712554e+00 -1.927394e+00 -8.614929e-01 4.967552e-01 -2.914920e+00 -4.288545e+00 5.506946e+01 -5.742120e-02 -1.529778e-02 2.083248e-01 5.472013e-01 7.935644e-01 5.103510e-01 1.357598e-01 -2.721199e-01 -3.242834e-01 -1.886426e-01 -4.177755e-01 -1.484142e-01 -7.927132e-02 -4.662202e-02 1.519713e-02 1.132145e-01 6.274568e-02 -3.943570e-02 -1.136457e-01 -3.499458e-02 -3.294318e-02 -4.115131e-02 -1.076676e-01 -3.183425e-02 8.609197e-02 -9.816975e-03 1.209040e-02 5.004461e-03 -4.754232e-02 -1.128329e-01 -1.603595e-01 -1.155353e-01 -1.811573e-02 7.189400e-02 7.321787e-02 3.249998e-02 7.867554e-02 1.762681e-02 2.158489e-03
<VARIANCE> 52
 5.028849e+00 8.594500e+00 1.830334e+01 2.882641e+01 1.501755e+01 2.269929e+01 2.084479e+01 2.010582e+01 1.903065e+01 3.170594e+01 2.744487e+01 1.972638e+01 1.364408e+01 2.061219e-01 4.170900e-01 6.531529e-01 6.834991e-01 5.779914e-01 1.195075e+00 1.201843e+00 1.447900e+00 1.379154e+00 1.948917e+00 1.434986e+00 1.635747e+00 5.766278e-02 3.313167e-02 7.542695e-02 1.422794e-01 1.730600e-01 2.317856e-01 2.701376e-01 2.722053e-01 3.062280e-01 3.207608e-01 3.900861e-01 3.036107e-01 2.941593e-01 1.056967e-02 7.410800e-03 1.532223e-02 3.083009e-02 2.895560e-02 3.157424e-02 5.552033e-02 5.638417e-02 7.246050e-02 6.635722e-02 9.501840e-02 6.190390e-02 7.510058e-02 2.191072e-03
<GCONST> 6.018933e+01
<MIXTURE> 3 4.996679e-01
<MEAN> 52
 -8.054884e+00 -4.096352e+00 -5.277832e+00 -6.519606e+00 -4.009291e+00 -2.157050e+00 -4.127721e+00 -2.624354e+00 -1.472303e+00 -7.498946e-01 -3.247658e+00 -2.664776e+00 5.442647e+01 7.189027e-02 1.105272e-02 -2.133083e-01 -4.312622e-01 -6.685917e-01 -4.809367e-01 -2.770899e-01 1.726894e-02 2.427415e-01 2.546250e-01 4.322277e-01 1.838776e-01 -1.061941e-01 9.240388e-03 3.438289e-02 2.088284e-02 4.825895e-02 8.396287e-02 8.249781e-02 4.131205e-02 2.669429e-02 -1.712544e-02 -3.136488e-02 2.141966e-02 2.352450e-02 1.787608e-02 -1.239775e-02 5.609693e-03 5.360985e-02 1.089155e-01 1.539978e-01 1.108659e-01 5.913410e-02 -2.290955e-03 -5.130744e-02 -4.555324e-02 -1.059253e-01 -3.501765e-02 8.070521e-03
<VARIANCE> 52
 1.135127e+01 1.118557e+01 2.072921e+01 2.422407e+01 1.477662e+01 2.204552e+01 2.065395e+01 1.956887e+01 2.017872e+01 2.396623e+01 2.289875e+01 2.103910e+01 1.313095e+01 2.753490e-01 3.820022e-01 5.787201e-01 6.586999e-01 6.128840e-01 1.060024e+00 1.279129e+00 1.431734e+00 1.520174e+00 1.352455e+00 1.337759e+00 1.206776e+00 8.302917e-02 4.677473e-02 6.985338e-02 1.379532e-01 2.060673e-01 2.355922e-01 2.844973e-01 2.456689e-01 2.997593e-01 3.119110e-01 3.295015e-01 2.687854e-01 2.761396e-01 1.449413e-02 9.881019e-03 1.780061e-02 2.788088e-02 3.423570e-02 3.249459e-02 4.673940e-02 5.662213e-02 7.047699e-02 7.431083e-02 6.500853e-02 6.043163e-02 5.665546e-02 3.839498e-03
<GCONST> 6.113155e+01
<STATE> 8
<NUMMIXES> 3
<MIXTURE> 1 1.737303e-01
<MEAN> 52
 -1.279495e+01 -6.198217e+00 -3.098800e+00 -2.437759e+00 -2.645419e+00 -3.910638e+00 -3.839362e+00 3.223676e+00 2.330472e-01 -8.980777e-01 -7.546297e-01 -1.323770e+00 5.787181e+01 2.617301e-01 5.341749e-02 -1.066186e-01 -1.110904e-01 -1.064935e-01 4.067815e-02 -1.389995e-01 -6.833072e-02 2.288475e-02 7.379182e-02 8.642118e-02 3.756868e-02 -2.513751e-01 4.173476e-02 5.417333e-02 8.218934e-03 1.173729e-03 7.557510e-02 8.770797e-02 -3.836339e-02 -2.087928e-01 -1.315193e-01 -6.454938e-02 -7.011623e-02 -3.910611e-03 -7.675397e-03 -1.738118e-02 2.362896e-03 2.649350e-02 2.612799e-02 1.390910e-02 1.087999e-02 1.481671e-02 -7.012706e-03 -1.183817e-02 -2.074933e-02 -3.637563e-02 -1.811920e-02 3.673857e-02
<VARIANCE> 52
 2.265972e+01 2.099010e+01 1.768062e+01 1.328204e+01 2.671091e+01 3.801632e+01 2.251836e+01 2.945383e+01 2.381684e+01 2.407733e+01 3.187075e+01 2.821535e+01 3.869237e+01 3.290116e-01 5.356846e-01 8.985642e-01 8.073017e-01 1.275803e+00 1.885129e+00 1.142429e+00 1.691211e+00 2.078319e+00 1.950755e+00 1.600540e+00 1.739979e+00 2.820531e-01 5.588321e-02 1.016620e-01 1.718619e-01 1.526212e-01 2.893510e-01 4.045976e-01 2.802985e-01 3.391006e-01 2.911208e-01 3.417670e-01 3.165700e-01 4.132528e-01 7.441782e-02 1.446283e-02 2.292319e-02 3.703704e-02 3.569523e-02 5.435011e-02 7.364567e-02 6.028171e-02 7.818431e-02 9.034949e-02 8.838981e-02 6.944180e-02 8.716492e-02 1.160936e-02
<GCONST> 7.789867e+01
<MIXTURE> 2 4.387144e-01
<MEAN> 52
 -9.927979e+00 -3.079920e+00 -3.612181e+00 -4.547711e+00 -2.989327e+00 -2.513946e+00 -3.940979e+00 -1.927374e+00 -1.154457e+00 -1.040964e+00 -2.312250e+00 -1.112082e+00 5.312528e+01 4.296075e-02 -5.041973e-02 -8.979503e-02 -1.458653e-01 -2.429724e-01 -4.038791e-01 -5.734640e-01 -5.997305e-01 -3.846246e-01 -3.037185e-01 -2.023910e-01 -9.191512e-02 -1.111073e-01 -4.621375e-03 -1.417627e-02 -1.049581e-02 7.692400e-03 3.991689e-03 8.465502e-03 2.917592e-02 6.978580e-03 8.437995e-04 -1.309270e-02 2.138893e-02 1.636077e-02 1.048088e-02 5.156758e-03 1.759846e-02 1.921348e-02 4.108135e-02 5.201824e-02 1.000640e-01 1.340271e-01 1.308586e-01 9.574479e-02 7.770467e-02 4.773406e-02 1.863523e-02 6.072148e-03
<VARIANCE> 52
 1.089389e+01 6.394887e+00 6.922485e+00 1.149962e+01 1.075153e+01 1.625331e+01 1.365652e+01 2.078827e+01 1.925787e+01 1.549439e+01 1.361914e+01 1.428362e+01 9.011983e+00 1.363948e-01 2.212287e-01 4.254048e-01 5.898772e-01 6.612179e-01 9.198592e-01 9.448391e-01 1.091505e+00 1.380453e+00 1.234024e+00 1.043169e+00 1.269889e+00 6.133597e-02 2.495127e-02 4.438613e-02 8.227785e-02 1.343763e-01 1.492066e-01 2.302528e-01 2.603587e-01 3.057611e-01 3.199200e-01 2.714010e-01 1.961860e-01 2.489229e-01 9.323205e-03 5.537280e-03 9.718771e-03 1.845683e-02 2.787358e-02 3.005635e-02 4.584374e-02 4.489839e-02 5.145740e-02 6.586637e-02 5.810874e-02 4.326406e-02 6.241926e-02 2.173048e-03
<GCONST> 4.582081e+01
<MIXTURE> 3 3.875552e-01
<MEAN> 52
 -9.911189e+00 -3.262092e+00 -3.849897e+00 -4.434657e+00 -2.641446e+00 -2.385307e+00 -4.085086e+00 -2.304057e+00 -1.139819e+00 -1.296437e+00 -2.260116e+00 -1.363297e+00 5.331343e+01 1.166094e-01 1.892123e-01 2.448781e-01 3.873261e-01 4.484203e-01 7.276813e-01 7.884188e-01 6.245074e-01 4.111513e-01 2.383202e-01 1.959474e-01 1.307920e-01 -8.411528e-02 -6.315335e-03 8.127811e-03 -1.366540e-03 2.264490e-03 1.654855e-02 2.627988e-02 6.311889e-02 5.766807e-02 -2.579667e-02 -7.506769e-03 -2.441719e-02 -2.026180e-02 1.297805e-02 -1.244585e-02 -2.689907e-02 -4.868469e-02 -7.648415e-02 -9.728600e-02 -1.532378e-01 -1.863385e-01 -1.559555e-01 -9.055791e-02 -4.665027e-02 -3.806606e-02 -2.308824e-02 8.750428e-04
<VARIANCE> 52
 1.099153e+01 8.306157e+00 7.649316e+00 1.197716e+01 1.093617e+01 1.556558e+01 1.700492e+01 2.108268e+01 1.839109e+01 1.692404e+01 1.595056e+01 1.428568e+01 9.056378e+00 1.969016e-01 3.286780e-01 4.877621e-01 7.537805e-01 6.914296e-01 9.578081e-01 9.686900e-01 1.078151e+00 1.333603e+00 1.194458e+00 1.054108e+00 1.223668e+00 7.513448e-02 3.086395e-02 5.507171e-02 9.195960e-02 1.469053e-01 1.573004e-01 2.441150e-01 2.976358e-01 2.693126e-01 3.142975e-01 2.802597e-01 2.321016e-01 2.413002e-01 1.056890e-02 7.002317e-03 1.303294e-02 2.089862e-02 3.262470e-02 3.116229e-02 4.323595e-02 4.604254e-02 5.079361e-02 6.355936e-02 5.861647e-02 4.754159e-02 5.923165e-02 2.715761e-03
<GCONST> 5.005722e+01
<STATE> 9
<NUMMIXES> 3
<MIXTURE> 1 1.752518e-01
<MEAN> 52
 -5.620429e+00 7.602126e-01 2.350254e+00 -4.104018e+00 -7.303258e+00 -1.754206e+00 -5.266874e+00 -6.881842e+00 -2.745222e+00 -3.486074e+00 2.413698e-01 9.409474e-02 5.834901e+01 -9.937982e-02 -1.880308e-01 -1.901353e-01 2.384178e-01 1.931606e-01 3.373380e-01 1.558827e-01 2.459969e-03 3.664566e-01 8.996117e-03 9.302211e-02 9.390297e-02 -2.194102e-01 -6.474801e-02 -7.918359e-02 2.603196e-02 1.035883e-01 1.127454e-01 5.497923e-02 9.451736e-02 3.032333e-02 -3.863192e-02 2.456969e-03 -4.206020e-02 -1.748002e-02 5.418627e-02 2.666676e-02 1.899720e-02 2.506474e-02 -5.310463e-02 -5.462256e-02 -5.715514e-02 -6.679775e-02 -1.007501e-02 -7.863910e-02 -4.946493e-03 -5.817316e-02 -2.507942e-02 3.227577e-02
<VARIANCE> 52
 2.420271e+01 3.687095e+01 1.028361e+02 8.570193e+01 3.616034e+01 3.012970e+01 2.364383e+01 5.849919e+01 3.023263e+01 3.238358e+01 3.180274e+01 1.733154e+01 9.907837e+01 5.176192e-01 1.213920e+00 1.849219e+00 1.401138e+00 1.792872e+00 3.076200e+00 2.562575e+00 1.853934e+00 1.453090e+00 2.147754e+00 2.201579e+00 1.647617e+00 1.025122e+00 1.041162e-01 1.690906e-01 2.469275e-01 1.962932e-01 4.360718e-01 7.086466e-01 4.826970e-01 4.669227e-01 3.542203e-01 4.248634e-01 3.320998e-01 3.937716e-01 1.376314e-01 2.173421e-02 3.720436e-02 5.698887e-02 4.519143e-02 9.958118e-02 1.464663e-01 1.119522e-01 8.209517e-02 6.772823e-02 9.393466e-02 6.766552e-02 7.681549e-02 2.098195e-02
<GCONST> 9.784999e+01
<MIXTURE> 2 4.556957e-01
<MEAN> 52
 -1.004297e+01 -1.358537e+00 -3.114235e+00 -1.789383e+00 8.358444e-02 9.491459e-01 -2.088210e+00 -2.730400e-01 -3.121246e-01 -1.027142e+00 -6.517256e-01 3.704065e-01 4.485411e+01 5.101955e-02 1.883521e-01 1.295599e-01 1.661911e-01 1.365063e-01 -1.905763e-02 -1.203046e-01 -6.453873e-02 -2.819429e-02 2.414825e-01 1.616063e-01 8.642096e-02 2.004904e-02 -1.863305e-02 -5.149747e-02 -6.264236e-02 -1.359670e-01 -1.482804e-01 -1.744698e-01 -6.986050e-02 -8.451030e-02 -7.789424e-02 -4.784399e-02 -1.172647e-01 -7.016824e-02 4.606292e-02 -6.239897e-03 -2.958739e-02 -2.465300e-02 -3.663386e-02 -3.544530e-02 6.054558e-03 1.772649e-02 1.465581e-02 -5.518018e-03 -4.483410e-02 -4.416128e-02 -2.348367e-02 6.730260e-03
<VARIANCE> 52
 8.026296e+00 5.068477e+00 1.319864e+01 1.346248e+01 1.160652e+01 1.271915e+01 1.402603e+01 1.667831e+01 1.495905e+01 1.627284e+01 1.562901e+01 1.324664e+01 4.988634e+01 2.133430e-01 3.643264e-01 5.837581e-01 8.794291e-01 1.200579e+00 1.569689e+00 1.294203e+00 1.362776e+00 1.818300e+00 1.850443e+00 1.691961e+00 1.395694e+00 9.449346e-02 4.992602e-02 9.741156e-02 1.198052e-01 1.824864e-01 2.651487e-01 3.175460e-01 2.517229e-01 2.853159e-01 3.580295e-01 3.685150e-01 3.475555e-01 2.630351e-01 2.206177e-02 1.118387e-02 1.809470e-02 2.266606e-02 4.234805e-02 6.401924e-02 8.058403e-02 5.977126e-02 6.720838e-02 9.385055e-02 9.882541e-02 8.475195e-02 6.801906e-02 6.357661e-03
<GCONST> 6.371402e+01
<MIXTURE> 3 3.690526e-01
<MEAN> 52
 -8.908276e+00 -3.025833e+00 -4.729530e+00 -3.917768e+00 -2.827171e+00 -1.892210e+00 -3.400976e+00 -2.192465e+00 -2.077372e+00 -1.514562e+00 -2.223380e+00 -9.754966e-01 5.130449e+01 -1.313189e-01 -3.580122e-01 -5.336998e-01 -5.814146e-01 -4.531502e-01 -2.244584e-02 2.788661e-02 -1.247832e-01 -3.082628e-01 -3.797405e-01 -5.265878e-01 -1.916288e-01 -5.200836e-02 -1.812226e-02 5.624196e-02 1.058101e-01 1.137014e-01 1.051710e-01 8.656429e-02 -1.411769e-03 9.659392e-02 9.221983e-02 -3.554504e-03 -4.943804e-02 -3.903604e-02 9.251603e-02 6.012476e-02 1.328205e-01 1.667019e-01 1.557292e-01 1.105290e-01 1.124768e-02 -5.576361e-02 -8.585702e-03 4.244849e-02 7.266297e-02 1.052650e-01 4.616605e-02 8.697260e-02
<VARIANCE> 52
 8.201733e+00 7.890615e+00 9.096652e+00 1.223875e+01 1.472000e+01 1.579746e+01 1.776009e+01 1.556005e+01 1.820220e+01 1.974848e+01 1.771820e+01 1.946910e+01 2.344342e+01 2.910170e-01 4.185873e-01 6.478857e-01 8.857885e-01 1.130180e+00 1.711595e+00 1.455508e+00 2.100426e+00 1.517375e+00 1.445407e+00 1.508831e+00 1.506023e+00 1.505548e-01 5.878090e-02 9.247145e-02 1.305867e-01 1.862852e-01 2.342791e-01 2.635570e-01 2.986154e-01 3.370332e-01 3.646415e-01 3.040221e-01 2.959132e-01 3.141338e-01 3.476521e-02 2.216251e-02 1.974744e-02 2.761606e-02 4.060117e-02 6.275839e-02 8.218439e-02 8.132952e-02 1.071973e-01 7.691732e-02 5.900777e-02 6.934115e-02 7.260373e-02 1.685927e-02
<GCONST> 6.798242e+01
<STATE> 10
<NUMMIXES> 3
<MIXTURE> 1 2.902241e-01
<MEAN> 52
 -9.412284e+00 -3.197300e+00 -4.357962e+00 -5.242777e+00 -3.895640e+00 -2.695716e+00 -3.358635e+00 -2.083411e+00 -1.755509e+00 -2.121891e+00 -3.118209e+00 -1.475547e+00 5.343699e+01 2.122814e-02 2.141839e-01 3.098263e-01 2.243461e-01 9.604941e-02 3.055174e-02 2.327289e-01 2.236324e-01 -1.751127e-01 7.796421e-02 1.535695e-01 1.503494e-01 -2.354646e-03 1.344422e-02 1.121282e-02 9.785128e-02 1.493396e-01 1.745920e-01 6.037243e-02 -3.144473e-02 8.032431e-02 7.292059e-02 1.135713e-01 9.940038e-02 8.546820e-02 5.648402e-02 2.891627e-03 -1.587540e-02 -2.812613e-02 -3.611930e-02 1.219223e-03 -6.500047e-03 -5.121049e-02 -4.177039e-02 3.062709e-02 -1.039638e-02 -3.558620e-02 -3.026740e-02 3.105523e-02
<VARIANCE> 52
 8.567756e+00 9.451033e+00 9.865771e+00 8.465549e+00 1.560469e+01 2.051125e+01 1.702974e+01 1.705093e+01 1.561015e+01 1.866422e+01 2.234040e+01 1.818735e+01 1.055934e+01 3.496587e-01 2.855920e-01 6.630018e-01 7.376720e-01 1.071700e+00 1.162479e+00 1.228455e+00 1.565273e+00 1.425897e+00 1.986960e+00 2.583968e+00 1.672607e+00 1.217917e-01 5.907027e-02 8.655939e-02 1.452632e-01 1.941595e-01 2.457142e-01 2.487566e-01 2.196200e-01 3.715779e-01 2.702800e-01 3.397073e-01 5.271142e-01 2.820477e-01 2.471695e-02 1.419103e-02 1.376303e-02 3.382953e-02 2.853810e-02 4.017698e-02 3.947956e-02 4.654014e-02 5.580291e-02 4.636569e-02 8.001735e-02 1.148557e-01 6.362367e-02 6.122712e-03
<GCONST> 6.248711e+01
<MIXTURE> 2 3.391418e-01
<MEAN> 52
 -9.653397e+00 -3.850059e+00 -4.010426e+00 -4.101971e+00 -2.799759e+00 -1.648801e+00 -3.125030e+00 -8.114994e-01 -1.868244e+00 -1.565892e+00 -2.617239e+00 -6.623604e-01 5.287529e+01 -8.537796e-02 1.985715e-01 2.179349e-01 4.286927e-02 2.073644e-01 4.122493e-01 1.404782e-01 6.206531e-01 6.363594e-01 6.266876e-01 1.051343e-01 1.017955e-01 1.004067e-01 2.149108e-01 3.675036e-01 4.498198e-01 1.979013e-01 5.170315e-02 -1.358358e-01 -2.599034e-01 -3.279028e-01 -1.226122e-01 -7.486177e-02 3.180270e-02 -7.940979e-02 4.660537e-01 1.280335e-01 7.540886e-02 1.962236e-01 3.455224e-02 -1.400332e-01 -1.746964e-01 -1.929529e-01 -2.050249e-01 -2.451580e-01 -1.749854e-01 -2.604546e-02 -2.905987e-02 2.131436e-01
<VARIANCE> 52
 7.740408e+00 1.390384e+01 1.477733e+01 1.370762e+01 1.808373e+01 2.146943e+01 2.586081e+01 2.583903e+01 2.090613e+01 2.581290e+01 2.053873e+01 2.026132e+01 1.614929e+01 2.507556e-01 6.266235e-01 9.547386e-01 1.052935e+00 1.452725e+00 1.953386e+00 1.777276e+00 1.869738e+00 1.600720e+00 1.379472e+00 1.713951e+00 1.254365e+00 3.078687e-01 2.213668e-01 1.824618e-01 2.656464e-01 2.756425e-01 4.021383e-01 4.910682e-01 5.663491e-01 5.085322e-01 4.222172e-01 3.928396e-01 3.940854e-01 3.044524e-01 2.095683e-01 2.437221e-02 4.259450e-02 6.469987e-02 5.854965e-02 8.671436e-02 9.553657e-02 8.609967e-02 9.464504e-02 6.813517e-02 7.628334e-02 8.774351e-02 7.182557e-02 2.352981e-02
<GCONST> 8.361194e+01
<MIXTURE> 3 3.706340e-01
<MEAN> 52
 -9.774133e+00 -3.176653e+00 -2.771256e+00 -2.871989e+00 -1.561294e+00 -9.908813e-01 -2.926843e+00 -1.857986e+00 -2.334864e+00 -1.556288e+00 -1.836652e+00 -1.020624e-01 5.379611e+01 4.002369e-01 6.447005e-01 7.636482e-01 6.966725e-01 4.950003e-01 8.318394e-02 -6.172829e-01 -7.537243e-01 -8.255814e-01 -5.406423e-01 -5.611961e-01 -4.755527e-01 5.676057e-01 2.919312e-01 2.233398e-01 3.192916e-01 9.239708e-02 -2.034183e-01 -3.110970e-01 -4.098428e-01 -1.270549e-01 -2.258747e-01 -1.457973e-01 -1.591055e-01 -1.011659e-01 3.769209e-01 -4.002317e-02 -1.183900e-01 -3.118314e-02 -1.194148e-01 -1.746206e-01 -3.726690e-02 1.919972e-03 1.429526e-01 1.271525e-01 1.025817e-01 9.083024e-02 8.590214e-02 6.310708e-02
<VARIANCE> 52
 1.019536e+01 1.612674e+01 1.746829e+01 2.051633e+01 2.926092e+01 2.327386e+01 2.577959e+01 2.639786e+01 2.207077e+01 2.555591e+01 2.180646e+01 1.649547e+01 2.127220e+01 1.225045e+00 2.111482e+00 1.742547e+00 1.938325e+00 2.795350e+00 2.181933e+00 2.140881e+00 2.046087e+00 1.823693e+00 2.096407e+00 2.001235e+00 1.621357e+00 8.309905e-01 3.413068e-01 3.325814e-01 3.824417e-01 3.999495e-01 5.484905e-01 4.922154e-01 6.097533e-01 6.316223e-01 4.695969e-01 5.118784e-01 4.557200e-01 4.001865e-01 3.121846e-01 4.192046e-02 8.119878e-02 5.743776e-02 7.587162e-02 1.285850e-01 8.720763e-02 1.065410e-01 9.583665e-02 7.484944e-02 9.687980e-02 8.630909e-02 7.777657e-02 5.247205e-02
<GCONST> 9.898398e+01
<STATE> 11
<NUMMIXES> 3
<MIXTURE> 1 4.987640e-01
<MEAN> 52
 -8.133786e+00 1.994615e-01 7.313962e-02 -1.363343e+00 -5.646464e-01 -8.635728e-01 -4.470148e+00 -3.575814e+00 -4.288532e+00 -2.358543e+00 -2.840857e+00 -8.396143e-01 5.605369e+01 2.119805e+00 2.015428e+00 2.717525e+00 8.433780e-01 -8.336100e-01 -1.381684e+00 -2.181505e+00 -9.349923e-01 -1.301098e+00 -4.736570e-01 -5.999436e-01 -3.189086e-01 2.269134e+00 2.549408e-01 -1.520482e-01 4.548547e-01 -2.822601e-01 -7.120273e-01 -3.914679e-01 -5.235820e-01 4.980681e-02 -1.132810e-01 7.142615e-02 -8.090987e-03 5.024073e-02 6.694044e-01 -3.482971e-01 -3.860498e-01 -3.170598e-01 -2.115044e-01 -4.692125e-02 2.255894e-01 2.702910e-01 1.813342e-01 1.906454e-01 1.091483e-01 1.269233e-01 6.851886e-02 -1.355084e-01
<VARIANCE> 52
 2.043586e+01 3.320112e+01 3.158734e+01 2.469292e+01 3.344737e+01 3.689363e+01 3.511736e+01 2.974599e+01 2.768254e+01 2.829174e+01 3.125573e+01 2.494987e+01 4.013367e+01 1.792076e+00 2.496897e+00 4.545083e+00 4.064978e+00 5.387355e+00 5.594006e+00 5.696664e+00 5.065674e+00 4.402710e+00 3.390302e+00 3.554712e+00 3.497467e+00 3.525797e+00 4.358688e-01 8.711323e-01 7.321429e-01 4.838046e-01 7.023883e-01 7.059174e-01 8.625882e-01 6.648578e-01 6.132010e-01 6.432325e-01 6.087202e-01 4.765010e-01 6.374395e-01 6.784473e-02 9.959367e-02 1.512668e-01 1.138632e-01 2.307193e-01 2.277784e-01 2.229155e-01 2.125213e-01 1.641592e-01 1.620016e-01 1.358237e-01 1.566365e-01 1.415480e-01
<GCONST> 1.271307e+02
<MIXTURE> 2 2.266005e-01
<MEAN> 52
 -9.040869e+00 -2.645170e+00 -3.476562e+00 -3.369212e+00 -9.576036e-01 -5.604531e-01 -2.797020e+00 -2.145085e+00 -4.512971e-01 -9.163516e-01 -1.300141e+00 -3.881773e-01 5.395989e+01 2.220238e-02 -1.099343e-01 -3.799427e-02 1.550935e-01 6.643005e-01 3.119893e-01 3.680233e-03 9.500506e-02 2.292131e-01 -1.776011e-03 8.050338e-03 8.824629e-02 3.044555e-01 -4.003319e-02 -5.799437e-02 -9.587064e-02 -6.480362e-02 -1.963223e-02 2.710893e-03 -3.859799e-02 2.478477e-02 1.979394e-02 -1.198040e-01 -6.105100e-02 -1.467951e-02 -8.267440e-03 -7.313033e-03 7.693952e-03 1.662154e-03 -3.112743e-02 -6.691487e-02 -1.343619e-02 4.851174e-03 -5.248426e-03 -3.734942e-02 -2.037665e-02 -8.933911e-03 -1.087328e-02 -2.244590e-02
<VARIANCE> 52
 1.727053e+01 6.107310e+00 9.127714e+00 1.068731e+01 1.975249e+01 1.672076e+01 1.624049e+01 1.848556e+01 1.471289e+01 2.247774e+01 1.744242e+01 1.780736e+01 1.348007e+01 3.734807e-01 2.724912e-01 6.783235e-01 1.014776e+00 3.679579e+00 1.882906e+00 1.921395e+00 2.304539e+00 1.425823e+00 1.936892e+00 2.080613e+00 1.587919e+00 6.765338e-01 3.224246e-02 3.362069e-02 8.156683e-02 8.342790e-02 2.161607e-01 1.571035e-01 1.566029e-01 1.664777e-01 1.956593e-01 2.554521e-01 1.504728e-01 1.166301e-01 5.074108e-02 5.239211e-03 5.170601e-03 1.526121e-02 1.636269e-02 3.975201e-02 1.719628e-02 2.931655e-02 2.910307e-02 2.732486e-02 3.302953e-02 3.567191e-02 2.866415e-02 6.694820e-03
<GCONST> 5.210404e+01
<MIXTURE> 3 2.746355e-01
<MEAN> 52
 -9.758384e+00 -2.510642e+00 -3.411139e+00 -3.527070e+00 -2.726281e+00 -1.327453e+00 -3.094514e+00 -3.117746e+00 -2.364962e+00 -1.689837e+00 -2.876732e+00 -1.885520e+00 5.497181e+01 -1.346884e+00 -5.907337e-02 2.655743e-01 -5.348179e-02 -4.311509e-01 -3.540441e-01 1.902496e-02 -7.782105e-01 -1.294465e-01 -2.620045e-01 7.603808e-01 -1.889118e-02 2.779583e+00 2.457416e-01 3.190024e-01 9.472478e-01 4.533660e-02 -4.842798e-01 1.475608e-02 -3.443094e-01 -1.446712e-01 -5.206280e-01 -1.588291e-01 3.145760e-01 4.720737e-02 7.879944e-01 3.207710e-01 8.394326e-02 2.204490e-01 1.395319e-02 -1.238228e-01 6.760442e-02 -1.488130e-01 1.639914e-01 -1.781017e-01 8.139108e-03 -1.167877e-01 -3.519369e-02 -2.913785e-01
<VARIANCE> 52
 1.226805e+01 2.148573e+01 1.839244e+01 2.304797e+01 3.188845e+01 2.356419e+01 2.860421e+01 2.863021e+01 2.349067e+01 1.619863e+01 1.768526e+01 1.859253e+01 3.350682e+01 8.413105e-01 3.177350e+00 4.074045e+00 2.350505e+00 4.750915e+00 3.980193e+00 3.924360e+00 3.169934e+00 3.212465e+00 2.259647e+00 2.269268e+00 1.851825e+00 3.203894e+00 3.012775e-01 4.019786e-01 9.656563e-01 4.808787e-01 7.751611e-01 6.536917e-01 7.870976e-01 5.682914e-01 7.234536e-01 5.987673e-01 4.118699e-01 5.593441e-01 5.751390e-01 3.485382e-02 1.464796e-01 1.551390e-01 1.048759e-01 2.006110e-01 1.851993e-01 1.792341e-01 1.388077e-01 1.247929e-01 1.197711e-01 1.037078e-01 1.084320e-01 1.219156e-01
<GCONST> 1.146595e+02
<TRANSP> 12
 0.000000e+00 1.000000e+00 0.000000e+00 0.000000e+00 0.000000e+00 0.000000e+00 0.000000e+00 0.000000e+00 0.000000e+00 0.000000e+00 0.000000e+00 0.000000e+00
 0.000000e+00 6.249664e-01 3.750336e-01 0.000000e+00 0.000000e+00 0.000000e+00 0.000000e+00 0.000000e+00 0.000000e+00 0.000000e+00 0.000000e+00 0.000000e+00
 0.000000e+00 0.000000e+00 8.938899e-01 1.061101e-01 0.000000e+00 0.000000e+00 0.000000e+00 0.000000e+00 0.000000e+00 0.000000e+00 0.000000e+00 0.000000e+00
 0.000000e+00 0.000000e+00 0.000000e+00 7.298800e-01 2.701200e-01 0.000000e+00 0.000000e+00 0.000000e+00 0.000000e+00 0.000000e+00 0.000000e+00 0.000000e+00
 0.000000e+00 0.000000e+00 0.000000e+00 0.000000e+00 7.441973e-01 2.558027e-01 0.000000e+00 0.000000e+00 0.000000e+00 0.000000e+00 0.000000e+00 0.000000e+00
 0.000000e+00 0.000000e+00 0.000000e+00 0.000000e+00 0.000000e+00 8.187960e-01 1.812040e-01 0.000000e+00 0.000000e+00 0.000000e+00 0.000000e+00 0.000000e+00
 0.000000e+00 0.000000e+00 0.000000e+00 0.000000e+00 0.000000e+00 0.000000e+00 7.747984e-01 2.252016e-01 0.000000e+00 0.000000e+00 0.000000e+00 0.000000e+00
 0.000000e+00 0.000000e+00 0.000000e+00 0.000000e+00 0.000000e+00 0.000000e+00 0.000000e+00 8.661531e-01 1.338469e-01 0.000000e+00 0.000000e+00 0.000000e+00
 0.000000e+00 0.000000e+00 0.000000e+00 0.000000e+00 0.000000e+00 0.000000e+00 0.000000e+00 0.000000e+00 7.330405e-01 2.669595e-01 0.000000e+00 0.000000e+00
 0.000000e+00 0.000000e+00 0.000000e+00 0.000000e+00 0.000000e+00 0.000000e+00 0.000000e+00 0.000000e+00 0.000000e+00 6.739307e-01 3.260693e-01 0.000000e+00
 0.000000e+00 0.000000e+00 0.000000e+00 0.000000e+00 0.000000e+00 0.000000e+00 0.000000e+00 0.000000e+00 0.000000e+00 0.000000e+00 5.177865e-01 4.822136e-01
 0.000000e+00 0.000000e+00 0.000000e+00 0.000000e+00 0.000000e+00 0.000000e+00 0.000000e+00 0.000000e+00 0.000000e+00 0.000000e+00 0.000000e+00 0.000000e+00
<ENDHMM>
