~o
<STREAMINFO> 1 39
<VECSIZE> 39<NULLD><MFCC_D_A_0><DIAGC>
~h "world"
<BEGINHMM>
<NUMSTATES> 10
<STATE> 2
<MEAN> 39
 1.616926e+001 7.694974e+000 -1.492181e+000 -1.715364e+001 -6.992006e+000 6.074523e-001 7.366053e-001 -4.483845e+000 -6.796881e+000 -5.324322e+000 -6.578606e+000 2.417853e+000 5.504945e+001 1.145991e+000 -5.498917e-001 3.160417e-001 -4.725418e+000 -8.195475e-002 9.070066e-001 -7.819866e-001 -7.794541e-001 -1.314074e-001 9.950315e-001 -1.949553e+000 1.684977e+000 3.088552e+000 -1.060506e+000 -3.245848e-001 3.885925e-001 -2.912524e-001 6.218882e-001 6.800995e-004 -1.711524e-001 2.960607e-001 3.348711e-001 6.206707e-001 -2.302181e-001 1.235506e-001 -1.718892e-001
<VARIANCE> 39
 3.555113e+001 1.768376e+002 3.773854e+001 1.339007e+002 5.304118e+001 7.484113e+001 2.566702e+001 2.589631e+001 2.083798e+001 3.224974e+001 5.865932e+001 4.761807e+001 7.789301e+001 1.264536e+001 9.219658e+000 8.139720e+000 8.321048e+000 6.819639e+000 6.538622e+000 3.332020e+000 2.183363e+000 4.055858e+000 5.851891e+000 7.542214e+000 3.990751e+000 5.593259e+000 2.087904e+000 1.424018e+000 1.523745e+000 1.611475e+000 1.225852e+000 1.372973e+000 6.681961e-001 4.128547e-001 7.865753e-001 7.757081e-001 1.222403e+000 9.282761e-001 8.392051e-001
<GCONST> 1.462644e+002
<STATE> 3
<MEAN> 39
 1.052783e+001 2.177789e+000 9.815958e-001 -4.567659e+001 1.431626e+000 4.284342e+000 -5.856077e+000 -2.501795e+000 -4.907915e+000 5.741370e+000 -1.973738e+001 8.467546e+000 6.977144e+001 -1.492994e+000 -1.765380e+000 -2.333502e-001 -1.406543e+000 1.640991e+000 -3.565739e-001 1.495859e-001 9.181790e-001 -1.519663e-001 4.073029e-001 -6.208597e-002 -9.678049e-001 1.861644e+000 1.750992e-001 8.184052e-002 -3.213104e-001 1.245401e+000 -3.550090e-001 4.763335e-003 6.164703e-001 -2.755166e-001 -5.047366e-002 -7.217858e-001 8.195123e-001 -3.879606e-001 -4.068767e-001
<VARIANCE> 39
 7.614142e+000 1.693985e+001 8.173075e+000 2.660020e+001 3.958019e+001 2.493776e+001 1.980346e+001 2.736611e+001 8.822573e+000 1.655905e+001 4.015723e+001 2.864415e+001 1.394188e+001 6.185561e-001 9.598117e-001 9.009385e-001 9.476444e+000 4.208344e+000 1.589182e+000 3.275107e+000 2.301773e+000 1.494713e+000 3.904109e+000 4.836327e+000 1.081193e+000 9.969395e-001 8.337320e-002 1.492604e-001 1.840920e-001 5.921144e-001 5.198987e-001 2.940936e-001 2.976059e-001 7.114206e-001 4.402373e-001 4.117284e-001 6.687181e-001 4.917596e-001 9.801418e-002
<GCONST> 1.035580e+002
<STATE> 4
<MEAN> 39
 4.926437e+000 -6.945325e+000 -4.065732e+000 -3.757941e+001 3.556888e+000 3.099817e+000 4.811945e+000 -1.085741e+001 -1.384634e+000 4.611297e-001 -7.515232e+000 -3.148327e-001 7.599149e+001 -3.561135e-001 -1.156383e+000 -7.185151e-001 2.232607e+000 -4.076714e-001 -4.459619e-001 1.489141e+000 -2.046896e+000 9.535247e-001 -3.306534e-001 2.223390e+000 -1.647293e+000 3.693679e-001 1.155152e-001 5.689159e-003 4.568221e-002 2.275556e-001 -1.489302e-001 -1.811190e-001 -2.224026e-001 1.732013e-001 2.648623e-002 1.337865e-001 -2.243429e-002 -1.213586e-001 -1.126709e-001
<VARIANCE> 39
 4.095719e+000 1.434294e+001 1.310271e+001 3.982352e+001 1.810142e+001 1.307197e+001 4.651811e+001 8.577290e+001 2.148030e+001 1.099213e+001 4.555322e+001 3.132813e+001 8.883089e+000 1.441480e-001 3.002823e-001 3.802987e-001 1.897651e+000 1.372420e+000 1.840032e+000 1.397396e+000 3.103907e+000 1.188015e+000 2.063957e+000 9.814188e-001 1.564320e+000 1.344728e-001 3.028800e-002 6.415487e-002 7.028447e-002 1.804714e-001 1.998099e-001 2.353907e-001 3.103431e-001 8.310718e-001 2.814897e-001 3.719033e-001 2.171653e-001 2.474462e-001 2.727957e-002
<GCONST> 8.511935e+001
<STATE> 5
<MEAN> 39
 4.875823e+000 -1.590458e+001 -7.234598e+000 -1.507856e+001 -2.284412e+000 -5.903358e+000 6.169000e+000 -1.169588e+001 3.943133e+000 -1.255141e+000 3.745926e+000 -1.026989e+001 7.612166e+001 2.457458e-001 -4.262483e-001 -4.324343e-001 2.839264e+000 -2.638516e-001 -2.033364e+000 -1.109078e+000 1.280122e+000 1.171562e+000 -1.143353e+000 -1.489575e-002 7.433980e-001 -4.747483e-001 8.781860e-002 2.434369e-001 8.175484e-003 -1.768803e-001 3.178112e-001 -1.990650e-001 -1.711058e-001 -1.257713e-001 2.762296e-001 -1.901869e-001 -4.984839e-001 7.511706e-001 -1.601935e-001
<VARIANCE> 39
 5.397018e+000 7.647432e+000 5.574667e+000 4.895070e+001 1.025116e+001 2.704764e+001 3.578257e+001 4.827029e+001 1.826192e+001 2.403788e+001 1.358247e+001 2.165340e+001 6.564245e+000 2.219935e-001 8.109819e-001 5.631704e-001 1.037531e+000 1.188082e+000 1.108604e+000 9.587438e-001 1.527119e+000 1.088365e+000 1.214948e+000 1.650062e+000 3.767313e+000 1.646516e-001 3.391362e-002 6.906623e-002 1.176770e-001 1.327091e-001 1.581720e-001 1.967436e-001 2.062594e-001 4.805445e-001 1.018976e-001 1.267320e-001 1.112880e-001 1.240736e-001 1.714918e-002
<GCONST> 7.774793e+001
<STATE> 6
<MEAN> 39
 8.001366e+000 -1.515983e+001 -7.355267e+000 -7.803063e-001 2.167422e+000 -2.210547e+001 2.413993e-001 -1.101835e+001 1.474126e+001 -9.805589e+000 -5.131032e+000 6.068164e+000 6.974468e+001 5.825627e-001 -2.378839e-002 1.971534e+000 1.588703e+000 3.794746e-001 -1.316676e+000 -6.328746e-001 -4.889441e-001 -1.950456e-001 -2.552408e-001 -2.441724e+000 2.527637e+000 -1.623578e+000 -2.973929e-001 6.943721e-002 8.667312e-001 -4.231635e-001 -4.644891e-001 1.142950e+000 -3.653284e-002 1.396029e-002 -1.043160e+000 5.971325e-001 -1.129609e-002 -8.204694e-001 -1.577386e-001
<VARIANCE> 39
 1.069736e+001 7.209009e+000 2.378482e+001 2.642476e+001 1.797750e+001 2.655911e+001 2.717084e+001 2.566163e+001 2.851743e+001 2.514238e+001 3.539291e+001 4.105270e+001 1.208555e+001 2.681808e-001 4.863992e-001 3.045569e+000 9.193991e-001 3.335053e+000 6.667048e+000 1.596107e+000 1.948220e+000 7.534960e+000 2.615867e+000 1.474918e+000 3.657338e+000 3.600696e-001 1.873493e-001 1.519034e-001 1.662323e-001 2.349714e-001 4.263240e-001 7.698792e-001 4.213839e-001 2.944106e-001 5.092448e-001 2.515525e-001 5.863240e-001 7.401614e-001 3.318032e-002
<GCONST> 1.021055e+002
<STATE> 7
<MEAN> 39
 -3.369670e+000 -8.849782e+000 8.760584e+000 -6.964177e+000 4.372598e+000 -1.525671e+001 -1.132958e+000 -1.121099e+001 3.399397e+000 -3.150007e+000 -9.108701e+000 7.474283e-001 6.180315e+001 -1.441161e+000 9.296687e-001 1.879908e-001 -2.500151e+000 1.171481e+000 -1.437037e-001 2.353595e-001 -1.642920e-001 2.988934e-001 7.950460e-001 3.196128e-001 -1.456051e+000 6.071119e-001 3.210930e-001 -1.051170e-001 -6.052578e-001 -2.636860e-001 2.690379e-001 -3.810738e-001 8.532762e-002 -6.401021e-002 7.444599e-001 -2.270860e-002 -5.560074e-002 5.672335e-002 4.256280e-001
<VARIANCE> 39
 8.215970e+001 3.746471e+001 5.709497e+001 8.089172e+001 5.917043e+001 6.519661e+001 5.796620e+001 3.397317e+001 3.272370e+001 3.989964e+001 8.348742e+001 6.397702e+001 4.284222e+001 1.052098e+001 4.233101e+000 1.321630e+001 3.340723e+000 5.084957e+000 1.253594e+001 8.835338e+000 4.241490e+000 9.151018e+000 4.155374e+000 1.079635e+001 4.370156e+000 8.158335e+000 1.864135e+000 8.967100e-001 1.635607e+000 7.303809e-001 1.010105e+000 2.133289e+000 1.808348e+000 8.633356e-001 6.815165e-001 7.744592e-001 2.219284e+000 8.917373e-001 1.124495e+000
<GCONST> 1.505251e+002
<STATE> 8
<MEAN> 39
 -2.109988e+000 -7.715547e+000 5.883083e-001 -2.270700e+001 1.398603e+001 -1.862635e+001 2.446036e+000 -1.618786e+001 1.975587e+001 -8.534406e-001 -1.304516e+001 -4.424092e+000 7.197456e+001 5.496826e-001 2.314217e-001 -6.144463e-001 4.254773e-001 9.034243e-001 2.189471e+000 5.834689e-001 -8.531934e-001 1.450990e+000 -8.269726e-001 -5.692315e-001 -1.741121e-001 -8.382655e-001 -2.232455e-001 4.722480e-002 -1.715344e-002 6.551726e-001 -3.186228e-002 6.718335e-001 -1.524982e-002 1.987674e-001 -6.704436e-001 -4.425528e-001 6.249658e-001 1.602811e-001 -7.809933e-001
<VARIANCE> 39
 3.398088e+000 6.079379e+000 4.434550e+000 7.753361e+000 1.484352e+001 2.604274e+001 1.656900e+001 1.454543e+001 1.758979e+001 1.744957e+001 2.174484e+001 9.455224e+000 1.132719e+001 6.873704e-001 1.017706e+000 6.057685e-001 3.860822e+000 1.017483e+000 2.478745e+000 1.290912e+000 1.489319e+000 3.111548e+000 2.763648e+000 3.564868e+000 8.990850e-001 3.153383e+000 2.844559e-001 2.556352e-001 2.598069e-001 3.996602e-001 2.149238e-001 3.510537e-001 6.152804e-001 3.111850e-001 2.752121e-001 3.497061e-001 4.696210e-001 1.589981e-001 9.135611e-002
<GCONST> 9.324868e+001
<STATE> 9
<MEAN> 39
 2.116005e+000 -3.634905e+000 -7.708807e+000 -1.152831e+001 1.723442e+001 1.155396e-001 -3.057804e+000 -1.261326e+001 1.542473e+001 -5.315160e+000 -4.306162e+000 -1.772528e+000 5.294925e+001 3.197951e-001 8.947396e-001 -9.593766e-001 1.311869e+000 -4.752777e-001 1.937862e+000 -1.140727e+000 1.163307e+000 -1.538805e+000 6.995789e-001 1.489116e+000 6.402482e-001 -2.795721e+000 -1.018556e-001 3.208020e-001 4.031682e-001 4.509126e-002 -2.659455e-001 -2.331109e-001 2.140251e-001 1.703214e-001 -2.165963e-001 2.721637e-001 -1.245430e-001 -9.232429e-002 9.981551e-002
<VARIANCE> 39
 1.603932e+001 3.739365e+001 4.448619e+001 8.246200e+001 3.175530e+001 4.065661e+001 3.781257e+001 5.013505e+001 6.500190e+001 3.344376e+001 4.273542e+001 1.820678e+001 5.697350e+001 1.583582e+000 3.556731e+000 4.426509e+000 3.299895e+000 3.095274e+000 3.741008e+000 4.189491e+000 2.866552e+000 2.528991e+000 3.803325e+000 2.921436e+000 1.322846e+000 8.588230e-001 1.739143e-001 6.012555e-001 7.226837e-001 7.152166e-001 4.376131e-001 5.548651e-001 8.445989e-001 5.966297e-001 3.871835e-001 7.703781e-001 3.853899e-001 2.673668e-001 6.700967e-002
<GCONST> 1.209799e+002
<TRANSP> 10
 0.000000e+000 1.000000e+000 0.000000e+000 0.000000e+000 0.000000e+000 0.000000e+000 0.000000e+000 0.000000e+000 0.000000e+000 0.000000e+000
 0.000000e+000 8.486476e-001 1.513524e-001 0.000000e+000 0.000000e+000 0.000000e+000 0.000000e+000 0.000000e+000 0.000000e+000 0.000000e+000
 0.000000e+000 0.000000e+000 8.286433e-001 1.713567e-001 0.000000e+000 0.000000e+000 0.000000e+000 0.000000e+000 0.000000e+000 0.000000e+000
 0.000000e+000 0.000000e+000 0.000000e+000 8.785127e-001 1.214873e-001 0.000000e+000 0.000000e+000 0.000000e+000 0.000000e+000 0.000000e+000
 0.000000e+000 0.000000e+000 0.000000e+000 0.000000e+000 8.597022e-001 1.402978e-001 0.000000e+000 0.000000e+000 0.000000e+000 0.000000e+000
 0.000000e+000 0.000000e+000 0.000000e+000 0.000000e+000 0.000000e+000 8.075277e-001 1.924723e-001 0.000000e+000 0.000000e+000 0.000000e+000
 0.000000e+000 0.000000e+000 0.000000e+000 0.000000e+000 0.000000e+000 0.000000e+000 8.901442e-001 1.098558e-001 0.000000e+000 0.000000e+000
 0.000000e+000 0.000000e+000 0.000000e+000 0.000000e+000 0.000000e+000 0.000000e+000 0.000000e+000 8.412515e-001 1.587485e-001 0.000000e+000
 0.000000e+000 0.000000e+000 0.000000e+000 0.000000e+000 0.000000e+000 0.000000e+000 0.000000e+000 0.000000e+000 8.718022e-001 1.281979e-001
 0.000000e+000 0.000000e+000 0.000000e+000 0.000000e+000 0.000000e+000 0.000000e+000 0.000000e+000 0.000000e+000 0.000000e+000 0.000000e+000
<ENDHMM>
