~o
<STREAMINFO> 1 52
<VECSIZE> 52<NULLD><MFCC_D_A_T_0><DIAGC>
~h "rx"
<BEGINHMM>
<NUMSTATES> 12
<STATE> 2
<NUMMIXES> 3
<MIXTURE> 1 2.782984e-01
<MEAN> 52
 -2.666631e+00 -1.482727e+01 6.676190e-02 -1.072122e+01 -1.354161e+01 -1.433656e+01 -1.886033e+01 -4.435205e-01 -4.783717e+00 -7.144092e+00 -1.333138e+01 2.338379e+00 7.095155e+01 -1.040276e+00 -9.612519e-01 8.668388e-01 -2.490724e+00 -5.826511e-01 6.334616e-01 1.753147e+00 2.129055e+00 -5.046394e-01 9.252023e-01 -2.403191e-02 1.078902e-01 2.010473e+00 -3.155576e-01 7.765271e-01 -2.689909e-02 5.020748e-02 1.947104e-01 1.396532e-01 7.803397e-01 -5.090811e-01 -3.945892e-01 3.495699e-01 3.238367e-01 -2.415891e-01 -4.545858e-01 1.708217e-01 7.422721e-02 3.739680e-02 2.717178e-01 -8.357076e-02 -1.999634e-01 -3.499709e-01 -4.024483e-01 -1.827185e-02 -5.727441e-02 -7.197987e-02 3.109445e-02 -5.694332e-02
<VARIANCE> 52
 1.309034e+01 2.817937e+01 3.399580e+01 7.939816e+01 4.868274e+01 3.675806e+01 8.313335e+01 6.683743e+01 5.788120e+01 3.238638e+01 4.856055e+01 2.477865e+01 2.867132e+01 6.609652e-01 2.748299e+00 2.255732e+00 3.908134e+00 3.514500e+00 3.018415e+00 3.834342e+00 4.486794e+00 6.125772e+00 2.431726e+00 4.196125e+00 2.120872e+00 8.395156e-01 1.912860e-01 3.243737e-01 4.147068e-01 9.531243e-01 6.118531e-01 7.255995e-01 9.595677e-01 1.201252e+00 8.990218e-01 4.915437e-01 6.144364e-01 3.442635e-01 1.953782e-01 3.378822e-02 1.071297e-01 1.025250e-01 1.784294e-01 1.486388e-01 1.458322e-01 1.435080e-01 1.847047e-01 2.372629e-01 1.128991e-01 1.786480e-01 8.695159e-02 3.528062e-02
<GCONST> 1.195761e+02
<MIXTURE> 2 3.688017e-01
<MEAN> 52
 1.976399e+00 1.738776e+00 1.826951e+00 1.594608e+00 -3.637095e+00 -4.962682e+00 -1.621082e+01 -1.111776e+01 -4.276492e+00 -3.714770e-01 -5.970738e+00 -4.902815e+00 6.380194e+01 4.145306e-01 -5.901062e-01 -1.138666e-01 2.894861e-01 -3.455974e-01 -7.628455e-01 -1.422862e+00 3.145072e-01 4.883787e-01 1.686828e-01 1.468534e-01 1.842213e-01 6.090492e-01 -7.363727e-02 -2.246896e-01 1.365282e-01 -1.291904e-01 -3.903588e-01 8.954367e-02 1.395468e-01 3.814766e-01 -6.179706e-02 -1.464873e-01 1.431353e-01 7.908586e-02 2.074564e-01 -6.631727e-02 4.762406e-03 5.766310e-02 -4.028276e-02 -2.694699e-02 6.018484e-02 8.112736e-02 2.885724e-02 -4.570039e-02 -6.585257e-03 1.322974e-02 -2.237683e-02 1.554155e-02
<VARIANCE> 52
 1.506181e+01 1.905050e+01 3.750190e+01 4.384312e+01 4.704076e+01 4.487334e+01 8.061977e+01 7.763366e+01 4.337217e+01 3.127683e+01 3.720281e+01 2.514988e+01 3.345876e+01 3.442827e-01 1.034812e+00 1.146562e+00 1.989636e+00 2.624037e+00 2.083512e+00 2.988390e+00 4.217909e+00 2.435763e+00 2.021616e+00 2.389229e+00 1.935456e+00 3.658648e-01 8.242278e-02 2.274994e-01 2.424579e-01 3.297623e-01 4.455171e-01 4.040737e-01 4.695968e-01 7.720229e-01 4.816077e-01 3.959055e-01 4.554544e-01 3.818278e-01 9.531228e-02 1.391517e-02 4.419099e-02 4.842126e-02 7.951705e-02 9.757810e-02 9.513077e-02 9.897017e-02 1.336839e-01 1.144979e-01 9.020980e-02 1.056201e-01 8.530445e-02 1.470615e-02
<GCONST> 9.829087e+01
<MIXTURE> 3 3.528999e-01
<MEAN> 52
 -4.719115e-02 -1.618304e+00 -5.093787e-01 9.044588e-01 -4.967053e+00 -8.375271e+00 -1.712400e+01 -8.289437e+00 -4.122480e+00 -3.870660e+00 -6.791331e+00 -1.126848e+00 6.146024e+01 1.619755e+00 -1.885475e+00 7.190726e-01 1.552383e-01 -1.877951e+00 -1.739646e+00 -3.091501e+00 2.203039e-01 3.005894e-02 -6.546489e-01 -6.478155e-01 4.407851e-01 3.319014e+00 -5.094559e-01 -6.742537e-01 5.511247e-02 -6.528075e-01 -4.492636e-01 3.695360e-01 3.606007e-01 7.145257e-01 1.729390e-01 5.085569e-02 1.549770e-01 -2.940091e-02 2.681455e-01 -2.637413e-01 2.596758e-01 1.150953e-02 -1.044858e-01 1.800145e-01 2.310706e-01 4.504753e-01 6.585653e-02 -4.870882e-02 7.124120e-02 1.114296e-01 -7.773351e-02 -3.236161e-01
<VARIANCE> 52
 2.835960e+01 4.363529e+01 3.379902e+01 3.731668e+01 3.538432e+01 7.648060e+01 7.975708e+01 4.072604e+01 4.164597e+01 4.299479e+01 4.441231e+01 2.856835e+01 4.079539e+01 2.948647e+00 5.414245e+00 3.116395e+00 4.334661e+00 4.571841e+00 6.480140e+00 7.688106e+00 6.501540e+00 4.211240e+00 3.671624e+00 4.271007e+00 2.870356e+00 1.767579e+00 5.093156e-01 6.009108e-01 5.185923e-01 6.033951e-01 7.549887e-01 1.254938e+00 1.460511e+00 8.485689e-01 7.549607e-01 6.559237e-01 8.445659e-01 5.250886e-01 4.284077e-01 1.047224e-01 2.205089e-01 1.167695e-01 1.665874e-01 1.779925e-01 2.601249e-01 2.700532e-01 2.592722e-01 1.788723e-01 1.584951e-01 1.550069e-01 1.212039e-01 6.215494e-02
<GCONST> 1.343482e+02
<STATE> 3
<NUMMIXES> 3
<MIXTURE> 1 4.566796e-01
<MEAN> 52
 -1.130894e+00 -7.070915e+00 9.350695e+00 -2.842127e+00 -1.570720e+01 -7.948111e+00 -1.816314e+01 3.632194e+00 -4.569376e+00 -4.084222e+00 9.569010e-01 -2.858491e+00 7.485076e+01 -1.069999e+00 6.804748e-01 1.815047e+00 -3.537810e-01 -1.046729e+00 -4.617174e-01 1.522440e+00 1.713222e-01 -1.698182e+00 -4.170148e-01 1.413368e+00 2.827134e-01 3.998466e-01 -2.155621e-02 4.300774e-01 1.512451e-01 1.943495e-01 2.636239e-01 3.291858e-01 1.123572e-01 -7.784746e-01 -1.705176e-01 2.189588e-01 -1.097091e-01 -1.571030e-02 -3.223670e-01 5.023970e-02 -6.971737e-02 -1.171141e-01 -2.778104e-02 1.282627e-01 6.985642e-02 -2.171512e-01 6.480536e-02 2.460998e-01 3.978677e-02 -1.866443e-01 -1.898455e-02 1.595313e-02
<VARIANCE> 52
 9.272286e+00 4.606310e+01 3.271106e+01 4.361819e+01 2.908580e+01 3.894379e+01 4.740206e+01 4.409710e+01 5.859088e+01 3.678035e+01 3.271283e+01 3.484771e+01 1.082935e+01 3.802249e-01 6.984493e-01 1.097100e+00 1.374446e+00 1.361319e+00 1.462615e+00 1.532024e+00 2.841839e+00 1.871053e+00 1.793900e+00 1.643616e+00 1.289573e+00 2.256789e-01 5.827643e-02 1.229205e-01 1.751683e-01 2.190590e-01 2.461477e-01 2.905439e-01 3.595743e-01 4.363384e-01 3.720866e-01 3.056357e-01 4.249533e-01 1.926312e-01 3.999960e-02 1.453862e-02 2.316083e-02 3.933584e-02 5.284228e-02 6.101127e-02 7.481764e-02 6.417689e-02 1.153672e-01 7.853460e-02 6.221253e-02 7.501215e-02 5.722610e-02 9.408561e-03
<GCONST> 8.189115e+01
<MIXTURE> 2 2.274055e-01
<MEAN> 52
 -9.325984e+00 -1.203324e+01 2.275728e+00 -2.065843e+01 -1.726727e+01 -1.288181e+01 -6.144803e+00 -2.068427e+00 -1.120336e+01 7.432182e-01 -1.288045e+01 9.331614e-01 7.613383e+01 -9.082066e-01 1.319815e+00 1.423600e+00 -9.059056e-01 -9.132025e-01 4.179302e-01 4.468731e-01 -2.398774e+00 -7.192155e-01 2.157860e+00 -2.636396e-02 -1.799585e-01 1.559048e-01 1.925249e-01 1.769281e-01 2.203977e-01 1.357259e-01 1.066338e-01 1.012686e-01 -8.605653e-01 -3.019815e-01 4.541257e-01 -1.641041e-01 -1.938847e-01 1.544323e-01 -3.142475e-01 3.330769e-02 -6.892353e-02 -9.685305e-02 -3.230111e-02 1.086588e-01 2.903315e-02 -7.641548e-03 3.350724e-01 3.700399e-02 -2.510893e-01 8.861287e-03 3.497358e-02 4.386976e-02
<VARIANCE> 52
 8.221346e+00 1.846919e+01 2.031102e+01 2.785655e+01 4.200896e+01 1.852732e+01 5.117842e+01 5.922546e+01 5.054710e+01 4.757393e+01 2.131881e+01 3.786271e+01 2.890960e+01 2.882595e-01 5.820121e-01 1.360840e+00 6.665279e-01 8.605784e-01 1.043684e+00 3.746277e+00 1.578783e+00 2.701080e+00 1.502402e+00 1.596227e+00 1.149647e+00 2.934687e-01 3.985432e-02 9.157678e-02 1.733176e-01 2.482903e-01 2.890592e-01 2.008965e-01 3.877990e-01 4.870370e-01 3.376068e-01 4.614636e-01 2.814625e-01 3.016770e-01 2.643725e-02 8.629525e-03 2.543270e-02 4.848486e-02 5.641589e-02 5.329080e-02 4.566793e-02 1.275600e-01 9.290723e-02 1.282206e-01 7.647601e-02 7.890788e-02 5.819864e-02 5.335941e-03
<GCONST> 7.876560e+01
<MIXTURE> 3 3.159149e-01
<MEAN> 52
 2.280317e+00 -5.448820e+00 3.051901e+00 1.217788e+00 -1.324139e+01 -2.715792e+00 -2.088428e+01 -4.423740e+00 -4.800132e-01 -2.436123e-01 -1.997541e+00 -4.924455e+00 7.258002e+01 -8.915065e-01 -1.048488e+00 1.276540e+00 -1.487868e+00 -1.949368e+00 -9.687737e-02 -6.030703e-01 2.563797e+00 3.307907e-01 -9.430833e-01 8.173409e-01 -2.507898e-01 1.656760e+00 -2.925077e-01 5.771768e-01 3.413309e-01 4.493902e-02 3.447820e-01 -2.961481e-01 6.081573e-01 -3.074156e-02 -5.487484e-01 -1.997842e-01 1.061139e-01 1.104389e-01 -2.915408e-01 9.217343e-02 1.546902e-01 -5.486076e-02 2.356420e-01 1.476062e-01 -2.862518e-02 8.309060e-02 -3.506391e-01 -1.452529e-01 1.023579e-01 -6.030211e-03 7.367467e-02 -1.392773e-01
<VARIANCE> 52
 1.009859e+01 2.044861e+01 4.137961e+01 5.666616e+01 4.171199e+01 5.127027e+01 5.151801e+01 5.712556e+01 6.546232e+01 3.859307e+01 3.581832e+01 3.991223e+01 1.091964e+01 5.434663e-01 1.820373e+00 2.209208e+00 3.706741e+00 4.588906e+00 5.302363e+00 3.836857e+00 3.562538e+00 4.451856e+00 3.543554e+00 3.933860e+00 3.269933e+00 7.109356e-01 9.681897e-02 2.469878e-01 3.188563e-01 7.750838e-01 8.076472e-01 7.833586e-01 7.016003e-01 7.226617e-01 7.088105e-01 5.390443e-01 6.369033e-01 4.675035e-01 1.323248e-01 2.053166e-02 7.002699e-02 8.457337e-02 1.417424e-01 2.099464e-01 2.130014e-01 1.588051e-01 1.404112e-01 1.528168e-01 1.467925e-01 1.857428e-01 1.076857e-01 2.388756e-02
<GCONST> 1.148889e+02
<STATE> 4
<NUMMIXES> 3
<MIXTURE> 1 4.263771e-01
<MEAN> 52
 -4.805803e+00 -1.779882e+00 1.700463e+01 -3.026685e+00 -1.715887e+01 -5.451760e+00 -1.482025e+01 -5.790172e-01 -1.026324e+01 -4.591149e+00 4.255063e+00 -3.215654e+00 7.418536e+01 -7.205120e-01 1.534113e+00 1.341947e+00 1.852302e-01 7.365041e-01 5.530866e-01 6.001329e-01 -9.485210e-01 -7.970511e-01 1.086108e-01 -1.609030e-01 1.966969e-01 -6.499450e-01 -1.119220e-01 3.360702e-01 -5.936924e-01 1.476314e-01 7.744909e-01 -1.570204e-01 1.666392e-01 -1.753833e-04 6.068670e-01 2.192149e-01 -4.494434e-01 1.850747e-01 -2.279727e-01 -1.857748e-01 1.085969e-02 -2.081933e-01 -2.650063e-02 4.813622e-02 -1.229456e-01 1.994819e-01 1.459070e-01 1.229200e-01 2.289239e-03 7.030980e-02 5.529479e-02 6.429222e-02
<VARIANCE> 52
 1.101748e+01 2.770229e+01 3.520117e+01 4.925051e+01 3.657853e+01 4.124446e+01 3.461707e+01 4.481538e+01 4.901010e+01 4.476999e+01 2.542429e+01 3.409701e+01 1.399399e+01 3.887033e-01 7.453413e-01 1.182152e+00 1.087071e+00 1.993564e+00 1.483883e+00 1.446652e+00 2.164126e+00 1.759168e+00 1.397758e+00 1.411265e+00 1.342643e+00 2.530831e-01 1.701958e-01 1.834038e-01 2.404637e-01 2.792396e-01 3.835709e-01 3.189580e-01 4.196205e-01 4.491705e-01 3.617472e-01 3.467000e-01 3.015852e-01 2.890288e-01 5.417126e-02 2.532463e-02 4.240106e-02 3.875484e-02 5.787021e-02 7.114585e-02 6.621847e-02 6.613281e-02 1.079689e-01 7.800394e-02 5.643232e-02 6.568584e-02 5.605433e-02 8.523914e-03
<GCONST> 8.551381e+01
<MIXTURE> 2 2.660797e-01
<MEAN> 52
 -1.130780e+01 -2.546731e+00 1.032308e+01 -2.283551e+01 -1.827526e+01 -9.108397e+00 -1.406312e+01 -1.284882e+01 -1.110382e+01 4.378285e+00 -1.607193e+01 1.952379e+00 7.256637e+01 4.671222e-02 1.805563e+00 5.621892e-01 4.761319e-01 4.805213e-01 5.299227e-01 -1.457412e+00 -7.349766e-01 8.200810e-02 -8.027970e-01 -2.892493e-01 -6.213073e-02 -8.622146e-01 5.813728e-02 9.408958e-02 -5.080873e-01 5.579546e-01 8.950852e-02 -6.936871e-02 2.064586e-01 2.713190e-01 -2.398185e-02 -5.854943e-01 2.158817e-01 -2.990202e-01 -1.422659e-01 -1.402488e-01 1.580754e-02 -8.700829e-02 6.087361e-02 -2.127102e-02 5.989722e-03 2.419067e-01 -2.586852e-02 3.208931e-02 8.735506e-02 1.009718e-01 -7.883992e-02 5.462771e-02
<VARIANCE> 52
 9.008269e+00 2.730463e+01 1.003691e+01 1.922993e+01 2.873897e+01 3.239193e+01 3.981789e+01 3.982369e+01 3.380513e+01 4.842273e+01 3.567783e+01 3.633064e+01 3.148005e+01 3.996447e-01 4.778797e-01 1.343800e+00 1.937022e+00 1.032455e+00 1.633069e+00 1.208658e+00 3.051960e+00 1.600244e+00 1.983921e+00 2.289135e+00 1.900789e+00 3.330836e-01 8.338447e-02 1.108759e-01 1.725623e-01 1.714399e-01 2.194158e-01 3.005531e-01 3.825522e-01 5.071337e-01 2.759650e-01 3.609617e-01 3.442248e-01 3.005878e-01 2.121259e-02 2.726982e-02 2.763462e-02 3.732180e-02 4.158111e-02 5.425714e-02 5.808981e-02 7.203874e-02 9.892531e-02 7.283562e-02 8.528199e-02 9.211366e-02 6.351213e-02 5.534719e-03
<GCONST> 8.044164e+01
<MIXTURE> 3 3.075433e-01
<MEAN> 52
 -6.858570e+00 4.004693e+00 1.753778e+01 -1.427229e+00 -1.180779e+01 -5.851717e+00 -1.133031e+01 -2.872909e+00 -9.556585e+00 -3.283971e+00 1.851959e+00 -9.202393e-01 7.133996e+01 -2.203028e+00 3.180516e+00 -1.460970e+00 7.284767e-01 3.178253e+00 -6.435720e-01 2.786246e+00 -8.655103e-01 1.629776e+00 7.983631e-01 -9.047667e-01 1.266826e+00 -1.060816e+00 -8.787876e-01 9.457795e-02 -9.086179e-01 -7.393131e-02 4.506728e-01 9.728495e-02 5.145721e-01 2.723805e-01 5.428236e-01 1.430782e-01 -4.134710e-02 -4.745397e-02 4.959959e-02 1.865906e-02 -4.209069e-01 1.375249e-01 -2.050268e-01 -4.323287e-01 1.593311e-01 -3.142658e-01 8.804014e-02 -2.838970e-01 -9.690381e-02 1.368488e-01 -2.071340e-01 1.215207e-01
<VARIANCE> 52
 1.144889e+01 2.495571e+01 2.634718e+01 4.085015e+01 3.294839e+01 3.935079e+01 4.295352e+01 3.697156e+01 4.523957e+01 4.055418e+01 2.284023e+01 2.463961e+01 1.805462e+01 1.503857e+00 1.655457e+00 3.314858e+00 3.245480e+00 3.014398e+00 2.424495e+00 2.697937e+00 2.960451e+00 3.946704e+00 3.310802e+00 2.208498e+00 1.489166e+00 4.439678e-01 1.062537e-01 3.964865e-01 3.286160e-01 4.748402e-01 5.335298e-01 3.866172e-01 4.588382e-01 4.977259e-01 6.140890e-01 4.128112e-01 3.644355e-01 3.452786e-01 7.390045e-02 5.607755e-02 5.826702e-02 8.259097e-02 1.021610e-01 1.239989e-01 8.888026e-02 1.137957e-01 1.219871e-01 1.353007e-01 1.135501e-01 8.271528e-02 6.070924e-02 1.385545e-02
<GCONST> 1.026247e+02
<STATE> 5
<NUMMIXES> 3
<MIXTURE> 1 4.215901e-01
<MEAN> 52
 -1.672476e+01 1.288602e+01 8.561518e+00 -5.410441e-01 -4.078004e+00 -6.068169e+00 -4.120645e+00 -5.932580e+00 -4.443467e+00 -3.115406e+00 -2.377732e+00 -6.229364e-01 6.860013e+01 -4.255512e+00 1.212260e+00 -2.611587e+00 3.331802e-01 2.830146e+00 1.195450e+00 2.582723e+00 9.786105e-01 1.935939e+00 1.000803e+00 4.306160e-02 1.358199e-01 -3.970734e-01 2.339723e-02 -1.109775e+00 -1.684118e-01 -7.529905e-01 -8.148510e-01 7.981211e-02 -6.369156e-01 2.038312e-01 -2.682202e-01 1.515097e-01 6.097750e-02 -6.637920e-02 2.078483e-01 5.263444e-01 -7.679278e-02 3.100293e-01 -4.876775e-02 -3.814692e-01 -2.152162e-01 -3.208219e-01 -2.379098e-01 -2.733323e-01 -1.921739e-01 -6.174360e-03 -9.395033e-03 -1.711521e-02
<VARIANCE> 52
 2.338521e+01 1.256120e+01 4.209990e+01 2.267252e+01 3.570703e+01 3.956716e+01 3.508197e+01 4.233662e+01 2.620449e+01 3.503585e+01 3.246193e+01 3.053045e+01 1.672765e+01 7.327122e-01 3.299758e+00 2.923568e+00 4.068057e+00 2.723490e+00 2.576875e+00 3.176443e+00 3.501853e+00 2.841358e+00 3.309140e+00 3.422857e+00 2.025764e+00 4.262455e-01 3.222147e-01 2.438527e-01 3.671378e-01 3.664287e-01 5.965448e-01 4.993699e-01 4.959116e-01 4.848381e-01 6.151946e-01 7.363635e-01 4.580641e-01 5.502010e-01 4.980652e-02 2.472605e-02 1.149034e-01 8.675466e-02 9.861330e-02 1.103014e-01 8.488398e-02 1.116635e-01 1.196220e-01 1.153639e-01 1.320307e-01 1.120564e-01 9.198369e-02 1.211012e-02
<GCONST> 1.051092e+02
<MIXTURE> 2 4.156128e-01
<MEAN> 52
 -2.494960e+01 1.041229e+01 3.663024e+00 -3.251549e+00 -1.236063e+00 -3.544584e+00 -9.549278e-01 -2.843919e+00 -1.530289e+00 -2.825444e-02 -1.052130e+00 4.903552e-01 6.892067e+01 -2.434353e+00 -1.215242e+00 -2.347670e+00 -1.728791e+00 -5.978259e-01 -1.368239e-01 -2.257430e-02 -4.099890e-02 3.006166e-01 2.410010e-01 5.685297e-02 -1.268751e-01 -1.104830e-01 1.055807e+00 -3.873516e-01 6.343730e-01 -1.244523e-01 -8.118045e-01 -3.577876e-01 -6.823531e-01 -3.133506e-01 -5.028335e-01 -3.019427e-01 6.805308e-03 -7.397971e-02 8.244565e-02 2.200342e-01 3.841732e-01 2.714781e-01 3.394352e-01 3.100008e-01 3.404868e-02 2.162899e-01 -1.792196e-02 6.493228e-02 -1.340276e-03 -3.737636e-02 4.806717e-02 -5.438481e-02
<VARIANCE> 52
 1.198015e+01 1.749777e+01 4.015882e+01 2.813334e+01 2.902185e+01 3.907118e+01 3.363991e+01 3.152192e+01 2.399565e+01 2.377159e+01 2.408335e+01 2.206228e+01 9.471254e+00 1.739167e+00 1.341490e+00 1.739224e+00 1.704192e+00 2.070110e+00 1.954048e+00 2.267472e+00 2.247675e+00 2.277630e+00 2.189642e+00 2.187319e+00 1.421442e+00 2.409731e-01 1.235252e-01 3.878357e-01 3.733838e-01 5.329419e-01 5.909218e-01 3.690361e-01 4.452702e-01 4.194508e-01 3.993032e-01 3.937755e-01 4.574004e-01 3.152710e-01 4.301545e-02 4.924569e-02 4.512246e-02 6.656429e-02 6.379842e-02 9.984447e-02 8.989604e-02 9.696621e-02 9.987234e-02 1.172329e-01 1.182964e-01 1.045532e-01 7.643057e-02 8.054366e-03
<GCONST> 9.345544e+01
<MIXTURE> 3 1.627971e-01
<MEAN> 52
 -1.074746e+01 6.469965e+00 6.244409e+00 -1.497122e+01 -1.663548e+01 -8.021567e+00 -1.642452e+01 -1.543597e+01 -1.076011e+01 -4.630606e+00 -1.426246e+01 -2.422313e+00 6.803354e+01 -1.657510e+00 2.713135e+00 -2.150295e+00 3.536970e+00 1.097684e+00 6.362230e-01 1.526618e+00 -9.319492e-02 7.322842e-01 -2.547153e+00 1.846586e+00 -2.048907e+00 -9.344272e-01 -1.042951e+00 -1.790370e-01 -3.504738e-01 2.428822e-01 5.678379e-01 2.908852e-01 8.301270e-01 6.470869e-01 4.722975e-01 6.006745e-01 4.861366e-01 1.420281e-01 2.505187e-01 4.039791e-02 -3.188368e-01 1.872717e-01 -3.975887e-01 -1.488936e-02 1.394277e-02 -1.980070e-01 1.147598e-01 2.770292e-02 4.344220e-01 -1.912789e-01 3.222404e-01 5.071495e-02
<VARIANCE> 52
 7.895234e+00 2.705788e+01 2.632825e+01 3.465983e+01 2.495057e+01 2.182712e+01 3.695625e+01 1.490521e+01 1.577016e+01 4.816273e+01 3.361628e+01 2.680367e+01 2.461927e+01 2.254427e+00 1.079439e+00 1.586788e+00 1.771356e+00 4.430694e+00 3.797041e+00 3.459948e+00 2.873561e+00 2.925216e+00 3.504020e+00 2.220366e+00 2.540127e+00 4.019254e-01 1.066720e-01 4.081508e-01 3.463548e-01 4.691252e-01 4.041852e-01 3.779314e-01 4.536699e-01 6.198478e-01 3.618803e-01 9.851409e-01 5.055108e-01 5.520639e-01 3.560593e-02 1.026351e-01 4.381180e-02 5.735823e-02 7.255082e-02 1.406485e-01 1.203744e-01 1.078698e-01 1.209220e-01 8.774030e-02 1.246997e-01 9.026215e-02 8.735085e-02 1.003863e-02
<GCONST> 1.001838e+02
<STATE> 6
<NUMMIXES> 3
<MIXTURE> 1 1.307697e-01
<MEAN> 52
 -2.594871e+01 8.431867e+00 -1.685881e+00 -5.494300e+00 -4.555309e+00 -2.354150e+00 -2.988344e+00 -7.583996e+00 -1.849420e+00 -5.523818e-01 -2.966916e+00 -2.168572e+00 6.574052e+01 3.300261e+00 3.568358e-01 2.328835e+00 -1.233273e+00 -2.189444e+00 -1.805739e+00 -2.787784e+00 -3.003968e+00 -2.570954e+00 -1.525131e+00 -1.132727e+00 -4.558217e-01 2.113639e-01 1.009329e+00 -7.919692e-02 4.846674e-01 -8.690373e-01 -7.398179e-01 -4.037604e-01 -8.294128e-01 -4.731137e-01 -4.365947e-01 -3.979700e-02 -5.151240e-01 -1.074327e-01 3.706179e-01 -4.229119e-01 -1.994880e-01 -2.844404e-01 -1.110594e-01 3.422440e-01 3.657925e-01 3.628646e-01 5.176487e-01 4.169369e-01 3.614114e-01 5.625817e-02 5.947646e-02 2.702821e-02
<VARIANCE> 52
 1.566052e+01 1.123926e+01 4.330252e+01 2.491469e+01 2.947938e+01 2.801286e+01 3.942986e+01 3.889452e+01 2.948986e+01 2.636061e+01 1.841430e+01 1.953163e+01 2.006334e+01 2.283646e+00 1.175019e+00 1.446161e+00 3.075172e+00 2.459755e+00 1.880255e+00 2.942500e+00 2.850369e+00 1.870821e+00 2.045266e+00 2.250001e+00 2.174127e+00 4.794228e-01 2.228960e-01 2.425267e-01 2.780146e-01 4.941796e-01 5.078072e-01 5.339986e-01 5.523781e-01 7.255147e-01 5.245101e-01 6.315073e-01 4.000844e-01 4.787000e-01 6.684040e-02 8.804931e-02 5.151429e-02 5.433449e-02 1.047735e-01 1.269825e-01 8.425266e-02 1.291349e-01 1.153025e-01 9.348612e-02 8.829052e-02 9.696268e-02 1.170310e-01 1.652747e-02
<GCONST> 1.003746e+02
<MIXTURE> 2 7.713767e-01
<MEAN> 52
 -2.859465e+01 8.642668e+00 -2.434097e+00 -6.767529e+00 -5.224822e+00 -6.052487e+00 -3.532774e+00 -4.590518e+00 -2.317778e+00 -2.172912e-01 -1.606524e+00 -7.901701e-01 6.797073e+01 -1.546254e-01 -5.157695e-01 -1.955923e-02 -3.503641e-01 -4.609135e-02 7.067301e-02 1.456535e-01 3.468175e-02 1.271138e-01 1.954263e-01 9.663871e-02 8.249611e-02 -1.795270e-01 6.529096e-01 8.917440e-02 5.815209e-01 1.827967e-01 -6.386678e-02 4.109154e-03 -1.351541e-01 -1.480104e-01 -1.694242e-01 -1.213842e-01 -1.029835e-01 -5.329908e-02 -2.821089e-02 4.590920e-02 5.037520e-02 2.757924e-03 6.701389e-03 -3.041744e-02 6.979533e-03 -5.013330e-02 -2.709713e-02 -4.349120e-02 -2.441718e-02 -4.180833e-04 -2.549698e-02 3.266383e-02
<VARIANCE> 52
 6.737071e+00 1.826563e+01 3.830854e+01 2.798912e+01 2.068844e+01 5.043092e+01 3.007463e+01 2.930162e+01 2.810351e+01 2.845257e+01 2.183634e+01 1.812369e+01 1.629796e+01 6.353676e-01 6.587983e-01 1.177024e+00 1.141448e+00 1.410903e+00 1.452852e+00 1.367507e+00 1.674210e+00 1.621237e+00 1.726887e+00 1.629545e+00 1.445426e+00 1.665569e-01 2.743233e-01 1.954226e-01 2.607583e-01 3.497067e-01 3.514094e-01 3.387899e-01 3.919742e-01 4.575313e-01 4.144232e-01 4.227837e-01 3.473016e-01 2.900682e-01 3.468781e-02 4.932736e-02 3.583549e-02 4.482738e-02 7.085025e-02 8.511497e-02 8.427448e-02 8.725007e-02 9.076227e-02 9.056416e-02 1.003136e-01 7.813311e-02 7.918079e-02 1.239880e-02
<GCONST> 8.500285e+01
<MIXTURE> 3 9.785367e-02
<MEAN> 52
 -1.406575e+01 8.899459e+00 3.559879e+00 -1.460085e+01 -1.538920e+01 -9.548744e+00 -1.584963e+01 -1.848677e+01 -9.390018e+00 -5.598303e+00 -9.603166e+00 -4.721476e+00 6.743158e+01 3.476772e+00 -1.268722e+00 2.645648e+00 -4.613944e+00 -2.030230e+00 -1.073707e+00 -3.081507e+00 -1.459506e+00 -1.462751e+00 4.385788e-01 -2.719704e+00 -3.012667e-01 1.335542e+00 -8.763974e-01 -4.584919e-01 -5.017934e-01 -3.344997e-01 9.285743e-01 8.219315e-01 7.584909e-01 1.245332e+00 8.633855e-01 8.381503e-01 3.654451e-02 3.283028e-01 7.760581e-02 -3.865781e-01 1.591543e-01 -3.678213e-01 5.813863e-01 3.430497e-01 1.794390e-01 3.426538e-01 1.672153e-01 1.502597e-01 -1.385888e-01 3.151489e-01 6.097257e-02 -2.115825e-01
<VARIANCE> 52
 1.056553e+01 1.981303e+01 2.405828e+01 3.104241e+01 2.067778e+01 1.757614e+01 2.708283e+01 2.801015e+01 1.356215e+01 2.905872e+01 1.965114e+01 2.041583e+01 2.683488e+01 1.837928e+00 1.496865e+00 2.019540e+00 3.364345e+00 3.641374e+00 3.929865e+00 4.189293e+00 5.360993e+00 2.739611e+00 3.749440e+00 1.945974e+00 3.341622e+00 4.240785e-01 2.294689e-01 2.310324e-01 3.681225e-01 5.741234e-01 3.515142e-01 3.327537e-01 5.774441e-01 3.455406e-01 3.357179e-01 4.481786e-01 5.581410e-01 4.866582e-01 8.700719e-02 8.451609e-02 6.316033e-02 7.081173e-02 8.637287e-02 1.328713e-01 1.759788e-01 1.660013e-01 1.875998e-01 1.296141e-01 1.488281e-01 9.936172e-02 1.194921e-01 1.222859e-02
<GCONST> 1.031332e+02
<STATE> 7
<NUMMIXES> 3
<MIXTURE> 1 4.430290e-01
<MEAN> 52
 -1.014333e+01 8.109753e+00 1.361921e+01 -2.889252e+00 -8.977252e+00 -4.796282e+00 -6.077377e+00 -5.520000e+00 -7.060357e+00 -2.879690e+00 6.377155e-02 -6.158044e-01 6.944217e+01 4.530786e+00 -6.174629e-01 2.533891e+00 -7.364221e-02 -2.801226e+00 5.442731e-01 -1.843598e+00 -1.553927e-01 -1.838768e+00 -3.135449e-01 1.189629e+00 -4.992009e-01 1.235817e+00 -7.655113e-01 -4.060603e-01 -7.959468e-01 -5.064585e-01 8.485317e-02 2.804830e-01 1.427945e-01 1.508752e-01 6.929790e-02 3.445806e-01 1.149005e-01 -2.486327e-01 7.825532e-02 -5.249303e-01 3.147156e-02 -3.822690e-01 4.578002e-02 4.422038e-01 -5.791242e-03 2.806311e-01 -8.846697e-03 2.673945e-01 8.304755e-02 -2.162886e-01 -3.930892e-02 -2.418845e-01
<VARIANCE> 52
 3.010739e+01 2.543802e+01 2.207831e+01 2.317846e+01 4.645480e+01 4.881040e+01 3.125955e+01 3.339198e+01 3.587749e+01 2.226101e+01 2.669717e+01 2.043645e+01 1.786521e+01 2.347401e+00 2.450869e+00 4.306817e+00 4.059833e+00 3.033514e+00 4.505527e+00 2.587039e+00 3.228438e+00 3.387596e+00 4.447108e+00 2.756384e+00 2.884481e+00 7.565172e-01 5.229146e-01 2.482518e-01 4.456417e-01 4.410461e-01 7.277466e-01 6.097769e-01 4.797693e-01 4.394051e-01 5.610513e-01 4.118611e-01 4.835114e-01 4.083920e-01 1.739989e-01 1.030530e-01 8.082281e-02 1.234318e-01 1.486187e-01 1.133233e-01 1.738204e-01 9.385543e-02 1.248963e-01 1.213505e-01 1.658296e-01 1.135386e-01 1.192734e-01 2.838773e-02
<GCONST> 1.130452e+02
<MIXTURE> 2 3.382728e-01
<MEAN> 52
 -2.523850e+01 4.349008e+00 3.514644e+00 -7.088421e+00 -4.491325e+00 -5.141987e+00 -2.082981e+00 -3.455009e+00 -2.687640e+00 -5.783188e-01 -1.444195e+00 -9.341614e-02 6.718726e+01 3.940422e+00 3.929912e-01 2.684221e+00 1.350405e+00 -5.840743e-01 4.713952e-01 -6.863232e-01 -3.747584e-01 -8.085138e-01 -5.751835e-01 -1.444053e-01 -4.484501e-01 -2.142497e-01 1.268071e+00 2.959643e-01 7.600479e-01 2.331343e-01 -5.133495e-01 1.613725e-01 -4.860536e-01 -2.273653e-02 -5.200932e-01 -1.234324e-01 3.887507e-01 -5.570761e-02 4.371243e-01 -4.568199e-01 -2.057041e-01 -3.909770e-01 -3.407526e-01 -8.901882e-02 1.819625e-02 1.303440e-02 3.980424e-02 2.991950e-02 1.187131e-01 9.659828e-02 -1.364848e-02 9.291077e-02
<VARIANCE> 52
 1.562711e+01 1.818081e+01 2.118971e+01 2.106309e+01 2.283792e+01 3.604293e+01 2.570033e+01 2.348292e+01 2.736845e+01 2.726056e+01 2.239556e+01 2.042734e+01 1.164511e+01 2.325814e+00 2.301508e+00 2.441100e+00 2.021648e+00 2.591301e+00 2.329156e+00 2.186368e+00 1.936007e+00 2.341622e+00 2.673664e+00 2.033168e+00 1.372944e+00 7.914920e-01 2.849869e-01 3.296631e-01 3.674133e-01 5.508816e-01 5.260701e-01 6.297023e-01 3.751957e-01 3.732239e-01 4.731725e-01 6.710481e-01 4.626662e-01 3.889254e-01 1.529846e-01 9.046262e-02 7.336582e-02 9.711726e-02 8.256139e-02 1.258974e-01 9.523217e-02 7.841703e-02 8.404405e-02 1.108454e-01 1.027439e-01 1.057171e-01 6.789029e-02 3.199587e-02
<GCONST> 1.008588e+02
<MIXTURE> 3 2.186982e-01
<MEAN> 52
 -1.188805e+01 3.822406e+00 6.774894e+00 -2.717955e+01 -1.201902e+01 -7.271457e+00 -1.832845e+01 -1.403035e+01 -8.422938e+00 -2.489741e-01 -1.640536e+01 -2.632118e+00 7.110788e+01 7.128730e-01 -7.955047e-01 -2.809496e-01 -2.100547e+00 1.256088e+00 8.718943e-01 -8.460266e-01 1.039912e+00 5.581469e-01 1.771592e-01 -1.274553e+00 5.199822e-01 4.047858e-01 -3.225180e-01 2.088675e-01 -6.202380e-01 1.114157e+00 3.214323e-01 1.096747e-01 2.719314e-01 1.692472e-01 1.653660e-01 -5.109969e-01 4.722237e-01 3.404364e-02 -2.965468e-01 1.969827e-01 1.634839e-02 1.880648e-01 1.101588e-01 -2.738333e-01 -2.583676e-01 -1.323140e-01 -2.369933e-01 -2.360350e-01 -1.437463e-01 1.301958e-02 -8.167162e-02 -7.416406e-03
<VARIANCE> 52
 1.034757e+01 1.128837e+01 1.422136e+01 2.609276e+01 1.492429e+01 1.967101e+01 3.352180e+01 3.333527e+01 2.250274e+01 4.055658e+01 3.372649e+01 1.842499e+01 1.145686e+01 5.085447e-01 6.877168e-01 2.001684e+00 3.601632e+00 1.093779e+00 1.420960e+00 1.802670e+00 3.129125e+00 2.465790e+00 3.568070e+00 2.787866e+00 1.976127e+00 3.265562e-01 2.702696e-01 1.524093e-01 4.593098e-01 2.791514e-01 3.277661e-01 5.667729e-01 4.456577e-01 4.026273e-01 4.580493e-01 3.783076e-01 4.257958e-01 2.975367e-01 3.062907e-02 4.796937e-02 4.380204e-02 8.529496e-02 1.213340e-01 4.007936e-02 6.999929e-02 1.005479e-01 9.826639e-02 8.806244e-02 1.472807e-01 1.117764e-01 7.603653e-02 1.012086e-02
<GCONST> 8.960707e+01
<STATE> 8
<NUMMIXES> 3
<MIXTURE> 1 4.477775e-01
<MEAN> 52
 -5.766059e+00 4.027559e+00 1.640864e+01 -7.889441e+00 -1.532195e+01 -2.419494e-01 -1.010388e+01 -5.658152e+00 -1.026555e+01 -1.375727e+00 3.864277e+00 -3.620703e+00 7.229115e+01 9.082891e-01 -6.190423e-01 -3.544749e-01 -1.162321e+00 -3.390970e-01 1.844865e+00 -3.665611e-01 -8.546039e-02 -3.088660e-01 1.015487e+00 3.476759e-01 -1.545624e+00 1.906131e-01 -6.071692e-01 2.038978e-01 -7.349583e-01 3.643807e-01 8.486665e-01 -2.443217e-01 4.787964e-01 -5.116200e-02 4.032235e-01 1.342981e-01 -4.672996e-01 -3.510681e-02 -4.107791e-01 2.456843e-01 5.614700e-02 2.104578e-01 2.938235e-01 -5.478195e-02 -2.839639e-01 -4.296103e-02 -2.186953e-02 -2.679573e-02 -1.838796e-01 -6.755385e-02 2.036738e-01 -2.013957e-02
<VARIANCE> 52
 1.238165e+01 2.108543e+01 2.562259e+01 4.882852e+01 3.036244e+01 5.687532e+01 3.519607e+01 4.495395e+01 3.917388e+01 4.744614e+01 2.648353e+01 3.152175e+01 1.280241e+01 5.941430e-01 9.339293e-01 1.563975e+00 2.049956e+00 2.687900e+00 2.219346e+00 2.510573e+00 2.196950e+00 2.091038e+00 2.374259e+00 2.343592e+00 1.739689e+00 4.527986e-01 3.060926e-01 1.754459e-01 3.999740e-01 5.662800e-01 5.307099e-01 6.263952e-01 3.838918e-01 4.148701e-01 3.607611e-01 5.157896e-01 3.265648e-01 4.028694e-01 8.469594e-02 2.776349e-02 4.479246e-02 5.928081e-02 7.409684e-02 1.044528e-01 8.495504e-02 1.031531e-01 1.001652e-01 9.837260e-02 8.670962e-02 9.021869e-02 7.262111e-02 2.139976e-02
<GCONST> 9.759865e+01
<MIXTURE> 2 3.214685e-01
<MEAN> 52
 -9.263256e+00 -1.271972e+00 4.503976e+00 -2.862942e+01 -6.661210e+00 -6.236624e+00 -2.257318e+01 -7.554888e+00 -6.989128e+00 -4.211858e+00 -1.873282e+01 -7.150801e-01 7.191652e+01 4.644613e-01 -5.229282e-01 -1.034920e-01 8.053398e-01 3.070518e-01 -1.150964e-01 -3.598063e-01 6.795581e-01 -2.702166e-01 -9.615958e-01 6.771310e-03 5.418421e-02 -3.004299e-01 2.922036e-03 4.124448e-02 3.681820e-03 2.540933e-01 -1.814825e-01 -1.511527e-01 1.475999e-01 -6.502448e-02 -4.483090e-02 4.528055e-02 9.881952e-02 -8.085748e-02 -9.786761e-02 1.416182e-02 1.144615e-02 -2.243913e-02 -8.421390e-02 -6.085861e-03 4.307047e-03 3.284943e-02 -2.900187e-02 1.102718e-02 7.219300e-02 -2.583718e-02 -3.990486e-03 6.490069e-03
<VARIANCE> 52
 6.012726e+00 9.452472e+00 1.189533e+01 2.576208e+01 1.789539e+01 4.119996e+01 2.100432e+01 7.078370e+01 1.533384e+01 4.777525e+01 3.443732e+01 2.242082e+01 4.553889e+00 9.358779e-02 1.455235e-01 4.167972e-01 7.321405e-01 8.805677e-01 9.773802e-01 1.068708e+00 9.878946e-01 5.807118e-01 1.342636e+00 7.143235e-01 4.911272e-01 9.173893e-02 1.902120e-02 2.717334e-02 8.811720e-02 1.187869e-01 9.329552e-02 1.289824e-01 1.382657e-01 2.010110e-01 1.582571e-01 1.576207e-01 1.219303e-01 1.043631e-01 6.737815e-03 4.297424e-03 6.097375e-03 1.741116e-02 3.055979e-02 1.934934e-02 2.839212e-02 2.586176e-02 2.997981e-02 2.849000e-02 3.270156e-02 2.866953e-02 2.090800e-02 1.627136e-03
<GCONST> 3.797779e+01
<MIXTURE> 3 2.307541e-01
<MEAN> 52
 -3.706539e+00 4.602203e+00 9.615482e+00 -7.620784e+00 -1.238242e+01 3.350953e-01 -1.047433e+01 -7.078343e+00 -9.405676e+00 3.778669e-01 -2.159771e+00 -5.515629e+00 7.097689e+01 1.211425e+00 -8.837701e-01 -1.783563e+00 2.339601e+00 9.343104e-01 -1.734288e+00 1.130198e+00 1.589932e-01 -4.020855e-01 -7.737924e-02 -3.507422e-01 -2.025262e-01 -5.574436e-01 -1.516376e-01 2.474795e-02 -1.598794e-01 5.942146e-01 3.286746e-01 -6.207134e-01 3.358851e-01 -3.263558e-02 2.584045e-01 -2.398197e-01 -1.900388e-01 3.457508e-01 -3.057020e-01 1.063553e-01 9.704991e-02 3.216770e-01 -3.588755e-01 -2.265406e-01 3.733248e-01 -2.973800e-01 -7.745726e-02 3.772082e-02 3.994250e-02 3.696123e-03 -2.633521e-02 7.741957e-02
<VARIANCE> 52
 1.195037e+01 2.186632e+01 3.306605e+01 8.600566e+01 3.668284e+01 5.082433e+01 9.460934e+01 8.172151e+01 6.032861e+01 7.488867e+01 1.002483e+02 3.860129e+01 1.003651e+01 7.619532e-01 6.635889e-01 1.199325e+00 1.577650e+00 3.101976e+00 2.783588e+00 2.259194e+00 2.580933e+00 2.873418e+00 2.618732e+00 2.710265e+00 3.206356e+00 5.456375e-01 2.691898e-01 1.845944e-01 2.498324e-01 4.698459e-01 5.290349e-01 6.064532e-01 7.109454e-01 8.436283e-01 8.359512e-01 5.752853e-01 6.519033e-01 6.331612e-01 5.760869e-02 6.330899e-02 3.518303e-02 5.922278e-02 7.322008e-02 1.276234e-01 1.373211e-01 1.025440e-01 1.279731e-01 1.188358e-01 1.007674e-01 1.126463e-01 1.195958e-01 1.964933e-02
<GCONST> 1.081539e+02
<STATE> 9
<NUMMIXES> 3
<MIXTURE> 1 3.220578e-01
<MEAN> 52
 -4.543816e+00 2.151496e+00 1.519333e+01 -1.138982e+01 -1.448453e+01 2.662686e+00 -1.030105e+01 -6.595287e+00 -9.345499e+00 2.183445e+00 1.105010e+00 -8.667874e+00 7.140362e+01 4.115233e-01 8.771802e-02 -5.766035e-01 5.364581e-01 9.353558e-01 -2.595997e-02 -2.302663e-01 1.869313e-01 5.493259e-01 -1.123763e-01 -9.189160e-01 -2.829682e-01 -6.346830e-01 1.475105e-02 6.801903e-02 -7.559729e-02 3.411890e-01 6.048969e-02 -4.469255e-01 1.207968e-01 1.428173e-01 -8.057385e-02 -2.304568e-01 4.885071e-02 2.579398e-01 -1.118210e-01 1.360896e-02 -1.923147e-02 2.826272e-02 -3.208261e-02 -8.259147e-02 4.483488e-02 6.386524e-02 -3.299295e-02 -4.746913e-02 4.824578e-02 7.737999e-02 -2.618434e-02 1.821282e-02
<VARIANCE> 52
 9.090497e+00 1.646218e+01 1.336159e+01 2.592183e+01 5.941479e+01 3.934307e+01 3.765813e+01 5.608395e+01 3.124660e+01 4.139025e+01 3.319017e+01 2.563669e+01 1.066608e+01 7.254019e-02 3.859615e-01 4.537126e-01 9.321224e-01 1.336150e+00 1.467906e+00 1.396419e+00 1.233203e+00 1.127743e+00 2.037103e+00 1.017680e+00 1.536810e+00 1.447966e-01 1.111349e-02 5.802231e-02 6.539173e-02 1.686890e-01 1.602054e-01 2.121782e-01 2.997529e-01 2.299915e-01 1.682048e-01 2.941571e-01 2.081223e-01 2.678398e-01 1.288207e-02 5.980432e-03 1.376871e-02 2.279433e-02 3.226840e-02 3.750832e-02 4.459408e-02 5.130840e-02 4.872934e-02 4.215611e-02 5.959763e-02 4.404051e-02 5.975894e-02 4.318203e-03
<GCONST> 5.971283e+01
<MIXTURE> 2 3.507039e-01
<MEAN> 52
 -4.654017e+00 -2.201430e-01 9.263760e-01 -1.615866e+01 -8.884788e+00 -9.642723e+00 -1.929478e+01 -7.258676e+00 -1.076971e+01 -1.127804e+01 -1.530455e+01 -4.593956e+00 6.425389e+01 2.514771e-01 1.416914e-01 -3.466120e-01 9.658616e-01 -1.345495e-01 -2.397895e-01 4.816062e-01 -2.259489e-01 -2.752065e-01 -2.767356e-01 4.003598e-01 -2.125293e-01 -7.602718e-01 -8.174712e-02 6.758797e-02 6.289926e-02 1.780854e-02 9.983117e-03 6.803596e-02 8.548982e-02 -9.175695e-02 -3.375557e-02 3.509698e-02 7.946078e-02 3.056322e-02 -3.951751e-02 -1.033971e-02 -2.666502e-02 5.310621e-03 6.415394e-03 3.455619e-02 1.134355e-02 -1.075381e-02 3.824320e-02 1.376221e-02 -1.569828e-03 -7.333224e-03 1.990049e-02 1.192781e-02
<VARIANCE> 52
 9.376208e+00 1.885892e+01 1.686000e+01 5.104719e+01 4.158671e+01 4.045250e+01 3.461235e+01 3.587868e+01 2.143692e+01 7.807480e+01 4.097365e+01 2.694521e+01 3.733292e+01 2.494064e-01 4.657602e-01 8.564500e-01 1.293025e+00 1.125692e+00 1.277590e+00 1.320965e+00 1.425818e+00 1.283507e+00 1.526320e+00 1.155278e+00 8.787661e-01 1.922705e-01 2.852943e-02 7.933818e-02 1.223107e-01 2.252248e-01 1.961047e-01 2.463467e-01 1.968847e-01 2.199839e-01 2.370137e-01 2.302566e-01 2.261524e-01 1.587683e-01 2.264802e-02 6.381365e-03 1.320413e-02 3.129914e-02 4.676946e-02 4.107859e-02 4.744369e-02 4.495953e-02 5.777060e-02 6.159704e-02 4.904154e-02 5.569351e-02 3.392705e-02 4.478895e-03
<GCONST> 6.662965e+01
<MIXTURE> 3 3.272383e-01
<MEAN> 52
 -7.414653e-01 3.363112e+00 8.471263e+00 -1.304193e+00 -8.576335e+00 -3.274415e+00 -7.492304e+00 -4.901027e+00 -8.667232e+00 -2.014353e-01 -1.255799e+00 -6.910941e+00 6.757306e+01 7.687687e-01 6.969451e-02 -1.062592e+00 2.203059e+00 6.965622e-01 -1.273216e+00 1.002735e+00 -3.728201e-01 3.445028e-01 1.368236e-04 -8.608450e-01 3.113360e-01 -1.152524e+00 -2.184547e-01 1.042174e-01 2.402481e-01 -2.561576e-01 -8.464868e-02 4.411776e-01 -1.147350e-01 -2.238381e-01 2.553614e-01 7.373255e-02 -1.495723e-01 1.051724e-01 -4.672088e-02 -4.817006e-02 -5.092169e-02 8.115608e-02 -2.894638e-01 -2.479807e-02 2.050213e-01 -1.770984e-01 9.827591e-02 -1.577128e-02 -2.031306e-02 1.015612e-01 -6.696135e-02 9.966107e-02
<VARIANCE> 52
 1.074751e+01 2.075035e+01 3.124684e+01 5.293404e+01 3.670482e+01 4.391902e+01 5.036700e+01 4.216035e+01 5.987981e+01 5.236126e+01 5.090516e+01 3.504685e+01 1.493919e+01 4.219595e-01 1.068943e+00 8.673809e-01 1.475199e+00 1.558393e+00 2.367672e+00 2.333585e+00 3.029500e+00 3.038562e+00 2.710903e+00 2.728659e+00 2.685542e+00 3.882923e-01 8.488183e-02 1.310663e-01 1.801943e-01 3.546551e-01 3.139613e-01 4.088526e-01 4.605762e-01 4.218373e-01 5.324401e-01 4.722225e-01 4.703563e-01 4.129712e-01 5.933402e-02 2.589222e-02 3.934058e-02 3.667116e-02 5.974834e-02 7.411513e-02 8.896711e-02 9.340129e-02 1.154580e-01 1.187079e-01 1.000291e-01 1.116525e-01 1.015547e-01 9.922190e-03
<GCONST> 9.466724e+01
<STATE> 10
<NUMMIXES> 3
<MIXTURE> 1 5.731442e-01
<MEAN> 52
 -7.074638e-02 5.185556e+00 7.718993e+00 2.709597e+00 -4.502812e+00 -1.745092e+00 -4.416732e+00 -6.344602e+00 -6.324014e+00 -1.139761e-01 -3.938933e+00 -4.927985e+00 6.282205e+01 -3.824314e-01 -1.072989e-03 -6.640995e-02 1.862232e-01 9.725069e-01 6.113802e-01 2.302822e-01 2.825877e-01 7.743020e-01 -2.525004e-01 -4.676209e-01 2.425596e-01 -8.637543e-01 -2.099486e-01 -1.774892e-01 -5.516782e-02 -3.821578e-01 -1.182153e-01 3.610709e-02 -1.675147e-01 2.117934e-01 3.718518e-02 -8.672841e-03 2.157086e-01 1.799158e-02 7.220114e-02 4.031292e-02 -6.961049e-02 -1.047464e-01 2.203698e-02 -9.114063e-02 -1.504561e-01 -1.428625e-02 -9.052786e-03 -5.355916e-02 2.832968e-02 5.193594e-02 2.496589e-03 2.467554e-02
<VARIANCE> 52
 1.059716e+01 1.443750e+01 2.107983e+01 2.743461e+01 3.899677e+01 4.009590e+01 3.253329e+01 4.056642e+01 4.227211e+01 3.561751e+01 3.041567e+01 3.112353e+01 2.256561e+01 5.285791e-01 8.810214e-01 7.653083e-01 1.172193e+00 1.555634e+00 1.694695e+00 2.371104e+00 2.623885e+00 2.205059e+00 1.825478e+00 1.894040e+00 1.668873e+00 4.638313e-01 7.744205e-02 1.978833e-01 1.961494e-01 3.248479e-01 2.958069e-01 4.056289e-01 3.714482e-01 3.976756e-01 4.000703e-01 3.629817e-01 3.674441e-01 3.455394e-01 5.572709e-02 1.653682e-02 3.729297e-02 2.810579e-02 5.388092e-02 6.522120e-02 7.832678e-02 8.813652e-02 9.707267e-02 9.648643e-02 8.020791e-02 8.474502e-02 8.204269e-02 1.037137e-02
<GCONST> 8.632044e+01
<MIXTURE> 2 3.299850e-01
<MEAN> 52
 -3.569112e+00 -2.415878e+00 -2.478503e+00 -9.065992e+00 -6.792159e+00 -1.133709e+01 -1.253963e+01 -1.020462e+01 -1.369201e+01 -1.153295e+01 -9.518815e+00 -2.851997e+00 6.136253e+01 -1.981694e-01 -7.728272e-02 -1.104194e-01 1.141274e+00 2.371924e-01 2.107808e-01 3.348297e-01 -2.084142e-01 -1.724558e-01 -8.942829e-04 4.513814e-01 -1.156827e-01 -5.532053e-01 -1.386121e-01 -1.229470e-01 5.292001e-02 -1.184480e-01 4.772939e-02 1.856354e-01 3.280944e-02 1.160943e-01 2.511201e-01 2.425033e-01 -3.935001e-02 5.002828e-02 6.347942e-02 1.583992e-02 -2.353537e-02 -2.101302e-02 -8.907165e-02 -1.576321e-02 -2.204464e-02 3.061291e-02 8.374566e-02 8.093651e-02 3.782701e-02 1.432188e-03 2.919781e-02 2.767088e-03
<VARIANCE> 52
 1.616479e+01 9.080143e+01 3.213763e+01 5.235109e+01 5.736605e+01 6.530256e+01 4.992354e+01 4.890551e+01 3.806931e+01 4.914469e+01 5.584174e+01 4.551774e+01 3.099557e+01 7.866707e-01 1.334623e+00 1.352091e+00 2.915402e+00 2.529099e+00 3.552033e+00 2.427450e+00 3.386211e+00 3.008415e+00 3.213706e+00 2.170306e+00 1.985951e+00 6.907375e-01 9.150132e-02 1.521203e-01 2.624577e-01 4.362928e-01 3.706215e-01 5.138535e-01 5.177738e-01 6.809071e-01 6.350399e-01 4.820679e-01 4.276060e-01 3.389092e-01 5.027983e-02 2.098775e-02 3.364339e-02 5.091032e-02 9.337002e-02 9.031901e-02 1.129322e-01 1.072629e-01 1.351285e-01 1.360454e-01 9.959584e-02 9.520353e-02 7.015187e-02 1.236605e-02
<GCONST> 1.038337e+02
<MIXTURE> 3 9.687069e-02
<MEAN> 52
 -8.410541e+00 3.488937e-01 4.498726e-01 -3.071421e+00 -3.706104e+00 -6.339921e+00 -9.819994e+00 -8.531598e+00 -1.096412e+01 -1.086596e+01 -8.329413e+00 -3.519309e+00 5.488869e+01 -1.254375e+00 -1.488594e+00 -1.072085e+00 -2.728176e-01 8.988866e-01 1.475581e+00 2.258843e+00 2.302589e+00 2.757269e+00 2.172572e+00 1.544647e+00 7.974191e-01 -8.175171e-01 1.629033e-01 -6.913667e-02 -2.691022e-01 -4.421010e-01 -2.021977e-01 -1.633878e-01 -2.206980e-02 2.330782e-01 2.645548e-01 2.775278e-01 7.163311e-02 4.424422e-02 1.757527e-01 1.455937e-01 1.980906e-01 1.441493e-01 1.430704e-01 -4.563775e-02 -1.649513e-01 -2.733750e-01 -3.853438e-01 -4.111298e-01 -3.007961e-01 -1.247911e-01 -7.328828e-02 3.856705e-02
<VARIANCE> 52
 2.311632e+01 3.691972e+01 2.246619e+01 1.885631e+01 3.183674e+01 3.232325e+01 3.643054e+01 5.165187e+01 2.944020e+01 3.386307e+01 3.405286e+01 2.422704e+01 3.307189e+01 5.167651e-01 3.170641e-01 8.345883e-01 1.144819e+00 1.209917e+00 2.147629e+00 1.793292e+00 2.662637e+00 2.222912e+00 2.307306e+00 2.257235e+00 1.955190e+00 3.964347e-01 1.387930e-01 2.084019e-01 1.834230e-01 2.068379e-01 3.259267e-01 4.533991e-01 4.937905e-01 8.039222e-01 8.292053e-01 5.632206e-01 3.262570e-01 3.029726e-01 8.191238e-02 1.767492e-02 2.004588e-02 3.055821e-02 4.184942e-02 5.509405e-02 8.955826e-02 8.699598e-02 1.090944e-01 9.662818e-02 7.982776e-02 9.922402e-02 8.426147e-02 1.072304e-02
<GCONST> 8.883213e+01
<STATE> 11
<NUMMIXES> 3
<MIXTURE> 1 2.346788e-01
<MEAN> 52
 1.652946e+00 -2.186441e-01 5.632755e+00 2.296401e+00 -8.446543e+00 -3.691542e+00 -1.171687e+01 -7.070635e+00 -3.693859e+00 3.195469e-01 -3.903682e+00 -5.530293e+00 6.837032e+01 5.506336e-02 -8.883691e-01 -2.719630e-01 -3.682340e-01 -1.281926e-01 -1.562767e-01 -1.215200e+00 9.945692e-01 7.000221e-01 -2.748934e-01 3.806109e-01 4.231293e-01 5.314282e-01 -9.978245e-02 -1.043278e-01 1.262944e-01 -1.433683e-01 -3.149185e-01 -1.312989e-01 5.656122e-02 4.522690e-01 -9.239355e-02 -2.098480e-01 2.542932e-01 9.416148e-02 2.156090e-01 -1.631033e-02 6.903232e-02 6.301659e-02 6.054314e-02 -2.131183e-02 -1.100920e-02 1.217355e-01 -1.091405e-01 -3.308526e-02 1.783063e-02 -5.350615e-02 -2.762493e-02 -4.574790e-02
<VARIANCE> 52
 9.764533e+00 3.179167e+01 4.199960e+01 4.903603e+01 3.754770e+01 2.682382e+01 5.152515e+01 6.650629e+01 5.320071e+01 5.673521e+01 4.331051e+01 4.096191e+01 2.323602e+01 4.130839e-01 1.086842e+00 1.649908e+00 2.458994e+00 2.842563e+00 2.088241e+00 2.172122e+00 5.223748e+00 3.057872e+00 3.192180e+00 2.712766e+00 1.966095e+00 6.568845e-01 7.419062e-02 2.410914e-01 2.742399e-01 3.326730e-01 3.925465e-01 3.669322e-01 3.460256e-01 7.939395e-01 4.027826e-01 3.912920e-01 4.417129e-01 3.566759e-01 9.840938e-02 1.629810e-02 5.122991e-02 5.524809e-02 9.038672e-02 8.754416e-02 8.751518e-02 7.293061e-02 2.012156e-01 1.237733e-01 1.186244e-01 1.143746e-01 8.020682e-02 2.350261e-02
<GCONST> 1.011670e+02
<MIXTURE> 2 2.957049e-01
<MEAN> 52
 -6.063344e+00 1.781810e+00 3.669402e+00 2.519288e-03 -8.242316e-01 9.834003e-01 -1.968476e+00 -1.316684e+00 -1.790406e+00 -1.120143e+00 -3.505826e+00 -2.774330e+00 5.644070e+01 -1.250052e+00 -1.582641e+00 -1.947886e+00 -1.866713e+00 -1.165582e+00 -9.878531e-01 -5.606122e-01 -1.732624e-01 5.752010e-01 4.123106e-01 7.236219e-01 6.672030e-01 -8.810253e-01 1.045857e-01 -5.059725e-02 -5.202027e-02 -2.080583e-01 -2.929720e-01 -2.540355e-01 -3.090783e-01 -3.386272e-01 -2.518144e-01 -1.375472e-02 4.758349e-02 -1.544463e-01 1.679950e-01 1.300791e-01 2.157747e-01 2.342755e-01 3.141677e-01 2.410517e-01 1.718745e-01 1.682346e-01 7.897668e-02 -1.926056e-02 -1.091957e-01 -1.460165e-01 -8.212817e-02 2.059528e-02
<VARIANCE> 52
 1.129578e+01 1.239386e+01 2.461556e+01 2.314230e+01 2.853877e+01 2.972782e+01 3.339656e+01 3.297900e+01 2.844739e+01 2.536115e+01 2.053311e+01 1.982548e+01 1.431438e+01 4.611241e-01 8.842082e-01 8.356721e-01 1.326785e+00 1.434028e+00 1.989384e+00 2.109593e+00 2.377792e+00 2.178402e+00 1.825074e+00 1.743698e+00 1.627362e+00 3.125003e-01 9.738465e-02 2.869088e-01 2.506595e-01 4.310007e-01 4.092586e-01 4.626395e-01 4.610626e-01 4.147452e-01 4.157239e-01 3.648818e-01 3.860491e-01 3.174934e-01 5.797836e-02 1.645522e-02 3.757686e-02 2.998643e-02 6.118411e-02 5.923991e-02 9.012382e-02 1.047524e-01 9.023064e-02 8.953323e-02 7.319043e-02 7.535809e-02 7.838421e-02 1.065276e-02
<GCONST> 8.474334e+01
<MIXTURE> 3 4.696164e-01
<MEAN> 52
 -9.717627e+00 -2.097609e+00 -2.545035e+00 -4.896666e+00 -4.396753e+00 -3.049196e+00 -5.423913e+00 -4.052300e+00 -2.569595e+00 -2.266916e+00 -3.097231e+00 -2.294110e+00 5.498267e+01 -1.576662e-01 -3.018165e-01 -3.321936e-01 -1.327917e-01 -1.518790e-01 -6.842783e-02 1.578673e-01 7.623664e-02 1.577685e-01 1.249899e-01 1.669142e-01 4.044123e-02 -3.704002e-01 1.561804e-01 1.907261e-01 2.144344e-01 2.111355e-01 1.048661e-01 7.810475e-02 3.296141e-02 -7.093439e-03 -8.749729e-02 -6.599794e-02 -1.093256e-01 -7.501077e-02 8.917510e-02 -4.217063e-02 -2.822692e-02 -3.925339e-02 -2.110456e-02 1.112890e-02 1.339694e-02 1.298481e-02 2.417963e-02 4.023353e-02 2.123460e-02 2.532484e-02 3.929442e-02 -2.067753e-02
<VARIANCE> 52
 1.899188e+01 1.465079e+01 2.812572e+01 1.651580e+01 1.939536e+01 2.266586e+01 2.451180e+01 2.503286e+01 2.381455e+01 2.453335e+01 1.983135e+01 1.766267e+01 2.315625e+01 4.715505e-01 6.391920e-01 8.067470e-01 1.143542e+00 1.620409e+00 1.822799e+00 2.140954e+00 1.845541e+00 1.809927e+00 2.066904e+00 1.765104e+00 1.681860e+00 2.577020e-01 9.470187e-02 1.198438e-01 1.504213e-01 2.449013e-01 3.070818e-01 3.471182e-01 4.230125e-01 3.515695e-01 3.577457e-01 4.169995e-01 3.516271e-01 3.286114e-01 3.517621e-02 2.118900e-02 2.599114e-02 2.879218e-02 5.431106e-02 6.902646e-02 8.323222e-02 9.371781e-02 7.962645e-02 8.710229e-02 9.951747e-02 8.260935e-02 7.426540e-02 8.579570e-03
<GCONST> 7.948963e+01
<TRANSP> 12
 0.000000e+00 1.000000e+00 0.000000e+00 0.000000e+00 0.000000e+00 0.000000e+00 0.000000e+00 0.000000e+00 0.000000e+00 0.000000e+00 0.000000e+00 0.000000e+00
 0.000000e+00 8.030136e-01 1.969864e-01 0.000000e+00 0.000000e+00 0.000000e+00 0.000000e+00 0.000000e+00 0.000000e+00 0.000000e+00 0.000000e+00 0.000000e+00
 0.000000e+00 0.000000e+00 8.155780e-01 1.844220e-01 0.000000e+00 0.000000e+00 0.000000e+00 0.000000e+00 0.000000e+00 0.000000e+00 0.000000e+00 0.000000e+00
 0.000000e+00 0.000000e+00 0.000000e+00 8.267648e-01 1.732352e-01 0.000000e+00 0.000000e+00 0.000000e+00 0.000000e+00 0.000000e+00 0.000000e+00 0.000000e+00
 0.000000e+00 0.000000e+00 0.000000e+00 0.000000e+00 8.008254e-01 1.991746e-01 0.000000e+00 0.000000e+00 0.000000e+00 0.000000e+00 0.000000e+00 0.000000e+00
 0.000000e+00 0.000000e+00 0.000000e+00 0.000000e+00 0.000000e+00 8.335417e-01 1.664583e-01 0.000000e+00 0.000000e+00 0.000000e+00 0.000000e+00 0.000000e+00
 0.000000e+00 0.000000e+00 0.000000e+00 0.000000e+00 0.000000e+00 0.000000e+00 7.636865e-01 2.363136e-01 0.000000e+00 0.000000e+00 0.000000e+00 0.000000e+00
 0.000000e+00 0.000000e+00 0.000000e+00 0.000000e+00 0.000000e+00 0.000000e+00 0.000000e+00 7.635090e-01 2.364910e-01 0.000000e+00 0.000000e+00 0.000000e+00
 0.000000e+00 0.000000e+00 0.000000e+00 0.000000e+00 0.000000e+00 0.000000e+00 0.000000e+00 0.000000e+00 8.369740e-01 1.630260e-01 0.000000e+00 0.000000e+00
 0.000000e+00 0.000000e+00 0.000000e+00 0.000000e+00 0.000000e+00 0.000000e+00 0.000000e+00 0.000000e+00 0.000000e+00 8.235899e-01 1.764101e-01 0.000000e+00
 0.000000e+00 0.000000e+00 0.000000e+00 0.000000e+00 0.000000e+00 0.000000e+00 0.000000e+00 0.000000e+00 0.000000e+00 0.000000e+00 7.968744e-01 2.031256e-01
 0.000000e+00 0.000000e+00 0.000000e+00 0.000000e+00 0.000000e+00 0.000000e+00 0.000000e+00 0.000000e+00 0.000000e+00 0.000000e+00 0.000000e+00 0.000000e+00
<ENDHMM>
