~o
<STREAMINFO> 1 13
<VECSIZE> 13<NULLD><MFCC_0><DIAGC>
~h "rx"
<BEGINHMM>
<NUMSTATES> 6
<STATE> 2
<MEAN> 13
 -2.636536e+00 -1.561103e+00 8.597458e+00 -2.348244e+00 -1.288584e+01 -6.183090e+00 -1.562094e+01 -3.725209e+00 -6.440670e+00 -2.667440e+00 -2.815933e+00 -2.353883e+00 7.074206e+01
<VARIANCE> 13
 2.613092e+01 4.393687e+01 6.344434e+01 8.563885e+01 6.095689e+01 5.291532e+01 5.177538e+01 7.472583e+01 7.560220e+01 4.860931e+01 6.882707e+01 3.868634e+01 3.943852e+01
<GCONST> 7.564930e+01
<STATE> 3
<MEAN> 13
 -2.302950e+01 8.952119e+00 4.529201e+00 -4.009636e+00 -2.866748e+00 -4.097947e+00 -1.736128e+00 -4.272400e+00 -2.450058e+00 -1.114801e+00 -1.215972e+00 2.840478e-01 6.783435e+01
<VARIANCE> 13
 4.773151e+01 2.660089e+01 5.393432e+01 3.043737e+01 2.668605e+01 2.903323e+01 3.105392e+01 3.177461e+01 2.419737e+01 2.601416e+01 2.290975e+01 2.127015e+01 1.730040e+01
<GCONST> 6.747384e+01
<STATE> 4
<MEAN> 13
 -3.939257e+00 4.656061e+00 1.136218e+01 -7.870928e+00 -1.310848e+01 -1.061611e+00 -1.081063e+01 -7.416576e+00 -1.051313e+01 -8.098623e-01 -1.579536e+00 -4.927688e+00 7.008796e+01
<VARIANCE> 13
 1.735898e+01 2.239120e+01 4.989271e+01 8.450304e+01 3.325784e+01 6.316586e+01 6.490759e+01 7.450581e+01 4.554640e+01 7.495429e+01 7.704176e+01 4.426633e+01 1.204600e+01
<GCONST> 7.309465e+01
<STATE> 5
<MEAN> 13
 -1.844999e+00 2.351736e+00 3.891502e+00 -5.548987e-01 -4.811161e+00 -2.638699e+00 -7.031211e+00 -5.308133e+00 -5.290617e+00 -1.700908e+00 -4.585706e+00 -3.803120e+00 6.127569e+01
<VARIANCE> 13
 1.994133e+01 2.945349e+01 4.004296e+01 6.482528e+01 4.340202e+01 5.253006e+01 6.779604e+01 4.958179e+01 4.960182e+01 4.521441e+01 3.614253e+01 3.366923e+01 4.947897e+01
<GCONST> 7.270272e+01
<TRANSP> 6
 0.000000e+00 1.000000e+00 0.000000e+00 0.000000e+00 0.000000e+00 0.000000e+00
 0.000000e+00 9.321391e-01 6.786090e-02 0.000000e+00 0.000000e+00 0.000000e+00
 0.000000e+00 0.000000e+00 9.129094e-01 8.709066e-02 0.000000e+00 0.000000e+00
 0.000000e+00 0.000000e+00 0.000000e+00 8.758398e-01 1.241602e-01 0.000000e+00
 0.000000e+00 0.000000e+00 0.000000e+00 0.000000e+00 9.095089e-01 9.049110e-02
 0.000000e+00 0.000000e+00 0.000000e+00 0.000000e+00 0.000000e+00 0.000000e+00
<ENDHMM>
