~o
<STREAMINFO> 1 13
<VECSIZE> 13<NULLD><MFCC_0><DIAGC>
~h "sil"
<BEGINHMM>
<NUMSTATES> 6
<STATE> 2
<MEAN> 13
 -7.298780e+00 -3.582386e+00 -5.947895e+00 -5.369895e+00 -1.307090e+00 -1.103948e+00 -2.972081e+00 -1.421771e+00 -4.359013e-01 1.013474e+00 -2.734448e+00 -4.347738e+00 5.632814e+01
<VARIANCE> 13
 1.831709e+01 1.425178e+01 1.868079e+01 2.896573e+01 3.274175e+01 2.711108e+01 2.534370e+01 2.552092e+01 2.479198e+01 2.797154e+01 2.211573e+01 2.346936e+01 1.851203e+01
<GCONST> 6.472346e+01
<STATE> 3
<MEAN> 13
 -9.202769e+00 -2.711087e+00 -3.002560e+00 -2.176607e+00 -1.642102e+00 -1.074338e+00 -2.786996e+00 -1.156005e+00 -1.394504e+00 -1.335966e+00 -1.709548e+00 -5.207255e-01 4.916912e+01
<VARIANCE> 13
 8.304600e+00 7.917863e+00 1.067544e+01 1.268331e+01 1.779137e+01 1.839187e+01 1.623855e+01 2.006961e+01 1.770960e+01 1.728558e+01 1.755460e+01 1.599257e+01 2.456532e+01
<GCONST> 5.912654e+01
<STATE> 4
<MEAN> 13
 -1.136270e+01 -5.577006e+00 -2.716393e+00 -3.198223e+00 -1.534651e+00 -2.748838e+00 -3.022876e+00 -1.334063e+00 -2.101104e+00 -2.436662e+00 -3.161998e-01 -6.076498e-01 5.906688e+01
<VARIANCE> 13
 2.195027e+01 3.119427e+01 3.246229e+01 2.898116e+01 4.650425e+01 4.039337e+01 3.540829e+01 4.140087e+01 3.195170e+01 2.953250e+01 2.891218e+01 2.352616e+01 2.595895e+01
<GCONST> 6.872520e+01
<STATE> 5
<MEAN> 13
 -9.006378e+00 -2.506710e+00 -3.371259e+00 -4.539981e+00 -2.871084e+00 -2.337229e+00 -3.978906e+00 -2.393329e+00 -1.553886e+00 -1.703195e+00 -2.454847e+00 -8.818278e-01 5.409068e+01
<VARIANCE> 13
 8.937071e+00 9.202987e+00 1.212041e+01 1.480534e+01 1.589659e+01 1.942287e+01 2.034984e+01 2.168259e+01 2.061313e+01 1.951041e+01 1.946214e+01 1.631979e+01 8.520660e+00
<GCONST> 5.921437e+01
<TRANSP> 6
 0.000000e+00 1.000000e+00 0.000000e+00 0.000000e+00 0.000000e+00 0.000000e+00
 0.000000e+00 8.573415e-01 1.426585e-01 0.000000e+00 0.000000e+00 0.000000e+00
 0.000000e+00 0.000000e+00 9.200205e-01 7.997957e-02 0.000000e+00 0.000000e+00
 0.000000e+00 0.000000e+00 0.000000e+00 8.658910e-01 1.341090e-01 0.000000e+00
 0.000000e+00 0.000000e+00 0.000000e+00 0.000000e+00 9.391911e-01 6.080888e-02
 0.000000e+00 0.000000e+00 0.000000e+00 0.000000e+00 0.000000e+00 0.000000e+00
<ENDHMM>
