~o
<STREAMINFO> 1 26
<VECSIZE> 26<NULLD><MFCC_D_0><DIAGC>
~h "dd"
<BEGINHMM>
<NUMSTATES> 12
<STATE> 2
<MEAN> 26
 -9.084384e+00 1.909421e+00 7.691220e+00 -3.459052e+00 -1.193655e+01 -3.895058e+00 -7.791047e+00 -6.709641e+00 -7.740080e+00 -2.787030e+00 5.294955e-01 -2.570489e+00 6.709026e+01 5.355662e-01 9.594005e-02 3.226838e+00 -7.870243e-01 -3.022525e+00 1.404007e-01 -1.938227e+00 -1.261930e-01 -1.631197e+00 -4.478050e-01 9.625750e-01 -3.556052e-01 2.705572e+00
<VARIANCE> 26
 2.529097e+01 2.888102e+01 1.021245e+02 5.024469e+01 7.528957e+01 3.283659e+01 6.416641e+01 3.898897e+01 4.996529e+01 3.952948e+01 4.112151e+01 2.888128e+01 4.867078e+01 3.757878e+00 3.089347e+00 7.436141e+00 4.832897e+00 4.344817e+00 4.374380e+00 5.811614e+00 4.051629e+00 4.678348e+00 4.481091e+00 4.368914e+00 3.604582e+00 2.676000e+00
<GCONST> 1.160336e+02
<STATE> 3
<MEAN> 26
 -3.560835e+00 2.046113e+00 1.091586e+01 -6.305347e+00 -1.714120e+01 -2.110153e+00 -1.224503e+01 -7.891715e+00 -1.226330e+01 -1.751514e+00 -6.554623e-01 -5.423573e+00 7.095691e+01 1.128328e+00 1.617048e-01 -1.373522e+00 1.087459e+00 7.268121e-01 -5.808670e-02 5.551994e-01 -7.871490e-01 1.047062e-01 7.721666e-01 -9.010255e-01 -3.842286e-01 -7.415285e-01
<VARIANCE> 26
 2.178455e+01 2.787455e+01 6.704646e+01 1.248651e+02 4.425452e+01 5.076175e+01 8.278774e+01 5.850359e+01 5.284577e+01 6.451424e+01 1.124109e+02 5.608909e+01 2.164473e+01 7.704392e-01 8.612608e-01 2.044180e+00 4.881009e+00 2.866923e+00 4.543127e+00 3.531884e+00 3.874577e+00 2.883539e+00 3.393637e+00 3.553733e+00 2.276537e+00 7.796600e-01
<GCONST> 1.105829e+02
<STATE> 4
<MEAN> 26
 1.877007e+00 3.736706e+00 6.410018e+00 8.929034e-01 -1.384286e+01 -2.491904e+00 -1.113104e+01 -1.354452e+01 -9.681169e+00 1.095790e+00 -5.592929e+00 -5.055674e+00 6.495478e+01 -9.140421e-03 5.178676e-01 2.007317e-01 1.475174e-02 4.830477e-01 1.503903e-01 -1.214725e-01 -4.913085e-02 2.853826e-01 -9.191390e-02 -3.360928e-01 2.336786e-01 -7.069786e-01
<VARIANCE> 26
 5.839103e+00 2.587896e+01 3.686089e+01 6.896761e+01 3.534772e+01 4.280577e+01 6.227910e+01 3.692484e+01 3.858740e+01 5.233714e+01 5.200571e+01 4.395093e+01 2.658675e+01 3.178341e-01 5.859498e-01 6.690084e-01 8.316584e-01 1.399926e+00 1.380487e+00 1.483257e+00 1.968907e+00 1.632086e+00 1.397197e+00 1.603761e+00 1.116988e+00 2.553008e-01
<GCONST> 9.383701e+01
<STATE> 5
<MEAN> 26
 -9.159791e-01 6.005751e+00 6.881576e+00 1.106379e+00 -7.626330e+00 -3.080508e+00 -8.715360e+00 -1.050570e+01 -8.067061e+00 -9.589148e-01 -5.785494e+00 -4.704777e+00 6.110700e+01 -1.804524e+00 -1.068678e+00 -1.435342e+00 -1.189569e+00 1.778160e+00 -1.056145e+00 8.833320e-02 1.774752e+00 1.740482e+00 -6.247148e-01 5.367093e-01 2.976843e-01 1.350983e+00
<VARIANCE> 26
 1.682775e+01 1.916087e+01 2.889603e+01 4.265398e+01 4.140682e+01 4.025230e+01 4.166866e+01 3.480131e+01 3.060355e+01 4.317795e+01 3.184715e+01 2.627247e+01 2.611413e+01 1.393269e+00 2.198474e+00 2.739670e+00 3.692209e+00 3.483968e+00 3.596777e+00 4.838078e+00 3.472455e+00 3.900518e+00 3.580483e+00 3.459257e+00 2.715787e+00 4.522943e+00
<GCONST> 1.077229e+02
<STATE> 6
<MEAN> 26
 -4.116201e+00 -1.679179e+00 -1.578851e+00 -8.106790e+00 -5.854123e+00 -5.305728e+00 -1.466211e+01 -3.418199e+00 -1.356334e-01 3.271045e-01 -3.684865e+00 -5.084729e+00 7.315232e+01 1.164509e+00 -1.919243e+00 -1.945674e+00 -3.690408e+00 -1.567828e-01 2.154446e+00 -2.562831e+00 7.936948e-01 9.505515e-01 1.284490e+00 9.225656e-01 -1.030405e+00 2.579626e+00
<VARIANCE> 26
 2.717214e+01 2.859406e+01 3.723740e+01 6.014064e+01 3.781166e+01 6.167267e+01 6.798512e+01 5.160545e+01 5.210474e+01 5.714911e+01 4.784793e+01 3.851881e+01 2.650039e+01 2.602146e+00 1.980407e+00 2.373383e+00 2.960915e+00 4.984741e+00 6.454807e+00 6.465176e+00 6.857092e+00 6.005387e+00 4.273566e+00 5.571416e+00 3.119077e+00 3.391795e+00
<GCONST> 1.150408e+02
<STATE> 7
<MEAN> 26
 9.701724e-01 -2.939903e+00 -4.370623e+00 -1.825440e+01 -5.252217e+00 5.932761e+00 -1.686971e+01 -5.508261e+00 -4.688583e+00 2.698390e+00 1.147598e+00 -5.624166e+00 7.424418e+01 7.917361e-01 4.239072e-01 -5.595337e-01 -1.051384e+00 -1.685696e-01 1.624517e+00 1.486641e+00 1.075611e-01 -1.831553e+00 -1.215935e+00 1.039057e+00 5.177330e-01 -5.855609e-01
<VARIANCE> 26
 1.007151e+01 2.288015e+01 4.102378e+01 6.289846e+01 3.429925e+01 5.964665e+01 6.593208e+01 5.478605e+01 7.365855e+01 5.470680e+01 5.610806e+01 2.803922e+01 1.201500e+01 2.397565e-01 5.981265e-01 6.929610e-01 1.805957e+00 1.470296e+00 2.557737e+00 2.012836e+00 2.499012e+00 1.835667e+00 3.106252e+00 1.843689e+00 1.840084e+00 2.523614e-01
<GCONST> 9.785231e+01
<STATE> 8
<MEAN> 26
 2.955460e+00 -1.346988e+00 -1.672787e+00 -1.407540e+01 -1.056984e+01 7.446557e+00 -9.654251e+00 -3.296359e+00 -6.861787e+00 -4.227635e+00 3.182259e-01 -7.485333e+00 7.178552e+01 -1.981964e-02 1.237757e-01 6.581530e-01 1.167083e+00 -1.755020e-01 -6.135643e-01 5.238909e-01 -7.104459e-02 -1.135955e-01 -8.779879e-02 -1.071556e+00 -1.989916e-01 -5.069386e-01
<VARIANCE> 26
 6.957855e+00 2.368811e+01 3.398177e+01 5.609732e+01 5.041575e+01 3.678080e+01 6.894633e+01 4.496013e+01 5.135376e+01 4.577053e+01 3.959451e+01 2.951493e+01 1.017807e+01 1.885076e-01 4.561902e-01 8.532947e-01 9.104201e-01 1.345394e+00 1.088556e+00 2.811964e+00 1.870603e+00 1.890609e+00 1.831497e+00 2.229975e+00 1.603894e+00 1.621609e-01
<GCONST> 9.318615e+01
<STATE> 9
<MEAN> 26
 9.693263e-01 -1.486899e+00 -3.215555e+00 -1.079130e+01 -7.650249e+00 -4.297567e+00 -1.430451e+01 -7.090167e+00 -1.304622e+01 -4.617758e+00 -8.863353e+00 -5.439929e+00 6.506842e+01 -2.600312e-03 6.931783e-01 1.068141e+00 1.403396e+00 -3.621156e-01 -5.525636e-01 -3.919086e-02 -9.691277e-01 1.750119e-01 1.214653e-01 -5.930212e-01 2.748078e-01 -1.011234e+00
<VARIANCE> 26
 7.103296e+00 3.226809e+01 7.275065e+01 6.172969e+01 4.774677e+01 7.621744e+01 7.735288e+01 6.877417e+01 9.030547e+01 8.815454e+01 4.818916e+01 6.502950e+01 4.993504e+01 3.456244e-01 6.701136e-01 2.038555e+00 1.989770e+00 2.282556e+00 2.297070e+00 3.104954e+00 2.227992e+00 3.405361e+00 2.643024e+00 3.015098e+00 2.237381e+00 4.008723e-01
<GCONST> 1.060716e+02
<STATE> 10
<MEAN> 26
 1.985189e+00 5.169164e+00 4.996157e+00 -1.079982e+00 -7.187895e+00 1.974308e+00 -6.706561e+00 -9.184048e+00 -6.169744e+00 -4.851446e-01 -6.165142e+00 -4.618521e+00 6.322301e+01 -3.811094e-01 5.123463e-01 1.264164e-01 8.015274e-01 9.127071e-01 -2.442160e-01 3.277124e-01 2.588548e-02 1.000954e-01 -6.096996e-02 1.082949e-01 1.029927e-01 -9.816864e-01
<VARIANCE> 26
 7.619363e+00 1.298973e+01 2.256635e+01 4.016519e+01 4.830153e+01 3.933424e+01 4.783132e+01 5.152172e+01 3.734249e+01 5.260441e+01 2.454527e+01 2.898132e+01 1.910928e+01 4.152763e-01 9.755868e-01 1.148190e+00 1.303711e+00 1.885080e+00 1.844824e+00 2.451458e+00 2.735332e+00 2.048022e+00 2.283569e+00 1.746591e+00 1.815575e+00 5.001702e-01
<GCONST> 9.630166e+01
<STATE> 11
<MEAN> 26
 -4.533934e+00 1.610129e+00 1.115755e+00 -2.586478e+00 -3.476763e+00 -1.402196e+00 -5.473117e+00 -5.466168e+00 -4.713155e+00 -2.108390e+00 -3.316998e+00 -3.016144e+00 5.826308e+01 -1.195501e+00 -9.656316e-01 -3.188608e-01 -7.807126e-01 -6.396501e-01 -5.205742e-01 1.282361e-01 4.718530e-01 3.810073e-01 -4.395329e-02 9.012083e-01 4.618614e-01 3.568866e-01
<VARIANCE> 26
 2.365570e+01 3.331194e+01 3.389468e+01 4.731500e+01 3.301469e+01 3.812724e+01 5.216269e+01 3.717990e+01 3.467508e+01 3.012482e+01 2.602542e+01 2.200795e+01 3.970056e+01 1.564063e+00 1.446222e+00 3.096745e+00 2.666615e+00 4.054354e+00 3.380866e+00 4.367377e+00 3.494599e+00 3.317974e+00 3.494840e+00 2.631138e+00 2.275695e+00 2.727137e+00
<GCONST> 1.070399e+02
<TRANSP> 12
 0.000000e+00 1.000000e+00 0.000000e+00 0.000000e+00 0.000000e+00 0.000000e+00 0.000000e+00 0.000000e+00 0.000000e+00 0.000000e+00 0.000000e+00 0.000000e+00
 0.000000e+00 7.643793e-01 2.356207e-01 0.000000e+00 0.000000e+00 0.000000e+00 0.000000e+00 0.000000e+00 0.000000e+00 0.000000e+00 0.000000e+00 0.000000e+00
 0.000000e+00 0.000000e+00 8.540140e-01 1.459860e-01 0.000000e+00 0.000000e+00 0.000000e+00 0.000000e+00 0.000000e+00 0.000000e+00 0.000000e+00 0.000000e+00
 0.000000e+00 0.000000e+00 0.000000e+00 8.455917e-01 1.544082e-01 0.000000e+00 0.000000e+00 0.000000e+00 0.000000e+00 0.000000e+00 0.000000e+00 0.000000e+00
 0.000000e+00 0.000000e+00 0.000000e+00 0.000000e+00 6.671578e-01 3.328423e-01 0.000000e+00 0.000000e+00 0.000000e+00 0.000000e+00 0.000000e+00 0.000000e+00
 0.000000e+00 0.000000e+00 0.000000e+00 0.000000e+00 0.000000e+00 6.755247e-01 3.244754e-01 0.000000e+00 0.000000e+00 0.000000e+00 0.000000e+00 0.000000e+00
 0.000000e+00 0.000000e+00 0.000000e+00 0.000000e+00 0.000000e+00 0.000000e+00 7.105082e-01 2.894918e-01 0.000000e+00 0.000000e+00 0.000000e+00 0.000000e+00
 0.000000e+00 0.000000e+00 0.000000e+00 0.000000e+00 0.000000e+00 0.000000e+00 0.000000e+00 8.214413e-01 1.785588e-01 0.000000e+00 0.000000e+00 0.000000e+00
 0.000000e+00 0.000000e+00 0.000000e+00 0.000000e+00 0.000000e+00 0.000000e+00 0.000000e+00 0.000000e+00 7.631933e-01 2.368068e-01 0.000000e+00 0.000000e+00
 0.000000e+00 0.000000e+00 0.000000e+00 0.000000e+00 0.000000e+00 0.000000e+00 0.000000e+00 0.000000e+00 0.000000e+00 8.170976e-01 1.829024e-01 0.000000e+00
 0.000000e+00 0.000000e+00 0.000000e+00 0.000000e+00 0.000000e+00 0.000000e+00 0.000000e+00 0.000000e+00 0.000000e+00 0.000000e+00 7.673928e-01 2.326072e-01
 0.000000e+00 0.000000e+00 0.000000e+00 0.000000e+00 0.000000e+00 0.000000e+00 0.000000e+00 0.000000e+00 0.000000e+00 0.000000e+00 0.000000e+00 0.000000e+00
<ENDHMM>
