~o
<STREAMINFO> 1 26
<VECSIZE> 26<NULLD><MFCC_D_0><DIAGC>
~h "sil"
<BEGINHMM>
<NUMSTATES> 12
<STATE> 2
<MEAN> 26
 -7.740094e+00 -2.734314e+00 -4.154517e+00 -3.113446e+00 1.187481e+00 -1.569560e+00 -1.988628e+00 -4.814840e-01 -5.206316e-01 1.538203e+00 -2.253309e+00 -4.400024e+00 5.796138e+01 -4.898924e-02 -1.900593e-01 -1.179868e-01 9.073243e-02 -2.123827e-01 -8.028807e-02 5.867028e-03 -6.659999e-02 1.244510e-02 -2.014140e-01 -4.346726e-02 1.044199e-01 -1.811534e-01
<VARIANCE> 26
 2.954420e+01 1.744655e+01 1.706592e+01 2.222388e+01 3.712482e+01 3.693585e+01 3.023853e+01 2.748395e+01 2.716540e+01 3.006267e+01 2.024639e+01 2.579138e+01 2.298464e+01 1.644570e+00 1.064109e+00 1.423787e+00 1.466474e+00 1.820558e+00 2.130274e+00 2.334096e+00 2.158680e+00 2.330181e+00 2.156746e+00 1.778964e+00 1.747932e+00 7.485380e-01
<GCONST> 9.674002e+01
<STATE> 3
<MEAN> 26
 -1.047552e+01 -2.046525e+00 -3.664322e+00 -4.984160e+00 -2.752431e+00 -2.767701e+00 -4.334982e+00 -3.897302e+00 -2.986567e+00 -2.007205e+00 -2.971792e+00 -1.786155e+00 5.512995e+01 -4.279002e-02 2.151584e-02 -2.884639e-02 -6.007071e-02 1.610155e-02 -4.063873e-02 5.746030e-02 -9.009461e-03 2.230555e-02 -6.780989e-02 6.288206e-02 1.181044e-01 -1.187303e-01
<VARIANCE> 26
 1.260111e+01 8.763543e+00 1.624434e+01 1.733705e+01 1.742997e+01 1.818555e+01 2.057751e+01 2.054549e+01 2.174307e+01 1.954221e+01 1.832305e+01 1.647534e+01 1.037373e+01 4.404399e-01 5.195768e-01 9.737341e-01 1.036666e+00 1.364951e+00 1.451238e+00 1.718504e+00 1.733043e+00 1.843264e+00 1.610480e+00 1.749802e+00 1.307347e+00 2.357492e-01
<GCONST> 8.481673e+01
<STATE> 4
<MEAN> 26
 -8.259995e+00 -2.730864e+00 -3.162220e+00 -4.057559e+00 -2.651522e+00 -1.947370e+00 -3.463199e+00 -2.499993e+00 -1.019617e+00 -1.485965e+00 -2.240345e+00 -9.680319e-01 5.233129e+01 1.340250e-02 -7.126314e-02 -2.819433e-02 1.202884e-02 1.850082e-02 -1.076807e-02 -8.376157e-03 6.019539e-02 2.685753e-02 -1.472361e-02 1.908780e-02 5.995833e-02 -3.968951e-02
<VARIANCE> 26
 4.969867e+00 5.605845e+00 7.979923e+00 1.207266e+01 1.416367e+01 1.624541e+01 1.786420e+01 1.797217e+01 1.833970e+01 1.664699e+01 1.664825e+01 1.523158e+01 6.576311e+00 2.080646e-01 3.743381e-01 5.395347e-01 7.819023e-01 1.082438e+00 1.234366e+00 1.437918e+00 1.416676e+00 1.551338e+00 1.454153e+00 1.486051e+00 1.295964e+00 8.445912e-02
<GCONST> 7.661357e+01
<STATE> 5
<MEAN> 26
 -9.946759e+00 -4.807989e+00 -3.864519e+00 -2.223944e+00 1.094056e+00 -5.559274e-01 -2.130424e+00 -1.786424e+00 -2.318557e+00 -1.966835e+00 -6.020652e-01 4.187910e-01 5.374368e+01 -2.406702e-01 -1.688390e-01 1.287881e-02 3.945380e-02 2.995762e-02 -1.115357e-01 -2.763312e-02 7.575727e-02 -3.712960e-02 -8.835736e-02 9.967304e-02 2.409008e-02 2.235678e-01
<VARIANCE> 26
 1.494758e+01 2.438097e+01 2.140777e+01 2.042258e+01 4.075405e+01 3.753403e+01 2.611515e+01 2.866205e+01 2.665695e+01 2.142953e+01 2.578675e+01 2.227918e+01 6.828118e+01 1.142082e+00 2.551644e+00 1.767921e+00 1.312115e+00 4.740796e+00 4.716728e+00 2.723449e+00 2.639502e+00 2.709800e+00 2.111856e+00 2.824485e+00 2.548435e+00 2.633634e+00
<GCONST> 1.023169e+02
<STATE> 6
<MEAN> 26
 -9.878653e+00 -5.526455e+00 -3.434379e+00 -2.634486e+00 -1.876808e+00 -4.993573e+00 -3.675363e+00 8.543347e-02 -1.246240e+00 -3.299696e+00 -2.364085e+00 -5.297374e-01 5.510748e+01 -2.134217e-02 -1.047325e-02 9.448824e-03 -1.258738e-01 -2.727308e-01 -1.394967e-01 -5.068729e-02 1.875794e-01 1.401680e-01 -1.821833e-02 -9.862187e-02 -7.481156e-02 -6.090668e-02
<VARIANCE> 26
 6.701979e+00 1.614787e+01 1.076960e+01 1.542816e+01 1.698728e+01 2.108506e+01 2.185117e+01 3.000571e+01 2.134356e+01 2.506481e+01 1.899451e+01 1.555273e+01 1.206162e+01 3.073196e-01 4.575287e-01 6.743290e-01 8.759477e-01 1.227037e+00 1.704073e+00 1.797412e+00 2.077603e+00 1.700930e+00 1.841016e+00 1.513755e+00 1.274444e+00 2.132963e-01
<GCONST> 8.422968e+01
<STATE> 7
<MEAN> 26
 -1.209713e+01 -5.139029e+00 -2.986768e+00 -4.384496e+00 -4.262694e+00 -3.557203e+00 -4.269252e+00 -4.577529e-01 -9.501302e-01 -1.471782e+00 -5.820269e-01 -8.629059e-01 5.777202e+01 1.553267e-01 7.475029e-02 -1.406360e-01 -3.640003e-02 -1.876095e-02 2.061380e-01 -2.821552e-02 -1.344487e-01 7.592391e-02 5.299223e-02 -2.545460e-02 -1.012943e-02 -1.863559e-01
<VARIANCE> 26
 1.693336e+01 1.620797e+01 1.489324e+01 2.554230e+01 2.539017e+01 2.616132e+01 2.902423e+01 3.492427e+01 2.915181e+01 2.499504e+01 2.423989e+01 2.019260e+01 2.345131e+01 4.794717e-01 6.362593e-01 8.373463e-01 1.076364e+00 1.514310e+00 1.774531e+00 1.791275e+00 2.168794e+00 2.161502e+00 2.237544e+00 1.708345e+00 1.468421e+00 2.943757e-01
<GCONST> 9.102768e+01
<STATE> 8
<MEAN> 26
 -6.997203e+00 -4.472076e+00 -6.262061e+00 -7.419863e+00 -3.740427e+00 -8.530453e-01 -3.884660e+00 -2.113541e+00 -1.093547e+00 -1.079665e+00 -3.277666e+00 -3.071983e+00 5.441265e+01 1.351204e-03 7.919553e-02 3.954712e-02 1.073110e-01 8.849347e-02 8.076154e-02 5.504315e-02 5.155207e-03 -1.520779e-02 1.050288e-01 -2.454800e-02 3.868594e-02 -1.031382e-01
<VARIANCE> 26
 6.771785e+00 9.343926e+00 1.876649e+01 2.295770e+01 1.503239e+01 2.121911e+01 2.109444e+01 2.054046e+01 1.982361e+01 2.709287e+01 2.565300e+01 2.139051e+01 1.322012e+01 2.542008e-01 4.677420e-01 6.662803e-01 9.465944e-01 1.088706e+00 1.408508e+00 1.431764e+00 1.600774e+00 1.668822e+00 1.785972e+00 1.680811e+00 1.417175e+00 9.202223e-02
<GCONST> 8.325085e+01
<STATE> 9
<MEAN> 26
 -9.245042e+00 -2.447589e+00 -3.559315e+00 -2.686647e+00 -1.944252e+00 -7.775684e-01 -2.496479e+00 -7.132859e-01 -6.714152e-01 -9.472215e-01 -1.362417e+00 -4.454473e-01 4.892163e+01 -8.506218e-03 7.000184e-02 1.451909e-02 1.299733e-02 4.750466e-02 3.943280e-02 5.990889e-03 2.346343e-02 -2.576858e-02 7.852551e-02 6.884886e-02 7.592784e-02 -3.242897e-02
<VARIANCE> 26
 5.880500e+00 5.062078e+00 7.766800e+00 1.219142e+01 1.348236e+01 1.412109e+01 1.418781e+01 1.705938e+01 1.619108e+01 1.611931e+01 1.565254e+01 1.459204e+01 2.434171e+01 2.310101e-01 3.633528e-01 5.682214e-01 8.697019e-01 1.001834e+00 1.308711e+00 1.271478e+00 1.447790e+00 1.525477e+00 1.494216e+00 1.367973e+00 1.200717e+00 1.062534e-01
<GCONST> 7.743154e+01
<STATE> 10
<MEAN> 26
 -1.089894e+01 -1.782673e+00 -3.533741e+00 -3.136949e+00 -2.627993e+00 -1.359967e+00 -3.485124e+00 -1.277580e+00 -1.846729e+00 -4.527821e-01 -1.533041e+00 -5.221990e-01 5.166369e+01 1.825874e-02 2.226630e-01 2.758492e-01 1.563362e-01 1.171887e-01 4.765064e-02 -8.655316e-02 -1.997011e-01 -1.389241e-01 -3.658047e-02 -8.369783e-02 -7.586397e-02 3.492770e-01
<VARIANCE> 26
 1.317261e+01 9.236186e+00 1.365205e+01 1.615953e+01 1.816541e+01 1.936681e+01 2.219549e+01 2.213317e+01 2.183616e+01 2.065496e+01 2.328190e+01 1.980124e+01 1.502790e+01 9.920657e-01 8.293256e-01 1.397539e+00 1.498641e+00 2.003756e+00 1.863425e+00 2.261266e+00 2.424887e+00 2.074278e+00 1.985759e+00 2.201053e+00 1.742166e+00 6.183254e-01
<GCONST> 9.083963e+01
<STATE> 11
<MEAN> 26
 -7.879043e+00 -1.064815e+00 -2.757346e-01 -1.735328e+00 -1.712696e+00 -6.914604e-01 -3.528670e+00 -3.740514e+00 -3.110842e+00 -2.135293e+00 -1.621067e+00 -6.514762e-01 5.637970e+01 6.315886e-01 7.881379e-01 1.201140e+00 4.679199e-01 -2.905582e-01 -4.726483e-01 -8.138369e-01 -4.653755e-01 -5.181816e-01 -2.630003e-01 -1.268895e-01 -1.842811e-01 1.392892e+00
<VARIANCE> 26
 1.942232e+01 3.568707e+01 5.449587e+01 2.730960e+01 4.218168e+01 3.140160e+01 3.043361e+01 3.570731e+01 2.642713e+01 2.606965e+01 3.040162e+01 2.278965e+01 4.211708e+01 2.852961e+00 3.484090e+00 5.058713e+00 2.746664e+00 5.201816e+00 4.849741e+00 4.790174e+00 3.728971e+00 3.346617e+00 2.829964e+00 3.137260e+00 2.532707e+00 4.213790e+00
<GCONST> 1.094255e+02
<TRANSP> 12
 0.000000e+00 1.000000e+00 0.000000e+00 0.000000e+00 0.000000e+00 0.000000e+00 0.000000e+00 0.000000e+00 0.000000e+00 0.000000e+00 0.000000e+00 0.000000e+00
 0.000000e+00 7.676026e-01 2.323975e-01 0.000000e+00 0.000000e+00 0.000000e+00 0.000000e+00 0.000000e+00 0.000000e+00 0.000000e+00 0.000000e+00 0.000000e+00
 0.000000e+00 0.000000e+00 7.402985e-01 2.597015e-01 0.000000e+00 0.000000e+00 0.000000e+00 0.000000e+00 0.000000e+00 0.000000e+00 0.000000e+00 0.000000e+00
 0.000000e+00 0.000000e+00 0.000000e+00 8.871477e-01 1.128523e-01 0.000000e+00 0.000000e+00 0.000000e+00 0.000000e+00 0.000000e+00 0.000000e+00 0.000000e+00
 0.000000e+00 0.000000e+00 0.000000e+00 0.000000e+00 7.563763e-01 2.436238e-01 0.000000e+00 0.000000e+00 0.000000e+00 0.000000e+00 0.000000e+00 0.000000e+00
 0.000000e+00 0.000000e+00 0.000000e+00 0.000000e+00 0.000000e+00 7.275582e-01 2.724419e-01 0.000000e+00 0.000000e+00 0.000000e+00 0.000000e+00 0.000000e+00
 0.000000e+00 0.000000e+00 0.000000e+00 0.000000e+00 0.000000e+00 0.000000e+00 7.701283e-01 2.298718e-01 0.000000e+00 0.000000e+00 0.000000e+00 0.000000e+00
 0.000000e+00 0.000000e+00 0.000000e+00 0.000000e+00 0.000000e+00 0.000000e+00 0.000000e+00 7.897224e-01 2.102775e-01 0.000000e+00 0.000000e+00 0.000000e+00
 0.000000e+00 0.000000e+00 0.000000e+00 0.000000e+00 0.000000e+00 0.000000e+00 0.000000e+00 0.000000e+00 8.437435e-01 1.562565e-01 0.000000e+00 0.000000e+00
 0.000000e+00 0.000000e+00 0.000000e+00 0.000000e+00 0.000000e+00 0.000000e+00 0.000000e+00 0.000000e+00 0.000000e+00 6.701977e-01 3.298023e-01 0.000000e+00
 0.000000e+00 0.000000e+00 0.000000e+00 0.000000e+00 0.000000e+00 0.000000e+00 0.000000e+00 0.000000e+00 0.000000e+00 0.000000e+00 6.515313e-01 3.484687e-01
 0.000000e+00 0.000000e+00 0.000000e+00 0.000000e+00 0.000000e+00 0.000000e+00 0.000000e+00 0.000000e+00 0.000000e+00 0.000000e+00 0.000000e+00 0.000000e+00
<ENDHMM>
