~o
<STREAMINFO> 1 13
<VECSIZE> 13<NULLD><MFCC_0><DIAGC>
~h "\345\276\256"
<BEGINHMM>
<NUMSTATES> 6
<STATE> 2
<MEAN> 13
 2.835806e+00 -5.802396e+00 -4.880332e+00 -8.313795e+00 -9.235868e+00 -1.569726e+01 6.203202e+00 -6.370928e-01 -4.636436e+00 -3.745769e+00 -1.245744e+01 -2.913074e+00 6.700910e+01
<VARIANCE> 13
 1.509722e+01 9.456787e+00 2.545965e+01 4.880111e+01 4.495723e+01 3.354041e+01 2.972111e+01 2.853507e+01 2.941298e+01 4.319673e+01 2.269201e+01 2.611359e+01 2.408403e+01
<GCONST> 6.675317e+01
<STATE> 3
<MEAN> 13
 -2.714866e+00 7.803057e+00 -7.222016e+00 -2.125702e+01 -6.583091e+00 -1.829376e+01 -1.643834e+00 1.699123e+00 -2.530346e+00 -1.693408e+00 -9.779756e+00 -7.458522e+00 6.989234e+01
<VARIANCE> 13
 3.377597e+00 1.968789e+01 2.778078e+00 6.255826e+00 4.705760e+00 2.552395e+01 6.085341e+00 4.926770e+00 8.623017e+00 3.736781e+00 5.680434e+00 3.764424e+00 1.226339e+00
<GCONST> 4.587313e+01
<STATE> 4
<MEAN> 13
 -1.787488e+00 1.026566e+01 -1.633620e+00 -1.313392e+01 -1.135312e+01 -1.769423e+01 -1.349708e+00 -3.735705e+00 -3.521197e+00 -4.201897e+00 -8.986973e+00 -5.331997e+00 6.312121e+01
<VARIANCE> 13
 5.101678e+00 1.473178e+01 2.970267e+01 1.162622e+01 1.262157e+01 3.619569e+01 1.316907e+01 1.822768e+01 2.348701e+01 1.699736e+01 1.317898e+01 5.945782e+00 7.536333e+00
<GCONST> 5.803219e+01
<STATE> 5
<MEAN> 13
 -4.629247e+00 -2.145503e-01 2.255495e+00 -4.354980e+00 -6.180273e-01 -8.140353e+00 2.133365e+00 -5.157399e+00 4.630912e-02 -1.098935e+00 -5.485586e+00 -1.862018e+00 5.726438e+01
<VARIANCE> 13
 2.791551e+00 1.121951e+01 8.444595e+00 3.104453e+01 1.120188e+01 3.408487e+01 2.035194e+01 3.156038e+01 2.343582e+01 2.547668e+01 3.014514e+01 2.129045e+01 9.740754e-01
<GCONST> 5.814566e+01
<TRANSP> 6
 0.000000e+00 1.000000e+00 0.000000e+00 0.000000e+00 0.000000e+00 0.000000e+00
 0.000000e+00 8.709677e-01 1.290323e-01 0.000000e+00 0.000000e+00 0.000000e+00
 0.000000e+00 0.000000e+00 8.333333e-01 1.666667e-01 0.000000e+00 0.000000e+00
 0.000000e+00 0.000000e+00 0.000000e+00 8.333333e-01 1.666667e-01 0.000000e+00
 0.000000e+00 0.000000e+00 0.000000e+00 0.000000e+00 8.095238e-01 1.904762e-01
 0.000000e+00 0.000000e+00 0.000000e+00 0.000000e+00 0.000000e+00 0.000000e+00
<ENDHMM>
