~o
<STREAMINFO> 1 26
<VECSIZE> 26<NULLD><MFCC_D_0><DIAGC>
~h "rx"
<BEGINHMM>
<NUMSTATES> 12
<STATE> 2
<MEAN> 26
 1.784538e+00 -1.737417e+00 1.762111e+00 1.281914e+00 -6.648508e+00 -5.541009e+00 -1.809505e+01 -8.155248e+00 -3.087875e+00 -1.184663e+00 -5.136886e+00 -3.476577e+00 6.612077e+01 3.017846e-01 -1.161094e+00 5.100299e-01 -3.351634e-01 -1.307999e+00 -5.742447e-01 -1.635330e+00 1.099824e+00 2.880873e-01 -2.663294e-01 1.788953e-01 8.824014e-02 1.820980e+00
<VARIANCE> 26
 1.623375e+01 4.377062e+01 3.585404e+01 5.256034e+01 6.171092e+01 6.562080e+01 7.841416e+01 6.944419e+01 5.397103e+01 3.896656e+01 4.059350e+01 3.475367e+01 4.259289e+01 2.153176e+00 2.700174e+00 2.484302e+00 4.297371e+00 4.774897e+00 4.717722e+00 5.772985e+00 5.988070e+00 4.011933e+00 2.889825e+00 3.500514e+00 2.773757e+00 2.131598e+00
<GCONST> 1.137223e+02
<STATE> 3
<MEAN> 26
 -1.392135e+00 -6.778347e+00 9.506785e+00 -2.886435e+00 -1.641848e+01 -7.261079e+00 -1.807060e+01 2.525300e+00 -5.322499e+00 -4.296871e+00 6.352522e-01 -2.870761e+00 7.466532e+01 -1.037107e+00 6.498085e-01 1.800315e+00 -4.661574e-01 -8.978773e-01 -1.725550e-01 1.238830e+00 2.558958e-01 -1.556131e+00 -3.138607e-01 1.121839e+00 2.012544e-01 3.653633e-01
<VARIANCE> 26
 1.064530e+01 4.410425e+01 4.077317e+01 5.129510e+01 3.152632e+01 3.659084e+01 5.379311e+01 4.472717e+01 6.268507e+01 3.775135e+01 4.330682e+01 4.160103e+01 1.142458e+01 3.654858e-01 9.339771e-01 1.133792e+00 1.967530e+00 1.589386e+00 1.875429e+00 1.790386e+00 3.397849e+00 1.887887e+00 2.320169e+00 1.925022e+00 1.327711e+00 4.502612e-01
<GCONST> 9.836263e+01
<STATE> 4
<MEAN> 26
 -7.033074e+00 -5.208880e-01 1.543894e+01 -7.869456e+00 -1.657676e+01 -6.130336e+00 -1.506374e+01 -4.500268e+00 -1.231218e+01 -2.399401e+00 -1.899691e+00 -2.218208e+00 7.208428e+01 -8.866156e-01 2.146464e+00 3.037362e-01 3.996170e-01 1.411093e+00 7.639695e-02 8.126721e-01 -1.079302e+00 3.214585e-01 2.343908e-01 -3.740648e-01 2.863621e-01 -7.794427e-01
<VARIANCE> 26
 1.207663e+01 3.990088e+01 5.286437e+01 9.971085e+01 4.954959e+01 4.803031e+01 4.238688e+01 6.566241e+01 4.888021e+01 5.397887e+01 9.757515e+01 3.953999e+01 3.163746e+01 8.269712e-01 1.265055e+00 2.900583e+00 2.356126e+00 3.137386e+00 2.417286e+00 3.494165e+00 2.756214e+00 3.409686e+00 3.210019e+00 2.134354e+00 2.363719e+00 4.079243e-01
<GCONST> 1.072016e+02
<STATE> 5
<MEAN> 26
 -1.480972e+01 1.146042e+01 1.119487e+01 -3.566254e-01 -4.143770e+00 -6.409361e+00 -4.264223e+00 -4.720860e+00 -4.608585e+00 -2.189309e+00 -8.684264e-01 4.972059e-01 6.926508e+01 -3.946551e+00 1.617215e+00 -2.484661e+00 -1.143273e-02 2.795426e+00 6.534895e-01 2.575806e+00 3.425953e-01 1.695365e+00 7.813241e-01 -3.785231e-01 3.218057e-01 -5.111424e-01
<VARIANCE> 26
 3.639663e+01 2.074800e+01 3.248095e+01 2.512987e+01 4.112173e+01 3.926957e+01 4.218835e+01 3.910942e+01 2.942277e+01 3.224268e+01 2.697646e+01 2.391270e+01 1.911629e+01 1.029764e+00 4.398383e+00 3.318746e+00 4.472571e+00 3.764276e+00 2.899680e+00 3.642225e+00 3.222931e+00 3.295316e+00 3.388867e+00 2.951182e+00 2.109860e+00 5.153000e-01
<GCONST> 1.048269e+02
<STATE> 6
<MEAN> 26
 -2.782397e+01 8.474428e+00 7.460319e-01 -6.597234e+00 -3.748146e+00 -6.438924e+00 -2.771277e+00 -3.693231e+00 -2.601540e+00 -2.793395e-02 -8.291885e-01 3.099893e-01 6.855658e+01 -3.881191e-01 -7.664507e-01 -3.917316e-01 -6.394100e-01 -3.970788e-01 -2.133474e-02 -7.665221e-02 -1.390200e-01 -1.305720e-02 3.191413e-02 -4.457398e-02 -9.571075e-02 -2.032671e-01
<VARIANCE> 26
 1.024971e+01 2.125877e+01 3.224435e+01 3.008939e+01 2.377770e+01 4.751393e+01 3.662011e+01 2.736023e+01 2.474510e+01 2.647820e+01 2.145854e+01 1.876630e+01 1.495813e+01 2.650471e+00 1.035917e+00 2.890800e+00 1.883260e+00 1.728992e+00 1.684916e+00 1.575431e+00 1.866693e+00 1.689370e+00 1.883000e+00 1.720695e+00 1.398816e+00 2.281161e-01
<GCONST> 9.458437e+01
<STATE> 7
<MEAN> 26
 -1.498440e+01 7.113852e+00 9.588145e+00 -5.123231e+00 -8.070454e+00 -4.846694e+00 -5.560404e+00 -5.969144e+00 -6.024619e+00 -2.187644e+00 -1.162632e+00 -1.058515e+00 6.827468e+01 4.378582e+00 -2.240999e-01 2.532121e+00 -1.027520e-01 -2.248743e+00 3.495411e-01 -1.803556e+00 -5.312709e-01 -1.666314e+00 -4.150186e-01 4.263104e-01 -5.304179e-01 7.866755e-01
<VARIANCE> 26
 6.855883e+01 2.602064e+01 4.998289e+01 3.736792e+01 4.978719e+01 4.275545e+01 4.333554e+01 4.301979e+01 3.911242e+01 2.746974e+01 3.021137e+01 2.164886e+01 2.330396e+01 2.278197e+00 2.730891e+00 3.628804e+00 5.572930e+00 3.976115e+00 4.311097e+00 3.307171e+00 3.767072e+00 3.310463e+00 4.101943e+00 3.663057e+00 2.692143e+00 1.074267e+00
<GCONST> 1.097766e+02
<STATE> 8
<MEAN> 26
 -5.210765e+00 3.369271e+00 1.566757e+01 -9.783699e+00 -1.618003e+01 1.996926e-01 -9.672135e+00 -5.727767e+00 -1.063417e+01 -5.580073e-02 3.120343e+00 -5.417293e+00 7.228561e+01 6.485361e-01 -3.636512e-01 -4.706628e-01 -4.863785e-01 2.410737e-01 1.106161e+00 -1.954661e-01 -1.252809e-01 4.520445e-02 8.045693e-01 -2.542252e-01 -1.122679e+00 -1.327200e-01
<VARIANCE> 26
 1.158789e+01 1.752808e+01 2.152357e+01 4.583709e+01 3.791696e+01 5.259107e+01 3.950220e+01 4.912017e+01 3.231076e+01 4.832373e+01 3.696612e+01 3.404762e+01 1.047305e+01 3.859569e-01 7.262291e-01 1.013323e+00 2.138323e+00 2.135131e+00 2.464311e+00 1.984525e+00 1.780788e+00 1.769185e+00 1.811845e+00 2.159845e+00 1.677386e+00 3.723311e-01
<GCONST> 9.588966e+01
<STATE> 9
<MEAN> 26
 -3.213081e+00 2.890965e+00 8.127748e+00 -9.477173e+00 -1.023880e+01 -2.275871e+00 -1.350022e+01 -7.955327e+00 -8.925254e+00 -1.216888e+00 -5.200611e+00 -6.088948e+00 6.705408e+01 7.584352e-01 -1.752490e-01 -1.040752e+00 1.776951e+00 7.842979e-01 -1.237714e+00 5.948548e-01 2.334557e-01 9.320051e-02 -5.335712e-01 -4.058173e-01 2.271030e-01 -8.593250e-01
<VARIANCE> 26
 1.466976e+01 2.795829e+01 4.413937e+01 9.741206e+01 3.783121e+01 7.358321e+01 8.058584e+01 6.300962e+01 5.199821e+01 7.357171e+01 6.954736e+01 4.674097e+01 3.590343e+01 4.345359e-01 8.951368e-01 1.140257e+00 2.114708e+00 1.865422e+00 2.697295e+00 2.665032e+00 2.263800e+00 2.584101e+00 2.757951e+00 2.367706e+00 2.384171e+00 3.519870e-01
<GCONST> 1.045481e+02
<STATE> 10
<MEAN> 26
 6.535473e-01 3.938007e+00 6.017221e+00 1.779589e+00 -6.719214e+00 -4.168799e+00 -6.576248e+00 -7.473714e+00 -7.470197e+00 -1.341971e+00 -4.012469e+00 -5.137912e+00 6.477018e+01 -1.314576e-01 -1.084279e-01 -1.398714e-01 3.457536e-01 7.049521e-01 4.407165e-01 -7.316358e-02 4.275642e-02 6.450156e-01 -8.073249e-02 -4.266105e-01 1.920471e-01 -6.374726e-01
<VARIANCE> 26
 8.592030e+00 2.268966e+01 3.304004e+01 3.878411e+01 3.738639e+01 4.696701e+01 4.562044e+01 4.682594e+01 5.245652e+01 5.455881e+01 4.673100e+01 3.939846e+01 2.797645e+01 6.123381e-01 9.799921e-01 1.011357e+00 1.579929e+00 1.944235e+00 1.874415e+00 2.642106e+00 3.464321e+00 2.614893e+00 2.419043e+00 2.329810e+00 1.774533e+00 7.213778e-01
<GCONST> 1.005622e+02
<STATE> 11
<MEAN> 26
 -5.604034e+00 5.767862e-01 2.618377e+00 -1.785750e+00 -3.110192e+00 -1.166882e+00 -4.779978e+00 -3.182067e+00 -2.413042e+00 -1.626198e+00 -3.315719e+00 -3.014147e+00 5.727866e+01 -7.140861e-01 -1.021617e+00 -1.025972e+00 -9.133198e-01 -5.528739e-01 -3.955420e-01 -1.325425e-01 2.161097e-01 4.889517e-01 1.924835e-01 3.817399e-01 3.539820e-01 -4.798583e-01
<VARIANCE> 26
 1.768442e+01 2.204175e+01 3.962327e+01 3.537265e+01 3.669442e+01 3.762005e+01 4.618261e+01 3.848666e+01 3.308413e+01 2.831177e+01 2.205694e+01 2.065557e+01 3.356129e+01 6.687661e-01 1.096951e+00 1.451886e+00 2.134738e+00 2.105566e+00 2.326933e+00 2.694683e+00 2.784103e+00 2.443581e+00 2.066027e+00 2.050073e+00 1.824663e+00 6.923662e-01
<GCONST> 9.918266e+01
<TRANSP> 12
 0.000000e+00 1.000000e+00 0.000000e+00 0.000000e+00 0.000000e+00 0.000000e+00 0.000000e+00 0.000000e+00 0.000000e+00 0.000000e+00 0.000000e+00 0.000000e+00
 0.000000e+00 8.264243e-01 1.735757e-01 0.000000e+00 0.000000e+00 0.000000e+00 0.000000e+00 0.000000e+00 0.000000e+00 0.000000e+00 0.000000e+00 0.000000e+00
 0.000000e+00 0.000000e+00 7.917224e-01 2.082777e-01 0.000000e+00 0.000000e+00 0.000000e+00 0.000000e+00 0.000000e+00 0.000000e+00 0.000000e+00 0.000000e+00
 0.000000e+00 0.000000e+00 0.000000e+00 7.793134e-01 2.206866e-01 0.000000e+00 0.000000e+00 0.000000e+00 0.000000e+00 0.000000e+00 0.000000e+00 0.000000e+00
 0.000000e+00 0.000000e+00 0.000000e+00 0.000000e+00 7.168780e-01 2.831220e-01 0.000000e+00 0.000000e+00 0.000000e+00 0.000000e+00 0.000000e+00 0.000000e+00
 0.000000e+00 0.000000e+00 0.000000e+00 0.000000e+00 0.000000e+00 8.503814e-01 1.496186e-01 0.000000e+00 0.000000e+00 0.000000e+00 0.000000e+00 0.000000e+00
 0.000000e+00 0.000000e+00 0.000000e+00 0.000000e+00 0.000000e+00 0.000000e+00 7.604238e-01 2.395763e-01 0.000000e+00 0.000000e+00 0.000000e+00 0.000000e+00
 0.000000e+00 0.000000e+00 0.000000e+00 0.000000e+00 0.000000e+00 0.000000e+00 0.000000e+00 7.456686e-01 2.543314e-01 0.000000e+00 0.000000e+00 0.000000e+00
 0.000000e+00 0.000000e+00 0.000000e+00 0.000000e+00 0.000000e+00 0.000000e+00 0.000000e+00 0.000000e+00 7.901348e-01 2.098652e-01 0.000000e+00 0.000000e+00
 0.000000e+00 0.000000e+00 0.000000e+00 0.000000e+00 0.000000e+00 0.000000e+00 0.000000e+00 0.000000e+00 0.000000e+00 8.223059e-01 1.776942e-01 0.000000e+00
 0.000000e+00 0.000000e+00 0.000000e+00 0.000000e+00 0.000000e+00 0.000000e+00 0.000000e+00 0.000000e+00 0.000000e+00 0.000000e+00 7.791680e-01 2.208320e-01
 0.000000e+00 0.000000e+00 0.000000e+00 0.000000e+00 0.000000e+00 0.000000e+00 0.000000e+00 0.000000e+00 0.000000e+00 0.000000e+00 0.000000e+00 0.000000e+00
<ENDHMM>
