~o
<STREAMINFO> 1 26
<VECSIZE> 26<NULLD><MFCC_D_0><DIAGC>
~h "sil"
<BEGINHMM>
<NUMSTATES> 12
<STATE> 2
<MEAN> 26
 -7.737110e+00 -2.728286e+00 -4.159567e+00 -3.111221e+00 1.207758e+00 -1.559348e+00 -1.980995e+00 -4.844822e-01 -5.305765e-01 1.551728e+00 -2.244603e+00 -4.397882e+00 5.797139e+01 -4.854751e-02 -1.925288e-01 -1.175949e-01 8.878822e-02 -2.153838e-01 -8.282974e-02 5.455964e-03 -6.458350e-02 1.499794e-02 -2.009145e-01 -4.420269e-02 1.051360e-01 -1.821350e-01
<VARIANCE> 26
 2.962041e+01 1.747772e+01 1.704005e+01 2.226570e+01 3.702922e+01 3.696123e+01 3.030014e+01 2.752371e+01 2.715380e+01 3.003337e+01 2.021560e+01 2.581603e+01 2.287493e+01 1.649037e+00 1.064120e+00 1.424612e+00 1.466687e+00 1.814408e+00 2.130991e+00 2.338558e+00 2.161217e+00 2.326115e+00 2.155654e+00 1.780574e+00 1.748702e+00 7.487760e-01
<GCONST> 9.674247e+01
<STATE> 3
<MEAN> 26
 -1.043255e+01 -2.085908e+00 -3.716820e+00 -4.982251e+00 -2.772141e+00 -2.781725e+00 -4.284924e+00 -3.840799e+00 -2.893526e+00 -2.013598e+00 -2.997948e+00 -1.847881e+00 5.508377e+01 -4.636401e-02 2.516026e-02 -2.831713e-02 -5.774393e-02 1.769463e-02 -4.123601e-02 5.766431e-02 -1.039253e-02 1.694673e-02 -6.444267e-02 6.213332e-02 1.170742e-01 -1.188660e-01
<VARIANCE> 26
 1.270560e+01 8.840601e+00 1.654876e+01 1.715615e+01 1.744577e+01 1.819666e+01 2.068886e+01 2.078060e+01 2.253181e+01 1.952142e+01 1.826215e+01 1.664546e+01 1.054534e+01 4.428353e-01 5.267670e-01 9.733284e-01 1.035388e+00 1.368774e+00 1.455586e+00 1.713729e+00 1.742370e+00 1.844749e+00 1.604631e+00 1.740865e+00 1.303072e+00 2.345784e-01
<GCONST> 8.492773e+01
<STATE> 4
<MEAN> 26
 -8.269617e+00 -2.719218e+00 -3.137353e+00 -4.055579e+00 -2.644562e+00 -1.940046e+00 -3.481596e+00 -2.515459e+00 -1.048335e+00 -1.479831e+00 -2.226310e+00 -9.425402e-01 5.233903e+01 1.503149e-02 -7.233317e-02 -2.861002e-02 1.252599e-02 1.884877e-02 -9.699785e-03 -8.323679e-03 6.055856e-02 2.935941e-02 -1.553649e-02 1.946438e-02 5.986767e-02 -3.933045e-02
<VARIANCE> 26
 4.963144e+00 5.590403e+00 7.803412e+00 1.211502e+01 1.417808e+01 1.623900e+01 1.782014e+01 1.791349e+01 1.813794e+01 1.665487e+01 1.665793e+01 1.513548e+01 6.606084e+00 2.062058e-01 3.716002e-01 5.389766e-01 7.826295e-01 1.081757e+00 1.232249e+00 1.438381e+00 1.412795e+00 1.551871e+00 1.458124e+00 1.488364e+00 1.298419e+00 8.451914e-02
<GCONST> 7.655972e+01
<STATE> 5
<MEAN> 26
 -9.946416e+00 -4.805155e+00 -3.864713e+00 -2.219891e+00 1.094361e+00 -5.578673e-01 -2.131784e+00 -1.784860e+00 -2.311922e+00 -1.968609e+00 -6.100378e-01 4.154542e-01 5.375376e+01 -2.408231e-01 -1.683399e-01 1.273829e-02 3.965020e-02 3.056361e-02 -1.105842e-01 -2.869627e-02 7.421076e-02 -3.929193e-02 -8.989819e-02 9.939286e-02 2.391563e-02 2.239427e-01
<VARIANCE> 26
 1.494220e+01 2.437093e+01 2.138920e+01 2.041937e+01 4.074217e+01 3.753300e+01 2.609875e+01 2.866311e+01 2.668492e+01 2.142525e+01 2.583580e+01 2.229415e+01 6.828988e+01 1.142208e+00 2.550351e+00 1.767653e+00 1.311490e+00 4.743464e+00 4.717884e+00 2.723219e+00 2.636267e+00 2.711314e+00 2.110382e+00 2.824780e+00 2.548666e+00 2.634433e+00
<GCONST> 1.023166e+02
<STATE> 6
<MEAN> 26
 -9.881281e+00 -5.529076e+00 -3.433982e+00 -2.635014e+00 -1.873133e+00 -4.993136e+00 -3.674122e+00 9.035989e-02 -1.245719e+00 -3.300269e+00 -2.362024e+00 -5.308200e-01 5.511106e+01 -2.213081e-02 -1.119244e-02 9.495161e-03 -1.266433e-01 -2.736196e-01 -1.398719e-01 -5.033274e-02 1.877630e-01 1.394600e-01 -1.894271e-02 -9.835991e-02 -7.444891e-02 -6.026495e-02
<VARIANCE> 26
 6.703928e+00 1.614533e+01 1.079058e+01 1.544821e+01 1.698817e+01 2.109290e+01 2.187474e+01 3.000686e+01 2.133898e+01 2.505767e+01 1.899538e+01 1.554954e+01 1.207127e+01 3.073426e-01 4.579695e-01 6.754474e-01 8.772776e-01 1.225520e+00 1.703434e+00 1.797267e+00 2.077471e+00 1.700819e+00 1.840759e+00 1.513978e+00 1.274671e+00 2.134763e-01
<GCONST> 8.423815e+01
<STATE> 7
<MEAN> 26
 -1.209689e+01 -5.136734e+00 -2.984373e+00 -4.385855e+00 -4.266219e+00 -3.559613e+00 -4.271896e+00 -4.629748e-01 -9.518529e-01 -1.473098e+00 -5.844681e-01 -8.631607e-01 5.777314e+01 1.556200e-01 7.474022e-02 -1.404111e-01 -3.615047e-02 -1.926221e-02 2.060278e-01 -2.847595e-02 -1.346435e-01 7.574590e-02 5.271722e-02 -2.536919e-02 -1.005652e-02 -1.866421e-01
<VARIANCE> 26
 1.692643e+01 1.621066e+01 1.490032e+01 2.554086e+01 2.537968e+01 2.615728e+01 2.903110e+01 3.493451e+01 2.914626e+01 2.499385e+01 2.424854e+01 2.020042e+01 2.344659e+01 4.793240e-01 6.358635e-01 8.368363e-01 1.076062e+00 1.513832e+00 1.774365e+00 1.790998e+00 2.168664e+00 2.161246e+00 2.238421e+00 1.709153e+00 1.468081e+00 2.942230e-01
<GCONST> 9.102566e+01
<STATE> 8
<MEAN> 26
 -6.996916e+00 -4.472068e+00 -6.261029e+00 -7.418234e+00 -3.741391e+00 -8.529666e-01 -3.884304e+00 -2.114224e+00 -1.094184e+00 -1.079836e+00 -3.277218e+00 -3.071199e+00 5.441160e+01 1.357198e-03 7.919428e-02 3.926467e-02 1.074046e-01 8.876611e-02 8.107773e-02 5.543197e-02 5.569496e-03 -1.508104e-02 1.049229e-01 -2.450364e-02 3.857638e-02 -1.031569e-01
<VARIANCE> 26
 6.767209e+00 9.341780e+00 1.876873e+01 2.295516e+01 1.502494e+01 2.121731e+01 2.109206e+01 2.054656e+01 1.982871e+01 2.709688e+01 2.564812e+01 2.138424e+01 1.321941e+01 2.541696e-01 4.678627e-01 6.662093e-01 9.465165e-01 1.088593e+00 1.408493e+00 1.432079e+00 1.600855e+00 1.669414e+00 1.786134e+00 1.680594e+00 1.417059e+00 9.203640e-02
<GCONST> 8.324991e+01
<STATE> 9
<MEAN> 26
 -9.244375e+00 -2.448406e+00 -3.559705e+00 -2.686818e+00 -1.944646e+00 -7.785344e-01 -2.496828e+00 -7.125754e-01 -6.719736e-01 -9.475764e-01 -1.362998e+00 -4.464534e-01 4.892231e+01 -8.438242e-03 6.995437e-02 1.440198e-02 1.292290e-02 4.752673e-02 3.942650e-02 6.005427e-03 2.343599e-02 -2.575466e-02 7.844529e-02 6.887063e-02 7.592478e-02 -3.251021e-02
<VARIANCE> 26
 5.880345e+00 5.061098e+00 7.766550e+00 1.218929e+01 1.348286e+01 1.412043e+01 1.418435e+01 1.705753e+01 1.619514e+01 1.611801e+01 1.565103e+01 1.459599e+01 2.433528e+01 2.310516e-01 3.634156e-01 5.684648e-01 8.696009e-01 1.002287e+00 1.308393e+00 1.271350e+00 1.447800e+00 1.525451e+00 1.493771e+00 1.367640e+00 1.200463e+00 1.062849e-01
<GCONST> 7.743112e+01
<STATE> 10
<MEAN> 26
 -1.089860e+01 -1.782221e+00 -3.533614e+00 -3.137037e+00 -2.626691e+00 -1.359328e+00 -3.484501e+00 -1.277766e+00 -1.847069e+00 -4.539902e-01 -1.533222e+00 -5.228403e-01 5.166445e+01 1.847328e-02 2.228395e-01 2.757944e-01 1.563512e-01 1.178070e-01 4.781383e-02 -8.635537e-02 -1.997756e-01 -1.390426e-01 -3.636361e-02 -8.386726e-02 -7.590491e-02 3.492761e-01
<VARIANCE> 26
 1.317405e+01 9.234653e+00 1.365320e+01 1.615950e+01 1.817360e+01 1.936047e+01 2.219843e+01 2.213056e+01 2.183532e+01 2.066242e+01 2.328054e+01 1.979757e+01 1.503094e+01 9.919049e-01 8.291537e-01 1.397465e+00 1.498477e+00 2.004361e+00 1.862736e+00 2.261513e+00 2.424731e+00 2.074007e+00 1.986396e+00 2.200824e+00 1.741970e+00 6.181386e-01
<GCONST> 9.083920e+01
<STATE> 11
<MEAN> 26
 -7.878685e+00 -1.064123e+00 -2.756561e-01 -1.735721e+00 -1.712244e+00 -6.926382e-01 -3.528567e+00 -3.741099e+00 -3.111408e+00 -2.134851e+00 -1.621960e+00 -6.512882e-01 5.637973e+01 6.314125e-01 7.880706e-01 1.201020e+00 4.676920e-01 -2.908024e-01 -4.729730e-01 -8.137332e-01 -4.655287e-01 -5.181924e-01 -2.627659e-01 -1.268159e-01 -1.841006e-01 1.392725e+00
<VARIANCE> 26
 1.942174e+01 3.568503e+01 5.448970e+01 2.730758e+01 4.217736e+01 3.140871e+01 3.042979e+01 3.570631e+01 2.642691e+01 2.606822e+01 3.040350e+01 2.278778e+01 4.211142e+01 2.853033e+00 3.483743e+00 5.058344e+00 2.746838e+00 5.201369e+00 4.849739e+00 4.789752e+00 3.728698e+00 3.346364e+00 2.830165e+00 3.136953e+00 2.532665e+00 4.213772e+00
<GCONST> 1.094245e+02
<TRANSP> 12
 0.000000e+00 1.000000e+00 0.000000e+00 0.000000e+00 0.000000e+00 0.000000e+00 0.000000e+00 0.000000e+00 0.000000e+00 0.000000e+00 0.000000e+00 0.000000e+00
 0.000000e+00 7.666839e-01 2.333160e-01 0.000000e+00 0.000000e+00 0.000000e+00 0.000000e+00 0.000000e+00 0.000000e+00 0.000000e+00 0.000000e+00 0.000000e+00
 0.000000e+00 0.000000e+00 7.426068e-01 2.573932e-01 0.000000e+00 0.000000e+00 0.000000e+00 0.000000e+00 0.000000e+00 0.000000e+00 0.000000e+00 0.000000e+00
 0.000000e+00 0.000000e+00 0.000000e+00 8.868167e-01 1.131832e-01 0.000000e+00 0.000000e+00 0.000000e+00 0.000000e+00 0.000000e+00 0.000000e+00 0.000000e+00
 0.000000e+00 0.000000e+00 0.000000e+00 0.000000e+00 7.564359e-01 2.435641e-01 0.000000e+00 0.000000e+00 0.000000e+00 0.000000e+00 0.000000e+00 0.000000e+00
 0.000000e+00 0.000000e+00 0.000000e+00 0.000000e+00 0.000000e+00 7.275642e-01 2.724358e-01 0.000000e+00 0.000000e+00 0.000000e+00 0.000000e+00 0.000000e+00
 0.000000e+00 0.000000e+00 0.000000e+00 0.000000e+00 0.000000e+00 0.000000e+00 7.702379e-01 2.297620e-01 0.000000e+00 0.000000e+00 0.000000e+00 0.000000e+00
 0.000000e+00 0.000000e+00 0.000000e+00 0.000000e+00 0.000000e+00 0.000000e+00 0.000000e+00 7.898176e-01 2.101824e-01 0.000000e+00 0.000000e+00 0.000000e+00
 0.000000e+00 0.000000e+00 0.000000e+00 0.000000e+00 0.000000e+00 0.000000e+00 0.000000e+00 0.000000e+00 8.438049e-01 1.561951e-01 0.000000e+00 0.000000e+00
 0.000000e+00 0.000000e+00 0.000000e+00 0.000000e+00 0.000000e+00 0.000000e+00 0.000000e+00 0.000000e+00 0.000000e+00 6.702451e-01 3.297549e-01 0.000000e+00
 0.000000e+00 0.000000e+00 0.000000e+00 0.000000e+00 0.000000e+00 0.000000e+00 0.000000e+00 0.000000e+00 0.000000e+00 0.000000e+00 6.515602e-01 3.484398e-01
 0.000000e+00 0.000000e+00 0.000000e+00 0.000000e+00 0.000000e+00 0.000000e+00 0.000000e+00 0.000000e+00 0.000000e+00 0.000000e+00 0.000000e+00 0.000000e+00
<ENDHMM>
