~o
<STREAMINFO> 1 26
<VECSIZE> 26<NULLD><MFCC_D_0><DIAGC>
~h "lx"
<BEGINHMM>
<NUMSTATES> 12
<STATE> 2
<MEAN> 26
 -3.857172e+00 2.553548e+00 1.222011e+01 -1.228406e+00 -8.257666e+00 -5.698764e+00 -1.059846e+01 -3.371190e+00 -8.122970e+00 -2.442606e+00 -1.842091e+00 -1.397887e+00 6.576320e+01 2.091360e-01 -2.576626e-02 1.720944e+00 -8.040801e-01 -2.183790e+00 -6.022875e-02 -6.844915e-01 2.432049e-01 -8.215175e-01 1.283587e-01 9.494781e-01 1.094984e-01 2.264449e+00
<VARIANCE> 26
 1.402335e+01 3.042934e+01 5.248107e+01 6.712170e+01 7.575478e+01 4.981128e+01 5.980868e+01 5.123963e+01 4.421454e+01 4.001455e+01 4.993793e+01 2.966727e+01 5.664345e+01 2.062115e+00 3.199051e+00 3.907979e+00 4.309412e+00 4.683320e+00 4.553553e+00 4.770572e+00 4.354228e+00 3.199385e+00 3.912381e+00 3.806892e+00 2.973557e+00 1.796535e+00
<GCONST> 1.134307e+02
<STATE> 3
<MEAN> 26
 -3.603886e+00 3.127689e+00 1.522535e+01 -5.254863e+00 -1.562323e+01 -5.349996e-01 -1.076771e+01 -4.023511e+00 -1.099249e+01 -5.225301e-01 3.982471e+00 -4.117427e+00 7.276766e+01 4.529862e-02 6.482539e-01 -4.154893e-01 -2.020965e-01 4.779661e-01 4.282170e-01 1.230770e-01 -7.040276e-01 -2.568701e-01 4.231972e-01 -2.575630e-01 -5.267415e-01 -1.713564e-01
<VARIANCE> 26
 1.239858e+01 2.661565e+01 4.819667e+01 7.837644e+01 3.651415e+01 6.376457e+01 5.587179e+01 6.330293e+01 5.054682e+01 4.761780e+01 3.451234e+01 3.687644e+01 1.191404e+01 3.769020e-01 7.285959e-01 1.182067e+00 1.503558e+00 1.576973e+00 2.373074e+00 2.203267e+00 2.109164e+00 2.166958e+00 1.649076e+00 1.764496e+00 1.635825e+00 2.802911e-01
<GCONST> 9.835754e+01
<STATE> 4
<MEAN> 26
 -4.221498e+00 7.341617e+00 9.180159e+00 -1.006539e+01 -1.242100e+01 -3.507087e+00 -1.408640e+01 -1.022871e+01 -1.156628e+01 1.221321e-01 -6.195801e+00 -3.825931e+00 6.849454e+01 -7.418144e-01 1.322360e+00 -7.668839e-01 8.448038e-01 1.014392e+00 -6.909118e-01 1.096024e+00 -4.337075e-01 5.376025e-01 -6.702557e-01 -8.190513e-02 4.225170e-01 -3.628227e-01
<VARIANCE> 26
 1.451218e+01 2.265764e+01 3.714657e+01 1.108261e+02 4.228873e+01 4.223908e+01 9.362645e+01 5.949784e+01 3.510708e+01 6.090596e+01 9.995213e+01 3.934589e+01 2.731161e+01 2.761252e+00 1.585264e+00 2.462381e+00 3.276875e+00 3.578058e+00 2.939163e+00 4.367120e+00 2.624688e+00 2.739922e+00 2.389818e+00 3.130840e+00 2.688884e+00 4.836304e-01
<GCONST> 1.089080e+02
<STATE> 5
<MEAN> 26
 -1.605759e+01 1.456732e+01 6.549928e+00 -3.570041e-02 -3.095097e+00 -4.515621e+00 -4.674624e-01 -7.962658e+00 -6.313204e+00 -3.039710e+00 -1.614079e+00 -1.707558e+00 6.982082e+01 -4.289327e+00 2.194679e-01 -1.849614e+00 3.625947e-01 1.985047e+00 1.106078e-01 1.467403e+00 8.980111e-01 1.615244e+00 -2.039613e-02 -4.304891e-01 4.469835e-01 -6.116760e-02
<VARIANCE> 26
 4.889017e+01 1.684160e+01 3.009814e+01 4.094582e+01 3.976371e+01 3.260880e+01 4.417414e+01 4.276324e+01 2.987126e+01 3.221349e+01 3.483466e+01 2.334998e+01 1.989971e+01 1.794596e+00 4.328892e+00 2.565077e+00 4.044466e+00 4.134153e+00 3.247373e+00 4.381649e+00 3.243219e+00 3.041991e+00 3.317488e+00 3.005204e+00 2.716247e+00 4.708685e-01
<GCONST> 1.061862e+02
<STATE> 6
<MEAN> 26
 -2.894179e+01 8.953276e+00 -8.589475e-01 -5.703526e+00 -2.657558e+00 -5.238096e+00 -1.816066e+00 -5.326921e+00 -3.646455e+00 -6.545194e-01 -1.308245e+00 -8.346909e-01 6.947401e+01 -4.315566e-01 -8.329570e-01 -7.985679e-02 -6.634914e-01 -2.872315e-01 -5.186445e-02 -1.813468e-01 1.205169e-01 4.469772e-02 1.059105e-01 1.270721e-02 1.062398e-01 -1.013370e-01
<VARIANCE> 26
 1.112755e+01 1.989348e+01 3.070315e+01 2.918372e+01 1.869293e+01 2.952972e+01 4.345637e+01 3.532905e+01 2.727658e+01 2.160683e+01 2.508845e+01 1.781508e+01 1.878910e+01 1.873851e+00 1.047139e+00 2.566540e+00 1.647553e+00 1.694349e+00 1.773203e+00 1.657008e+00 1.755570e+00 2.003182e+00 1.917978e+00 1.754259e+00 1.600994e+00 2.389905e-01
<GCONST> 9.427852e+01
<STATE> 7
<MEAN> 26
 -2.110837e+01 8.329380e+00 6.816578e+00 -4.427027e+00 -5.076933e+00 -6.118619e+00 -3.859339e+00 -7.079473e+00 -5.900356e+00 -3.163463e+00 -2.214631e+00 -9.674553e-01 6.943181e+01 4.407131e+00 -9.804996e-02 3.530072e+00 5.296396e-01 -2.364069e+00 -9.464116e-01 -2.922951e+00 -1.318590e+00 -1.963713e+00 -1.235276e+00 1.403224e-01 -1.179453e-01 8.787664e-01
<VARIANCE> 26
 4.802410e+01 2.443261e+01 4.437989e+01 2.716055e+01 3.387150e+01 3.484720e+01 4.625388e+01 4.186995e+01 2.964967e+01 2.481817e+01 2.038278e+01 1.904310e+01 2.198548e+01 1.717674e+00 2.885921e+00 3.247697e+00 3.583255e+00 3.428370e+00 3.025527e+00 3.220908e+00 3.008126e+00 3.007729e+00 2.316135e+00 2.975693e+00 1.999804e+00 7.544306e-01
<GCONST> 1.043501e+02
<STATE> 8
<MEAN> 26
 -1.004421e+01 3.716831e+00 1.549622e+01 -5.668654e+00 -1.377321e+01 -6.317801e+00 -1.494965e+01 -9.807135e+00 -1.209667e+01 -5.310219e+00 -7.749035e-01 -4.093808e-01 7.343423e+01 1.596417e+00 -1.678427e+00 1.534161e+00 -5.378311e-01 -1.706188e+00 6.829124e-01 -2.054612e+00 2.583571e-01 -9.636300e-01 -4.104146e-01 6.127164e-01 -3.774803e-01 6.941681e-01
<VARIANCE> 26
 1.366506e+01 2.739315e+01 3.509667e+01 6.009584e+01 2.925088e+01 3.868618e+01 4.645406e+01 6.814484e+01 3.610236e+01 4.309952e+01 4.104114e+01 4.526741e+01 1.717530e+01 1.752741e+00 1.211750e+00 2.460525e+00 1.960927e+00 3.592911e+00 2.584739e+00 3.592964e+00 2.178541e+00 2.465522e+00 2.452695e+00 3.040636e+00 2.534346e+00 6.125715e-01
<GCONST> 1.041407e+02
<STATE> 9
<MEAN> 26
 -8.643201e+00 1.096170e+00 1.829076e+01 -9.037483e+00 -1.628348e+01 -4.883296e+00 -1.732786e+01 -8.145000e+00 -1.355171e+01 -5.214722e+00 1.297043e-01 -3.045161e+00 7.301480e+01 2.072396e-01 -4.663016e-02 5.604812e-02 -1.350892e-01 -2.078069e-01 1.820358e-01 -5.117660e-02 1.197790e-01 -6.031325e-03 1.333774e-01 7.619481e-02 -1.763738e-01 -1.947367e-01
<VARIANCE> 26
 1.353586e+01 2.508963e+01 3.536379e+01 8.470605e+01 2.452004e+01 3.883133e+01 3.483289e+01 4.197322e+01 3.936519e+01 4.541084e+01 7.571655e+01 2.639658e+01 1.902303e+01 1.110927e-01 2.418504e-01 4.320508e-01 5.540891e-01 5.698864e-01 6.322787e-01 7.937039e-01 6.129692e-01 5.704757e-01 7.694635e-01 5.798008e-01 5.152337e-01 1.207412e-01
<GCONST> 8.286494e+01
<STATE> 10
<MEAN> 26
 -5.546910e+00 3.531335e+00 1.465260e+01 -4.087543e+00 -1.492808e+01 -6.135517e+00 -1.401922e+01 -7.608379e+00 -1.115776e+01 -4.225653e+00 -8.955556e-01 -2.982702e+00 6.869939e+01 5.085949e-01 3.627723e-01 -8.797952e-01 9.048714e-01 1.031152e+00 -2.640289e-01 9.979942e-01 1.873253e-01 5.105103e-01 2.589614e-01 -6.499585e-01 2.046999e-02 -1.290897e+00
<VARIANCE> 26
 1.275572e+01 2.882125e+01 3.545495e+01 8.699623e+01 4.669634e+01 7.456454e+01 6.331652e+01 5.443756e+01 4.671204e+01 4.966352e+01 5.957618e+01 3.004149e+01 2.628162e+01 7.138555e-01 1.027993e+00 1.336811e+00 2.148088e+00 2.891184e+00 2.172463e+00 2.817002e+00 2.203141e+00 2.208400e+00 1.924847e+00 2.405941e+00 1.494740e+00 9.823021e-01
<GCONST> 1.036522e+02
<STATE> 11
<MEAN> 26
 -6.860896e+00 1.467891e+00 6.824924e+00 -3.160350e+00 -6.768465e+00 -3.935678e+00 -8.018070e+00 -6.523098e+00 -6.411722e+00 -2.886111e+00 -1.966716e+00 -2.351205e+00 5.874518e+01 -5.515116e-01 -8.847578e-01 -1.101789e+00 -5.289959e-01 3.274426e-01 2.132575e-01 3.817769e-01 2.643182e-01 4.250593e-01 2.587765e-01 2.902400e-01 2.058889e-01 -6.134117e-01
<VARIANCE> 26
 1.616686e+01 2.799327e+01 4.577095e+01 5.017386e+01 4.925043e+01 4.509638e+01 4.803429e+01 4.114793e+01 3.423141e+01 2.594682e+01 3.846679e+01 2.142235e+01 4.078191e+01 9.368462e-01 1.344095e+00 2.451988e+00 2.677205e+00 4.286639e+00 2.611954e+00 3.125818e+00 2.830640e+00 2.550998e+00 2.340091e+00 3.041654e+00 1.806280e+00 1.852705e+00
<GCONST> 1.049603e+02
<TRANSP> 12
 0.000000e+00 1.000000e+00 0.000000e+00 0.000000e+00 0.000000e+00 0.000000e+00 0.000000e+00 0.000000e+00 0.000000e+00 0.000000e+00 0.000000e+00 0.000000e+00
 0.000000e+00 8.059639e-01 1.940362e-01 0.000000e+00 0.000000e+00 0.000000e+00 0.000000e+00 0.000000e+00 0.000000e+00 0.000000e+00 0.000000e+00 0.000000e+00
 0.000000e+00 0.000000e+00 8.611959e-01 1.388041e-01 0.000000e+00 0.000000e+00 0.000000e+00 0.000000e+00 0.000000e+00 0.000000e+00 0.000000e+00 0.000000e+00
 0.000000e+00 0.000000e+00 0.000000e+00 7.899987e-01 2.100013e-01 0.000000e+00 0.000000e+00 0.000000e+00 0.000000e+00 0.000000e+00 0.000000e+00 0.000000e+00
 0.000000e+00 0.000000e+00 0.000000e+00 0.000000e+00 7.355214e-01 2.644787e-01 0.000000e+00 0.000000e+00 0.000000e+00 0.000000e+00 0.000000e+00 0.000000e+00
 0.000000e+00 0.000000e+00 0.000000e+00 0.000000e+00 0.000000e+00 8.376971e-01 1.623028e-01 0.000000e+00 0.000000e+00 0.000000e+00 0.000000e+00 0.000000e+00
 0.000000e+00 0.000000e+00 0.000000e+00 0.000000e+00 0.000000e+00 0.000000e+00 6.688960e-01 3.311041e-01 0.000000e+00 0.000000e+00 0.000000e+00 0.000000e+00
 0.000000e+00 0.000000e+00 0.000000e+00 0.000000e+00 0.000000e+00 0.000000e+00 0.000000e+00 6.457984e-01 3.542016e-01 0.000000e+00 0.000000e+00 0.000000e+00
 0.000000e+00 0.000000e+00 0.000000e+00 0.000000e+00 0.000000e+00 0.000000e+00 0.000000e+00 0.000000e+00 8.616512e-01 1.383488e-01 0.000000e+00 0.000000e+00
 0.000000e+00 0.000000e+00 0.000000e+00 0.000000e+00 0.000000e+00 0.000000e+00 0.000000e+00 0.000000e+00 0.000000e+00 8.243715e-01 1.756285e-01 0.000000e+00
 0.000000e+00 0.000000e+00 0.000000e+00 0.000000e+00 0.000000e+00 0.000000e+00 0.000000e+00 0.000000e+00 0.000000e+00 0.000000e+00 8.050777e-01 1.949224e-01
 0.000000e+00 0.000000e+00 0.000000e+00 0.000000e+00 0.000000e+00 0.000000e+00 0.000000e+00 0.000000e+00 0.000000e+00 0.000000e+00 0.000000e+00 0.000000e+00
<ENDHMM>
