~o
<STREAMINFO> 1 13
<VECSIZE> 13<NULLD><MFCC_E><DIAGC>
~h "\347\221\236"
<BEGINHMM>
<NUMSTATES> 6
<STATE> 2
<MEAN> 13
 -6.971257e+00 -6.842684e-01 6.592370e-01 -3.568646e+00 2.179788e-01 -8.038000e+00 1.259109e+00 -5.236948e+00 3.639157e+00 -4.215508e+00 2.110193e+00 -2.158125e+00 4.875271e-01
<VARIANCE> 13
 1.504000e+00 6.599863e+00 7.553015e+00 1.697778e+01 5.030153e+00 1.119371e+01 9.331460e+00 1.465382e+01 1.837262e+01 1.141724e+01 1.330743e+01 1.759337e+01 1.147681e-02
<GCONST> 4.632473e+01
<STATE> 3
<MEAN> 13
 -8.405621e-01 -8.750662e-01 7.838112e+00 -1.195368e+01 -2.608996e+00 -1.240181e+01 -1.940058e+01 -7.859584e+00 3.394063e+00 -5.962751e+00 -7.224382e+00 -2.918427e+00 9.392528e-01
<VARIANCE> 13
 1.166775e+00 2.611997e+01 1.334549e+01 7.809358e+01 1.216505e+01 1.728264e+01 9.117916e+01 3.356177e+01 2.317931e+01 3.793400e+01 1.969716e+01 1.231771e+01 1.000000e-02
<GCONST> 5.529837e+01
<STATE> 4
<MEAN> 13
 -3.446972e+00 -4.476847e-01 1.101174e+01 -1.092591e+01 -6.921116e+00 -1.620455e+01 -7.390586e+00 -8.700688e+00 -3.991962e+00 -8.508016e-01 -3.426776e+00 2.502543e+00 8.200130e-01
<VARIANCE> 13
 2.194058e+00 2.263069e+01 1.434107e+01 1.977272e+01 2.091104e+01 2.249652e+01 2.532739e+01 2.523051e+01 2.530196e+01 9.298811e+00 3.448390e+01 1.168167e+01 1.348519e-02
<GCONST> 5.321159e+01
<STATE> 5
<MEAN> 13
 -8.785060e+00 -1.432962e+00 1.038088e+00 -4.204905e+00 -1.779750e+00 -8.198125e+00 7.273278e-01 -6.175290e+00 2.747774e+00 -5.037079e+00 2.405530e+00 7.254906e-01 4.613843e-01
<VARIANCE> 13
 3.622632e+00 2.986381e+00 7.691094e+00 1.126973e+01 1.458952e+01 1.040149e+01 5.408476e+00 1.249770e+01 1.719831e+01 9.875267e+00 1.096988e+01 9.163878e+00 1.000000e-02
<GCONST> 4.511171e+01
<TRANSP> 6
 0.000000e+00 1.000000e+00 0.000000e+00 0.000000e+00 0.000000e+00 0.000000e+00
 0.000000e+00 8.947368e-01 1.052632e-01 0.000000e+00 0.000000e+00 0.000000e+00
 0.000000e+00 0.000000e+00 9.245283e-01 7.547171e-02 0.000000e+00 0.000000e+00
 0.000000e+00 0.000000e+00 0.000000e+00 8.461539e-01 1.538462e-01 0.000000e+00
 0.000000e+00 0.000000e+00 0.000000e+00 0.000000e+00 9.183673e-01 8.163264e-02
 0.000000e+00 0.000000e+00 0.000000e+00 0.000000e+00 0.000000e+00 0.000000e+00
<ENDHMM>
