~o
<STREAMINFO> 1 13
<VECSIZE> 13<NULLD><MFCC_E><DIAGC>
~h "sil"
<BEGINHMM>
<NUMSTATES> 6
<STATE> 2
<MEAN> 13
 -9.556581e+00 -4.856781e+00 -1.149865e+00 -2.877780e+00 -1.084167e+00 -8.223470e+00 2.241155e+00 -3.449783e+00 8.158072e+00 -3.393600e+00 3.005356e+00 -2.010268e+00 4.526615e-01
<VARIANCE> 13
 9.966699e+00 4.685134e+00 6.083807e+00 1.051553e+01 1.495363e+01 1.525065e+01 1.609161e+01 3.014754e+01 1.883129e+01 2.204177e+01 1.595152e+01 1.374840e+01 1.000000e-02
<GCONST> 5.032227e+01
<STATE> 3
<MEAN> 13
 -9.219293e+00 -2.327693e+00 1.710379e-01 -1.204662e+00 9.628857e-01 -8.131079e+00 1.217625e+00 -4.504869e+00 6.316411e+00 -1.609464e+00 3.293970e+00 -8.526360e-01 3.993867e-01
<VARIANCE> 13
 2.949897e+00 3.517625e+00 4.291244e+00 1.039386e+01 6.957482e+00 7.358921e+00 1.218480e+01 1.288558e+01 1.348756e+01 1.506049e+01 1.219078e+01 1.033084e+01 1.000000e-02
<GCONST> 4.456627e+01
<STATE> 4
<MEAN> 13
 -8.603629e+00 -1.743161e+00 -2.285532e+00 -2.969947e+00 -1.690548e+00 -1.099777e+01 -5.598098e-01 -5.361098e+00 8.637627e+00 -1.646812e+00 2.491180e+00 -1.926248e+00 3.806835e-01
<VARIANCE> 13
 6.783679e+00 7.364025e+00 1.003907e+01 7.928866e+00 5.965974e+00 1.106337e+01 1.540433e+01 2.665298e+01 1.531603e+01 1.351762e+01 1.573827e+01 6.214005e+00 1.000000e-02
<GCONST> 4.769841e+01
<STATE> 5
<MEAN> 13
 -9.580469e+00 -1.510261e+00 -1.479299e+00 -3.248804e+00 1.347386e+00 -6.068758e+00 4.051077e+00 -4.164204e+00 4.715656e+00 -2.830089e+00 3.273290e+00 -1.060003e+00 4.151310e-01
<VARIANCE> 13
 3.963432e+00 2.980865e+00 7.932252e+00 6.823941e+00 1.081620e+01 8.461488e+00 9.391077e+00 1.099049e+01 1.389586e+01 1.218868e+01 1.370749e+01 9.982858e+00 1.000000e-02
<GCONST> 4.495220e+01
<TRANSP> 6
 0.000000e+00 1.000000e+00 0.000000e+00 0.000000e+00 0.000000e+00 0.000000e+00
 0.000000e+00 8.315790e-01 1.684211e-01 0.000000e+00 0.000000e+00 0.000000e+00
 0.000000e+00 0.000000e+00 9.191919e-01 8.080807e-02 0.000000e+00 0.000000e+00
 0.000000e+00 0.000000e+00 0.000000e+00 7.908497e-01 2.091503e-01 0.000000e+00
 0.000000e+00 0.000000e+00 0.000000e+00 0.000000e+00 9.018405e-01 9.815951e-02
 0.000000e+00 0.000000e+00 0.000000e+00 0.000000e+00 0.000000e+00 0.000000e+00
<ENDHMM>
