~o
<STREAMINFO> 1 13
<VECSIZE> 13<NULLD><MFCC_E><DIAGC>
~h "rui"
<BEGINHMM>
<NUMSTATES> 6
<STATE> 2
<MEAN> 13
 -7.011335e+00 -5.887951e-01 2.371896e-01 -2.665385e+00 3.968075e-01 -8.005167e+00 1.616400e+00 -5.500148e+00 3.937567e+00 -3.876168e+00 1.836623e+00 -1.684666e+00 4.706818e-01
<VARIANCE> 13
 1.542072e+00 5.764851e+00 7.683169e+00 1.626704e+01 4.473435e+00 1.162262e+01 1.005249e+01 1.501974e+01 1.629384e+01 1.113282e+01 1.432525e+01 1.708925e+01 1.000000e-02
<GCONST> 4.596976e+01
<STATE> 3
<MEAN> 13
 -9.636106e-01 -1.679634e+00 8.670174e+00 -1.232081e+01 -3.303640e+00 -1.152699e+01 -2.052469e+01 -7.361364e+00 3.263677e+00 -5.946384e+00 -7.523329e+00 -2.714536e+00 9.335197e-01
<VARIANCE> 13
 1.267655e+00 2.681707e+01 1.334982e+01 8.581466e+01 1.282524e+01 1.778872e+01 1.054046e+02 4.153060e+01 2.313440e+01 4.560409e+01 2.213581e+01 1.355867e+01 1.000000e-02
<GCONST> 5.633688e+01
<STATE> 4
<MEAN> 13
 -3.536151e+00 -1.891988e+00 1.082608e+01 -1.193442e+01 -7.855930e+00 -1.759068e+01 -9.137360e+00 -7.947149e+00 -4.185976e+00 -3.723287e-01 -3.887758e+00 2.598521e+00 8.097281e-01
<VARIANCE> 13
 2.335285e+00 2.100469e+01 1.681827e+01 1.847432e+01 2.056102e+01 8.977960e+00 2.059661e+01 3.212522e+01 2.736265e+01 1.031779e+01 3.424112e+01 1.317436e+01 1.575897e-02
<GCONST> 5.284147e+01
<STATE> 5
<MEAN> 13
 -8.772107e+00 -1.250366e+00 1.471657e+00 -3.914257e+00 -2.325384e+00 -8.023677e+00 7.985109e-01 -6.110596e+00 3.306816e+00 -4.818205e+00 2.568538e+00 6.229144e-01 4.613457e-01
<VARIANCE> 13
 3.797452e+00 4.264171e+00 9.018523e+00 1.236230e+01 1.303000e+01 1.069457e+01 5.926990e+00 1.386651e+01 1.504632e+01 1.092115e+01 1.117297e+01 9.667146e+00 1.000000e-02
<GCONST> 4.591579e+01
<TRANSP> 6
 0.000000e+00 1.000000e+00 0.000000e+00 0.000000e+00 0.000000e+00 0.000000e+00
 0.000000e+00 9.000000e-01 9.999999e-02 0.000000e+00 0.000000e+00 0.000000e+00
 0.000000e+00 0.000000e+00 9.250000e-01 7.500000e-02 0.000000e+00 0.000000e+00
 0.000000e+00 0.000000e+00 0.000000e+00 8.333333e-01 1.666667e-01 0.000000e+00
 0.000000e+00 0.000000e+00 0.000000e+00 0.000000e+00 9.268293e-01 7.317074e-02
 0.000000e+00 0.000000e+00 0.000000e+00 0.000000e+00 0.000000e+00 0.000000e+00
<ENDHMM>
