~o
<STREAMINFO> 1 13
<VECSIZE> 13<NULLD><MFCC_0><DIAGC>
~h "lx"
<BEGINHMM>
<NUMSTATES> 6
<STATE> 2
<MEAN> 13
 -3.961899e+00 4.676136e+00 1.137929e+01 -4.672565e+00 -1.300192e+01 -3.009644e+00 -1.111067e+01 -5.902219e+00 -9.796010e+00 -1.606209e+00 -1.196942e+00 -3.595001e+00 6.985853e+01
<VARIANCE> 13
 1.427499e+01 3.243058e+01 4.691040e+01 9.155379e+01 5.842976e+01 6.415143e+01 8.015435e+01 7.003751e+01 4.622989e+01 5.270098e+01 8.199679e+01 3.829140e+01 3.767384e+01
<GCONST> 7.473637e+01
<STATE> 3
<MEAN> 13
 -2.450314e+01 9.956583e+00 2.654456e+00 -3.157772e+00 -2.427941e+00 -4.159044e+00 -4.503899e-01 -5.989106e+00 -3.725367e+00 -2.153507e+00 -2.206269e+00 -1.091942e+00 6.947501e+01
<VARIANCE> 13
 4.730868e+01 2.844660e+01 4.692756e+01 3.428724e+01 2.502253e+01 2.880633e+01 3.786002e+01 3.712277e+01 2.470198e+01 2.570721e+01 2.595181e+01 2.078320e+01 2.046466e+01
<GCONST> 6.807174e+01
<STATE> 4
<MEAN> 13
 -9.145710e+00 3.506023e+00 1.544854e+01 -9.135205e+00 -1.476939e+01 -4.539081e+00 -1.735731e+01 -8.430566e+00 -1.327101e+01 -4.120794e+00 -3.022920e+00 -3.750466e+00 7.108356e+01
<VARIANCE> 13
 1.547228e+01 2.617282e+01 4.274713e+01 9.010119e+01 2.802496e+01 4.043704e+01 4.550335e+01 6.814080e+01 2.553384e+01 4.684666e+01 7.852992e+01 3.487345e+01 2.884232e+01
<GCONST> 7.158855e+01
<STATE> 5
<MEAN> 13
 -5.432400e+00 2.832130e+00 1.046581e+01 5.967274e-01 -9.242216e+00 -2.977692e+00 -7.559011e+00 -6.175899e+00 -5.391479e+00 -5.179930e+00 -6.768970e-01 -2.497546e+00 6.471024e+01
<VARIANCE> 13
 1.503590e+01 3.050419e+01 6.560273e+01 3.547440e+01 7.449326e+01 6.264771e+01 4.392703e+01 3.832536e+01 2.832645e+01 5.695533e+01 3.669827e+01 2.691590e+01 7.595914e+01
<GCONST> 7.226171e+01
<TRANSP> 6
 0.000000e+00 1.000000e+00 0.000000e+00 0.000000e+00 0.000000e+00 0.000000e+00
 0.000000e+00 9.417827e-01 5.821732e-02 0.000000e+00 0.000000e+00 0.000000e+00
 0.000000e+00 0.000000e+00 9.120812e-01 8.791880e-02 0.000000e+00 0.000000e+00
 0.000000e+00 0.000000e+00 0.000000e+00 9.093457e-01 9.065434e-02 0.000000e+00
 0.000000e+00 0.000000e+00 0.000000e+00 0.000000e+00 8.810675e-01 1.189325e-01
 0.000000e+00 0.000000e+00 0.000000e+00 0.000000e+00 0.000000e+00 0.000000e+00
<ENDHMM>

~h "dd"
<BEGINHMM>
<NUMSTATES> 6
<STATE> 2
<MEAN> 13
 -6.275066e+00 2.570589e+00 9.028994e+00 -5.321888e+00 -1.536737e+01 -2.405864e+00 -1.051756e+01 -7.026819e+00 -9.987353e+00 -3.250230e+00 -1.466321e+00 -3.517621e+00 6.935939e+01
<VARIANCE> 13
 2.670773e+01 2.460347e+01 7.888461e+01 9.316668e+01 6.791657e+01 4.905883e+01 9.082497e+01 5.775142e+01 5.939983e+01 5.975559e+01 1.035804e+02 4.888219e+01 3.592712e+01
<GCONST> 7.624481e+01
<STATE> 3
<MEAN> 13
 1.789709e+00 5.729807e+00 6.709019e+00 4.851199e+00 -1.176393e+01 -2.157058e+00 -7.234416e+00 -1.102378e+01 -8.706600e+00 3.063928e+00 -4.816092e+00 -5.775250e+00 6.543128e+01
<VARIANCE> 13
 1.030801e+01 1.730029e+01 1.922282e+01 3.227285e+01 4.502229e+01 3.753098e+01 3.978585e+01 3.567204e+01 4.313588e+01 3.995683e+01 3.649794e+01 3.542780e+01 1.766521e+01
<GCONST> 6.768508e+01
<STATE> 4
<MEAN> 13
 2.594521e-01 -1.036161e+00 -4.002041e+00 -1.215988e+01 -7.675971e+00 -1.631807e+00 -1.388655e+01 -6.056978e+00 -7.656411e+00 -3.678364e+00 -4.362302e+00 -5.237700e+00 6.853703e+01
<VARIANCE> 13
 1.554601e+01 3.037665e+01 4.415553e+01 5.221674e+01 5.032738e+01 1.007307e+02 6.510146e+01 8.093944e+01 1.013896e+02 7.621439e+01 8.176830e+01 4.804308e+01 7.255075e+01
<GCONST> 7.640645e+01
<STATE> 5
<MEAN> 13
 -4.742420e-01 3.727978e+00 3.800625e+00 -9.373903e-01 -5.396693e+00 1.692436e+00 -4.790754e+00 -7.531241e+00 -5.090973e+00 -2.378287e-01 -4.744274e+00 -3.433677e+00 6.329176e+01
<VARIANCE> 13
 2.621004e+01 2.141392e+01 3.152232e+01 3.355888e+01 4.222073e+01 4.025425e+01 4.910052e+01 4.812945e+01 4.511140e+01 4.299389e+01 2.717892e+01 2.515190e+01 4.169305e+01
<GCONST> 7.022038e+01
<TRANSP> 6
 0.000000e+00 1.000000e+00 0.000000e+00 0.000000e+00 0.000000e+00 0.000000e+00
 0.000000e+00 8.970383e-01 1.029617e-01 0.000000e+00 0.000000e+00 0.000000e+00
 0.000000e+00 0.000000e+00 8.926684e-01 1.073316e-01 0.000000e+00 0.000000e+00
 0.000000e+00 0.000000e+00 0.000000e+00 9.297055e-01 7.029452e-02 0.000000e+00
 0.000000e+00 0.000000e+00 0.000000e+00 0.000000e+00 9.075345e-01 9.246545e-02
 0.000000e+00 0.000000e+00 0.000000e+00 0.000000e+00 0.000000e+00 0.000000e+00
<ENDHMM>
~h "rx"
<BEGINHMM>
<NUMSTATES> 6
<STATE> 2
<MEAN> 13
 -2.636535e+00 -1.561109e+00 8.597449e+00 -2.348239e+00 -1.288587e+01 -6.183105e+00 -1.562092e+01 -3.725204e+00 -6.440683e+00 -2.667423e+00 -2.815965e+00 -2.353868e+00 7.074207e+01
<VARIANCE> 13
 2.613079e+01 4.393674e+01 6.344435e+01 8.563816e+01 6.095704e+01 5.291549e+01 5.177549e+01 7.472573e+01 7.560205e+01 4.860904e+01 6.882688e+01 3.868661e+01 3.943845e+01
<GCONST> 7.564930e+01
<STATE> 3
<MEAN> 13
 -2.302946e+01 8.952119e+00 4.529189e+00 -4.009657e+00 -2.866756e+00 -4.097954e+00 -1.736112e+00 -4.272414e+00 -2.450060e+00 -1.114816e+00 -1.215999e+00 2.840472e-01 6.783437e+01
<VARIANCE> 13
 4.773153e+01 2.660097e+01 5.393439e+01 3.043779e+01 2.668612e+01 2.903331e+01 3.105414e+01 3.177486e+01 2.419732e+01 2.601431e+01 2.290983e+01 2.127011e+01 1.730015e+01
<GCONST> 6.747386e+01
<STATE> 4
<MEAN> 13
 -3.939261e+00 4.656060e+00 1.136217e+01 -7.870926e+00 -1.310852e+01 -1.061588e+00 -1.081066e+01 -7.416595e+00 -1.051309e+01 -8.098862e-01 -1.579543e+00 -4.927663e+00 7.008797e+01
<VARIANCE> 13
 1.735902e+01 2.239123e+01 4.989271e+01 8.450191e+01 3.325796e+01 6.316619e+01 6.490791e+01 7.450626e+01 4.554649e+01 7.495411e+01 7.704171e+01 4.426617e+01 1.204600e+01
<GCONST> 7.309466e+01
<STATE> 5
<MEAN> 13
 -1.844988e+00 2.351742e+00 3.891506e+00 -5.549333e-01 -4.811166e+00 -2.638693e+00 -7.031163e+00 -5.308181e+00 -5.290671e+00 -1.700955e+00 -4.585722e+00 -3.803104e+00 6.127568e+01
<VARIANCE> 13
 1.994121e+01 2.945335e+01 4.004300e+01 6.482432e+01 4.340208e+01 5.252991e+01 6.779574e+01 4.958208e+01 4.960190e+01 4.521450e+01 3.614259e+01 3.366893e+01 4.947857e+01
<GCONST> 7.270269e+01
<TRANSP> 6
 0.000000e+00 1.000000e+00 0.000000e+00 0.000000e+00 0.000000e+00 0.000000e+00
 0.000000e+00 9.321391e-01 6.786090e-02 0.000000e+00 0.000000e+00 0.000000e+00
 0.000000e+00 0.000000e+00 9.129093e-01 8.709072e-02 0.000000e+00 0.000000e+00
 0.000000e+00 0.000000e+00 0.000000e+00 8.758399e-01 1.241601e-01 0.000000e+00
 0.000000e+00 0.000000e+00 0.000000e+00 0.000000e+00 9.095092e-01 9.049080e-02
 0.000000e+00 0.000000e+00 0.000000e+00 0.000000e+00 0.000000e+00 0.000000e+00
<ENDHMM>
~h "sil"
<BEGINHMM>
<NUMSTATES> 6
<STATE> 2
<MEAN> 13
 -7.298779e+00 -3.582392e+00 -5.947919e+00 -5.369813e+00 -1.307065e+00 -1.103919e+00 -2.972037e+00 -1.421745e+00 -4.358964e-01 1.013444e+00 -2.734427e+00 -4.347738e+00 5.632812e+01
<VARIANCE> 13
 1.831722e+01 1.425173e+01 1.868080e+01 2.896539e+01 3.274165e+01 2.711129e+01 2.534375e+01 2.552117e+01 2.479210e+01 2.797155e+01 2.211584e+01 2.346940e+01 1.851199e+01
<GCONST> 6.472348e+01
<STATE> 3
<MEAN> 13
 -9.202759e+00 -2.711078e+00 -3.002559e+00 -2.176601e+00 -1.642082e+00 -1.074332e+00 -2.786981e+00 -1.155993e+00 -1.394474e+00 -1.335966e+00 -1.709544e+00 -5.207188e-01 4.916916e+01
<VARIANCE> 13
 8.304496e+00 7.917726e+00 1.067525e+01 1.268324e+01 1.779127e+01 1.839164e+01 1.623839e+01 2.006944e+01 1.770946e+01 1.728544e+01 1.755437e+01 1.599237e+01 2.456491e+01
<GCONST> 5.912639e+01
<STATE> 4
<MEAN> 13
 -1.136277e+01 -5.577086e+00 -2.716455e+00 -3.198210e+00 -1.534678e+00 -2.748897e+00 -3.022886e+00 -1.334016e+00 -2.101083e+00 -2.436650e+00 -3.162021e-01 -6.076674e-01 5.906684e+01
<VARIANCE> 13
 2.195001e+01 3.119399e+01 3.246108e+01 2.898068e+01 4.650391e+01 4.039337e+01 3.540834e+01 4.140083e+01 3.195190e+01 2.953286e+01 2.891208e+01 2.352633e+01 2.595848e+01
<GCONST> 6.872514e+01
<STATE> 5
<MEAN> 13
 -9.006395e+00 -2.506704e+00 -3.371257e+00 -4.539963e+00 -2.871096e+00 -2.337241e+00 -3.978918e+00 -2.393332e+00 -1.553884e+00 -1.703208e+00 -2.454832e+00 -8.818122e-01 5.409068e+01
<VARIANCE> 13
 8.937148e+00 9.203032e+00 1.212042e+01 1.480544e+01 1.589647e+01 1.942294e+01 2.034983e+01 2.168263e+01 2.061318e+01 1.951037e+01 1.946215e+01 1.631980e+01 8.520705e+00
<GCONST> 5.921440e+01
<TRANSP> 6
 0.000000e+00 1.000000e+00 0.000000e+00 0.000000e+00 0.000000e+00 0.000000e+00
 0.000000e+00 8.573439e-01 1.426561e-01 0.000000e+00 0.000000e+00 0.000000e+00
 0.000000e+00 0.000000e+00 9.200202e-01 7.997982e-02 0.000000e+00 0.000000e+00
 0.000000e+00 0.000000e+00 0.000000e+00 8.658924e-01 1.341076e-01 0.000000e+00
 0.000000e+00 0.000000e+00 0.000000e+00 0.000000e+00 9.391909e-01 6.080911e-02
 0.000000e+00 0.000000e+00 0.000000e+00 0.000000e+00 0.000000e+00 0.000000e+00
<ENDHMM>

