~o
<STREAMINFO> 1 13
<VECSIZE> 13<NULLD><MFCC_0><DIAGC>
~h "lx"
<BEGINHMM>
<NUMSTATES> 6
<STATE> 2
<MEAN> 13
 -3.961903e+00 4.676139e+00 1.137930e+01 -4.672540e+00 -1.300191e+01 -3.009657e+00 -1.111062e+01 -5.902213e+00 -9.796001e+00 -1.606183e+00 -1.196930e+00 -3.594987e+00 6.985858e+01
<VARIANCE> 13
 1.427507e+01 3.243051e+01 4.691056e+01 9.155366e+01 5.842968e+01 6.415201e+01 8.015455e+01 7.003715e+01 4.623000e+01 5.270095e+01 8.199725e+01 3.829143e+01 3.767341e+01
<GCONST> 7.473638e+01
<STATE> 3
<MEAN> 13
 -2.450312e+01 9.956558e+00 2.654475e+00 -3.157757e+00 -2.427964e+00 -4.159045e+00 -4.503718e-01 -5.989113e+00 -3.725359e+00 -2.153501e+00 -2.206266e+00 -1.091924e+00 6.947504e+01
<VARIANCE> 13
 4.730853e+01 2.844642e+01 4.692749e+01 3.428722e+01 2.502247e+01 2.880628e+01 3.786032e+01 3.712269e+01 2.470197e+01 2.570718e+01 2.595174e+01 2.078326e+01 2.046445e+01
<GCONST> 6.807172e+01
<STATE> 4
<MEAN> 13
 -9.145724e+00 3.506088e+00 1.544856e+01 -9.135178e+00 -1.476935e+01 -4.539092e+00 -1.735728e+01 -8.430611e+00 -1.327104e+01 -4.120734e+00 -3.022885e+00 -3.750410e+00 7.108365e+01
<VARIANCE> 13
 1.547214e+01 2.617227e+01 4.274706e+01 9.010069e+01 2.802498e+01 4.043680e+01 4.550323e+01 6.814082e+01 2.553396e+01 4.684692e+01 7.852986e+01 3.487350e+01 2.884202e+01
<GCONST> 7.158850e+01
<STATE> 5
<MEAN> 13
 -5.432399e+00 2.832155e+00 1.046580e+01 5.967494e-01 -9.242207e+00 -2.977706e+00 -7.558971e+00 -6.175910e+00 -5.391439e+00 -5.179933e+00 -6.768731e-01 -2.497536e+00 6.471024e+01
<VARIANCE> 13
 1.503593e+01 3.050427e+01 6.560224e+01 3.547398e+01 7.449306e+01 6.264828e+01 4.392702e+01 3.832515e+01 2.832653e+01 5.695535e+01 3.669856e+01 2.691583e+01 7.595884e+01
<GCONST> 7.226170e+01
<TRANSP> 6
 0.000000e+00 1.000000e+00 0.000000e+00 0.000000e+00 0.000000e+00 0.000000e+00
 0.000000e+00 9.417827e-01 5.821738e-02 0.000000e+00 0.000000e+00 0.000000e+00
 0.000000e+00 0.000000e+00 9.120810e-01 8.791900e-02 0.000000e+00 0.000000e+00
 0.000000e+00 0.000000e+00 0.000000e+00 9.093456e-01 9.065444e-02 0.000000e+00
 0.000000e+00 0.000000e+00 0.000000e+00 0.000000e+00 8.810686e-01 1.189314e-01
 0.000000e+00 0.000000e+00 0.000000e+00 0.000000e+00 0.000000e+00 0.000000e+00
<ENDHMM>
