~o
<STREAMINFO> 1 13
<VECSIZE> 13<NULLD><MFCC_0><DIAGC>
~h "lx"
<BEGINHMM>
<NUMSTATES> 6
<STATE> 2
<MEAN> 13
 -3.959940e+00 4.686296e+00 1.137832e+01 -4.654888e+00 -1.297590e+01 -3.016972e+00 -1.109494e+01 -5.913415e+00 -9.793624e+00 -1.614932e+00 -1.183010e+00 -3.578568e+00 6.986583e+01
<VARIANCE> 13
 1.415685e+01 3.237344e+01 4.685986e+01 9.149877e+01 5.859514e+01 6.411330e+01 8.020985e+01 7.007979e+01 4.617662e+01 5.263159e+01 8.189641e+01 3.833591e+01 3.760601e+01
<GCONST> 7.472381e+01
<STATE> 3
<MEAN> 13
 -2.459921e+01 9.964573e+00 2.610303e+00 -3.191815e+00 -2.418595e+00 -4.150312e+00 -4.143997e-01 -5.967964e+00 -3.712821e+00 -2.131620e+00 -2.229312e+00 -1.108045e+00 6.945660e+01
<VARIANCE> 13
 4.576744e+01 2.862463e+01 4.659815e+01 3.421315e+01 2.506783e+01 2.858021e+01 3.751870e+01 3.697030e+01 2.465569e+01 2.560183e+01 2.580876e+01 2.074195e+01 2.047675e+01
<GCONST> 6.800349e+01
<STATE> 4
<MEAN> 13
 -9.142898e+00 3.506601e+00 1.542750e+01 -9.237395e+00 -1.476423e+01 -4.542474e+00 -1.743851e+01 -8.403171e+00 -1.337694e+01 -4.046481e+00 -3.061733e+00 -3.799356e+00 7.106021e+01
<VARIANCE> 13
 1.556952e+01 2.606647e+01 4.276535e+01 8.983374e+01 2.772750e+01 4.035509e+01 4.506091e+01 6.869005e+01 2.494012e+01 4.637339e+01 7.914120e+01 3.461793e+01 2.900624e+01
<GCONST> 7.154613e+01
<STATE> 5
<MEAN> 13
 -5.484551e+00 2.845832e+00 1.055373e+01 6.286106e-01 -9.313738e+00 -2.995134e+00 -7.580746e+00 -6.241665e+00 -5.333748e+00 -5.271348e+00 -6.584080e-01 -2.446316e+00 6.482837e+01
<VARIANCE> 13
 1.506108e+01 3.054004e+01 6.584215e+01 3.485882e+01 7.458331e+01 6.270359e+01 4.348066e+01 3.812637e+01 2.756789e+01 5.729305e+01 3.626998e+01 2.719850e+01 7.608474e+01
<GCONST> 7.221651e+01
<TRANSP> 6
 0.000000e+00 1.000000e+00 0.000000e+00 0.000000e+00 0.000000e+00 0.000000e+00
 0.000000e+00 9.419134e-01 5.808656e-02 0.000000e+00 0.000000e+00 0.000000e+00
 0.000000e+00 0.000000e+00 9.116501e-01 8.834994e-02 0.000000e+00 0.000000e+00
 0.000000e+00 0.000000e+00 0.000000e+00 9.085612e-01 9.143881e-02 0.000000e+00
 0.000000e+00 0.000000e+00 0.000000e+00 0.000000e+00 8.826237e-01 1.173763e-01
 0.000000e+00 0.000000e+00 0.000000e+00 0.000000e+00 0.000000e+00 0.000000e+00
<ENDHMM>
