~o
<STREAMINFO> 1 13
<VECSIZE> 13<NULLD><MFCC_0><DIAGC>
~h "rx"
<BEGINHMM>
<NUMSTATES> 6
<STATE> 2
<MEAN> 13
 -2.623645e+00 -1.575010e+00 8.606204e+00 -2.357309e+00 -1.290442e+01 -6.184412e+00 -1.563006e+01 -3.713838e+00 -6.443664e+00 -2.668709e+00 -2.815778e+00 -2.353193e+00 7.075009e+01
<VARIANCE> 13
 2.598073e+01 4.374020e+01 6.360652e+01 8.568855e+01 6.075076e+01 5.288819e+01 5.172214e+01 7.468832e+01 7.565370e+01 4.860614e+01 6.883175e+01 3.871675e+01 3.938964e+01
<GCONST> 7.563699e+01
<STATE> 3
<MEAN> 13
 -2.306316e+01 8.970105e+00 4.512885e+00 -3.993002e+00 -2.834118e+00 -4.105324e+00 -1.730657e+00 -4.289833e+00 -2.450709e+00 -1.104003e+00 -1.212393e+00 2.850341e-01 6.782433e+01
<VARIANCE> 13
 4.693788e+01 2.661776e+01 5.360279e+01 3.048950e+01 2.643403e+01 2.896743e+01 3.094318e+01 3.188461e+01 2.418489e+01 2.586237e+01 2.287477e+01 2.120588e+01 1.732881e+01
<GCONST> 6.743209e+01
<STATE> 4
<MEAN> 13
 -4.091725e+00 4.813100e+00 1.171412e+01 -8.081522e+00 -1.316206e+01 -5.082357e-01 -1.092660e+01 -7.383651e+00 -1.040625e+01 -5.827998e-01 -1.470428e+00 -5.061928e+00 7.017683e+01
<VARIANCE> 13
 1.682741e+01 2.128754e+01 4.791102e+01 8.366001e+01 3.265262e+01 5.281774e+01 6.544872e+01 7.634821e+01 4.547939e+01 7.354287e+01 7.844096e+01 4.410556e+01 1.187224e+01
<GCONST> 7.277724e+01
<STATE> 5
<MEAN> 13
 -1.787781e+00 2.300321e+00 3.837874e+00 -5.940987e-01 -4.986712e+00 -2.975322e+00 -7.038719e+00 -5.376391e+00 -5.483428e+00 -1.845032e+00 -4.588902e+00 -3.735892e+00 6.143700e+01
<VARIANCE> 13
 1.979342e+01 2.955895e+01 3.936066e+01 6.496638e+01 4.463696e+01 5.848925e+01 6.704400e+01 4.904717e+01 5.087457e+01 4.671226e+01 3.594920e+01 3.386245e+01 4.949363e+01
<GCONST> 7.285594e+01
<TRANSP> 6
 0.000000e+00 1.000000e+00 0.000000e+00 0.000000e+00 0.000000e+00 0.000000e+00
 0.000000e+00 9.320987e-01 6.790123e-02 0.000000e+00 0.000000e+00 0.000000e+00
 0.000000e+00 0.000000e+00 9.128521e-01 8.714788e-02 0.000000e+00 0.000000e+00
 0.000000e+00 0.000000e+00 0.000000e+00 8.715120e-01 1.284880e-01 0.000000e+00
 0.000000e+00 0.000000e+00 0.000000e+00 0.000000e+00 9.118040e-01 8.819599e-02
 0.000000e+00 0.000000e+00 0.000000e+00 0.000000e+00 0.000000e+00 0.000000e+00
<ENDHMM>
