~o
<STREAMINFO> 1 13
<VECSIZE> 13<NULLD><MFCC_0><DIAGC>
~h "sil"
<BEGINHMM>
<NUMSTATES> 6
<STATE> 2
<MEAN> 13
 -7.464679e+00 -3.495169e+00 -6.070913e+00 -5.718372e+00 -1.548201e+00 -1.319204e+00 -3.075233e+00 -1.587344e+00 -7.647017e-01 7.883262e-01 -3.046422e+00 -4.098555e+00 5.623368e+01
<VARIANCE> 13
 1.742573e+01 1.344443e+01 1.819077e+01 2.738191e+01 3.131940e+01 2.710528e+01 2.473808e+01 2.519106e+01 2.561361e+01 2.778079e+01 2.303734e+01 2.335619e+01 1.720999e+01
<GCONST> 6.443945e+01
<STATE> 3
<MEAN> 13
 -9.231380e+00 -2.541941e+00 -2.971693e+00 -2.078353e+00 -1.516333e+00 -9.083023e-01 -2.644471e+00 -1.030283e+00 -1.377467e+00 -1.170408e+00 -1.668631e+00 -5.014592e-01 4.904003e+01
<VARIANCE> 13
 8.602188e+00 7.530109e+00 1.073278e+01 1.288964e+01 1.806391e+01 1.809176e+01 1.593901e+01 1.969500e+01 1.739933e+01 1.705391e+01 1.725201e+01 1.587930e+01 2.549617e+01
<GCONST> 5.907584e+01
<STATE> 4
<MEAN> 13
 -1.135060e+01 -5.434721e+00 -2.608766e+00 -3.221273e+00 -1.609828e+00 -2.707728e+00 -3.114121e+00 -1.542909e+00 -2.233798e+00 -2.451669e+00 -2.896667e-01 -6.396888e-01 5.911768e+01
<VARIANCE> 13
 2.267086e+01 3.172832e+01 3.274078e+01 2.968097e+01 4.626626e+01 4.046156e+01 3.563673e+01 4.122963e+01 3.206256e+01 2.957377e+01 2.865177e+01 2.396294e+01 2.497168e+01
<GCONST> 6.878116e+01
<STATE> 5
<MEAN> 13
 -8.983732e+00 -2.675968e+00 -3.255569e+00 -4.296700e+00 -2.835102e+00 -2.368244e+00 -3.986897e+00 -2.302276e+00 -1.388553e+00 -1.809644e+00 -2.315593e+00 -8.271571e-01 5.384312e+01
<VARIANCE> 13
 8.379279e+00 9.553089e+00 1.097931e+01 1.376417e+01 1.574197e+01 1.900288e+01 2.015670e+01 2.191102e+01 2.013065e+01 1.929228e+01 1.883887e+01 1.611207e+01 8.806421e+00
<GCONST> 5.893748e+01
<TRANSP> 6
 0.000000e+00 1.000000e+00 0.000000e+00 0.000000e+00 0.000000e+00 0.000000e+00
 0.000000e+00 8.709677e-01 1.290323e-01 0.000000e+00 0.000000e+00 0.000000e+00
 0.000000e+00 0.000000e+00 9.148715e-01 8.512847e-02 0.000000e+00 0.000000e+00
 0.000000e+00 0.000000e+00 0.000000e+00 8.677952e-01 1.322048e-01 0.000000e+00
 0.000000e+00 0.000000e+00 0.000000e+00 0.000000e+00 9.388516e-01 6.114839e-02
 0.000000e+00 0.000000e+00 0.000000e+00 0.000000e+00 0.000000e+00 0.000000e+00
<ENDHMM>
