~o
<STREAMINFO> 1 26
<VECSIZE> 26<NULLD><MFCC_D_0><DIAGC>
~h "sil"
<BEGINHMM>
<NUMSTATES> 12
<STATE> 2
<MEAN> 26
 -7.739970e+00 -2.734253e+00 -4.154635e+00 -3.113492e+00 1.187541e+00 -1.569510e+00 -1.988593e+00 -4.814879e-01 -5.206675e-01 1.538384e+00 -2.253253e+00 -4.400032e+00 5.796158e+01 -4.898319e-02 -1.900802e-01 -1.179857e-01 9.071624e-02 -2.124099e-01 -8.031192e-02 5.866037e-03 -6.659215e-02 1.245716e-02 -2.014119e-01 -4.348709e-02 1.044244e-01 -1.811646e-01
<VARIANCE> 26
 2.954504e+01 1.744689e+01 1.706534e+01 2.222433e+01 3.712466e+01 3.693689e+01 3.023942e+01 2.748442e+01 2.716554e+01 3.006204e+01 2.024633e+01 2.579186e+01 2.298293e+01 1.644599e+00 1.064113e+00 1.423769e+00 1.466469e+00 1.820495e+00 2.130291e+00 2.334155e+00 2.158730e+00 2.330130e+00 2.156686e+00 1.778992e+00 1.747938e+00 7.485354e-01
<GCONST> 9.674007e+01
<STATE> 3
<MEAN> 26
 -1.047547e+01 -2.046612e+00 -3.664267e+00 -4.984186e+00 -2.752552e+00 -2.767738e+00 -4.334914e+00 -3.897173e+00 -2.986507e+00 -2.007226e+00 -2.971791e+00 -1.786219e+00 5.512981e+01 -4.278959e-02 2.153757e-02 -2.886127e-02 -6.003842e-02 1.612623e-02 -4.063519e-02 5.747967e-02 -9.029633e-03 2.230904e-02 -6.778942e-02 6.288647e-02 1.180840e-01 -1.187297e-01
<VARIANCE> 26
 1.260131e+01 8.763750e+00 1.624536e+01 1.733657e+01 1.743071e+01 1.818572e+01 2.057751e+01 2.054621e+01 2.174347e+01 1.954252e+01 1.832302e+01 1.647586e+01 1.037506e+01 4.404491e-01 5.196007e-01 9.737484e-01 1.036667e+00 1.364996e+00 1.451236e+00 1.718466e+00 1.733070e+00 1.843293e+00 1.610560e+00 1.749799e+00 1.307348e+00 2.357534e-01
<GCONST> 8.481728e+01
<STATE> 4
<MEAN> 26
 -8.260015e+00 -2.730830e+00 -3.162188e+00 -4.057552e+00 -2.651475e+00 -1.947420e+00 -3.463148e+00 -2.500006e+00 -1.019636e+00 -1.485943e+00 -2.240330e+00 -9.680044e-01 5.233135e+01 1.340484e-02 -7.126331e-02 -2.818625e-02 1.202638e-02 1.850104e-02 -1.076484e-02 -8.379514e-03 6.019303e-02 2.686138e-02 -1.471885e-02 1.908964e-02 5.995765e-02 -3.968856e-02
<VARIANCE> 26
 4.969849e+00 5.605850e+00 7.979791e+00 1.207266e+01 1.416374e+01 1.624558e+01 1.786445e+01 1.797182e+01 1.833955e+01 1.664698e+01 1.664828e+01 1.523144e+01 6.576372e+00 2.080660e-01 3.743417e-01 5.395415e-01 7.819006e-01 1.082446e+00 1.234356e+00 1.437914e+00 1.416690e+00 1.551345e+00 1.454160e+00 1.486048e+00 1.295970e+00 8.446112e-02
<GCONST> 7.661362e+01
<STATE> 5
<MEAN> 26
 -9.946771e+00 -4.807905e+00 -3.864469e+00 -2.223935e+00 1.094060e+00 -5.559611e-01 -2.130422e+00 -1.786439e+00 -2.318514e+00 -1.966809e+00 -6.021135e-01 4.187781e-01 5.374366e+01 -2.406689e-01 -1.688333e-01 1.287650e-02 3.946166e-02 2.997123e-02 -1.115277e-01 -2.764596e-02 7.574789e-02 -3.714486e-02 -8.836929e-02 9.967827e-02 2.408733e-02 2.235699e-01
<VARIANCE> 26
 1.494755e+01 2.438085e+01 2.140771e+01 2.042289e+01 4.075374e+01 3.753431e+01 2.611519e+01 2.866200e+01 2.665741e+01 2.142944e+01 2.578707e+01 2.227937e+01 6.828134e+01 1.142103e+00 2.551659e+00 1.767931e+00 1.312135e+00 4.740832e+00 4.716698e+00 2.723450e+00 2.639490e+00 2.709847e+00 2.111828e+00 2.824504e+00 2.548459e+00 2.633660e+00
<GCONST> 1.023170e+02
<STATE> 6
<MEAN> 26
 -9.878733e+00 -5.526505e+00 -3.434358e+00 -2.634452e+00 -1.876641e+00 -4.993536e+00 -3.675287e+00 8.562589e-02 -1.246245e+00 -3.299761e+00 -2.364056e+00 -5.298228e-01 5.510760e+01 -2.135994e-02 -1.049704e-02 9.432063e-03 -1.258847e-01 -2.727345e-01 -1.394943e-01 -5.067795e-02 1.875938e-01 1.401515e-01 -1.824341e-02 -9.861001e-02 -7.479117e-02 -6.089098e-02
<VARIANCE> 26
 6.701907e+00 1.614784e+01 1.077007e+01 1.542855e+01 1.698756e+01 2.108516e+01 2.185128e+01 3.000538e+01 2.134335e+01 2.506457e+01 1.899440e+01 1.555270e+01 1.206179e+01 3.073154e-01 4.575338e-01 6.743881e-01 8.759973e-01 1.227039e+00 1.704053e+00 1.797415e+00 2.077599e+00 1.700966e+00 1.841012e+00 1.513753e+00 1.274433e+00 2.132991e-01
<GCONST> 8.422987e+01
<STATE> 7
<MEAN> 26
 -1.209716e+01 -5.139006e+00 -2.986740e+00 -4.384536e+00 -4.262753e+00 -3.557246e+00 -4.269265e+00 -4.577604e-01 -9.501833e-01 -1.471846e+00 -5.820082e-01 -8.629174e-01 5.777204e+01 1.553328e-01 7.475612e-02 -1.406257e-01 -3.639256e-02 -1.876904e-02 2.061294e-01 -2.822486e-02 -1.344529e-01 7.592624e-02 5.299193e-02 -2.545740e-02 -1.012825e-02 -1.863608e-01
<VARIANCE> 26
 1.693345e+01 1.620780e+01 1.489312e+01 2.554231e+01 2.539012e+01 2.616133e+01 2.902437e+01 3.492443e+01 2.915153e+01 2.499524e+01 2.423977e+01 2.019280e+01 2.345105e+01 4.794675e-01 6.362504e-01 8.373018e-01 1.076345e+00 1.514313e+00 1.774526e+00 1.791285e+00 2.168797e+00 2.161472e+00 2.237551e+00 1.708327e+00 1.468424e+00 2.943742e-01
<GCONST> 9.102754e+01
<STATE> 8
<MEAN> 26
 -6.997240e+00 -4.472058e+00 -6.262009e+00 -7.419813e+00 -3.740402e+00 -8.531191e-01 -3.884728e+00 -2.113584e+00 -1.093576e+00 -1.079638e+00 -3.277686e+00 -3.071965e+00 5.441268e+01 1.351713e-03 7.919464e-02 3.954090e-02 1.073135e-01 8.849303e-02 8.077215e-02 5.504756e-02 5.160462e-03 -1.520476e-02 1.050272e-01 -2.455060e-02 3.868233e-02 -1.031375e-01
<VARIANCE> 26
 6.771636e+00 9.343807e+00 1.876646e+01 2.295780e+01 1.503245e+01 2.121901e+01 2.109424e+01 2.054045e+01 1.982336e+01 2.709256e+01 2.565256e+01 2.138994e+01 1.321999e+01 2.541992e-01 4.677442e-01 6.662763e-01 9.465849e-01 1.088705e+00 1.408505e+00 1.431763e+00 1.600761e+00 1.668781e+00 1.785967e+00 1.680793e+00 1.417163e+00 9.202175e-02
<GCONST> 8.325066e+01
<STATE> 9
<MEAN> 26
 -9.245033e+00 -2.447579e+00 -3.559292e+00 -2.686645e+00 -1.944275e+00 -7.776075e-01 -2.496486e+00 -7.132794e-01 -6.714182e-01 -9.472430e-01 -1.362409e+00 -4.454553e-01 4.892167e+01 -8.506458e-03 7.000200e-02 1.452172e-02 1.299848e-02 4.750516e-02 3.943654e-02 5.991884e-03 2.346140e-02 -2.576911e-02 7.852592e-02 6.884988e-02 7.592911e-02 -3.243083e-02
<VARIANCE> 26
 5.880457e+00 5.062025e+00 7.766603e+00 1.219124e+01 1.348227e+01 1.412110e+01 1.418783e+01 1.705919e+01 1.619094e+01 1.611918e+01 1.565231e+01 1.459191e+01 2.434122e+01 2.310081e-01 3.633491e-01 5.682166e-01 8.696961e-01 1.001825e+00 1.308701e+00 1.271477e+00 1.447769e+00 1.525461e+00 1.494197e+00 1.367954e+00 1.200697e+00 1.062535e-01
<GCONST> 7.743127e+01
<STATE> 10
<MEAN> 26
 -1.089895e+01 -1.782647e+00 -3.533722e+00 -3.136944e+00 -2.627974e+00 -1.359956e+00 -3.485106e+00 -1.277567e+00 -1.846691e+00 -4.527913e-01 -1.533062e+00 -5.221981e-01 5.166370e+01 1.826045e-02 2.226618e-01 2.758457e-01 1.563340e-01 1.171912e-01 4.765070e-02 -8.654956e-02 -1.997028e-01 -1.389213e-01 -3.657581e-02 -8.369388e-02 -7.585976e-02 3.492741e-01
<VARIANCE> 26
 1.317244e+01 9.236135e+00 1.365196e+01 1.615968e+01 1.816552e+01 1.936683e+01 2.219553e+01 2.213291e+01 2.183599e+01 2.065466e+01 2.328180e+01 1.980118e+01 1.502775e+01 9.920644e-01 8.293271e-01 1.397535e+00 1.498654e+00 2.003747e+00 1.863423e+00 2.261299e+00 2.424884e+00 2.074262e+00 1.985736e+00 2.201051e+00 1.742173e+00 6.183233e-01
<GCONST> 9.083955e+01
<STATE> 11
<MEAN> 26
 -7.879028e+00 -1.064731e+00 -2.755969e-01 -1.735301e+00 -1.712724e+00 -6.914985e-01 -3.528716e+00 -3.740599e+00 -3.110835e+00 -2.135293e+00 -1.621087e+00 -6.514986e-01 5.637975e+01 6.315701e-01 7.881218e-01 1.201119e+00 4.679089e-01 -2.905507e-01 -4.726511e-01 -8.138289e-01 -4.653734e-01 -5.181897e-01 -2.629935e-01 -1.269001e-01 -1.842787e-01 1.392874e+00
<VARIANCE> 26
 1.942245e+01 3.568631e+01 5.449578e+01 2.730984e+01 4.218151e+01 3.140140e+01 3.043333e+01 3.570752e+01 2.642703e+01 2.606935e+01 3.040179e+01 2.278960e+01 4.211713e+01 2.852949e+00 3.484029e+00 5.058711e+00 2.746681e+00 5.201706e+00 4.849685e+00 4.790143e+00 3.728995e+00 3.346598e+00 2.829965e+00 3.137254e+00 2.532702e+00 4.213785e+00
<GCONST> 1.094254e+02
<TRANSP> 12
 0.000000e+00 1.000000e+00 0.000000e+00 0.000000e+00 0.000000e+00 0.000000e+00 0.000000e+00 0.000000e+00 0.000000e+00 0.000000e+00 0.000000e+00 0.000000e+00
 0.000000e+00 7.675932e-01 2.324068e-01 0.000000e+00 0.000000e+00 0.000000e+00 0.000000e+00 0.000000e+00 0.000000e+00 0.000000e+00 0.000000e+00 0.000000e+00
 0.000000e+00 0.000000e+00 7.403047e-01 2.596954e-01 0.000000e+00 0.000000e+00 0.000000e+00 0.000000e+00 0.000000e+00 0.000000e+00 0.000000e+00 0.000000e+00
 0.000000e+00 0.000000e+00 0.000000e+00 8.871489e-01 1.128511e-01 0.000000e+00 0.000000e+00 0.000000e+00 0.000000e+00 0.000000e+00 0.000000e+00 0.000000e+00
 0.000000e+00 0.000000e+00 0.000000e+00 0.000000e+00 7.563763e-01 2.436237e-01 0.000000e+00 0.000000e+00 0.000000e+00 0.000000e+00 0.000000e+00 0.000000e+00
 0.000000e+00 0.000000e+00 0.000000e+00 0.000000e+00 0.000000e+00 7.275659e-01 2.724342e-01 0.000000e+00 0.000000e+00 0.000000e+00 0.000000e+00 0.000000e+00
 0.000000e+00 0.000000e+00 0.000000e+00 0.000000e+00 0.000000e+00 0.000000e+00 7.701293e-01 2.298707e-01 0.000000e+00 0.000000e+00 0.000000e+00 0.000000e+00
 0.000000e+00 0.000000e+00 0.000000e+00 0.000000e+00 0.000000e+00 0.000000e+00 0.000000e+00 7.897233e-01 2.102767e-01 0.000000e+00 0.000000e+00 0.000000e+00
 0.000000e+00 0.000000e+00 0.000000e+00 0.000000e+00 0.000000e+00 0.000000e+00 0.000000e+00 0.000000e+00 8.437431e-01 1.562569e-01 0.000000e+00 0.000000e+00
 0.000000e+00 0.000000e+00 0.000000e+00 0.000000e+00 0.000000e+00 0.000000e+00 0.000000e+00 0.000000e+00 0.000000e+00 6.701994e-01 3.298006e-01 0.000000e+00
 0.000000e+00 0.000000e+00 0.000000e+00 0.000000e+00 0.000000e+00 0.000000e+00 0.000000e+00 0.000000e+00 0.000000e+00 0.000000e+00 6.515340e-01 3.484660e-01
 0.000000e+00 0.000000e+00 0.000000e+00 0.000000e+00 0.000000e+00 0.000000e+00 0.000000e+00 0.000000e+00 0.000000e+00 0.000000e+00 0.000000e+00 0.000000e+00
<ENDHMM>
