~o
<STREAMINFO> 1 39
<VECSIZE> 39<NULLD><MFCC_D_A_0><DIAGC>
~h "hello"
<BEGINHMM>
<NUMSTATES> 10
<STATE> 2
<MEAN> 39
 -1.092416e+001 -1.291890e+001 -4.744269e+000 -2.352775e+001 2.163907e+001 9.140488e+000 9.691049e-001 -1.933254e+001 1.884220e+001 -7.283305e+000 5.733839e+000 -6.739959e+000 6.738379e+001 8.199540e-001 2.740239e-001 7.735701e-002 -3.809225e-001 1.295857e-001 -1.054979e+000 2.950969e-001 4.180300e-001 -1.693531e+000 4.359280e-003 -1.158406e+000 2.652469e-002 1.557190e+000 4.825044e-001 2.618096e-002 -1.823868e-002 1.277413e-001 -3.602274e-001 6.648880e-002 -2.583252e-001 3.187448e-001 -8.790272e-001 4.832732e-001 -5.354526e-001 5.184423e-001 -2.876984e-001
<VARIANCE> 39
 2.019551e+001 3.267759e+001 2.368590e+001 2.693059e+001 2.295820e+001 3.324908e+001 2.731169e+001 2.303768e+001 4.229155e+001 2.123516e+001 5.964682e+001 1.621739e+001 1.030090e+001 6.070524e+000 3.331156e+000 3.665286e+000 2.703689e+000 3.494171e+000 3.629306e+000 3.133042e+000 2.992430e+000 8.415985e+000 3.038715e+000 4.361816e+000 2.946568e+000 1.720350e+000 5.890363e-001 6.337719e-001 6.738678e-001 5.823419e-001 6.618108e-001 7.648633e-001 3.788069e-001 6.011664e-001 7.225623e-001 5.163254e-001 5.374530e-001 5.653859e-001 7.451417e-001
<GCONST> 1.235803e+002
<STATE> 3
<MEAN> 39
 9.873959e-001 -1.214564e+001 -3.503272e+000 -2.832603e+001 1.786568e+001 4.153224e+000 -1.398143e+000 -1.120219e+001 -2.084914e+000 1.365932e+000 -9.877411e+000 2.930672e-001 7.770854e+001 8.792627e-001 -5.509523e-001 -3.777706e-001 9.038714e-002 -1.558166e+000 1.964277e-001 1.845447e-002 6.268432e-001 -1.014336e+000 7.509302e-001 -1.093883e+000 3.877569e-001 9.119881e-001 -3.756422e-001 -2.611962e-001 -1.378287e-001 5.567943e-001 -3.097632e-001 1.573479e-001 3.742796e-001 -4.641457e-001 9.435625e-001 -3.890019e-001 5.121936e-001 -5.454451e-001 -3.603308e-001
<VARIANCE> 39
 2.387542e+000 4.132174e+000 9.531981e+000 1.170033e+001 1.795413e+001 1.805264e+001 1.146264e+001 1.273082e+001 2.383517e+001 1.640537e+001 2.107182e+001 9.134458e+000 7.922201e+000 9.529027e-001 5.235843e-001 7.235502e-001 3.392779e+000 2.723255e+000 1.596031e+000 1.944210e+000 2.680923e+000 5.368444e+000 2.558985e+000 2.244750e+000 3.016416e+000 9.761503e-001 2.265299e-001 1.485856e-001 2.252102e-001 2.513162e-001 1.751863e-001 3.266341e-001 2.355709e-001 1.809298e-001 2.837738e-001 1.982880e-001 1.814075e-001 1.921644e-001 6.556393e-002
<GCONST> 8.933681e+001
<STATE> 4
<MEAN> 39
 5.220253e+000 -1.720444e+001 -5.966932e+000 -1.505853e+001 3.892260e+000 9.995855e-001 4.667486e+000 -1.282112e+001 3.731001e+000 -1.790901e+000 -8.993426e+000 -4.167760e+000 7.683221e+001 1.036809e+000 -6.251861e-001 -1.412181e-001 3.218509e+000 -1.359775e+000 -3.691023e+000 1.305810e+000 9.077965e-001 9.576151e-001 -2.441187e-001 -2.707217e-001 8.210895e-001 -6.395217e-001 1.059695e-002 3.756276e-001 1.355831e-002 5.492875e-002 6.762662e-001 -9.100161e-001 -3.116111e-001 4.897754e-001 -1.451303e-001 1.651105e-001 -2.407299e-001 6.976421e-001 -2.342591e-001
<VARIANCE> 39
 6.421734e+000 1.187480e+001 1.371948e+001 4.364198e+001 2.997916e+001 8.239545e+001 2.885788e+001 2.916719e+001 2.538862e+001 2.171335e+001 2.421063e+001 2.287024e+001 8.689204e+000 2.735144e-001 1.345000e+000 5.452200e-001 8.283591e-001 3.205476e+000 6.817572e+000 2.197805e+000 4.112239e+000 2.044918e+000 1.108425e+000 1.082976e+000 4.418635e+000 3.555728e-001 6.967751e-002 2.119580e-001 1.051175e-001 2.842399e-001 3.001843e-001 5.666502e-001 4.779329e-001 6.691526e-001 4.157318e-001 2.319680e-001 2.524885e-001 3.842104e-001 3.121474e-002
<GCONST> 9.780933e+001
<STATE> 5
<MEAN> 39
 9.537771e+000 -1.321412e+001 -3.799695e+000 -1.845666e+000 7.984635e+000 -2.716673e+001 5.442253e+000 -3.464669e+000 2.364655e-001 3.087160e+000 -1.540485e+001 6.792584e+000 6.971770e+001 -4.823498e-003 7.047902e-001 1.438139e+000 -4.573457e-001 5.814375e-001 -1.094202e+000 -1.089054e+000 7.926683e-001 -1.593345e+000 1.530757e+000 -9.691216e-001 -2.843816e-002 -8.032537e-001 -2.251388e-001 -2.773331e-001 3.511625e-001 -9.985847e-001 -2.637702e-001 1.428275e+000 -1.859242e-001 -4.195943e-001 3.524927e-001 3.915678e-002 -4.841008e-003 -6.188107e-001 2.969656e-001
<VARIANCE> 39
 5.103666e+000 1.583445e+001 1.875158e+001 2.020329e+001 4.822385e+001 5.248544e+001 2.310703e+001 1.715207e+001 5.379867e+001 3.036499e+001 2.524075e+001 2.887882e+001 1.997002e+001 3.639967e-001 1.290587e+000 1.754307e+000 5.714834e+000 4.171587e+000 1.389186e+001 2.200754e+000 1.829177e+000 6.318289e+000 1.715235e+000 2.108325e+000 4.767869e+000 6.176313e-001 3.499085e-002 1.938407e-001 2.159286e-001 3.315555e-001 6.040213e-001 5.789919e-001 4.384599e-001 3.645727e-001 2.706217e+000 4.671964e-001 4.278844e-001 5.096269e-001 9.359092e-002
<GCONST> 1.098487e+002
<STATE> 6
<MEAN> 39
 6.732594e+000 -1.380599e+001 6.728323e+000 -1.888836e+001 8.648991e+000 -1.490434e+001 6.358802e-002 -6.681766e+000 5.044464e+000 8.402893e+000 -1.941891e+001 6.011427e-001 7.145586e+001 -2.793771e-001 4.004287e-001 2.338974e-001 -2.598329e+000 7.894750e-001 1.962375e+000 6.184108e-001 -2.145142e+000 2.754480e+000 -1.390324e-001 4.859672e-001 -7.464907e-001 3.468889e-001 2.093215e-001 4.857219e-001 -6.090085e-001 5.808382e-001 2.268820e-001 -3.934307e-001 3.734306e-001 -3.321885e-001 -3.161057e-001 -1.171680e-001 5.484322e-001 1.164841e-001 -3.133196e-001
<VARIANCE> 39
 3.303147e+000 8.228105e+000 9.101126e+000 4.108363e+001 2.121078e+001 1.733534e+001 3.107676e+001 2.599852e+001 4.563915e+001 2.149871e+001 3.908892e+001 1.930559e+001 1.442550e+001 4.456033e-001 1.809269e+000 2.401762e+000 6.612806e+000 2.728890e+000 5.092135e+000 2.403456e+000 2.022954e+000 5.720129e+000 1.669051e+000 4.844237e+000 1.673966e+000 9.974989e-001 5.624725e-002 1.696101e-001 2.469142e-001 6.615533e-001 6.040028e-001 6.213385e-001 5.938742e-001 3.088257e-001 1.177933e+000 3.779063e-001 7.348651e-001 3.395657e-001 1.474270e-001
<GCONST> 1.075468e+002
<STATE> 7
<MEAN> 39
 8.863523e+000 -3.387928e+000 1.592375e+000 -2.663554e+001 9.855821e+000 -2.662230e+000 4.329803e+000 -1.973758e+001 8.625570e+000 6.642773e+000 -1.238018e+001 1.590693e+000 6.623753e+001 8.505142e-001 1.806380e+000 -9.031809e-001 -3.187437e-001 -8.773249e-001 2.791511e+000 1.099843e-001 -8.333751e-001 -5.941361e-001 -7.383003e-001 3.603322e-001 1.408135e+000 -1.431858e+000 1.613092e-001 -1.157552e-001 -5.474598e-002 4.012085e-001 -2.961562e-001 5.841237e-002 -1.162109e-001 6.960003e-001 -3.659563e-001 -3.067799e-001 -1.968588e-001 2.279039e-001 -1.130421e-001
<VARIANCE> 39
 6.209850e+000 2.283858e+001 2.045334e+001 5.723289e+001 2.443939e+001 6.048962e+001 1.717933e+001 2.602037e+001 4.171948e+001 3.207189e+001 3.041928e+001 4.302031e+001 1.925367e+001 5.628469e-001 8.405197e-001 1.358402e+000 1.882510e+000 1.973974e+000 2.168442e+000 1.279748e+000 3.613396e+000 2.013506e+000 1.754040e+000 3.600115e+000 3.454033e+000 3.331232e-001 7.164425e-002 1.901875e-001 1.878722e-001 3.837786e-001 4.003775e-001 4.915784e-001 2.897381e-001 3.349717e-001 4.436009e-001 2.732188e-001 5.535885e-001 8.522700e-001 3.945204e-002
<GCONST> 1.033130e+002
<STATE> 8
<MEAN> 39
 1.799571e+001 -3.214680e-001 -9.303378e+000 -9.059383e+000 3.786322e+000 4.041532e+000 8.733459e-001 -6.477453e+000 1.936109e+000 -2.526182e+000 -7.651435e+000 4.316308e+000 5.655079e+001 4.986474e-001 1.050461e+000 -8.875733e-001 8.750514e-001 -8.282960e-001 3.769380e-001 1.402210e-001 1.518292e+000 -9.974669e-001 -9.080562e-001 5.797450e-001 -4.308863e-001 -1.277802e+000 -1.988970e-001 1.176782e-001 1.302179e-001 -1.630305e-001 5.294865e-002 -2.656881e-001 1.613136e-001 -1.415670e-002 -1.261560e-002 7.595966e-002 9.322789e-002 -2.557536e-001 -1.630638e-002
<VARIANCE> 39
 1.146351e+001 6.745389e+001 7.817165e+001 1.931911e+002 4.211780e+001 6.608931e+001 3.285832e+001 9.193283e+001 3.152523e+001 1.929972e+001 3.997929e+001 3.993674e+001 2.618704e+001 8.200756e-001 4.595971e+000 2.335451e+000 9.306923e+000 2.617195e+000 3.900289e+000 2.596835e+000 3.369804e+000 3.779989e+000 2.714323e+000 2.624965e+000 2.640130e+000 1.286778e+000 8.403687e-002 4.425914e-001 2.858722e-001 8.527431e-001 3.686763e-001 8.147402e-001 4.479836e-001 4.587981e-001 4.978549e-001 3.873183e-001 4.584021e-001 4.728185e-001 1.167247e-001
<GCONST> 1.215504e+002
<STATE> 9
<MEAN> 39
 1.441749e+001 1.610269e+001 -6.972124e+000 -1.524791e+001 -4.284935e+000 8.711343e+000 8.864064e+000 -6.599941e-001 -5.491149e+000 -8.655481e+000 -5.957527e+000 1.317901e+000 4.463596e+001 -6.918449e-001 7.037035e-001 3.743935e-001 4.499614e-001 -4.448888e-001 -3.999445e-001 6.116747e-001 1.201072e+000 -1.748331e-001 -3.307180e-001 3.641839e-001 -5.943167e-001 -9.521986e-001 -8.504931e-002 -2.455833e-001 6.574277e-002 -1.947222e-002 9.317040e-002 -5.899014e-002 -1.347594e-001 -1.562785e-001 2.351446e-001 1.847929e-001 -8.067235e-002 1.650057e-001 1.517600e-001
<VARIANCE> 39
 9.348200e+000 1.597329e+001 2.313366e+001 2.105100e+001 3.945476e+001 4.150206e+001 2.732907e+001 2.654280e+001 2.129005e+001 2.860927e+001 2.127733e+001 1.825192e+001 9.420036e+000 8.191510e-001 1.570207e+000 2.262607e+000 2.233312e+000 2.529518e+000 1.657643e+000 2.520425e+000 2.764940e+000 2.731430e+000 2.241181e+000 1.848820e+000 2.211958e+000 6.529054e-001 9.412386e-002 2.135118e-001 3.756964e-001 4.994580e-001 4.512738e-001 3.885792e-001 3.891259e-001 4.419026e-001 4.959930e-001 3.613260e-001 3.103858e-001 4.499981e-001 5.419352e-002
<GCONST> 1.038317e+002
<TRANSP> 10
 0.000000e+000 1.000000e+000 0.000000e+000 0.000000e+000 0.000000e+000 0.000000e+000 0.000000e+000 0.000000e+000 0.000000e+000 0.000000e+000
 0.000000e+000 8.666953e-001 1.333047e-001 0.000000e+000 0.000000e+000 0.000000e+000 0.000000e+000 0.000000e+000 0.000000e+000 0.000000e+000
 0.000000e+000 0.000000e+000 8.306670e-001 1.693330e-001 0.000000e+000 0.000000e+000 0.000000e+000 0.000000e+000 0.000000e+000 0.000000e+000
 0.000000e+000 0.000000e+000 0.000000e+000 8.307390e-001 1.692610e-001 0.000000e+000 0.000000e+000 0.000000e+000 0.000000e+000 0.000000e+000
 0.000000e+000 0.000000e+000 0.000000e+000 0.000000e+000 8.526230e-001 1.473770e-001 0.000000e+000 0.000000e+000 0.000000e+000 0.000000e+000
 0.000000e+000 0.000000e+000 0.000000e+000 0.000000e+000 0.000000e+000 8.129711e-001 1.870289e-001 0.000000e+000 0.000000e+000 0.000000e+000
 0.000000e+000 0.000000e+000 0.000000e+000 0.000000e+000 0.000000e+000 0.000000e+000 8.541322e-001 1.458678e-001 0.000000e+000 0.000000e+000
 0.000000e+000 0.000000e+000 0.000000e+000 0.000000e+000 0.000000e+000 0.000000e+000 0.000000e+000 8.805982e-001 1.194018e-001 0.000000e+000
 0.000000e+000 0.000000e+000 0.000000e+000 0.000000e+000 0.000000e+000 0.000000e+000 0.000000e+000 0.000000e+000 8.783770e-001 1.216230e-001
 0.000000e+000 0.000000e+000 0.000000e+000 0.000000e+000 0.000000e+000 0.000000e+000 0.000000e+000 0.000000e+000 0.000000e+000 0.000000e+000
<ENDHMM>
