~o
<STREAMINFO> 1 39
<VECSIZE> 39<NULLD><MFCC_D_A_0><DIAGC>
~h "starboard"
<BEGINHMM>
<NUMSTATES> 10
<STATE> 2
<MEAN> 39
 -2.152262e+001 5.175429e+000 4.815781e+000 -8.702127e+000 2.076932e+001 -1.707638e+001 9.976037e+000 -7.810638e+000 4.554366e+000 -4.015426e+000 1.717377e+000 -4.984852e+000 7.020242e+001 -1.055728e+000 -5.251104e-001 -2.731169e-001 -8.406151e-002 -4.244629e-002 1.603727e-003 5.873575e-001 -6.653169e-001 1.966680e-001 -2.291169e-001 6.317624e-001 -5.303674e-003 1.575568e+000 3.211968e-001 7.505957e-002 2.247598e-002 2.065218e-001 -3.709395e-001 2.249660e-001 -1.794367e-001 9.614515e-002 8.259356e-003 4.687940e-002 4.533474e-002 3.818121e-002 -6.002437e-001
<VARIANCE> 39
 7.939088e+001 1.875761e+001 1.357600e+001 1.895076e+001 2.656011e+001 1.984059e+001 2.818259e+001 2.576927e+001 2.209426e+001 2.329402e+001 2.516046e+001 2.127889e+001 4.608437e+001 6.515224e+000 3.267724e+000 2.919329e+000 4.414977e+000 4.291901e+000 2.278741e+000 2.957646e+000 3.413031e+000 2.501207e+000 2.623572e+000 2.912704e+000 3.257844e+000 7.258873e+000 6.189801e-001 6.401522e-001 5.455006e-001 5.741743e-001 4.765754e-001 4.476045e-001 6.737821e-001 8.997336e-001 5.054146e-001 5.096463e-001 5.993524e-001 6.259986e-001 7.950231e-001
<GCONST> 1.233678e+002
<STATE> 3
<MEAN> 39
 -1.416387e+001 -2.739592e+000 1.050613e+000 -7.868900e+000 1.043759e+001 -1.186841e+001 8.753335e+000 -1.172825e+001 5.175490e+000 -7.790721e+000 4.049499e+000 -3.524831e+000 6.085327e+001 1.551796e+000 -1.355257e+000 -5.989710e-001 -1.662215e+000 -7.508968e-001 2.591822e-001 -1.031557e+000 4.555128e-001 -1.115211e-001 1.078053e-002 -4.457078e-001 -3.418787e-001 6.080102e-001 -6.115676e-003 -1.654194e-001 -5.668039e-002 -4.773851e-001 2.217446e-001 -1.730229e-002 -1.327406e-001 1.072034e-001 -2.826015e-002 3.323517e-001 -3.408055e-001 -1.569183e-001 8.790553e-001
<VARIANCE> 39
 3.323363e+001 3.661713e+001 3.103079e+001 2.201144e+001 1.693192e+001 2.673750e+001 4.434612e+001 3.193996e+001 2.985108e+001 2.208223e+001 1.882409e+001 1.307553e+001 1.298110e+002 1.394954e+000 2.789455e+000 4.178779e+000 4.670808e+000 1.123914e+000 3.194783e+000 3.632922e+000 4.208825e+000 3.018795e+000 3.670495e+000 2.561046e+000 1.441067e+000 3.988036e+001 2.649439e-001 4.036018e-001 9.153237e-001 4.138863e-001 2.785783e-001 8.802124e-001 7.173954e-001 9.517679e-001 6.748027e-001 6.372491e-001 4.839014e-001 2.941646e-001 5.177388e+000
<GCONST> 1.251319e+002
<STATE> 4
<MEAN> 39
 -2.734762e+000 -1.481582e+001 -5.269604e+000 -2.862146e+001 1.093561e+001 -6.356284e+000 -2.687605e-001 -9.396396e+000 3.342678e+000 -5.288683e-001 -5.727346e+000 -8.181758e+000 8.372499e+001 8.185411e-001 -1.721768e+000 -5.287932e-001 -1.863173e+000 8.906845e-001 2.993738e+000 -7.462465e-001 -7.918984e-001 -1.050686e+000 1.074964e+000 -1.686816e+000 -4.876307e-001 1.439307e+000 -5.637488e-001 4.347532e-001 1.211593e-001 1.458432e+000 -1.635395e-001 1.440431e-001 4.267666e-001 -4.200419e-001 -1.291049e-001 -7.283520e-001 7.054595e-001 3.321665e-001 -1.752311e+000
<VARIANCE> 39
 9.928862e-001 1.125005e+001 2.864434e+000 1.366433e+001 1.025779e+001 1.598028e+001 8.325899e+000 1.018387e+001 9.980286e+000 5.759865e+000 1.365230e+001 6.022369e+000 4.333684e+000 1.533199e+000 6.800756e-001 7.951519e-001 7.828245e+000 1.728741e+000 1.626325e+000 2.771674e+000 1.227239e+000 1.316476e+000 2.797509e+000 3.493289e+000 1.192351e+000 4.416679e+000 1.175626e-001 1.973296e-001 1.663083e-001 4.802629e-001 3.332113e-001 8.046834e-001 3.959386e-001 2.269423e-001 4.112116e-001 2.279278e-001 4.644017e-001 1.406122e-001 9.902160e-001
<GCONST> 9.044581e+001
<STATE> 5
<MEAN> 39
 -2.058886e+000 -1.797680e+001 -5.952468e+000 -2.414375e+001 1.021563e+001 2.146829e+000 6.172287e-001 -1.687025e+001 1.731259e+000 -3.786520e+000 -4.520647e+000 -6.149276e+000 8.157571e+001 4.187302e-001 -5.850211e-002 4.116680e-002 5.940968e-001 -6.430106e-001 5.888107e-001 3.177318e-001 -7.075721e-001 3.163511e-002 -3.009309e-001 5.539605e-002 4.426905e-001 -4.356879e-001 1.583932e-001 1.606286e-001 7.584652e-002 6.499904e-002 -2.139424e-001 -1.399902e-001 1.398871e-001 2.023284e-001 5.138268e-002 8.958800e-002 -5.530542e-002 2.941943e-002 -1.016417e-001
<VARIANCE> 39
 3.678399e+000 3.708345e+000 3.197534e+000 1.359988e+001 1.996457e+001 9.363764e+000 6.474565e+000 1.299794e+001 4.639165e+000 6.567152e+000 8.865756e+000 7.427070e+000 3.834897e+000 2.371133e-001 2.008515e-001 3.855125e-001 9.038436e-001 1.128151e+000 5.968115e-001 5.103837e-001 4.403634e-001 3.246191e-001 3.258134e-001 5.025365e-001 4.317631e-001 1.134400e-001 3.940978e-002 7.399610e-002 7.614445e-002 1.875441e-001 1.230801e-001 1.423711e-001 8.999909e-002 1.029408e-001 8.173376e-002 7.742682e-002 8.820156e-002 7.558835e-002 4.525194e-002
<GCONST> 5.275534e+001
<STATE> 6
<MEAN> 39
 3.020419e+000 -1.018178e+001 -9.840269e-003 -1.346219e+001 2.741348e+000 1.681153e+000 5.936195e+000 -1.080255e+001 3.540039e+000 -1.147232e+000 -2.642578e+000 -1.415804e+000 6.334422e+001 4.105250e-001 9.451145e-001 4.173857e-001 -9.761528e-001 -5.301983e-001 -2.928396e-001 5.117584e-002 7.121071e-001 2.513910e-001 2.669526e-001 -2.239644e-001 1.251521e-001 -4.522366e-001 -1.495856e-001 -2.677408e-002 -8.919627e-002 -3.693871e-001 1.450105e-001 3.500916e-003 -1.528844e-001 -6.544061e-003 -3.687758e-002 -1.584703e-002 -7.908425e-002 -1.375218e-002 1.784144e-001
<VARIANCE> 39
 3.293871e+001 2.390233e+001 2.103952e+001 1.375422e+002 3.880389e+001 3.244678e+001 2.863062e+001 3.427903e+001 2.521107e+001 2.263745e+001 3.371541e+001 1.872256e+001 1.426507e+002 6.050880e+000 2.991340e+000 3.173594e+000 2.009196e+001 5.173649e+000 3.419187e+000 3.617462e+000 4.580088e+000 3.021391e+000 2.651638e+000 4.918096e+000 1.904048e+000 2.394222e+001 1.369919e+000 6.642627e-001 6.864272e-001 2.202783e+000 1.075416e+000 6.928173e-001 7.097829e-001 8.782381e-001 6.060143e-001 5.153735e-001 8.237606e-001 3.396817e-001 3.731388e+000
<GCONST> 1.367550e+002
<STATE> 7
<MEAN> 39
 4.615095e+000 -3.453583e+000 -9.965378e-001 -4.033203e+001 3.062425e+000 1.530951e+000 3.627093e+000 -6.965149e+000 2.347823e+000 6.165601e-002 -1.190182e+001 1.667612e+000 7.208090e+001 -3.058454e-001 9.106569e-002 -1.629706e-001 -4.200435e-001 9.818033e-001 1.372018e-001 -8.468653e-002 5.155963e-002 -1.108966e-001 3.181301e-002 -2.051333e-002 3.622282e-001 -6.710277e-002 -1.653315e-002 -5.465780e-002 2.831649e-002 4.414040e-001 1.035811e-001 -9.241482e-002 -2.226778e-003 -1.670545e-001 1.524085e-001 -2.176408e-002 2.366982e-001 -1.195819e-001 -8.406477e-002
<VARIANCE> 39
 8.732194e+000 1.077542e+001 5.397276e+000 4.577391e+001 5.246551e+001 1.235125e+001 1.396560e+001 2.880375e+001 1.584723e+001 1.927945e+001 2.105559e+001 3.166412e+001 5.459305e+000 3.850314e-001 4.774712e-001 1.776276e-001 2.065361e+000 8.884042e-001 7.596263e-001 6.626632e-001 1.340022e+000 9.575521e-001 5.937058e-001 1.517439e+000 9.065070e-001 3.807803e-001 6.700636e-002 7.478236e-002 4.834142e-002 3.237052e-001 1.333650e-001 1.581728e-001 1.638195e-001 1.120988e-001 1.642210e-001 1.146343e-001 1.491101e-001 1.404362e-001 1.141653e-001
<GCONST> 7.638555e+001
<STATE> 8
<MEAN> 39
 -2.201349e+000 -4.033615e+000 -2.865291e-001 -2.410170e+001 1.397487e+001 -8.116902e+000 1.235087e+000 -1.238537e+001 8.620034e+000 -9.797240e-001 -4.347235e+000 -2.325991e+000 6.597620e+001 -5.782479e-001 1.761565e-001 1.205325e-001 2.208207e+000 6.058443e-001 -1.083084e+000 4.266379e-002 -2.510909e-001 9.415419e-001 -1.099530e-001 1.294427e-001 -7.572828e-001 -1.126837e+000 2.179199e-001 7.908854e-002 -5.990515e-002 -8.339432e-002 -4.063684e-002 2.535535e-001 4.934153e-002 2.457853e-001 -5.205118e-002 -1.342668e-002 -2.834418e-001 7.457243e-002 -1.384900e-001
<VARIANCE> 39
 5.094991e+001 3.928294e+001 2.711142e+001 1.151777e+002 8.177581e+001 8.657542e+001 3.124723e+001 5.620066e+001 7.296210e+001 3.955034e+001 4.056143e+001 3.011724e+001 4.786914e+001 3.633565e+000 1.931743e+000 3.061627e+000 6.869614e+000 3.586797e+000 5.701241e+000 2.471689e+000 4.984793e+000 5.568130e+000 2.342810e+000 3.551602e+000 2.179444e+000 5.534638e+000 6.064712e-001 4.235484e-001 5.859705e-001 1.316175e+000 6.452964e-001 9.134861e-001 4.876938e-001 8.172522e-001 1.093244e+000 4.859668e-001 4.551720e-001 3.619507e-001 1.159141e+000
<GCONST> 1.340994e+002
<STATE> 9
<MEAN> 39
 3.771800e+000 4.540172e+000 -2.443032e+000 -7.589811e+000 1.298495e+001 -2.703461e+000 1.372242e+000 -7.258214e+000 1.094694e+001 -1.591522e+000 -6.604664e+000 -3.241812e+000 5.125030e+001 8.069494e-001 1.226246e+000 1.177492e-001 1.450179e+000 -9.840349e-001 1.079743e+000 -5.463643e-001 6.772692e-001 -8.765508e-001 1.264237e-001 3.324215e-001 6.325868e-001 -1.822400e+000 -2.814882e-001 1.169697e-001 3.220690e-001 1.040093e-001 -2.235862e-001 -1.498221e-001 -8.671141e-002 -9.509186e-002 -2.619773e-001 4.010922e-002 2.663538e-001 1.256824e-001 -8.849101e-002
<VARIANCE> 39
 5.233474e+001 1.027079e+002 2.818440e+001 5.710342e+001 7.532176e+001 4.608927e+001 3.882936e+001 5.886981e+001 8.663142e+001 2.240584e+001 7.013867e+001 2.296194e+001 6.362321e+001 4.369663e+000 4.213055e+000 2.799254e+000 4.155124e+000 5.444852e+000 4.571805e+000 4.575031e+000 2.710766e+000 5.598826e+000 2.661152e+000 4.077480e+000 1.936859e+000 1.995654e+000 5.147828e-001 8.149014e-001 3.604562e-001 6.098855e-001 1.231478e+000 7.856963e-001 7.799759e-001 5.868562e-001 8.640904e-001 4.119961e-001 6.231666e-001 5.469590e-001 3.620989e-001
<GCONST> 1.328804e+002
<TRANSP> 10
 0.000000e+000 1.000000e+000 0.000000e+000 0.000000e+000 0.000000e+000 0.000000e+000 0.000000e+000 0.000000e+000 0.000000e+000 0.000000e+000
 0.000000e+000 9.272276e-001 7.277245e-002 0.000000e+000 0.000000e+000 0.000000e+000 0.000000e+000 0.000000e+000 0.000000e+000 0.000000e+000
 0.000000e+000 0.000000e+000 8.932741e-001 1.067259e-001 0.000000e+000 0.000000e+000 0.000000e+000 0.000000e+000 0.000000e+000 0.000000e+000
 0.000000e+000 0.000000e+000 0.000000e+000 7.355249e-001 2.644751e-001 0.000000e+000 0.000000e+000 0.000000e+000 0.000000e+000 0.000000e+000
 0.000000e+000 0.000000e+000 0.000000e+000 0.000000e+000 9.052495e-001 9.475055e-002 0.000000e+000 0.000000e+000 0.000000e+000 0.000000e+000
 0.000000e+000 0.000000e+000 0.000000e+000 0.000000e+000 0.000000e+000 9.243654e-001 7.563458e-002 0.000000e+000 0.000000e+000 0.000000e+000
 0.000000e+000 0.000000e+000 0.000000e+000 0.000000e+000 0.000000e+000 0.000000e+000 9.235571e-001 7.644287e-002 0.000000e+000 0.000000e+000
 0.000000e+000 0.000000e+000 0.000000e+000 0.000000e+000 0.000000e+000 0.000000e+000 0.000000e+000 9.112508e-001 8.874924e-002 0.000000e+000
 0.000000e+000 0.000000e+000 0.000000e+000 0.000000e+000 0.000000e+000 0.000000e+000 0.000000e+000 0.000000e+000 8.843859e-001 1.156141e-001
 0.000000e+000 0.000000e+000 0.000000e+000 0.000000e+000 0.000000e+000 0.000000e+000 0.000000e+000 0.000000e+000 0.000000e+000 0.000000e+000
<ENDHMM>
