~o
<STREAMINFO> 1 39
<VECSIZE> 39<NULLD><MFCC_D_A_0><DIAGC>
~h "standby"
<BEGINHMM>
<NUMSTATES> 10
<STATE> 2
<MEAN> 39
 -1.570284e+001 5.726848e+000 3.103476e-001 -7.541797e+000 1.776475e+001 -1.658568e+001 1.148801e+001 -7.286996e+000 4.758454e+000 -6.154283e+000 2.161533e+000 -4.024480e+000 6.882581e+001 -1.701109e+000 -1.008435e+000 -4.017208e-001 7.816346e-002 -1.533426e-002 -1.447459e-001 5.714208e-001 -9.953869e-001 3.259835e-001 -2.415892e-001 6.798795e-001 -2.064259e-001 1.817492e+000 1.182835e-001 -7.941824e-002 1.201629e-001 2.173333e-001 -2.154027e-001 2.964642e-001 -1.502419e-001 6.804124e-002 -3.269400e-004 8.923448e-002 -5.048377e-002 2.366536e-002 -6.322789e-001
<VARIANCE> 39
 2.171968e+002 4.323236e+001 3.906249e+001 2.812924e+001 5.608971e+001 3.489640e+001 2.921617e+001 3.466301e+001 2.760419e+001 2.930895e+001 2.908041e+001 1.641883e+001 7.837908e+001 1.011325e+001 5.321403e+000 4.338364e+000 5.918909e+000 6.307994e+000 7.160293e+000 3.299372e+000 2.773907e+000 2.923107e+000 3.431377e+000 3.656076e+000 2.145409e+000 7.933392e+000 1.620553e+000 1.123693e+000 9.513106e-001 9.495143e-001 1.126596e+000 1.424380e+000 7.840186e-001 6.315075e-001 6.599378e-001 7.571838e-001 8.003995e-001 5.200917e-001 6.609253e-001
<GCONST> 1.375276e+002
<STATE> 3
<MEAN> 39
 -1.439811e+001 -7.556415e+000 -1.404451e+000 -1.107537e+001 8.659501e+000 -1.251023e+001 8.063758e+000 -1.224778e+001 7.217772e+000 -5.100779e+000 3.117871e+000 -5.443820e+000 6.726683e+001 1.919551e+000 -1.365822e+000 -1.029814e-001 -2.100716e+000 -4.111370e-002 3.902007e-001 -1.213189e+000 2.409577e-001 -1.195850e-001 6.305259e-001 -1.243414e+000 -3.156788e-001 1.124339e+000 -8.564146e-002 4.774289e-002 -2.851075e-002 -1.205586e-001 3.236800e-001 4.442203e-002 4.825092e-002 -8.705324e-003 -1.368913e-001 -4.616930e-004 -2.484744e-001 -2.279627e-002 2.387744e-001
<VARIANCE> 39
 6.667421e+001 3.549132e+001 2.547467e+001 9.389254e+001 2.275412e+001 3.112424e+001 4.966128e+001 2.367071e+001 2.506269e+001 3.043497e+001 4.550361e+001 1.421195e+001 1.550104e+002 4.390555e+000 1.987639e+000 2.708440e+000 6.558043e+000 4.375049e+000 4.751250e+000 5.399417e+000 3.196534e+000 3.630905e+000 3.123775e+000 4.947577e+000 1.441324e+000 2.766694e+001 1.134715e+000 3.810748e-001 5.517418e-001 1.479082e+000 6.004077e-001 1.048295e+000 1.233451e+000 7.879198e-001 7.038830e-001 7.410238e-001 6.125784e-001 3.216681e-001 5.156727e+000
<GCONST> 1.354820e+002
<STATE> 4
<MEAN> 39
 -2.998186e+000 -1.528209e+001 -3.591630e+000 -2.378218e+001 1.602736e+001 -8.332747e+000 8.951792e-001 -1.416458e+001 6.655521e+000 -4.524671e+000 -1.271595e+001 -5.691766e+000 8.231434e+001 1.135313e-001 6.118382e-001 2.307044e-001 8.342980e-001 3.295755e-001 -5.581572e-001 3.323841e-002 -2.725276e-001 2.010025e-001 -6.068218e-001 -7.894165e-001 5.080723e-001 -6.974742e-001 1.748171e-002 4.188409e-001 1.526207e-001 3.103865e-001 -2.871916e-001 -4.884856e-001 2.408675e-002 4.559558e-002 -4.581780e-002 5.666220e-002 2.544082e-001 3.475393e-002 -3.601581e-001
<VARIANCE> 39
 1.745655e+000 4.226334e+000 3.604245e+000 9.302724e+000 6.658043e+000 1.227411e+001 5.217983e+000 1.209179e+001 1.421275e+001 1.707418e+001 8.818468e+000 5.847584e+000 3.831449e+000 1.620076e-001 1.166648e+000 2.437011e-001 3.329855e-001 8.134785e-001 2.240798e+000 5.935019e-001 1.056304e+000 5.161255e-001 1.099066e+000 5.830631e-001 4.558665e-001 3.356696e-001 6.905182e-002 5.366785e-002 8.233322e-002 3.298080e-001 9.925592e-002 9.041595e-002 1.528906e-001 2.164764e-001 2.386279e-001 2.282635e-001 3.174205e-001 9.744397e-002 1.702674e-001
<GCONST> 6.400404e+001
<STATE> 5
<MEAN> 39
 6.406952e-001 -3.899415e+000 4.145312e+000 -1.631050e+001 1.297586e+001 -1.492271e+001 9.293171e-001 -1.519356e+001 4.150985e+000 -3.864617e+000 -9.718607e+000 -2.665781e+000 6.850031e+001 1.182740e-001 6.649026e-001 6.444725e-001 7.061645e-001 -3.382274e-001 8.001499e-001 8.559909e-002 1.953660e-001 -4.831096e-001 1.928037e-001 9.185147e-001 1.490569e-001 -1.805060e+000 1.233359e-002 -2.655843e-001 -1.738930e-001 -2.617582e-001 -2.501205e-003 2.287799e-001 6.316523e-002 5.618250e-002 4.232265e-002 4.143106e-002 -8.333805e-002 8.458225e-002 2.308240e-001
<VARIANCE> 39
 1.060645e+001 2.656228e+001 2.101675e+001 5.755718e+001 2.451036e+001 4.690092e+001 1.991554e+001 2.256116e+001 6.142096e+001 2.705767e+001 3.191347e+001 7.909444e+000 8.475150e+001 1.934651e+000 5.427804e+000 3.079798e+000 1.051460e+001 3.657156e+000 5.000144e+000 2.063529e+000 2.693390e+000 1.070751e+001 2.764925e+000 2.106259e+000 1.432475e+000 1.457331e+001 4.590971e-001 1.343493e+000 7.805853e-001 3.160530e+000 7.354826e-001 7.836227e-001 4.280045e-001 5.054522e-001 2.467258e+000 6.636037e-001 6.627269e-001 3.188345e-001 4.368975e+000
<GCONST> 1.313305e+002
<STATE> 6
<MEAN> 39
 2.614913e+000 -8.066359e+000 1.700367e+000 -2.442202e+001 1.287081e+001 -3.861228e+000 4.109735e+000 -1.204683e+001 2.699580e+000 1.859375e+000 -9.439308e+000 2.156981e+000 6.691783e+001 1.754557e-001 -2.649879e+000 -1.783053e+000 -4.636095e+000 1.314963e+000 -4.490709e-001 8.201575e-001 -8.748645e-001 4.167780e-001 1.081811e+000 -1.843875e+000 4.582876e-001 5.144551e+000 -4.463207e-001 2.449481e-002 7.975747e-002 3.364623e-001 3.983405e-001 -2.996839e-001 -4.976376e-002 -2.684651e-001 1.592575e-001 -3.770208e-001 2.018486e-001 -4.744041e-001 2.358014e-001
<VARIANCE> 39
 1.169358e+001 3.836199e+001 1.305699e+001 1.336094e+002 2.931494e+001 1.499347e+001 2.150026e+001 2.669727e+001 1.163604e+001 5.037944e+001 4.729620e+001 1.431544e+001 1.288761e+002 2.804477e+000 2.173421e+000 7.486072e-001 7.830582e+000 2.720534e+000 1.534430e+000 1.699155e+000 4.062169e+000 1.858104e+000 5.666835e+000 3.467841e+000 2.752126e+000 6.087905e+000 3.470184e-001 1.081578e+000 2.333620e-001 4.244026e+000 7.247034e-001 4.255047e-001 3.928598e-001 9.100050e-001 3.260498e-001 1.379688e+000 9.710955e-001 3.695360e-001 4.907632e+000
<GCONST> 1.253619e+002
<STATE> 7
<MEAN> 39
 -2.092475e+000 -1.534485e+001 -1.988230e+000 -2.536522e+001 1.697496e+001 -8.432724e+000 7.031246e+000 -1.537978e+001 7.944704e+000 -3.684940e+000 -1.312401e+001 -2.521817e+000 7.940183e+001 -3.282654e-001 -1.390856e-001 2.701388e-001 2.064075e+000 -6.068429e-001 -8.090060e-001 7.730531e-001 3.017850e-001 1.028107e+000 -1.406025e+000 -3.222516e-001 -4.498658e-001 -1.429888e-001 1.630695e-001 2.592906e-001 2.177360e-001 3.273744e-001 -3.434021e-001 -1.308970e-001 2.323609e-001 2.532390e-001 5.402140e-002 8.714147e-003 6.777445e-002 1.807193e-001 -3.654119e-001
<VARIANCE> 39
 2.530143e+000 4.153246e+000 4.553315e+000 3.541909e+001 7.734447e+000 1.228662e+001 1.199396e+001 9.781039e+000 1.631280e+001 2.000144e+001 5.912092e+000 5.833770e+000 2.944067e+000 4.889531e-001 4.475915e-001 6.665092e-001 7.557440e-001 9.530712e-001 4.400481e-001 1.059301e+000 5.721158e-001 4.058445e-001 5.811580e-001 5.177183e-001 5.724353e-001 3.965114e-001 6.492842e-002 8.781087e-002 1.139426e-001 3.579458e-001 1.203101e-001 1.092012e-001 1.425049e-001 9.898699e-002 9.632897e-002 1.579284e-001 1.656278e-001 8.368537e-002 1.760158e-001
<GCONST> 6.451778e+001
<STATE> 8
<MEAN> 39
 1.725153e+000 -9.443704e+000 4.382464e+000 -8.127158e+000 8.655263e+000 -1.366551e+001 1.526420e+001 -9.645059e+000 7.908566e+000 -8.165339e+000 -4.602660e+000 -2.000938e+000 6.992996e+001 7.294704e-001 6.338374e-001 4.308118e-001 7.372594e-001 -4.643211e-001 3.523388e-001 -1.283705e-002 2.256455e-001 -1.031717e+000 5.370634e-001 1.194844e+000 1.875407e-001 -1.152663e+000 9.252598e-002 -3.448988e-002 -9.644379e-002 -1.072970e-001 4.654200e-002 2.481003e-001 -2.807224e-001 3.715326e-002 -1.998394e-001 1.618835e-001 -2.400666e-002 -2.950847e-002 -6.453003e-002
<VARIANCE> 39
 2.050772e+001 1.280158e+001 1.578845e+001 1.511642e+001 1.451354e+001 2.245628e+001 2.625379e+001 2.093401e+001 4.416979e+001 2.496481e+001 5.700459e+001 1.269959e+001 1.753099e+001 1.848143e+000 1.549408e+000 2.513019e+000 1.895729e+000 2.098114e+000 3.325716e+000 4.045763e+000 3.044818e+000 2.499414e+000 1.867604e+000 3.628789e+000 1.646370e+000 6.683305e-001 3.142135e-001 2.583876e-001 4.477681e-001 3.561809e-001 4.052204e-001 5.134563e-001 7.687544e-001 6.535447e-001 3.743602e-001 3.487637e-001 6.866511e-001 3.170442e-001 1.454046e-001
<GCONST> 1.091711e+002
<STATE> 9
<MEAN> 39
 1.091737e+001 3.301329e+000 3.594172e+000 1.694090e+000 8.387777e-001 -6.015475e+000 6.702119e+000 3.690533e+000 -3.540141e+000 -3.040506e+000 1.951815e-001 7.717505e-001 5.099995e+001 -5.764520e-002 1.991081e+000 3.007449e-001 9.581095e-001 -6.033954e-001 2.815184e-001 -8.206539e-001 1.430002e+000 8.603647e-002 -1.565212e-001 4.435519e-002 2.819060e-001 -1.924340e+000 -1.701430e-001 9.044922e-002 1.262494e-001 -6.040121e-002 1.419674e-001 -4.732324e-002 5.655040e-002 -2.091238e-001 1.872369e-001 -6.735300e-002 -2.173228e-002 -1.533982e-002 6.522369e-002
<VARIANCE> 39
 4.326423e+001 1.254566e+002 8.658719e+001 6.549071e+001 3.403115e+001 5.050913e+001 5.761124e+001 8.287120e+001 4.027813e+001 2.873282e+001 3.148104e+001 2.760174e+001 6.066428e+001 2.827919e+000 2.606179e+000 4.163221e+000 3.959492e+000 3.433445e+000 4.425107e+000 4.204429e+000 5.865894e+000 4.734409e+000 3.430149e+000 2.902492e+000 2.056839e+000 9.829183e-001 3.397027e-001 4.141380e-001 5.618611e-001 6.257204e-001 5.997011e-001 7.416266e-001 7.464865e-001 7.218408e-001 6.669482e-001 7.170239e-001 6.083080e-001 3.751519e-001 1.509611e-001
<GCONST> 1.295083e+002
<TRANSP> 10
 0.000000e+000 1.000000e+000 0.000000e+000 0.000000e+000 0.000000e+000 0.000000e+000 0.000000e+000 0.000000e+000 0.000000e+000 0.000000e+000
 0.000000e+000 9.184306e-001 8.156941e-002 0.000000e+000 0.000000e+000 0.000000e+000 0.000000e+000 0.000000e+000 0.000000e+000 0.000000e+000
 0.000000e+000 0.000000e+000 9.094384e-001 9.056161e-002 0.000000e+000 0.000000e+000 0.000000e+000 0.000000e+000 0.000000e+000 0.000000e+000
 0.000000e+000 0.000000e+000 0.000000e+000 8.852135e-001 1.147865e-001 0.000000e+000 0.000000e+000 0.000000e+000 0.000000e+000 0.000000e+000
 0.000000e+000 0.000000e+000 0.000000e+000 0.000000e+000 9.274923e-001 7.250772e-002 0.000000e+000 0.000000e+000 0.000000e+000 0.000000e+000
 0.000000e+000 0.000000e+000 0.000000e+000 0.000000e+000 0.000000e+000 7.958856e-001 2.041144e-001 0.000000e+000 0.000000e+000 0.000000e+000
 0.000000e+000 0.000000e+000 0.000000e+000 0.000000e+000 0.000000e+000 0.000000e+000 8.850107e-001 1.149893e-001 0.000000e+000 0.000000e+000
 0.000000e+000 0.000000e+000 0.000000e+000 0.000000e+000 0.000000e+000 0.000000e+000 0.000000e+000 9.204561e-001 7.954398e-002 0.000000e+000
 0.000000e+000 0.000000e+000 0.000000e+000 0.000000e+000 0.000000e+000 0.000000e+000 0.000000e+000 0.000000e+000 9.161601e-001 8.383988e-002
 0.000000e+000 0.000000e+000 0.000000e+000 0.000000e+000 0.000000e+000 0.000000e+000 0.000000e+000 0.000000e+000 0.000000e+000 0.000000e+000
<ENDHMM>
