~o
<STREAMINFO> 1 39
<VECSIZE> 39<NULLD><MFCC_D_A_0><DIAGC>
~h "port"
<BEGINHMM>
<NUMSTATES> 10
<STATE> 2
<MEAN> 39
 -5.304373e+000 -3.475927e+000 1.076548e+000 -1.553329e+001 6.582510e+000 -3.476541e+000 7.940033e+000 -1.574648e+001 9.358599e+000 -1.017371e+001 1.342349e+000 -5.103076e+000 7.594485e+001 -2.720985e-001 1.958627e+000 -6.664675e-001 -1.910762e+000 -5.738505e-001 1.543017e+000 7.558690e-001 -1.281983e+000 1.090867e+000 -4.128929e-001 -5.198430e-001 -7.752628e-001 4.927981e-001 -2.236498e-001 1.334413e-001 -1.650728e-001 -4.300108e-002 -2.397887e-001 3.724878e-001 -1.668341e-002 6.003894e-001 -3.069440e-001 3.491066e-001 -2.143565e-001 7.653026e-002 -1.381486e+000
<VARIANCE> 39
 1.378940e+001 4.618283e+001 1.111066e+001 3.060649e+001 1.869544e+001 3.122306e+001 2.254113e+001 2.920934e+001 2.120186e+001 1.519862e+001 2.096848e+001 1.612013e+001 1.627092e+001 1.970877e+000 2.368922e+000 1.991414e+000 3.861610e+000 2.864425e+000 1.875659e+000 3.027157e+000 3.400327e+000 2.597316e+000 2.116032e+000 1.920651e+000 1.542490e+000 8.351726e+000 9.548568e-001 1.032793e+000 6.218569e-001 9.724599e-001 7.928458e-001 6.929085e-001 4.490485e-001 5.559721e-001 4.592123e-001 3.220017e-001 4.456179e-001 3.308957e-001 3.638528e+000
<GCONST> 1.186784e+002
<STATE> 3
<MEAN> 39
 -3.107704e+000 3.293613e+000 -3.787859e+000 -2.896249e+001 1.249660e+000 3.094223e+000 1.132368e+001 -1.464036e+001 8.118023e+000 -8.617705e+000 -4.266004e+000 -7.918285e+000 7.370551e+001 2.135971e+000 -1.181751e-001 -1.353269e+000 -3.375579e+000 -2.679782e+000 -8.122982e-001 -1.125223e+000 1.353219e+000 -2.943006e+000 1.284798e+000 -1.725330e+000 -8.597130e-002 6.443614e-001 1.088194e-001 -4.385242e-001 9.856763e-002 1.861568e-001 -2.937051e-001 -5.600524e-001 -4.620486e-001 1.447194e-002 -4.656100e-001 3.560887e-001 -7.194262e-002 1.441146e-001 1.494737e-001
<VARIANCE> 39
 2.416006e+001 1.258103e+001 8.882117e+000 3.935925e+001 2.502885e+001 2.444106e+001 5.893447e+001 3.665575e+001 6.392534e+001 1.280301e+001 2.096964e+001 1.049868e+001 1.209393e+001 1.278865e+000 1.619390e+000 8.368303e-001 1.760411e+000 1.705224e+000 3.048691e+000 1.706245e+000 2.768947e+000 3.647440e+000 3.244053e+000 1.661041e+000 1.327772e+000 8.519630e-001 5.812872e-001 1.895811e-001 1.931247e-001 6.239854e-001 6.344092e-001 4.982897e-001 6.161270e-001 4.707783e-001 1.392179e+000 4.591224e-001 3.784873e-001 2.283422e-001 2.276977e-001
<GCONST> 1.082712e+002
<STATE> 4
<MEAN> 39
 3.203511e+000 -2.031767e+000 -7.367780e+000 -3.452015e+001 -8.248872e+000 -1.198955e+000 8.169834e+000 -1.160262e+001 -2.113848e+000 -1.122984e+000 -5.888010e+000 -8.384535e+000 7.513280e+001 3.102641e-001 -1.231319e+000 -5.343814e-001 1.491366e+000 -7.629433e-001 -4.435313e-002 5.747225e-001 -2.066753e-001 -2.527791e-001 1.032029e-001 1.718751e+000 -4.119033e-001 -1.514722e-001 -1.328417e-001 -1.219016e-001 -1.196186e-002 8.887075e-001 2.321879e-001 2.253631e-001 1.156481e-001 -1.424544e-001 3.757848e-001 -4.387760e-001 6.190657e-001 -9.613246e-002 -7.402013e-002
<VARIANCE> 39
 1.775244e+000 1.021471e+001 6.102803e+000 2.800686e+001 5.670363e+000 2.239954e+001 3.615678e+001 2.807796e+001 7.417560e+000 2.534555e+001 2.295259e+001 6.380554e+000 4.585871e+000 1.908861e-001 6.448825e-001 7.550587e-001 4.798050e+000 6.819299e-001 6.279647e-001 1.198208e+000 1.272091e+000 1.304400e+000 3.850397e+000 3.542078e+000 7.543631e-001 1.836862e-001 6.159372e-002 8.285821e-002 1.485070e-001 1.726827e-001 2.765363e-001 1.086909e-001 3.797797e-001 2.100456e-001 2.938875e-001 5.088338e-001 2.737364e-001 1.432535e-001 5.524321e-002
<GCONST> 7.988810e+001
<STATE> 5
<MEAN> 39
 4.723893e+000 -1.123274e+001 -1.196402e+001 -1.380318e+001 -1.073651e+001 9.177371e-001 8.503594e+000 -1.177143e+001 -3.050011e-001 -5.961164e+000 9.464664e+000 -1.055206e+001 7.386687e+001 3.178691e-001 -1.056788e+000 -3.386921e-001 3.714340e+000 1.447108e+000 -6.907396e-001 -1.375642e+000 2.352024e-001 1.259090e+000 -1.660224e-001 -2.986116e-002 1.272666e+000 -7.445185e-001 -2.166082e-001 4.456898e-001 7.766687e-001 -6.381138e-001 8.447759e-001 -6.011663e-001 -3.620533e-001 3.607373e-002 3.168625e-001 3.414164e-001 -1.335595e+000 4.813646e-001 -3.473614e-001
<VARIANCE> 39
 3.154183e+000 6.208690e+000 7.669871e+000 3.253279e+001 1.395955e+001 2.020848e+001 2.351395e+001 2.958785e+001 8.638675e+000 9.336250e+000 1.336938e+001 1.148180e+001 1.583787e+000 1.655507e-001 9.434035e-001 1.354261e+000 1.123505e+000 4.786108e+000 3.574388e+000 1.741768e+000 8.260235e-001 1.441705e+000 1.843764e+000 8.315574e+000 3.114703e+000 4.280146e-001 1.493335e-001 7.631326e-002 6.023604e-001 3.105976e-001 3.475277e-001 3.740079e-001 2.162932e-001 2.280475e-001 1.605299e-001 3.442747e-001 4.937043e-001 5.054903e-001 4.780133e-002
<GCONST> 8.886723e+001
<STATE> 6
<MEAN> 39
 -5.938444e+000 -1.014369e+001 2.464324e+000 -9.360206e+000 1.309415e+000 -7.723547e+000 2.319920e+000 -8.357358e+000 5.997781e+000 -3.245983e+000 2.100168e+000 -4.425926e+000 6.064743e+001 -2.522280e+000 4.568655e-001 1.967022e+000 -5.615246e-001 9.167849e-001 -7.290591e-001 3.497548e-001 1.342929e+000 2.006110e-001 3.966839e-001 -2.211613e-001 2.456562e-001 -2.855286e+000 1.493507e-002 -1.101477e-001 -5.987496e-001 -3.122506e-001 -2.571326e-001 7.052201e-002 5.109985e-001 2.780632e-002 -3.189993e-001 -8.923811e-002 3.104769e-001 -1.427393e-001 3.046971e-001
<VARIANCE> 39
 7.682672e+001 8.488242e+000 7.489144e+001 3.677708e+001 2.693435e+001 2.583750e+001 3.345307e+001 4.255383e+001 2.495064e+001 3.520009e+001 3.086100e+001 1.933031e+001 7.237757e+001 4.515890e+000 9.695542e-001 1.094259e+001 4.238949e+000 4.973147e+000 4.086273e+000 8.413079e+000 4.217688e+000 3.441669e+000 3.301400e+000 4.925964e+000 2.434795e+000 2.368493e+000 1.300327e+000 3.084912e-001 1.866730e+000 1.136781e+000 1.059452e+000 8.828039e-001 1.231748e+000 1.017650e+000 7.674853e-001 5.676027e-001 1.262494e+000 6.386119e-001 1.597164e+000
<GCONST> 1.344267e+002
<STATE> 7
<MEAN> 39
 -1.535641e+001 -1.213950e+001 -1.579877e+000 -1.551902e+001 7.306990e+000 -1.509066e+001 1.144622e+001 -4.429323e+000 4.319904e+000 -3.865207e+000 3.316240e+000 -3.306841e+000 5.985321e+001 4.118768e-001 -1.051489e-001 -8.187184e-001 -1.837110e-001 2.001786e+000 -1.908349e+000 9.286967e-001 -1.499232e+000 6.123558e-002 -9.510802e-001 3.536547e-001 -3.111583e-001 5.199506e+000 6.542242e-001 7.240198e-001 9.688261e-001 6.721647e-001 2.562261e-004 3.685748e-001 -4.010624e-001 -2.310214e-001 2.618966e-001 -1.688785e-001 2.279773e-002 -2.011211e-001 5.151393e-001
<VARIANCE> 39
 1.306816e+001 3.128938e+001 4.154458e+001 2.819328e+001 3.567561e+001 6.755385e+001 7.666355e+001 4.293809e+001 2.643356e+001 2.586174e+001 2.793241e+001 1.686871e+001 1.452903e+002 2.271274e+000 5.857829e+000 7.867466e+000 6.151182e+000 2.170107e+000 7.786458e+000 9.297880e+000 2.710929e+000 3.239845e+000 3.004005e+000 3.831364e+000 1.719822e+000 9.155448e+000 4.245974e-001 8.938926e-001 9.696356e-001 9.698668e-001 7.348039e-001 2.080665e+000 2.266143e+000 1.041973e+000 4.513599e-001 7.917163e-001 8.452176e-001 3.040580e-001 4.751419e+000
<GCONST> 1.366257e+002
<STATE> 8
<MEAN> 39
 -3.032357e+000 -4.525624e+000 5.228615e+000 -7.399657e+000 1.303050e+001 -1.377696e+001 1.019591e+001 -8.794834e+000 6.778757e+000 -7.922029e+000 2.188547e+000 -4.360421e+000 7.139481e+001 1.869447e+000 9.742116e-001 5.068794e-001 1.170721e+000 5.309126e-001 1.284332e+000 -8.324025e-001 1.680852e-001 4.284513e-001 3.102533e-001 -3.328433e-001 2.077499e-001 -2.019706e+000 -4.687130e-001 -3.054376e-001 -4.728992e-001 -1.985179e-001 -2.422854e-001 1.891954e-001 -2.681277e-001 2.122646e-001 -9.798363e-002 4.498283e-001 4.950352e-002 1.092779e-001 -1.215650e+000
<VARIANCE> 39
 4.166452e+001 1.396800e+001 4.637142e+000 9.410006e+000 2.121002e+001 1.848306e+001 1.786919e+001 2.101872e+001 1.538758e+001 1.562739e+001 2.095508e+001 1.131581e+001 4.087154e+001 4.086669e+000 3.420930e+000 2.941640e+000 2.306992e+000 2.469933e+000 1.524391e+000 1.481151e+000 2.867639e+000 2.296229e+000 3.270686e+000 2.012686e+000 1.281944e+000 7.214739e+000 6.593449e-001 5.469109e-001 3.937825e-001 5.192724e-001 6.154327e-001 4.919736e-001 4.282902e-001 4.311386e-001 4.133240e-001 3.930334e-001 3.743722e-001 3.131253e-001 6.983782e-001
<GCONST> 1.108345e+002
<STATE> 9
<MEAN> 39
 -5.848097e+000 -1.349197e+000 1.716166e+000 -2.208597e+000 1.106487e+001 -4.261406e+000 2.487604e+000 -4.353779e+000 6.296755e+000 -5.773169e-001 1.858058e+000 -1.492187e+000 4.512210e+001 -1.675798e+000 2.939132e-001 -6.913402e-001 7.483936e-001 -1.222812e+000 1.275953e+000 -1.044766e+000 9.262769e-001 -7.180563e-001 8.436407e-001 -2.589886e-001 5.836355e-001 -3.987679e+000 -1.909126e-001 -1.153101e-001 4.115961e-002 -3.653139e-002 -1.784713e-001 -8.579409e-002 1.477505e-001 7.686274e-002 -6.997859e-002 -2.297003e-001 -1.051640e-001 -4.169056e-002 3.198155e-001
<VARIANCE> 39
 2.844925e+001 1.062806e+001 1.581505e+001 3.268916e+001 2.661744e+001 5.129542e+001 2.703510e+001 2.555626e+001 2.750443e+001 1.875668e+001 1.508242e+001 1.758581e+001 9.403881e+001 8.822201e-001 9.412252e-001 9.940323e-001 1.629893e+000 1.265381e+000 2.055179e+000 1.872020e+000 1.052061e+000 1.010992e+000 1.548498e+000 1.521482e+000 1.514996e+000 1.505060e+000 2.063248e-001 2.004767e-001 2.054036e-001 2.488428e-001 2.635338e-001 3.813215e-001 2.947504e-001 2.812098e-001 3.598343e-001 3.039337e-001 3.014482e-001 2.707498e-001 9.695858e-002
<GCONST> 9.938725e+001
<TRANSP> 10
 0.000000e+000 1.000000e+000 0.000000e+000 0.000000e+000 0.000000e+000 0.000000e+000 0.000000e+000 0.000000e+000 0.000000e+000 0.000000e+000
 0.000000e+000 8.457200e-001 1.542800e-001 0.000000e+000 0.000000e+000 0.000000e+000 0.000000e+000 0.000000e+000 0.000000e+000 0.000000e+000
 0.000000e+000 0.000000e+000 7.582276e-001 2.417724e-001 0.000000e+000 0.000000e+000 0.000000e+000 0.000000e+000 0.000000e+000 0.000000e+000
 0.000000e+000 0.000000e+000 0.000000e+000 8.625939e-001 1.374061e-001 0.000000e+000 0.000000e+000 0.000000e+000 0.000000e+000 0.000000e+000
 0.000000e+000 0.000000e+000 0.000000e+000 0.000000e+000 7.778409e-001 2.221591e-001 0.000000e+000 0.000000e+000 0.000000e+000 0.000000e+000
 0.000000e+000 0.000000e+000 0.000000e+000 0.000000e+000 0.000000e+000 8.734409e-001 1.265591e-001 0.000000e+000 0.000000e+000 0.000000e+000
 0.000000e+000 0.000000e+000 0.000000e+000 0.000000e+000 0.000000e+000 0.000000e+000 7.828168e-001 2.171832e-001 0.000000e+000 0.000000e+000
 0.000000e+000 0.000000e+000 0.000000e+000 0.000000e+000 0.000000e+000 0.000000e+000 0.000000e+000 8.440143e-001 1.559857e-001 0.000000e+000
 0.000000e+000 0.000000e+000 0.000000e+000 0.000000e+000 0.000000e+000 0.000000e+000 0.000000e+000 0.000000e+000 8.241443e-001 1.758557e-001
 0.000000e+000 0.000000e+000 0.000000e+000 0.000000e+000 0.000000e+000 0.000000e+000 0.000000e+000 0.000000e+000 0.000000e+000 0.000000e+000
<ENDHMM>
