~o
<STREAMINFO> 1 39
<VECSIZE> 39<NULLD><MFCC_D_A_0><DIAGC>
~h "starboard"
<BEGINHMM>
<NUMSTATES> 10
<STATE> 2
<MEAN> 39
 -2.152186e+001 5.174646e+000 4.814542e+000 -8.700950e+000 2.076657e+001 -1.707591e+001 9.976298e+000 -7.813706e+000 4.555011e+000 -4.016582e+000 1.718910e+000 -4.983824e+000 7.020385e+001 -1.054516e+000 -5.251338e-001 -2.730195e-001 -8.384488e-002 -4.274348e-002 2.327346e-003 5.870227e-001 -6.652945e-001 1.966678e-001 -2.293192e-001 6.322600e-001 -5.044304e-003 1.574046e+000 3.210899e-001 7.504589e-002 2.268356e-002 2.063908e-001 -3.707464e-001 2.248769e-001 -1.794054e-001 9.634424e-002 8.111387e-003 4.712917e-002 4.512596e-002 3.797982e-002 -6.005449e-001
<VARIANCE> 39
 7.936844e+001 1.875726e+001 1.357820e+001 1.895265e+001 2.657092e+001 1.983554e+001 2.818134e+001 2.579026e+001 2.209249e+001 2.329574e+001 2.516598e+001 2.127594e+001 4.607204e+001 6.516501e+000 3.267357e+000 2.918509e+000 4.413740e+000 4.290610e+000 2.279642e+000 2.957682e+000 3.412396e+000 2.500702e+000 2.623410e+000 2.913180e+000 3.257314e+000 7.262671e+000 6.188182e-001 6.399390e-001 5.454394e-001 5.740954e-001 4.765289e-001 4.475212e-001 6.736162e-001 8.995792e-001 5.054293e-001 5.097771e-001 5.994824e-001 6.259274e-001 7.949746e-001
<GCONST> 1.233669e+002
<STATE> 3
<MEAN> 39
 -1.416061e+001 -2.743159e+000 1.050189e+000 -7.870133e+000 1.043548e+001 -1.186600e+001 8.752223e+000 -1.172608e+001 5.174912e+000 -7.791273e+000 4.048637e+000 -3.525471e+000 6.084560e+001 1.551571e+000 -1.355718e+000 -5.993081e-001 -1.663474e+000 -7.508823e-001 2.582733e-001 -1.032030e+000 4.561476e-001 -1.117046e-001 1.122067e-002 -4.470803e-001 -3.424601e-001 6.096694e-001 -6.153781e-003 -1.655425e-001 -5.703225e-002 -4.776003e-001 2.218143e-001 -1.731582e-002 -1.327588e-001 1.069176e-001 -2.806467e-002 3.321551e-001 -3.407292e-001 -1.567388e-001 8.803787e-001
<VARIANCE> 39
 3.322333e+001 3.660913e+001 3.104321e+001 2.201294e+001 1.693024e+001 2.674002e+001 4.435575e+001 3.193898e+001 2.985923e+001 2.208328e+001 1.881946e+001 1.307812e+001 1.297875e+002 1.395258e+000 2.789360e+000 4.180576e+000 4.670292e+000 1.124239e+000 3.194514e+000 3.633299e+000 4.209553e+000 3.019787e+000 3.671178e+000 2.557873e+000 1.440440e+000 3.989796e+001 2.650096e-001 4.037496e-001 9.155822e-001 4.138903e-001 2.786557e-001 8.806209e-001 7.176680e-001 9.520316e-001 6.748967e-001 6.372937e-001 4.837890e-001 2.941645e-001 5.177454e+000
<GCONST> 1.251347e+002
<STATE> 4
<MEAN> 39
 -2.734761e+000 -1.481582e+001 -5.269605e+000 -2.862146e+001 1.093561e+001 -6.356280e+000 -2.687608e-001 -9.396397e+000 3.342675e+000 -5.288680e-001 -5.727346e+000 -8.181759e+000 8.372499e+001 8.185403e-001 -1.721767e+000 -5.287933e-001 -1.863171e+000 8.906836e-001 2.993738e+000 -7.462459e-001 -7.918989e-001 -1.050686e+000 1.074963e+000 -1.686815e+000 -4.876302e-001 1.439305e+000 -5.637485e-001 4.347533e-001 1.211593e-001 1.458432e+000 -1.635396e-001 1.440425e-001 4.267664e-001 -4.200417e-001 -1.291044e-001 -7.283520e-001 7.054598e-001 3.321666e-001 -1.752310e+000
<VARIANCE> 39
 9.928856e-001 1.125004e+001 2.864434e+000 1.366432e+001 1.025779e+001 1.598029e+001 8.325896e+000 1.018387e+001 9.980282e+000 5.759860e+000 1.365229e+001 6.022367e+000 4.333682e+000 1.533199e+000 6.800767e-001 7.951518e-001 7.828244e+000 1.728741e+000 1.626323e+000 2.771673e+000 1.227239e+000 1.316476e+000 2.797510e+000 3.493291e+000 1.192351e+000 4.416677e+000 1.175627e-001 1.973295e-001 1.663083e-001 4.802627e-001 3.332111e-001 8.046832e-001 3.959386e-001 2.269423e-001 4.112116e-001 2.279275e-001 4.644009e-001 1.406121e-001 9.902164e-001
<GCONST> 9.044579e+001
<STATE> 5
<MEAN> 39
 -2.058922e+000 -1.797680e+001 -5.952460e+000 -2.414384e+001 1.021570e+001 2.146777e+000 6.171793e-001 -1.687023e+001 1.731238e+000 -3.786520e+000 -4.520632e+000 -6.149287e+000 8.157574e+001 4.187171e-001 -5.850841e-002 4.116780e-002 5.940837e-001 -6.429972e-001 5.888107e-001 3.177263e-001 -7.075886e-001 3.163405e-002 -3.009305e-001 5.539614e-002 4.426964e-001 -4.356785e-001 1.583907e-001 1.606246e-001 7.584079e-002 6.499407e-002 -2.139446e-001 -1.399848e-001 1.398930e-001 2.023279e-001 5.138245e-002 8.958896e-002 -5.530967e-002 2.941878e-002 -1.016386e-001
<VARIANCE> 39
 3.678259e+000 3.708377e+000 3.197541e+000 1.359873e+001 1.996419e+001 9.363494e+000 6.474304e+000 1.299797e+001 4.639136e+000 6.567189e+000 8.865808e+000 7.427097e+000 3.834857e+000 2.370943e-001 2.008485e-001 3.855143e-001 9.038297e-001 1.128140e+000 5.968155e-001 5.103835e-001 4.403336e-001 3.246207e-001 3.258157e-001 5.025403e-001 4.317588e-001 1.134305e-001 3.940930e-002 7.399482e-002 7.614108e-002 1.875419e-001 1.230806e-001 1.423690e-001 8.999537e-002 1.029416e-001 8.173439e-002 7.742729e-002 8.820001e-002 7.558867e-002 4.525102e-002
<GCONST> 5.275474e+001
<STATE> 6
<MEAN> 39
 3.057431e+000 -1.013604e+001 -5.441277e-003 -1.362111e+001 2.691180e+000 1.706947e+000 5.916914e+000 -1.079496e+001 3.574544e+000 -1.137078e+000 -2.728304e+000 -1.395960e+000 6.340926e+001 3.937427e-001 9.420049e-001 4.093337e-001 -9.908540e-001 -5.198441e-001 -2.947347e-001 4.411975e-002 7.172425e-001 2.478476e-001 2.670272e-001 -2.331093e-001 1.312745e-001 -4.409649e-001 -1.499421e-001 -3.121631e-002 -8.750898e-002 -3.528078e-001 1.470743e-001 -2.054298e-003 -1.550566e-001 -2.282484e-003 -4.301637e-002 -1.716410e-002 -6.995772e-002 -1.419773e-002 1.697608e-001
<VARIANCE> 39
 3.285855e+001 2.400156e+001 2.090368e+001 1.396345e+002 3.882011e+001 3.235192e+001 2.853301e+001 3.410110e+001 2.532855e+001 2.248982e+001 3.444254e+001 1.872624e+001 1.420734e+002 6.039431e+000 2.972418e+000 3.156627e+000 1.996254e+001 5.151352e+000 3.397335e+000 3.595846e+000 4.552145e+000 3.002733e+000 2.632005e+000 4.895261e+000 1.898855e+000 2.377013e+001 1.359590e+000 6.639970e-001 6.815561e-001 2.220926e+000 1.067943e+000 6.922694e-001 7.076005e-001 8.747860e-001 6.100323e-001 5.132768e-001 8.287198e-001 3.377398e-001 3.711903e+000
<GCONST> 1.366745e+002
<STATE> 7
<MEAN> 39
 4.618045e+000 -3.447099e+000 -9.967625e-001 -4.040804e+001 3.069252e+000 1.500180e+000 3.641267e+000 -6.923560e+000 2.285161e+000 4.904166e-002 -1.191355e+001 1.678380e+000 7.207494e+001 -2.942992e-001 8.459252e-002 -1.606056e-001 -4.191514e-001 9.863859e-001 1.488122e-001 -7.421894e-002 4.937213e-002 -1.208358e-001 2.529938e-002 -1.463088e-002 3.660088e-001 -7.095903e-002 -1.494499e-002 -5.197101e-002 2.605780e-002 4.290360e-001 1.013360e-001 -8.607614e-002 2.590183e-004 -1.744798e-001 1.615489e-001 -1.997047e-002 2.310452e-001 -1.201853e-001 -7.264446e-002
<VARIANCE> 39
 8.568313e+000 1.085441e+001 5.373589e+000 4.579340e+001 5.224440e+001 1.232335e+001 1.400013e+001 2.891244e+001 1.553337e+001 1.943971e+001 2.109162e+001 3.188910e+001 5.440551e+000 3.709401e-001 4.745861e-001 1.766781e-001 1.967487e+000 8.904813e-001 7.515382e-001 6.600863e-001 1.319463e+000 9.419053e-001 5.922593e-001 1.507223e+000 8.950065e-001 3.648153e-001 6.682632e-002 6.989104e-002 4.793947e-002 3.117261e-001 1.324695e-001 1.549655e-001 1.607493e-001 1.073160e-001 1.536049e-001 1.138771e-001 1.434792e-001 1.410528e-001 1.036699e-001
<GCONST> 7.574692e+001
<STATE> 8
<MEAN> 39
 -2.186355e+000 -4.042379e+000 -3.005882e-001 -2.419252e+001 1.396213e+001 -8.061872e+000 1.223365e+000 -1.237348e+001 8.589154e+000 -9.531331e-001 -4.361814e+000 -2.306824e+000 6.604415e+001 -5.784270e-001 1.773957e-001 1.241841e-001 2.217928e+000 6.039542e-001 -1.086105e+000 3.553543e-002 -2.619312e-001 9.489830e-001 -1.009197e-001 1.361679e-001 -7.622778e-001 -1.125152e+000 2.155215e-001 8.202182e-002 -5.719499e-002 -7.704563e-002 -4.005014e-002 2.514508e-001 5.108640e-002 2.448229e-001 -5.086953e-002 -1.482077e-002 -2.827765e-001 7.367462e-002 -1.455604e-001
<VARIANCE> 39
 5.070111e+001 3.896265e+001 2.705398e+001 1.154380e+002 8.152850e+001 8.677561e+001 3.107430e+001 5.601739e+001 7.260928e+001 3.947203e+001 4.039664e+001 3.011977e+001 4.775136e+001 3.613784e+000 1.924648e+000 3.039962e+000 6.843668e+000 3.573180e+000 5.662528e+000 2.465242e+000 4.972977e+000 5.550065e+000 2.335520e+000 3.542288e+000 2.171802e+000 5.515505e+000 6.033940e-001 4.196701e-001 5.845298e-001 1.314804e+000 6.437255e-001 9.108441e-001 4.852147e-001 8.140083e-001 1.088135e+000 4.835740e-001 4.532388e-001 3.609921e-001 1.155399e+000
<GCONST> 1.339601e+002
<STATE> 9
<MEAN> 39
 3.746888e+000 4.538408e+000 -2.443495e+000 -7.603346e+000 1.299412e+001 -2.712275e+000 1.385034e+000 -7.272203e+000 1.096097e+001 -1.599051e+000 -6.600894e+000 -3.243766e+000 5.125803e+001 8.057408e-001 1.225435e+000 1.126065e-001 1.447990e+000 -9.791992e-001 1.078534e+000 -5.430200e-001 6.787042e-001 -8.739665e-001 1.218154e-001 3.298638e-001 6.319779e-001 -1.821980e+000 -2.790896e-001 1.145559e-001 3.205093e-001 1.020814e-001 -2.231940e-001 -1.507739e-001 -8.756146e-002 -9.355161e-002 -2.633567e-001 4.102127e-002 2.663148e-001 1.255800e-001 -8.592092e-002
<VARIANCE> 39
 5.254907e+001 1.025837e+002 2.813966e+001 5.707849e+001 7.520890e+001 4.609572e+001 3.884104e+001 5.886258e+001 8.654708e+001 2.239931e+001 7.007930e+001 2.291890e+001 6.364144e+001 4.367869e+000 4.206204e+000 2.807086e+000 4.151700e+000 5.443896e+000 4.579374e+000 4.573076e+000 2.710521e+000 5.593433e+000 2.667134e+000 4.074077e+000 1.933721e+000 1.993582e+000 5.170460e-001 8.168560e-001 3.608397e-001 6.110744e-001 1.229402e+000 7.854864e-001 7.796170e-001 5.868236e-001 8.632886e-001 4.118823e-001 6.224803e-001 5.459268e-001 3.669342e-001
<GCONST> 1.328914e+002
<TRANSP> 10
 0.000000e+000 1.000000e+000 0.000000e+000 0.000000e+000 0.000000e+000 0.000000e+000 0.000000e+000 0.000000e+000 0.000000e+000 0.000000e+000
 0.000000e+000 9.272571e-001 7.274292e-002 0.000000e+000 0.000000e+000 0.000000e+000 0.000000e+000 0.000000e+000 0.000000e+000 0.000000e+000
 0.000000e+000 0.000000e+000 8.932106e-001 1.067894e-001 0.000000e+000 0.000000e+000 0.000000e+000 0.000000e+000 0.000000e+000 0.000000e+000
 0.000000e+000 0.000000e+000 0.000000e+000 7.355250e-001 2.644750e-001 0.000000e+000 0.000000e+000 0.000000e+000 0.000000e+000 0.000000e+000
 0.000000e+000 0.000000e+000 0.000000e+000 0.000000e+000 9.052486e-001 9.475135e-002 0.000000e+000 0.000000e+000 0.000000e+000 0.000000e+000
 0.000000e+000 0.000000e+000 0.000000e+000 0.000000e+000 0.000000e+000 9.249712e-001 7.502881e-002 0.000000e+000 0.000000e+000 0.000000e+000
 0.000000e+000 0.000000e+000 0.000000e+000 0.000000e+000 0.000000e+000 0.000000e+000 9.225460e-001 7.745403e-002 0.000000e+000 0.000000e+000
 0.000000e+000 0.000000e+000 0.000000e+000 0.000000e+000 0.000000e+000 0.000000e+000 0.000000e+000 9.115935e-001 8.840650e-002 0.000000e+000
 0.000000e+000 0.000000e+000 0.000000e+000 0.000000e+000 0.000000e+000 0.000000e+000 0.000000e+000 0.000000e+000 8.846585e-001 1.153415e-001
 0.000000e+000 0.000000e+000 0.000000e+000 0.000000e+000 0.000000e+000 0.000000e+000 0.000000e+000 0.000000e+000 0.000000e+000 0.000000e+000
<ENDHMM>
