~o
<STREAMINFO> 1 39
<VECSIZE> 39<NULLD><MFCC_D_A_0><DIAGC>
~h "hello"
<BEGINHMM>
<NUMSTATES> 10
<STATE> 2
<MEAN> 39
 -1.092416e+001 -1.291890e+001 -4.744270e+000 -2.352775e+001 2.163907e+001 9.140488e+000 9.691049e-001 -1.933254e+001 1.884220e+001 -7.283305e+000 5.733838e+000 -6.739959e+000 6.738379e+001 8.199540e-001 2.740239e-001 7.735701e-002 -3.809225e-001 1.295857e-001 -1.054979e+000 2.950969e-001 4.180300e-001 -1.693531e+000 4.359309e-003 -1.158406e+000 2.652471e-002 1.557190e+000 4.825044e-001 2.618095e-002 -1.823869e-002 1.277413e-001 -3.602274e-001 6.648879e-002 -2.583252e-001 3.187448e-001 -8.790272e-001 4.832732e-001 -5.354526e-001 5.184423e-001 -2.876984e-001
<VARIANCE> 39
 2.019551e+001 3.267759e+001 2.368590e+001 2.693059e+001 2.295820e+001 3.324908e+001 2.731169e+001 2.303768e+001 4.229155e+001 2.123516e+001 5.964682e+001 1.621739e+001 1.030090e+001 6.070524e+000 3.331156e+000 3.665286e+000 2.703689e+000 3.494171e+000 3.629306e+000 3.133042e+000 2.992430e+000 8.415985e+000 3.038715e+000 4.361815e+000 2.946568e+000 1.720350e+000 5.890363e-001 6.337718e-001 6.738678e-001 5.823420e-001 6.618108e-001 7.648633e-001 3.788069e-001 6.011664e-001 7.225623e-001 5.163254e-001 5.374530e-001 5.653859e-001 7.451417e-001
<GCONST> 1.235803e+002
<STATE> 3
<MEAN> 39
 9.873959e-001 -1.214564e+001 -3.503272e+000 -2.832603e+001 1.786568e+001 4.153224e+000 -1.398143e+000 -1.120219e+001 -2.084915e+000 1.365932e+000 -9.877411e+000 2.930672e-001 7.770854e+001 8.792627e-001 -5.509522e-001 -3.777707e-001 9.038703e-002 -1.558166e+000 1.964277e-001 1.845445e-002 6.268432e-001 -1.014336e+000 7.509302e-001 -1.093883e+000 3.877570e-001 9.119882e-001 -3.756422e-001 -2.611962e-001 -1.378287e-001 5.567943e-001 -3.097632e-001 1.573480e-001 3.742796e-001 -4.641457e-001 9.435625e-001 -3.890019e-001 5.121936e-001 -5.454451e-001 -3.603308e-001
<VARIANCE> 39
 2.387542e+000 4.132174e+000 9.531982e+000 1.170033e+001 1.795413e+001 1.805264e+001 1.146264e+001 1.273082e+001 2.383517e+001 1.640538e+001 2.107182e+001 9.134458e+000 7.922200e+000 9.529027e-001 5.235843e-001 7.235501e-001 3.392779e+000 2.723255e+000 1.596031e+000 1.944210e+000 2.680923e+000 5.368444e+000 2.558985e+000 2.244750e+000 3.016416e+000 9.761503e-001 2.265300e-001 1.485856e-001 2.252102e-001 2.513162e-001 1.751863e-001 3.266341e-001 2.355709e-001 1.809298e-001 2.837737e-001 1.982880e-001 1.814075e-001 1.921644e-001 6.556393e-002
<GCONST> 8.933681e+001
<STATE> 4
<MEAN> 39
 5.220252e+000 -1.720444e+001 -5.966932e+000 -1.505853e+001 3.892261e+000 9.995944e-001 4.667484e+000 -1.282112e+001 3.731000e+000 -1.790902e+000 -8.993424e+000 -4.167763e+000 7.683221e+001 1.036809e+000 -6.251871e-001 -1.412180e-001 3.218509e+000 -1.359776e+000 -3.691021e+000 1.305811e+000 9.077961e-001 9.576154e-001 -2.441185e-001 -2.707209e-001 8.210884e-001 -6.395215e-001 1.059717e-002 3.756276e-001 1.355797e-002 5.492908e-002 6.762661e-001 -9.100169e-001 -3.116111e-001 4.897755e-001 -1.451300e-001 1.651103e-001 -2.407300e-001 6.976426e-001 -2.342593e-001
<VARIANCE> 39
 6.421732e+000 1.187481e+001 1.371948e+001 4.364196e+001 2.997918e+001 8.239532e+001 2.885790e+001 2.916721e+001 2.538862e+001 2.171336e+001 2.421063e+001 2.287023e+001 8.689204e+000 2.735145e-001 1.344999e+000 5.452201e-001 8.283589e-001 3.205473e+000 6.817570e+000 2.197803e+000 4.112241e+000 2.044918e+000 1.108425e+000 1.082975e+000 4.418635e+000 3.555728e-001 6.967745e-002 2.119581e-001 1.051174e-001 2.842398e-001 3.001845e-001 5.666492e-001 4.779329e-001 6.691527e-001 4.157317e-001 2.319681e-001 2.524886e-001 3.842100e-001 3.121469e-002
<GCONST> 9.780932e+001
<STATE> 5
<MEAN> 39
 9.537772e+000 -1.321413e+001 -3.799724e+000 -1.845652e+000 7.984622e+000 -2.716672e+001 5.442278e+000 -3.464678e+000 2.364722e-001 3.087160e+000 -1.540487e+001 6.792622e+000 6.971772e+001 -4.820556e-003 7.048004e-001 1.438133e+000 -4.573348e-001 5.814553e-001 -1.094241e+000 -1.089056e+000 7.926834e-001 -1.593382e+000 1.530768e+000 -9.691269e-001 -2.843546e-002 -8.032604e-001 -2.251387e-001 -2.773334e-001 3.511657e-001 -9.985865e-001 -2.637742e-001 1.428280e+000 -1.859302e-001 -4.195929e-001 3.524872e-001 3.915828e-002 -4.840620e-003 -6.188155e-001 2.969652e-001
<VARIANCE> 39
 5.103685e+000 1.583444e+001 1.875142e+001 2.020331e+001 4.822401e+001 5.248566e+001 2.310694e+001 1.715217e+001 5.379885e+001 3.036510e+001 2.524078e+001 2.887851e+001 1.997000e+001 3.639966e-001 1.290565e+000 1.754307e+000 5.714833e+000 4.171525e+000 1.389158e+001 2.200761e+000 1.829128e+000 6.317932e+000 1.715208e+000 2.108327e+000 4.767891e+000 6.176219e-001 3.499098e-002 1.938415e-001 2.159269e-001 3.315558e-001 6.040186e-001 5.789867e-001 4.384522e-001 3.645738e-001 2.706221e+000 4.671977e-001 4.278860e-001 5.096226e-001 9.359127e-002
<GCONST> 1.098486e+002
<STATE> 6
<MEAN> 39
 6.733032e+000 -1.380927e+001 6.733662e+000 -1.887587e+001 8.641547e+000 -1.490452e+001 6.129240e-002 -6.673409e+000 5.039253e+000 8.403869e+000 -1.942894e+001 6.073315e-001 7.145298e+001 -2.806673e-001 3.970098e-001 2.361125e-001 -2.599747e+000 7.887214e-001 1.964229e+000 6.189365e-001 -2.144693e+000 2.757655e+000 -1.388819e-001 4.828194e-001 -7.466258e-001 3.495400e-001 2.094556e-001 4.856102e-001 -6.096579e-001 5.807921e-001 2.285544e-001 -3.960650e-001 3.753247e-001 -3.335284e-001 -3.151785e-001 -1.174822e-001 5.493664e-001 1.157065e-001 -3.131776e-001
<VARIANCE> 39
 3.307475e+000 8.225561e+000 9.084078e+000 4.103511e+001 2.119806e+001 1.735773e+001 3.111850e+001 2.598355e+001 4.568940e+001 2.152306e+001 3.905347e+001 1.930786e+001 1.443782e+001 4.450223e-001 1.803592e+000 2.401965e+000 6.619503e+000 2.731899e+000 5.097352e+000 2.405463e+000 2.025676e+000 5.721140e+000 1.671431e+000 4.842757e+000 1.676215e+000 9.943553e-001 5.628952e-002 1.696761e-001 2.468644e-001 6.623203e-001 6.029429e-001 6.176473e-001 5.921707e-001 3.078588e-001 1.178916e+000 3.783766e-001 7.345843e-001 3.396412e-001 1.476278e-001
<GCONST> 1.075406e+002
<STATE> 7
<MEAN> 39
 8.859776e+000 -3.398773e+000 1.594879e+000 -2.663612e+001 9.860889e+000 -2.678298e+000 4.326460e+000 -1.972891e+001 8.626084e+000 6.644311e+000 -1.238063e+001 1.583798e+000 6.624693e+001 8.501061e-001 1.807385e+000 -9.035003e-001 -3.205172e-001 -8.745520e-001 2.789102e+000 1.101263e-001 -8.356664e-001 -5.924564e-001 -7.375081e-001 3.630871e-001 1.405601e+000 -1.431737e+000 1.613153e-001 -1.149522e-001 -5.489580e-002 4.014487e-001 -2.968899e-001 5.998528e-002 -1.171094e-001 6.958379e-001 -3.666561e-001 -3.062632e-001 -1.968133e-001 2.285590e-001 -1.134113e-001
<VARIANCE> 39
 6.204321e+000 2.289227e+001 2.043950e+001 5.717097e+001 2.443063e+001 6.058196e+001 1.716994e+001 2.606570e+001 4.165972e+001 3.204330e+001 3.040756e+001 4.299854e+001 1.928880e+001 5.623837e-001 8.409755e-001 1.357124e+000 1.883715e+000 1.977559e+000 2.171158e+000 1.279323e+000 3.611728e+000 2.013521e+000 1.752299e+000 3.603427e+000 3.455146e+000 3.327231e-001 7.156767e-002 1.906564e-001 1.877696e-001 3.835651e-001 4.004101e-001 4.928961e-001 2.902952e-001 3.348107e-001 4.436059e-001 2.730870e-001 5.535332e-001 8.513303e-001 3.951270e-002
<GCONST> 1.033187e+002
<STATE> 8
<MEAN> 39
 1.799533e+001 -3.208090e-001 -9.302475e+000 -9.061584e+000 3.786315e+000 4.042206e+000 8.738502e-001 -6.478898e+000 1.936353e+000 -2.525354e+000 -7.652100e+000 4.316790e+000 5.655106e+001 4.987469e-001 1.050536e+000 -8.876078e-001 8.750599e-001 -8.284930e-001 3.772336e-001 1.402575e-001 1.518330e+000 -9.975442e-001 -9.081910e-001 5.795922e-001 -4.305904e-001 -1.277891e+000 -1.989002e-001 1.176442e-001 1.301904e-001 -1.629567e-001 5.296154e-002 -2.656994e-001 1.612934e-001 -1.407895e-002 -1.262677e-002 7.587914e-002 9.328037e-002 -2.558486e-001 -1.629794e-002
<VARIANCE> 39
 1.146387e+001 6.745017e+001 7.816998e+001 1.932121e+002 4.211736e+001 6.608814e+001 3.285769e+001 9.193816e+001 3.153333e+001 1.930654e+001 3.997930e+001 3.993616e+001 2.618532e+001 8.201079e-001 4.595512e+000 2.335309e+000 9.305981e+000 2.617292e+000 3.900760e+000 2.596721e+000 3.369472e+000 3.780106e+000 2.714212e+000 2.625045e+000 2.640926e+000 1.286710e+000 8.403277e-002 4.425540e-001 2.858759e-001 8.527188e-001 3.686668e-001 8.147513e-001 4.479468e-001 4.588199e-001 4.978735e-001 3.873712e-001 4.584153e-001 4.728718e-001 1.167135e-001
<GCONST> 1.215511e+002
<STATE> 9
<MEAN> 39
 1.441747e+001 1.610271e+001 -6.972191e+000 -1.524780e+001 -4.284846e+000 8.711284e+000 8.864113e+000 -6.598442e-001 -5.491251e+000 -8.655464e+000 -5.957442e+000 1.317798e+000 4.463590e+001 -6.918527e-001 7.037016e-001 3.743975e-001 4.499531e-001 -4.448854e-001 -3.999507e-001 6.116766e-001 1.201067e+000 -1.748377e-001 -3.307262e-001 3.641788e-001 -5.943184e-001 -9.521886e-001 -8.504741e-002 -2.455865e-001 6.574782e-002 -1.947395e-002 9.315990e-002 -5.898414e-002 -1.347687e-001 -1.562831e-001 2.351526e-001 1.847886e-001 -8.067384e-002 1.650152e-001 1.517616e-001
<VARIANCE> 39
 9.348275e+000 1.597336e+001 2.313354e+001 2.105043e+001 3.945452e+001 4.150212e+001 2.732911e+001 2.654103e+001 2.128902e+001 2.860956e+001 2.127692e+001 1.825116e+001 9.419701e+000 8.191552e-001 1.570230e+000 2.262639e+000 2.233342e+000 2.529536e+000 1.657653e+000 2.520438e+000 2.764970e+000 2.731454e+000 2.241186e+000 1.848838e+000 2.211981e+000 6.529008e-001 9.412429e-002 2.135130e-001 3.756965e-001 4.994628e-001 4.512679e-001 3.885765e-001 3.891196e-001 4.419025e-001 4.959857e-001 3.613271e-001 3.103879e-001 4.499943e-001 5.419398e-002
<GCONST> 1.038316e+002
<TRANSP> 10
 0.000000e+000 1.000000e+000 0.000000e+000 0.000000e+000 0.000000e+000 0.000000e+000 0.000000e+000 0.000000e+000 0.000000e+000 0.000000e+000
 0.000000e+000 8.666953e-001 1.333047e-001 0.000000e+000 0.000000e+000 0.000000e+000 0.000000e+000 0.000000e+000 0.000000e+000 0.000000e+000
 0.000000e+000 0.000000e+000 8.306670e-001 1.693330e-001 0.000000e+000 0.000000e+000 0.000000e+000 0.000000e+000 0.000000e+000 0.000000e+000
 0.000000e+000 0.000000e+000 0.000000e+000 8.307389e-001 1.692611e-001 0.000000e+000 0.000000e+000 0.000000e+000 0.000000e+000 0.000000e+000
 0.000000e+000 0.000000e+000 0.000000e+000 0.000000e+000 8.526225e-001 1.473775e-001 0.000000e+000 0.000000e+000 0.000000e+000 0.000000e+000
 0.000000e+000 0.000000e+000 0.000000e+000 0.000000e+000 0.000000e+000 8.126877e-001 1.873123e-001 0.000000e+000 0.000000e+000 0.000000e+000
 0.000000e+000 0.000000e+000 0.000000e+000 0.000000e+000 0.000000e+000 0.000000e+000 8.542835e-001 1.457165e-001 0.000000e+000 0.000000e+000
 0.000000e+000 0.000000e+000 0.000000e+000 0.000000e+000 0.000000e+000 0.000000e+000 0.000000e+000 8.806136e-001 1.193864e-001 0.000000e+000
 0.000000e+000 0.000000e+000 0.000000e+000 0.000000e+000 0.000000e+000 0.000000e+000 0.000000e+000 0.000000e+000 8.783759e-001 1.216241e-001
 0.000000e+000 0.000000e+000 0.000000e+000 0.000000e+000 0.000000e+000 0.000000e+000 0.000000e+000 0.000000e+000 0.000000e+000 0.000000e+000
<ENDHMM>
