~o
<STREAMINFO> 1 52
<VECSIZE> 52<NULLD><MFCC_D_A_T_0><DIAGC>
~h "dd"
<BEGINHMM>
<NUMSTATES> 12
<STATE> 2
<NUMMIXES> 3
<MIXTURE> 1 3.596985e-01
<MEAN> 52
 -6.199876e+00 2.597126e+00 1.624194e+01 -2.025918e+00 -1.784219e+01 -4.128804e+00 -1.159353e+01 -5.819599e+00 -1.094624e+01 -4.966444e+00 3.711486e+00 -3.424573e+00 7.146131e+01 1.499342e+00 -5.746914e-01 3.399940e+00 -9.118972e-01 -3.360366e+00 8.035438e-01 -2.550903e+00 3.788933e-01 -1.860709e+00 -4.378392e-01 1.492153e+00 -7.794578e-01 1.975804e+00 8.083595e-02 -1.230446e-01 -1.353076e+00 -1.637094e-01 8.728015e-01 3.259368e-01 5.784745e-01 -2.099190e-02 3.855453e-01 5.897571e-01 -4.091376e-01 -1.818005e-01 -8.385190e-01 -2.698374e-01 1.652624e-01 -5.966927e-01 1.888905e-01 5.284616e-01 -1.723952e-01 5.135011e-01 -8.013605e-02 2.716740e-01 1.050972e-01 -2.391190e-01 7.292324e-02 -1.595511e-01
<VARIANCE> 52
 1.134543e+01 2.837674e+01 3.145680e+01 5.206975e+01 3.935500e+01 3.694398e+01 4.913209e+01 4.079116e+01 4.726279e+01 3.861489e+01 2.713401e+01 2.798957e+01 1.498106e+01 2.756197e+00 2.277385e+00 7.680405e+00 3.511999e+00 3.303057e+00 4.086001e+00 4.799710e+00 3.554606e+00 4.921776e+00 4.601693e+00 3.114555e+00 3.069331e+00 1.097754e+00 3.830847e-01 4.384029e-01 8.504578e-01 4.858001e-01 7.641822e-01 6.542972e-01 8.913020e-01 5.814501e-01 6.913769e-01 5.918236e-01 5.815991e-01 4.421834e-01 1.735953e-01 9.549647e-02 9.113269e-02 2.842358e-01 1.343007e-01 1.671731e-01 1.908732e-01 1.959797e-01 1.637479e-01 1.998499e-01 1.937862e-01 1.474289e-01 1.183702e-01 5.164722e-02
<GCONST> 1.233431e+02
<MIXTURE> 2 1.541264e-01
<MEAN> 52
 -1.213881e+01 -5.569711e-01 6.437652e+00 -1.897513e+01 -1.871410e+01 -6.869267e+00 -1.698602e+01 -1.460050e+01 -1.045123e+01 2.268457e+00 -1.295783e+01 5.960580e-01 7.096522e+01 -2.231760e-01 -4.077861e-02 2.405293e+00 -5.067689e+00 -1.355625e+00 -2.908627e-01 -3.311265e+00 -1.011928e+00 -1.294532e+00 -4.041024e-01 -4.344096e+00 1.036636e+00 2.297582e+00 2.472792e-01 -8.259300e-02 -8.762194e-01 3.549843e-01 1.516903e+00 6.447108e-01 5.865518e-01 9.630912e-01 6.234798e-01 -7.602729e-01 -5.141748e-02 -1.179885e-01 -1.198011e+00 9.261078e-03 3.381092e-02 -3.943623e-01 6.883478e-01 1.345703e-01 8.591168e-02 3.978732e-01 1.562550e-01 1.919325e-01 5.343325e-02 6.546614e-01 -1.653458e-01 -1.580731e-01
<VARIANCE> 52
 8.767492e+00 2.180265e+01 2.417187e+01 4.783596e+01 2.350630e+01 2.364170e+01 4.465519e+01 3.022559e+01 3.437517e+01 4.076300e+01 6.678027e+01 4.065190e+01 1.719044e+01 9.901561e-01 1.599683e+00 3.393430e+00 2.401203e+00 7.298417e+00 4.035690e+00 4.622874e+00 5.377795e+00 3.503594e+00 4.924816e+00 3.016301e+00 4.575273e+00 3.658570e+00 1.853069e-01 2.476184e-01 6.241086e-01 9.710407e-01 5.443546e-01 5.985143e-01 8.566261e-01 5.779985e-01 4.924425e-01 5.639679e-01 1.354295e+00 6.467074e-01 2.104635e-01 3.878622e-02 6.074310e-02 1.377231e-01 7.413892e-02 3.217689e-01 1.861818e-01 2.178686e-01 2.043225e-01 1.595719e-01 2.010575e-01 1.079351e-01 1.787196e-01 1.547953e-01
<GCONST> 1.211290e+02
<MIXTURE> 3 4.861751e-01
<MEAN> 52
 -1.152393e+01 -2.098297e-01 -1.954294e+00 -4.233140e+00 -5.296464e+00 -2.867184e+00 -3.651985e+00 -5.966706e+00 -3.460018e+00 -1.210191e+00 -2.426861e+00 -2.419133e+00 6.192710e+01 -3.506091e-01 6.313692e-01 2.539898e+00 -4.148311e-01 -2.524213e+00 -4.343154e-01 -1.107454e+00 -7.679880e-01 -1.081484e+00 -1.951506e-01 5.411646e-01 -1.355014e-01 3.256141e+00 5.703716e-01 4.528392e-02 9.633428e-01 -2.276432e-01 -6.490005e-01 6.259220e-02 -7.759464e-01 -7.287338e-02 -4.834185e-01 -1.600997e-01 -1.382134e-01 -7.663190e-02 1.526690e-01 6.047655e-02 -1.163073e-01 -3.661520e-01 -4.150657e-02 3.248028e-01 8.913063e-02 1.133382e-01 1.288610e-01 1.331361e-01 2.872017e-02 -1.213225e-01 -1.163656e-02 -3.962752e-01
<VARIANCE> 52
 2.361975e+01 3.305047e+01 4.958464e+01 3.546939e+01 4.201075e+01 3.065366e+01 3.575723e+01 3.400855e+01 3.084657e+01 3.015029e+01 3.720934e+01 2.926491e+01 5.300051e+01 2.760651e+00 2.544255e+00 7.747736e+00 4.671208e+00 5.928616e+00 3.383035e+00 5.504466e+00 4.391397e+00 4.241508e+00 3.988600e+00 3.594722e+00 2.997253e+00 3.849784e+00 6.484782e-01 4.536289e-01 1.043821e+00 9.361880e-01 7.810807e-01 6.769218e-01 9.205080e-01 7.844208e-01 6.959260e-01 7.882802e-01 8.355895e-01 5.576825e-01 6.186333e-01 1.097246e-01 9.813679e-02 3.288767e-01 1.561407e-01 2.836483e-01 1.409352e-01 2.375136e-01 1.768780e-01 1.683368e-01 1.796301e-01 1.311013e-01 1.066090e-01 1.562701e-01
<GCONST> 1.324715e+02
<STATE> 3
<NUMMIXES> 3
<MIXTURE> 1 4.158817e-01
<MEAN> 52
 -5.857558e+00 1.011624e+00 1.611224e+01 -8.525657e+00 -1.970192e+01 -2.416898e-01 -1.286949e+01 -6.193745e+00 -1.201656e+01 -2.658265e+00 3.682611e+00 -5.449502e+00 7.315833e+01 7.089256e-01 3.200551e-01 -1.290859e+00 -6.769974e-03 5.326251e-01 4.971341e-01 7.562258e-01 3.437311e-02 -4.242084e-01 9.081971e-01 -1.148207e-01 -8.179241e-01 -2.773426e-01 1.833424e-01 1.416399e-01 -8.843778e-01 8.112964e-01 8.126575e-01 -4.670784e-01 4.904023e-01 -2.440561e-01 2.331297e-01 2.154077e-01 -4.917423e-01 6.268129e-02 -5.640965e-01 3.620229e-02 -6.665899e-02 3.557237e-01 8.268042e-02 -2.198807e-01 -7.733328e-02 -2.432321e-01 -1.098516e-01 -6.428548e-04 -1.314999e-01 -7.640735e-03 1.014845e-01 1.380271e-01
<VARIANCE> 52
 1.375258e+01 2.840074e+01 4.530193e+01 8.003717e+01 3.153047e+01 4.991505e+01 5.822646e+01 4.883776e+01 4.908986e+01 5.370713e+01 4.733352e+01 4.095247e+01 1.566404e+01 5.758811e-01 7.490798e-01 1.698080e+00 3.097679e+00 2.065423e+00 3.407249e+00 2.287326e+00 1.940307e+00 1.886401e+00 2.205478e+00 1.912627e+00 1.618307e+00 5.461420e-01 1.912103e-01 2.300024e-01 5.693074e-01 4.495241e-01 5.072079e-01 7.956036e-01 8.759769e-01 6.069283e-01 6.082870e-01 5.951152e-01 5.705265e-01 3.961544e-01 9.799866e-02 3.579656e-02 4.746222e-02 9.440877e-02 1.327466e-01 1.105429e-01 1.696108e-01 1.167109e-01 1.162335e-01 1.191622e-01 1.103296e-01 1.031607e-01 7.085668e-02 2.087561e-02
<GCONST> 1.064514e+02
<MIXTURE> 2 1.865361e-01
<MEAN> 52
 -1.234595e+01 -6.576195e-01 5.097764e+00 -2.981456e+01 -1.158263e+01 -2.391196e+00 -2.134807e+01 -1.040350e+01 -8.307156e+00 -2.741238e+00 -2.210225e+01 1.496984e+00 7.196108e+01 6.739587e-01 1.294777e-01 -9.480093e-01 -4.303089e-02 1.189806e+00 7.096332e-01 -1.041328e+00 8.588133e-01 3.340108e-01 -1.306409e+00 -4.584431e-01 -3.497913e-02 -4.370301e-01 2.501966e-01 -1.072934e-01 -3.508252e-01 1.162852e+00 -1.930536e-01 -4.267876e-01 4.714405e-01 -8.091085e-02 -1.502705e-01 1.237915e-01 6.113902e-01 -1.546697e-01 -2.564916e-01 -1.871180e-02 -2.771303e-02 1.669527e-01 -1.050912e-01 -2.323382e-01 -2.408902e-01 4.489920e-02 -2.251148e-01 -1.764973e-01 1.710743e-01 -1.478871e-01 3.454234e-02 1.469681e-01
<VARIANCE> 52
 9.935527e+00 1.856575e+01 2.144632e+01 3.975521e+01 3.200046e+01 2.202620e+01 3.767338e+01 4.520541e+01 3.883656e+01 3.684762e+01 2.855452e+01 3.958615e+01 1.110809e+01 5.522972e-01 7.546937e-01 1.131912e+00 3.847152e+00 1.848255e+00 2.022588e+00 1.687013e+00 2.567996e+00 1.496094e+00 2.126174e+00 1.713830e+00 2.274061e+00 2.005104e-01 7.066108e-02 1.389385e-01 3.550879e-01 3.107666e-01 4.106354e-01 5.432584e-01 5.623178e-01 4.650463e-01 3.800136e-01 4.377632e-01 4.993590e-01 4.134600e-01 7.674723e-02 1.810580e-02 3.282185e-02 7.497802e-02 8.140884e-02 1.386442e-01 9.896589e-02 1.221621e-01 1.003250e-01 7.817750e-02 1.045766e-01 9.145008e-02 9.370404e-02 3.035521e-02
<GCONST> 9.264278e+01
<MIXTURE> 3 3.975821e-01
<MEAN> 52
 -2.059953e-01 2.980396e+00 6.975264e+00 4.150267e-01 -1.488335e+01 -3.589345e+00 -8.171891e+00 -7.772144e+00 -1.225317e+01 1.970383e-01 5.164077e-01 -7.494418e+00 6.938773e+01 1.582299e+00 7.416434e-03 -1.542239e+00 2.268240e+00 1.225272e+00 -5.568962e-01 5.043954e-01 -1.832066e+00 6.373693e-01 1.078980e+00 -1.912736e+00 1.444590e-02 -1.312104e+00 -2.105789e-01 -1.256023e-02 5.670558e-01 -2.829245e-01 -2.640850e-01 2.968390e-01 -3.156302e-01 -2.657973e-01 2.459867e-01 -1.340137e-01 -1.105670e-01 3.177893e-01 1.288476e-02 -1.740147e-01 4.881065e-02 1.986009e-01 -3.497649e-01 -1.809499e-01 1.402963e-01 -7.412270e-02 2.668643e-01 -1.160722e-01 -1.272183e-01 2.881368e-01 -3.872691e-02 1.698011e-01
<VARIANCE> 52
 1.377747e+01 2.477702e+01 4.928168e+01 7.642691e+01 4.378686e+01 4.530855e+01 6.678078e+01 5.884571e+01 5.433579e+01 6.224717e+01 5.555502e+01 4.491516e+01 2.002349e+01 6.110875e-01 9.304291e-01 2.398254e+00 3.171076e+00 3.041909e+00 5.024545e+00 4.020818e+00 4.443803e+00 3.473297e+00 4.167394e+00 3.121976e+00 2.438609e+00 5.219889e-01 1.369762e-01 1.622353e-01 2.991021e-01 5.881505e-01 4.785731e-01 6.613283e-01 4.582816e-01 7.284690e-01 5.452651e-01 5.986862e-01 5.888032e-01 3.334045e-01 1.103766e-01 2.564560e-02 4.313619e-02 1.354552e-01 1.358495e-01 1.439388e-01 2.036037e-01 1.635043e-01 1.757284e-01 1.458613e-01 1.733785e-01 1.307750e-01 9.255161e-02 2.268396e-02
<GCONST> 1.130743e+02
<STATE> 4
<NUMMIXES> 3
<MIXTURE> 1 5.485924e-01
<MEAN> 52
 1.954676e+00 3.269118e+00 7.839328e+00 2.720867e+00 -1.379358e+01 -1.035351e+00 -1.067474e+01 -1.331165e+01 -8.888684e+00 2.743632e+00 -3.712769e+00 -5.766098e+00 6.676000e+01 1.145832e-01 5.191311e-01 2.489071e-01 5.517565e-03 1.561639e-01 4.002276e-01 -2.564849e-01 -3.274689e-01 2.403221e-01 1.958023e-02 -4.965927e-01 2.945135e-01 -6.018329e-01 -2.411642e-01 1.040382e-01 1.334675e-01 -2.856637e-01 1.461451e-01 -4.964857e-02 1.263925e-02 4.089098e-01 -7.409254e-02 -1.730063e-01 2.115643e-01 -2.480612e-02 1.598650e-02 1.084498e-02 -6.802259e-02 -1.576672e-01 6.474984e-02 1.443738e-01 -1.070941e-01 6.739648e-02 3.876224e-02 6.118207e-02 1.285764e-02 -1.345623e-02 -3.282727e-02 5.894473e-03
<VARIANCE> 52
 6.490574e+00 2.577669e+01 2.936168e+01 5.267039e+01 3.088276e+01 3.204893e+01 6.794733e+01 3.299314e+01 3.852874e+01 3.969859e+01 3.650977e+01 3.349619e+01 1.130841e+01 2.042986e-01 5.440298e-01 7.043509e-01 7.754412e-01 9.846835e-01 1.075029e+00 1.333253e+00 1.584320e+00 1.541495e+00 1.209717e+00 1.163752e+00 8.672834e-01 2.278217e-01 8.141857e-02 1.138493e-01 1.625992e-01 3.078464e-01 2.890847e-01 3.141360e-01 3.376146e-01 3.687225e-01 3.334618e-01 3.948123e-01 3.145581e-01 2.283028e-01 6.999031e-02 1.465248e-02 2.741371e-02 3.841519e-02 4.982867e-02 5.111000e-02 5.780391e-02 6.475244e-02 6.942586e-02 8.112252e-02 6.448280e-02 5.957969e-02 4.975381e-02 1.973006e-02
<GCONST> 7.688294e+01
<MIXTURE> 2 1.566039e-01
<MEAN> 52
 -6.023872e+00 -1.461045e+00 -3.824430e-01 -1.842850e+01 -1.084853e+01 -6.816114e+00 -2.037260e+01 -1.164432e+01 -1.115318e+01 -6.206319e+00 -2.206822e+01 -2.583987e-01 6.863120e+01 1.367002e+00 -3.652127e-01 -1.507487e+00 2.984173e+00 -2.562318e-01 -2.655233e+00 2.169677e+00 -9.291160e-01 -1.010075e+00 2.527824e-01 6.681032e-02 -2.235718e-01 -8.530365e-01 -9.863168e-02 6.664221e-02 1.504097e-01 -1.685937e-01 -3.524486e-02 -2.885202e-02 1.440039e-01 -1.377075e-01 -9.395089e-03 1.973848e-01 7.240587e-02 4.466525e-02 1.750708e-02 -9.519507e-02 7.709832e-02 1.499838e-01 -3.361087e-01 5.912978e-02 3.865624e-01 -3.840281e-01 1.705476e-01 1.287260e-01 -1.327794e-01 -1.321093e-02 2.476884e-02 4.458195e-02
<VARIANCE> 52
 1.558987e+01 2.700126e+01 2.167065e+01 5.907701e+01 3.763204e+01 4.814684e+01 4.870734e+01 7.209006e+01 3.428020e+01 5.897387e+01 3.248416e+01 4.526435e+01 1.043859e+01 2.965932e-01 6.325160e-01 1.187025e+00 1.375350e+00 1.776141e+00 2.639995e+00 1.543497e+00 1.802857e+00 2.258419e+00 2.844708e+00 1.523721e+00 1.742956e+00 2.218172e-01 7.811582e-02 1.163367e-01 2.346672e-01 5.405049e-01 3.166292e-01 8.225773e-01 7.491671e-01 4.153091e-01 4.076194e-01 5.234669e-01 2.311952e-01 2.885437e-01 3.543623e-02 1.076568e-02 2.294128e-02 4.266630e-02 7.537552e-02 7.543053e-02 1.087580e-01 7.602677e-02 6.439545e-02 7.216363e-02 8.992170e-02 5.323467e-02 7.487175e-02 6.746093e-03
<GCONST> 8.779906e+01
<MIXTURE> 3 2.948036e-01
<MEAN> 52
 -8.525947e-01 -2.312271e+00 -2.982213e+00 -1.189508e+01 -1.304819e+01 -1.339083e+01 -1.578943e+01 -1.346719e+01 -1.300972e+01 -6.057752e+00 -2.157054e+01 6.595625e-01 6.396903e+01 3.682598e-01 4.892137e-01 8.190973e-02 2.553334e-01 -3.507525e-01 7.924796e-02 -2.824313e-01 -2.460895e-01 2.307425e-01 -3.055816e-01 4.392711e-01 -3.419522e-01 -6.077706e-01 -1.667209e-01 1.310663e-01 1.869753e-01 -6.453510e-02 -4.245050e-02 2.693985e-01 -1.412741e-01 1.313721e-01 5.161967e-02 -1.142981e-01 1.442913e-01 -1.410158e-01 -2.804703e-02 -7.950990e-03 -4.021735e-02 -4.073015e-02 1.389694e-01 9.422053e-02 -9.413984e-02 1.418912e-01 1.846213e-03 -2.041251e-02 2.658398e-02 1.420558e-02 7.530850e-03 -2.331184e-02
<VARIANCE> 52
 1.121237e+01 3.163861e+01 1.211597e+01 3.203431e+01 4.703163e+01 3.172813e+01 2.556264e+01 5.894216e+01 3.731832e+01 4.749987e+01 7.098513e+01 5.605195e+01 3.161679e+01 1.812254e-01 4.188694e-01 5.196975e-01 6.333317e-01 9.901999e-01 1.042256e+00 8.836676e-01 1.236410e+00 1.154090e+00 1.467913e+00 1.271884e+00 1.193654e+00 9.924825e-02 5.276179e-02 5.885010e-02 1.372718e-01 2.473010e-01 2.335189e-01 2.942790e-01 2.678552e-01 2.617861e-01 2.340561e-01 2.557424e-01 2.648648e-01 1.759710e-01 2.941285e-02 1.127805e-02 1.397396e-02 2.589401e-02 3.628991e-02 4.395415e-02 4.708071e-02 4.299374e-02 4.750015e-02 4.624519e-02 5.121152e-02 5.237483e-02 4.270138e-02 5.409261e-03
<GCONST> 6.694711e+01
<STATE> 5
<NUMMIXES> 3
<MIXTURE> 1 2.927545e-01
<MEAN> 52
 -5.833299e-01 7.777823e+00 7.592452e+00 4.491189e+00 -5.142908e+00 -1.552354e+00 -7.071763e+00 -1.056460e+01 -7.812896e+00 9.857678e-01 -5.415873e+00 -4.759550e+00 6.231312e+01 -1.713825e+00 -1.488434e+00 -1.784973e+00 -2.245017e+00 1.881679e+00 -1.312524e+00 -9.029948e-01 2.119520e+00 2.732103e+00 -8.487352e-01 6.657521e-01 1.549961e-01 2.135133e+00 3.016887e-01 -7.711778e-01 -5.939582e-01 -9.175899e-01 -6.627834e-01 2.195318e-01 -7.664566e-01 2.953645e-01 5.236990e-01 3.405407e-01 4.531656e-01 -2.371252e-01 1.141328e+00 3.717515e-01 2.177823e-01 2.077645e-01 1.305694e-01 -2.812249e-01 4.636513e-01 6.802016e-02 -3.610205e-01 -4.689201e-01 1.898162e-01 -2.761717e-02 -2.604130e-02 -3.331059e-01
<VARIANCE> 52
 1.241014e+01 1.017987e+01 1.175364e+01 1.516995e+01 3.750578e+01 2.924959e+01 3.529662e+01 3.755725e+01 3.484462e+01 3.097082e+01 2.188644e+01 2.703393e+01 1.918026e+01 1.125382e+00 1.637158e+00 1.810688e+00 2.990686e+00 3.689579e+00 3.389584e+00 3.851368e+00 3.032509e+00 3.696635e+00 4.553172e+00 3.336790e+00 2.919685e+00 1.711038e+00 3.066680e-01 3.257604e-01 2.713968e-01 4.418569e-01 5.871478e-01 8.224716e-01 8.038856e-01 8.979295e-01 7.184030e-01 6.870699e-01 5.925308e-01 4.263681e-01 2.815534e-01 4.832525e-02 7.195998e-02 6.583694e-02 1.133017e-01 1.514567e-01 1.322743e-01 1.944836e-01 1.322836e-01 1.347015e-01 1.931232e-01 1.304978e-01 1.203888e-01 7.742208e-02
<GCONST> 1.117050e+02
<MIXTURE> 2 2.628385e-01
<MEAN> 52
 -1.845642e+00 2.756864e+00 -4.326763e-01 -8.348155e+00 -1.370241e+01 -1.074585e+01 -1.630540e+01 -1.503657e+01 -1.203997e+01 -8.676439e+00 -1.455212e+01 -4.421415e+00 5.991101e+01 -9.115949e-01 3.305892e-01 7.459054e-01 1.491973e+00 1.214891e+00 3.431284e-01 1.047576e+00 6.729318e-01 5.315992e-01 -5.026952e-01 1.296838e+00 -2.637687e-01 -9.705904e-01 -3.793385e-01 -4.261282e-01 -3.159977e-01 -4.781794e-02 4.146011e-01 6.795915e-03 4.456013e-01 4.863274e-01 3.569014e-01 3.002759e-01 2.909518e-01 2.770634e-01 4.027346e-01 6.066917e-02 -1.477203e-01 -2.526384e-01 -3.432497e-01 -1.871431e-01 -7.755633e-02 -1.294828e-01 8.725540e-02 6.569885e-02 1.052073e-01 -6.750376e-02 5.814951e-02 3.327835e-01
<VARIANCE> 52
 2.192175e+01 1.868917e+01 1.585703e+01 3.554221e+01 3.393195e+01 2.261492e+01 2.772844e+01 2.205989e+01 2.029971e+01 3.814167e+01 4.175381e+01 3.189822e+01 2.688242e+01 9.324512e-01 1.434215e+00 1.615159e+00 1.804157e+00 2.750482e+00 2.260472e+00 2.522065e+00 2.705457e+00 2.448656e+00 2.836268e+00 2.937712e+00 2.224008e+00 5.804597e-01 2.483928e-01 1.872520e-01 3.533201e-01 5.067286e-01 4.981792e-01 3.384934e-01 3.718392e-01 2.986991e-01 3.622805e-01 4.819961e-01 4.641740e-01 3.719347e-01 4.055805e-01 5.853923e-02 5.116621e-02 6.138818e-02 1.009756e-01 1.315853e-01 9.795672e-02 1.155391e-01 8.571905e-02 8.882896e-02 1.127864e-01 1.294629e-01 7.944207e-02 4.922130e-02
<GCONST> 1.012731e+02
<MIXTURE> 3 4.444070e-01
<MEAN> 52
 1.688199e+00 6.400835e+00 8.678648e+00 2.740515e+00 -1.074844e+01 -8.942285e-01 -9.128304e+00 -1.120474e+01 -8.688076e+00 2.016548e+00 -4.649709e+00 -5.223000e+00 6.303197e+01 -7.638830e-01 3.490936e-01 9.982198e-03 -3.283391e-01 1.908407e+00 -2.143294e-01 3.978864e-01 8.741509e-01 4.424628e-01 -3.286792e-01 -1.220429e-01 2.425482e-01 -1.075730e+00 -4.580967e-01 -4.922442e-01 -5.451966e-01 -3.702278e-01 3.007464e-01 -3.477765e-01 -3.758480e-02 3.540244e-01 4.710819e-01 -2.452685e-01 2.395727e-01 3.731812e-02 5.815766e-01 9.865230e-02 -1.625666e-01 -1.680762e-01 -1.378153e-01 -2.595314e-01 5.885210e-02 -2.229217e-01 -8.537091e-02 1.076148e-01 1.080066e-01 1.867465e-02 -4.784735e-02 3.346564e-01
<VARIANCE> 52
 7.015855e+00 1.609989e+01 2.074294e+01 4.296873e+01 2.910008e+01 2.781736e+01 4.120737e+01 3.037409e+01 3.311710e+01 3.264159e+01 2.904809e+01 3.099409e+01 1.356432e+01 6.183828e-01 1.085893e+00 7.984694e-01 1.214871e+00 1.534554e+00 1.965582e+00 2.520805e+00 2.617265e+00 2.041076e+00 2.051496e+00 2.072996e+00 1.683001e+00 5.423179e-01 1.076705e-01 1.816692e-01 2.607123e-01 3.799715e-01 4.345002e-01 4.400562e-01 5.109131e-01 5.751103e-01 5.301836e-01 3.785830e-01 4.026293e-01 3.500174e-01 2.931873e-01 4.222326e-02 5.278952e-02 4.768066e-02 7.971945e-02 7.485002e-02 1.112875e-01 1.425783e-01 1.324380e-01 9.820488e-02 1.081099e-01 9.601148e-02 8.635166e-02 3.559979e-02
<GCONST> 9.491830e+01
<STATE> 6
<NUMMIXES> 3
<MIXTURE> 1 4.590531e-01
<MEAN> 52
 -7.920911e+00 -1.181388e+00 -2.458295e+00 -6.417150e+00 -6.589640e+00 -1.061015e+01 -9.733132e+00 -2.981903e+00 -7.712584e-01 -2.771789e+00 -5.197383e+00 -1.737721e+00 7.187337e+01 3.565299e-01 -2.592651e+00 -2.605265e+00 -4.000704e+00 2.733122e-01 2.500834e-01 -2.466879e+00 2.038496e+00 2.214794e+00 1.226757e+00 -3.456295e-01 -6.578694e-01 4.129379e+00 1.008231e+00 1.313411e-01 2.010134e-01 -4.708749e-01 5.485314e-03 1.329216e+00 -5.233544e-01 -7.719238e-01 -7.335340e-01 3.894139e-01 -7.746770e-02 -5.262200e-01 -5.727289e-01 -9.777711e-02 4.139484e-01 3.051869e-01 5.175335e-01 1.333640e-01 1.127430e-01 5.320022e-01 -2.879626e-01 -4.190472e-01 -2.644795e-01 1.958626e-01 1.369268e-01 -7.063323e-01
<VARIANCE> 52
 2.318327e+01 2.615439e+01 3.834142e+01 5.748527e+01 4.058743e+01 4.394165e+01 4.062330e+01 5.092412e+01 4.536961e+01 4.033837e+01 3.026966e+01 2.555361e+01 2.623108e+01 1.997550e+00 1.584082e+00 1.625068e+00 2.808427e+00 4.420009e+00 5.611439e+00 6.765104e+00 6.581282e+00 4.535179e+00 3.865878e+00 6.401777e+00 3.128764e+00 1.814488e+00 4.054963e-01 3.811838e-01 4.656387e-01 7.469864e-01 1.178233e+00 7.924153e-01 1.057791e+00 7.870574e-01 5.705739e-01 8.166829e-01 1.299635e+00 5.470234e-01 5.588354e-01 9.169649e-02 7.208358e-02 7.440746e-02 1.203170e-01 1.752498e-01 2.396260e-01 2.625819e-01 2.577291e-01 1.587173e-01 1.599300e-01 2.968364e-01 1.369842e-01 7.334074e-02
<GCONST> 1.284115e+02
<MIXTURE> 2 2.314976e-01
<MEAN> 52
 -5.469748e+00 1.015903e+00 3.014949e+00 -5.158628e+00 -7.127965e+00 -6.418922e+00 -1.068966e+01 -1.005900e+01 -7.438557e+00 -6.153368e+00 -6.805165e+00 -3.815336e+00 5.699926e+01 -2.485405e+00 -1.344002e+00 -2.292491e+00 -3.582905e-01 4.894060e-01 -1.205582e+00 1.489061e+00 2.003106e+00 1.599837e+00 2.463560e-01 1.586324e+00 1.021056e+00 2.669827e+00 3.877030e-01 -5.178285e-01 -8.058348e-01 -1.227708e+00 -5.059932e-01 -2.731493e-01 -9.006625e-01 2.902018e-01 1.645610e-01 4.038410e-01 -5.784086e-01 -9.770719e-02 1.617193e+00 4.762110e-01 1.074749e-01 2.601474e-01 -1.822722e-01 1.293198e-01 3.670898e-01 -3.635873e-01 -1.866107e-01 -1.922067e-01 5.753255e-02 -2.878579e-01 -2.982789e-01 -3.395057e-01
<VARIANCE> 52
 2.745666e+01 1.754431e+01 4.435366e+01 2.062174e+01 3.373820e+01 3.590371e+01 3.266275e+01 3.513052e+01 2.373922e+01 3.436119e+01 5.105355e+01 1.687430e+01 2.312094e+01 1.586635e+00 1.821160e+00 2.322707e+00 2.991660e+00 3.129477e+00 4.581550e+00 3.061251e+00 3.791487e+00 2.254109e+00 3.030530e+00 5.143761e+00 2.061970e+00 4.164725e+00 4.917791e-01 3.970813e-01 3.408189e-01 6.566532e-01 6.689603e-01 9.414231e-01 9.139754e-01 8.796530e-01 5.036348e-01 6.562759e-01 8.823159e-01 4.877359e-01 1.915938e-01 7.466328e-02 7.135344e-02 1.017303e-01 1.407125e-01 1.740797e-01 2.199655e-01 1.237389e-01 1.534910e-01 8.986388e-02 1.425382e-01 2.422681e-01 8.398253e-02 1.957315e-01
<GCONST> 1.191329e+02
<MIXTURE> 3 3.094493e-01
<MEAN> 52
 -4.110195e-01 -2.278793e+00 -5.375862e-01 -1.066194e+01 -6.789608e+00 1.402396e+00 -1.961081e+01 -4.622519e+00 8.317752e-01 4.036335e+00 5.175450e-01 -9.065496e+00 7.497409e+01 2.175706e+00 -1.287399e+00 -1.222423e+00 -3.752697e+00 -1.086928e+00 3.870669e+00 -2.021904e+00 -2.223775e-02 -5.557315e-01 1.095028e+00 2.240743e+00 -9.265226e-01 1.322844e+00 1.633429e-01 7.285827e-01 4.521614e-01 6.005940e-01 -1.365807e-01 4.407655e-01 1.450604e+00 -3.762304e-01 -1.229775e+00 -6.082487e-01 -1.239598e-01 5.349361e-01 -1.150749e+00 -4.367083e-01 1.583215e-01 5.683216e-02 4.541403e-01 2.377830e-01 -6.607154e-01 4.096481e-01 1.533132e-01 1.678217e-01 -3.059847e-01 -3.756928e-01 1.806316e-01 -1.066186e-01
<VARIANCE> 52
 1.069384e+01 2.408974e+01 2.811736e+01 5.490372e+01 3.124444e+01 3.331588e+01 5.018226e+01 4.217627e+01 3.983002e+01 4.395643e+01 3.646564e+01 2.494210e+01 1.666351e+01 1.721092e+00 1.756283e+00 2.187132e+00 3.104438e+00 3.181828e+00 3.640125e+00 6.536201e+00 4.749054e+00 3.990506e+00 5.408050e+00 2.825665e+00 3.338574e+00 1.593538e+00 3.064806e-01 2.659057e-01 2.686723e-01 4.289081e-01 5.548242e-01 6.920350e-01 5.687216e-01 6.810685e-01 5.875679e-01 6.473104e-01 5.938367e-01 4.937298e-01 2.062522e-01 6.909920e-02 8.051166e-02 1.065453e-01 1.083596e-01 1.263577e-01 1.452776e-01 2.466177e-01 1.923034e-01 1.601549e-01 2.005690e-01 1.195936e-01 1.701387e-01 8.325749e-02
<GCONST> 1.179866e+02
<STATE> 7
<NUMMIXES> 3
<MIXTURE> 1 4.774680e-01
<MEAN> 52
 1.209432e+00 -2.352166e+00 -5.285181e+00 -1.660705e+01 -5.296967e+00 6.177651e+00 -1.594674e+01 -6.724926e+00 -3.991408e+00 1.901817e+00 1.625673e+00 -6.133336e+00 7.420876e+01 8.443302e-01 6.354265e-01 -5.887644e-01 -1.178825e+00 -3.814972e-01 1.765903e+00 1.926800e+00 2.293054e-02 -2.209823e+00 -1.364920e+00 1.105860e+00 8.149588e-01 -6.814237e-01 -3.242547e-01 3.226884e-01 4.674020e-01 9.622512e-01 -1.657021e-01 -9.449887e-01 7.897775e-01 3.186029e-01 -7.776456e-02 -5.381652e-01 -6.965227e-01 1.762752e-01 -3.579157e-01 -7.487639e-02 -2.388792e-01 -5.137290e-03 -5.576455e-03 5.191081e-02 -2.120602e-01 -4.432435e-01 6.992452e-02 4.400335e-01 2.525428e-01 -2.027331e-01 -2.275888e-01 2.852878e-01
<VARIANCE> 52
 9.659847e+00 2.556355e+01 4.966980e+01 5.695800e+01 3.549347e+01 4.483906e+01 7.228667e+01 6.374562e+01 7.219798e+01 6.708213e+01 6.109668e+01 2.893193e+01 1.413980e+01 2.431754e-01 6.792225e-01 8.264582e-01 1.427887e+00 1.275866e+00 2.126931e+00 2.121736e+00 2.346662e+00 1.646841e+00 2.958165e+00 2.021577e+00 1.612386e+00 3.179684e-01 1.131086e-01 2.029366e-01 2.366908e-01 2.692311e-01 4.478060e-01 4.255509e-01 6.699043e-01 5.714026e-01 5.773545e-01 5.736887e-01 5.720279e-01 5.730267e-01 1.487961e-01 2.254895e-02 2.739615e-02 4.597107e-02 5.110569e-02 7.351000e-02 1.211649e-01 1.123006e-01 1.299055e-01 8.068084e-02 1.309076e-01 1.225804e-01 7.333624e-02 2.294910e-02
<GCONST> 9.733450e+01
<MIXTURE> 2 3.038481e-01
<MEAN> 52
 -4.970932e+00 -8.802420e+00 -1.131558e+01 -2.012543e+01 -3.597863e-01 -8.028843e+00 -1.488739e+01 -1.638410e+00 -8.609168e-01 -9.954568e-01 -1.332919e+01 -4.293229e+00 7.523794e+01 7.944576e-01 -2.587346e-01 -1.499179e+00 -1.934903e+00 2.358591e+00 2.231008e+00 -8.770308e-01 -1.378576e+00 -1.310832e+00 4.713808e-01 2.222192e-01 -1.232177e+00 -1.114079e-01 -3.842406e-02 7.085752e-01 4.244420e-01 7.863398e-01 -4.216037e-01 5.434198e-02 6.165589e-01 -5.594938e-01 -9.662365e-01 -4.811944e-01 9.746773e-01 1.695041e-01 -8.607210e-01 -1.299266e-01 -1.268614e-01 5.148356e-02 7.476380e-02 -3.136404e-01 -4.214745e-01 1.951232e-01 4.406416e-01 1.511021e-01 -9.373473e-02 -9.716220e-03 2.280339e-01 2.827278e-01
<VARIANCE> 52
 1.208271e+01 1.851743e+01 4.009372e+01 4.930040e+01 4.603204e+01 3.543685e+01 5.434522e+01 8.238744e+01 7.261526e+01 5.279985e+01 2.696207e+01 2.477933e+01 2.895950e+01 6.798177e-01 1.040849e+00 9.398198e-01 1.470968e+00 2.741973e+00 2.243271e+00 2.545432e+00 2.343000e+00 3.255888e+00 3.386844e+00 5.066185e+00 1.431298e+00 5.458559e-01 1.917495e-01 1.962945e-01 1.692327e-01 1.895128e-01 5.698701e-01 7.672060e-01 7.396040e-01 1.104206e+00 5.469960e-01 6.282190e-01 6.254736e-01 4.376666e-01 3.031289e-01 4.473489e-02 4.760767e-02 4.350543e-02 7.948901e-02 1.370235e-01 1.183189e-01 1.213753e-01 1.004106e-01 1.082130e-01 1.448497e-01 2.909205e-01 6.892224e-02 3.425049e-02
<GCONST> 1.067576e+02
<MIXTURE> 3 2.186839e-01
<MEAN> 52
 1.354615e+00 -4.519094e+00 -2.604246e+00 -2.536658e+01 -5.920929e+00 9.835862e+00 -1.991645e+01 -4.350711e+00 -8.812396e+00 3.617149e+00 2.606460e+00 -5.532563e+00 7.428135e+01 4.433632e-01 2.368989e-01 -1.138996e-01 -2.048306e-01 8.708860e-02 4.247022e-01 1.249958e+00 4.990288e-01 -8.870935e-01 -1.777496e+00 6.963142e-01 5.963590e-01 -4.866073e-01 -9.111882e-02 -5.422646e-02 8.952368e-02 6.320882e-01 -6.159815e-02 -5.858636e-01 7.809451e-02 1.028363e-01 1.603345e-01 -8.484308e-02 -2.519887e-01 -3.306642e-01 -2.582925e-02 4.892466e-02 -6.980155e-02 9.102458e-04 -8.773308e-02 -4.914138e-02 1.192043e-01 -1.879402e-01 -7.226723e-02 2.812303e-02 2.646753e-01 -4.975367e-02 -1.593705e-01 7.495596e-02
<VARIANCE> 52
 1.005767e+01 8.902002e+00 3.034075e+01 2.755517e+01 2.781709e+01 4.011005e+01 1.248524e+01 2.114652e+01 1.789628e+01 3.399173e+01 2.292550e+01 2.457392e+01 6.590093e+00 5.132680e-02 2.492854e-01 1.818929e-01 1.145426e+00 4.825112e-01 9.894049e-01 6.618315e-01 9.358242e-01 7.341483e-01 1.210900e+00 6.912595e-01 9.151806e-01 3.953010e-02 1.596482e-02 5.398658e-02 5.070635e-02 7.473347e-02 9.845295e-02 1.576365e-01 1.852123e-01 1.604575e-01 1.633550e-01 3.113372e-01 1.317666e-01 1.586284e-01 1.030979e-02 1.065689e-02 1.739159e-02 1.469984e-02 2.494015e-02 2.059636e-02 2.748546e-02 5.744012e-02 3.386861e-02 2.681527e-02 5.479574e-02 3.776535e-02 6.106118e-02 7.322807e-03
<GCONST> 4.359417e+01
<STATE> 8
<NUMMIXES> 3
<MIXTURE> 1 3.035748e-01
<MEAN> 52
 2.473439e+00 -4.063024e+00 -2.831171e-01 -1.875784e+01 -9.774728e+00 7.234844e+00 -1.292018e+01 -1.524025e+00 -9.457297e+00 -4.830604e+00 5.057983e-01 -8.616407e+00 7.180095e+01 -2.602545e-02 3.698483e-02 5.042223e-01 1.123993e+00 -2.208914e-01 -6.278889e-01 2.116103e-01 3.039477e-01 1.452984e-02 -2.147164e-01 -6.555856e-01 -4.126037e-01 -4.221484e-01 -2.705024e-02 6.995481e-02 1.789482e-02 4.055204e-02 5.166719e-02 -5.228240e-02 -1.311082e-01 -8.544027e-02 1.332645e-01 1.715562e-01 -8.294440e-02 3.036680e-02 -4.972453e-02 1.032739e-02 2.884576e-02 -1.878079e-02 -4.311297e-02 3.281838e-02 3.399837e-02 4.483511e-02 -2.224346e-02 -4.667630e-03 -3.860795e-02 3.355324e-02 5.618418e-02 -2.479888e-02
<VARIANCE> 52
 4.326743e+00 1.942620e+01 1.678172e+01 2.522572e+01 6.380083e+01 2.246442e+01 4.909574e+01 2.130272e+01 2.711702e+01 2.739136e+01 2.758669e+01 2.157956e+01 8.542937e+00 8.333476e-02 2.297770e-01 4.416072e-01 4.632615e-01 7.798086e-01 5.195601e-01 1.359421e+00 7.095057e-01 1.010614e+00 9.423435e-01 1.196221e+00 9.235547e-01 6.653639e-02 1.009962e-02 3.432449e-02 6.935278e-02 8.242275e-02 1.166757e-01 1.013333e-01 2.113911e-01 1.300182e-01 1.743936e-01 1.444500e-01 2.055876e-01 1.618221e-01 1.065428e-02 2.232055e-03 7.141636e-03 1.529104e-02 2.028589e-02 2.551761e-02 2.664119e-02 3.693623e-02 3.153421e-02 3.774204e-02 2.584310e-02 3.915628e-02 4.222865e-02 1.555834e-03
<GCONST> 4.050615e+01
<MIXTURE> 2 2.752180e-01
<MEAN> 52
 -4.629007e+00 -9.714724e+00 -1.567859e+01 -2.500423e+01 4.989387e+00 -7.109931e+00 -9.837820e+00 -3.025935e+00 -1.750402e+01 -3.700160e+00 -9.043311e+00 -7.700874e+00 7.311955e+01 3.563440e-01 6.207033e-02 1.941626e-01 2.997204e-01 -2.900226e-01 -3.760867e-01 1.158144e+00 -4.847703e-02 -1.819552e+00 1.035200e-01 -3.506914e-01 1.163638e-02 -4.679132e-01 -9.497366e-04 7.763558e-03 1.639223e-01 1.105628e-01 -2.366865e-01 -1.714974e-01 -5.505592e-02 5.851138e-02 4.113196e-01 8.900963e-02 -3.629460e-01 1.219351e-01 -4.534354e-03 -1.192619e-02 -8.099067e-03 -2.594696e-02 -6.479997e-02 6.814544e-02 6.680174e-02 -1.099116e-01 -4.019640e-02 7.942589e-02 -1.110553e-02 1.009560e-02 -4.546663e-02 9.542156e-03
<VARIANCE> 52
 8.743142e+00 9.327505e+00 1.793065e+01 1.911784e+01 3.372229e+01 1.271004e+01 3.020073e+01 3.885974e+01 5.367407e+01 1.793153e+01 2.152500e+01 1.772233e+01 1.589681e+01 1.425484e-01 1.793611e-01 5.687938e-01 4.961662e-01 9.506174e-01 9.222595e-01 7.982388e-01 5.217403e-01 2.603873e+00 1.149964e+00 2.862714e+00 1.032598e+00 5.673988e-02 2.410608e-02 3.573133e-02 4.827388e-02 1.013750e-01 9.969997e-02 2.204736e-01 1.537571e-01 1.122896e-01 2.163700e-01 2.039372e-01 3.180073e-01 1.427073e-01 7.877733e-03 5.559521e-03 8.010468e-03 1.050815e-02 2.071466e-02 2.411203e-02 3.795681e-02 2.537052e-02 2.281106e-02 7.013386e-02 4.781527e-02 9.327926e-02 3.221725e-02 3.277176e-03
<GCONST> 4.644905e+01
<MIXTURE> 3 4.212072e-01
<MEAN> 52
 3.717168e+00 7.209831e-01 -5.477203e+00 -1.444643e+01 -8.726274e+00 7.544184e+00 -7.259488e+00 -4.145050e+00 -7.658415e+00 -4.589358e+00 1.363891e+00 -5.973316e+00 7.158950e+01 1.527697e-01 3.207769e-01 7.883966e-01 1.265200e+00 -8.527219e-01 -6.828504e-01 1.528015e+00 2.361238e-01 -4.974445e-01 -5.620080e-01 -1.804241e+00 -2.928390e-01 -6.356023e-01 -2.364487e-01 -1.322718e-01 4.156328e-01 4.508161e-01 1.320016e-01 -3.826278e-01 -5.021634e-01 -3.365695e-01 5.264440e-01 4.166066e-01 -4.423585e-01 2.079219e-03 5.559368e-02 4.537638e-02 -2.491288e-02 -1.016812e-01 -1.795368e-01 9.927388e-02 2.176656e-01 -2.085418e-01 -8.841458e-02 -3.668923e-02 5.555761e-02 3.134574e-01 8.891191e-02 3.440706e-02
<VARIANCE> 52
 7.776370e+00 2.196597e+01 4.206205e+01 5.199014e+01 3.973905e+01 4.995454e+01 6.267423e+01 6.612672e+01 6.841613e+01 7.707487e+01 5.369390e+01 3.219959e+01 1.156538e+01 2.510149e-01 7.034976e-01 1.157923e+00 1.508249e+00 1.682768e+00 1.898497e+00 2.152702e+00 3.032697e+00 3.234164e+00 2.997468e+00 2.510245e+00 2.478215e+00 2.224292e-01 4.006207e-02 9.196857e-02 1.831418e-01 2.365309e-01 2.913775e-01 3.464963e-01 4.396220e-01 4.094902e-01 3.558036e-01 5.023898e-01 5.182088e-01 4.161866e-01 4.020892e-02 1.088203e-02 2.845780e-02 5.068995e-02 4.367173e-02 7.766034e-02 7.485460e-02 1.090795e-01 1.083564e-01 1.042092e-01 1.123670e-01 1.110779e-01 1.013370e-01 1.470007e-02
<GCONST> 9.110194e+01
<STATE> 9
<NUMMIXES> 3
<MIXTURE> 1 6.231515e-01
<MEAN> 52
 2.540094e+00 1.828164e+00 2.995970e+00 -6.244570e+00 -1.077131e+01 4.354851e+00 -7.428964e+00 -6.531285e+00 -5.058973e+00 -1.878017e+00 -4.904826e+00 -5.490539e+00 6.816242e+01 -2.209421e-01 2.474051e-01 7.143538e-01 1.082217e+00 4.524996e-01 -4.346941e-01 -3.287710e-01 -5.886303e-01 1.391886e-01 3.081932e-01 -4.746768e-01 1.988056e-01 -6.061948e-01 2.880062e-05 9.330048e-02 -1.085961e-01 3.201916e-02 1.478363e-01 3.353690e-02 -4.947297e-02 -1.248495e-02 -8.112545e-02 4.054182e-02 2.059834e-01 -1.828888e-02 -8.205773e-02 1.489296e-02 2.707222e-02 -3.526485e-02 -2.407901e-02 -3.560635e-02 2.336116e-02 1.011937e-01 4.891172e-02 -4.154922e-02 -5.020103e-02 -7.399948e-03 -5.657816e-03 -2.580855e-02
<VARIANCE> 52
 7.109882e+00 1.894252e+01 3.430440e+01 3.912436e+01 4.309623e+01 3.235685e+01 5.325103e+01 5.672831e+01 4.690204e+01 5.559334e+01 2.657206e+01 3.589413e+01 1.772721e+01 2.056101e-01 5.121093e-01 1.413885e+00 1.124491e+00 1.183851e+00 1.210104e+00 2.284845e+00 1.833415e+00 1.644613e+00 1.783444e+00 1.768688e+00 1.533884e+00 2.008131e-01 4.124767e-02 9.899139e-02 2.404112e-01 1.981499e-01 2.723303e-01 2.373446e-01 4.114186e-01 3.261485e-01 2.873491e-01 2.963013e-01 4.154210e-01 2.925609e-01 4.204829e-02 9.541301e-03 2.068184e-02 5.184359e-02 4.131119e-02 5.390587e-02 5.332102e-02 8.757735e-02 7.068597e-02 6.746496e-02 7.146318e-02 8.313232e-02 6.802648e-02 6.840966e-03
<GCONST> 7.886244e+01
<MIXTURE> 2 1.360973e-01
<MEAN> 52
 -4.275290e+00 -1.142796e+01 -4.675848e+00 -2.355056e+01 -2.537853e+00 -1.467422e+01 -9.213032e+00 2.308735e+00 -1.715700e+01 -3.567275e+00 -1.846316e+01 -3.527424e+00 7.239531e+01 7.426251e-02 4.529114e-02 6.858715e-01 4.961629e-01 -4.851545e-01 -5.805373e-01 -1.021621e-01 4.173749e-02 1.157832e-01 -5.351770e-01 -4.761620e-01 -1.987906e-01 -4.400670e-01 -2.160570e-02 4.096436e-02 -1.539899e-01 6.528727e-02 5.207154e-02 1.530508e-01 -7.424812e-02 -1.019500e-01 -3.185730e-02 -1.037466e-01 2.486207e-01 -8.824700e-02 -4.338078e-02 6.593117e-03 2.904513e-02 -3.556383e-02 -8.039114e-03 -1.071167e-02 1.236170e-02 1.617273e-02 -1.231187e-02 -2.561240e-02 1.117057e-02 2.110025e-03 3.177521e-02 -1.822232e-02
<VARIANCE> 52
 2.863957e+00 1.130731e+01 8.060471e+01 2.043755e+01 5.356385e+01 1.649238e+01 2.219441e+01 1.432947e+01 6.332426e+00 1.396199e+01 1.164275e+01 6.726762e+00 2.697734e+00 1.218330e-01 2.100167e-01 4.926882e-01 5.156121e-01 4.022926e-01 9.345922e-01 6.046506e-01 9.863517e-01 6.175499e-01 6.962146e-01 1.346813e+00 6.164721e-01 6.625036e-02 2.464899e-02 4.629426e-02 6.393126e-02 8.681775e-02 8.441447e-02 1.075305e-01 9.553976e-02 1.274607e-01 1.038088e-01 1.101178e-01 1.878609e-01 1.017704e-01 1.490836e-02 4.954666e-03 8.938603e-03 1.207766e-02 2.139819e-02 1.633513e-02 3.302605e-02 1.557049e-02 3.369754e-02 2.874115e-02 2.378788e-02 4.539077e-02 2.248863e-02 2.112144e-03
<GCONST> 3.114727e+01
<MIXTURE> 3 2.407512e-01
<MEAN> 52
 -1.604095e-01 -5.786622e+00 -8.838986e+00 -1.450871e+01 -6.931276e+00 -7.227927e+00 -1.494873e+01 -5.560190e+00 -2.065383e+01 -1.469809e+01 -1.273857e+01 -6.624023e+00 6.430636e+01 -1.191425e-01 3.127706e-01 8.515360e-01 7.003702e-01 -2.437839e-01 -5.573115e-01 -7.445164e-01 -1.000873e-01 3.139900e-02 -3.635706e-01 -4.005287e-01 1.715388e-01 -5.652500e-01 -7.557452e-03 6.092237e-02 -4.079265e-02 -6.101842e-02 4.566337e-02 2.913423e-02 -8.091029e-02 -1.004903e-01 1.768871e-01 1.270793e-01 1.287924e-01 -2.417689e-02 -4.686031e-02 1.948547e-02 2.949593e-02 -1.836143e-02 7.860781e-03 -2.295840e-02 1.666417e-02 9.196837e-02 -3.314981e-02 -1.968578e-02 5.121242e-03 3.617505e-02 -7.823205e-03 -2.054550e-02
<VARIANCE> 52
 4.217699e+00 2.172427e+01 3.765981e+01 2.436573e+01 4.573117e+01 2.921848e+01 7.982573e+01 3.396212e+01 6.700348e+01 1.396057e+02 3.040879e+01 6.449406e+01 5.517044e+01 2.085631e-01 4.073646e-01 1.243553e+00 1.199965e+00 1.603979e+00 1.624852e+00 2.121028e+00 1.208892e+00 2.284157e+00 1.693620e+00 1.113520e+00 1.597633e+00 1.273456e-01 3.063610e-02 6.103767e-02 1.796090e-01 1.613118e-01 2.415516e-01 2.977554e-01 4.229718e-01 2.658430e-01 3.542769e-01 3.398565e-01 2.165713e-01 3.662336e-01 1.902882e-02 6.934487e-03 1.137308e-02 3.527483e-02 4.131617e-02 5.928668e-02 6.983605e-02 8.105968e-02 5.255506e-02 5.786305e-02 8.019955e-02 4.741557e-02 8.247596e-02 4.014073e-03
<GCONST> 7.583643e+01
<STATE> 10
<NUMMIXES> 3
<MIXTURE> 1 4.375230e-01
<MEAN> 52
 2.243294e+00 3.434042e+00 5.031366e+00 -4.861915e-01 -8.258586e+00 8.579729e-01 -9.726103e+00 -9.802955e+00 -7.506130e+00 2.145337e+00 -5.678631e+00 -5.398337e+00 6.595914e+01 -1.383405e-01 1.263981e+00 6.638381e-01 1.609916e+00 5.042796e-01 -6.501701e-01 4.528693e-01 -5.331070e-01 -6.207716e-02 6.906947e-02 -4.134121e-01 1.852635e-01 -1.586642e+00 -2.152890e-01 -1.269787e-01 -1.576419e-01 -3.284473e-01 1.814238e-01 3.898728e-02 1.742604e-01 4.188457e-01 1.390948e-01 -3.791729e-01 2.840971e-01 9.810516e-02 4.115494e-02 -8.921468e-02 -2.135186e-01 -4.361284e-02 -1.758024e-01 -6.626954e-02 6.669060e-03 -3.667319e-02 1.060286e-01 4.027828e-02 -3.768027e-02 9.337828e-02 1.113284e-02 2.056354e-01
<VARIANCE> 52
 5.400981e+00 2.766535e+01 2.904158e+01 4.909343e+01 4.244061e+01 3.290849e+01 6.826007e+01 6.470628e+01 5.288327e+01 5.986855e+01 3.984061e+01 3.957304e+01 1.758897e+01 4.057192e-01 7.629772e-01 2.245662e+00 2.274869e+00 3.204365e+00 2.183192e+00 2.797253e+00 3.558986e+00 2.903276e+00 3.112388e+00 3.294828e+00 2.144625e+00 3.717303e-01 1.136706e-01 2.451887e-01 3.244237e-01 3.996317e-01 5.282166e-01 4.362878e-01 4.915843e-01 6.135556e-01 5.096419e-01 5.245025e-01 5.218148e-01 4.483638e-01 1.760902e-01 2.160852e-02 2.543575e-02 8.869223e-02 7.981768e-02 1.427155e-01 1.076986e-01 9.800981e-02 1.351776e-01 1.093716e-01 1.243839e-01 1.216393e-01 9.504335e-02 2.566705e-02
<GCONST> 1.034589e+02
<MIXTURE> 2 2.563827e-01
<MEAN> 52
 -3.416376e+00 -5.282281e+00 -9.523295e+00 -1.704680e+01 -4.189300e+00 -1.253116e+01 -1.024682e+01 -4.429874e+00 -1.682632e+01 -9.512809e+00 -1.490844e+01 -6.505034e+00 6.528782e+01 8.718021e-02 8.098837e-01 1.437673e-01 1.245561e+00 -6.881046e-01 4.007311e-02 -4.577387e-01 -1.023208e+00 5.210643e-01 -4.802399e-01 9.720900e-01 3.947259e-02 -1.124930e+00 -4.105703e-02 2.674245e-03 1.082929e-01 1.887153e-01 5.058886e-02 5.516980e-02 2.674392e-02 -7.582106e-02 4.354680e-02 6.357853e-02 1.597884e-01 1.724839e-01 -3.447646e-02 -2.889947e-02 -6.184898e-02 2.454162e-02 -5.718983e-02 7.260189e-02 2.698893e-02 3.508605e-02 8.734582e-02 1.468231e-02 4.682928e-02 -9.259926e-02 1.317404e-02 4.394366e-02
<VARIANCE> 52
 1.127689e+01 1.755233e+01 7.096547e+01 4.492129e+01 3.471526e+01 3.417706e+01 2.985836e+01 3.512310e+01 4.604039e+01 5.817019e+01 2.695926e+01 2.708155e+01 2.792088e+01 4.030657e-01 7.102724e-01 1.385560e+00 1.424290e+00 1.655420e+00 1.900150e+00 1.376559e+00 2.182169e+00 1.668258e+00 1.809115e+00 1.578047e+00 1.371044e+00 3.170905e-01 7.078723e-02 1.283084e-01 2.439091e-01 2.851115e-01 3.702705e-01 3.417915e-01 2.756609e-01 3.736244e-01 3.020651e-01 3.013099e-01 3.365214e-01 2.884893e-01 4.408438e-02 1.395817e-02 2.256778e-02 4.948215e-02 7.138900e-02 6.773573e-02 7.633572e-02 5.388895e-02 8.366166e-02 7.049221e-02 6.173399e-02 5.828472e-02 6.787278e-02 5.948300e-03
<GCONST> 8.314936e+01
<MIXTURE> 3 3.060943e-01
<MEAN> 52
 -2.007507e+00 6.868029e-01 -3.642405e+00 -8.257008e+00 -7.334017e+00 -1.127758e+01 -1.537279e+01 -1.294366e+01 -1.509271e+01 -1.221791e+01 -1.034407e+01 -2.074921e+00 5.775926e+01 -4.422141e-01 6.249604e-02 1.137588e-01 8.751598e-01 2.605007e-01 8.665930e-01 6.120021e-01 -1.138985e-01 1.070814e+00 7.024419e-01 6.405882e-01 3.665052e-01 -9.191712e-01 -1.231327e-01 -2.527856e-01 -1.218266e-01 -2.135581e-01 9.842417e-02 2.156945e-01 3.019576e-01 4.397978e-01 2.068843e-01 2.542015e-01 -3.989781e-02 -5.778760e-02 1.438322e-01 1.004661e-02 -3.783392e-05 1.854661e-02 -5.420917e-02 -8.051044e-02 -1.000090e-01 -6.209275e-02 2.719935e-03 -2.850901e-02 -1.842023e-02 -1.971116e-02 -2.554057e-02 5.461941e-02
<VARIANCE> 52
 1.614571e+01 2.248885e+01 2.824870e+01 2.578714e+01 2.864508e+01 4.816997e+01 4.703394e+01 4.073771e+01 6.968032e+01 5.149237e+01 3.235091e+01 4.284915e+01 3.104256e+01 8.656730e-01 1.671134e+00 1.825146e+00 1.690716e+00 2.985775e+00 3.080049e+00 3.627901e+00 4.830152e+00 4.541105e+00 2.704262e+00 2.705389e+00 2.459069e+00 5.268184e-01 1.488231e-01 1.780771e-01 2.575158e-01 2.846153e-01 3.827603e-01 4.532916e-01 4.645514e-01 5.207403e-01 6.900702e-01 4.113535e-01 4.571767e-01 3.829947e-01 9.378769e-02 3.407557e-02 5.495696e-02 6.448086e-02 7.705345e-02 1.239036e-01 1.150952e-01 1.298597e-01 1.768779e-01 1.674686e-01 9.748852e-02 1.162400e-01 1.017332e-01 1.920754e-02
<GCONST> 1.051417e+02
<STATE> 11
<NUMMIXES> 3
<MIXTURE> 1 3.030115e-01
<MEAN> 52
 -3.296705e+00 4.577322e+00 4.088973e+00 8.100796e-01 -5.673936e+00 -3.975266e+00 -6.289176e+00 -7.902711e+00 -6.486671e+00 -2.183501e+00 -4.505706e+00 -3.516850e+00 6.211845e+01 -1.778284e+00 -9.660873e-01 6.779791e-01 -1.039091e+00 -7.756324e-01 -6.681191e-01 2.922859e-01 1.181206e+00 4.088946e-01 -7.941750e-01 1.529850e+00 5.953870e-01 1.522013e+00 1.349799e-01 -2.499885e-01 4.882639e-01 -3.982468e-01 -9.725187e-01 1.812813e-01 -5.363541e-01 -1.589389e-01 -2.597224e-01 1.724295e-01 1.424029e-01 -4.961494e-02 7.292269e-01 2.565813e-01 1.807837e-01 2.136452e-02 1.644738e-01 3.855658e-02 1.108628e-01 -7.296517e-02 -1.472705e-01 -1.091866e-01 1.161950e-01 -2.221156e-01 -1.104025e-01 -2.462571e-01
<VARIANCE> 52
 3.107241e+01 3.264877e+01 4.095681e+01 3.764872e+01 4.142650e+01 4.762991e+01 5.664662e+01 3.731292e+01 3.967880e+01 4.590690e+01 3.474257e+01 2.480354e+01 5.063299e+01 2.245663e+00 2.330228e+00 4.465995e+00 4.217381e+00 7.695633e+00 4.821813e+00 6.010374e+00 4.405067e+00 4.631760e+00 5.485286e+00 3.121415e+00 2.761799e+00 3.566140e+00 6.585482e-01 5.740831e-01 6.206497e-01 7.928686e-01 1.016959e+00 8.414600e-01 1.006390e+00 9.064651e-01 8.023992e-01 8.313838e-01 7.529057e-01 6.402308e-01 5.038233e-01 8.991756e-02 1.052136e-01 1.961530e-01 1.765343e-01 3.895759e-01 1.732112e-01 2.394177e-01 1.859370e-01 1.980917e-01 2.131062e-01 1.505033e-01 1.187265e-01 1.393642e-01
<GCONST> 1.346670e+02
<MIXTURE> 2 3.036939e-01
<MEAN> 52
 -4.562942e-01 5.277403e+00 4.046053e+00 7.995762e-01 1.877113e-01 3.457614e+00 -3.381283e+00 -5.636173e+00 -5.067154e+00 -2.599329e+00 -5.766207e+00 -4.270829e+00 5.874800e+01 -7.663620e-01 -3.941744e-01 -4.909546e-01 2.095377e-01 6.636409e-01 1.077931e-01 6.180081e-01 4.012311e-01 4.943155e-01 9.612131e-02 2.801192e-01 3.155900e-01 -9.026311e-01 -4.624761e-02 -3.431382e-01 -2.741992e-01 -4.488581e-01 -3.880765e-01 -2.105784e-01 -2.289302e-01 -2.106866e-02 2.382299e-03 1.497212e-01 7.102470e-02 3.038302e-02 1.583387e-01 4.254648e-02 4.969000e-02 4.112817e-02 2.196389e-02 -7.073531e-02 -1.044367e-01 -1.008664e-01 -8.889635e-02 -4.771511e-02 -1.984612e-03 -3.267860e-02 -2.683480e-02 3.766419e-02
<VARIANCE> 52
 9.821882e+00 1.483005e+01 1.690804e+01 2.479642e+01 2.422867e+01 2.923510e+01 4.359383e+01 3.657291e+01 2.399039e+01 2.679152e+01 2.720173e+01 2.121277e+01 1.118245e+01 4.977405e-01 1.019755e+00 8.437965e-01 1.609447e+00 2.037208e+00 2.069028e+00 2.364312e+00 2.476583e+00 2.157514e+00 2.080001e+00 1.540700e+00 1.776938e+00 3.700276e-01 6.899945e-02 1.567810e-01 1.533425e-01 2.489560e-01 3.125777e-01 4.646967e-01 4.185082e-01 4.469784e-01 3.616836e-01 3.637874e-01 3.217990e-01 3.302175e-01 3.425582e-02 1.462564e-02 3.265583e-02 3.626678e-02 6.040705e-02 7.909966e-02 9.553397e-02 9.369037e-02 9.742139e-02 8.046426e-02 9.226754e-02 6.970428e-02 7.984991e-02 7.508465e-03
<GCONST> 8.273327e+01
<MIXTURE> 3 3.932946e-01
<MEAN> 52
 -6.407864e+00 -2.056264e+00 -3.492360e+00 -6.527269e+00 -3.057138e+00 -5.299838e-01 -5.220609e+00 -3.525576e+00 -4.049772e+00 -2.288824e+00 -2.944716e+00 -2.603206e+00 5.449517e+01 -5.279568e-01 -5.788842e-01 -6.545812e-01 -4.699061e-01 -4.428627e-01 -4.771224e-01 -9.929482e-02 1.264123e-02 5.241036e-01 4.443548e-01 3.360033e-01 2.777193e-01 -4.338731e-01 1.794040e-01 1.584687e-01 1.851126e-01 1.389525e-01 6.090569e-02 -1.945039e-02 -1.663580e-01 -1.833359e-01 -1.666659e-01 -1.069291e-01 -1.811655e-01 -8.076768e-02 1.491269e-01 7.006246e-03 3.089332e-02 4.857139e-02 9.868377e-02 7.802901e-02 7.213955e-02 4.552337e-02 8.177926e-03 1.557094e-02 -3.621106e-02 -2.182763e-02 -3.338872e-03 -1.720592e-02
<VARIANCE> 52
 1.497349e+01 1.880077e+01 1.810062e+01 2.887540e+01 1.757922e+01 2.399728e+01 4.147677e+01 2.384706e+01 2.784793e+01 2.476877e+01 1.954652e+01 1.797511e+01 1.634704e+01 4.947051e-01 8.784168e-01 1.156464e+00 1.543803e+00 1.679774e+00 2.149834e+00 2.620803e+00 2.316417e+00 2.420887e+00 2.241472e+00 1.722338e+00 1.757396e+00 2.119259e-01 6.966700e-02 1.400210e-01 1.650241e-01 2.253731e-01 3.232601e-01 4.107051e-01 5.247325e-01 4.127640e-01 4.015801e-01 4.073209e-01 2.726921e-01 3.330715e-01 2.911534e-02 1.785582e-02 3.580346e-02 4.140516e-02 5.199849e-02 7.602324e-02 8.793993e-02 1.149550e-01 8.853187e-02 9.759022e-02 8.996966e-02 7.067213e-02 8.087619e-02 6.128701e-03
<GCONST> 8.238098e+01
<TRANSP> 12
 0.000000e+00 1.000000e+00 0.000000e+00 0.000000e+00 0.000000e+00 0.000000e+00 0.000000e+00 0.000000e+00 0.000000e+00 0.000000e+00 0.000000e+00 0.000000e+00
 0.000000e+00 7.874928e-01 2.125073e-01 0.000000e+00 0.000000e+00 0.000000e+00 0.000000e+00 0.000000e+00 0.000000e+00 0.000000e+00 0.000000e+00 0.000000e+00
 0.000000e+00 0.000000e+00 8.393371e-01 1.606629e-01 0.000000e+00 0.000000e+00 0.000000e+00 0.000000e+00 0.000000e+00 0.000000e+00 0.000000e+00 0.000000e+00
 0.000000e+00 0.000000e+00 0.000000e+00 8.380908e-01 1.619092e-01 0.000000e+00 0.000000e+00 0.000000e+00 0.000000e+00 0.000000e+00 0.000000e+00 0.000000e+00
 0.000000e+00 0.000000e+00 0.000000e+00 0.000000e+00 7.502618e-01 2.497382e-01 0.000000e+00 0.000000e+00 0.000000e+00 0.000000e+00 0.000000e+00 0.000000e+00
 0.000000e+00 0.000000e+00 0.000000e+00 0.000000e+00 0.000000e+00 7.389500e-01 2.610501e-01 0.000000e+00 0.000000e+00 0.000000e+00 0.000000e+00 0.000000e+00
 0.000000e+00 0.000000e+00 0.000000e+00 0.000000e+00 0.000000e+00 0.000000e+00 7.274322e-01 2.725678e-01 0.000000e+00 0.000000e+00 0.000000e+00 0.000000e+00
 0.000000e+00 0.000000e+00 0.000000e+00 0.000000e+00 0.000000e+00 0.000000e+00 0.000000e+00 7.965084e-01 2.034916e-01 0.000000e+00 0.000000e+00 0.000000e+00
 0.000000e+00 0.000000e+00 0.000000e+00 0.000000e+00 0.000000e+00 0.000000e+00 0.000000e+00 0.000000e+00 8.405972e-01 1.594029e-01 0.000000e+00 0.000000e+00
 0.000000e+00 0.000000e+00 0.000000e+00 0.000000e+00 0.000000e+00 0.000000e+00 0.000000e+00 0.000000e+00 0.000000e+00 7.982360e-01 2.017641e-01 0.000000e+00
 0.000000e+00 0.000000e+00 0.000000e+00 0.000000e+00 0.000000e+00 0.000000e+00 0.000000e+00 0.000000e+00 0.000000e+00 0.000000e+00 8.144726e-01 1.855274e-01
 0.000000e+00 0.000000e+00 0.000000e+00 0.000000e+00 0.000000e+00 0.000000e+00 0.000000e+00 0.000000e+00 0.000000e+00 0.000000e+00 0.000000e+00 0.000000e+00
<ENDHMM>

~h "lx"
<BEGINHMM>
<NUMSTATES> 12
<STATE> 2
<NUMMIXES> 3
<MIXTURE> 1 4.976478e-01
<MEAN> 52
 -3.488456e+00 2.523847e+00 1.469569e+01 -4.646003e-01 -1.049359e+01 -6.216118e+00 -1.055613e+01 -2.438944e+00 -9.088975e+00 -2.132554e+00 6.083456e-01 -1.092191e+00 6.908334e+01 -4.084266e-01 -7.740306e-01 1.088113e+00 -1.344934e+00 -2.666723e+00 1.371706e-01 -5.407355e-02 8.137670e-01 -7.816204e-01 1.277688e-01 1.722910e+00 3.659158e-01 2.169432e+00 -1.322526e-01 -3.481533e-02 -2.608340e-01 -2.248164e-01 -1.197135e-03 4.226317e-01 -1.351544e-03 -6.471393e-02 9.477659e-02 2.811198e-02 1.193454e-02 -1.447642e-01 -2.833463e-01 1.472460e-01 2.487558e-01 -3.403876e-02 1.966688e-01 3.982378e-01 2.353948e-03 -6.204636e-02 -1.703236e-01 6.410422e-02 2.039355e-02 -2.778766e-01 -1.047240e-01 -2.385913e-01
<VARIANCE> 52
 1.299801e+01 2.787287e+01 3.907367e+01 4.949883e+01 5.870662e+01 4.528939e+01 5.880410e+01 5.403495e+01 3.907602e+01 3.973251e+01 4.009180e+01 2.836472e+01 3.040922e+01 1.209571e+00 1.845338e+00 2.707828e+00 3.606134e+00 4.153534e+00 3.878864e+00 3.855071e+00 3.967848e+00 2.953983e+00 2.973183e+00 2.724571e+00 2.759604e+00 1.520350e+00 3.118289e-01 5.258893e-01 5.083616e-01 5.584511e-01 1.083632e+00 5.065048e-01 7.675645e-01 7.829590e-01 4.919779e-01 6.395722e-01 7.161818e-01 5.141098e-01 3.555462e-01 5.689757e-02 7.859622e-02 1.053236e-01 1.231918e-01 1.793653e-01 1.469338e-01 1.782808e-01 1.602746e-01 1.106842e-01 1.415080e-01 1.228664e-01 1.221760e-01 5.135946e-02
<GCONST> 1.203395e+02
<MIXTURE> 2 3.151175e-01
<MEAN> 52
 -4.998253e+00 2.239642e+00 4.741075e+00 3.734710e-01 -1.629459e+00 -3.036272e+00 -8.141434e+00 -4.341943e+00 -4.469029e+00 -3.480247e+00 -4.678060e+00 -2.089430e+00 5.660108e+01 1.506806e+00 1.249478e+00 3.107441e+00 1.107787e-01 -1.173982e+00 -1.333835e+00 -2.059743e+00 -8.531827e-01 -1.320226e+00 -4.878064e-01 -5.724921e-01 -7.761437e-02 2.540366e+00 -2.768731e-01 -4.513685e-01 8.505359e-02 -6.276084e-01 -7.093036e-01 -2.324012e-01 7.567152e-02 1.773198e-01 -1.807169e-01 1.674331e-01 2.316598e-01 2.369608e-01 5.560866e-01 -2.336866e-01 -1.973426e-01 -3.248401e-01 -9.491049e-02 2.425916e-02 2.080899e-01 3.065980e-01 1.519479e-01 1.379964e-01 1.345878e-01 1.131212e-01 4.102537e-02 -1.935293e-01
<VARIANCE> 52
 2.045313e+01 2.967890e+01 5.481651e+01 3.307750e+01 3.302980e+01 3.970402e+01 5.013914e+01 4.161590e+01 3.517534e+01 3.798534e+01 3.136208e+01 1.986209e+01 2.922970e+01 1.339387e+00 2.864403e+00 3.932707e+00 4.722689e+00 4.157865e+00 3.892359e+00 4.083169e+00 4.794615e+00 3.979786e+00 3.920937e+00 3.543284e+00 2.696460e+00 2.542962e+00 3.915583e-01 6.230426e-01 6.937854e-01 4.638555e-01 5.881012e-01 7.046516e-01 8.930525e-01 8.435605e-01 6.542337e-01 8.483257e-01 5.491545e-01 4.023723e-01 2.883054e-01 6.260342e-02 1.268233e-01 1.536532e-01 1.293431e-01 1.692708e-01 1.741303e-01 1.759949e-01 2.021931e-01 1.803184e-01 1.980150e-01 1.279370e-01 1.231818e-01 9.232417e-02
<GCONST> 1.247425e+02
<MIXTURE> 3 1.872348e-01
<MEAN> 52
 -6.681982e+00 -2.374215e+00 1.086152e+01 -1.770202e+01 -1.410385e+01 -1.268396e+01 -1.382543e+01 -7.900804e+00 -1.323161e+01 -1.193246e+00 -1.208687e+01 -7.108495e-01 6.787357e+01 -5.099316e-01 -4.576715e-01 1.485535e+00 -2.846247e+00 -2.359787e+00 3.839517e-01 1.808565e-01 -7.201084e-01 -3.211902e-01 2.868776e+00 -1.142686e+00 7.212621e-02 2.734996e+00 -2.208909e-01 2.180136e-01 -6.664216e-01 3.808560e-01 3.390473e-01 9.154279e-01 -5.738281e-02 -2.727088e-03 6.986493e-01 1.046532e-02 1.284660e-01 8.565676e-02 -5.805139e-01 1.386618e-01 2.224285e-01 -9.356552e-02 2.722768e-01 3.343779e-01 -1.120925e-01 -3.139309e-01 2.548189e-03 1.106611e-03 -5.278463e-01 3.470050e-02 1.582103e-02 -2.842456e-01
<VARIANCE> 52
 1.074251e+01 2.637804e+01 4.164989e+01 5.870384e+01 5.083776e+01 1.972369e+01 5.068270e+01 4.601165e+01 1.905564e+01 6.003635e+01 2.870840e+01 4.013802e+01 3.026847e+01 9.833519e-01 1.842308e+00 4.264719e+00 4.057468e+00 3.759349e+00 5.299564e+00 4.532282e+00 2.217371e+00 4.170454e+00 4.433240e+00 2.198467e+00 3.453356e+00 2.647009e+00 2.293883e-01 4.878744e-01 5.508475e-01 6.585299e-01 9.721380e-01 6.167547e-01 1.624892e+00 5.736086e-01 7.643695e-01 1.604547e+00 3.907308e-01 7.118850e-01 4.236428e-01 3.934628e-02 8.061278e-02 1.682702e-01 1.475973e-01 1.418459e-01 2.250822e-01 2.211540e-01 1.134572e-01 2.119318e-01 2.088409e-01 8.663438e-02 1.370517e-01 8.458903e-02
<GCONST> 1.235275e+02
<STATE> 3
<NUMMIXES> 3
<MIXTURE> 1 5.383154e-01
<MEAN> 52
 -4.050499e+00 2.730271e+00 1.714342e+01 -3.592422e+00 -1.830386e+01 -1.032428e+00 -1.203475e+01 -1.313360e+00 -1.011070e+01 -2.564622e+00 5.293978e+00 -1.699715e+00 7.363651e+01 8.066346e-02 9.431208e-01 -2.774200e-01 -8.780787e-01 1.409288e-01 1.284070e+00 -2.815892e-01 -8.215627e-01 1.888974e-01 2.689106e-01 -5.468562e-02 -8.143020e-01 -7.153526e-02 1.018658e-01 2.021313e-01 -4.353674e-01 2.546256e-01 7.991869e-01 -1.784610e-01 1.688088e-01 -3.081111e-01 9.026518e-02 1.468462e-01 -4.831775e-01 -1.697675e-01 -3.944628e-01 -1.210416e-02 -1.259194e-01 4.760731e-02 8.525312e-02 -1.675161e-01 -1.723167e-01 9.557032e-02 1.088240e-01 -9.654006e-02 -5.853147e-03 9.538006e-02 1.001239e-01 1.331977e-01
<VARIANCE> 52
 9.794425e+00 2.781723e+01 2.489386e+01 4.566722e+01 2.995353e+01 5.455748e+01 5.734288e+01 4.955414e+01 4.241541e+01 4.828068e+01 2.504421e+01 3.434035e+01 1.272052e+01 3.518109e-01 8.875144e-01 1.364447e+00 1.103247e+00 2.711933e+00 2.000348e+00 2.611980e+00 2.258344e+00 2.465399e+00 1.870889e+00 2.328793e+00 1.836562e+00 3.992156e-01 9.220707e-02 2.240704e-01 2.285583e-01 3.209730e-01 4.281824e-01 5.167178e-01 5.237907e-01 4.314301e-01 4.748314e-01 3.980366e-01 4.329876e-01 3.902027e-01 1.361094e-01 1.779210e-02 3.490153e-02 5.050580e-02 4.319800e-02 1.136587e-01 8.283359e-02 1.006256e-01 8.152188e-02 8.675216e-02 8.476323e-02 8.461013e-02 7.361743e-02 1.809740e-02
<GCONST> 9.335351e+01
<MIXTURE> 2 2.339331e-01
<MEAN> 52
 -9.028305e+00 3.811716e-01 1.152199e+01 -2.438984e+01 -1.649497e+01 -6.119366e+00 -1.809008e+01 -1.197901e+01 -9.189245e+00 3.609916e+00 -1.634843e+01 1.308157e+00 7.233718e+01 2.511053e-02 1.525516e+00 -3.039871e-01 -6.282308e-01 1.403333e+00 1.110181e+00 -2.369261e+00 -2.886324e-01 9.413329e-01 -9.630156e-01 -7.174026e-01 7.015560e-01 -2.943186e-01 2.545149e-01 1.670849e-02 -2.250368e-01 4.784453e-01 5.919954e-01 -4.405623e-01 -3.609706e-02 2.304443e-01 -1.748698e-01 -6.136472e-01 1.706610e-01 -1.121088e-01 -4.326292e-01 1.937367e-03 -2.288622e-01 8.660011e-02 -4.857667e-02 -2.683509e-01 -1.690309e-01 3.043215e-01 -5.236435e-03 -1.555804e-01 2.652815e-01 1.695446e-02 -1.205590e-01 1.932437e-01
<VARIANCE> 52
 5.493749e+00 1.589338e+01 1.192552e+01 2.443910e+01 2.722563e+01 1.742068e+01 3.512565e+01 2.771595e+01 2.977978e+01 3.260063e+01 2.578593e+01 3.392072e+01 1.062337e+01 3.294145e-01 4.446314e-01 1.233957e+00 1.228115e+00 1.986546e+00 1.898245e+00 2.485156e+00 2.454145e+00 2.475530e+00 2.389075e+00 1.293632e+00 1.728866e+00 4.054158e-01 7.218653e-02 2.759144e-01 2.275678e-01 2.361688e-01 4.915670e-01 3.890511e-01 6.234261e-01 3.116729e-01 4.961396e-01 6.466324e-01 2.552726e-01 3.860840e-01 1.504725e-01 1.852277e-02 2.840902e-02 4.824738e-02 4.933875e-02 7.321154e-02 1.004317e-01 1.010919e-01 7.741109e-02 1.222978e-01 1.114762e-01 5.821292e-02 6.583865e-02 2.191644e-02
<GCONST> 8.556802e+01
<MIXTURE> 3 2.277515e-01
<MEAN> 52
 -6.343448e+00 3.492791e-01 2.280904e+01 -1.525264e+01 -1.159013e+01 1.791417e+00 -1.262827e+01 -5.096658e+00 -1.436019e+01 4.615491e+00 2.996550e+00 -3.201852e+00 7.194509e+01 2.236777e-01 8.526618e-01 -3.678134e-01 3.115360e-02 9.750726e-01 3.763071e-01 -2.877194e-01 -1.068712e+00 -6.571492e-01 6.343014e-01 -4.993404e-02 -6.356974e-01 -5.423608e-01 9.066881e-02 5.257437e-02 -3.229394e-01 3.258716e-01 2.900424e-02 -2.469933e-01 1.033082e-01 2.176618e-02 4.569953e-02 -1.023818e-01 4.179262e-02 8.414554e-02 -9.243738e-02 -5.174420e-02 -6.120643e-02 3.005861e-02 -3.280904e-02 -1.249020e-01 -4.558546e-02 5.951839e-02 1.162871e-01 6.310313e-02 -9.410615e-02 2.275088e-02 8.908178e-02 9.132084e-02
<VARIANCE> 52
 8.672994e+00 1.981084e+01 1.716767e+01 6.210342e+01 3.046871e+01 2.190541e+01 2.028793e+01 2.391102e+01 2.478638e+01 3.582532e+01 1.447206e+01 2.985571e+01 9.702459e+00 1.868739e-01 1.918809e-01 7.751417e-01 8.667648e-01 4.987073e-01 1.176490e+00 7.500272e-01 7.567996e-01 8.899402e-01 6.694225e-01 6.571410e-01 7.170407e-01 1.082469e-01 3.206233e-02 7.925986e-02 7.658994e-02 1.169527e-01 1.543019e-01 1.128402e-01 1.488294e-01 1.852327e-01 1.425959e-01 2.023982e-01 9.235493e-02 1.501658e-01 3.084701e-02 8.907611e-03 2.327479e-02 1.450979e-02 3.373455e-02 2.090744e-02 3.142217e-02 2.815357e-02 3.160317e-02 3.260019e-02 3.046038e-02 2.419631e-02 3.337308e-02 7.294230e-03
<GCONST> 4.813935e+01
<STATE> 4
<NUMMIXES> 3
<MIXTURE> 1 2.928946e-01
<MEAN> 52
 -2.333967e+00 5.153872e+00 6.325424e+00 -8.338864e+00 -1.365227e+01 -5.205555e+00 -1.526482e+01 -8.940996e+00 -1.184017e+01 -1.464990e+00 -9.201506e+00 -4.877676e+00 6.874825e+01 -1.542244e-01 9.656619e-01 -7.017249e-01 6.840567e-01 2.032395e-01 -6.271333e-02 5.197474e-01 -8.738284e-01 1.171240e-02 -5.870830e-01 -6.862127e-02 4.439876e-02 -4.451184e-01 -5.918915e-01 2.729796e-01 9.131911e-02 2.043480e-01 2.408709e-01 -1.912642e-02 3.311976e-01 1.578072e-03 2.717034e-01 -2.506391e-01 2.883174e-01 1.407489e-01 6.302731e-02 -2.212148e-01 -6.126643e-02 -1.883976e-02 7.892970e-03 1.230608e-01 2.147081e-02 9.208117e-02 1.520276e-01 8.754095e-02 8.288758e-02 3.750045e-02 -3.094298e-02 6.037129e-02
<VARIANCE> 52
 1.522641e+01 2.055372e+01 3.406065e+01 1.361956e+02 4.729547e+01 3.808159e+01 1.014127e+02 9.512531e+01 3.939748e+01 8.915547e+01 1.284061e+02 4.176911e+01 2.231482e+01 1.535225e+00 1.537080e+00 3.104794e+00 3.309927e+00 3.503136e+00 2.732858e+00 3.652166e+00 3.387969e+00 3.101756e+00 3.676712e+00 4.500849e+00 3.173009e+00 5.061060e-01 2.892556e-01 3.296758e-01 4.220719e-01 7.759507e-01 7.199034e-01 5.553715e-01 8.516073e-01 6.534879e-01 6.129389e-01 6.389003e-01 7.771215e-01 6.692289e-01 8.600665e-02 3.092398e-02 6.702315e-02 1.234455e-01 1.464950e-01 1.633740e-01 1.468385e-01 1.896751e-01 1.391559e-01 1.395771e-01 1.556317e-01 1.836164e-01 1.354139e-01 2.320240e-02
<GCONST> 1.208027e+02
<MIXTURE> 2 2.795446e-01
<MEAN> 52
 -5.479903e+00 2.612995e+00 6.985891e+00 -2.162979e+01 -9.161539e+00 -7.852608e+00 -2.468355e+01 -9.627215e+00 -9.547908e+00 -2.300540e+00 -1.871867e+01 1.288803e+00 6.810818e+01 4.531674e-01 -7.421236e-03 -5.942084e-01 7.011504e-01 2.190008e-01 -3.848053e-01 -1.126651e-01 -1.534842e-01 -1.955578e-01 -4.683301e-01 -2.382277e-01 -4.967205e-01 -4.782035e-01 -7.524899e-02 1.616394e-02 -2.654121e-02 7.102215e-02 -2.438229e-01 -7.103044e-03 2.278077e-01 -1.433318e-01 -5.435605e-02 3.038563e-02 1.029588e-01 -5.691540e-02 1.517361e-02 -6.558772e-02 9.542608e-02 -9.105107e-03 -1.752077e-03 7.105424e-03 5.373956e-02 -2.421609e-02 -3.116726e-02 3.947637e-02 -4.252588e-02 4.569220e-02 3.284751e-02 1.009374e-02
<VARIANCE> 52
 1.067126e+01 1.288631e+01 1.348686e+01 5.616646e+01 4.512052e+01 2.431453e+01 2.216341e+01 5.376071e+01 2.595661e+01 4.888736e+01 3.736788e+01 3.194724e+01 2.060373e+01 2.849998e-01 7.166539e-01 6.629077e-01 1.353274e+00 1.488656e+00 1.278694e+00 2.005804e+00 1.856880e+00 1.606221e+00 1.697035e+00 1.332616e+00 1.151797e+00 1.320205e-01 4.222677e-02 1.672048e-01 1.396420e-01 2.435969e-01 2.034768e-01 2.665214e-01 4.006202e-01 2.966166e-01 3.026420e-01 3.395262e-01 3.400588e-01 2.376961e-01 2.163642e-02 1.102863e-02 1.950254e-02 3.002779e-02 6.341048e-02 4.076656e-02 5.859859e-02 8.871799e-02 6.503702e-02 6.434327e-02 7.872686e-02 7.851943e-02 5.126500e-02 4.577218e-03
<GCONST> 7.404084e+01
<MIXTURE> 3 4.275608e-01
<MEAN> 52
 -2.394163e+00 5.909658e+00 1.143250e+01 -3.589242e+00 -1.318628e+01 -6.828884e-01 -9.332929e+00 -7.429793e+00 -9.615051e+00 -3.596132e-01 3.276498e+00 -5.231024e+00 7.157772e+01 1.437098e-02 3.614119e-01 -6.591520e-01 4.003631e-01 5.073097e-01 -4.872836e-01 5.634378e-01 -2.390092e-01 -4.016691e-01 2.217690e-01 -2.056080e-01 -2.247478e-01 -1.501269e-01 -2.698449e-01 1.314431e-01 4.653088e-02 1.523343e-01 -1.850739e-02 -2.551286e-01 2.876913e-01 1.225778e-01 2.539285e-02 -1.087289e-01 -1.741825e-02 2.398451e-01 3.673394e-02 -1.304636e-01 1.020558e-01 -1.481984e-03 -2.674375e-02 8.291446e-02 7.705371e-02 2.209193e-02 -1.601831e-02 1.134554e-01 -3.170621e-02 -1.982125e-02 4.152167e-02 -1.346630e-03
<VARIANCE> 52
 9.889483e+00 2.305872e+01 4.063032e+01 5.449132e+01 3.200422e+01 8.543494e+01 6.223864e+01 6.298136e+01 5.734537e+01 4.785069e+01 3.420800e+01 3.303148e+01 1.306406e+01 4.263602e-01 5.676454e-01 1.129427e+00 1.489919e+00 1.181174e+00 1.828338e+00 1.818247e+00 1.575760e+00 1.890535e+00 1.699935e+00 1.612799e+00 1.467576e+00 1.885478e-01 8.747310e-02 1.623800e-01 2.153505e-01 2.644743e-01 3.385877e-01 4.328886e-01 4.096673e-01 3.637509e-01 4.633488e-01 2.955365e-01 3.247600e-01 2.557745e-01 3.269106e-02 1.627104e-02 2.787632e-02 4.814785e-02 5.458366e-02 8.322122e-02 8.442647e-02 7.983112e-02 7.811541e-02 8.607087e-02 6.661674e-02 7.675464e-02 6.137872e-02 8.891249e-03
<GCONST> 8.593291e+01
<STATE> 5
<NUMMIXES> 3
<MIXTURE> 1 3.702469e-01
<MEAN> 52
 -5.702470e+00 1.027590e+01 1.115728e+01 -2.672354e+00 -1.015937e+01 -2.975038e+00 -5.215164e+00 -8.581099e+00 -1.065741e+01 -5.791937e-01 2.210641e+00 -3.360018e+00 7.090950e+01 -2.703985e+00 2.436141e+00 -1.267071e+00 1.193575e+00 2.513695e+00 -1.191162e+00 2.554717e+00 -1.099920e-01 1.552604e+00 -8.105281e-01 -7.854789e-01 1.323716e+00 -3.093092e-01 -9.847651e-01 -7.662874e-02 -3.609492e-01 6.075477e-02 5.274105e-01 2.331547e-01 4.714171e-02 3.659285e-01 4.262638e-01 -2.599839e-02 -2.152604e-01 -2.787706e-02 -9.591766e-03 1.292184e-01 -4.147554e-01 -6.697754e-03 -2.282747e-01 -3.248007e-01 1.553767e-01 -3.544947e-01 1.226155e-02 -2.009517e-01 1.445975e-01 7.848492e-02 -2.170642e-01 3.130074e-02
<VARIANCE> 52
 1.073053e+01 1.957537e+01 2.586710e+01 4.752959e+01 3.498897e+01 4.157647e+01 5.550382e+01 4.975215e+01 4.253957e+01 3.552074e+01 3.023737e+01 3.488886e+01 1.516547e+01 1.629964e+00 1.493598e+00 2.928857e+00 3.483614e+00 4.411309e+00 2.823659e+00 2.679805e+00 4.542799e+00 3.688986e+00 3.464500e+00 2.608198e+00 2.356792e+00 4.280083e-01 1.769599e-01 4.282020e-01 3.201941e-01 3.512512e-01 5.554997e-01 4.664745e-01 6.130679e-01 5.166174e-01 4.957496e-01 4.544960e-01 4.560637e-01 4.029593e-01 6.627390e-02 5.654820e-02 5.558984e-02 8.361153e-02 9.002656e-02 1.764555e-01 1.158110e-01 1.047105e-01 1.563391e-01 1.299496e-01 1.218963e-01 1.076738e-01 8.678877e-02 1.477524e-02
<GCONST> 1.071366e+02
<MIXTURE> 2 4.571562e-01
<MEAN> 52
 -1.764414e+01 1.504120e+01 5.467087e+00 5.358327e-01 -1.874823e+00 -3.854218e+00 -6.529991e-01 -7.436702e+00 -5.380268e+00 -3.581207e+00 -2.647372e+00 -1.788288e+00 6.955679e+01 -4.519246e+00 -1.680553e-01 -1.759104e+00 4.440647e-01 2.131907e+00 6.528770e-01 1.531305e+00 1.263604e+00 1.711809e+00 2.305033e-01 -1.454789e-01 4.168193e-01 5.225426e-02 2.656781e-01 -9.398919e-01 -1.755335e-01 -8.230757e-01 -8.506869e-01 2.332100e-02 -7.714124e-01 -5.975250e-02 -2.717843e-01 3.250498e-01 1.420101e-01 -1.433434e-01 2.807857e-02 5.060930e-01 8.591606e-02 1.658515e-01 -6.453198e-02 -3.017179e-01 -1.910314e-01 -1.156345e-01 -2.290609e-01 -2.165086e-01 -6.938780e-02 4.455045e-02 -1.759809e-02 -2.408560e-02
<VARIANCE> 52
 3.292345e+01 1.690690e+01 3.609309e+01 3.660410e+01 3.106512e+01 2.851601e+01 3.899173e+01 3.396627e+01 2.797474e+01 3.287901e+01 3.313756e+01 2.460073e+01 1.920984e+01 1.770194e+00 2.699635e+00 2.489944e+00 2.707350e+00 2.965959e+00 3.046822e+00 4.043857e+00 2.859943e+00 2.987030e+00 3.220402e+00 3.421309e+00 2.701882e+00 5.201243e-01 4.463280e-01 3.088328e-01 4.012178e-01 4.133522e-01 6.257647e-01 5.332186e-01 4.923745e-01 5.230263e-01 5.872670e-01 5.660858e-01 5.393609e-01 5.418305e-01 8.302172e-02 5.705406e-02 1.003734e-01 9.216837e-02 8.582684e-02 1.390138e-01 1.073397e-01 1.452706e-01 9.710129e-02 1.264940e-01 1.344733e-01 1.141547e-01 1.213868e-01 1.848210e-02
<GCONST> 1.096270e+02
<MIXTURE> 3 1.725969e-01
<MEAN> 52
 -1.086508e+01 1.147749e+01 1.604492e+00 -1.224381e+01 -1.207797e+01 -9.827484e+00 -1.974301e+01 -1.805833e+01 -1.032747e+01 -1.026286e+01 -1.236886e+01 -4.522290e+00 6.605855e+01 -4.137194e+00 1.593179e+00 -1.021689e+00 3.528287e+00 9.916818e-01 3.981381e-01 3.570098e+00 6.652929e-01 1.137102e+00 -5.169739e-01 2.266134e+00 -1.165223e+00 4.672877e-01 -7.175446e-01 -6.298645e-01 -5.451896e-02 9.909228e-02 6.754703e-01 5.545020e-01 6.683249e-01 9.054109e-01 4.931950e-01 7.954055e-01 7.023571e-02 3.445911e-01 2.360881e-01 4.185697e-01 -2.356510e-01 3.106063e-02 -5.100664e-01 -1.099270e-01 2.624351e-02 -4.413221e-01 -7.158343e-02 -9.236798e-02 1.583803e-01 -2.342865e-01 2.375470e-01 -7.667363e-02
<VARIANCE> 52
 3.010998e+01 1.967947e+01 2.495960e+01 5.698990e+01 2.204896e+01 3.424170e+01 3.570482e+01 4.027361e+01 2.086115e+01 2.831555e+01 2.744547e+01 4.002394e+01 2.336971e+01 1.715614e+00 2.172004e+00 1.656587e+00 4.242229e+00 5.105523e+00 5.283171e+00 3.073102e+00 3.215837e+00 2.241264e+00 4.395885e+00 3.670794e+00 3.438331e+00 5.195433e-01 4.418848e-01 3.206562e-01 3.417459e-01 9.377233e-01 5.566120e-01 5.593340e-01 7.669421e-01 3.361781e-01 4.037737e-01 4.828593e-01 7.189597e-01 8.522927e-01 8.909380e-02 6.944501e-02 8.452768e-02 6.184618e-02 1.313682e-01 1.945675e-01 2.006389e-01 1.517847e-01 1.394637e-01 1.025468e-01 1.747214e-01 1.834606e-01 1.395625e-01 1.805929e-02
<GCONST> 1.137579e+02
<STATE> 6
<NUMMIXES> 3
<MIXTURE> 1 2.576748e-01
<MEAN> 52
 -2.629765e+01 1.065365e+01 -6.860437e-01 -2.096829e+00 -2.281264e+00 -4.401784e+00 -5.719890e-01 -6.195479e+00 -2.752450e+00 -2.121107e+00 -1.612713e+00 -1.497927e+00 6.962637e+01 -2.349344e+00 -1.711570e+00 -1.884326e+00 -1.853080e+00 -9.396771e-01 -4.967845e-01 -3.683557e-01 -1.398625e-01 3.856737e-01 5.197624e-01 3.629842e-01 3.872011e-01 5.783057e-02 1.078593e+00 -1.813950e-02 5.251886e-01 -1.670655e-01 -4.604049e-01 -1.179590e-01 -3.275236e-01 -2.306755e-01 -4.105195e-01 -1.997841e-02 2.963905e-02 -3.780532e-02 -1.917096e-02 1.276341e-01 3.549539e-01 2.886359e-01 3.965435e-01 3.420085e-01 8.091128e-02 2.154233e-01 7.746496e-02 6.627356e-02 -1.336446e-01 -9.636170e-02 -2.695700e-02 -9.482170e-03
<VARIANCE> 52
 1.127322e+01 2.118537e+01 3.721585e+01 3.428445e+01 2.640944e+01 3.218059e+01 4.363012e+01 4.280418e+01 2.667788e+01 3.281024e+01 3.059620e+01 2.525295e+01 1.509716e+01 1.690600e+00 9.128097e-01 1.499448e+00 1.183541e+00 1.597887e+00 1.946591e+00 2.158962e+00 1.958578e+00 2.253505e+00 2.102584e+00 2.196440e+00 1.970738e+00 2.455484e-01 1.619954e-01 3.352476e-01 4.181593e-01 4.633514e-01 5.766407e-01 4.849772e-01 5.547794e-01 3.901325e-01 4.450455e-01 4.162515e-01 4.346142e-01 4.219446e-01 6.466766e-02 6.297041e-02 4.625946e-02 5.855266e-02 5.131153e-02 7.658112e-02 9.912118e-02 1.086110e-01 8.685782e-02 1.188816e-01 9.929130e-02 1.041401e-01 1.087812e-01 1.202504e-02
<GCONST> 9.580322e+01
<MIXTURE> 2 6.128327e-01
<MEAN> 52
 -2.970412e+01 8.381557e+00 -2.311496e+00 -6.555380e+00 -3.113640e+00 -4.318067e+00 -3.006777e+00 -5.440228e+00 -3.108714e+00 -7.369816e-01 -2.006050e+00 -1.061978e+00 6.915056e+01 -1.116958e-01 -5.071487e-01 2.765898e-01 -2.877797e-01 4.339738e-02 1.875286e-01 1.618671e-01 3.049006e-01 1.324667e-01 1.672132e-01 1.850264e-02 9.051806e-02 -1.661562e-01 7.044092e-01 1.954019e-01 5.641941e-01 1.543508e-01 -1.513656e-01 -1.226710e-01 -2.542933e-01 -2.224066e-01 -2.627200e-01 -2.261087e-01 -1.156429e-01 -7.610779e-02 -7.550700e-04 2.350916e-02 -8.571730e-03 2.500126e-02 -1.889895e-03 -8.748443e-02 -6.387836e-02 -1.185560e-01 -7.428416e-02 -6.387529e-02 -4.971923e-02 1.131555e-02 9.005005e-03 6.445533e-02
<VARIANCE> 52
 8.714282e+00 1.588259e+01 3.463811e+01 2.202764e+01 1.620614e+01 3.089630e+01 4.035547e+01 3.290011e+01 2.737825e+01 2.290037e+01 2.504950e+01 1.580878e+01 1.708799e+01 7.903861e-01 6.532965e-01 1.300655e+00 1.079346e+00 1.379522e+00 1.538250e+00 1.664451e+00 1.803195e+00 1.953971e+00 2.091301e+00 1.762469e+00 1.543679e+00 2.073347e-01 2.707087e-01 1.830398e-01 3.101131e-01 3.296270e-01 3.859606e-01 4.163913e-01 4.456290e-01 4.681080e-01 4.486510e-01 4.094589e-01 3.835284e-01 3.263702e-01 4.545702e-02 4.746089e-02 3.441115e-02 4.832851e-02 5.343191e-02 8.149518e-02 9.278020e-02 1.013012e-01 8.659715e-02 1.075139e-01 1.014426e-01 9.522301e-02 8.651624e-02 1.260481e-02
<GCONST> 8.693719e+01
<MIXTURE> 3 1.294926e-01
<MEAN> 52
 -2.373659e+01 8.286723e+00 -6.866960e-01 -1.029400e+01 -9.961616e+00 -6.352287e+00 -9.738187e+00 -1.291402e+01 -5.715596e+00 -3.312846e+00 -4.549139e+00 -1.663264e+00 6.681539e+01 3.490896e+00 -1.646620e-01 2.018320e+00 -2.523932e+00 -2.739054e+00 -2.251694e+00 -3.598096e+00 -3.228923e+00 -2.906863e+00 -1.620422e+00 -2.211758e+00 -5.111086e-01 6.966041e-01 5.672117e-02 -4.675000e-01 2.979855e-01 -5.014604e-01 2.580374e-01 1.604897e-01 -5.842208e-02 2.373655e-01 -1.275770e-01 -1.478899e-02 -6.135099e-01 -1.017080e-01 3.533162e-01 -4.800989e-01 -8.528305e-02 -1.589441e-01 2.146002e-01 4.540156e-01 3.474402e-01 5.060623e-01 5.162889e-01 3.961717e-01 2.693309e-01 2.517030e-01 8.878879e-02 -8.713528e-02
<VARIANCE> 52
 4.360820e+01 1.876099e+01 2.933674e+01 2.494943e+01 4.527519e+01 5.172389e+01 7.420178e+01 6.483112e+01 4.721981e+01 3.102656e+01 2.962560e+01 2.082839e+01 2.406496e+01 1.115632e+00 1.474841e+00 1.716597e+00 2.381251e+00 2.007921e+00 3.050037e+00 3.824394e+00 2.286509e+00 2.503203e+00 2.131916e+00 3.088962e+00 3.008667e+00 7.211879e-01 8.617255e-01 2.527116e-01 3.515560e-01 4.247658e-01 1.009164e+00 9.444879e-01 1.324427e+00 1.305138e+00 9.183007e-01 6.501998e-01 5.397160e-01 3.847036e-01 8.865254e-02 4.304978e-02 7.171866e-02 6.998292e-02 9.270396e-02 8.933864e-02 1.317900e-01 1.374261e-01 1.124162e-01 1.057443e-01 8.902553e-02 1.307098e-01 9.839789e-02 3.114454e-02
<GCONST> 1.121128e+02
<STATE> 7
<NUMMIXES> 3
<MIXTURE> 1 1.589005e-01
<MEAN> 52
 -1.090036e+01 2.486691e+00 1.587625e+01 -2.363056e+00 -1.299839e+01 -9.359282e+00 -1.025351e+01 -9.011019e+00 -8.791438e+00 -5.468176e+00 7.417273e-01 1.115235e+00 7.533128e+01 3.753137e+00 -2.836145e+00 3.777318e+00 2.818350e-01 -3.009061e+00 -2.947068e-01 -3.377002e+00 -6.733896e-01 -1.107107e+00 -1.731755e+00 1.489458e+00 9.699829e-01 1.777066e+00 -1.110508e+00 1.294803e-02 -8.307216e-01 -4.821202e-01 3.132587e-01 3.990325e-01 3.517117e-01 2.520643e-01 1.371371e-01 2.706638e-01 1.034334e-01 -1.303219e-01 -3.261770e-01 -3.969327e-01 3.825044e-01 -3.957071e-01 -6.302745e-02 3.769085e-01 9.936457e-02 4.863413e-01 1.237715e-01 1.160800e-01 2.540440e-01 -2.497934e-01 -2.076727e-01 -2.877704e-01
<VARIANCE> 52
 1.277819e+01 3.122047e+01 2.119926e+01 3.137471e+01 1.696476e+01 2.111033e+01 4.899275e+01 1.669303e+01 3.452009e+01 2.903956e+01 1.143339e+01 1.743589e+01 4.339679e+00 2.263223e+00 1.090449e+00 3.046129e+00 2.122521e+00 1.963939e+00 2.906216e+00 9.936053e-01 1.912889e+00 2.048203e+00 2.242124e+00 1.303063e+00 2.055772e+00 6.711847e-01 2.533281e-01 5.546959e-01 3.123930e-01 1.711435e-01 4.445232e-01 3.718293e-01 3.068251e-01 2.211811e-01 2.958764e-01 3.041160e-01 2.076824e-01 2.807003e-01 1.018450e-01 8.925412e-02 4.057949e-02 8.046843e-02 5.255230e-02 7.648838e-02 1.062320e-01 3.579187e-02 5.801200e-02 7.806782e-02 7.581006e-02 4.801199e-02 7.324380e-02 2.311997e-02
<GCONST> 8.804429e+01
<MIXTURE> 2 5.398547e-01
<MEAN> 52
 -2.501899e+01 7.099748e+00 4.068415e+00 -4.992982e+00 -2.761618e+00 -4.395955e+00 -8.156728e-01 -4.914762e+00 -4.053525e+00 -1.748073e+00 -2.215143e+00 -1.167084e+00 6.909000e+01 4.040496e+00 3.628234e-01 3.676508e+00 1.156323e+00 -1.341066e+00 -7.333269e-01 -1.983840e+00 -8.485937e-01 -1.483037e+00 -1.120822e+00 9.666276e-02 -1.316193e-01 6.050017e-01 9.857547e-01 -1.638092e-01 6.514547e-01 2.096104e-01 -7.873824e-01 -1.293576e-01 -9.224974e-01 -2.943431e-01 -4.764313e-01 -2.866083e-01 3.823454e-01 6.067710e-02 4.460765e-01 -5.551439e-01 -2.651134e-01 -4.703061e-01 -2.795220e-01 2.005966e-02 1.604152e-01 1.374615e-01 1.575000e-01 1.752266e-01 1.539290e-01 6.012464e-02 1.454861e-02 -5.125834e-02
<VARIANCE> 52
 2.085578e+01 2.149422e+01 3.731014e+01 2.100963e+01 2.037250e+01 2.719529e+01 3.269863e+01 2.864149e+01 2.644765e+01 2.326004e+01 2.026838e+01 1.815232e+01 1.127400e+01 2.263870e+00 2.723804e+00 2.544316e+00 1.890519e+00 3.027846e+00 2.308203e+00 2.247389e+00 2.039221e+00 2.173048e+00 1.819094e+00 1.952286e+00 1.448389e+00 6.609070e-01 4.070288e-01 3.669271e-01 5.003904e-01 3.253111e-01 3.639691e-01 4.891455e-01 3.745940e-01 3.046674e-01 5.252415e-01 4.374921e-01 3.992462e-01 4.090950e-01 7.434198e-02 7.200610e-02 8.353681e-02 7.112806e-02 5.426456e-02 1.439116e-01 8.831676e-02 1.052282e-01 8.218102e-02 8.617311e-02 8.145953e-02 9.260976e-02 7.354386e-02 2.638275e-02
<GCONST> 9.824277e+01
<MIXTURE> 3 3.012448e-01
<MEAN> 52
 -1.663037e+01 2.828056e+00 7.229735e+00 -2.106665e+01 -1.161357e+01 -1.009486e+01 -1.651081e+01 -1.861226e+01 -1.208922e+01 -6.889436e+00 -1.495216e+01 -2.467374e+00 7.117204e+01 2.432100e-01 -1.364219e+00 1.822202e+00 -2.135642e+00 1.106837e+00 5.487034e-02 -4.214030e-01 4.561066e-01 -5.520364e-01 2.187602e-01 -1.737442e+00 1.222512e-01 7.339532e-01 -6.242009e-01 3.042392e-01 -4.467941e-01 5.844873e-01 3.835980e-01 3.151962e-01 5.247389e-01 4.963275e-01 5.315478e-01 3.673861e-01 6.377179e-01 1.763643e-01 -2.089385e-01 2.125732e-01 1.787384e-01 -1.122443e-01 1.077902e-01 -3.247918e-01 -1.696258e-01 -1.778998e-01 -2.781093e-01 -9.059362e-02 -1.338295e-01 9.043971e-02 -3.356157e-02 -5.616058e-02
<VARIANCE> 52
 6.922656e+00 1.130294e+01 2.117878e+01 2.358871e+01 2.503592e+01 1.327186e+01 2.187912e+01 3.706717e+01 2.329642e+01 1.415933e+01 2.187146e+01 3.773502e+01 1.496828e+01 1.015054e+00 1.497863e+00 1.965537e+00 2.144393e+00 1.897296e+00 2.190123e+00 2.379209e+00 1.719870e+00 1.127044e+00 1.612086e+00 2.056877e+00 1.698750e+00 2.567975e-01 2.776217e-01 1.687540e-01 2.985554e-01 2.772656e-01 6.355429e-01 3.569009e-01 5.888072e-01 4.331373e-01 2.768403e-01 2.777057e-01 2.375561e-01 3.052309e-01 4.128009e-02 3.742589e-02 6.610693e-02 7.226568e-02 8.425073e-02 6.995683e-02 7.439076e-02 9.224389e-02 7.697200e-02 5.222439e-02 6.189818e-02 8.813556e-02 5.335968e-02 1.351694e-02
<GCONST> 8.556132e+01
<STATE> 8
<NUMMIXES> 3
<MIXTURE> 1 2.976344e-01
<MEAN> 52
 -8.602063e+00 2.324778e+00 1.813562e+01 -4.412047e+00 -1.531526e+01 -4.637722e+00 -1.583125e+01 -7.374925e+00 -1.231199e+01 -5.961326e+00 1.581242e+00 -1.576246e+00 7.407492e+01 7.346405e-01 -1.095030e+00 8.399477e-01 -4.364036e-01 -1.249251e+00 9.537832e-01 -1.435177e+00 4.782560e-01 -5.763987e-01 -1.300020e-01 8.160190e-01 -5.580239e-01 2.988313e-01 -8.100094e-01 4.433262e-01 -7.939209e-01 2.275986e-02 7.409889e-01 -3.157314e-02 9.180313e-01 1.280941e-01 4.322224e-01 2.489758e-01 -2.565755e-01 -1.227840e-01 -3.495505e-01 2.623317e-01 1.449785e-01 1.562041e-01 1.401153e-01 3.179969e-02 -1.975885e-01 1.570128e-02 -1.332115e-01 -4.142683e-02 -5.808251e-02 -1.118307e-01 6.429470e-02 -5.335276e-03
<VARIANCE> 52
 1.160619e+01 2.332846e+01 2.363598e+01 4.454451e+01 2.640440e+01 3.988422e+01 3.756266e+01 4.937405e+01 4.018409e+01 4.522875e+01 2.847018e+01 2.820615e+01 1.318662e+01 5.141708e-01 8.498895e-01 1.206167e+00 1.326845e+00 1.862998e+00 1.559609e+00 1.961242e+00 1.360898e+00 1.536373e+00 1.981601e+00 1.362266e+00 1.382827e+00 2.001747e-01 2.109301e-01 1.590728e-01 2.636792e-01 2.346107e-01 3.036455e-01 3.855218e-01 2.948413e-01 3.807012e-01 3.231138e-01 3.377893e-01 2.954758e-01 2.987406e-01 6.326395e-02 3.366135e-02 4.743347e-02 4.233478e-02 4.220498e-02 9.129331e-02 6.019944e-02 8.804937e-02 5.698923e-02 6.126081e-02 6.677379e-02 6.222586e-02 5.652049e-02 1.559494e-02
<GCONST> 8.472849e+01
<MIXTURE> 2 4.890544e-01
<MEAN> 52
 -1.745238e+01 2.132694e+00 1.058919e+01 -2.721445e+01 -7.820085e+00 -1.119059e+01 -1.624924e+01 -1.639711e+01 -1.037506e+01 -4.541639e+00 -1.823956e+01 -8.832010e-01 7.277620e+01 1.715901e-01 -6.808186e-02 6.099727e-02 -1.745352e-01 -5.241983e-02 9.421188e-02 -2.892690e-02 1.684661e-01 1.028215e-01 1.772298e-01 -1.021086e-01 -2.543876e-03 -1.222941e-01 4.202568e-02 9.702767e-03 -7.695309e-02 9.248250e-02 -9.377918e-02 2.650124e-02 6.875090e-04 -4.407770e-02 2.486299e-02 -4.744511e-02 5.306011e-02 -3.483588e-02 -7.133786e-02 1.081069e-02 -1.525253e-02 1.992588e-02 -3.340375e-02 7.966286e-03 -1.163026e-02 -4.795367e-03 -5.471851e-03 -1.486720e-02 -1.792479e-02 -2.778759e-02 2.459417e-03 1.698253e-03
<VARIANCE> 52
 1.043310e+01 8.153366e+00 1.032930e+01 1.840565e+01 8.862921e+00 1.512751e+01 2.407014e+01 1.991156e+01 1.928847e+01 1.840671e+01 1.606360e+01 8.885028e+00 5.210167e+00 1.101653e-01 1.620663e-01 2.653109e-01 4.414025e-01 3.868723e-01 4.603627e-01 6.224698e-01 6.010882e-01 4.866756e-01 4.764950e-01 5.831000e-01 3.485959e-01 1.035677e-01 2.037917e-02 3.449869e-02 5.464554e-02 8.722595e-02 8.289050e-02 8.165512e-02 1.250429e-01 1.120886e-01 9.247547e-02 9.910033e-02 1.156722e-01 6.665719e-02 6.614171e-03 4.889729e-03 1.031414e-02 1.577305e-02 2.378174e-02 1.847983e-02 2.020899e-02 2.900070e-02 2.601672e-02 2.177377e-02 2.286352e-02 3.170609e-02 1.583670e-02 2.076672e-03
<GCONST> 2.392456e+01
<MIXTURE> 3 2.133113e-01
<MEAN> 52
 -1.198296e+01 9.341323e+00 1.417709e+01 -1.771178e+00 -9.006721e+00 -6.963073e+00 -9.075418e+00 -8.934155e+00 -9.798112e+00 -5.628634e+00 -6.631493e-01 -1.275340e+00 7.189529e+01 3.913405e+00 -1.009873e+00 3.020071e+00 2.122241e-01 -3.353512e+00 -6.408440e-02 -3.582592e+00 -5.892984e-01 -2.149098e+00 -7.002161e-01 1.227990e+00 -2.500332e-01 1.141485e+00 -8.477433e-01 -5.941732e-01 -7.603878e-01 -3.969964e-01 -2.276874e-02 4.764978e-01 1.842734e-01 4.561316e-01 3.326756e-01 3.262701e-01 1.728836e-01 -1.057472e-01 -6.243768e-02 -4.753229e-01 1.364081e-01 -3.211017e-01 -9.868043e-03 4.732692e-01 1.253568e-02 4.876780e-01 1.152480e-01 2.660551e-01 8.122979e-02 -1.981658e-01 -2.275753e-03 -1.880555e-01
<VARIANCE> 52
 1.605829e+01 1.993204e+01 1.863566e+01 1.906525e+01 3.825810e+01 3.162331e+01 3.302140e+01 3.612600e+01 2.223440e+01 2.762844e+01 2.026072e+01 1.728608e+01 1.279031e+01 1.995411e+00 1.928616e+00 3.467015e+00 2.627654e+00 2.364856e+00 3.494293e+00 3.149493e+00 3.301813e+00 3.607444e+00 2.899484e+00 2.346758e+00 2.034787e+00 4.924523e-01 3.350920e-01 2.015650e-01 3.014825e-01 1.926251e-01 5.660941e-01 3.471876e-01 5.512837e-01 3.666638e-01 3.445625e-01 3.305095e-01 4.123321e-01 2.959851e-01 7.454951e-02 8.544362e-02 6.023484e-02 1.106365e-01 7.315636e-02 8.789795e-02 1.295201e-01 1.170438e-01 1.147680e-01 1.247859e-01 9.652968e-02 1.111330e-01 8.891991e-02 1.859535e-02
<GCONST> 9.990292e+01
<STATE> 9
<NUMMIXES> 3
<MIXTURE> 1 4.278836e-01
<MEAN> 52
 -7.666112e+00 3.466548e+00 1.730688e+01 -3.757419e+00 -1.534160e+01 -5.688544e+00 -1.509855e+01 -7.817546e+00 -1.156084e+01 -6.542928e+00 2.761166e+00 -2.229542e+00 7.322072e+01 3.019889e-01 -1.056442e-01 -1.060191e-01 7.903720e-02 -2.067572e-01 -5.278269e-02 9.368962e-02 2.247429e-01 7.256998e-02 1.527861e-01 -3.033412e-03 -1.965346e-01 -2.808126e-01 -2.248758e-02 1.354727e-01 -2.042690e-01 1.437627e-01 3.022200e-01 -8.749447e-02 2.892848e-01 2.544740e-02 1.111093e-01 1.295133e-01 -2.323506e-01 3.221567e-02 -2.076410e-01 9.402429e-02 -2.286377e-02 4.505405e-02 2.392424e-02 4.756751e-03 2.716983e-02 -6.679749e-02 -2.315287e-02 -2.403170e-02 -3.235446e-02 -8.361167e-03 2.063500e-02 -1.669456e-02
<VARIANCE> 52
 1.089736e+01 2.932128e+01 4.018133e+01 5.043276e+01 5.033355e+01 7.593621e+01 4.327634e+01 4.971132e+01 4.931850e+01 5.172699e+01 2.712953e+01 2.953914e+01 1.283152e+01 2.425042e-01 4.942868e-01 8.008873e-01 8.930163e-01 9.519603e-01 1.141483e+00 1.297497e+00 1.087909e+00 9.626014e-01 1.059721e+00 9.333155e-01 7.355421e-01 2.314975e-01 8.465604e-02 1.172200e-01 1.550894e-01 1.857882e-01 2.938228e-01 2.199995e-01 3.372440e-01 2.194247e-01 2.404166e-01 2.132072e-01 2.337222e-01 1.692556e-01 6.688773e-02 2.463399e-02 2.338323e-02 4.201227e-02 3.881364e-02 6.630974e-02 4.537810e-02 7.159207e-02 5.427447e-02 4.875349e-02 4.244365e-02 4.567638e-02 3.492709e-02 1.329193e-02
<GCONST> 7.352267e+01
<MIXTURE> 2 2.249624e-01
<MEAN> 52
 -1.335156e+01 1.120930e+00 8.839111e+00 -2.501624e+01 -1.273633e+01 -6.997563e+00 -1.926823e+01 -1.296796e+01 -1.127314e+01 -5.235441e+00 -1.729998e+01 -4.440051e+00 6.835252e+01 4.725192e-01 7.160275e-02 -3.670444e-01 2.393243e-01 -3.363792e-01 9.467476e-02 -2.691770e-02 -2.355144e-02 1.387253e-01 -2.198691e-01 4.605187e-02 1.422773e-01 -6.393682e-01 9.368674e-02 7.314600e-02 -9.141018e-02 2.870400e-01 -2.126011e-03 -7.079128e-02 1.154752e-02 -1.796892e-02 -3.085007e-02 -9.918379e-03 1.431206e-01 8.063107e-02 -1.615206e-01 -3.496608e-03 -1.653038e-02 1.137597e-02 6.206617e-02 5.683966e-02 6.281584e-03 1.052052e-02 4.149280e-02 -1.241658e-02 1.165030e-02 3.455744e-02 -1.464043e-02 -7.776137e-03
<VARIANCE> 52
 1.558187e+01 1.850723e+01 1.628354e+01 2.149047e+01 3.505068e+01 2.605999e+01 5.383504e+01 2.665348e+01 1.792672e+01 1.875848e+01 2.804522e+01 2.607525e+01 2.528778e+01 2.811256e-01 4.647728e-01 6.217961e-01 1.171146e+00 9.528925e-01 1.170257e+00 1.148345e+00 1.029845e+00 9.907576e-01 1.252579e+00 1.180783e+00 6.546159e-01 3.182687e-01 4.065986e-02 7.352205e-02 1.253015e-01 2.255905e-01 1.609841e-01 2.223899e-01 2.595241e-01 1.989081e-01 1.704988e-01 2.169222e-01 2.490495e-01 1.213113e-01 3.116309e-02 1.119933e-02 1.832682e-02 2.219428e-02 4.438063e-02 4.499346e-02 5.222883e-02 6.684329e-02 4.931466e-02 4.491528e-02 5.371444e-02 5.289218e-02 3.215516e-02 5.415762e-03
<GCONST> 6.281643e+01
<MIXTURE> 3 3.471539e-01
<MEAN> 52
 -7.922799e+00 4.354219e-01 2.055083e+01 -8.189719e+00 -1.661648e+01 -5.040047e+00 -1.734361e+01 -7.641075e+00 -1.443394e+01 -5.001522e+00 3.250022e+00 -2.153085e+00 7.416075e+01 1.491089e-01 4.741657e-02 9.999655e-02 -1.496268e-01 -1.750586e-01 1.847833e-01 3.229684e-03 2.236478e-02 -1.043278e-01 1.700811e-01 1.097441e-01 -1.616777e-01 -2.276846e-01 5.389062e-03 4.893823e-02 -7.769988e-02 5.689821e-02 2.719905e-02 -8.130985e-02 9.897938e-02 -2.066934e-02 2.334015e-02 2.000686e-02 -2.822154e-02 5.178104e-03 -5.236549e-02 2.364851e-02 -1.602637e-02 8.288706e-03 6.563360e-03 -1.137651e-03 -4.578656e-03 -1.104368e-02 1.244601e-02 2.922557e-05 -1.881988e-03 -7.920071e-03 -3.594613e-03 -7.552925e-03
<VARIANCE> 52
 1.184517e+01 2.503716e+01 2.183382e+01 4.875597e+01 2.160236e+01 3.793747e+01 1.839186e+01 3.882310e+01 4.005739e+01 5.030996e+01 2.941795e+01 1.746122e+01 8.852874e+00 4.362421e-02 1.275883e-01 2.194176e-01 2.465637e-01 3.359481e-01 3.686132e-01 4.796475e-01 3.573121e-01 3.388348e-01 4.520493e-01 3.773127e-01 3.500192e-01 5.970704e-02 8.530581e-03 1.865885e-02 3.305801e-02 5.219336e-02 5.595404e-02 6.116601e-02 7.829244e-02 7.333335e-02 6.754120e-02 1.015589e-01 6.663875e-02 5.845585e-02 7.431081e-03 3.131140e-03 6.578891e-03 9.469129e-03 1.113805e-02 1.389006e-02 1.476895e-02 2.359514e-02 1.611775e-02 1.747301e-02 2.202719e-02 1.681832e-02 1.447713e-02 2.658128e-03
<GCONST> 1.905875e+01
<STATE> 10
<NUMMIXES> 3
<MIXTURE> 1 4.085309e-01
<MEAN> 52
 -4.954476e+00 3.417965e+00 1.700578e+01 -4.247149e+00 -1.488282e+01 -4.658365e+00 -1.341235e+01 -5.724494e+00 -1.134833e+01 -1.490482e+00 1.297636e+00 -2.783901e+00 6.797707e+01 2.128133e-01 6.176850e-01 -1.120712e+00 8.983347e-01 1.089060e+00 1.851016e-01 9.814367e-01 -1.492167e-01 5.892901e-01 3.293322e-01 -6.605503e-01 -1.128954e-01 -1.363060e+00 -5.674333e-02 -1.049512e-01 -1.436125e-01 1.245871e-01 2.447681e-01 5.514019e-02 1.147037e-01 2.569199e-03 1.368809e-01 -1.544761e-01 -2.531967e-02 8.186612e-02 -1.604099e-01 -3.283401e-02 -1.243808e-01 3.342087e-02 -1.217630e-01 -7.991327e-02 -1.112702e-02 -8.206686e-02 3.024358e-02 -2.812333e-02 -1.461318e-02 7.167096e-02 1.329169e-02 6.754368e-02
<VARIANCE> 52
 7.014254e+00 2.544303e+01 2.138840e+01 5.604918e+01 3.191487e+01 6.815027e+01 6.178375e+01 4.288548e+01 5.697619e+01 4.175262e+01 2.031652e+01 2.525930e+01 2.080427e+01 3.299194e-01 1.001356e+00 8.625986e-01 1.702956e+00 1.146403e+00 1.536527e+00 2.602394e+00 1.576659e+00 1.708543e+00 1.955799e+00 1.424637e+00 1.332069e+00 3.527806e-01 6.482101e-02 2.038083e-01 2.062716e-01 3.310874e-01 3.168302e-01 3.171040e-01 4.814994e-01 3.200509e-01 3.182530e-01 2.634338e-01 3.261010e-01 2.752306e-01 8.067232e-02 1.454145e-02 3.638222e-02 3.629041e-02 6.676107e-02 5.277101e-02 6.304016e-02 1.094322e-01 6.708628e-02 6.865983e-02 7.514028e-02 5.952243e-02 5.611478e-02 9.962181e-03
<GCONST> 8.416968e+01
<MIXTURE> 2 3.131294e-01
<MEAN> 52
 -9.837106e+00 2.692837e+00 6.035006e+00 -1.675197e+01 -1.236966e+01 -8.347892e+00 -1.778073e+01 -1.441343e+01 -1.061454e+01 -4.976682e+00 -1.284343e+01 -6.015050e-03 6.269883e+01 4.491773e-01 -1.516104e-01 -9.344926e-01 2.265169e+00 8.704993e-01 -4.881133e-02 9.823056e-01 7.690414e-01 5.848334e-01 -3.332632e-01 1.314860e+00 3.226399e-02 -1.687589e+00 -2.230116e-01 -2.238505e-01 -4.927453e-02 -5.125653e-02 3.371293e-01 1.461517e-01 3.540628e-01 3.608527e-01 2.304020e-01 1.633009e-01 1.341518e-01 -6.172352e-02 1.166332e-02 -3.911432e-02 -2.526553e-02 6.404510e-02 -2.236947e-01 -8.289156e-02 4.377913e-02 -5.080857e-02 -3.054130e-02 -3.405754e-03 1.163452e-01 -1.022034e-01 3.504431e-02 1.251057e-01
<VARIANCE> 52
 1.265755e+01 2.717321e+01 2.653579e+01 4.601078e+01 3.993723e+01 3.661589e+01 3.795111e+01 4.660868e+01 3.135790e+01 5.737878e+01 4.195172e+01 6.284389e+01 4.185224e+01 1.195773e+00 1.833686e+00 1.777570e+00 2.244954e+00 2.487945e+00 3.579768e+00 3.976610e+00 3.151379e+00 3.175667e+00 3.315521e+00 2.874972e+00 2.872888e+00 7.175047e-01 1.544339e-01 2.774128e-01 2.814220e-01 5.240249e-01 3.283849e-01 6.184437e-01 5.292633e-01 4.910816e-01 5.227371e-01 6.423345e-01 5.121971e-01 4.645284e-01 1.347074e-01 4.552840e-02 6.844771e-02 6.707242e-02 8.816221e-02 9.200261e-02 1.420908e-01 1.470510e-01 1.368793e-01 1.378714e-01 1.510063e-01 1.211781e-01 1.059810e-01 2.320872e-02
<GCONST> 1.097351e+02
<MIXTURE> 3 2.783397e-01
<MEAN> 52
 -4.057412e+00 4.373712e+00 1.295589e+01 2.701006e+00 -1.202831e+01 -4.445586e+00 -9.087431e+00 -6.143804e+00 -9.382000e+00 -5.069277e+00 3.181812e-01 -4.297894e+00 6.731965e+01 8.195913e-01 8.376861e-02 -1.645206e+00 9.720326e-01 3.048813e+00 -2.647326e-01 1.753886e+00 7.147992e-01 9.298853e-01 4.225424e-01 -1.973144e+00 1.340611e-01 -2.250193e+00 -3.040317e-01 -1.341504e-01 -5.221597e-02 -4.658622e-01 5.658816e-02 2.348886e-01 -2.593618e-01 -7.138201e-02 9.924331e-02 -2.527757e-02 5.563183e-02 7.216144e-02 9.011581e-02 -1.402478e-01 -8.504347e-02 1.746117e-01 -1.926063e-01 -5.767702e-01 5.072869e-02 -2.492930e-01 -1.100461e-01 -1.402330e-01 -2.359069e-02 4.025985e-01 -2.368640e-02 3.498214e-01
<VARIANCE> 52
 1.407513e+01 2.641026e+01 2.484872e+01 3.263200e+01 6.159915e+01 5.192641e+01 5.218880e+01 4.449403e+01 3.593895e+01 3.778032e+01 3.490055e+01 2.050222e+01 3.819756e+01 1.241944e+00 1.381121e+00 2.434978e+00 3.021769e+00 2.950044e+00 3.221289e+00 3.889812e+00 3.198424e+00 3.213134e+00 2.211709e+00 1.857081e+00 2.263896e+00 1.148376e+00 2.476663e-01 3.016611e-01 2.817015e-01 3.653563e-01 1.115509e+00 3.817679e-01 5.601150e-01 5.217162e-01 3.892935e-01 3.003123e-01 6.339527e-01 2.862194e-01 4.242542e-01 6.326506e-02 5.256935e-02 6.345953e-02 1.157077e-01 1.272130e-01 1.309666e-01 1.548057e-01 1.403661e-01 1.240476e-01 9.438825e-02 9.024070e-02 8.767483e-02 4.800322e-02
<GCONST> 1.097499e+02
<STATE> 11
<NUMMIXES> 3
<MIXTURE> 1 2.742004e-01
<MEAN> 52
 -4.826501e+00 2.162054e+00 1.027395e+01 -1.168408e+00 -8.711535e+00 -5.645502e+00 -1.065672e+01 -6.355044e+00 -8.783059e+00 -4.027562e+00 -4.082402e+00 -3.226898e+00 6.553782e+01 -6.756760e-01 -2.509429e-01 1.811327e-02 -1.085517e+00 -4.227639e-01 3.175002e-01 2.136354e-01 2.231437e-01 -9.816355e-02 6.184613e-01 6.082584e-01 8.905355e-02 6.382231e-01 -1.779772e-01 -6.135654e-02 2.779748e-01 -3.141150e-01 -9.114921e-01 2.714519e-01 -1.331145e-01 -5.781449e-02 -1.057700e-01 1.612445e-02 5.024691e-01 -2.351401e-03 5.676383e-01 1.739738e-01 6.198796e-02 -2.685499e-02 1.662043e-01 7.712914e-02 -1.269196e-02 1.929597e-02 8.812310e-03 6.000042e-02 -8.535083e-02 -1.068050e-01 -1.862750e-02 -1.514619e-01
<VARIANCE> 52
 2.302540e+01 3.669216e+01 6.771725e+01 8.213357e+01 5.138219e+01 4.279379e+01 6.257691e+01 6.555501e+01 4.714896e+01 4.558359e+01 4.508717e+01 2.618669e+01 5.317884e+01 1.921381e+00 1.172444e+00 2.477502e+00 2.654371e+00 5.225607e+00 2.334666e+00 2.986371e+00 3.585354e+00 3.567544e+00 2.669923e+00 4.308939e+00 1.789186e+00 2.107566e+00 3.809227e-01 3.650757e-01 6.298193e-01 6.358104e-01 1.021676e+00 6.327187e-01 8.247061e-01 8.232479e-01 8.812996e-01 8.019505e-01 8.786386e-01 4.606071e-01 4.881943e-01 7.947450e-02 5.853720e-02 1.117220e-01 1.170534e-01 2.488213e-01 1.057474e-01 1.403717e-01 1.648123e-01 1.754078e-01 1.464488e-01 1.991508e-01 7.916147e-02 8.284894e-02
<GCONST> 1.251836e+02
<MIXTURE> 2 3.343974e-01
<MEAN> 52
 -8.743340e+00 1.358893e+00 3.836565e+00 -3.182406e+00 -2.813426e+00 -9.674141e-01 -5.195412e+00 -4.843039e+00 -3.978284e+00 -2.514020e+00 -3.488851e+00 -2.481409e+00 5.629853e+01 -7.215784e-01 -1.603094e+00 -1.756152e+00 -4.526586e-01 2.851453e-01 2.945680e-01 7.518253e-01 7.569568e-01 1.017673e+00 6.970322e-01 7.764710e-01 5.164602e-01 -1.103073e+00 5.563785e-02 3.128826e-03 1.676243e-01 -4.038776e-01 -6.123269e-01 -3.114546e-01 -4.685291e-01 -3.120587e-01 -3.218938e-01 -5.329959e-02 5.546852e-02 1.097511e-01 3.222940e-01 1.075588e-01 2.181421e-01 1.234326e-01 1.735253e-01 8.274650e-02 -2.101965e-02 -1.410221e-02 -9.573657e-02 -1.048913e-01 -1.127253e-01 -1.407025e-01 -8.126616e-02 1.217919e-02
<VARIANCE> 52
 1.601985e+01 1.835331e+01 5.747840e+01 3.638905e+01 2.996585e+01 2.849065e+01 3.203197e+01 2.604597e+01 2.190431e+01 2.773842e+01 2.825066e+01 1.723033e+01 2.562497e+01 5.590536e-01 9.125113e-01 1.445240e+00 2.488054e+00 2.600548e+00 3.131852e+00 3.611372e+00 2.838570e+00 2.361097e+00 2.596052e+00 2.108843e+00 1.862290e+00 4.981107e-01 1.328688e-01 2.625498e-01 2.534804e-01 4.224404e-01 3.914565e-01 3.723558e-01 4.289471e-01 4.272175e-01 4.438907e-01 5.614817e-01 5.074580e-01 3.195602e-01 8.380672e-02 2.426211e-02 4.083264e-02 5.416379e-02 7.926191e-02 1.142692e-01 1.228144e-01 1.330664e-01 1.142755e-01 1.151031e-01 1.315363e-01 7.617836e-02 7.391719e-02 1.673763e-02
<GCONST> 9.655112e+01
<MIXTURE> 3 3.914022e-01
<MEAN> 52
 -9.229340e+00 -1.482308e+00 3.591803e+00 -7.680273e+00 -8.697855e+00 -5.780494e+00 -9.702413e+00 -8.536938e+00 -6.612722e+00 -2.156405e+00 -1.147029e+00 -2.951721e-01 5.543969e+01 -9.951237e-03 -4.245375e-01 -5.963172e-01 6.738808e-02 1.998902e-01 5.342651e-02 1.028037e-01 4.493673e-02 4.941901e-02 -4.551671e-02 -3.738263e-02 -7.577930e-02 -5.020129e-01 5.977389e-02 1.797280e-01 1.585175e-01 1.083801e-01 7.090628e-02 2.140281e-02 2.005588e-02 8.036301e-02 -2.272291e-02 -1.959649e-02 -8.687051e-02 -5.983033e-02 1.289580e-01 -3.143037e-02 -1.704909e-02 -3.743976e-02 1.638351e-04 2.553918e-02 2.582821e-02 5.384251e-02 3.371537e-02 6.268471e-02 2.647180e-02 4.238403e-02 2.508945e-02 -2.477735e-02
<VARIANCE> 52
 1.119093e+01 1.641297e+01 4.086032e+01 2.401418e+01 4.040677e+01 3.495234e+01 3.721610e+01 3.175613e+01 3.797374e+01 1.912358e+01 3.790428e+01 2.043841e+01 1.182022e+01 2.184004e-01 5.627958e-01 8.881058e-01 1.346532e+00 1.172708e+00 1.600723e+00 1.827586e+00 2.006154e+00 1.681532e+00 1.623546e+00 1.450729e+00 1.380252e+00 1.028498e-01 6.354046e-02 1.261376e-01 1.947251e-01 2.368608e-01 2.386614e-01 3.226903e-01 3.833519e-01 3.868489e-01 4.037941e-01 3.351373e-01 2.769055e-01 2.746879e-01 2.509256e-02 1.048859e-02 2.515712e-02 3.678653e-02 5.797560e-02 5.448295e-02 7.123102e-02 8.412889e-02 8.657099e-02 8.149108e-02 7.913955e-02 6.515368e-02 6.207884e-02 5.814601e-03
<GCONST> 7.594273e+01
<TRANSP> 12
 0.000000e+00 1.000000e+00 0.000000e+00 0.000000e+00 0.000000e+00 0.000000e+00 0.000000e+00 0.000000e+00 0.000000e+00 0.000000e+00 0.000000e+00 0.000000e+00
 0.000000e+00 8.092864e-01 1.907136e-01 0.000000e+00 0.000000e+00 0.000000e+00 0.000000e+00 0.000000e+00 0.000000e+00 0.000000e+00 0.000000e+00 0.000000e+00
 0.000000e+00 0.000000e+00 7.729350e-01 2.270650e-01 0.000000e+00 0.000000e+00 0.000000e+00 0.000000e+00 0.000000e+00 0.000000e+00 0.000000e+00 0.000000e+00
 0.000000e+00 0.000000e+00 0.000000e+00 8.551937e-01 1.448064e-01 0.000000e+00 0.000000e+00 0.000000e+00 0.000000e+00 0.000000e+00 0.000000e+00 0.000000e+00
 0.000000e+00 0.000000e+00 0.000000e+00 0.000000e+00 7.921019e-01 2.078981e-01 0.000000e+00 0.000000e+00 0.000000e+00 0.000000e+00 0.000000e+00 0.000000e+00
 0.000000e+00 0.000000e+00 0.000000e+00 0.000000e+00 0.000000e+00 8.704013e-01 1.295987e-01 0.000000e+00 0.000000e+00 0.000000e+00 0.000000e+00 0.000000e+00
 0.000000e+00 0.000000e+00 0.000000e+00 0.000000e+00 0.000000e+00 0.000000e+00 6.645246e-01 3.354754e-01 0.000000e+00 0.000000e+00 0.000000e+00 0.000000e+00
 0.000000e+00 0.000000e+00 0.000000e+00 0.000000e+00 0.000000e+00 0.000000e+00 0.000000e+00 7.961782e-01 2.038217e-01 0.000000e+00 0.000000e+00 0.000000e+00
 0.000000e+00 0.000000e+00 0.000000e+00 0.000000e+00 0.000000e+00 0.000000e+00 0.000000e+00 0.000000e+00 8.667145e-01 1.332854e-01 0.000000e+00 0.000000e+00
 0.000000e+00 0.000000e+00 0.000000e+00 0.000000e+00 0.000000e+00 0.000000e+00 0.000000e+00 0.000000e+00 0.000000e+00 7.938361e-01 2.061639e-01 0.000000e+00
 0.000000e+00 0.000000e+00 0.000000e+00 0.000000e+00 0.000000e+00 0.000000e+00 0.000000e+00 0.000000e+00 0.000000e+00 0.000000e+00 8.073432e-01 1.926569e-01
 0.000000e+00 0.000000e+00 0.000000e+00 0.000000e+00 0.000000e+00 0.000000e+00 0.000000e+00 0.000000e+00 0.000000e+00 0.000000e+00 0.000000e+00 0.000000e+00
<ENDHMM>
~h "rx"
<BEGINHMM>
<NUMSTATES> 12
<STATE> 2
<NUMMIXES> 3
<MIXTURE> 1 2.782984e-01
<MEAN> 52
 -2.666631e+00 -1.482727e+01 6.676190e-02 -1.072122e+01 -1.354161e+01 -1.433656e+01 -1.886033e+01 -4.435205e-01 -4.783717e+00 -7.144092e+00 -1.333138e+01 2.338379e+00 7.095155e+01 -1.040276e+00 -9.612519e-01 8.668388e-01 -2.490724e+00 -5.826511e-01 6.334616e-01 1.753147e+00 2.129055e+00 -5.046394e-01 9.252023e-01 -2.403191e-02 1.078902e-01 2.010473e+00 -3.155576e-01 7.765271e-01 -2.689909e-02 5.020748e-02 1.947104e-01 1.396532e-01 7.803397e-01 -5.090811e-01 -3.945892e-01 3.495699e-01 3.238367e-01 -2.415891e-01 -4.545858e-01 1.708217e-01 7.422721e-02 3.739680e-02 2.717178e-01 -8.357076e-02 -1.999634e-01 -3.499709e-01 -4.024483e-01 -1.827185e-02 -5.727441e-02 -7.197987e-02 3.109445e-02 -5.694332e-02
<VARIANCE> 52
 1.309034e+01 2.817937e+01 3.399580e+01 7.939816e+01 4.868274e+01 3.675806e+01 8.313335e+01 6.683743e+01 5.788120e+01 3.238638e+01 4.856055e+01 2.477865e+01 2.867132e+01 6.609652e-01 2.748299e+00 2.255732e+00 3.908134e+00 3.514500e+00 3.018415e+00 3.834342e+00 4.486794e+00 6.125772e+00 2.431726e+00 4.196125e+00 2.120872e+00 8.395156e-01 1.912860e-01 3.243737e-01 4.147068e-01 9.531243e-01 6.118531e-01 7.255995e-01 9.595677e-01 1.201252e+00 8.990218e-01 4.915437e-01 6.144364e-01 3.442635e-01 1.953782e-01 3.378822e-02 1.071297e-01 1.025250e-01 1.784294e-01 1.486388e-01 1.458322e-01 1.435080e-01 1.847047e-01 2.372629e-01 1.128991e-01 1.786480e-01 8.695159e-02 3.528062e-02
<GCONST> 1.195761e+02
<MIXTURE> 2 3.688017e-01
<MEAN> 52
 1.976399e+00 1.738776e+00 1.826951e+00 1.594608e+00 -3.637095e+00 -4.962682e+00 -1.621082e+01 -1.111776e+01 -4.276492e+00 -3.714770e-01 -5.970738e+00 -4.902815e+00 6.380194e+01 4.145306e-01 -5.901062e-01 -1.138666e-01 2.894861e-01 -3.455974e-01 -7.628455e-01 -1.422862e+00 3.145072e-01 4.883787e-01 1.686828e-01 1.468534e-01 1.842213e-01 6.090492e-01 -7.363727e-02 -2.246896e-01 1.365282e-01 -1.291904e-01 -3.903588e-01 8.954367e-02 1.395468e-01 3.814766e-01 -6.179706e-02 -1.464873e-01 1.431353e-01 7.908586e-02 2.074564e-01 -6.631727e-02 4.762406e-03 5.766310e-02 -4.028276e-02 -2.694699e-02 6.018484e-02 8.112736e-02 2.885724e-02 -4.570039e-02 -6.585257e-03 1.322974e-02 -2.237683e-02 1.554155e-02
<VARIANCE> 52
 1.506181e+01 1.905050e+01 3.750190e+01 4.384312e+01 4.704076e+01 4.487334e+01 8.061977e+01 7.763366e+01 4.337217e+01 3.127683e+01 3.720281e+01 2.514988e+01 3.345876e+01 3.442827e-01 1.034812e+00 1.146562e+00 1.989636e+00 2.624037e+00 2.083512e+00 2.988390e+00 4.217909e+00 2.435763e+00 2.021616e+00 2.389229e+00 1.935456e+00 3.658648e-01 8.242278e-02 2.274994e-01 2.424579e-01 3.297623e-01 4.455171e-01 4.040737e-01 4.695968e-01 7.720229e-01 4.816077e-01 3.959055e-01 4.554544e-01 3.818278e-01 9.531228e-02 1.391517e-02 4.419099e-02 4.842126e-02 7.951705e-02 9.757810e-02 9.513077e-02 9.897017e-02 1.336839e-01 1.144979e-01 9.020980e-02 1.056201e-01 8.530445e-02 1.470615e-02
<GCONST> 9.829087e+01
<MIXTURE> 3 3.528999e-01
<MEAN> 52
 -4.719115e-02 -1.618304e+00 -5.093787e-01 9.044588e-01 -4.967053e+00 -8.375271e+00 -1.712400e+01 -8.289437e+00 -4.122480e+00 -3.870660e+00 -6.791331e+00 -1.126848e+00 6.146024e+01 1.619755e+00 -1.885475e+00 7.190726e-01 1.552383e-01 -1.877951e+00 -1.739646e+00 -3.091501e+00 2.203039e-01 3.005894e-02 -6.546489e-01 -6.478155e-01 4.407851e-01 3.319014e+00 -5.094559e-01 -6.742537e-01 5.511247e-02 -6.528075e-01 -4.492636e-01 3.695360e-01 3.606007e-01 7.145257e-01 1.729390e-01 5.085569e-02 1.549770e-01 -2.940091e-02 2.681455e-01 -2.637413e-01 2.596758e-01 1.150953e-02 -1.044858e-01 1.800145e-01 2.310706e-01 4.504753e-01 6.585653e-02 -4.870882e-02 7.124120e-02 1.114296e-01 -7.773351e-02 -3.236161e-01
<VARIANCE> 52
 2.835960e+01 4.363529e+01 3.379902e+01 3.731668e+01 3.538432e+01 7.648060e+01 7.975708e+01 4.072604e+01 4.164597e+01 4.299479e+01 4.441231e+01 2.856835e+01 4.079539e+01 2.948647e+00 5.414245e+00 3.116395e+00 4.334661e+00 4.571841e+00 6.480140e+00 7.688106e+00 6.501540e+00 4.211240e+00 3.671624e+00 4.271007e+00 2.870356e+00 1.767579e+00 5.093156e-01 6.009108e-01 5.185923e-01 6.033951e-01 7.549887e-01 1.254938e+00 1.460511e+00 8.485689e-01 7.549607e-01 6.559237e-01 8.445659e-01 5.250886e-01 4.284077e-01 1.047224e-01 2.205089e-01 1.167695e-01 1.665874e-01 1.779925e-01 2.601249e-01 2.700532e-01 2.592722e-01 1.788723e-01 1.584951e-01 1.550069e-01 1.212039e-01 6.215494e-02
<GCONST> 1.343482e+02
<STATE> 3
<NUMMIXES> 3
<MIXTURE> 1 4.566796e-01
<MEAN> 52
 -1.130894e+00 -7.070915e+00 9.350695e+00 -2.842127e+00 -1.570720e+01 -7.948111e+00 -1.816314e+01 3.632194e+00 -4.569376e+00 -4.084222e+00 9.569010e-01 -2.858491e+00 7.485076e+01 -1.069999e+00 6.804748e-01 1.815047e+00 -3.537810e-01 -1.046729e+00 -4.617174e-01 1.522440e+00 1.713222e-01 -1.698182e+00 -4.170148e-01 1.413368e+00 2.827134e-01 3.998466e-01 -2.155621e-02 4.300774e-01 1.512451e-01 1.943495e-01 2.636239e-01 3.291858e-01 1.123572e-01 -7.784746e-01 -1.705176e-01 2.189588e-01 -1.097091e-01 -1.571030e-02 -3.223670e-01 5.023970e-02 -6.971737e-02 -1.171141e-01 -2.778104e-02 1.282627e-01 6.985642e-02 -2.171512e-01 6.480536e-02 2.460998e-01 3.978677e-02 -1.866443e-01 -1.898455e-02 1.595313e-02
<VARIANCE> 52
 9.272286e+00 4.606310e+01 3.271106e+01 4.361819e+01 2.908580e+01 3.894379e+01 4.740206e+01 4.409710e+01 5.859088e+01 3.678035e+01 3.271283e+01 3.484771e+01 1.082935e+01 3.802249e-01 6.984493e-01 1.097100e+00 1.374446e+00 1.361319e+00 1.462615e+00 1.532024e+00 2.841839e+00 1.871053e+00 1.793900e+00 1.643616e+00 1.289573e+00 2.256789e-01 5.827643e-02 1.229205e-01 1.751683e-01 2.190590e-01 2.461477e-01 2.905439e-01 3.595743e-01 4.363384e-01 3.720866e-01 3.056357e-01 4.249533e-01 1.926312e-01 3.999960e-02 1.453862e-02 2.316083e-02 3.933584e-02 5.284228e-02 6.101127e-02 7.481764e-02 6.417689e-02 1.153672e-01 7.853460e-02 6.221253e-02 7.501215e-02 5.722610e-02 9.408561e-03
<GCONST> 8.189115e+01
<MIXTURE> 2 2.274055e-01
<MEAN> 52
 -9.325984e+00 -1.203324e+01 2.275728e+00 -2.065843e+01 -1.726727e+01 -1.288181e+01 -6.144803e+00 -2.068427e+00 -1.120336e+01 7.432182e-01 -1.288045e+01 9.331614e-01 7.613383e+01 -9.082066e-01 1.319815e+00 1.423600e+00 -9.059056e-01 -9.132025e-01 4.179302e-01 4.468731e-01 -2.398774e+00 -7.192155e-01 2.157860e+00 -2.636396e-02 -1.799585e-01 1.559048e-01 1.925249e-01 1.769281e-01 2.203977e-01 1.357259e-01 1.066338e-01 1.012686e-01 -8.605653e-01 -3.019815e-01 4.541257e-01 -1.641041e-01 -1.938847e-01 1.544323e-01 -3.142475e-01 3.330769e-02 -6.892353e-02 -9.685305e-02 -3.230111e-02 1.086588e-01 2.903315e-02 -7.641548e-03 3.350724e-01 3.700399e-02 -2.510893e-01 8.861287e-03 3.497358e-02 4.386976e-02
<VARIANCE> 52
 8.221346e+00 1.846919e+01 2.031102e+01 2.785655e+01 4.200896e+01 1.852732e+01 5.117842e+01 5.922546e+01 5.054710e+01 4.757393e+01 2.131881e+01 3.786271e+01 2.890960e+01 2.882595e-01 5.820121e-01 1.360840e+00 6.665279e-01 8.605784e-01 1.043684e+00 3.746277e+00 1.578783e+00 2.701080e+00 1.502402e+00 1.596227e+00 1.149647e+00 2.934687e-01 3.985432e-02 9.157678e-02 1.733176e-01 2.482903e-01 2.890592e-01 2.008965e-01 3.877990e-01 4.870370e-01 3.376068e-01 4.614636e-01 2.814625e-01 3.016770e-01 2.643725e-02 8.629525e-03 2.543270e-02 4.848486e-02 5.641589e-02 5.329080e-02 4.566793e-02 1.275600e-01 9.290723e-02 1.282206e-01 7.647601e-02 7.890788e-02 5.819864e-02 5.335941e-03
<GCONST> 7.876560e+01
<MIXTURE> 3 3.159149e-01
<MEAN> 52
 2.280317e+00 -5.448820e+00 3.051901e+00 1.217788e+00 -1.324139e+01 -2.715792e+00 -2.088428e+01 -4.423740e+00 -4.800132e-01 -2.436123e-01 -1.997541e+00 -4.924455e+00 7.258002e+01 -8.915065e-01 -1.048488e+00 1.276540e+00 -1.487868e+00 -1.949368e+00 -9.687737e-02 -6.030703e-01 2.563797e+00 3.307907e-01 -9.430833e-01 8.173409e-01 -2.507898e-01 1.656760e+00 -2.925077e-01 5.771768e-01 3.413309e-01 4.493902e-02 3.447820e-01 -2.961481e-01 6.081573e-01 -3.074156e-02 -5.487484e-01 -1.997842e-01 1.061139e-01 1.104389e-01 -2.915408e-01 9.217343e-02 1.546902e-01 -5.486076e-02 2.356420e-01 1.476062e-01 -2.862518e-02 8.309060e-02 -3.506391e-01 -1.452529e-01 1.023579e-01 -6.030211e-03 7.367467e-02 -1.392773e-01
<VARIANCE> 52
