~o
<STREAMINFO> 1 52
<VECSIZE> 52<NULLD><MFCC_D_A_T_0><DIAGC>
~h "dd"
<BEGINHMM>
<NUMSTATES> 12
<STATE> 2
<NUMMIXES> 3
<MIXTURE> 1 3.596907e-01
<MEAN> 52
 -6.199741e+00 2.597627e+00 1.624149e+01 -2.025047e+00 -1.784141e+01 -4.129344e+00 -1.159269e+01 -5.820075e+00 -1.094552e+01 -4.967024e+00 3.711848e+00 -3.424083e+00 7.146098e+01 1.499557e+00 -5.746304e-01 3.399900e+00 -9.116732e-01 -3.360395e+00 8.033057e-01 -2.550811e+00 3.787691e-01 -1.860726e+00 -4.378112e-01 1.492240e+00 -7.792875e-01 1.975815e+00 8.081144e-02 -1.231140e-01 -1.353059e+00 -1.637469e-01 8.727197e-01 3.260005e-01 5.783911e-01 -2.097271e-02 3.855130e-01 5.898218e-01 -4.091646e-01 -1.818235e-01 -8.384703e-01 -2.698739e-01 1.652661e-01 -5.966839e-01 1.888534e-01 5.284673e-01 -1.723513e-01 5.134802e-01 -8.012311e-02 2.716770e-01 1.050928e-01 -2.391314e-01 7.288744e-02 -1.595547e-01
<VARIANCE> 52
 1.134633e+01 2.837763e+01 3.146246e+01 5.206631e+01 3.935575e+01 3.694966e+01 4.913832e+01 4.079408e+01 4.727684e+01 3.861640e+01 2.713180e+01 2.799061e+01 1.498012e+01 2.756086e+00 2.277426e+00 7.681286e+00 3.512102e+00 3.303194e+00 4.086368e+00 4.800347e+00 3.554928e+00 4.922896e+00 4.601889e+00 3.114418e+00 3.069337e+00 1.097741e+00 3.831100e-01 4.384390e-01 8.504837e-01 4.857638e-01 7.641726e-01 6.543279e-01 8.913960e-01 5.814261e-01 6.914800e-01 5.917841e-01 5.816149e-01 4.421746e-01 1.735977e-01 9.548881e-02 9.113624e-02 2.842750e-01 1.343036e-01 1.671786e-01 1.908887e-01 1.960032e-01 1.637635e-01 1.998995e-01 1.937916e-01 1.474188e-01 1.183678e-01 5.164577e-02
<GCONST> 1.233455e+02
<MIXTURE> 2 1.541361e-01
<MEAN> 52
 -1.213857e+01 -5.570549e-01 6.437681e+00 -1.897477e+01 -1.871455e+01 -6.868967e+00 -1.698605e+01 -1.460001e+01 -1.045122e+01 2.268161e+00 -1.295724e+01 5.955938e-01 7.096479e+01 -2.231893e-01 -4.090026e-02 2.405313e+00 -5.067566e+00 -1.355753e+00 -2.907377e-01 -3.311308e+00 -1.011766e+00 -1.294524e+00 -4.040843e-01 -4.343913e+00 1.036481e+00 2.297574e+00 2.472820e-01 -8.256436e-02 -8.762219e-01 3.549747e-01 1.516891e+00 6.446418e-01 5.865653e-01 9.630507e-01 6.234405e-01 -7.602618e-01 -5.144684e-02 -1.179859e-01 -1.198010e+00 9.260070e-03 3.382958e-02 -3.943670e-01 6.883371e-01 1.345891e-01 8.589279e-02 3.978973e-01 1.562281e-01 1.919274e-01 5.343105e-02 6.546469e-01 -1.653191e-01 -1.580753e-01
<VARIANCE> 52
 8.767420e+00 2.180191e+01 2.417299e+01 4.783593e+01 2.351037e+01 2.364222e+01 4.465501e+01 3.022895e+01 3.437326e+01 4.076380e+01 6.678272e+01 4.065405e+01 1.719457e+01 9.901075e-01 1.599953e+00 3.393274e+00 2.401333e+00 7.298554e+00 4.035784e+00 4.622666e+00 5.378041e+00 3.503559e+00 4.924869e+00 3.016845e+00 4.575714e+00 3.658484e+00 1.853137e-01 2.476294e-01 6.240832e-01 9.710242e-01 5.443662e-01 5.985495e-01 8.566152e-01 5.780404e-01 4.924399e-01 5.639843e-01 1.354273e+00 6.466953e-01 2.104749e-01 3.878348e-02 6.074918e-02 1.377157e-01 7.414154e-02 3.217712e-01 1.861817e-01 2.178620e-01 2.043249e-01 1.595721e-01 2.010600e-01 1.079409e-01 1.787322e-01 1.547904e-01
<GCONST> 1.211303e+02
<MIXTURE> 3 4.861733e-01
<MEAN> 52
 -1.152399e+01 -2.101209e-01 -1.954672e+00 -4.233383e+00 -5.296272e+00 -2.867143e+00 -3.652038e+00 -5.966582e+00 -3.459866e+00 -1.210223e+00 -2.426875e+00 -2.419328e+00 6.192714e+01 -3.506304e-01 6.313791e-01 2.539834e+00 -4.148274e-01 -2.524140e+00 -4.343039e-01 -1.107417e+00 -7.680039e-01 -1.081447e+00 -1.951436e-01 5.411493e-01 -1.355036e-01 3.256089e+00 5.703683e-01 4.529742e-02 9.633449e-01 -2.276312e-01 -6.490036e-01 6.258147e-02 -7.759428e-01 -7.287361e-02 -4.834192e-01 -1.600982e-01 -1.382196e-01 -7.661641e-02 1.526694e-01 6.048206e-02 -1.163092e-01 -3.661397e-01 -4.150559e-02 3.247907e-01 8.912785e-02 1.133304e-01 1.288630e-01 1.331327e-01 2.871977e-02 -1.213231e-01 -1.163516e-02 -3.962672e-01
<VARIANCE> 52
 2.361907e+01 3.305155e+01 4.958726e+01 3.546886e+01 4.201131e+01 3.065371e+01 3.575726e+01 3.400856e+01 3.084662e+01 3.015010e+01 3.720917e+01 2.926540e+01 5.299980e+01 2.760522e+00 2.544255e+00 7.747602e+00 4.671105e+00 5.928603e+00 3.382938e+00 5.504400e+00 4.391314e+00 4.241433e+00 3.988519e+00 3.594615e+00 2.997209e+00 3.849841e+00 6.484721e-01 4.536195e-01 1.043816e+00 9.361850e-01 7.810664e-01 6.769112e-01 9.205174e-01 7.844098e-01 6.959367e-01 7.882789e-01 8.355864e-01 5.576705e-01 6.186152e-01 1.097199e-01 9.813674e-02 3.288698e-01 1.561369e-01 2.836480e-01 1.409329e-01 2.375109e-01 1.768763e-01 1.683311e-01 1.796276e-01 1.310988e-01 1.066068e-01 1.562708e-01
<GCONST> 1.324710e+02
<STATE> 3
<NUMMIXES> 3
<MIXTURE> 1 4.161573e-01
<MEAN> 52
 -5.858876e+00 1.008280e+00 1.611664e+01 -8.530079e+00 -1.970166e+01 -2.417843e-01 -1.287341e+01 -6.194235e+00 -1.201692e+01 -2.657963e+00 3.682416e+00 -5.448810e+00 7.315801e+01 7.080338e-01 3.201541e-01 -1.289674e+00 -8.876931e-03 5.315588e-01 4.995218e-01 7.557676e-01 3.419778e-02 -4.245036e-01 9.083835e-01 -1.141663e-01 -8.179201e-01 -2.765932e-01 1.832577e-01 1.419191e-01 -8.851352e-01 8.114895e-01 8.127505e-01 -4.672187e-01 4.910534e-01 -2.436983e-01 2.330776e-01 2.153259e-01 -4.914440e-01 6.243274e-02 -5.641837e-01 3.635729e-02 -6.668804e-02 3.555768e-01 8.309767e-02 -2.197390e-01 -7.784673e-02 -2.431701e-01 -1.098092e-01 -6.475010e-04 -1.315335e-01 -7.709133e-03 1.014667e-01 1.379618e-01
<VARIANCE> 52
 1.375391e+01 2.838718e+01 4.529348e+01 8.002628e+01 3.151887e+01 4.989044e+01 5.822849e+01 4.883060e+01 4.908885e+01 5.368909e+01 4.731805e+01 4.094503e+01 1.566943e+01 5.749863e-01 7.490720e-01 1.697146e+00 3.093787e+00 2.064867e+00 3.401463e+00 2.285984e+00 1.939427e+00 1.886308e+00 2.205666e+00 1.911336e+00 1.618361e+00 5.453840e-01 1.912994e-01 2.299304e-01 5.688178e-01 4.496675e-01 5.070087e-01 7.957150e-01 8.757777e-01 6.065742e-01 6.082352e-01 5.947712e-01 5.704374e-01 3.961278e-01 9.802938e-02 3.577640e-02 4.747000e-02 9.440184e-02 1.326068e-01 1.105441e-01 1.693469e-01 1.166818e-01 1.162299e-01 1.191667e-01 1.103436e-01 1.031454e-01 7.086521e-02 2.086763e-02
<GCONST> 1.064352e+02
<MIXTURE> 2 1.867530e-01
<MEAN> 52
 -1.234612e+01 -6.567565e-01 5.098356e+00 -2.981616e+01 -1.158306e+01 -2.390749e+00 -2.134850e+01 -1.040351e+01 -8.307573e+00 -2.740548e+00 -2.210242e+01 1.496866e+00 7.196093e+01 6.739443e-01 1.295704e-01 -9.480265e-01 -4.345039e-02 1.190027e+00 7.100544e-01 -1.041629e+00 8.590063e-01 3.343864e-01 -1.306368e+00 -4.585133e-01 -3.480877e-02 -4.369433e-01 2.502314e-01 -1.073121e-01 -3.508436e-01 1.162989e+00 -1.930204e-01 -4.267450e-01 4.713973e-01 -8.084159e-02 -1.502052e-01 1.236645e-01 6.115196e-01 -1.546149e-01 -2.565317e-01 -1.871090e-02 -2.772712e-02 1.669826e-01 -1.050635e-01 -2.323925e-01 -2.409872e-01 4.491729e-02 -2.251650e-01 -1.765624e-01 1.710499e-01 -1.479227e-01 3.450800e-02 1.469816e-01
<VARIANCE> 52
 9.936843e+00 1.856749e+01 2.144669e+01 3.974011e+01 3.199653e+01 2.202695e+01 3.767892e+01 4.520058e+01 3.884028e+01 3.685098e+01 2.855426e+01 3.958910e+01 1.110797e+01 5.523939e-01 7.548163e-01 1.132018e+00 3.846860e+00 1.848753e+00 2.022313e+00 1.686927e+00 2.567761e+00 1.495537e+00 2.126393e+00 1.714029e+00 2.274212e+00 2.004878e-01 7.066579e-02 1.389483e-01 3.551381e-01 3.107293e-01 4.106959e-01 5.433307e-01 5.623788e-01 4.650649e-01 3.800723e-01 4.377675e-01 4.993759e-01 4.134995e-01 7.675649e-02 1.810830e-02 3.282679e-02 7.498318e-02 8.141129e-02 1.386710e-01 9.895327e-02 1.221776e-01 1.003243e-01 7.816649e-02 1.045934e-01 9.144830e-02 9.371771e-02 3.035916e-02
<GCONST> 9.264487e+01
<MIXTURE> 3 3.970897e-01
<MEAN> 52
 -2.226858e-01 2.994556e+00 6.982785e+00 3.843314e-01 -1.489341e+01 -3.592695e+00 -8.188280e+00 -7.756638e+00 -1.223655e+01 1.978549e-01 5.156226e-01 -7.502413e+00 6.939057e+01 1.585605e+00 6.486923e-03 -1.555298e+00 2.276379e+00 1.227867e+00 -5.658445e-01 5.065994e-01 -1.828428e+00 6.416453e-01 1.080860e+00 -1.910679e+00 8.847427e-03 -1.311263e+00 -2.097595e-01 -1.431217e-02 5.683171e-01 -2.823168e-01 -2.632474e-01 2.975504e-01 -3.165446e-01 -2.691861e-01 2.463408e-01 -1.330393e-01 -1.122337e-01 3.194072e-01 1.286669e-02 -1.740531e-01 4.891488e-02 2.015664e-01 -3.510613e-01 -1.823807e-01 1.426154e-01 -7.477595e-02 2.659858e-01 -1.178519e-01 -1.273945e-01 2.879910e-01 -3.762650e-02 1.697335e-01
<VARIANCE> 52
 1.377344e+01 2.472102e+01 4.938410e+01 7.630838e+01 4.386693e+01 4.541545e+01 6.682226e+01 5.893800e+01 5.421810e+01 6.243440e+01 5.567211e+01 4.487609e+01 2.008307e+01 6.099149e-01 9.323410e-01 2.356470e+00 3.159731e+00 3.047384e+00 5.019248e+00 4.030186e+00 4.454974e+00 3.455767e+00 4.175074e+00 3.122778e+00 2.428280e+00 5.223619e-01 1.373911e-01 1.617212e-01 2.980757e-01 5.895630e-01 4.803964e-01 6.628139e-01 4.589627e-01 7.279188e-01 5.465030e-01 6.001615e-01 5.905744e-01 3.327418e-01 1.105999e-01 2.569696e-02 4.320562e-02 1.335259e-01 1.355929e-01 1.438285e-01 2.029251e-01 1.637535e-01 1.760020e-01 1.439799e-01 1.737696e-01 1.308458e-01 9.189685e-02 2.263821e-02
<GCONST> 1.130421e+02
<STATE> 4
<NUMMIXES> 3
<MIXTURE> 1 5.439498e-01
<MEAN> 52
 1.952028e+00 3.235625e+00 7.820627e+00 2.699656e+00 -1.377938e+01 -1.070038e+00 -1.066598e+01 -1.330982e+01 -8.894597e+00 2.740130e+00 -3.716012e+00 -5.786997e+00 6.678785e+01 1.194385e-01 5.124151e-01 2.490933e-01 6.079533e-03 1.450744e-01 4.081698e-01 -2.639059e-01 -3.451938e-01 2.480624e-01 1.964972e-02 -4.976673e-01 3.055995e-01 -5.947948e-01 -2.395801e-01 1.088066e-01 1.409120e-01 -2.848151e-01 1.354131e-01 -4.068950e-02 8.158668e-03 4.080794e-01 -8.166488e-02 -1.718588e-01 2.128099e-01 -2.475308e-02 1.449741e-02 1.198404e-02 -6.476574e-02 -1.568775e-01 6.802611e-02 1.464286e-01 -1.078136e-01 7.058841e-02 4.090149e-02 5.689725e-02 1.316730e-02 -1.465610e-02 -3.513214e-02 1.628071e-03
<VARIANCE> 52
 6.486730e+00 2.589519e+01 2.958675e+01 5.269479e+01 3.100303e+01 3.174127e+01 6.811354e+01 3.293944e+01 3.844236e+01 3.958189e+01 3.649939e+01 3.352623e+01 1.124348e+01 2.035052e-01 5.434470e-01 7.149429e-01 7.811996e-01 9.830541e-01 1.076865e+00 1.330595e+00 1.569439e+00 1.550330e+00 1.203915e+00 1.171447e+00 8.726628e-01 2.255007e-01 8.178844e-02 1.126650e-01 1.595303e-01 3.100306e-01 2.844726e-01 3.064625e-01 3.352047e-01 3.677090e-01 3.293284e-01 3.962806e-01 3.139782e-01 2.267485e-01 6.937296e-02 1.451577e-02 2.696274e-02 3.881616e-02 4.942423e-02 5.120054e-02 5.777973e-02 6.417102e-02 6.943418e-02 8.000678e-02 6.443798e-02 5.958036e-02 5.024234e-02 1.865044e-02
<GCONST> 7.670193e+01
<MIXTURE> 2 1.576201e-01
<MEAN> 52
 -6.026687e+00 -1.462622e+00 -3.815225e-01 -1.843401e+01 -1.084690e+01 -6.813842e+00 -2.037633e+01 -1.164526e+01 -1.115223e+01 -6.204731e+00 -2.207043e+01 -2.577143e-01 6.863168e+01 1.367157e+00 -3.652884e-01 -1.507764e+00 2.984581e+00 -2.562113e-01 -2.655815e+00 2.169554e+00 -9.290728e-01 -1.010072e+00 2.525830e-01 6.688062e-02 -2.239745e-01 -8.531625e-01 -9.845906e-02 6.656885e-02 1.503365e-01 -1.682823e-01 -3.551391e-02 -2.914756e-02 1.444728e-01 -1.378408e-01 -9.449851e-03 1.974813e-01 7.232422e-02 4.466563e-02 1.742451e-02 -9.521674e-02 7.712861e-02 1.500110e-01 -3.361706e-01 5.910013e-02 3.866915e-01 -3.840407e-01 1.705097e-01 1.287122e-01 -1.327762e-01 -1.322182e-02 2.482069e-02 4.458743e-02
<VARIANCE> 52
 1.558528e+01 2.699528e+01 2.167524e+01 5.904306e+01 3.763241e+01 4.813279e+01 4.866670e+01 7.211631e+01 3.427797e+01 5.897300e+01 3.244932e+01 4.526940e+01 1.044047e+01 2.964816e-01 6.325375e-01 1.186657e+00 1.375078e+00 1.775472e+00 2.638400e+00 1.544175e+00 1.803557e+00 2.257772e+00 2.845801e+00 1.524039e+00 1.743065e+00 2.216847e-01 7.806457e-02 1.163564e-01 2.346667e-01 5.405213e-01 3.164463e-01 8.226054e-01 7.489982e-01 4.154165e-01 4.076323e-01 5.235172e-01 2.311933e-01 2.886367e-01 3.541982e-02 1.076159e-02 2.294242e-02 4.265680e-02 7.535925e-02 7.538532e-02 1.087043e-01 7.604383e-02 6.442199e-02 7.213202e-02 8.995361e-02 5.325847e-02 7.488111e-02 6.746717e-03
<GCONST> 8.779369e+01
<MIXTURE> 3 2.984301e-01
<MEAN> 52
 -8.417245e-01 -2.281336e+00 -2.977495e+00 -1.189250e+01 -1.306822e+01 -1.337519e+01 -1.581988e+01 -1.348434e+01 -1.299991e+01 -6.073816e+00 -2.156228e+01 6.393296e-01 6.395254e+01 3.653040e-01 4.920722e-01 8.619125e-02 2.608288e-01 -3.459733e-01 7.735425e-02 -2.785975e-01 -2.463465e-01 2.269455e-01 -3.070560e-01 4.427741e-01 -3.467573e-01 -6.097367e-01 -1.675922e-01 1.300689e-01 1.874476e-01 -6.208852e-02 -3.913271e-02 2.676072e-01 -1.388278e-01 1.317802e-01 5.123824e-02 -1.140378e-01 1.450786e-01 -1.395693e-01 -2.843006e-02 -8.268600e-03 -4.103652e-02 -4.164057e-02 1.378629e-01 9.405513e-02 -9.367502e-02 1.417284e-01 2.481428e-03 -1.953093e-02 2.670671e-02 1.400083e-02 8.631457e-03 -2.240911e-02
<VARIANCE> 52
 1.121250e+01 3.179106e+01 1.207343e+01 3.215348e+01 4.704809e+01 3.170116e+01 2.573908e+01 5.884968e+01 3.724449e+01 4.743957e+01 7.089264e+01 5.613079e+01 3.159937e+01 1.825169e-01 4.189746e-01 5.229772e-01 6.402039e-01 1.000445e+00 1.048971e+00 8.860375e-01 1.243186e+00 1.160509e+00 1.465313e+00 1.274106e+00 1.201324e+00 1.002666e-01 5.282582e-02 5.924666e-02 1.372250e-01 2.485051e-01 2.354431e-01 2.945114e-01 2.685308e-01 2.616284e-01 2.336553e-01 2.560166e-01 2.661751e-01 1.763976e-01 2.935689e-02 1.127930e-02 1.408850e-02 2.598234e-02 3.653497e-02 4.394367e-02 4.714094e-02 4.307153e-02 4.763851e-02 4.633670e-02 5.110845e-02 5.244991e-02 4.293955e-02 5.565348e-03
<GCONST> 6.711239e+01
<STATE> 5
<NUMMIXES> 3
<MIXTURE> 1 2.933306e-01
<MEAN> 52
 -3.236695e-01 7.825489e+00 7.635657e+00 4.658290e+00 -5.530469e+00 -1.541136e+00 -7.162640e+00 -1.087372e+01 -8.018915e+00 1.349704e+00 -5.514190e+00 -4.713647e+00 6.247004e+01 -1.712321e+00 -1.369535e+00 -1.672813e+00 -2.157932e+00 1.976891e+00 -1.254346e+00 -8.272036e-01 2.042722e+00 2.691670e+00 -9.130846e-01 6.212661e-01 1.349939e-01 1.948483e+00 2.342875e-01 -7.728086e-01 -6.215327e-01 -9.114949e-01 -5.949912e-01 1.616766e-01 -7.112400e-01 3.421726e-01 5.688106e-01 2.701301e-01 4.549392e-01 -2.096125e-01 1.133218e+00 3.721014e-01 1.900178e-01 1.852576e-01 1.125913e-01 -3.039581e-01 4.547080e-01 4.737573e-02 -3.453529e-01 -4.526881e-01 2.017460e-01 -2.197147e-02 -2.403238e-02 -2.927922e-01
<VARIANCE> 52
 1.081386e+01 9.690739e+00 1.172023e+01 1.542158e+01 3.820024e+01 2.905774e+01 3.685730e+01 3.668771e+01 3.383667e+01 2.984224e+01 2.215685e+01 2.717796e+01 1.826005e+01 1.101966e+00 1.727630e+00 1.844489e+00 3.017865e+00 3.621442e+00 3.301880e+00 4.030095e+00 3.048577e+00 3.722284e+00 4.490272e+00 3.367055e+00 2.797121e+00 1.728618e+00 2.881762e-01 3.038294e-01 2.600854e-01 4.306326e-01 5.754798e-01 7.681294e-01 7.557051e-01 8.802199e-01 6.562793e-01 6.046044e-01 5.794452e-01 3.971315e-01 2.711458e-01 4.753033e-02 7.715829e-02 6.740396e-02 1.153556e-01 1.464645e-01 1.315841e-01 2.069262e-01 1.357200e-01 1.412600e-01 1.916610e-01 1.284392e-01 1.178900e-01 8.030712e-02
<GCONST> 1.109642e+02
<MIXTURE> 2 2.673282e-01
<MEAN> 52
 -2.004342e+00 2.759970e+00 -3.672018e-01 -8.230231e+00 -1.344285e+01 -1.066860e+01 -1.612750e+01 -1.488894e+01 -1.191035e+01 -8.580500e+00 -1.435533e+01 -4.378490e+00 5.973615e+01 -9.814160e-01 2.763811e-01 6.875209e-01 1.486891e+00 1.280469e+00 3.912800e-01 1.120632e+00 7.400106e-01 6.012841e-01 -4.731897e-01 1.333213e+00 -2.068658e-01 -9.602333e-01 -3.732648e-01 -4.413782e-01 -3.440311e-01 -7.538379e-02 3.692664e-01 -1.007492e-02 4.263675e-01 4.806559e-01 3.472759e-01 2.926462e-01 2.771481e-01 2.787147e-01 4.562644e-01 7.980616e-02 -1.409449e-01 -2.442894e-01 -3.521882e-01 -2.014281e-01 -8.314926e-02 -1.519481e-01 7.647553e-02 5.417244e-02 9.898869e-02 -8.132887e-02 4.421308e-02 3.368889e-01
<VARIANCE> 52
 2.192023e+01 1.833832e+01 1.549263e+01 3.483742e+01 3.481936e+01 2.297423e+01 2.707937e+01 2.203360e+01 2.057360e+01 3.894963e+01 4.076025e+01 3.104707e+01 2.672205e+01 1.011343e+00 1.457188e+00 1.668474e+00 1.808551e+00 2.789828e+00 2.246158e+00 2.538598e+00 2.763777e+00 2.577401e+00 2.859319e+00 2.923184e+00 2.226910e+00 5.987825e-01 2.487038e-01 1.962795e-01 3.564011e-01 5.301028e-01 5.316496e-01 3.520281e-01 3.718608e-01 2.989085e-01 3.673060e-01 4.920614e-01 4.709500e-01 3.667917e-01 4.474255e-01 6.522618e-02 5.202610e-02 6.195547e-02 1.003518e-01 1.316646e-01 9.659874e-02 1.215005e-01 8.823451e-02 9.372342e-02 1.140930e-01 1.329375e-01 8.217175e-02 4.893436e-02
<GCONST> 1.021129e+02
<MIXTURE> 3 4.393412e-01
<MEAN> 52
 1.752315e+00 6.233000e+00 8.679652e+00 2.672326e+00 -1.095816e+01 -7.439664e-01 -9.190289e+00 -1.124124e+01 -8.773047e+00 1.955778e+00 -4.480842e+00 -5.237641e+00 6.311197e+01 -7.007694e-01 3.821931e-01 4.140369e-02 -2.943859e-01 1.824388e+00 -1.868326e-01 3.818224e-01 8.382150e-01 3.928955e-01 -2.630070e-01 -1.403356e-01 2.257101e-01 -1.118450e+00 -4.605499e-01 -4.622427e-01 -5.334551e-01 -3.435189e-01 3.272358e-01 -3.622106e-01 -6.393787e-03 3.360271e-01 4.655286e-01 -2.528211e-01 2.245375e-01 4.266483e-02 5.421271e-01 8.207383e-02 -1.661855e-01 -1.752902e-01 -1.373995e-01 -2.389847e-01 4.189876e-02 -2.137587e-01 -7.958855e-02 1.222272e-01 9.388515e-02 1.771197e-02 -4.284436e-02 3.399579e-01
<VARIANCE> 52
 7.057467e+00 1.657193e+01 2.090351e+01 4.397958e+01 2.857669e+01 2.852330e+01 4.195634e+01 3.068783e+01 3.420996e+01 3.318473e+01 2.911990e+01 3.118436e+01 1.399882e+01 5.749940e-01 1.039786e+00 8.055220e-01 1.157632e+00 1.504721e+00 1.917224e+00 2.383943e+00 2.618866e+00 2.050669e+00 1.891789e+00 2.004838e+00 1.654694e+00 4.750170e-01 1.054038e-01 1.840695e-01 2.637637e-01 3.519688e-01 4.308035e-01 4.495783e-01 4.998499e-01 5.669784e-01 5.270172e-01 3.653109e-01 3.971296e-01 3.486734e-01 2.838988e-01 3.978033e-02 5.105286e-02 4.797342e-02 7.833840e-02 7.405853e-02 1.082799e-01 1.358294e-01 1.305525e-01 1.005028e-01 1.018975e-01 9.416757e-02 8.451090e-02 3.338956e-02
<GCONST> 9.405968e+01
<STATE> 6
<NUMMIXES> 3
<MIXTURE> 1 4.597507e-01
<MEAN> 52
 -7.607658e+00 -1.568821e+00 -2.733126e+00 -7.014089e+00 -6.404997e+00 -1.055352e+01 -1.002581e+01 -2.544929e+00 -6.826338e-01 -2.568802e+00 -5.606908e+00 -1.772550e+00 7.238999e+01 4.841767e-01 -2.545401e+00 -2.543073e+00 -3.952962e+00 4.548277e-01 4.632881e-01 -2.564356e+00 1.881707e+00 2.111619e+00 1.200616e+00 -4.520918e-01 -7.791912e-01 3.894030e+00 9.709951e-01 2.090034e-01 2.235447e-01 -3.723791e-01 3.622349e-03 1.331509e+00 -4.561941e-01 -8.476435e-01 -7.652966e-01 3.523529e-01 1.082758e-02 -5.123898e-01 -6.674013e-01 -1.229904e-01 4.062598e-01 2.920517e-01 5.085132e-01 9.063485e-02 6.440435e-02 5.539667e-01 -2.548704e-01 -4.047245e-01 -2.692466e-01 2.161051e-01 1.595318e-01 -6.557372e-01
<VARIANCE> 52
 2.169585e+01 2.854681e+01 4.067857e+01 6.380305e+01 3.964686e+01 4.440936e+01 4.200457e+01 5.188541e+01 4.643865e+01 4.074636e+01 3.324013e+01 2.547326e+01 2.539581e+01 1.985173e+00 1.586856e+00 1.584336e+00 2.755507e+00 4.753467e+00 5.242751e+00 6.480231e+00 6.574046e+00 4.808420e+00 3.999730e+00 6.681534e+00 2.980211e+00 2.101913e+00 4.381964e-01 3.667549e-01 4.533249e-01 7.687716e-01 1.191290e+00 7.576054e-01 1.057195e+00 7.655717e-01 5.664986e-01 8.189524e-01 1.205497e+00 5.454006e-01 5.466353e-01 9.257631e-02 7.188381e-02 7.184213e-02 1.158789e-01 1.786996e-01 2.293575e-01 2.500453e-01 2.606925e-01 1.650385e-01 1.658266e-01 3.059839e-01 1.329503e-01 9.447016e-02
<GCONST> 1.289477e+02
<MIXTURE> 2 2.384968e-01
<MEAN> 52
 -5.967981e+00 1.227646e+00 3.015348e+00 -4.764380e+00 -6.788570e+00 -6.541811e+00 -1.019687e+01 -9.736907e+00 -6.872472e+00 -6.148500e+00 -6.472710e+00 -3.809551e+00 5.758638e+01 -2.381577e+00 -1.497296e+00 -2.463953e+00 -7.811285e-01 3.150186e-01 -1.477761e+00 1.263190e+00 2.160965e+00 1.603077e+00 2.986661e-01 1.430587e+00 1.058652e+00 3.108708e+00 4.928198e-01 -5.570027e-01 -7.271450e-01 -1.272881e+00 -4.961172e-01 -1.435020e-01 -1.015088e+00 2.934272e-01 1.025038e-01 4.887157e-01 -6.076782e-01 -1.729336e-01 1.552879e+00 4.522813e-01 1.413665e-01 2.934334e-01 -1.007307e-01 1.806480e-01 4.285421e-01 -3.173907e-01 -2.298103e-01 -2.068682e-01 5.452983e-02 -2.421786e-01 -2.960879e-01 -4.361744e-01
<VARIANCE> 52
 3.035408e+01 2.018916e+01 4.506405e+01 2.319604e+01 3.572223e+01 3.562845e+01 3.247979e+01 3.501679e+01 2.531032e+01 3.241589e+01 5.028603e+01 1.795427e+01 2.579888e+01 1.728355e+00 1.952812e+00 2.192618e+00 3.933710e+00 3.105081e+00 4.627282e+00 3.355936e+00 3.876951e+00 2.104321e+00 3.203488e+00 5.221985e+00 2.168678e+00 4.062529e+00 5.028153e-01 4.050075e-01 3.695107e-01 6.063303e-01 7.497804e-01 1.063266e+00 9.116063e-01 8.874117e-01 5.505880e-01 7.669882e-01 1.007707e+00 5.310853e-01 2.550041e-01 7.905017e-02 8.024698e-02 9.921987e-02 1.788875e-01 1.763846e-01 2.126974e-01 1.313118e-01 1.622704e-01 8.731318e-02 1.452663e-01 2.512151e-01 8.633482e-02 1.892340e-01
<GCONST> 1.217636e+02
<MIXTURE> 3 3.017525e-01
<MEAN> 52
 -4.436098e-01 -2.503107e+00 -7.980951e-01 -1.091760e+01 -6.761787e+00 1.350791e+00 -1.975486e+01 -4.681818e+00 6.381378e-01 4.152428e+00 2.950943e-01 -9.146767e+00 7.506178e+01 2.178036e+00 -1.234828e+00 -1.228761e+00 -3.782738e+00 -9.941232e-01 3.893981e+00 -1.957407e+00 -7.028212e-02 -6.316304e-01 1.035247e+00 2.163885e+00 -9.308717e-01 1.253867e+00 1.428153e-01 7.362242e-01 4.548087e-01 6.189610e-01 -1.226782e-01 4.108699e-01 1.491871e+00 -3.597395e-01 -1.212987e+00 -6.513159e-01 -1.080096e-01 5.448504e-01 -1.164351e+00 -4.368141e-01 1.439910e-01 5.835893e-02 4.614684e-01 2.169805e-01 -6.693983e-01 3.954888e-01 1.660921e-01 1.821500e-01 -2.966050e-01 -3.618506e-01 1.790305e-01 -9.004664e-02
<VARIANCE> 52
 1.098353e+01 2.481332e+01 2.969127e+01 5.404173e+01 3.098742e+01 3.737630e+01 5.341542e+01 4.233930e+01 4.035701e+01 4.354139e+01 4.155270e+01 2.506476e+01 1.630706e+01 1.707971e+00 1.679535e+00 2.225172e+00 3.047379e+00 3.392530e+00 3.627409e+00 6.626069e+00 4.655866e+00 3.715888e+00 5.430186e+00 3.171734e+00 3.354572e+00 1.547231e+00 2.814248e-01 2.700795e-01 2.689987e-01 4.256254e-01 5.263270e-01 7.128398e-01 5.930719e-01 6.729710e-01 5.921012e-01 6.678318e-01 6.438158e-01 4.843403e-01 2.098295e-01 6.835679e-02 7.723279e-02 1.093470e-01 1.085895e-01 1.352341e-01 1.410293e-01 2.496604e-01 1.878028e-01 1.490258e-01 1.986655e-01 1.323598e-01 1.674062e-01 8.118045e-02
<GCONST> 1.184259e+02
<STATE> 7
<NUMMIXES> 3
<MIXTURE> 1 4.652644e-01
<MEAN> 52
 1.420205e+00 -1.991387e+00 -5.114306e+00 -1.642893e+01 -5.630555e+00 6.622473e+00 -1.558305e+01 -6.909888e+00 -3.769984e+00 1.770084e+00 2.356584e+00 -6.128845e+00 7.413615e+01 8.528637e-01 6.415671e-01 -5.746431e-01 -1.172740e+00 -4.509459e-01 1.762688e+00 2.016527e+00 1.108926e-01 -2.219550e+00 -1.456720e+00 1.064530e+00 8.659573e-01 -6.898608e-01 -3.360530e-01 3.101510e-01 4.716141e-01 9.812338e-01 -1.433140e-01 -9.625402e-01 7.654204e-01 3.327751e-01 -5.673937e-02 -5.182096e-01 -7.544141e-01 1.447976e-01 -3.537610e-01 -7.686170e-02 -2.376650e-01 -6.051928e-03 -3.487773e-03 5.748593e-02 -2.066084e-01 -4.582736e-01 4.716055e-02 4.494683e-01 2.682951e-01 -1.879571e-01 -2.387770e-01 2.864523e-01
<VARIANCE> 52
 9.033225e+00 2.380278e+01 4.639431e+01 5.671000e+01 3.377246e+01 4.320129e+01 7.104403e+01 6.284893e+01 7.126925e+01 6.738863e+01 5.408330e+01 2.948674e+01 1.393927e+01 2.403189e-01 6.924876e-01 8.366632e-01 1.479456e+00 1.224107e+00 2.085097e+00 2.079238e+00 2.303558e+00 1.634655e+00 2.851485e+00 2.020325e+00 1.612065e+00 3.241906e-01 1.129250e-01 2.027443e-01 2.288344e-01 2.649254e-01 4.344312e-01 4.301080e-01 6.743723e-01 5.683289e-01 5.930415e-01 5.898528e-01 5.349539e-01 5.792453e-01 1.468530e-01 2.253221e-02 2.782612e-02 4.673166e-02 5.305218e-02 7.439231e-02 1.188225e-01 1.132851e-01 1.234041e-01 8.094724e-02 1.295441e-01 1.199482e-01 7.286596e-02 2.345097e-02
<GCONST> 9.672819e+01
<MIXTURE> 2 3.063014e-01
<MEAN> 52
 -4.641547e+00 -8.724624e+00 -1.129335e+01 -2.036597e+01 9.847968e-02 -7.095909e+00 -1.543728e+01 -1.975706e+00 -1.244460e+00 -6.889351e-01 -1.304957e+01 -4.509976e+00 7.503241e+01 6.799207e-01 -7.431014e-02 -1.372644e+00 -1.669167e+00 2.144150e+00 2.180836e+00 -6.197700e-01 -1.517976e+00 -1.498362e+00 4.351681e-01 6.401264e-01 -1.102303e+00 -2.544623e-01 -7.449538e-02 6.665376e-01 4.303291e-01 7.775395e-01 -5.143800e-01 -8.215102e-02 6.575752e-01 -4.403180e-01 -9.201158e-01 -4.946256e-01 9.390022e-01 2.430807e-01 -7.363527e-01 -9.391905e-02 -1.654076e-01 3.367287e-02 1.397206e-02 -2.757382e-01 -4.074630e-01 1.311029e-01 4.664411e-01 1.804201e-01 -7.248989e-02 -1.121095e-01 2.040119e-01 3.065554e-01
<VARIANCE> 52
 1.283218e+01 1.933561e+01 4.642162e+01 5.055191e+01 4.640889e+01 3.481001e+01 5.403595e+01 8.310898e+01 7.841982e+01 5.512140e+01 2.757950e+01 2.325365e+01 2.966642e+01 4.781972e-01 9.204844e-01 8.535200e-01 1.008828e+00 2.764234e+00 2.131908e+00 2.048152e+00 1.957288e+00 3.097571e+00 3.199124e+00 4.091467e+00 1.387040e+00 3.889538e-01 1.521754e-01 1.922054e-01 1.793274e-01 1.921129e-01 4.951555e-01 6.895419e-01 6.188642e-01 1.045837e+00 5.683678e-01 5.493034e-01 6.215139e-01 4.217524e-01 2.552735e-01 3.488527e-02 4.000720e-02 3.751503e-02 5.214872e-02 1.389477e-01 1.230315e-01 1.078285e-01 9.211779e-02 1.017765e-01 1.361204e-01 2.541503e-01 6.778799e-02 2.506380e-02
<GCONST> 1.023472e+02
<MIXTURE> 3 2.284343e-01
<MEAN> 52
 1.345949e+00 -4.524680e+00 -2.639415e+00 -2.526859e+01 -5.892158e+00 9.738420e+00 -1.992517e+01 -4.343908e+00 -8.770630e+00 3.599906e+00 2.517954e+00 -5.544181e+00 7.428541e+01 4.404594e-01 2.403245e-01 -1.180754e-01 -2.091456e-01 9.303905e-02 4.212631e-01 1.244728e+00 4.923388e-01 -8.926082e-01 -1.765518e+00 7.008856e-01 5.871363e-01 -4.852271e-01 -9.235459e-02 -5.069004e-02 8.822704e-02 6.312841e-01 -6.133423e-02 -5.912217e-01 8.624524e-02 1.021611e-01 1.574405e-01 -8.938741e-02 -2.504140e-01 -3.271392e-01 -2.637657e-02 4.993875e-02 -7.132701e-02 1.447112e-03 -8.759244e-02 -4.952756e-02 1.181440e-01 -1.887158e-01 -7.131884e-02 2.921991e-02 2.648524e-01 -5.195193e-02 -1.597030e-01 7.522574e-02
<VARIANCE> 52
 1.010911e+01 8.955851e+00 3.102290e+01 2.827589e+01 2.773744e+01 4.072007e+01 1.276194e+01 2.124353e+01 1.790953e+01 3.408838e+01 2.366161e+01 2.442113e+01 6.541440e+00 5.206630e-02 2.482753e-01 1.818855e-01 1.143844e+00 4.870508e-01 9.915923e-01 6.613913e-01 9.339740e-01 7.352449e-01 1.237705e+00 6.996807e-01 9.190850e-01 3.994021e-02 1.629039e-02 5.593047e-02 5.194225e-02 7.562840e-02 9.839185e-02 1.597304e-01 1.906998e-01 1.604747e-01 1.642508e-01 3.137982e-01 1.319395e-01 1.595434e-01 1.029200e-02 1.067283e-02 1.748827e-02 1.472767e-02 2.506351e-02 2.101458e-02 2.786335e-02 5.734571e-02 3.403729e-02 2.678736e-02 5.469469e-02 3.833350e-02 6.071314e-02 7.357861e-03
<GCONST> 4.399559e+01
<STATE> 8
<NUMMIXES> 3
<MIXTURE> 1 3.036414e-01
<MEAN> 52
 2.470696e+00 -4.065695e+00 -2.813978e-01 -1.876172e+01 -9.772697e+00 7.232259e+00 -1.292318e+01 -1.528880e+00 -9.459618e+00 -4.830943e+00 5.112240e-01 -8.612755e+00 7.179929e+01 -2.583863e-02 3.643585e-02 5.041000e-01 1.124152e+00 -2.207189e-01 -6.273868e-01 2.110143e-01 3.044736e-01 1.457122e-02 -2.151768e-01 -6.551557e-01 -4.128500e-01 -4.220408e-01 -2.702447e-02 6.987999e-02 1.793911e-02 4.060956e-02 5.158136e-02 -5.214485e-02 -1.311892e-01 -8.533516e-02 1.333416e-01 1.716761e-01 -8.311847e-02 3.009354e-02 -4.967166e-02 1.030803e-02 2.887644e-02 -1.879391e-02 -4.313531e-02 3.279490e-02 3.399084e-02 4.487377e-02 -2.226906e-02 -4.678937e-03 -3.861017e-02 3.347785e-02 5.629929e-02 -2.479743e-02
<VARIANCE> 52
 4.327366e+00 1.941921e+01 1.677546e+01 2.525748e+01 6.380306e+01 2.244385e+01 4.910663e+01 2.126396e+01 2.710611e+01 2.735689e+01 2.758403e+01 2.159450e+01 8.534191e+00 8.333794e-02 2.298158e-01 4.412537e-01 4.631945e-01 7.793670e-01 5.197677e-01 1.359189e+00 7.096611e-01 1.010651e+00 9.428748e-01 1.195701e+00 9.229884e-01 6.649536e-02 1.009466e-02 3.431461e-02 6.932477e-02 8.247346e-02 1.167053e-01 1.013323e-01 2.114142e-01 1.299407e-01 1.743263e-01 1.443522e-01 2.055304e-01 1.619596e-01 1.067111e-02 2.230936e-03 7.142803e-03 1.528394e-02 2.027769e-02 2.549450e-02 2.663572e-02 3.693329e-02 3.151555e-02 3.775923e-02 2.581560e-02 3.910914e-02 4.221174e-02 1.556992e-03
<GCONST> 4.049612e+01
<MIXTURE> 2 2.756104e-01
<MEAN> 52
 -4.626948e+00 -9.716955e+00 -1.567187e+01 -2.500745e+01 4.985631e+00 -7.112151e+00 -9.823828e+00 -3.024614e+00 -1.750924e+01 -3.696216e+00 -9.043807e+00 -7.690511e+00 7.311905e+01 3.564242e-01 6.242662e-02 1.956869e-01 2.992156e-01 -2.923631e-01 -3.753996e-01 1.156280e+00 -4.654606e-02 -1.817264e+00 1.028068e-01 -3.525170e-01 1.313894e-02 -4.682294e-01 -1.199658e-03 7.792359e-03 1.641198e-01 1.105915e-01 -2.359486e-01 -1.713966e-01 -5.609720e-02 5.947453e-02 4.119187e-01 8.918257e-02 -3.629652e-01 1.208023e-01 -4.569407e-03 -1.191030e-02 -8.145561e-03 -2.611540e-02 -6.448121e-02 6.850878e-02 6.668683e-02 -1.096902e-01 -4.035354e-02 7.942718e-02 -1.111487e-02 1.025191e-02 -4.570263e-02 9.577382e-03
<VARIANCE> 52
 8.745157e+00 9.347787e+00 1.802162e+01 1.913281e+01 3.370767e+01 1.270311e+01 3.010630e+01 3.889922e+01 5.368307e+01 1.792750e+01 2.157915e+01 1.775759e+01 1.592398e+01 1.426066e-01 1.806313e-01 5.717238e-01 4.959918e-01 9.495367e-01 9.251881e-01 7.992640e-01 5.268080e-01 2.614956e+00 1.150149e+00 2.867671e+00 1.032709e+00 5.673090e-02 2.412188e-02 3.571822e-02 4.830543e-02 1.015708e-01 9.998219e-02 2.202240e-01 1.531027e-01 1.130495e-01 2.155075e-01 2.039395e-01 3.178611e-01 1.426200e-01 7.875172e-03 5.565444e-03 8.020218e-03 1.053537e-02 2.064189e-02 2.420115e-02 3.782118e-02 2.537442e-02 2.290237e-02 7.059141e-02 4.780745e-02 9.338124e-02 3.223467e-02 3.285046e-03
<GCONST> 4.650931e+01
<MIXTURE> 3 4.207482e-01
<MEAN> 52
 3.709301e+00 7.158734e-01 -5.482568e+00 -1.443978e+01 -8.719302e+00 7.512043e+00 -7.251357e+00 -4.118860e+00 -7.697939e+00 -4.586075e+00 1.312112e+00 -5.991420e+00 7.157993e+01 1.493844e-01 3.194184e-01 7.957170e-01 1.274576e+00 -8.526336e-01 -6.888844e-01 1.521359e+00 2.230883e-01 -4.851975e-01 -5.548171e-01 -1.811596e+00 -2.932459e-01 -6.347122e-01 -2.355734e-01 -1.318582e-01 4.153653e-01 4.479386e-01 1.318884e-01 -3.771691e-01 -5.040247e-01 -3.389961e-01 5.254917e-01 4.147089e-01 -4.373746e-01 7.351554e-03 5.511864e-02 4.557500e-02 -2.369359e-02 -1.026258e-01 -1.793455e-01 9.908485e-02 2.173200e-01 -2.066350e-01 -8.623850e-02 -3.927210e-02 5.364484e-02 3.142373e-01 8.929108e-02 3.340937e-02
<VARIANCE> 52
 7.806183e+00 2.208707e+01 4.229287e+01 5.190843e+01 3.983607e+01 5.018793e+01 6.292469e+01 6.605238e+01 6.825790e+01 7.744643e+01 5.379014e+01 3.220842e+01 1.153106e+01 2.501608e-01 7.028812e-01 1.159507e+00 1.486997e+00 1.682719e+00 1.902289e+00 2.158879e+00 3.039111e+00 3.230134e+00 3.007102e+00 2.502511e+00 2.478026e+00 2.228131e-01 4.007041e-02 9.182216e-02 1.834927e-01 2.361250e-01 2.932498e-01 3.458720e-01 4.402291e-01 4.091757e-01 3.548939e-01 5.038801e-01 5.189521e-01 4.152162e-01 4.039728e-02 1.085616e-02 2.831591e-02 5.084829e-02 4.336824e-02 7.746895e-02 7.534664e-02 1.091165e-01 1.087024e-01 1.036742e-01 1.125076e-01 1.109759e-01 1.011797e-01 1.458878e-02
<GCONST> 9.110772e+01
<STATE> 9
<NUMMIXES> 3
<MIXTURE> 1 6.230892e-01
<MEAN> 52
 2.540020e+00 1.831228e+00 3.005593e+00 -6.229188e+00 -1.077737e+01 4.345644e+00 -7.429644e+00 -6.544663e+00 -5.051954e+00 -1.873887e+00 -4.911634e+00 -5.489235e+00 6.815508e+01 -2.204040e-01 2.482461e-01 7.126397e-01 1.081040e+00 4.528458e-01 -4.325011e-01 -3.292764e-01 -5.882902e-01 1.379535e-01 3.071916e-01 -4.719260e-01 1.996483e-01 -6.067895e-01 1.050871e-04 9.345755e-02 -1.094237e-01 3.160147e-02 1.478783e-01 3.327096e-02 -4.838223e-02 -1.108465e-02 -8.205882e-02 4.019779e-02 2.059538e-01 -1.860127e-02 -8.199845e-02 1.473987e-02 2.681854e-02 -3.500259e-02 -2.401003e-02 -3.538283e-02 2.291125e-02 1.011064e-01 4.888017e-02 -4.121994e-02 -4.988904e-02 -7.817262e-03 -5.833854e-03 -2.567391e-02
<VARIANCE> 52
 7.115061e+00 1.893794e+01 3.425557e+01 3.906935e+01 4.311225e+01 3.238133e+01 5.320015e+01 5.666552e+01 4.687680e+01 5.561409e+01 2.653904e+01 3.589019e+01 1.771338e+01 2.060201e-01 5.119048e-01 1.412278e+00 1.123708e+00 1.185037e+00 1.213073e+00 2.285775e+00 1.833922e+00 1.643198e+00 1.782820e+00 1.764210e+00 1.534232e+00 2.008278e-01 4.128354e-02 9.901437e-02 2.400641e-01 1.979885e-01 2.720510e-01 2.377270e-01 4.106136e-01 3.262503e-01 2.870437e-01 2.962656e-01 4.152096e-01 2.924336e-01 4.203786e-02 9.539212e-03 2.067405e-02 5.177700e-02 4.130276e-02 5.398484e-02 5.335765e-02 8.764600e-02 7.068108e-02 6.737061e-02 7.147482e-02 8.297067e-02 6.810699e-02 6.840633e-03
<GCONST> 7.885143e+01
<MIXTURE> 2 1.360040e-01
<MEAN> 52
 -4.275595e+00 -1.142618e+01 -4.669755e+00 -2.354693e+01 -2.542021e+00 -1.468299e+01 -9.217528e+00 2.312233e+00 -1.715553e+01 -3.569856e+00 -1.847248e+01 -3.527403e+00 7.239177e+01 7.368040e-02 4.485364e-02 6.843688e-01 4.967426e-01 -4.843187e-01 -5.793907e-01 -1.029929e-01 3.942744e-02 1.144029e-01 -5.356554e-01 -4.731589e-01 -2.003399e-01 -4.400097e-01 -2.150477e-02 4.107361e-02 -1.543509e-01 6.497677e-02 5.235656e-02 1.534218e-01 -7.387581e-02 -1.024079e-01 -3.232147e-02 -1.035686e-01 2.491952e-01 -8.821319e-02 -4.340905e-02 6.650920e-03 2.918765e-02 -3.540331e-02 -8.101021e-03 -1.078321e-02 1.219000e-02 1.635025e-02 -1.200416e-02 -2.529445e-02 1.111697e-02 1.637721e-03 3.201916e-02 -1.827500e-02
<VARIANCE> 52
 2.863120e+00 1.129637e+01 8.065291e+01 2.045717e+01 5.358456e+01 1.645434e+01 2.219523e+01 1.432536e+01 6.335102e+00 1.396797e+01 1.158768e+01 6.730712e+00 2.693251e+00 1.216864e-01 2.098747e-01 4.912464e-01 5.157672e-01 4.020793e-01 9.343783e-01 6.044538e-01 9.814596e-01 6.162974e-01 6.960710e-01 1.341177e+00 6.144534e-01 6.634263e-02 2.465388e-02 4.634045e-02 6.389881e-02 8.682205e-02 8.435567e-02 1.074565e-01 9.553985e-02 1.272272e-01 1.037854e-01 1.101830e-01 1.875916e-01 1.018542e-01 1.492307e-02 4.956832e-03 8.925715e-03 1.205674e-02 2.141344e-02 1.633477e-02 3.300715e-02 1.556712e-02 3.361000e-02 2.870072e-02 2.378967e-02 4.524594e-02 2.243649e-02 2.112472e-03
<GCONST> 3.110769e+01
<MIXTURE> 3 2.409068e-01
<MEAN> 52
 -1.618800e-01 -5.787467e+00 -8.838419e+00 -1.450788e+01 -6.923442e+00 -7.228575e+00 -1.495846e+01 -5.560411e+00 -2.065928e+01 -1.468806e+01 -1.273557e+01 -6.618599e+00 6.430617e+01 -1.190666e-01 3.137401e-01 8.517770e-01 7.002696e-01 -2.450774e-01 -5.568391e-01 -7.429890e-01 -9.982924e-02 2.937699e-02 -3.635772e-01 -3.996654e-01 1.736799e-01 -5.654862e-01 -7.573652e-03 6.060526e-02 -4.054336e-02 -6.072972e-02 4.514642e-02 2.922443e-02 -8.096649e-02 -1.003863e-01 1.772656e-01 1.266647e-01 1.281549e-01 -2.377708e-02 -4.679735e-02 1.947995e-02 2.933617e-02 -1.843164e-02 7.878906e-03 -2.261098e-02 1.663432e-02 9.156754e-02 -3.345885e-02 -1.931023e-02 5.130162e-03 3.620326e-02 -8.257547e-03 -2.051762e-02
<VARIANCE> 52
 4.213957e+00 2.170146e+01 3.760012e+01 2.434483e+01 4.579963e+01 2.919283e+01 7.973420e+01 3.395098e+01 6.700195e+01 1.397476e+02 3.040598e+01 6.452343e+01 5.521339e+01 2.085355e-01 4.077059e-01 1.243546e+00 1.199219e+00 1.608508e+00 1.624534e+00 2.125406e+00 1.207944e+00 2.288295e+00 1.691597e+00 1.112555e+00 1.604818e+00 1.273931e-01 3.063957e-02 6.117596e-02 1.796880e-01 1.612944e-01 2.416820e-01 2.976334e-01 4.229212e-01 2.658498e-01 3.547064e-01 3.397286e-01 2.167832e-01 3.662763e-01 1.903294e-02 6.925377e-03 1.139061e-02 3.526526e-02 4.127850e-02 5.951127e-02 6.981646e-02 8.128756e-02 5.263511e-02 5.789728e-02 8.013057e-02 4.740733e-02 8.274333e-02 4.015307e-03
<GCONST> 7.585679e+01
<STATE> 10
<NUMMIXES> 3
<MIXTURE> 1 4.373781e-01
<MEAN> 52
 2.245598e+00 3.437210e+00 5.031166e+00 -4.811220e-01 -8.258708e+00 8.566120e-01 -9.720290e+00 -9.803518e+00 -7.512147e+00 2.144131e+00 -5.679646e+00 -5.400273e+00 6.595684e+01 -1.391413e-01 1.264117e+00 6.634157e-01 1.609598e+00 5.060954e-01 -6.504914e-01 4.527441e-01 -5.314344e-01 -6.213977e-02 6.919115e-02 -4.129569e-01 1.848167e-01 -1.587063e+00 -2.157460e-01 -1.274885e-01 -1.574612e-01 -3.286387e-01 1.813182e-01 3.904269e-02 1.744113e-01 4.188554e-01 1.397132e-01 -3.795728e-01 2.842444e-01 9.825388e-02 4.150351e-02 -8.915955e-02 -2.135883e-01 -4.354317e-02 -1.757652e-01 -6.662541e-02 6.695046e-03 -3.672877e-02 1.057455e-01 4.028543e-02 -3.766875e-02 9.335872e-02 1.123115e-02 2.057962e-01
<VARIANCE> 52
 5.393680e+00 2.766468e+01 2.904862e+01 4.909544e+01 4.244054e+01 3.291486e+01 6.823845e+01 6.471624e+01 5.284027e+01 5.987942e+01 3.986476e+01 3.958273e+01 1.760209e+01 4.063838e-01 7.634248e-01 2.245791e+00 2.276872e+00 3.204392e+00 2.183060e+00 2.798956e+00 3.562494e+00 2.902713e+00 3.113333e+00 3.295841e+00 2.145587e+00 3.717809e-01 1.138008e-01 2.453563e-01 3.244796e-01 3.997996e-01 5.283440e-01 4.363163e-01 4.917924e-01 6.137418e-01 5.096371e-01 5.245614e-01 5.221064e-01 4.484997e-01 1.763873e-01 2.163933e-02 2.544665e-02 8.867495e-02 7.988700e-02 1.428261e-01 1.077256e-01 9.806304e-02 1.353579e-01 1.093933e-01 1.244341e-01 1.216929e-01 9.508365e-02 2.567731e-02
<GCONST> 1.034779e+02
<MIXTURE> 2 2.564668e-01
<MEAN> 52
 -3.416262e+00 -5.281995e+00 -9.524034e+00 -1.704649e+01 -4.188598e+00 -1.252987e+01 -1.024588e+01 -4.429744e+00 -1.682543e+01 -9.511872e+00 -1.490773e+01 -6.505545e+00 6.528849e+01 8.711594e-02 8.098677e-01 1.437380e-01 1.245557e+00 -6.880844e-01 4.012876e-02 -4.577131e-01 -1.023121e+00 5.211666e-01 -4.804155e-01 9.720310e-01 3.949327e-02 -1.124887e+00 -4.106513e-02 2.667503e-03 1.083057e-01 1.887044e-01 5.059503e-02 5.521452e-02 2.666036e-02 -7.586408e-02 4.349345e-02 6.362080e-02 1.598361e-01 1.724989e-01 -3.446695e-02 -2.888906e-02 -6.185588e-02 2.454624e-02 -5.717901e-02 7.259049e-02 2.696744e-02 3.507434e-02 8.732644e-02 1.465920e-02 4.686731e-02 -9.260803e-02 1.318059e-02 4.394170e-02
<VARIANCE> 52
 1.127924e+01 1.755004e+01 7.096886e+01 4.492864e+01 3.470188e+01 3.419016e+01 2.985898e+01 3.511852e+01 4.605113e+01 5.816492e+01 2.696487e+01 2.708361e+01 2.791450e+01 4.030374e-01 7.102914e-01 1.385564e+00 1.424274e+00 1.655256e+00 1.900243e+00 1.376691e+00 2.182199e+00 1.668341e+00 1.809161e+00 1.578145e+00 1.370999e+00 3.171332e-01 7.078428e-02 1.283011e-01 2.439040e-01 2.850993e-01 3.702376e-01 3.418069e-01 2.756835e-01 3.736536e-01 3.020553e-01 3.013229e-01 3.365520e-01 2.884746e-01 4.408354e-02 1.395652e-02 2.256866e-02 4.948007e-02 7.138807e-02 6.772541e-02 7.634075e-02 5.389396e-02 8.365484e-02 7.049470e-02 6.173748e-02 5.828911e-02 6.786514e-02 5.948228e-03
<GCONST> 8.314979e+01
<MIXTURE> 3 3.061551e-01
<MEAN> 52
 -2.007763e+00 6.864001e-01 -3.643321e+00 -8.257648e+00 -7.333939e+00 -1.127744e+01 -1.537334e+01 -1.294434e+01 -1.509540e+01 -1.222055e+01 -1.034433e+01 -2.074539e+00 5.775814e+01 -4.421439e-01 6.257180e-02 1.137140e-01 8.751358e-01 2.607379e-01 8.665475e-01 6.120777e-01 -1.141721e-01 1.070800e+00 7.028940e-01 6.409954e-01 3.666309e-01 -9.191696e-01 -1.231191e-01 -2.527311e-01 -1.217492e-01 -2.135370e-01 9.837133e-02 2.155386e-01 3.019409e-01 4.397661e-01 2.069734e-01 2.542062e-01 -4.000024e-02 -5.781928e-02 1.437885e-01 1.003418e-02 -5.299350e-05 1.852777e-02 -5.421406e-02 -8.054885e-02 -9.996618e-02 -6.209765e-02 2.778417e-03 -2.848924e-02 -1.849761e-02 -1.977182e-02 -2.555120e-02 5.460314e-02
<VARIANCE> 52
 1.614602e+01 2.247680e+01 2.823685e+01 2.578533e+01 2.865352e+01 4.817257e+01 4.703495e+01 4.074187e+01 6.967130e+01 5.148079e+01 3.235253e+01 4.284594e+01 3.103968e+01 8.656487e-01 1.671213e+00 1.824356e+00 1.690473e+00 2.985477e+00 3.080692e+00 3.626993e+00 4.830490e+00 4.541600e+00 2.704207e+00 2.704280e+00 2.458862e+00 5.267339e-01 1.488194e-01 1.780695e-01 2.574730e-01 2.846199e-01 3.828141e-01 4.533617e-01 4.645342e-01 5.208539e-01 6.900743e-01 4.113995e-01 4.571781e-01 3.829360e-01 9.380333e-02 3.407771e-02 5.496295e-02 6.446802e-02 7.703799e-02 1.239007e-01 1.151263e-01 1.298400e-01 1.768814e-01 1.674884e-01 9.751598e-02 1.162102e-01 1.017371e-01 1.920180e-02
<GCONST> 1.051397e+02
<STATE> 11
<NUMMIXES> 3
<MIXTURE> 1 3.029825e-01
<MEAN> 52
 -3.298481e+00 4.576054e+00 4.087639e+00 8.091322e-01 -5.672960e+00 -3.976609e+00 -6.289101e+00 -7.901503e+00 -6.485706e+00 -2.184605e+00 -4.505399e+00 -3.515973e+00 6.211861e+01 -1.778373e+00 -9.667295e-01 6.784765e-01 -1.039348e+00 -7.767514e-01 -6.682381e-01 2.921243e-01 1.180802e+00 4.085467e-01 -7.937977e-01 1.530278e+00 5.956792e-01 1.523081e+00 1.353326e-01 -2.498315e-01 4.885406e-01 -3.982451e-01 -9.727285e-01 1.814025e-01 -5.366093e-01 -1.590407e-01 -2.600138e-01 1.725989e-01 1.422727e-01 -4.974751e-02 7.291729e-01 2.566284e-01 1.808899e-01 2.126907e-02 1.644675e-01 3.878033e-02 1.109160e-01 -7.293726e-02 -1.471601e-01 -1.091132e-01 1.160936e-01 -2.222295e-01 -1.104759e-01 -2.464527e-01
<VARIANCE> 52
 3.107147e+01 3.265071e+01 4.096704e+01 3.765128e+01 4.142836e+01 4.763508e+01 5.665500e+01 3.731386e+01 3.967958e+01 4.590270e+01 3.474356e+01 2.480057e+01 5.064484e+01 2.246275e+00 2.329447e+00 4.466487e+00 4.218335e+00 7.694036e+00 4.822738e+00 6.011590e+00 4.404823e+00 4.632644e+00 5.485659e+00 3.121159e+00 2.761842e+00 3.563834e+00 6.583773e-01 5.741660e-01 6.205427e-01 7.930757e-01 1.016975e+00 8.416583e-01 1.006401e+00 9.066475e-01 8.023498e-01 8.313420e-01 7.529339e-01 6.402566e-01 5.039493e-01 8.992919e-02 1.052015e-01 1.961860e-01 1.765725e-01 3.895245e-01 1.732362e-01 2.394784e-01 1.859170e-01 1.981132e-01 2.131031e-01 1.504835e-01 1.187277e-01 1.392893e-01
<GCONST> 1.346684e+02
<MIXTURE> 2 3.037010e-01
<MEAN> 52
 -4.590572e-01 5.275727e+00 4.044516e+00 7.982444e-01 1.895850e-01 3.457061e+00 -3.381055e+00 -5.634368e+00 -5.067313e+00 -2.599352e+00 -5.764995e+00 -4.269862e+00 5.874604e+01 -7.666661e-01 -3.947540e-01 -4.912872e-01 2.091399e-01 6.628898e-01 1.081330e-01 6.183600e-01 4.011775e-01 4.949337e-01 9.660402e-02 2.802881e-01 3.155867e-01 -9.026595e-01 -4.620348e-02 -3.431420e-01 -2.742954e-01 -4.489207e-01 -3.881741e-01 -2.108139e-01 -2.291408e-01 -2.116894e-02 2.245377e-03 1.496504e-01 7.099645e-02 3.037339e-02 1.583975e-01 4.260837e-02 4.979022e-02 4.114733e-02 2.201254e-02 -7.063783e-02 -1.044787e-01 -1.009295e-01 -8.888886e-02 -4.778887e-02 -2.106543e-03 -3.266225e-02 -2.681566e-02 3.766362e-02
<VARIANCE> 52
 9.822165e+00 1.484325e+01 1.692042e+01 2.480691e+01 2.422375e+01 2.923641e+01 4.359909e+01 3.657875e+01 2.398849e+01 2.677869e+01 2.720442e+01 2.120507e+01 1.118188e+01 4.979130e-01 1.019882e+00 8.440049e-01 1.609734e+00 2.037353e+00 2.069004e+00 2.363871e+00 2.476865e+00 2.157308e+00 2.079472e+00 1.540850e+00 1.777060e+00 3.701160e-01 6.901032e-02 1.568153e-01 1.533089e-01 2.489533e-01 3.126079e-01 4.645547e-01 4.184991e-01 4.469328e-01 3.616855e-01 3.636431e-01 3.219343e-01 3.303340e-01 3.425088e-02 1.463461e-02 3.265931e-02 3.626974e-02 6.042457e-02 7.912079e-02 9.553680e-02 9.369219e-02 9.742343e-02 8.046573e-02 9.222025e-02 6.969148e-02 7.985363e-02 7.509633e-03
<GCONST> 8.273654e+01
<MIXTURE> 3 3.933165e-01
<MEAN> 52
 -6.408127e+00 -2.056467e+00 -3.492711e+00 -6.527785e+00 -3.057614e+00 -5.305519e-01 -5.220955e+00 -3.526039e+00 -4.049659e+00 -2.288510e+00 -2.944152e+00 -2.602755e+00 5.449498e+01 -5.278168e-01 -5.788024e-01 -6.545555e-01 -4.699317e-01 -4.429091e-01 -4.772907e-01 -9.948102e-02 1.256556e-02 5.241079e-01 4.442985e-01 3.358628e-01 2.775983e-01 -4.338093e-01 1.794230e-01 1.585052e-01 1.851851e-01 1.390295e-01 6.096357e-02 -1.935822e-02 -1.663023e-01 -1.832626e-01 -1.666249e-01 -1.069277e-01 -1.812180e-01 -8.080387e-02 1.491199e-01 6.976964e-03 3.086900e-02 4.855966e-02 9.867906e-02 7.803725e-02 7.217512e-02 4.555919e-02 8.194687e-03 1.557479e-02 -3.619348e-02 -2.180306e-02 -3.324793e-03 -1.721306e-02
<VARIANCE> 52
 1.497517e+01 1.880122e+01 1.809884e+01 2.887419e+01 1.757694e+01 2.399653e+01 4.147839e+01 2.384829e+01 2.784858e+01 2.477084e+01 1.954304e+01 1.797364e+01 1.634716e+01 4.946522e-01 8.783079e-01 1.156457e+00 1.543677e+00 1.679706e+00 2.149663e+00 2.620962e+00 2.316564e+00 2.420904e+00 2.241409e+00 1.722424e+00 1.757379e+00 2.119229e-01 6.965987e-02 1.400092e-01 1.650004e-01 2.253488e-01 3.232256e-01 4.106561e-01 5.247324e-01 4.127456e-01 4.015894e-01 4.073274e-01 2.726561e-01 3.330883e-01 2.911669e-02 1.785142e-02 3.579854e-02 4.140583e-02 5.199408e-02 7.601570e-02 8.793112e-02 1.149548e-01 8.853641e-02 9.759355e-02 8.997010e-02 7.067461e-02 8.087712e-02 6.128951e-03
<GCONST> 8.237923e+01
<TRANSP> 12
 0.000000e+00 1.000000e+00 0.000000e+00 0.000000e+00 0.000000e+00 0.000000e+00 0.000000e+00 0.000000e+00 0.000000e+00 0.000000e+00 0.000000e+00 0.000000e+00
 0.000000e+00 7.874929e-01 2.125071e-01 0.000000e+00 0.000000e+00 0.000000e+00 0.000000e+00 0.000000e+00 0.000000e+00 0.000000e+00 0.000000e+00 0.000000e+00
 0.000000e+00 0.000000e+00 8.391091e-01 1.608909e-01 0.000000e+00 0.000000e+00 0.000000e+00 0.000000e+00 0.000000e+00 0.000000e+00 0.000000e+00 0.000000e+00
 0.000000e+00 0.000000e+00 0.000000e+00 8.369997e-01 1.630004e-01 0.000000e+00 0.000000e+00 0.000000e+00 0.000000e+00 0.000000e+00 0.000000e+00 0.000000e+00
 0.000000e+00 0.000000e+00 0.000000e+00 0.000000e+00 7.531399e-01 2.468601e-01 0.000000e+00 0.000000e+00 0.000000e+00 0.000000e+00 0.000000e+00 0.000000e+00
 0.000000e+00 0.000000e+00 0.000000e+00 0.000000e+00 0.000000e+00 7.473671e-01 2.526329e-01 0.000000e+00 0.000000e+00 0.000000e+00 0.000000e+00 0.000000e+00
 0.000000e+00 0.000000e+00 0.000000e+00 0.000000e+00 0.000000e+00 0.000000e+00 7.184983e-01 2.815017e-01 0.000000e+00 0.000000e+00 0.000000e+00 0.000000e+00
 0.000000e+00 0.000000e+00 0.000000e+00 0.000000e+00 0.000000e+00 0.000000e+00 0.000000e+00 7.964728e-01 2.035272e-01 0.000000e+00 0.000000e+00 0.000000e+00
 0.000000e+00 0.000000e+00 0.000000e+00 0.000000e+00 0.000000e+00 0.000000e+00 0.000000e+00 0.000000e+00 8.404969e-01 1.595031e-01 0.000000e+00 0.000000e+00
 0.000000e+00 0.000000e+00 0.000000e+00 0.000000e+00 0.000000e+00 0.000000e+00 0.000000e+00 0.000000e+00 0.000000e+00 7.981706e-01 2.018294e-01 0.000000e+00
 0.000000e+00 0.000000e+00 0.000000e+00 0.000000e+00 0.000000e+00 0.000000e+00 0.000000e+00 0.000000e+00 0.000000e+00 0.000000e+00 8.144274e-01 1.855726e-01
 0.000000e+00 0.000000e+00 0.000000e+00 0.000000e+00 0.000000e+00 0.000000e+00 0.000000e+00 0.000000e+00 0.000000e+00 0.000000e+00 0.000000e+00 0.000000e+00
<ENDHMM>
