~o
<STREAMINFO> 1 52
<VECSIZE> 52<NULLD><MFCC_D_A_T_0><DIAGC>
~h "sil"
<BEGINHMM>
<NUMSTATES> 12
<STATE> 2
<NUMMIXES> 3
<MIXTURE> 1 2.316417e-01
<MEAN> 52
 -1.153062e+01 2.310583e-01 -2.637381e+00 -6.651536e+00 3.586050e+00 -3.093493e+00 -3.389705e+00 1.742840e+00 4.613888e-01 2.313354e+00 -2.287345e+00 -4.517382e+00 5.939145e+01 1.139534e+00 -9.542565e-01 -5.378836e-01 7.498559e-01 -5.274575e-01 -1.748546e-01 8.706027e-01 5.526798e-01 3.280497e-01 5.235748e-02 -3.943437e-01 -8.324841e-01 4.146418e-01 8.985080e-02 -9.726882e-02 -2.651451e-02 1.982279e-02 -2.184016e-01 1.080370e-02 3.762084e-02 -2.938365e-02 -1.115616e-01 -1.020263e-02 -3.453293e-02 1.548643e-02 1.024780e-02 -4.443975e-02 6.157032e-02 6.669866e-02 -5.455679e-02 9.428223e-02 5.322997e-02 -6.821626e-02 -9.708920e-02 -8.514947e-02 1.634329e-02 6.567145e-02 8.719628e-02 -8.207288e-02
<VARIANCE> 52
 4.717907e+01 3.143849e+01 1.875029e+01 2.751458e+01 4.333468e+01 3.878975e+01 2.936550e+01 3.507801e+01 2.543185e+01 3.662851e+01 2.356474e+01 2.642294e+01 1.843445e+01 4.178885e+00 1.666267e+00 1.777519e+00 2.344274e+00 2.801669e+00 2.448140e+00 2.828833e+00 2.309916e+00 3.207745e+00 4.178969e+00 2.759660e+00 2.090473e+00 9.886808e-01 4.103503e-01 2.771423e-01 2.767926e-01 3.252874e-01 3.613287e-01 5.584030e-01 5.321411e-01 4.141628e-01 5.927140e-01 5.716844e-01 3.700880e-01 3.197488e-01 2.049069e-01 9.228094e-02 6.156651e-02 6.223506e-02 7.974064e-02 1.117333e-01 1.181242e-01 1.326969e-01 8.394253e-02 1.169699e-01 1.310531e-01 8.768883e-02 5.957927e-02 4.236124e-02
<GCONST> 1.067828e+02
<MIXTURE> 2 4.292354e-01
<MEAN> 52
 -8.909739e+00 -2.770622e+00 -3.091604e+00 -5.317063e+00 -4.605199e+00 -3.330079e+00 -4.039231e+00 -3.415560e+00 -3.175062e+00 -1.383125e+00 -2.228409e+00 -1.710312e+00 5.338746e+01 -1.805486e-01 -1.967985e-01 -2.853970e-01 -1.355130e-01 -1.022300e-01 -2.854537e-01 -6.351795e-02 -1.967724e-01 1.889373e-01 -1.107397e-01 2.490083e-01 1.152832e-01 -1.748444e-01 2.371312e-01 3.172852e-01 3.642451e-01 3.844659e-01 3.420050e-01 3.092493e-01 8.278417e-02 5.170733e-02 5.591467e-02 -5.481128e-02 -5.899712e-02 -7.356691e-02 1.470251e-01 -5.595944e-02 -9.057745e-02 -9.095851e-02 -5.254749e-02 4.372130e-03 3.152537e-02 3.753663e-02 8.144138e-02 2.723495e-02 3.047637e-02 -1.564538e-02 4.166783e-03 -5.030905e-02
<VARIANCE> 52
 8.482894e+00 8.257120e+00 1.701879e+01 1.751007e+01 1.489254e+01 1.740822e+01 1.894121e+01 2.263248e+01 2.446319e+01 2.244561e+01 2.005141e+01 1.711521e+01 1.099385e+01 3.615210e-01 6.387998e-01 9.358725e-01 1.404313e+00 1.670495e+00 1.860331e+00 2.056856e+00 1.749823e+00 1.560334e+00 1.926203e+00 1.720955e+00 1.537243e+00 1.978244e-01 6.463007e-02 1.356195e-01 2.099610e-01 2.375556e-01 2.674505e-01 2.879252e-01 4.318570e-01 3.830319e-01 3.935411e-01 3.887098e-01 3.716282e-01 2.804034e-01 4.255751e-02 1.535159e-02 2.839458e-02 3.968350e-02 6.228915e-02 7.526644e-02 8.557409e-02 9.989802e-02 8.591115e-02 7.515316e-02 9.145644e-02 8.651631e-02 7.086548e-02 8.789374e-03
<GCONST> 7.560654e+01
<MIXTURE> 3 3.391229e-01
<MEAN> 52
 -8.968757e+00 -1.269122e+00 -3.365760e+00 -2.557797e+00 1.961552e+00 -9.668530e-01 -2.526742e+00 -1.798855e+00 -1.407548e+00 1.309014e+00 -2.323284e+00 -3.523665e+00 5.672667e+01 -1.796672e-01 -7.440231e-02 3.314995e-02 2.806937e-01 9.540362e-02 -7.159119e-02 -2.263148e-01 -1.205780e-01 -1.180439e-01 -3.032883e-01 4.883224e-02 3.622928e-01 -2.117363e-01 -4.581842e-02 -7.732272e-02 -4.861556e-02 -6.086514e-02 -8.226134e-02 1.223117e-02 -6.510498e-03 5.223591e-02 7.531665e-02 -1.949187e-02 -2.101782e-02 -8.099965e-02 3.883949e-03 -2.179553e-03 -5.600543e-03 -2.987239e-02 -1.668060e-02 -1.121710e-02 1.753288e-02 3.639621e-02 1.101962e-02 2.427323e-02 8.847590e-04 1.858268e-02 -2.054269e-02 2.174164e-02
<VARIANCE> 52
 3.694378e+01 1.228630e+01 1.440498e+01 1.726706e+01 3.863484e+01 3.265638e+01 1.997933e+01 2.008475e+01 2.591879e+01 3.073895e+01 1.964074e+01 2.736459e+01 1.872578e+01 4.478256e-01 4.667337e-01 6.358516e-01 5.612361e-01 9.894376e-01 1.652021e+00 1.485766e+00 1.520762e+00 1.735112e+00 1.746017e+00 1.132378e+00 1.326086e+00 3.070219e-01 7.066543e-02 7.830592e-02 1.202960e-01 8.468241e-02 1.289858e-01 2.535860e-01 2.644022e-01 1.847997e-01 2.695384e-01 2.918044e-01 2.009267e-01 1.944856e-01 3.059113e-02 9.214769e-03 1.565139e-02 1.934105e-02 1.473101e-02 2.263605e-02 3.769839e-02 3.966755e-02 3.179680e-02 4.507688e-02 5.046017e-02 3.650269e-02 3.571577e-02 6.665156e-03
<GCONST> 6.129766e+01
<STATE> 3
<NUMMIXES> 3
<MIXTURE> 1 2.349090e-01
<MEAN> 52
 -9.507468e+00 -3.077094e+00 -4.665195e+00 -2.021069e+00 -2.016064e-01 -9.035924e-01 -2.652436e+00 -1.541386e+00 -3.625752e-01 -5.367352e-01 -1.715834e+00 -1.953382e+00 5.435622e+01 -3.032961e-01 -1.452370e-01 -1.620855e-01 1.285997e-01 -4.412726e-02 -1.060357e-01 -1.255164e-01 -2.263449e-01 -1.291673e-01 -6.680756e-02 7.563905e-02 1.246977e-01 1.461554e-01 6.105144e-02 3.463553e-02 1.358742e-01 -2.525059e-02 -3.660673e-02 -2.380666e-02 7.923902e-03 4.157470e-02 -5.753144e-02 2.933116e-02 -2.682459e-03 5.789258e-03 -6.224493e-02 2.630451e-02 -1.049483e-02 1.302578e-02 -2.916754e-02 -2.049944e-03 -5.386360e-03 2.520496e-02 5.403868e-02 3.756628e-02 -1.021465e-02 -1.195657e-02 -2.253923e-03 -3.114370e-02
<VARIANCE> 52
 1.472185e+01 9.045327e+00 1.796574e+01 1.938378e+01 2.524971e+01 2.032819e+01 2.248348e+01 2.419431e+01 1.930534e+01 1.912261e+01 2.087705e+01 1.973912e+01 2.347032e+01 1.412501e+00 8.492959e-01 1.894266e+00 1.637174e+00 1.881747e+00 1.928072e+00 2.218300e+00 2.187180e+00 1.831577e+00 1.689280e+00 2.108626e+00 1.353030e+00 8.681247e-01 2.671459e-01 1.424294e-01 3.475318e-01 3.347106e-01 3.659096e-01 3.577692e-01 3.998512e-01 4.559553e-01 3.581986e-01 3.311039e-01 4.444153e-01 2.663569e-01 1.534967e-01 6.169888e-02 3.439055e-02 8.847027e-02 8.271714e-02 7.968765e-02 8.914039e-02 1.052283e-01 1.061416e-01 8.111862e-02 7.958562e-02 1.000222e-01 5.953071e-02 3.392179e-02
<GCONST> 9.080016e+01
<MIXTURE> 2 3.736451e-01
<MEAN> 52
 -8.451696e+00 -2.887284e+00 -3.116701e+00 -3.681531e+00 -2.363475e+00 -1.731873e+00 -3.165355e+00 -1.782538e+00 -8.564258e-01 -1.430526e+00 -1.775723e+00 -8.108709e-01 5.133271e+01 5.049852e-04 -7.711642e-02 -1.433494e-01 -2.749747e-01 -4.462882e-01 -7.141207e-01 -5.231370e-01 -1.218984e-01 3.688752e-02 1.566446e-01 2.523678e-01 2.276870e-01 -7.799908e-02 -2.894096e-02 -4.450595e-03 2.109320e-03 1.747514e-02 -1.893617e-02 4.380127e-04 1.905851e-03 -5.202147e-02 -4.850070e-02 -2.946879e-02 -3.442914e-02 1.896446e-02 2.465740e-02 -2.008356e-03 8.012051e-03 1.736014e-02 5.853584e-02 9.755084e-02 1.500787e-01 1.098587e-01 3.687480e-02 -3.348633e-04 -3.908055e-02 -5.903072e-02 -3.974254e-02 6.551775e-03
<VARIANCE> 52
 4.072710e+00 5.244215e+00 7.567493e+00 1.212036e+01 1.433611e+01 1.634246e+01 1.689010e+01 1.691454e+01 1.581228e+01 1.637719e+01 1.774102e+01 1.384165e+01 5.957876e+00 1.732385e-01 3.333821e-01 4.569034e-01 7.120483e-01 8.014695e-01 6.157063e-01 9.584377e-01 1.218679e+00 1.441473e+00 1.342077e+00 1.400006e+00 1.057604e+00 5.699713e-02 3.565357e-02 6.509272e-02 9.793808e-02 1.605027e-01 2.120482e-01 2.410793e-01 2.683677e-01 2.497261e-01 2.755614e-01 2.779180e-01 2.972522e-01 2.192533e-01 1.482458e-02 8.457061e-03 1.518852e-02 2.180380e-02 3.488457e-02 3.980430e-02 2.855192e-02 4.626184e-02 5.837747e-02 6.878677e-02 6.298861e-02 6.697563e-02 4.548545e-02 3.035814e-03
<GCONST> 4.949377e+01
<MIXTURE> 3 3.914459e-01
<MEAN> 52
 -8.481503e+00 -2.762448e+00 -2.855061e+00 -3.507373e+00 -2.785638e+00 -1.657690e+00 -3.051711e+00 -2.217456e+00 -1.193400e+00 -1.623436e+00 -1.880098e+00 -5.824727e-01 5.137667e+01 7.016012e-02 1.785994e-02 6.561801e-02 2.767487e-01 5.354574e-01 7.845374e-01 5.725194e-01 2.896998e-01 1.171312e-01 -1.138666e-01 -2.333344e-01 -1.209625e-01 -6.886946e-02 -9.377056e-03 1.509197e-02 -1.497758e-02 -2.075506e-02 3.835292e-02 -1.153177e-02 -2.762896e-03 4.110151e-02 -3.877430e-03 -1.931993e-02 -2.187816e-02 -3.682331e-02 3.509402e-02 -2.370432e-02 -2.115750e-02 -3.918475e-02 -7.074729e-02 -1.245896e-01 -1.872211e-01 -1.291089e-01 -5.615882e-02 -1.912050e-02 2.868135e-02 5.999075e-02 3.951520e-02 -4.572372e-04
<VARIANCE> 52
 4.246365e+00 5.903924e+00 8.759459e+00 1.134845e+01 1.338269e+01 1.471952e+01 1.775247e+01 1.833139e+01 1.922359e+01 1.649602e+01 1.687732e+01 1.393846e+01 7.654961e+00 1.605942e-01 3.439289e-01 5.222177e-01 7.203979e-01 8.804724e-01 6.669992e-01 1.125897e+00 1.267306e+00 1.463044e+00 1.381275e+00 1.439662e+00 1.173761e+00 6.832237e-02 3.840260e-02 6.380691e-02 1.079506e-01 1.599050e-01 2.110357e-01 2.378568e-01 2.781608e-01 2.814873e-01 2.972323e-01 2.843018e-01 3.039323e-01 2.266122e-01 1.427707e-02 8.818527e-03 1.596523e-02 2.534461e-02 3.630978e-02 4.342476e-02 3.299444e-02 5.587760e-02 6.384189e-02 6.985196e-02 6.710072e-02 7.016032e-02 5.251727e-02 3.344725e-03
<GCONST> 5.249263e+01
<STATE> 4
<NUMMIXES> 3
<MIXTURE> 1 1.648867e-01
<MEAN> 52
 -1.527642e+00 -5.812385e+00 -5.740968e+00 -2.014404e+00 8.762292e-01 -7.831113e-01 2.558401e+00 8.848549e-01 -1.675182e+00 4.521361e+00 -4.578044e+00 -9.749083e+00 6.107908e+01 -1.816690e-01 4.452183e-01 6.548890e-02 2.725521e-01 3.112616e-01 5.962980e-01 -2.083043e-01 -7.621616e-01 -1.378489e-01 -1.904240e-01 2.063953e-01 4.736398e-01 -5.393953e-01 -2.317926e-01 1.802105e-01 5.907182e-02 -5.717169e-02 1.285292e-02 6.359861e-03 -1.812363e-01 3.691747e-02 1.155965e-01 -8.166557e-02 4.690552e-02 1.486085e-01 -7.920469e-02 6.192812e-02 -7.121161e-02 -5.453492e-03 -1.099656e-02 -6.760585e-02 -4.719581e-02 5.281310e-02 7.677743e-02 7.350747e-03 1.849244e-02 -4.159899e-02 -3.821676e-02 3.592035e-02
<VARIANCE> 52
 2.895614e+00 1.258734e+01 1.072182e+01 1.682613e+01 3.624315e+01 2.920012e+01 3.171951e+01 2.002287e+01 3.532305e+01 2.156520e+01 1.970624e+01 1.454216e+01 1.289226e+01 5.204629e-01 7.441938e-01 6.140446e-01 8.070480e-01 1.424070e+00 1.164133e+00 2.315780e+00 1.799463e+00 1.905537e+00 1.384190e+00 1.104105e+00 9.751858e-01 2.983701e-01 6.010881e-02 1.338199e-01 1.472576e-01 1.902433e-01 2.660696e-01 2.069085e-01 4.618458e-01 3.541486e-01 4.131843e-01 2.949753e-01 2.707275e-01 1.623666e-01 3.560392e-02 1.603252e-02 2.105737e-02 2.914972e-02 4.616835e-02 6.058093e-02 5.344671e-02 1.092809e-01 1.001849e-01 1.000988e-01 5.696337e-02 5.518373e-02 3.851108e-02 8.965886e-03
<GCONST> 7.018623e+01
<MIXTURE> 2 4.411586e-01
<MEAN> 52
 -9.687636e+00 -2.629613e+00 -3.231396e+00 -3.343851e+00 -1.996078e+00 -3.341942e+00 -4.014601e+00 -1.638814e+00 -1.004188e+00 -1.247791e+00 -2.501541e+00 -1.365544e+00 5.411065e+01 5.047683e-02 3.266054e-02 -9.135552e-02 -1.995228e-01 -2.275318e-01 -3.561960e-01 -8.521101e-01 -8.680290e-01 -7.812333e-01 -5.809651e-01 -5.937970e-02 1.708899e-01 1.536949e-02 -1.386484e-02 -9.966565e-03 -8.673488e-02 -1.699039e-02 3.648892e-02 1.056789e-01 5.318858e-03 5.574792e-02 2.598342e-02 2.840650e-02 8.764811e-02 -9.809301e-03 5.945398e-02 -3.266400e-02 -1.874887e-02 1.026842e-02 2.276031e-02 3.045950e-02 7.861193e-02 1.807908e-01 1.974825e-01 1.904617e-01 1.337632e-01 2.742824e-02 -2.267400e-02 -8.289083e-03
<VARIANCE> 52
 1.338687e+01 7.848565e+00 1.167791e+01 1.688778e+01 2.363078e+01 3.160568e+01 2.515601e+01 3.177194e+01 2.321289e+01 1.886265e+01 1.631850e+01 1.904363e+01 3.943404e+01 4.251103e-01 4.582824e-01 7.301390e-01 8.199768e-01 1.043164e+00 1.287168e+00 1.175279e+00 1.325954e+00 1.553043e+00 1.568345e+00 1.539319e+00 1.826352e+00 1.720438e-01 7.149033e-02 9.770086e-02 1.441888e-01 1.460854e-01 2.123075e-01 2.993466e-01 3.704648e-01 3.827937e-01 3.998570e-01 3.638938e-01 2.847990e-01 3.337278e-01 3.082038e-02 1.644686e-02 2.299101e-02 3.261834e-02 3.807372e-02 4.560484e-02 6.915065e-02 6.012026e-02 6.050894e-02 8.008686e-02 7.862399e-02 7.366700e-02 8.325706e-02 6.997700e-03
<GCONST> 7.069240e+01
<MIXTURE> 3 3.939547e-01
<MEAN> 52
 -9.496245e+00 -2.752855e+00 -3.855142e+00 -2.171066e+00 4.000832e-01 -7.837374e-01 -2.883388e+00 -1.045073e+00 -8.449546e-01 -1.915628e-01 -1.014402e+00 -8.773291e-01 5.515578e+01 3.845295e-02 2.050943e-02 5.059366e-01 -8.056362e-02 -1.939109e-01 1.218133e-01 8.948081e-01 1.174171e+00 6.319315e-01 1.317231e-01 -2.024171e-01 1.927427e-02 -2.810067e-01 2.406431e-02 -8.075594e-02 2.911420e-02 -6.542610e-02 -1.750586e-01 -2.862483e-01 -2.671114e-02 5.526986e-02 -6.663804e-02 -9.493751e-02 -1.594267e-01 -1.409265e-01 -3.663851e-02 -4.373640e-02 -3.613767e-02 -1.255132e-01 -3.142278e-03 3.461894e-02 -3.118716e-02 -2.139273e-01 -2.714892e-01 -1.412262e-01 -5.943590e-02 7.688958e-02 4.644111e-02 6.463075e-02
<VARIANCE> 52
 1.645573e+01 1.148375e+01 1.198129e+01 2.200327e+01 2.742586e+01 2.984254e+01 3.173964e+01 2.643839e+01 2.453129e+01 2.102055e+01 1.762373e+01 1.955742e+01 4.205630e+01 6.613629e-01 6.708567e-01 8.387887e-01 1.183126e+00 1.563212e+00 2.111011e+00 1.714153e+00 1.275234e+00 2.206440e+00 1.532231e+00 1.752900e+00 1.704954e+00 4.752789e-01 1.324029e-01 1.313604e-01 2.004082e-01 2.282811e-01 2.925169e-01 3.810822e-01 4.909390e-01 4.830214e-01 4.588103e-01 2.926267e-01 3.276205e-01 3.172460e-01 9.708208e-02 2.702423e-02 3.441422e-02 3.844554e-02 4.987434e-02 7.640206e-02 9.244680e-02 8.522736e-02 5.740516e-02 1.013212e-01 7.481886e-02 8.207792e-02 7.696527e-02 1.973704e-02
<GCONST> 8.362195e+01
<STATE> 5
<NUMMIXES> 3
<MIXTURE> 1 1.176839e-01
<MEAN> 52
 -9.427846e+00 -1.149200e+01 -9.251762e+00 -2.357796e+00 1.205824e+01 7.908873e+00 2.307758e+00 -6.555745e+00 -4.036724e+00 -3.657895e+00 5.515848e+00 4.580509e+00 6.388224e+01 5.393485e-01 4.577686e-01 -1.297868e-01 -3.534213e-01 -7.163741e-01 1.141437e+00 5.904821e-02 -8.433943e-01 -8.060544e-01 7.216564e-01 4.527012e-01 1.145845e+00 -1.227134e+00 3.397696e-02 1.172014e+00 8.302844e-01 -4.208189e-02 -1.877894e+00 -1.429115e+00 -8.272479e-01 5.850576e-01 2.255142e-01 2.783149e-01 -9.644077e-01 -7.983751e-01 -1.180864e+00 -1.365286e-01 -1.119374e-01 5.324353e-02 2.097555e-02 6.664053e-02 -3.226562e-01 -2.758102e-02 1.820412e-01 1.969244e-01 -1.503878e-01 -7.744942e-02 -2.599445e-01 2.208171e-01
<VARIANCE> 52
 9.748875e+00 1.350029e+01 1.150712e+01 1.520647e+01 3.046040e+01 2.788086e+01 2.465949e+01 2.690100e+01 3.052887e+01 2.073781e+01 2.058754e+01 3.065103e+01 4.328535e+01 4.305004e-01 3.784352e+00 2.233778e+00 8.256550e-01 1.074390e+01 7.135836e+00 4.596928e+00 2.385924e+00 2.087557e+00 1.844955e+00 4.347448e+00 3.128599e+00 4.870590e+00 2.639634e-01 3.650887e-01 2.043916e-01 2.062701e-01 8.281150e-01 7.601886e-01 6.305437e-01 5.829275e-01 6.654604e-01 4.520529e-01 4.465195e-01 6.459467e-01 6.398727e-01 2.947005e-02 1.941686e-01 1.023570e-01 4.632003e-02 5.397956e-01 3.394724e-01 2.288042e-01 1.004914e-01 1.095188e-01 9.308611e-02 2.015976e-01 1.659181e-01 2.471533e-01
<GCONST> 1.136719e+02
<MIXTURE> 2 4.461674e-01
<MEAN> 52
 -8.494156e+00 -3.116912e+00 -3.155119e+00 -3.914415e+00 -2.741943e+00 -2.652417e+00 -3.996122e+00 -2.698212e+00 -2.160769e+00 -2.606117e+00 -2.925705e+00 -1.896429e+00 5.407133e+01 -2.605276e-01 -2.605963e-01 -1.151051e-01 -1.917778e-01 -3.979290e-01 -6.114543e-01 -1.265063e-01 4.632346e-01 2.505314e-01 -2.186331e-01 -2.675203e-01 -2.945628e-01 -3.076165e-02 -6.221068e-02 -2.160228e-01 -1.612497e-01 7.501800e-02 3.455258e-01 2.335797e-01 1.572367e-01 1.300879e-02 9.699483e-02 1.422993e-01 2.686514e-01 1.979170e-01 2.647978e-01 4.669438e-02 5.055718e-02 1.565189e-02 3.077557e-02 8.325497e-02 1.389249e-01 3.052635e-02 -9.543180e-02 -6.006145e-02 5.176459e-02 6.410576e-02 9.428251e-02 -3.750997e-03
<VARIANCE> 52
 1.044400e+01 9.653878e+00 1.050399e+01 1.595130e+01 1.872632e+01 2.404338e+01 2.078070e+01 2.449248e+01 2.388161e+01 2.207903e+01 1.856288e+01 1.716034e+01 1.458330e+01 3.689698e-01 7.189052e-01 8.428500e-01 7.917378e-01 1.357038e+00 1.695661e+00 1.649045e+00 1.700757e+00 1.413784e+00 1.527564e+00 1.387856e+00 1.233652e+00 3.907650e-01 9.116848e-02 2.397941e-01 1.544824e-01 1.867903e-01 4.705840e-01 4.152656e-01 3.993821e-01 4.310105e-01 4.566860e-01 3.775565e-01 2.824155e-01 2.892412e-01 1.497986e-01 1.628064e-02 3.947198e-02 3.987586e-02 3.839296e-02 7.687184e-02 8.944637e-02 8.086608e-02 6.985131e-02 7.250772e-02 7.964899e-02 6.744844e-02 6.118406e-02 2.812613e-02
<GCONST> 7.773390e+01
<MIXTURE> 3 4.361487e-01
<MEAN> 52
 -9.484021e+00 -4.498601e+00 -3.510654e+00 -1.277597e+00 2.569345e-01 -8.934746e-01 -2.295011e+00 -1.593211e+00 -1.503473e+00 -9.335772e-01 -1.157588e+00 -3.311991e-01 5.452275e+01 -4.305541e-01 -2.555648e-01 2.346189e-02 -2.226487e-04 3.280913e-01 -5.858850e-02 1.332693e-01 6.988834e-02 5.163088e-02 -2.778779e-01 1.609142e-01 -8.478492e-03 5.334329e-01 -1.132032e-02 -5.982543e-02 -7.425813e-02 -8.012442e-02 7.693577e-02 8.960638e-02 6.440064e-02 -6.126519e-02 -3.549553e-02 -5.999098e-02 5.486457e-02 2.822649e-02 4.569149e-02 4.843966e-02 2.380660e-02 -1.060636e-02 -1.750556e-02 -7.402788e-02 1.581240e-02 -2.098989e-02 -2.068960e-02 -1.845389e-02 3.960232e-02 2.912424e-03 3.601781e-02 -9.974658e-02
<VARIANCE> 52
 1.646559e+01 2.409743e+01 1.693188e+01 1.746989e+01 2.607021e+01 2.830222e+01 2.362878e+01 2.073854e+01 2.563168e+01 2.123259e+01 2.356313e+01 2.085257e+01 4.213944e+01 1.703210e+00 4.187637e+00 2.307368e+00 1.494602e+00 6.776002e+00 5.812537e+00 3.170204e+00 3.083605e+00 3.501194e+00 2.138603e+00 3.727311e+00 3.079078e+00 3.852602e+00 2.596508e-01 4.914813e-01 2.588984e-01 2.285046e-01 5.856579e-01 7.825223e-01 5.271077e-01 4.535114e-01 5.697923e-01 4.312017e-01 5.629916e-01 4.891408e-01 5.202804e-01 7.650989e-02 2.105055e-01 9.901663e-02 5.933402e-02 3.112415e-01 2.574711e-01 1.580999e-01 1.356396e-01 1.654236e-01 1.068562e-01 1.905737e-01 1.514780e-01 2.012651e-01
<GCONST> 1.159767e+02
<STATE> 6
<NUMMIXES> 3
<MIXTURE> 1 3.147031e-01
<MEAN> 52
 -1.215270e+01 -4.534431e+00 -3.038107e+00 -4.026092e+00 -2.407803e+00 -3.282678e+00 -2.796812e+00 -7.664881e-01 -2.356173e+00 -2.547618e+00 -5.837088e-01 -2.167091e-01 5.659909e+01 -4.517360e-01 1.203281e-01 -1.658003e-01 -7.779840e-01 -9.167674e-01 -9.740101e-01 -9.251662e-01 -8.075084e-01 -4.935384e-01 -2.068893e-01 -5.901596e-02 -1.131210e-01 2.391284e-02 1.018635e-01 -2.847173e-03 -3.436083e-03 5.279947e-02 -2.928159e-02 3.509545e-02 -8.716399e-02 -7.540695e-02 1.613858e-02 -7.251266e-02 -1.376579e-01 -5.652607e-02 -2.229356e-02 8.084092e-02 -2.602197e-03 5.857057e-02 1.639613e-01 1.832851e-01 2.013061e-01 2.024522e-01 1.866136e-01 9.863729e-02 3.631104e-02 1.346975e-02 2.798679e-02 -2.213462e-03
<VARIANCE> 52
 1.270541e+01 1.802261e+01 1.909722e+01 2.015676e+01 1.928112e+01 2.705248e+01 2.923176e+01 2.956761e+01 3.007474e+01 3.170849e+01 2.455059e+01 1.885547e+01 1.587073e+01 6.496222e-01 9.286637e-01 1.380382e+00 9.705974e-01 1.432091e+00 1.458647e+00 1.675335e+00 2.072911e+00 1.698766e+00 2.828388e+00 1.962416e+00 1.459945e+00 6.299304e-01 1.357525e-01 1.534180e-01 2.157258e-01 2.397836e-01 3.082880e-01 4.204204e-01 4.036236e-01 5.192147e-01 4.894587e-01 5.922915e-01 3.915386e-01 2.971328e-01 8.315267e-02 2.327490e-02 3.705808e-02 5.753773e-02 3.935475e-02 6.779108e-02 7.174990e-02 8.173014e-02 9.145976e-02 8.103262e-02 1.387359e-01 9.514567e-02 6.985951e-02 2.239531e-02
<GCONST> 8.668172e+01
<MIXTURE> 2 2.836269e-01
<MEAN> 52
 -1.054704e+01 -4.029635e+00 -3.860769e+00 -4.204700e+00 -2.929356e+00 -3.640752e+00 -2.923007e+00 -6.094977e-01 -1.017363e+00 -2.433316e+00 -2.272384e+00 -9.449412e-01 5.500087e+01 7.311902e-03 -1.875163e-01 -2.408139e-01 -2.064705e-01 -2.379093e-01 2.371588e-01 6.115475e-01 9.408170e-01 1.173703e+00 1.392045e+00 7.101038e-01 4.180544e-02 -1.527053e-01 3.124109e-02 2.732345e-03 1.720766e-02 -1.763475e-02 -3.358753e-02 5.543140e-02 -1.302111e-01 -1.925159e-01 -4.943168e-02 7.555246e-02 1.256123e-01 8.145046e-02 -4.846632e-03 -3.804077e-03 5.379802e-02 5.349276e-02 2.994179e-02 3.670363e-02 -4.745768e-02 -1.378845e-01 -2.047386e-01 -2.662405e-01 -3.090287e-01 -1.617064e-01 -1.526046e-02 2.236038e-02
<VARIANCE> 52
 1.129354e+01 1.697106e+01 1.466903e+01 2.359925e+01 1.250846e+01 1.967467e+01 2.054984e+01 2.756255e+01 2.454906e+01 2.414227e+01 1.978592e+01 1.601381e+01 1.416870e+01 3.013444e-01 3.412463e-01 6.649940e-01 7.969875e-01 7.970405e-01 1.141784e+00 1.492801e+00 1.564924e+00 1.442749e+00 1.238599e+00 1.065182e+00 1.452027e+00 1.552914e-01 6.575240e-02 1.044235e-01 1.538142e-01 1.928350e-01 1.836210e-01 2.707289e-01 3.111873e-01 3.631154e-01 4.197814e-01 3.830919e-01 2.745105e-01 2.253631e-01 3.924923e-02 1.313695e-02 1.843311e-02 3.164834e-02 3.665141e-02 4.080437e-02 5.251032e-02 6.897355e-02 7.293477e-02 6.884956e-02 5.780534e-02 4.892619e-02 6.178187e-02 7.626940e-03
<GCONST> 6.605374e+01
<MIXTURE> 3 4.016699e-01
<MEAN> 52
 -1.135639e+01 -4.777504e+00 -3.573793e+00 -4.199952e+00 -3.567611e+00 -4.167393e+00 -4.691646e+00 -1.583117e+00 -2.310408e+00 -3.195268e+00 -2.040488e+00 -9.016719e-01 5.669678e+01 1.503881e-01 1.446290e-01 1.338304e-01 4.853119e-01 6.693903e-01 6.273405e-01 4.201954e-01 5.545185e-02 -2.992730e-01 -4.961042e-01 -3.238717e-01 5.253064e-02 2.829809e-02 3.536238e-02 6.321152e-02 1.684054e-02 1.160843e-02 7.729216e-02 1.092670e-01 1.248767e-01 1.727207e-02 6.593666e-02 1.591142e-01 1.264751e-01 4.205966e-02 -3.203604e-02 -4.571015e-02 -2.148932e-02 -3.913276e-02 -1.179158e-01 -1.696767e-01 -1.483245e-01 -8.786353e-02 -7.712462e-03 7.791519e-02 1.136243e-01 5.226234e-02 -1.603581e-02 -1.841240e-02
<VARIANCE> 52
 1.239835e+01 1.927219e+01 1.467430e+01 1.958665e+01 2.227365e+01 2.149575e+01 2.581122e+01 2.584421e+01 2.735623e+01 2.447321e+01 2.144790e+01 1.650522e+01 1.117339e+01 5.383097e-01 7.235321e-01 8.339546e-01 6.972121e-01 9.885749e-01 1.242367e+00 1.370922e+00 1.561773e+00 1.749402e+00 1.915856e+00 1.542836e+00 1.170252e+00 2.889231e-01 1.053099e-01 1.333268e-01 1.885244e-01 2.025445e-01 3.116400e-01 3.031694e-01 3.565368e-01 3.562822e-01 3.530274e-01 4.772650e-01 3.078634e-01 2.256447e-01 5.360539e-02 2.288410e-02 2.957918e-02 4.008989e-02 3.310881e-02 4.595017e-02 6.037111e-02 6.813592e-02 7.350782e-02 7.672447e-02 9.603383e-02 6.977447e-02 5.352981e-02 1.181894e-02
<GCONST> 7.483761e+01
<STATE> 7
<NUMMIXES> 3
<MIXTURE> 1 1.506809e-01
<MEAN> 52
 -1.127468e+01 -2.012154e+00 -1.410279e+00 -2.435045e+00 -1.438487e+00 -2.648407e+00 -3.063106e+00 -8.055291e-01 -1.633119e+00 -2.616533e+00 -1.036939e+00 -2.735467e-01 5.744867e+01 1.980898e-01 4.082530e-02 6.138673e-01 4.595924e-01 -1.069308e-01 -7.688366e-02 7.440156e-02 6.642231e-01 4.833815e-01 5.406809e-01 3.441703e-01 3.828082e-02 2.991372e-01 6.501987e-02 -1.043858e-01 -1.070329e-01 -1.274975e-01 -1.667300e-02 -4.407851e-02 -9.378422e-02 -2.087669e-02 -7.827059e-02 4.795088e-02 5.142612e-02 -4.142612e-02 -4.379487e-02 -2.883072e-02 -4.008695e-03 -7.456612e-02 -7.399938e-02 -8.168580e-03 -1.180577e-02 -4.001694e-02 -1.263813e-01 -9.637132e-02 -1.269738e-01 -2.374591e-02 1.566112e-02 -6.448554e-03
<VARIANCE> 52
 2.444452e+01 2.167617e+01 4.664570e+01 2.379999e+01 3.860556e+01 2.692378e+01 2.428376e+01 3.594131e+01 3.502639e+01 2.614167e+01 3.800629e+01 2.327827e+01 6.161537e+01 1.754881e+00 1.177301e+00 2.484867e+00 1.917473e+00 3.386407e+00 3.981467e+00 2.410020e+00 2.417623e+00 3.206138e+00 1.817837e+00 3.105816e+00 2.450428e+00 1.359743e+00 2.871390e-01 1.398942e-01 4.411080e-01 3.615099e-01 5.313162e-01 5.013361e-01 3.698168e-01 4.184152e-01 6.256896e-01 4.208357e-01 5.629801e-01 4.100879e-01 1.826665e-01 7.191749e-02 4.571129e-02 8.808741e-02 9.495332e-02 1.368914e-01 1.716971e-01 9.929181e-02 1.130620e-01 1.554313e-01 8.258195e-02 1.313684e-01 1.166749e-01 3.841802e-02
<GCONST> 1.077744e+02
<MIXTURE> 2 4.222016e-01
<MEAN> 52
 -6.659376e+00 -5.057818e+00 -7.032211e+00 -8.250659e+00 -3.460662e+00 -4.394588e-02 -2.539985e+00 -2.790507e-01 8.462879e-02 5.512257e-01 -2.540612e+00 -3.768366e+00 5.486517e+01 -1.053735e-01 -1.320398e-01 7.859130e-03 3.379381e-01 4.511199e-01 3.459034e-01 1.015930e-01 -1.406738e-01 -1.596604e-01 1.474238e-02 -1.125901e-01 1.057475e-01 -1.209803e-01 -2.953946e-02 2.083496e-02 6.061422e-02 3.939117e-02 -5.584758e-02 -1.631399e-01 -1.829976e-01 -2.376419e-01 -1.955872e-01 -1.686088e-01 -7.914895e-02 5.691252e-02 -4.757648e-03 2.385364e-02 3.030819e-02 2.826156e-03 -5.815480e-02 -9.365194e-02 -7.812870e-02 -1.593948e-02 3.938907e-02 3.851060e-02 -2.367921e-03 1.229693e-02 -3.099220e-02 7.273889e-03
<VARIANCE> 52
 7.129783e+00 8.992416e+00 1.890214e+01 2.723876e+01 1.363907e+01 2.067819e+01 1.999476e+01 1.830166e+01 1.788155e+01 3.110767e+01 2.850810e+01 2.292381e+01 1.351481e+01 2.001617e-01 3.749948e-01 5.835366e-01 7.438039e-01 9.268223e-01 1.252171e+00 1.287683e+00 1.514027e+00 1.329441e+00 1.529660e+00 1.531852e+00 1.629606e+00 5.626895e-02 3.335062e-02 6.447260e-02 1.178679e-01 1.673090e-01 2.099445e-01 2.466575e-01 2.530153e-01 2.819527e-01 3.002325e-01 3.557123e-01 2.852860e-01 3.084689e-01 1.078311e-02 7.290212e-03 1.559287e-02 2.721487e-02 3.468182e-02 4.597674e-02 5.965615e-02 5.663608e-02 7.398059e-02 6.632916e-02 7.202782e-02 6.693938e-02 7.351865e-02 2.097014e-03
<GCONST> 5.995240e+01
<MIXTURE> 3 4.271174e-01
<MEAN> 52
 -8.219340e+00 -4.255223e+00 -5.462829e+00 -7.102363e+00 -4.507535e+00 -2.973201e+00 -5.240834e+00 -4.099783e+00 -2.969227e+00 -1.293889e+00 -3.172284e+00 -2.238210e+00 5.479863e+01 1.691462e-01 1.580469e-01 1.680871e-03 -2.344641e-01 -4.980180e-01 -4.551169e-01 -4.400553e-01 -1.643563e-01 6.117097e-02 3.097360e-02 1.210970e-01 1.298418e-01 -8.967323e-02 1.301641e-02 4.177943e-02 5.870047e-02 1.000644e-01 1.597187e-01 1.666826e-01 2.054347e-01 2.445136e-01 1.789164e-01 6.439971e-02 1.948055e-02 -5.417314e-03 1.576774e-02 -3.232650e-02 -2.181849e-02 8.234019e-03 6.371401e-02 1.188402e-01 9.700970e-02 9.162692e-02 3.824593e-02 -9.935656e-03 6.847298e-03 -3.650284e-02 -1.885409e-02 2.180057e-03
<VARIANCE> 52
 1.093702e+01 1.163532e+01 2.101114e+01 2.385503e+01 1.385746e+01 2.143769e+01 1.914644e+01 1.723374e+01 1.944751e+01 1.997063e+01 2.148981e+01 1.971611e+01 9.981125e+00 2.310193e-01 3.539245e-01 5.548822e-01 7.800051e-01 6.660025e-01 1.114772e+00 1.230918e+00 1.434439e+00 1.856622e+00 1.611812e+00 1.532093e+00 1.131412e+00 1.001318e-01 4.632576e-02 7.416691e-02 1.402050e-01 1.908538e-01 2.125221e-01 2.709998e-01 2.475460e-01 2.341116e-01 2.969404e-01 2.823555e-01 2.943178e-01 2.515193e-01 1.672076e-02 8.446134e-03 1.565681e-02 2.726176e-02 4.075224e-02 3.641398e-02 5.062343e-02 5.744936e-02 7.139190e-02 8.794843e-02 7.806905e-02 7.057956e-02 5.327867e-02 4.261986e-03
<GCONST> 6.099327e+01
<STATE> 8
<NUMMIXES> 3
<MIXTURE> 1 1.923651e-01
<MEAN> 52
 -1.291793e+01 -6.235529e+00 -3.091752e+00 -2.599681e+00 -2.723244e+00 -4.235430e+00 -3.801103e+00 2.937230e+00 -6.719312e-02 -9.832593e-01 -8.898879e-01 -9.219437e-01 5.771024e+01 2.544507e-01 3.266613e-02 -1.481127e-01 -1.645630e-01 -8.617026e-02 1.608115e-01 -7.536688e-02 -5.805066e-02 -3.975200e-02 2.807597e-02 1.350385e-01 1.036759e-01 -2.641289e-01 4.610491e-02 6.257733e-02 1.156645e-02 -5.636202e-03 8.315284e-02 1.223627e-01 -1.966800e-02 -2.062374e-01 -1.467344e-01 -5.456857e-02 -6.417701e-02 -3.570933e-02 -1.372637e-02 -1.745882e-02 5.003827e-03 3.444074e-02 3.772698e-02 8.425529e-03 -1.308660e-02 4.358666e-03 -7.209289e-03 2.742507e-03 -1.130002e-02 -4.834163e-02 -3.753104e-02 3.530416e-02
<VARIANCE> 52
 2.224748e+01 1.957009e+01 1.679891e+01 1.322804e+01 2.523872e+01 3.482304e+01 2.267939e+01 2.879810e+01 2.536870e+01 2.420236e+01 3.148011e+01 2.912108e+01 3.658317e+01 2.945734e-01 4.952699e-01 8.235179e-01 7.212679e-01 1.187191e+00 1.819059e+00 1.193233e+00 1.695224e+00 2.111697e+00 1.947667e+00 1.636446e+00 1.768421e+00 2.629019e-01 5.185787e-02 9.531800e-02 1.620902e-01 1.459435e-01 2.805488e-01 4.040237e-01 2.778909e-01 3.302054e-01 3.178150e-01 3.532176e-01 3.253654e-01 4.088492e-01 6.960918e-02 1.281224e-02 2.160444e-02 3.382223e-02 3.263459e-02 5.095101e-02 7.270893e-02 6.279048e-02 7.932285e-02 9.437910e-02 8.878256e-02 7.193303e-02 8.709802e-02 1.062512e-02
<GCONST> 7.652997e+01
<MIXTURE> 2 4.779055e-01
<MEAN> 52
 -9.744565e+00 -2.895559e+00 -3.365439e+00 -4.276830e+00 -2.862492e+00 -2.387501e+00 -3.881623e+00 -1.955206e+00 -1.004898e+00 -7.055677e-01 -2.151916e+00 -1.315343e+00 5.281403e+01 2.299187e-02 -4.972065e-02 -1.650993e-01 -2.776755e-01 -3.032363e-01 -3.073499e-01 -2.946005e-01 -2.273590e-01 -1.219070e-01 -1.029775e-01 -3.366816e-02 -5.406934e-02 -1.108706e-01 -1.089817e-02 -1.988298e-02 -3.488459e-02 -1.865892e-02 -4.232921e-03 3.534640e-03 1.277556e-02 -8.651866e-03 -4.829717e-02 -7.175077e-02 6.651960e-03 3.029568e-02 9.858272e-03 8.246783e-03 1.793124e-02 3.705421e-02 6.643806e-02 6.431753e-02 7.464408e-02 6.765901e-02 4.610215e-02 3.187252e-02 2.721653e-02 8.610188e-03 1.094965e-02 8.981311e-03
<VARIANCE> 52
 1.174180e+01 4.708428e+00 6.991829e+00 1.129836e+01 1.197878e+01 1.569979e+01 1.315303e+01 1.817261e+01 1.728346e+01 1.523278e+01 1.359208e+01 1.438478e+01 1.069395e+01 1.349176e-01 2.170414e-01 3.897870e-01 5.060554e-01 6.266568e-01 9.982125e-01 1.129824e+00 1.317338e+00 1.374847e+00 1.246757e+00 1.063642e+00 1.211032e+00 5.676846e-02 2.602051e-02 4.468968e-02 8.592336e-02 1.370974e-01 1.631588e-01 2.265666e-01 2.374300e-01 2.661783e-01 2.735860e-01 2.649525e-01 1.990043e-01 2.340923e-01 9.331060e-03 5.519542e-03 9.090889e-03 1.719909e-02 2.302192e-02 2.821302e-02 4.960496e-02 5.622607e-02 6.144239e-02 6.391859e-02 5.947980e-02 4.522745e-02 5.931000e-02 2.083862e-03
<GCONST> 4.531790e+01
<MIXTURE> 3 3.297295e-01
<MEAN> 52
 -1.001074e+01 -3.241114e+00 -3.800114e+00 -4.301428e+00 -2.423879e+00 -2.245774e+00 -4.151682e+00 -2.344300e+00 -1.831378e+00 -2.124213e+00 -2.720924e+00 -1.379518e+00 5.339466e+01 1.479148e-01 2.638320e-01 4.546661e-01 7.069864e-01 6.913189e-01 6.703016e-01 5.981596e-01 3.125899e-01 2.246629e-01 8.967055e-02 -1.162034e-02 -1.045422e-02 -6.520393e-02 -2.332170e-03 7.368143e-03 7.218276e-03 4.621789e-03 -7.805045e-03 1.072952e-02 8.454691e-02 1.051286e-01 7.260351e-02 1.004975e-01 4.200001e-02 -2.655746e-02 1.631225e-02 -2.123482e-02 -4.294405e-02 -9.570237e-02 -1.448887e-01 -1.447061e-01 -1.366874e-01 -1.343448e-01 -8.200829e-02 -4.363022e-02 -1.038598e-02 9.204701e-03 6.849158e-03 -3.857901e-03
<VARIANCE> 52
 1.237900e+01 7.531198e+00 7.592032e+00 1.141372e+01 1.063805e+01 1.587194e+01 1.752537e+01 2.261409e+01 1.865702e+01 1.773653e+01 1.613791e+01 1.466105e+01 1.009551e+01 2.067350e-01 3.573596e-01 4.196371e-01 5.757998e-01 6.540954e-01 9.884118e-01 1.118833e+00 1.292208e+00 1.446379e+00 1.361524e+00 1.171220e+00 1.351300e+00 8.534966e-02 3.138477e-02 5.688308e-02 8.786812e-02 1.478590e-01 1.575554e-01 2.395493e-01 2.699704e-01 2.795427e-01 3.132358e-01 2.895186e-01 2.417862e-01 2.548173e-01 1.114043e-02 7.093586e-03 1.347006e-02 1.815004e-02 2.503167e-02 2.872529e-02 4.613221e-02 5.540079e-02 6.232585e-02 6.815599e-02 6.618568e-02 5.402054e-02 6.332395e-02 2.865706e-03
<GCONST> 5.144226e+01
<STATE> 9
<NUMMIXES> 3
<MIXTURE> 1 1.707098e-01
<MEAN> 52
 -5.446705e+00 9.062166e-01 2.530048e+00 -4.111170e+00 -7.388586e+00 -1.744810e+00 -5.430506e+00 -6.956773e+00 -2.706377e+00 -3.563205e+00 1.769423e-01 -4.886032e-02 5.864204e+01 -8.345220e-02 -1.867349e-01 -2.300635e-01 2.483405e-01 2.495584e-01 3.952803e-01 1.079680e-01 -1.503356e-02 3.353336e-01 -9.714403e-03 8.577858e-02 8.363757e-02 -2.480746e-01 -6.679170e-02 -7.550916e-02 3.049106e-02 1.044589e-01 1.065315e-01 5.441495e-02 9.067962e-02 1.137058e-02 -3.858045e-02 7.706328e-03 -2.607643e-02 7.860459e-03 6.381927e-02 2.186965e-02 1.808901e-02 2.859936e-02 -5.843605e-02 -6.869052e-02 -7.065623e-02 -5.495347e-02 -1.047646e-02 -7.045519e-02 -7.160706e-04 -5.891328e-02 -2.315390e-02 3.269139e-02
<VARIANCE> 52
 2.349659e+01 3.566179e+01 1.023625e+02 8.713343e+01 3.538739e+01 3.007392e+01 2.265689e+01 5.861546e+01 2.925869e+01 3.185227e+01 3.193990e+01 1.721564e+01 9.748595e+01 5.055062e-01 1.175035e+00 1.838824e+00 1.432004e+00 1.922081e+00 3.193975e+00 2.505760e+00 1.864756e+00 1.418497e+00 2.120574e+00 2.221752e+00 1.644448e+00 1.031220e+00 1.031354e-01 1.660795e-01 2.456196e-01 1.891463e-01 4.448751e-01 7.085824e-01 4.777885e-01 4.596381e-01 3.289581e-01 4.254535e-01 3.188247e-01 3.942662e-01 1.399714e-01 2.088219e-02 3.582862e-02 5.626465e-02 4.686473e-02 1.084295e-01 1.523716e-01 1.089052e-01 8.449472e-02 6.332146e-02 9.187155e-02 6.723158e-02 7.602050e-02 2.132672e-02
<GCONST> 9.750438e+01
<MIXTURE> 2 4.606774e-01
<MEAN> 52
 -1.005910e+01 -1.292381e+00 -3.168248e+00 -1.586786e+00 1.627415e-01 1.064538e+00 -2.128956e+00 -2.610961e-01 -3.851371e-01 -1.033934e+00 -6.381174e-01 3.657002e-01 4.492579e+01 4.322220e-02 1.663156e-01 7.406660e-02 1.273183e-01 1.297994e-01 2.876655e-02 -3.370195e-02 -1.334273e-02 4.506074e-03 2.472740e-01 1.366113e-01 1.051887e-01 8.959515e-03 -2.679057e-02 -6.130559e-02 -6.883544e-02 -1.622054e-01 -1.785922e-01 -1.954133e-01 -7.678681e-02 -8.844088e-02 -9.550599e-02 -5.903919e-02 -1.146659e-01 -5.683753e-02 4.564603e-02 -3.553680e-03 -2.008368e-02 -1.292296e-02 -2.617389e-02 -3.769280e-02 -5.092995e-03 2.564332e-04 6.388876e-04 -1.219511e-02 -4.803942e-02 -3.981378e-02 -2.747732e-02 8.798975e-03
<VARIANCE> 52
 8.266419e+00 5.550807e+00 1.333634e+01 1.369206e+01 1.212016e+01 1.265918e+01 1.433655e+01 1.725384e+01 1.490452e+01 1.615042e+01 1.560007e+01 1.284251e+01 5.080336e+01 2.323849e-01 3.767012e-01 5.960453e-01 9.063277e-01 1.212596e+00 1.591659e+00 1.317763e+00 1.508732e+00 1.906464e+00 1.923223e+00 1.680305e+00 1.462028e+00 1.058593e-01 5.181357e-02 1.001650e-01 1.326895e-01 1.870413e-01 2.811059e-01 3.143598e-01 2.692806e-01 3.022023e-01 3.588049e-01 3.604285e-01 3.409633e-01 2.715102e-01 2.099652e-02 1.155697e-02 1.904914e-02 2.395874e-02 4.236143e-02 6.580219e-02 8.205529e-02 6.303958e-02 7.499076e-02 9.710252e-02 1.013773e-01 8.461224e-02 7.288966e-02 6.619032e-03
<GCONST> 6.530662e+01
<MIXTURE> 3 3.686127e-01
<MEAN> 52
 -9.025900e+00 -3.048735e+00 -4.960432e+00 -4.377694e+00 -3.053671e+00 -2.094112e+00 -3.603614e+00 -2.365121e+00 -1.943956e+00 -1.322979e+00 -2.217407e+00 -1.005021e+00 5.145271e+01 -1.488315e-01 -3.187796e-01 -5.086671e-01 -6.238425e-01 -5.296180e-01 -8.444604e-02 -4.269660e-02 -2.308563e-01 -3.303511e-01 -3.739021e-01 -4.309221e-01 -1.781307e-01 -5.673229e-02 -1.049306e-02 5.408579e-02 1.332429e-01 1.564823e-01 1.177346e-01 1.261305e-01 1.882113e-02 1.307838e-01 9.561709e-02 -1.389578e-02 -3.365824e-02 -3.073495e-02 8.025247e-02 6.181614e-02 1.235183e-01 1.579916e-01 1.661979e-01 1.313396e-01 3.335958e-02 -3.121010e-02 2.301632e-02 5.501432e-02 7.767230e-02 8.439014e-02 4.521440e-02 7.654712e-02
<VARIANCE> 52
 9.158040e+00 8.125377e+00 9.916035e+00 1.230932e+01 1.387977e+01 1.632344e+01 1.820530e+01 1.583657e+01 1.905447e+01 1.997998e+01 1.731227e+01 2.048543e+01 2.286747e+01 3.044743e-01 4.252446e-01 7.055989e-01 8.759956e-01 1.160294e+00 1.715832e+00 1.558246e+00 2.125055e+00 1.427609e+00 1.395009e+00 1.508085e+00 1.417317e+00 1.444350e-01 6.018421e-02 8.863921e-02 1.247378e-01 1.890446e-01 2.348846e-01 2.576659e-01 3.024031e-01 3.442585e-01 3.499094e-01 3.126469e-01 2.924684e-01 3.224747e-01 3.164538e-02 2.111551e-02 2.058130e-02 2.927321e-02 4.251491e-02 6.326559e-02 8.201222e-02 8.477480e-02 1.072943e-01 7.313802e-02 5.836295e-02 6.793468e-02 7.089920e-02 1.555478e-02
<GCONST> 6.816592e+01
<STATE> 10
<NUMMIXES> 3
<MIXTURE> 1 2.828626e-01
<MEAN> 52
 -9.277498e+00 -3.069313e+00 -4.166725e+00 -5.257731e+00 -4.005943e+00 -2.420180e+00 -3.320960e+00 -2.392807e+00 -1.797066e+00 -2.104064e+00 -2.842533e+00 -1.434562e+00 5.332335e+01 4.113637e-02 2.345881e-01 3.325074e-01 2.812476e-01 1.262715e-01 5.472328e-02 2.403676e-01 2.847565e-01 -1.220228e-01 1.564224e-01 2.219544e-01 1.957241e-01 2.886816e-03 1.635769e-02 4.502052e-03 8.807290e-02 1.438739e-01 1.847451e-01 4.613877e-02 -3.714896e-02 1.019790e-01 1.018293e-01 1.188836e-01 6.796232e-02 7.181066e-02 6.148972e-02 -8.639002e-04 -1.830833e-02 -3.327973e-02 -4.026242e-02 1.172077e-03 -1.349199e-02 -5.506791e-02 -5.368084e-02 1.831913e-02 -2.675769e-02 -4.568274e-02 -3.838345e-02 3.639258e-02
<VARIANCE> 52
 8.208140e+00 8.751861e+00 9.382781e+00 8.204617e+00 1.569733e+01 2.031003e+01 1.681363e+01 1.501044e+01 1.474093e+01 1.758873e+01 2.257547e+01 1.771590e+01 9.910452e+00 3.051816e-01 2.842996e-01 6.619357e-01 7.478967e-01 1.082261e+00 1.165144e+00 1.161803e+00 1.439830e+00 1.364227e+00 1.924975e+00 2.640213e+00 1.617813e+00 1.238652e-01 5.545798e-02 8.469884e-02 1.536380e-01 1.897234e-01 2.369532e-01 2.592326e-01 2.254196e-01 3.520027e-01 2.465261e-01 3.171266e-01 5.429708e-01 2.840674e-01 2.484904e-02 1.313798e-02 1.370398e-02 3.512643e-02 2.924952e-02 3.935176e-02 3.939843e-02 4.587456e-02 5.317233e-02 4.649429e-02 7.825809e-02 1.191113e-01 6.151087e-02 7.176968e-03
<GCONST> 6.146307e+01
<MIXTURE> 2 3.407637e-01
<MEAN> 52
 -9.618950e+00 -3.897604e+00 -3.982637e+00 -3.999606e+00 -2.867436e+00 -1.566348e+00 -3.104561e+00 -7.192430e-01 -1.667779e+00 -1.471606e+00 -2.537460e+00 -6.633535e-01 5.283035e+01 -9.340413e-02 1.585432e-01 1.618842e-01 1.251694e-02 1.848779e-01 4.245130e-01 1.346725e-01 6.124629e-01 6.106198e-01 5.881836e-01 2.622350e-02 1.023002e-01 8.417725e-02 2.019824e-01 3.641545e-01 4.379178e-01 1.862993e-01 5.768469e-02 -1.327634e-01 -2.435093e-01 -3.318071e-01 -1.436474e-01 -8.900159e-02 3.007507e-02 -7.607578e-02 4.589870e-01 1.307256e-01 8.375756e-02 2.044314e-01 4.294103e-02 -1.329905e-01 -1.757384e-01 -1.898988e-01 -2.092931e-01 -2.408412e-01 -1.672820e-01 -8.413647e-03 -2.823383e-02 2.148190e-01
<VARIANCE> 52
 7.787815e+00 1.458271e+01 1.500112e+01 1.438285e+01 1.750120e+01 2.086761e+01 2.604011e+01 2.513853e+01 2.058428e+01 2.615533e+01 2.115104e+01 2.040156e+01 1.589586e+01 2.425695e-01 6.297313e-01 9.693514e-01 1.015783e+00 1.363790e+00 1.912228e+00 1.781010e+00 1.850865e+00 1.532108e+00 1.400320e+00 1.763913e+00 1.279577e+00 3.121616e-01 2.186294e-01 1.784377e-01 2.545763e-01 2.809937e-01 3.941718e-01 4.741970e-01 5.468449e-01 4.817622e-01 4.160682e-01 3.815748e-01 4.023826e-01 3.082312e-01 2.072618e-01 2.469755e-02 4.179826e-02 6.288703e-02 5.657575e-02 8.496171e-02 9.429288e-02 8.702777e-02 9.568820e-02 6.500814e-02 7.558316e-02 9.241997e-02 7.277936e-02 2.347337e-02
<GCONST> 8.325990e+01
<MIXTURE> 3 3.763737e-01
<MEAN> 52
 -9.735343e+00 -3.237513e+00 -2.753992e+00 -2.877380e+00 -1.648178e+00 -8.764431e-01 -2.727098e+00 -1.690169e+00 -2.267507e+00 -1.531570e+00 -1.676961e+00 -2.192720e-02 5.367345e+01 4.041040e-01 6.576941e-01 7.969556e-01 7.186788e-01 4.659106e-01 7.996701e-02 -5.770439e-01 -7.578395e-01 -8.156721e-01 -5.290246e-01 -5.327839e-01 -4.796362e-01 5.526529e-01 2.940045e-01 2.301127e-01 3.280863e-01 1.036629e-01 -1.857780e-01 -3.155169e-01 -4.238250e-01 -1.370618e-01 -2.226173e-01 -1.484281e-01 -1.829590e-01 -1.153134e-01 3.824851e-01 -3.966330e-02 -1.190426e-01 -3.401624e-02 -1.240963e-01 -1.680189e-01 -3.545307e-02 -1.049823e-02 1.420837e-01 1.230179e-01 1.011440e-01 8.705326e-02 8.845349e-02 6.735129e-02
<VARIANCE> 52
 1.000241e+01 1.700923e+01 1.750997e+01 2.025997e+01 2.862526e+01 2.286023e+01 2.501170e+01 2.629987e+01 2.182675e+01 2.527163e+01 2.158143e+01 1.687837e+01 2.135113e+01 1.214891e+00 2.070835e+00 1.710650e+00 1.863113e+00 2.697237e+00 2.191535e+00 2.069762e+00 2.024124e+00 1.776236e+00 2.112828e+00 2.025565e+00 1.660789e+00 8.245884e-01 3.367833e-01 3.313367e-01 3.887378e-01 3.956261e-01 5.392899e-01 4.962829e-01 5.893044e-01 6.361102e-01 4.488582e-01 5.011224e-01 4.538312e-01 4.063338e-01 3.080545e-01 4.198251e-02 7.986684e-02 5.790394e-02 7.274628e-02 1.254198e-01 8.711281e-02 1.046228e-01 9.463516e-02 7.120138e-02 9.674250e-02 8.816092e-02 7.899547e-02 5.203078e-02
<GCONST> 9.853133e+01
<STATE> 11
<NUMMIXES> 3
<MIXTURE> 1 4.986696e-01
<MEAN> 52
 -8.142097e+00 1.959490e-01 7.450107e-02 -1.357286e+00 -5.831972e-01 -8.777428e-01 -4.481680e+00 -3.584857e+00 -4.298700e+00 -2.354690e+00 -2.846620e+00 -8.584467e-01 5.606005e+01 2.119726e+00 2.015884e+00 2.714617e+00 8.405845e-01 -8.309471e-01 -1.383952e+00 -2.183755e+00 -9.379396e-01 -1.303472e+00 -4.759504e-01 -6.023748e-01 -3.177164e-01 2.269271e+00 2.561419e-01 -1.510703e-01 4.552412e-01 -2.833865e-01 -7.105315e-01 -3.888715e-01 -5.225701e-01 5.152696e-02 -1.128491e-01 7.274529e-02 -7.604145e-03 5.167726e-02 6.694806e-01 -3.481885e-01 -3.862950e-01 -3.162136e-01 -2.116040e-01 -4.770774e-02 2.259236e-01 2.707939e-01 1.816539e-01 1.909460e-01 1.102668e-01 1.275233e-01 6.855585e-02 -1.355695e-01
<VARIANCE> 52
 2.044568e+01 3.312066e+01 3.153959e+01 2.470858e+01 3.367126e+01 3.689874e+01 3.505976e+01 2.971075e+01 2.780526e+01 2.824797e+01 3.121934e+01 2.516764e+01 4.006257e+01 1.791378e+00 2.493372e+00 4.547213e+00 4.069582e+00 5.384770e+00 5.588656e+00 5.686568e+00 5.066947e+00 4.399534e+00 3.386836e+00 3.548206e+00 3.502462e+00 3.520166e+00 4.350673e-01 8.696907e-01 7.304589e-01 4.839110e-01 7.046816e-01 7.039449e-01 8.607869e-01 6.637822e-01 6.133153e-01 6.438122e-01 6.086270e-01 4.780296e-01 6.365614e-01 6.783045e-02 9.947458e-02 1.514586e-01 1.138025e-01 2.304013e-01 2.275775e-01 2.224499e-01 2.123531e-01 1.642079e-01 1.616678e-01 1.355380e-01 1.568205e-01 1.413894e-01
<GCONST> 1.271178e+02
<MIXTURE> 2 2.264429e-01
<MEAN> 52
 -9.052374e+00 -2.635663e+00 -3.543613e+00 -3.375076e+00 -9.510682e-01 -5.865858e-01 -2.861478e+00 -2.138959e+00 -4.548697e-01 -8.708645e-01 -1.281084e+00 -3.672805e-01 5.398708e+01 8.814223e-03 -1.194094e-01 -5.124520e-02 1.517021e-01 6.640254e-01 3.222604e-01 2.020543e-02 9.768837e-02 2.117631e-01 -3.237898e-02 -5.630517e-03 8.512515e-02 2.972290e-01 -4.192526e-02 -5.715689e-02 -9.006388e-02 -6.141178e-02 -2.191225e-02 5.733352e-04 -3.721823e-02 2.424410e-02 1.640445e-02 -1.245115e-01 -6.944163e-02 -1.430908e-02 -1.030139e-02 -5.059911e-03 9.723760e-03 4.345639e-03 -2.999877e-02 -6.606492e-02 -1.409112e-02 4.038314e-03 -5.743022e-03 -3.592829e-02 -1.604566e-02 -7.859728e-03 -8.616371e-03 -2.202229e-02
<VARIANCE> 52
 1.733096e+01 6.114799e+00 9.155473e+00 1.071912e+01 1.971511e+01 1.672197e+01 1.623679e+01 1.851462e+01 1.477672e+01 2.247868e+01 1.755080e+01 1.781585e+01 1.347269e+01 3.757049e-01 2.715825e-01 6.732081e-01 1.008531e+00 3.685138e+00 1.881664e+00 1.913075e+00 2.304208e+00 1.449800e+00 1.901849e+00 2.063696e+00 1.584827e+00 6.733023e-01 3.156622e-02 3.325269e-02 7.914618e-02 8.372041e-02 2.161000e-01 1.577622e-01 1.557193e-01 1.647837e-01 1.988254e-01 2.556722e-01 1.529341e-01 1.170402e-01 4.978396e-02 5.128147e-03 5.142936e-03 1.509783e-02 1.596494e-02 3.948580e-02 1.754493e-02 2.906109e-02 2.918917e-02 2.798138e-02 3.096785e-02 3.531461e-02 2.812498e-02 6.579232e-03
<GCONST> 5.189856e+01
<MIXTURE> 3 2.748876e-01
<MEAN> 52
 -9.759016e+00 -2.509977e+00 -3.418507e+00 -3.533406e+00 -2.719878e+00 -1.328467e+00 -3.105011e+00 -3.115009e+00 -2.374863e+00 -1.699897e+00 -2.877270e+00 -1.890419e+00 5.497468e+01 -1.346289e+00 -5.744975e-02 2.657545e-01 -5.149972e-02 -4.316850e-01 -3.526799e-01 2.013675e-02 -7.765179e-01 -1.268870e-01 -2.634859e-01 7.607903e-01 -1.872530e-02 2.777988e+00 2.450976e-01 3.200597e-01 9.485919e-01 4.563425e-02 -4.857854e-01 1.482770e-02 -3.432691e-01 -1.451802e-01 -5.182749e-01 -1.572504e-01 3.150076e-01 4.733500e-02 7.893639e-01 3.207234e-01 8.361266e-02 2.214049e-01 1.317096e-02 -1.244658e-01 6.690518e-02 -1.499481e-01 1.636596e-01 -1.788391e-01 8.662322e-03 -1.169599e-01 -3.526969e-02 -2.907634e-01
<VARIANCE> 52
 1.225306e+01 2.144952e+01 1.834992e+01 2.303160e+01 3.186584e+01 2.359384e+01 2.862855e+01 2.860472e+01 2.350543e+01 1.620539e+01 1.764622e+01 1.859307e+01 3.347688e+01 8.417416e-01 3.173147e+00 4.066433e+00 2.348647e+00 4.742610e+00 3.977486e+00 3.922631e+00 3.163572e+00 3.213089e+00 2.255481e+00 2.264507e+00 1.848545e+00 3.195347e+00 3.007505e-01 4.005047e-01 9.613138e-01 4.802341e-01 7.712430e-01 6.525713e-01 7.859184e-01 5.678205e-01 7.250456e-01 5.981376e-01 4.106661e-01 5.583484e-01 5.745281e-01 3.478743e-02 1.462337e-01 1.551168e-01 1.049398e-01 2.000706e-01 1.849037e-01 1.791017e-01 1.385373e-01 1.250893e-01 1.195791e-01 1.033417e-01 1.082201e-01 1.217620e-01
<GCONST> 1.145944e+02
<TRANSP> 12
 0.000000e+00 1.000000e+00 0.000000e+00 0.000000e+00 0.000000e+00 0.000000e+00 0.000000e+00 0.000000e+00 0.000000e+00 0.000000e+00 0.000000e+00 0.000000e+00
 0.000000e+00 6.248174e-01 3.751826e-01 0.000000e+00 0.000000e+00 0.000000e+00 0.000000e+00 0.000000e+00 0.000000e+00 0.000000e+00 0.000000e+00 0.000000e+00
 0.000000e+00 0.000000e+00 8.943322e-01 1.056678e-01 0.000000e+00 0.000000e+00 0.000000e+00 0.000000e+00 0.000000e+00 0.000000e+00 0.000000e+00 0.000000e+00
 0.000000e+00 0.000000e+00 0.000000e+00 7.330723e-01 2.669276e-01 0.000000e+00 0.000000e+00 0.000000e+00 0.000000e+00 0.000000e+00 0.000000e+00 0.000000e+00
 0.000000e+00 0.000000e+00 0.000000e+00 0.000000e+00 7.489483e-01 2.510518e-01 0.000000e+00 0.000000e+00 0.000000e+00 0.000000e+00 0.000000e+00 0.000000e+00
 0.000000e+00 0.000000e+00 0.000000e+00 0.000000e+00 0.000000e+00 8.152296e-01 1.847704e-01 0.000000e+00 0.000000e+00 0.000000e+00 0.000000e+00 0.000000e+00
 0.000000e+00 0.000000e+00 0.000000e+00 0.000000e+00 0.000000e+00 0.000000e+00 7.719941e-01 2.280059e-01 0.000000e+00 0.000000e+00 0.000000e+00 0.000000e+00
 0.000000e+00 0.000000e+00 0.000000e+00 0.000000e+00 0.000000e+00 0.000000e+00 0.000000e+00 8.660048e-01 1.339952e-01 0.000000e+00 0.000000e+00 0.000000e+00
 0.000000e+00 0.000000e+00 0.000000e+00 0.000000e+00 0.000000e+00 0.000000e+00 0.000000e+00 0.000000e+00 7.326598e-01 2.673402e-01 0.000000e+00 0.000000e+00
 0.000000e+00 0.000000e+00 0.000000e+00 0.000000e+00 0.000000e+00 0.000000e+00 0.000000e+00 0.000000e+00 0.000000e+00 6.756244e-01 3.243757e-01 0.000000e+00
 0.000000e+00 0.000000e+00 0.000000e+00 0.000000e+00 0.000000e+00 0.000000e+00 0.000000e+00 0.000000e+00 0.000000e+00 0.000000e+00 5.182977e-01 4.817023e-01
 0.000000e+00 0.000000e+00 0.000000e+00 0.000000e+00 0.000000e+00 0.000000e+00 0.000000e+00 0.000000e+00 0.000000e+00 0.000000e+00 0.000000e+00 0.000000e+00
<ENDHMM>
