~o
<STREAMINFO> 1 13
<VECSIZE> 13<NULLD><MFCC_0><DIAGC>
~h "sil"
<BEGINHMM>
<NUMSTATES> 6
<STATE> 2
<MEAN> 13
 -7.298839e+00 -3.581867e+00 -5.947965e+00 -5.370269e+00 -1.307431e+00 -1.104275e+00 -2.973085e+00 -1.423627e+00 -4.376893e-01 1.012590e+00 -2.734698e+00 -4.347937e+00 5.632731e+01
<VARIANCE> 13
 1.831125e+01 1.425128e+01 1.867726e+01 2.896291e+01 3.273734e+01 2.711061e+01 2.534469e+01 2.552802e+01 2.479920e+01 2.797508e+01 2.211362e+01 2.346595e+01 1.850956e+01
<GCONST> 6.472304e+01
<STATE> 3
<MEAN> 13
 -9.203005e+00 -2.710976e+00 -3.002412e+00 -2.176475e+00 -1.642086e+00 -1.074188e+00 -2.786923e+00 -1.155771e+00 -1.394639e+00 -1.336003e+00 -1.709499e+00 -5.205811e-01 4.916902e+01
<VARIANCE> 13
 8.305193e+00 7.917933e+00 1.067607e+01 1.268326e+01 1.779164e+01 1.839306e+01 1.623845e+01 2.006840e+01 1.771063e+01 1.728591e+01 1.755541e+01 1.599204e+01 2.456502e+01
<GCONST> 5.912676e+01
<STATE> 4
<MEAN> 13
 -1.136312e+01 -5.574717e+00 -2.717697e+00 -3.200900e+00 -1.535313e+00 -2.747150e+00 -3.022022e+00 -1.334833e+00 -2.102052e+00 -2.439551e+00 -3.195678e-01 -6.085054e-01 5.906506e+01
<VARIANCE> 13
 2.194879e+01 3.119502e+01 3.246525e+01 2.900300e+01 4.649187e+01 4.038908e+01 3.540585e+01 4.140136e+01 3.195246e+01 2.953914e+01 2.893207e+01 2.352876e+01 2.595701e+01
<GCONST> 6.872655e+01
<STATE> 5
<MEAN> 13
 -9.005664e+00 -2.507344e+00 -3.370647e+00 -4.538815e+00 -2.870988e+00 -2.338000e+00 -3.979113e+00 -2.392659e+00 -1.552527e+00 -1.701595e+00 -2.453655e+00 -8.811786e-01 5.409060e+01
<VARIANCE> 13
 8.934044e+00 9.203082e+00 1.211519e+01 1.479485e+01 1.589696e+01 1.942016e+01 2.034701e+01 2.167774e+01 2.060747e+01 1.950215e+01 1.945652e+01 1.631663e+01 8.522103e+00
<GCONST> 5.921142e+01
<TRANSP> 6
 0.000000e+00 1.000000e+00 0.000000e+00 0.000000e+00 0.000000e+00 0.000000e+00
 0.000000e+00 8.573750e-01 1.426251e-01 0.000000e+00 0.000000e+00 0.000000e+00
 0.000000e+00 0.000000e+00 9.200169e-01 7.998309e-02 0.000000e+00 0.000000e+00
 0.000000e+00 0.000000e+00 0.000000e+00 8.659504e-01 1.340496e-01 0.000000e+00
 0.000000e+00 0.000000e+00 0.000000e+00 0.000000e+00 9.391748e-01 6.082526e-02
 0.000000e+00 0.000000e+00 0.000000e+00 0.000000e+00 0.000000e+00 0.000000e+00
<ENDHMM>
