~o
<STREAMINFO> 1 13
<VECSIZE> 13<NULLD><MFCC_0><DIAGC>
~h "lx"
<BEGINHMM>
<NUMSTATES> 6
<STATE> 2
<MEAN> 13
 -3.963395e+00 4.678757e+00 1.137876e+01 -4.671618e+00 -1.300018e+01 -3.010410e+00 -1.110853e+01 -5.903587e+00 -9.795359e+00 -1.606605e+00 -1.196840e+00 -3.594331e+00 6.985863e+01
<VARIANCE> 13
 1.428288e+01 3.245074e+01 4.690637e+01 9.154556e+01 5.843313e+01 6.414760e+01 8.016397e+01 7.003635e+01 4.622521e+01 5.269884e+01 8.198296e+01 3.829027e+01 3.766905e+01
<GCONST> 7.473700e+01
<STATE> 3
<MEAN> 13
 -2.451223e+01 9.954397e+00 2.649585e+00 -3.159026e+00 -2.424526e+00 -4.156457e+00 -4.475792e-01 -5.985577e+00 -3.722504e+00 -2.151747e+00 -2.207222e+00 -1.092463e+00 6.947382e+01
<VARIANCE> 13
 4.720939e+01 2.845055e+01 4.690499e+01 3.428178e+01 2.500066e+01 2.878638e+01 3.784582e+01 3.710341e+01 2.469051e+01 2.569555e+01 2.595044e+01 2.077752e+01 2.046284e+01
<GCONST> 6.806534e+01
<STATE> 4
<MEAN> 13
 -9.147787e+00 3.511731e+00 1.543348e+01 -9.164530e+00 -1.476678e+01 -4.546082e+00 -1.736247e+01 -8.425538e+00 -1.329152e+01 -4.096103e+00 -3.040974e+00 -3.761463e+00 7.107760e+01
<VARIANCE> 13
 1.552220e+01 2.620043e+01 4.278815e+01 8.996693e+01 2.803551e+01 4.045029e+01 4.558083e+01 6.822137e+01 2.542423e+01 4.666541e+01 7.858684e+01 3.484138e+01 2.892762e+01
<GCONST> 7.159046e+01
<STATE> 5
<MEAN> 13
 -5.444555e+00 2.830144e+00 1.050031e+01 6.043268e-01 -9.261919e+00 -2.976322e+00 -7.581419e+00 -6.191290e+00 -5.389925e+00 -5.209447e+00 -6.605884e-01 -2.485668e+00 6.474049e+01
<VARIANCE> 13
 1.502636e+01 3.046426e+01 6.573730e+01 3.535730e+01 7.445014e+01 6.255241e+01 4.398005e+01 3.836351e+01 2.823082e+01 5.708220e+01 3.665102e+01 2.695308e+01 7.592576e+01
<GCONST> 7.225712e+01
<TRANSP> 6
 0.000000e+00 1.000000e+00 0.000000e+00 0.000000e+00 0.000000e+00 0.000000e+00
 0.000000e+00 9.417984e-01 5.820165e-02 0.000000e+00 0.000000e+00 0.000000e+00
 0.000000e+00 0.000000e+00 9.120193e-01 8.798074e-02 0.000000e+00 0.000000e+00
 0.000000e+00 0.000000e+00 0.000000e+00 9.091343e-01 9.086566e-02 0.000000e+00
 0.000000e+00 0.000000e+00 0.000000e+00 0.000000e+00 8.814777e-01 1.185223e-01
 0.000000e+00 0.000000e+00 0.000000e+00 0.000000e+00 0.000000e+00 0.000000e+00
<ENDHMM>
